svm_type c_svc
kernel_type rbf
gamma 0.5
nr_class 5
total_sv 236
rho 0.354316 0.704625 0.00581359 0.714481 0.251691 1.67308 0.683518 -0.169275 0.224885 0.582373
label 1 3 6 8 9
nr_sv 29 56 45 50 56
SV
0 0 0 13.40062999147534 1:-0.602015 3:0.0951456 4:-0.378035 5:0.369369 6:-0.430303 7:-0.115207 8:-0.0751445 9:-0.569989 
0 12.21493852810742 0 0 1:-0.632242 2:0.00187617 3:0.0291262 4:-0.39422 5:0.312312 6:-0.444848 7:-0.179724 8:-0.0751445 9:-0.576708 
0 0 0 4.203597561238497 1:-0.29471 2:-0.193246 3:0.386408 4:0.412717 5:0.471471 6:-0.381818 7:-0.668203 8:-0.368015 9:-0.106383 
0.5979675631464636 0 0 0 1:-0.29471 2:-0.172608 3:0.394175 4:0.412717 5:0.486486 6:-0.355152 7:-0.668203 8:-0.360308 9:-0.0772676 
5.673418667365477 0 2.309489549259818 0 1:-0.319899 2:-0.172608 3:0.394175 4:0.396532 5:0.471471 6:-0.369697 7:-0.695853 8:-0.368015 9:-0.0907055 
0.01446971597575095 0 0.2349820657734992 0 1:-0.29471 2:-0.39212 3:0.394175 4:0.0890173 5:-0.0960961 6:-0.464242 7:-0.0691244 8:-0.294798 9:-0.370661 
0 0 0 0.8532398737188545 1:-0.0277078 2:-0.0750469 3:0.763107 4:0.482081 5:0.975976 6:-0.0327273 7:-0.0875576 8:-0.487476 9:0.381859 
1.2399731353341 0 1.311201631577905 0 1:-0.0680101 2:-0.198874 3:0.549515 4:0.269364 5:0.750751 6:-0.204848 7:-0.658986 8:-0.526012 9:0.24972 
0 0 0 9.225452527964766 1:-0.0629723 2:-0.183865 3:0.580583 4:0.255491 5:0.744745 6:-0.192727 7:-0.62212 8:-0.518304 9:0.265398 
0 3.358299899017497 0 0 1:-0.712846 2:-0.287054 3:0.751456 4:-0.421965 5:0.411411 6:-0.224242 7:-0.456221 8:-0.82659 9:0.155655 
0 0 0 6.215360071055426 1:-0.647355 2:0.183865 3:0.0330097 4:-0.449711 5:0.222222 6:-0.396364 7:-0.0875576 8:0.179191 9:-0.632699 
0.03712031129921491 0 0.1574631649455137 0 1:-0.395466 2:-0.114447 3:0.359223 4:-0.0450867 5:-0.231231 6:-0.425455 7:0.115207 8:-0.152216 9:-0.357223 
0 0 0 1.810257999194092 1:-0.38539 2:-0.114447 3:0.378641 4:-0.0427746 5:-0.213213 6:-0.418182 7:0.142857 8:-0.152216 9:-0.348264 
0 0 1.282550313476758 0 1:-0.783375 2:-0.469043 3:0.669903 4:-0.655491 5:0.165165 6:-0.318788 7:-0.354839 8:-0.922929 9:0.0481523 
0 3.029085561931026 0 0 1:-0.712846 2:-0.425891 3:0.673786 4:-0.673988 5:0.144144 6:-0.309091 7:-0.179724 8:-0.830443 9:0.0615901 
0 0 0 4.684699246243433 1:-0.652393 2:0.281426 3:0.0601942 4:-0.516763 5:0.198198 6:-0.292121 7:-0.0230415 8:0.22158 9:-0.601344 
0 0 0 11.61533375721618 1:-0.687657 2:0.354597 3:-0.0640777 4:-0.542197 5:0.105105 6:-0.328485 7:-0.105991 8:0.267823 9:-0.690929 
2.343669102028525 6.664686011049093 2.125330258156551 0 1:-0.702771 2:0.35272 3:-0.0796117 4:-0.53526 5:0.0960961 6:-0.330909 7:-0.142857 8:0.279383 9:-0.697648 
0 0.1907780599517568 0 0 1:-0.95466 2:-0.373358 3:0.21165 4:-0.738728 5:0.324324 6:-0.735758 7:-0.170507 8:-0.387283 9:-0.87682 
2.005937846521964 9.219163760098647 3.312631518999388 0 1:-0.465995 2:0.0881801 3:0.467961 4:0.0358382 5:0.627628 6:-0.185455 7:-0.382488 8:-0.186898 9:0.50056 
0 0 0 0.5295817570594704 1:-0.425693 2:-0.00187617 3:0.413592 4:-0.158382 5:-0.276276 6:-0.372121 7:0.281106 8:-0.121387 9:-0.31243 
1.566638550140213 2.806356226290259 1.43550036409271 0 1:-0.43073 3:0.394175 4:-0.16763 5:-0.297297 6:-0.37697 7:0.271889 8:-0.125241 9:-0.316909 
0 1.739056433192549 0 1.408044885329445 1:-0.0327456 2:-0.63227 3:0.949515 4:0.315607 5:0.840841 6:-0.0981818 7:0.511521 8:-0.753372 9:0.350504 
0.1798887890755878 0 0 0 1:-0.0377834 2:-0.667917 3:1 4:0.310983 5:0.876877 6:-0.0763636 7:0.529954 8:-0.757225 9:0.368421 
0 4.630532644703687 0 0 1:-0.183879 2:-0.457786 3:0.603883 4:-0.116763 5:0.498498 6:-0.270303 7:-0.152074 8:-0.645472 9:0.222844 
0 0 0.2970025407007332 0 1:-0.738035 2:-0.4803 3:0.700971 4:-0.923699 5:-0.0870871 6:-0.335758 7:-0.0322581 8:-0.726397 9:-0.00111982 
0.999614066579096 0 0 0 1:-0.748111 2:-0.4803 3:0.700971 4:-0.923699 5:-0.0870871 6:-0.34303 7:-0.0414747 8:-0.734104 9:-0.00111982 
0 0 0 0.02512130553653728 1:-0.738035 2:-0.478424 3:0.704854 4:-0.921387 5:-0.0840841 6:-0.335758 7:-0.0322581 8:-0.734104 9:-0.00111982 
0 0.8461051554173878 0 0 1:-0.783375 2:-0.407129 3:0.732039 4:-0.90289 5:-0.0510511 6:-0.299394 7:-0.0138249 8:-0.699422 9:0.0324748 
-0 0 32 0 1:0.11335 2:0.709193 3:0.0563107 4:0.123699 5:0.126126 6:0.231515 7:-0.391705 8:0.348748 9:0.131019 
-0 0 32 0 1:0.11335 2:0.709193 3:0.0640777 4:0.123699 5:0.129129 6:0.231515 7:-0.373272 8:0.348748 9:0.135498 
-0 0 32 0 1:0.163728 2:0.709193 3:0.0368932 4:0.121387 5:0.129129 6:0.231515 7:-0.345622 8:0.387283 9:0.101904 
-0 0 0 0.2056375463382132 1:0.0831234 2:0.709193 3:-0.0135922 4:0.100578 5:0.12012 6:0.0739394 7:-0.364055 8:0.344894 9:0.0391937 
-0 0 32 0 1:0.0881612 2:0.709193 3:0.0291262 4:0.10289 5:0.165165 6:0.0909091 7:-0.364055 8:0.344894 9:0.0862262 
-0 3.756927812143258 18.64971719347826 1.145390030200066 1:0.108312 2:0.703565 3:0.0368932 4:0.0936416 5:0.177177 6:0.0860606 7:-0.345622 8:0.352601 9:0.0795073 
-0 0 1.592057626746476 0 1:-0.390428 2:0.20075 3:0.207767 4:-0.0381503 5:0.177177 6:0.747879 7:-0.474654 8:-0.213873 9:0.263158 
-0.5668840279496709 0.02452713858495977 0 0 1:-0.440806 2:0.153846 3:0.227184 4:-0.0381503 5:0.21021 6:0.77697 7:-0.502304 8:-0.256262 9:0.294513 
-0 0 0 0.6567636290326889 1:0.415617 2:0.210131 3:-0.825243 4:0.856647 5:-0.78979 6:-0.784242 7:-0.483871 8:0.0751445 9:-0.540873 
-0 0.394058660562155 2.294299522811412 0 1:0.314861 2:0.170732 3:-0.786408 4:0.812717 5:-0.591592 6:-0.740606 7:-0.502304 8:-0.105973 9:-0.473684 
-0 0 2.615983957260247 0 1:0.289673 2:0.178236 3:-0.638835 4:0.817341 5:-0.531532 6:-0.701818 7:-0.576037 8:-0.16763 9:-0.453527 
-5.201252323805496 0 0 0 1:0.0881612 2:0.0187617 3:0.238835 4:0.528324 5:0.573574 6:-0.287273 7:-0.97235 8:-0.260116 9:0.075028 
-0 0 0 5.524506334732154 1:0.108312 2:0.206379 3:0.250485 4:0.537572 5:0.615616 6:-0.229091 7:-0.953917 8:-0.210019 9:0.0974244 
-0 1.033707828273966 0 0 1:0.0730479 2:0.217636 3:0.207767 4:0.505202 5:0.600601 6:-0.250909 7:-0.917051 8:-0.179191 9:0.0996641 
-0.4652703355680088 0.6047549496502794 0 0.4067210813292611 1:0.793451 2:-0.750469 3:0.215534 4:0.986127 5:0.273273 6:-0.432727 7:0.852535 8:-0.591522 9:0.0593505 
-0 0 0.2010948957603654 0.0382761032424739 1:0.793451 2:-0.750469 3:0.184466 4:0.986127 5:0.261261 6:-0.486061 7:0.843318 8:-0.591522 9:0.0548712 
-0.1103743235579703 0 0 1.59762703270909 1:0.793451 2:-0.196998 3:0.238835 4:0.974566 5:0.408408 6:-0.187879 7:0.806452 8:-0.387283 9:0.209406 
-0 1.558904153796729 0 0 1:0.803526 2:-0.17636 3:0.231068 4:0.972254 5:0.402402 6:-0.187879 7:0.843318 8:-0.375723 9:0.213886 
-0 0 3.087012701873185 0 1:0.803526 2:-0.168856 3:0.231068 4:0.979191 5:0.402402 6:-0.18303 7:0.843318 8:-0.375723 9:0.213886 
-0.314279147264622 0 0 0 1:0.7733 2:-0.198874 3:0.219417 4:0.96763 5:0.381381 6:-0.202424 7:0.824885 8:-0.39499 9:0.198208 
-0 1.256185845767049 0 2.028662494533275 1:0.576826 2:-1 3:-0.153398 4:0.537572 5:-0.135135 6:-0.949091 7:-0.668203 8:-0.895954 9:-0.245241 
-0 0 0 9.677418376004143 1:-0.415617 2:0.407129 3:0.370874 4:-0.514451 5:0.03003 6:-0.0836364 7:-0.373272 8:0.144509 9:0.133259 
-0 28.91016003843607 0 0 1:-0.410579 2:0.532833 3:0.405825 4:-0.468208 5:0.177177 6:-0.0109091 7:-0.364055 8:0.194605 9:0.225084 
-0 0 0 5.257304023716222 1:-0.445844 2:0.470919 3:0.343689 4:-0.449711 5:0.108108 6:-0.0545455 7:-0.400922 8:0.0558767 9:0.173572 
-0 0 0 3.581193804997285 1:-0.425693 2:0.470919 3:0.316505 4:-0.45896 5:0.0750751 6:-0.0836364 7:-0.447005 8:0.0481696 9:0.137738 
-4.393194438926381 0 0 0 1:-0.445844 2:0.354597 3:0.28932 4:-0.424277 5:0.033033 6:-0.115152 7:-0.456221 8:-0.00578035 9:0.106383 
-2.366544237918175 0 0 0 1:-0.093199 2:-0.313321 3:0.0213592 4:0.169942 5:-0.174174 6:-0.609697 7:-0.585253 8:-0.568401 9:-0.202688 
-0 0 0 11.27269555493519 1:-0.0579345 2:-0.300188 3:0.0291262 4:0.169942 5:-0.189189 6:-0.609697 7:-0.539171 8:-0.560694 9:-0.202688 
-0 0 4.018630072715283 0 1:-0.471033 2:0.178236 3:0.297087 4:-0.105202 5:0.117117 6:0.98303 7:-0.548387 8:-0.294798 9:0.337066 
-0 0 13.68734863071971 0 1:-0.0277078 2:0.624765 3:0.475728 4:0.465896 5:0.234234 6:1 7:-0.64977 8:0.576108 9:0.789474 
-0 0.01942991702083321 0 0 1:0.209068 2:0.318949 3:-0.891262 4:0.72948 5:-0.75976 6:-0.745455 7:-0.806452 8:-0.144509 9:-0.527436 
-0 2.42159096788569 0 0 1:0.244332 2:0.358349 3:-0.937864 4:0.74104 5:-0.84985 6:-0.764848 7:-0.732719 8:-0.044316 9:-0.536394 
-0 0 12.01128468588229 0 1:0.123426 2:0.322702 3:0.180583 4:0.380347 5:0.489489 6:-0.255758 7:-0.9447 8:-0.183044 9:0.108623 
-0 0 16.84538539690177 0 1:0.138539 2:0.639775 3:0.157282 4:0.371098 5:0.396396 6:-0.192727 7:-0.9447 8:-0.00192678 9:0.133259 
-0 0 2.851853935506077 0 1:0.526448 2:-0.688555 3:-0.157282 4:0.442775 5:-0.126126 6:-0.806061 7:-0.751152 8:-0.749518 9:-0.18925 
-0 0 2.030308339129983 0 1:-0.380353 2:0.418386 3:0.250485 4:-0.523699 5:-0.018018 6:-0.141818 7:-0.437788 8:0.0828516 9:0.0839866 
-0 0 25.67884704444462 0 1:-0.02267 2:-0.183865 3:0.0330097 4:0.0219653 5:-0.222222 6:-0.556364 7:-0.483871 8:-0.371869 9:-0.193729 
-0 0 5.96278194659683 0 1:-0.163728 2:0.709193 3:0.227184 4:-0.158382 5:0.00600601 6:0.694545 7:-0.133641 8:0.263969 9:0.285554 
-0 0 0 0.7690793648014246 1:-0.596977 2:0.287054 3:0.658252 4:-0.190751 5:-0.0810811 6:0.992727 7:-0.640553 8:-0.32948 9:0.417693 
-0.3762476660301301 0 0 0.8545740247590699 1:0.00755668 2:0.624765 3:0.848544 4:0.435838 5:0.354354 6:1 7:-0.262673 8:0.560694 9:0.932811 
-0 1.683599009635915 0 0 1:0.0125945 2:0.624765 3:0.786408 4:0.440462 5:0.354354 6:1 7:-0.253456 8:0.572254 9:0.903695 
-0.05490672873879945 0 0 0 1:0.360202 2:0.600375 3:-1 4:0.646243 5:-0.867868 6:-0.641212 7:-0.677419 8:0.105973 9:-0.469205 
-0 0 0 2.157055699445953 1:0.324937 2:0.589118 3:-0.902913 4:0.523699 5:-0.873874 6:-0.629091 7:-0.631336 8:0.11368 9:-0.433371 
-0 0 11.93878467750705 0 1:0.123426 2:0.484053 3:-0.607767 4:0.523699 5:-0.528529 6:-0.529697 7:-0.695853 8:-0.0712909 9:-0.290034 
-0 0 23.09561983977806 0 1:0.274559 2:0.662289 3:0.223301 4:0.310983 5:0.237237 6:-0.166061 7:-0.705069 8:0.217726 9:0.119821 
-0 0 32 0 1:0.274559 2:0.658537 3:0.207767 4:0.308671 5:0.222222 6:-0.175758 7:-0.714286 8:0.217726 9:0.108623 
-0.1622159756198401 0.1834978310464876 0 0 1:0.989924 2:-0.0300188 3:0.219417 4:0.750289 5:0.0690691 6:-0.226667 7:1 8:0.00192678 9:0.0996641 
-0 0 0.2458185621005733 0 1:1 2:-0.0225141 3:0.184466 4:0.734104 5:0.027027 6:-0.229091 7:0.981567 8:0.00192678 9:0.0884658 
-0 0 0 1.058455896948974 1:0.974811 2:-0.0731707 3:0.165049 4:0.722543 5:-0.018018 6:-0.236364 7:0.97235 8:0.00192678 9:0.0638298 
-0 0 0.1934120684393165 0 1:0.380353 2:-0.574109 3:-0.0291262 4:0.304046 5:-0.0570571 6:-0.706667 7:-0.631336 8:-0.649326 9:-0.106383 
-0 0 15.33482670966791 0 1:-0.405542 2:0.452158 3:0.258252 4:-0.713295 5:-0.0780781 6:-0.139394 7:-0.502304 8:0.213873 9:0.0772676 
-0 0 0 5.337893610235653 1:-0.324937 2:0.688555 3:0.149515 4:-0.861272 5:-0.183183 6:-0.134545 7:-0.447005 8:0.533719 9:0.0324748 
-0.6475285420872975 0 0 0 1:-0.148615 2:-0.245779 3:0.0330097 4:-0.017341 5:-0.237237 6:-0.568485 7:-0.548387 8:-0.464355 9:-0.180291 
-0 0 0 11.07497010780204 1:-0.173804 2:-0.247655 3:0.00970874 4:-0.0289017 5:-0.255255 6:-0.578182 7:-0.56682 8:-0.483622 9:-0.18477 
-0 8.853708903476727 0 0 1:-0.148615 2:-0.238274 3:0.00970874 4:-0.0473988 5:-0.252252 6:-0.568485 7:-0.548387 8:-0.456647 9:-0.18477 
-0 0 1.683204849402258 0 1:-0.148615 2:-0.238274 3:-0.0135922 4:-0.0635838 5:-0.276276 6:-0.573333 7:-0.56682 8:-0.456647 9:-0.18925 
-0 -0 0 12.353248311382 1:-0.24937 2:0.255159 3:-0.219417 4:-0.153757 5:0.375375 6:-0.621818 7:0.115207 8:0.290944 9:-0.720045 
-0 -0 0 4.013065910429136 1:-0.254408 2:0.251407 3:-0.223301 4:-0.156069 5:0.366366 6:-0.621818 7:0.115207 8:0.290944 9:-0.720045 
-5.707293472869824 -0 0 0 1:-0.314861 2:0.227017 3:-0.2 4:-0.139884 5:0.408408 6:-0.655758 7:0.0599078 8:0.271676 9:-0.711086 
-0.2550103324585852 -0 0 0 1:-0.400504 2:0.165103 3:-0.262136 4:-0.195376 5:0.324324 6:-0.667879 7:-0.115207 8:0.175337 9:-0.74916 
-0 -0 0 8.023555286532803 1:-0.43073 2:-0.0393996 3:-0.304854 4:-0.334104 5:0.21021 6:-0.784242 7:-0.437788 8:-0.236994 9:-0.93505 
-0 -0 0 18.24426161537265 1:-0.43073 2:0.00375235 3:-0.304854 4:-0.345665 5:0.198198 6:-0.784242 7:-0.419355 8:-0.186898 9:-0.910414 
-0 -0 0 5.280762908382038 1:-0.264484 2:0.621013 3:-0.231068 4:0.0150289 5:0.027027 6:-0.435152 7:-0.18894 8:0.537572 9:-0.258679 
-0 -3.045780547948176 2.667808078649183 32 1:-0.269521 2:0.621013 3:-0.227184 4:0.00115607 5:0.03003 6:-0.432727 7:-0.198157 8:0.529865 9:-0.24972 
-0 -0 0 32 1:-0.269521 2:0.621013 3:-0.227184 4:0.00115607 5:0.03003 6:-0.435152 7:-0.198157 8:0.529865 9:-0.24972 
-0 -0 13.75095217992092 0 1:0.0478589 2:-0.181989 3:-0.716505 4:0.486705 5:-0.696697 6:-0.990303 7:-0.391705 8:-0.618497 9:-0.668533 
-0 -0 0 7.898110249730244 1:-0.0579345 2:-0.288931 3:-0.654369 4:0.486705 5:-0.660661 6:-0.985455 7:-0.576037 8:-0.734104 9:-0.650616 
-0 -4.012615248520099 0 0 1:-0.0528967 2:-0.268293 3:-0.627184 4:0.491329 5:-0.657658 6:-0.978182 7:-0.548387 8:-0.714836 9:-0.646137 
-1.546664196150147 -0 0 0 1:-0.314861 2:0.538462 3:0.382524 4:0.0890173 5:0.411411 6:0.0981818 7:-0.0138249 8:0.348748 9:0.334826 
-0 -0 6.28749667465267 0 1:-0.29471 2:0.587242 3:0.370874 4:0.0104046 5:0.399399 6:0.0884848 7:-0.0691244 8:0.325626 9:0.328108 
-0 -0 0 0.01622154347458609 1:-0.329975 2:0.590994 3:0.386408 4:0.0242775 5:0.45045 6:0.0836364 7:-0.0599078 8:0.317919 9:0.321389 
-0 -0 0 3.039357709786107 1:0.329975 2:-0.397749 3:0.642718 4:0.495954 5:0.57958 6:-0.0569697 7:0.870968 8:-0.938343 9:0.303471 
-0 -1.341808712167418 0.255751350661145 0 1:0.345088 2:-0.420263 3:0.642718 4:0.493642 5:0.585586 6:-0.0642424 7:0.880184 8:-0.926782 9:0.307951 
-2.206491410484776 -0 0 0 1:0.299748 2:-0.489681 3:0.650485 4:0.452023 5:0.552553 6:-0.0642424 7:0.834101 8:-1 9:0.301232 
-0 -0 8.289329210608207 0 1:-0.0377834 2:-0.341463 3:0.36699 4:-0.0890173 5:0.186186 6:-0.389091 7:-0.456221 8:-0.895954 9:0.0503919 
-0 -0.5108238834009622 0 0 1:-0.0377834 2:-0.348968 3:0.359223 4:-0.10289 5:0.144144 6:-0.403636 7:-0.456221 8:-0.919075 9:0.0414334 
-0 -1.975172845748055 0 7.467366855056158 1:-0.0327456 2:-0.380863 3:0.36699 4:-0.0959538 5:0.171171 6:-0.410909 7:-0.493088 8:-0.938343 9:0.0324748 
-13.1190371452021 -0 0 0 1:-0.531486 2:0.170732 3:0.537864 4:-0.34104 5:0.369369 6:-0.0957576 7:-0.152074 8:-0.464355 9:0.236282 
-0 -1.006921524417703 0 0 1:-0.279597 2:0.624765 3:-0.413592 4:-0.0705202 5:-0.108108 6:-0.444848 7:-0.235023 8:0.741811 9:-0.319149 
-0 -0 0.2701985084198517 0 1:-0.0780856 2:-0.097561 3:-0.720388 4:0.343353 5:-0.741742 6:-0.966061 7:-0.465438 8:-0.637765 9:-0.62374 
-5.770172829916661 -0 0 0 1:-0.143577 2:-0.407129 3:0.382524 4:-0.209249 5:0.18018 6:-0.401212 7:-0.391705 8:-0.953757 9:0.0324748 
-0 -1.045738918063049 0 0 1:-0.59194 2:0.253283 3:0.273786 4:-0.440462 5:0.189189 6:-0.209697 7:-0.391705 8:-0.487476 9:0.135498 
-0 -0 8.110140872339629 0 1:-0.59194 2:0.251407 3:0.273786 4:-0.440462 5:0.189189 6:-0.209697 7:-0.391705 8:-0.495183 9:0.135498 
-0 -0 0 32 1:-0.586902 2:0.251407 3:0.285437 4:-0.440462 5:0.192192 6:-0.209697 7:-0.391705 8:-0.495183 9:0.135498 
-0 -0 0 7.30675991445575 1:-0.576826 2:0.253283 3:0.28932 4:-0.440462 5:0.195195 6:-0.207273 7:-0.382488 8:-0.495183 9:0.139978 
-9.362704853707832 -0 0 0 1:-0.753149 2:0.043152 3:-0.285437 4:-0.576879 5:0.177177 6:-0.752727 7:-0.336406 8:-0.0674374 9:-0.852184 
-0 -0 0 24.81654831256812 1:-0.758186 2:0.0562852 3:-0.363107 4:-0.593064 5:0.123123 6:-0.772121 7:-0.391705 8:-0.102119 9:-0.863382 
-0.8644619145477849 -0 0 0 1:-0.274559 2:0.624765 3:-0.300971 4:-0.146821 5:-0.0930931 6:-0.362424 7:0.0138249 8:0.973025 9:-0.25196 
-0 -0 1.650342748173504 0 1:-0.138539 2:-0.0150094 3:-0.68932 4:0.186127 5:-0.747748 6:-0.922424 7:-0.373272 8:-0.622351 9:-0.594625 
-0 -2.153683261273507 0 26.07615488467293 1:-0.188917 2:-0.0919325 3:-0.615534 4:0.13526 5:-0.657658 6:-0.898182 7:-0.345622 8:-0.660886 9:-0.540873 
-0 -18.54535905484751 0 0 1:-0.390428 2:0.660413 3:0.332039 4:-0.165318 5:0.435435 6:0.0715152 7:-0.18894 8:0.337187 9:0.301232 
-0 -0 0 1.352930567573629 1:-0.314861 2:0.666041 3:0.386408 4:-0.206936 5:0.435435 6:0.110303 7:-0.115207 8:0.333333 9:0.339306 
-0 -0 0 5.829932050653911 1:-0.370277 2:0.643527 3:0.401942 4:-0.236994 5:0.456456 6:0.112727 7:-0.133641 8:0.325626 9:0.337066 
-0 -0 0 17.93917189865278 1:0.108312 2:-0.131332 3:0.479612 4:0.2 5:0.3003 6:-0.0957576 7:0.824885 8:-0.795761 9:0.243001 
-0 -0 0 12.13185137656025 1:0.108312 2:-0.131332 3:0.479612 4:0.213873 5:0.303303 6:-0.0909091 7:0.834101 8:-0.788054 9:0.245241 
-0 -0 13.37446217285055 18.58018927407534 1:-0.254408 2:0.144465 3:0.363107 4:-0.620809 5:0.177177 6:-0.260606 7:-0.354839 8:-0.0982659 9:0.106383 
-0 -14.73836845415884 5.325063837698965 0 1:-0.284635 2:0.11257 3:0.363107 4:-0.620809 5:0.177177 6:-0.260606 7:-0.400922 8:-0.121387 9:0.0929451 
-4.671806905985594 -0 0 0 1:-0.329975 2:0.0300188 3:0.425243 4:-0.53526 5:0.222222 6:-0.272727 7:-0.410138 8:-0.132948 9:0.104143 
-1.19535921843601 -0 0 0 1:-0.319899 2:0.0337711 3:0.429126 4:-0.532948 5:0.228228 6:-0.265455 7:-0.391705 8:-0.117534 9:0.106383 
-0 -2.324780605734815 0 0 1:-0.496222 2:0.527205 3:0.52233 4:-1 5:0.327327 6:-0.0424242 7:0.0414747 8:0.244701 9:0.307951 
-0 -0 0 12.59932808340952 1:-0.526448 2:0.54409 3:0.553398 4:-1 5:0.366366 6:-0.030303 7:0.0506912 8:0.271676 9:0.319149 
-0 -17.96727214321795 -0 0 1:-0.148615 2:0.600375 3:0.0601942 4:-0.0450867 5:0.159159 6:0.813333 7:-0.078341 8:0.244701 9:0.0503919 
-0 -0 -0.2919829088271932 0 1:-0.148615 2:0.602251 3:0.0679612 4:-0.0427746 5:0.168168 6:0.815758 7:-0.0599078 8:0.256262 9:0.0503919 
-0.6115636926718824 -0 -0.1180826874388845 1.728138402415495 1:-0.465995 2:0.545966 3:-0.398058 4:-0.526012 5:-0.27027 6:0.709091 7:-0.456221 8:0.0712909 9:-0.341545 
-0 -3.70749888211366 -0 0 1:-0.476071 2:0.536585 3:-0.398058 4:-0.493642 5:-0.267267 6:0.68 7:-0.529954 8:0.0327553 9:-0.334826 
-0 -32 -0 0 1:0.108312 2:0.624765 3:0.0407767 4:0.380347 5:0.138138 6:0.345455 7:-0.493088 8:0.483622 9:0.18477 
-0 -26.00260328025736 -0 0 1:0.133501 2:0.624765 3:0.0368932 4:0.401156 5:0.189189 6:0.26303 7:-0.465438 8:0.50289 9:0.227324 
-0 -32 -0 0 1:0.133501 2:0.624765 3:0.0368932 4:0.401156 5:0.189189 6:0.26303 7:-0.483871 8:0.50289 9:0.204927 
-0.1443536766820172 -0 -0 0 1:0.143577 2:0.624765 3:0.0368932 4:0.401156 5:0.189189 6:0.275152 7:-0.465438 8:0.537572 9:0.204927 
-0.7556294122090608 -0 -0 0 1:0.244332 2:-0.0900563 3:-0.429126 4:0.560694 5:-0.708709 6:-0.82303 7:-0.207373 8:-0.541426 9:-0.496081 
-0 -6.619349090889387 -0 0 1:0.279597 2:-0.0806754 3:-0.429126 4:0.565318 5:-0.726727 6:-0.82303 7:-0.207373 8:-0.491329 9:-0.482643 
-0 -4.539653115219823 -14.05962860335744 8.219867441698842 1:0.188917 2:-0.0956848 3:-0.487379 4:0.532948 5:-0.747748 6:-0.864242 7:-0.400922 8:-0.579961 9:-0.513998 
-0 -1.97067220691995 -0 0 1:0.168766 2:0.968105 3:0.223301 4:0.0635838 5:0.324324 6:-0.0690909 7:-0.447005 8:0.321773 9:0.204927 
-0 -32 -0 0 1:0.148615 2:0.953096 3:0.223301 4:0.0635838 5:0.315315 6:-0.0690909 7:-0.456221 8:0.317919 9:0.193729 
-0 -32 -0 0 1:0.153652 2:0.968105 3:0.203883 4:0.049711 5:0.309309 6:-0.0690909 7:-0.447005 8:0.317919 9:0.18701 
-0 -0 -0 1.700220077539507 1:0.153652 2:1 3:0.215534 4:0.049711 5:0.309309 6:-0.0690909 7:-0.437788 8:0.321773 9:0.18701 
-1.789511526410165 -0 -0 7.767693627627181 1:0.178841 2:0.116323 3:0.0951456 4:0.338728 5:0.336336 6:-0.418182 7:-0.658986 8:-0.391137 9:0.0279955 
-0 -29.76388782435004 -0 0 1:0.188917 2:0.288931 3:0.0446602 4:0.338728 5:0.309309 6:-0.362424 7:-0.695853 8:-0.260116 9:0.0391937 
-0 -12.25002889768541 -0 0 1:-0.198992 2:0.0356473 3:0.126214 4:-0.218497 5:-0.00600601 6:-0.345455 7:-0.59447 8:-0.379576 9:0.0324748 
-0 -0 -0 0.1227887515885709 1:-0.219144 2:0.0318949 3:0.130097 4:-0.225434 5:-0.012012 6:-0.350303 7:-0.62212 8:-0.418112 9:0.0235162 
-0 -0 -0 0.6909141193687462 1:0.0377834 2:0.174484 3:0.479612 4:-0.872832 5:-0.429429 6:-0.304242 7:-0.56682 8:0.552987 9:-0.12654 
-0 -7.640567837913188 -0 0 1:0.0730479 2:0.174484 3:0.464078 4:-0.828902 5:-0.336336 6:-0.267879 7:-0.419355 8:0.579961 9:-0.0683091 
-0.9565022730716392 -0 -0 0 1:-0.15869 2:0.311445 3:0.638835 4:-0.877457 5:0.153153 6:-0.236364 7:-0.115207 8:1 9:-0.0683091 
-0 -0 -0 0.7299760569157291 1:-0.148615 2:0.320826 3:0.666019 4:-0.872832 5:0.162162 6:-0.212121 7:-0.0875576 8:1 9:-0.0347144 
-0 -0 -1.163821484735456 0 1:-0.173804 2:0.324578 3:0.662136 4:-0.875145 5:0.186186 6:-0.212121 7:-0.133641 8:1 9:-0.0257559 
-0 -0 -1.977086707340204 0 1:-0.20403 2:0.315197 3:0.673786 4:-0.90289 5:0.207207 6:-0.207273 7:-0.170507 8:1 9:-0.0212766 
-0.647686037133961 -0 -0 0 1:-0.264484 2:0.26454 3:0.658252 4:-0.937572 5:0.192192 6:-0.229091 7:-0.299539 8:1 9:-0.0391937 
-0 -0 -1.809025300664958 0 1:-0.264484 2:0.26454 3:0.658252 4:-0.937572 5:0.198198 6:-0.229091 7:-0.299539 8:1 9:-0.0347144 
-0 -1.237721810794817 -0 0 1:-0.264484 2:0.26454 3:0.654369 4:-0.939884 5:0.174174 6:-0.229091 7:-0.317972 8:1 9:-0.043673 
-0 -1.557216720764061 -0 0 1:-0.214106 2:0.619137 3:0.258252 4:-0.213873 5:0.0960961 6:0.992727 7:-0.0506912 8:0.183044 9:0.131019 
-0 -5.295229555940913 -0 0 1:-0.219144 2:0.617261 3:0.258252 4:-0.220809 5:0.0930931 6:0.992727 7:-0.0506912 8:0.175337 9:0.12654 
-0 -0 -1.866304796436623 0 1:-0.214106 2:0.615385 3:0.254369 4:-0.213873 5:0.102102 6:0.992727 7:0.0138249 8:0.194605 9:0.12206 
-0.1125762977349603 -0 -2.006209749232914 0 1:0.153652 2:0.142589 3:-0.739806 4:0.40578 5:-0.954955 6:-0.871515 7:-0.695853 8:-0.499037 9:-0.574468 
-0 -2.031740491791084 -0 0 1:0.445844 2:0.688555 3:0.114563 4:0.197688 5:0.297297 6:-0.0521212 7:0.428571 8:0.0597303 9:0.334826 
-6.326728470833261 -0 -18.61556936019058 26.11614612108145 1:-0.269521 2:0.106942 3:0.27767 4:-0.253179 5:0.207207 6:-0.209697 7:-0.557604 8:-0.460501 9:0.169093 
-0 -0.7014674114784666 -0 0 1:0.193955 2:0.212008 3:0.553398 4:-0.798844 5:-0.279279 6:-0.231515 7:-0.0599078 8:0.637765 9:-0.0481523 
-0 -0 -0 1.686486108544943 1:0.188917 2:0.206379 3:0.545631 4:-0.819653 5:-0.294294 6:-0.233939 7:-0.0691244 8:0.633911 9:-0.0503919 
-0 -0 -0.6139218295354167 0 1:0.193955 2:0.19137 3:0.537864 4:-0.835838 5:-0.288288 6:-0.236364 7:-0.0599078 8:0.633911 9:-0.0503919 
-0.2922942177616263 -0 -0 0 1:-0.118388 2:0.709193 3:0.219417 4:-0.236994 5:0.012012 6:0.992727 7:0.152074 8:0.337187 9:0.00783875 
-0 -0 -0 2.321726808871186 1:-0.193955 2:0.705441 3:0.234951 4:-0.294798 5:-0.018018 6:0.992727 7:0.0691244 8:0.283237 9:0.00111982 
-0 -11.64757649790498 -0 0 1:0.153652 2:0.624765 3:-0.0757282 4:0.276301 5:-0.027027 6:0.473939 7:-0.751152 8:0.499037 9:0.12206 
-0 -2.767105595539237 -0 0 1:0.259446 2:0.36773 3:-0.646602 4:0.280925 5:-0.993994 6:-0.718788 7:-0.557604 8:-0.294798 9:-0.491601 
-0 -32 -0 0 1:0.224181 2:0.553471 3:-0.0174757 4:0.109827 5:0.003003 6:-0.345455 7:-0.668203 8:-0.0366089 9:-0.0369541 
-0 -14.60879525738404 -0 0 1:0.224181 2:0.538462 3:-0.0174757 4:0.109827 5:0.003003 6:-0.347879 7:-0.668203 8:-0.044316 9:-0.0369541 
-0 -0 -2.718137596221799 0 1:0.465995 2:0.741088 3:0.227184 4:0.130636 5:0.396396 6:0.00363636 7:0.612903 8:0.163776 9:0.399776 
-0.8293058024743029 -0 -0 2.643218773017598 1:0.496222 2:0.776735 3:0.242718 4:0.128324 5:0.414414 6:0.0206061 7:0.695853 8:0.190751 9:0.426652 
-0 -0 -8.355853675033675 0 1:-0.224181 2:0.243902 3:0.231068 4:-0.442775 5:0.132132 6:-0.229091 7:-0.539171 8:-0.283237 9:0.155655 
-0 -13.70988603655732 -0 0 1:-0.108312 2:0.369606 3:0.223301 4:-0.465896 5:0.021021 6:-0.209697 7:-0.437788 8:-0.0712909 9:0.139978 
-0 -0 -6.077557052800199 1.246570034686997 1:-0.128463 2:0.326454 3:0.242718 4:-0.47052 5:0.033033 6:-0.212121 7:-0.419355 8:-0.11368 9:0.148936 
-0 -0 -0.3083638821592691 0 1:-0.254408 2:0.452158 3:0.871845 4:-1 5:0.408408 6:-0.0981818 7:-0.142857 8:1 9:0.0660694 
-0 -0 -0 12.05622039884617 1:-0.254408 2:0.452158 3:0.867961 4:-1 5:0.405405 6:-0.0981818 7:-0.142857 8:1 9:0.0660694 
-10.73329881648001 -0 -0 -0 1:-0.400504 2:0.257036 3:0.161165 4:-0.322543 5:0.378378 6:-0.379394 7:0.0691244 8:0.105973 9:-0.599104 
-0 -0 -7.512341848157845 -0 1:-0.440806 2:0.262664 3:0.0834951 4:-0.324855 5:0.336336 6:-0.435152 7:-0.0875576 8:0.0712909 9:-0.661814 
-0 -0.6514396194327964 -0 -0 1:-0.692695 2:-0.110694 3:-0.712621 4:-0.445087 5:0.225225 6:-0.852121 7:-0.62212 8:-0.317919 9:-0.93505 
-0 -0 -6.472054235565918 -0 1:-0.692695 2:-0.108818 3:-0.712621 4:-0.445087 5:0.228228 6:-0.849697 7:-0.603687 8:-0.325626 9:-0.923852 
-1.909593966904422 -0 -0 -0 1:-0.697733 2:-0.110694 3:-0.708738 4:-0.454335 5:0.228228 6:-0.852121 7:-0.603687 8:-0.32948 9:-0.926092 
-0 -0 -29.3414780875516 -0 1:-0.350126 2:0.540338 3:-0.165049 4:-0.065896 5:0.039039 6:-0.481212 7:-0.124424 8:0.310212 9:-0.287794 
-0.02274257582027917 -0 -0 -0 1:-0.345088 2:0.534709 3:-0.165049 4:-0.0589595 5:0.045045 6:-0.481212 7:-0.0875576 8:0.310212 9:-0.290034 
-0 -0 -15.30708678882132 -0 1:-0.324937 2:0.549719 3:-0.223301 4:-0.0520231 5:0.00600601 6:-0.486061 7:-0.124424 8:0.302505 9:-0.296753 
-0 -0 -32 -0 1:-0.324937 2:0.549719 3:-0.223301 4:-0.0520231 5:0.00600601 6:-0.486061 7:-0.124424 8:0.302505 9:-0.296753 
-0 -0 -0 -0.8393865287271768 1:-0.289673 2:0.549719 3:-0.12233 4:-0.0543353 5:0.045045 6:-0.454545 7:-0.133641 8:0.287091 9:-0.267637 
-0 -0 -0 -2.783789339538792 1:-0.143577 2:-0.223265 3:-0.417476 4:0.239306 5:-0.624625 6:-0.830303 7:-0.59447 8:-0.815029 9:-0.513998 
-0 -0 -26.38022222667149 -0 1:-0.173804 2:-0.234522 3:-0.436893 4:0.239306 5:-0.624625 6:-0.837576 7:-0.59447 8:-0.822736 9:-0.527436 
-0 -0 -0 -2.130357094113486 1:-0.103275 2:-0.27955 3:-0.464078 4:0.290173 5:-0.591592 6:-0.835152 7:-0.668203 8:-0.903661 9:-0.484882 
-0 -1.529188634033419 -0 -0 1:-0.0277078 2:-0.307692 3:-0.258252 4:0.202312 5:-0.492492 6:-0.752727 7:-0.539171 8:-0.865125 9:-0.384099 
-0 -0.8756001964980425 -0 -0 1:0.24937 2:-0.0863039 3:0.370874 4:0.514451 5:0.567568 6:-0.352727 7:-0.723502 8:-0.691715 9:0.0324748 
-0 -3.561645076871788 -0 -0 1:0.234257 2:-0.105066 3:0.378641 4:0.512139 5:0.576577 6:-0.352727 7:-0.797235 8:-0.714836 9:0.0414334 
-0 -0 -32 -0 1:0.093199 2:-0.0225141 3:0.464078 4:0.109827 5:0.51952 6:-0.0375758 7:0.778802 8:-0.818882 9:0.363942 
-1.46213597822119 -0 -2.512392319670117 -0 1:0.103275 2:-0.0318949 3:0.487379 4:0.116763 5:0.525526 6:-0.0206061 7:0.769585 8:-0.811175 9:0.366181 
-0 -0 -2.602624694300042 -0 1:-0.561713 2:0.405253 3:0.545631 4:-0.704046 5:0.948949 6:-0.0763636 7:-0.465438 8:0.653179 9:0.379619 
-0 -0 -3.145983097607028 -0 1:-0.521411 2:0.41651 3:0.568932 4:-0.620809 5:0.93994 6:-0.0715152 7:-0.456221 8:0.66474 9:0.37738 
-0.2483336355514258 -2.390010393794164 -4.113329159851133 -0 1:-0.556675 2:0.424015 3:0.561165 4:-0.558382 5:0.936937 6:-0.0812121 7:-0.474654 8:0.684008 9:0.368421 
-0 -0 -0 -2.06581986695041 1:-0.209068 2:0.512195 3:0.693204 4:-1 5:0.0630631 6:0.250909 7:0.18894 8:0.984586 9:0.343785 
-0 -4.352370765618617 -0 -0 1:-0.350126 2:0.371482 3:0.654369 4:-1 5:0.114114 6:0.180606 7:0.0875576 8:0.77264 9:0.31019 
-0 -0 -8.381487612452553 -0 1:-0.34005 2:0.365854 3:0.658252 4:-1 5:0.129129 6:0.18303 7:0.0875576 8:0.753372 9:0.307951 
-0 -14.30891258535314 -0 -0 1:-0.506297 2:0.285178 3:0.487379 4:-0.565318 5:-0.00600601 6:-0.221818 7:-0.741935 8:-0.32948 9:-0.0055991 
-0 -0.003205009763422806 -0 -0 1:-0.506297 2:0.196998 3:0.518447 4:-0.572254 5:-0.024024 6:-0.214545 7:-0.741935 8:-0.344894 9:0.0055991 
-3.159644509149645 -0 -0 -0 1:-0.541562 2:0.21576 3:0.421359 4:-0.537572 5:-0.003003 6:-0.241212 7:-0.705069 8:-0.452794 9:0.019037 
-0 -0 -0 -10.15657948060111 1:-0.521411 2:0.227017 3:0.43301 4:-0.558382 5:0.021021 6:-0.21697 7:-0.695853 8:-0.456647 9:0.0571109 
-0 -0 -32 -0 1:-0.521411 2:0.249531 3:0.448544 4:-0.595376 5:0.0870871 6:-0.18303 7:-0.603687 8:-0.495183 9:0.0795073 
-0 -0 -1.270523931282462 -0 1:-0.526448 2:0.266417 3:0.448544 4:-0.604624 5:0.102102 6:-0.190303 7:-0.612903 8:-0.514451 9:0.0839866 
-0 -0 -14.99901445088947 -0 1:-0.455919 2:0.255159 3:0.0990291 4:-0.387283 5:0.306306 6:-0.44 7:-0.152074 8:0.0674374 9:-0.708847 
-22.35330040532175 -0 -0 -0 1:-0.471033 2:0.260788 3:0.0563107 4:-0.428902 5:0.24024 6:-0.403636 7:-0.21659 8:0.0828516 9:-0.715566 
-0 -0 -14.0926672890633 -0 1:-0.24937 2:0.624765 3:-0.130097 4:-0.132948 5:-0.021021 6:-0.37697 7:-0.124424 8:0.402697 9:-0.231803 
-0 -10.07883948550495 -0 -0 1:0.0176322 2:-0.266417 3:-0.118447 4:0.100578 5:-0.495495 6:-0.665455 7:-0.382488 8:-0.714836 9:-0.339306 
-0 -0 -0 -3.736869533549397 1:0.0478589 2:-0.268293 3:-0.114563 4:0.109827 5:-0.489489 6:-0.670303 7:-0.373272 8:-0.710983 9:-0.352744 
-0 -5.358516519277251 -0 -0 1:0.0478589 2:-0.273921 3:-0.114563 4:0.109827 5:-0.489489 6:-0.675152 7:-0.382488 8:-0.710983 9:-0.352744 
-0 -0 -0 -1.522227181375905 1:0.0478589 2:-0.273921 3:-0.106796 4:0.0982659 5:-0.48048 6:-0.665455 7:-0.327189 8:-0.699422 9:-0.339306 
-11.08058483512805 -0 -0 -0 1:0.168766 2:-0.121951 3:0.502913 4:0.433526 5:0.588589 6:-0.265455 7:-0.585253 8:-0.710983 9:0.117581 
-0 -0 -5.069863278297082 -0 1:0.143577 2:-0.118199 3:0.448544 4:0.410405 5:0.555556 6:-0.275152 7:-0.59447 8:-0.707129 9:0.0974244 
-0 -0 -0 -0.8787885600328859 1:0.193955 2:0.0300188 3:0.43301 4:0.049711 5:0.516517 6:-0.0133333 7:0.870968 8:-0.741811 9:0.399776 
-1.119586644168247 -0 -0 -0 1:-0.607053 2:0.420263 3:0.52233 4:-0.646243 5:0.918919 6:-0.0933333 7:-0.493088 8:0.707129 9:0.357223 
-0 -0 -0 -7.14344253093357 1:-0.350126 2:0.395872 3:0.697087 4:-1 5:0.168168 6:0.175758 7:0.133641 8:0.899807 9:0.276596 
-0.592438166897083 -0 -0 -0 1:-0.410579 2:0.403377 3:0.67767 4:-1 5:0.18018 6:0.185455 7:0.133641 8:0.911368 9:0.283315 
-0 -0 -0 -7.186841142003511 1:-0.425693 2:0.347092 3:0.429126 4:-0.593064 5:0.0750751 6:-0.173333 7:-0.447005 8:-0.433526 9:0.0929451 
-1.289659442389943 -0 -0 -0 1:-0.38539 2:0.27955 3:0.0796117 4:-0.482081 5:0.231231 6:-0.350303 7:0.0506912 8:0.183044 9:-0.729003 
-0 -0 -31.93996821042848 -0 1:-0.531486 2:-0.0337711 3:-0.673786 4:-0.558382 5:0.189189 6:-0.854545 7:-0.419355 8:-0.287091 9:-0.961926 
-0 -0 -0 -6.784667848600735 1:-0.198992 2:0.624765 3:0.0446602 4:-0.202312 6:-0.304242 7:-0.0599078 8:0.379576 9:-0.171333 
-0 -13.11847136177007 -0 -0 1:-0.24937 2:0.624765 3:0.0213592 4:-0.267052 5:-0.027027 6:-0.289697 7:-0.124424 8:0.371869 9:-0.178052 
-0 -0 -7.464942128682359 -0 1:0.0831234 2:-0.300188 3:-0.11068 4:0.0635838 5:-0.474474 6:-0.665455 7:-0.290323 8:-0.726397 9:-0.343785 
-0 -0 -0 -15.74879636371583 1:0.0982368 2:0.0469043 3:0.425243 4:0.320231 5:0.471471 6:-0.243636 7:-0.557604 8:-0.603083 9:0.113102 
-0 -0 -0 -0.779477577603207 1:0.11335 2:0.0562852 3:0.460194 4:0.32948 5:0.48048 6:-0.209697 7:-0.502304 8:-0.545279 9:0.139978 
-0 -5.911029351548265 -0 -0 1:0.11335 2:0.0600375 3:0.464078 4:0.334104 5:0.483483 6:-0.2 7:-0.493088 8:-0.537572 9:0.146697 
-0 -0.504995716297245 -0 -0 1:0.355164 2:-0.0168856 3:0.615534 4:0.0358382 5:0.573574 6:0.0690909 7:0.898618 8:-0.687861 9:0.451288 
-0 -0 -0.2601399972192124 -0 1:-0.476071 2:0.536585 3:0.52233 4:-0.655491 5:0.864865 6:-0.129697 7:-0.382488 8:0.830443 9:0.316909 
-0 -0 -0 -5.272923674456412 1:-0.425693 2:0.525328 3:0.553398 4:-0.662428 5:0.888889 6:-0.110303 7:-0.345622 8:0.83815 9:0.325868 
-0 -0 -12.10269739625653 -0 1:-0.405542 2:0.380863 3:0.537864 4:-0.66474 5:0.0870871 6:-0.107879 7:-0.281106 8:-0.421965 9:0.142217 
