svm_type c_svc
kernel_type rbf
gamma 0.5
nr_class 5
total_sv 324
rho 0.206359 0.421177 -0.0989096 0.458079 0.328028 1.55552 0.779406 0.0229265 -0.445463 0.392469
label 1 3 6 8 9
nr_sv 28 76 73 66 81
SV
0 0 0 0.008477653923070497 1:-0.387755 2:-0.0356473 3:0.168357 4:-0.334158 5:0.378378 6:-0.447273 7:0.43038 8:-0.048474 9:-0.569989 
0 0 0 8 1:-0.399417 3:0.144016 4:-0.334158 5:0.369369 6:-0.430303 7:0.417722 8:-0.00179533 9:-0.569989 
0 8 0 0 1:-0.434402 2:0.00187617 3:0.0750507 4:-0.351485 5:0.312312 6:-0.444848 7:0.329114 8:-0.00179533 9:-0.576708 
0 1.543784213571305 0 0 1:-0.446064 3:0.0750507 4:-0.351485 5:0.303303 6:-0.444848 7:0.316456 8:-0.00179533 9:-0.583427 
0 0 0 2.907310416390811 1:-0.0437318 2:-0.193246 3:0.448276 4:0.512376 5:0.471471 6:-0.381818 7:-0.341772 8:-0.274686 9:-0.106383 
5.240772542794741 0 2.054767805582986 0 1:-0.0728863 2:-0.172608 3:0.456389 4:0.49505 5:0.471471 6:-0.369697 7:-0.379747 8:-0.274686 9:-0.0907055 
0.1431768543517312 0.160828829854455 0.6819528742672782 0 1:-0.0437318 2:-0.39212 3:0.456389 4:0.165842 5:-0.0960961 6:-0.464242 7:0.481013 8:-0.206463 9:-0.370661 
1.20286961384016 0 1.379532567125861 0 1:0.218659 2:-0.198874 3:0.618661 4:0.358911 5:0.750751 6:-0.204848 7:-0.329114 8:-0.421903 9:0.24972 
0 0 0 1.263026063289981 1:0.22449 2:-0.183865 3:0.655172 4:0.344059 5:0.750751 6:-0.192727 7:-0.265823 8:-0.400359 9:0.265398 
0 0 0 8 1:0.22449 2:-0.183865 3:0.651116 4:0.344059 5:0.744745 6:-0.192727 7:-0.278481 8:-0.414722 9:0.265398 
0 0 0.5119062770904348 2.975898492466089 1:-0.819242 2:-0.161351 3:0.740365 4:-0.514851 5:0.156156 6:-0.29697 7:-0.316456 8:-0.924596 9:-0.00111982 
0 7.269096010645408 0 1.729491143250515 1:-0.813411 2:-0.144465 3:0.744422 4:-0.512376 5:0.165165 6:-0.284848 7:-0.278481 8:-0.885099 9:0.0055991 
0 0 0 5.063554615985129 1:-0.451895 2:0.183865 3:0.0791075 4:-0.410891 5:0.222222 6:-0.396364 7:0.455696 8:0.235189 9:-0.632699 
0 0 0 2.751797050770904 1:-0.148688 2:-0.114447 3:0.456389 4:0.0247525 5:-0.201201 6:-0.418182 7:0.772152 8:-0.0664273 9:-0.343785 
0 0 0.2297045705638761 0 1:0.16035 2:-0.257036 3:0.675456 4:0.160891 5:0.66967 6:-0.21697 7:-0.0632911 8:-0.429084 9:0.254199 
0 0 0 0.5536185288124574 1:0.177843 2:-0.262664 3:0.732252 4:0.15099 5:0.63964 6:-0.209697 7:0.126582 8:-0.429084 9:0.24748 
0 0 0 8 1:-0.457726 2:0.281426 3:0.107505 4:-0.482673 5:0.198198 6:-0.292121 7:0.544304 8:0.274686 9:-0.601344 
0 0 0 6.264817822237003 1:-0.498542 2:0.354597 3:-0.0223124 4:-0.509901 5:0.105105 6:-0.328485 7:0.43038 8:0.317774 9:-0.690929 
2.181071047567082 7.016567359002673 2.657459134548617 0 1:-0.516035 2:0.35272 3:-0.0385396 4:-0.502475 5:0.0960961 6:-0.330909 7:0.379747 8:0.328546 9:-0.697648 
0.7654260699269371 0 0 0 1:-0.22449 2:0.0769231 3:0.56998 4:0.108911 5:0.630631 6:-0.175758 7:0.0506329 8:-0.0951526 9:0.525196 
0.8736489640361579 6.563564272262836 2.41864732193334 0 1:-0.241983 2:0.0881801 3:0.533469 4:0.108911 5:0.627628 6:-0.185455 7:0.0506329 8:-0.105925 9:0.50056 
1.062267287153496 2.155159237134788 0.9521784224591208 0 1:-0.201166 3:0.456389 4:-0.108911 5:-0.297297 6:-0.37697 7:0.949367 8:-0.048474 9:-0.316909 
0 6.108850081453569 0 0 1:0.0845481 2:-0.457786 3:0.675456 4:-0.0544554 5:0.498498 6:-0.270303 7:0.367089 8:-0.533214 9:0.222844 
0 0.03816409604637898 0.2562855879986286 0 1:-0.516035 2:-0.470919 3:0.776876 4:-0.893564 5:-0.042042 6:-0.330909 7:0.582278 8:-0.612208 9:0.00783875 
0 0 0 1.369349435153826 1:-0.970845 2:-0.234522 3:0.675456 4:-1 5:-0.267267 6:-0.36 7:-0.202532 8:-0.601436 9:-0.106383 
0 3.882401927471617 0 0 1:-0.965015 2:-0.234522 3:0.687627 4:-1 5:-0.261261 6:-0.355152 7:-0.189873 8:-0.594255 9:-0.106383 
0 0 0 3.450921867516707 1:-0.970845 2:-0.262664 3:0.691684 4:-1 5:-0.252252 6:-0.357576 7:-0.265823 8:-0.608618 9:-0.110862 
2.017814789155493 6.004512082188174 1.071129430722646 0 1:-0.970845 2:-0.255159 3:0.6714 4:-1 5:-0.243243 6:-0.347879 7:-0.265823 8:-0.583483 9:-0.106383 
-0 0 8 0 1:0.428571 2:0.709193 3:0.0993915 4:0.20297 5:0.126126 6:0.231515 7:0.0126582 8:0.393178 9:0.115342 
-0 0 8 0 1:0.428571 2:0.709193 3:0.103448 4:0.20297 5:0.126126 6:0.231515 7:0.0379747 8:0.393178 9:0.131019 
-0 0 8 0 1:0.428571 2:0.709193 3:0.111562 4:0.20297 5:0.129129 6:0.231515 7:0.0632911 8:0.393178 9:0.135498 
-0 0 6.814192818816137 0 1:0.422741 2:0.709193 3:0.0993915 4:0.193069 5:0.0990991 6:0.21697 7:0.0253165 8:0.393178 9:0.115342 
-0 0 8 0 1:0.422741 2:0.703565 3:0.111562 4:0.183168 5:0.129129 6:0.207273 7:0.0632911 8:0.393178 9:0.12206 
-0 0 8 0 1:0.428571 2:0.709193 3:0.111562 4:0.193069 5:0.129129 6:0.21697 7:0.0632911 8:0.40395 9:0.12206 
-0 0 8 0 1:0.457726 2:0.709193 3:0.111562 4:0.193069 5:0.129129 6:0.21697 7:0.0886076 8:0.411131 9:0.12206 
-0 0 8 0 1:0.48688 2:0.709193 3:0.0831643 4:0.200495 5:0.129129 6:0.231515 7:0.101266 8:0.429084 9:0.101904 
-0 0 1.460391654163194 0 1:0.381924 2:0.709193 3:0.0263692 4:0.178218 5:0.12012 6:0.0618182 7:0.0379747 8:0.382406 9:0.0391937 
-0 0 8 0 1:0.405248 2:0.709193 3:0.0425963 4:0.178218 5:0.123123 6:0.0860606 7:0.0886076 8:0.389587 9:0.0705487 
-0 0 8 0 1:0.399417 2:0.703565 3:0.0750507 4:0.168317 5:0.165165 6:0.0860606 7:0.0759494 8:0.371634 9:0.0862262 
-0 0 8 0 1:0.399417 2:0.709193 3:0.0750507 4:0.180693 5:0.165165 6:0.0909091 7:0.0759494 8:0.389587 9:0.0862262 
-0 3.084807346912287 8 0.7760622982932264 1:0.422741 2:0.703565 3:0.0831643 4:0.170792 5:0.177177 6:0.0860606 7:0.101266 8:0.396768 9:0.0795073 
-0 0 1.871994361901919 0 1:-0.0728863 2:0.260788 3:0.25355 4:0.029703 5:0.144144 6:0.76 7:-0.0759494 8:-0.0664273 9:0.227324 
-0 0 3.63274521369665 0 1:-0.154519 2:0.20075 3:0.261663 4:0.029703 5:0.177177 6:0.747879 7:-0.0759494 8:-0.131059 9:0.263158 
-0.6994013557058043 0 0 0 1:-0.212828 2:0.153846 3:0.281947 4:0.029703 5:0.21021 6:0.77697 7:-0.113924 8:-0.170557 9:0.294513 
-0.04836741497185752 0 0 0 1:0.102041 2:0.624765 3:0.902637 4:0.608911 5:0.36036 6:1 7:-0.278481 8:0.364452 9:1 
-0.1034087361785817 0 0 0 1:0.778426 2:0.210131 3:-0.817444 4:0.987624 5:-0.78979 6:-0.784242 7:-0.0886076 8:0.138241 9:-0.540873 
-0 2.032383445492966 4.762566162343643 1.498726344791617 1:0.661808 2:0.170732 3:-0.776876 4:0.940594 5:-0.591592 6:-0.740606 7:-0.113924 8:-0.0305206 9:-0.473684 
-4.302373887678639 0 0 0 1:0.399417 2:0.0187617 3:0.294118 4:0.636139 5:0.573574 6:-0.287273 7:-0.759494 8:-0.174147 9:0.075028 
-0 0.4051223378447183 0 2.266932976721443 1:0.41691 2:0.0694184 3:0.298174 4:0.636139 5:0.600601 6:-0.284848 7:-0.746835 8:-0.170557 9:0.0884658 
-0 0 0 3.117625236565899 1:0.422741 2:0.206379 3:0.306288 4:0.64604 5:0.615616 6:-0.229091 7:-0.734177 8:-0.127469 9:0.0974244 
-0 1.597440343985907 0 0.51584732532975 1:0.965015 2:-1 3:-0.115619 4:0.64604 5:-0.135135 6:-0.949091 7:-0.341772 8:-0.766607 9:-0.245241 
-0 0 0 1.93533352178415 1:0.965015 2:-0.992495 3:-0.103448 4:0.648515 5:-0.111111 6:-0.939394 7:-0.329114 8:-0.766607 9:-0.238522 
-0.1710935906150052 0 0 0 1:0.970845 2:-0.988743 3:-0.0993915 4:0.648515 5:-0.111111 6:-0.934545 7:-0.303797 8:-0.752244 9:-0.238522 
-0 0 0 0.5005035306202087 1:0.988338 2:-0.849906 3:-0.0993915 4:0.628713 5:-0.135135 6:-0.883636 7:-0.329114 8:-0.701975 9:-0.220605 
-0 0 0.6223795791132376 0 1:1 2:-0.846154 3:-0.107505 4:0.611386 5:-0.135135 6:-0.90303 7:-0.329114 8:-0.680431 9:-0.222844 
-0 0 0 6.583298592123039 1:-0.183673 2:0.407129 3:0.432049 4:-0.480198 5:0.03003 6:-0.0836364 7:0.0632911 8:0.202873 9:0.133259 
-0 8 0 0 1:-0.183673 2:0.465291 3:0.456389 4:-0.430693 5:0.141141 6:-0.0109091 7:0.0632911 8:0.249551 9:0.18477 
-0 8 0 0 1:-0.177843 2:0.532833 3:0.46856 4:-0.430693 5:0.177177 6:-0.0109091 7:0.0759494 8:0.249551 9:0.225084 
-0 0.660062466815752 0 0 1:-0.177843 2:0.575985 3:0.46856 4:-0.383663 5:0.177177 6:-0.00848485 7:0.0759494 8:0.249551 9:0.225084 
-0 6.997871593841365 0 8 1:-0.218659 2:0.470919 3:0.403651 4:-0.410891 5:0.108108 6:-0.0545455 7:0.0253165 8:0.120287 9:0.173572 
-0 0 0 2.845149972097023 1:-0.195335 2:0.470919 3:0.375254 4:-0.420792 5:0.0750751 6:-0.0836364 7:-0.0379747 8:0.113106 9:0.137738 
-4.135159964098196 0 0 0 1:-0.218659 2:0.354597 3:0.346856 4:-0.383663 5:0.033033 6:-0.115152 7:-0.0506329 8:0.0628366 9:0.106383 
-0 0 0 1.312858578411377 1:0.230321 2:-0.313321 3:0.0669371 4:0.25495 5:-0.174174 6:-0.609697 7:-0.21519 8:-0.45781 9:-0.202688 
-1.823355169531741 0 0 8 1:0.230321 2:-0.300188 3:0.0750507 4:0.252475 5:-0.189189 6:-0.609697 7:-0.164557 8:-0.454219 9:-0.202688 
-0 2.583376431967033 0 0 1:-0.591837 2:-0.296435 3:-0.111562 4:-0.376238 5:-0.510511 6:-0.878788 7:-0.594937 8:-0.508079 9:-0.419933 
-1.470413864299339 0 0 0 1:-0.61516 2:-0.27955 3:-0.0263692 4:-0.242574 5:-0.432432 6:-0.82303 7:-0.658228 8:-0.633752 9:-0.388578 
-0 0 0 5.064607780383242 1:-0.516035 2:-0.270169 3:-0.0263692 4:-0.237624 5:-0.447447 6:-0.830303 7:-0.594937 8:-0.587074 9:-0.402016 
-0 0 0 0.5791466408029837 1:-0.440233 2:-0.0731707 3:0.0791075 4:-0.252475 5:-0.36036 6:-0.655758 7:-0.607595 8:-0.375224 9:-0.298992 
-0 0 0.3139776910889936 0 1:-0.440233 2:-0.0731707 3:0.0344828 4:-0.326733 5:-0.42042 6:-0.66303 7:-0.683544 8:-0.364452 9:-0.319149 
-0 0 1.570913107078713 0 1:0.28863 2:0.624765 3:0.557809 4:0.574257 5:0.237237 6:1 7:-0.291139 8:0.605027 9:0.789474 
-0 0 8 0 1:0.265306 2:0.624765 3:0.541582 4:0.566832 5:0.243243 6:1 7:-0.291139 8:0.594255 9:0.793953 
-0 1.458591329590791 0 0 1:0.580175 2:0.358349 3:-0.935091 4:0.858911 5:-0.864865 6:-0.764848 7:-0.443038 8:0.02693 9:-0.536394 
-0 0 8 0 1:0.440233 2:0.322702 3:0.233266 4:0.477723 5:0.489489 6:-0.255758 7:-0.721519 8:-0.102334 9:0.108623 
-0 0 1.590448075200044 0 1:0.457726 2:0.639775 3:0.208925 4:0.467822 5:0.396396 6:-0.192727 7:-0.721519 8:0.0664273 9:0.133259 
-0 0 4.382423944158873 0 1:0.422741 2:0.514071 3:0.200811 4:0.467822 5:0.396396 6:-0.207273 7:-0.734177 8:-0.016158 9:0.119821 
-0 0 4.34900405555822 0 1:-0.142857 2:0.405253 3:0.310345 4:-0.487624 5:-0.00900901 6:-0.139394 7:-0.0379747 8:0.141831 9:0.0862262 
-0 0 8 0 1:-0.142857 2:0.405253 3:0.306288 4:-0.490099 5:-0.018018 6:-0.141818 7:-0.0379747 8:0.141831 9:0.0839866 
-0 0 8 5.714814056292515 1:0.271137 2:-0.183865 3:0.0791075 4:0.0940594 5:-0.222222 6:-0.556364 7:-0.0886076 8:-0.278276 9:-0.193729 
-0 0 3.033148622372315 0 1:0.107872 2:0.709193 3:0.281947 4:-0.0990099 5:0.00600601 6:0.694545 7:0.392405 8:0.314183 9:0.285554 
-0 0 0 0.9487042880035628 1:-0.393586 2:0.287054 3:0.732252 4:-0.133663 5:-0.0810811 6:0.992727 7:-0.303797 8:-0.238779 9:0.417693 
-0.5419906974237582 0 0 0.9631562891148551 1:0.306122 2:0.624765 3:0.931034 4:0.537129 5:0.354354 6:1 7:0.21519 8:0.590664 9:0.932811 
-0 1.767774690168184 0 0 1:0.311953 2:0.624765 3:0.866126 4:0.542079 5:0.354354 6:1 7:0.227848 8:0.601436 9:0.903695 
-0 0 0.3093751656703702 0 1:0.311953 2:0.624765 3:0.853955 4:0.542079 5:0.333333 6:1 7:0.227848 8:0.601436 9:0.896976 
-0.1914824883228769 0 0 0 1:0.714286 2:0.600375 3:-1 4:0.762376 5:-0.867868 6:-0.641212 7:-0.35443 8:0.166966 9:-0.469205 
-0 0 0 0.4696488907377779 1:0.673469 2:0.575985 3:-0.951318 4:0.693069 5:-0.894895 6:-0.655758 7:-0.291139 8:0.163375 9:-0.460246 
-0 0 0 0.9258190575097689 1:0.673469 2:0.589118 3:-0.89858 4:0.631188 5:-0.873874 6:-0.629091 7:-0.291139 8:0.174147 9:-0.433371 
-0 0 1.078939104328337 0 1:0.440233 2:0.484053 3:-0.598377 4:0.628713 5:-0.531532 6:-0.532121 7:-0.379747 8:0.00179533 9:-0.294513 
-0 0 8 0 1:0.440233 2:0.484053 3:-0.618661 4:0.616337 5:-0.561562 6:-0.549091 7:-0.379747 8:0.00179533 9:-0.305711 
-0 0 8 0 1:0.61516 2:0.662289 3:0.27789 4:0.403465 5:0.237237 6:-0.166061 7:-0.392405 8:0.271095 9:0.119821 
-0 0 8 0 1:0.61516 2:0.662289 3:0.261663 4:0.403465 5:0.222222 6:-0.166061 7:-0.405063 8:0.271095 9:0.108623 
-0 0 8 0 1:0.61516 2:0.658537 3:0.261663 4:0.40099 5:0.222222 6:-0.175758 7:-0.405063 8:0.271095 9:0.108623 
-0 0 5.949416251765901 0 1:0.661808 2:0.662289 3:0.245436 4:0.408416 5:0.192192 6:-0.175758 7:-0.405063 8:0.285458 9:0.0862262 
-0 0 8 0 1:0.661808 2:0.65666 3:0.241379 4:0.405941 5:0.186186 6:-0.175758 7:-0.405063 8:0.271095 9:0.0839866 
-0 0 8 0 1:0.661808 2:0.654784 3:0.241379 4:0.405941 5:0.186186 6:-0.175758 7:-0.405063 8:0.271095 9:0.0817469 
-0 0 3.31642810297838 0 1:0.737609 2:-0.574109 3:0.0141988 4:0.39604 5:-0.0570571 6:-0.706667 7:-0.291139 8:-0.536804 9:-0.106383 
-0 0 3.448041228250558 0 1:-0.172012 2:0.452158 3:0.314402 4:-0.693069 5:-0.0780781 6:-0.139394 7:-0.113924 8:0.267504 9:0.0772676 
-0 0 8 0 1:-0.172012 2:0.452158 3:0.314402 4:-0.693069 5:-0.0780781 6:-0.139394 7:-0.113924 8:0.267504 9:0.0772676 
-0 0 1.237788750946649 0 1:-0.0787172 2:0.688555 3:0.200811 4:-0.851485 5:-0.183183 6:-0.134545 7:-0.0379747 8:0.56553 9:0.0324748 
-0 0 0 3.475576013812169 1:-0.119534 2:0.688555 3:0.192698 4:-0.851485 5:-0.189189 6:-0.134545 7:-0.0379747 8:0.543986 9:0.0279955 
-0 6.168418423594461 0 0 1:0.125364 2:-0.238274 3:0.0547667 4:0.019802 5:-0.252252 6:-0.568485 7:-0.177215 8:-0.357271 9:-0.18477 
-0 0 2.851539591786378 0 1:0.125364 2:-0.238274 3:0.030426 4:0.00247525 5:-0.276276 6:-0.573333 7:-0.202532 8:-0.357271 9:-0.18925 
-0 0 3.583266617368867 0 1:0.125364 2:-0.195122 3:0.0385396 4:0.00990099 5:-0.27027 6:-0.568485 7:-0.189873 8:-0.29982 9:-0.18477 
-0 0 8 0 1:0.137026 2:-0.19137 3:0.0425963 4:0.0148515 5:-0.267267 6:-0.561212 7:-0.177215 8:-0.289048 9:-0.175812 
-0 0 1.9985418346292 0.07495377957870726 1:-0.48688 2:-0.103189 3:-0.144016 4:-0.611386 5:-0.666667 6:-0.740606 7:-0.974684 8:-0.181329 9:-0.433371 
-0 -0 0 8 1:0.00291545 2:0.251407 3:-0.188641 4:-0.0965347 5:0.366366 6:-0.621818 7:0.734177 8:0.339318 9:-0.720045 
-0 -0 0 7.433372533426325 1:-0.0204082 2:0.249531 3:-0.192698 4:-0.101485 5:0.363363 6:-0.631515 7:0.721519 8:0.335727 9:-0.724524 
-5.280728209353221 -0 0 0 1:-0.0670554 2:0.227017 3:-0.1643 4:-0.0792079 5:0.408408 6:-0.655758 7:0.658228 8:0.321364 9:-0.711086 
-0.188572060059095 -0 0 0 1:-0.166181 2:0.17636 3:-0.229209 4:-0.138614 5:0.324324 6:-0.665455 7:0.417722 8:0.253142 9:-0.753639 
-0 -0 0 2.613585105589211 1:-0.201166 2:-0.0393996 3:-0.273834 4:-0.287129 5:0.21021 6:-0.784242 7:-0.0253165 8:-0.152603 9:-0.93505 
-0 -0 0 8 1:-0.201166 2:0.00375235 3:-0.273834 4:-0.299505 5:0.198198 6:-0.784242 8:-0.105925 9:-0.910414 
-0 -0 0 8 1:-0.212828 2:0.00375235 3:-0.273834 4:-0.30198 5:0.198198 6:-0.789091 7:-0.0126582 8:-0.109515 9:-0.910414 
-0 -0 0 3.303673232142262 1:-0.236152 2:-0.0356473 3:-0.273834 4:-0.309406 5:0.198198 6:-0.803636 7:-0.0253165 8:-0.163375 9:-0.910414 
-0 -0 0 1.629832658128873 1:0.00291545 2:0.624765 3:-0.200811 4:0.0940594 5:0.039039 6:-0.442424 7:0.379747 8:0.597846 9:-0.276596 
-0 -0 0 8 1:-0.00874636 2:0.621013 3:-0.196755 4:0.0866337 5:0.027027 6:-0.435152 7:0.316456 8:0.56912 9:-0.258679 
-0 -0 0 8 1:-0.00874636 2:0.621013 3:-0.192698 4:0.0866337 5:0.039039 6:-0.435152 7:0.329114 8:0.576302 9:-0.254199 
-0 -0 0 8 1:-0.00874636 2:0.622889 3:-0.172414 4:0.0866337 5:0.039039 6:-0.432727 7:0.341772 8:0.583483 9:-0.25196 
-0 -0 0 8 1:-0.00874636 2:0.621013 3:-0.192698 4:0.0742574 5:0.042042 6:-0.432727 7:0.303797 8:0.56553 9:-0.24972 
-0 -0.7231952630208079 2.580992601027776 8 1:-0.0145773 2:0.621013 3:-0.192698 4:0.0717822 5:0.03003 6:-0.432727 7:0.303797 8:0.561939 9:-0.24972 
-0 -0 0 8 1:-0.0145773 2:0.621013 3:-0.192698 4:0.0717822 5:0.03003 6:-0.435152 7:0.303797 8:0.561939 9:-0.24972 
-0 -0 0 8 1:-0.0145773 2:0.621013 3:-0.212982 4:0.0717822 5:0.03003 6:-0.44 7:0.303797 8:0.561939 9:-0.254199 
-0 -0 2.627312469651745 0 1:0.35277 2:-0.181989 3:-0.703854 4:0.586634 5:-0.6997 6:-0.997576 7:0.0379747 8:-0.508079 9:-0.681971 
-0 -0 8 0 1:0.35277 2:-0.181989 3:-0.703854 4:0.591584 5:-0.696697 6:-0.990303 7:0.0379747 8:-0.508079 9:-0.668533 
-0 -0 0 4.214919578920056 1:0.230321 2:-0.288931 3:-0.638945 4:0.591584 5:-0.660661 6:-0.985455 7:-0.21519 8:-0.615799 9:-0.650616 
-0 -0 0.08846926397483006 0 1:0.236152 2:-0.268293 3:-0.610548 4:0.596535 5:-0.657658 6:-0.978182 7:-0.177215 8:-0.597846 9:-0.646137 
-0 -4.589902605606014 0 0 1:0.241983 2:-0.262664 3:-0.638945 4:0.596535 5:-0.660661 6:-0.980606 7:-0.21519 8:-0.587074 9:-0.657335 
-2.060184363163649 -0 0 0 1:-0.0670554 2:0.538462 3:0.444219 4:0.165842 5:0.411411 6:0.0981818 7:0.556962 8:0.393178 9:0.334826 
-0 -0 6.408211214276947 0 1:0.253644 2:-0.341463 3:0.427992 4:-0.0247525 5:0.186186 6:-0.389091 7:-0.0506329 8:-0.766607 9:0.0503919 
-0 -0 0 8 1:0.253644 2:-0.348968 3:0.419878 4:-0.039604 5:0.144144 6:-0.403636 7:-0.0506329 8:-0.788151 9:0.0414334 
-0 -0 0 2.948272926595722 1:0.253644 2:-0.348968 3:0.423935 4:-0.049505 5:0.147147 6:-0.403636 7:-0.0506329 8:-0.788151 9:0.0414334 
-0 -1.889328758805937 0 0 1:0.259475 2:-0.380863 3:0.427992 4:-0.0321782 5:0.171171 6:-0.410909 7:-0.101266 8:-0.806104 9:0.0324748 
-8 -0 0 0 1:-0.317784 2:0.170732 3:0.606491 4:-0.294554 5:0.369369 6:-0.0957576 7:0.367089 8:-0.364452 9:0.236282 
-2.459869860959649 -0 0 0 1:-0.335277 2:0.153846 3:0.501014 4:-0.309406 5:0.315315 6:-0.149091 7:0.253165 8:-0.40754 9:0.195969 
-0 -0 0 0.7743611898637656 1:-0.801749 2:0.146341 3:0.703854 4:-0.985149 5:-0.0870871 6:-0.207273 7:-0.329114 8:-0.576302 9:0.0257559 
-0 -2.003361224410153 0 8 1:-0.813411 2:0.138837 3:0.68357 4:-0.826733 5:-0.153153 6:-0.21697 7:-0.35443 8:-0.572711 9:0.0145577 
-0 -0 0 5.338008112420826 1:-0.795918 2:0.120075 3:0.659229 4:-0.972772 5:-0.177177 6:-0.236364 7:-0.379747 8:-0.558348 9:-0.00783875 
-0 -0 0 8 1:-0.784257 2:0.121951 3:0.6714 4:-0.930693 5:-0.171171 6:-0.233939 7:-0.367089 8:-0.551167 9:-0.00783875 
-0 -0 0.4360730987602003 0 1:-0.795918 2:0.11257 3:0.655172 4:-1 5:-0.18018 6:-0.243636 7:-0.417722 8:-0.56553 9:-0.0167973 
-0 -2.537361249996336 1.269000287461036 0 1:-0.0262391 2:0.624765 3:-0.387424 4:-0.0049505 5:-0.108108 6:-0.444848 7:0.253165 8:0.759425 9:-0.319149 
-0 -0 1.692952951993061 0 1:0.206997 2:-0.097561 3:-0.707911 4:0.438119 5:-0.741742 6:-0.966061 7:-0.0632911 8:-0.526032 9:-0.62374 
-0 -0 3.889287800482012 0 1:-0.0728863 2:0.65666 3:0.407708 4:-0.0420792 5:0.42042 6:0.0812121 7:0.392405 8:0.400359 9:0.31467 
-6.603460529422829 -0 0 0 1:0.131195 2:-0.407129 3:0.444219 4:-0.153465 5:0.18018 6:-0.401212 7:0.0379747 8:-0.820467 9:0.0324748 
-0 -0 0 8 1:-0.370262 2:0.253283 3:0.346856 4:-0.40099 5:0.195195 6:-0.207273 7:0.0759494 8:-0.385996 9:0.135498 
-0 -0.7620193190487341 3.346259058832942 0 1:-0.387755 2:0.253283 3:0.330629 4:-0.40099 5:0.189189 6:-0.209697 7:0.0379747 8:-0.385996 9:0.135498 
-0 -0 0 8 1:-0.387755 2:0.251407 3:0.330629 4:-0.40099 5:0.189189 6:-0.209697 7:0.0379747 8:-0.393178 9:0.133259 
-0 -0 0 8 1:-0.381924 2:0.251407 3:0.342799 4:-0.40099 5:0.192192 6:-0.209697 7:0.0379747 8:-0.393178 9:0.135498 
-0 -0 0 8 1:-0.370262 2:0.253283 3:0.346856 4:-0.40099 5:0.195195 6:-0.207273 7:0.0506329 8:-0.393178 9:0.139978 
-0 -0 0 6.245256842726076 1:-0.381924 2:0.230769 3:0.35497 4:-0.39604 5:0.195195 6:-0.212121 7:0.0253165 8:-0.40395 9:0.135498 
-5.696556078658622 -0 0 0 1:-0.795918 2:0.054409 3:0.707911 4:-1 5:-0.177177 6:-0.253333 7:-0.35443 8:-0.554758 9:-0.0347144 
-8 -0 0 8 1:-0.795918 2:0.0619137 3:0.711968 4:-0.804455 5:-0.177177 6:-0.246061 7:-0.329114 8:-0.51167 9:-0.0324748 
-0 -0 0 8 1:-0.737609 2:0.0919325 3:0.744422 4:-1 5:-0.165165 6:-0.236364 7:-0.278481 8:-0.493716 9:-0.0212766 
-0 -0 0 0.8544389363613768 1:-0.749271 2:0.0938086 3:0.748479 4:-1 5:-0.174174 6:-0.231515 7:-0.278481 8:-0.486535 9:-0.0257559 
-0 -0 0 0.08837153771765374 1:-0.510204 2:0.00938086 3:-0.330629 4:-0.542079 5:0.147147 6:-0.796364 7:0.0253165 8:-0.0628366 9:-0.908175 
-0 -0.4109067372697275 0 0 1:-0.574344 2:-0.0300188 3:-0.302231 4:-0.55198 5:0.141141 6:-0.798788 7:-0.0632911 8:-0.116697 9:-0.863382 
-0.7920650530232149 -0 0 0 1:-0.574344 2:0.043152 3:-0.25355 4:-0.54703 5:0.177177 6:-0.752727 7:0.113924 8:0.005386 9:-0.852184 
-8 -0 0 0 1:-0.574344 2:0.043152 3:-0.25355 4:-0.54703 5:0.177177 6:-0.752727 7:0.113924 8:0.005386 9:-0.852184 
-0 -0 0 8 1:-0.568513 2:0.0637899 3:-0.346856 4:-0.549505 5:0.12012 6:-0.769697 7:0.0759494 8:0.00897666 9:-0.883539 
-0 -0 0 1.653301127789306 1:-0.574344 2:0.0619137 3:-0.346856 4:-0.55198 5:0.12012 6:-0.772121 7:0.0632911 8:0.00179533 9:-0.883539 
-0 -0 0 8 1:-0.580175 2:0.0619137 3:-0.346856 4:-0.55198 5:0.12012 6:-0.772121 7:0.0632911 8:-0.00179533 9:-0.883539 
-1.184591784307016 -0 0 0 1:-0.0204082 2:0.624765 3:-0.269777 4:-0.0866337 5:-0.0930931 6:-0.362424 7:0.594937 8:0.974865 9:-0.25196 
-0 -0 0.7419400800967281 0 1:0.137026 2:-0.0150094 3:-0.675456 4:0.269802 5:-0.747748 6:-0.922424 7:0.0632911 8:-0.51167 9:-0.594625 
-0 -0 0 2.318453553788698 1:0.0670554 2:-0.0919325 3:-0.602434 4:0.215347 5:-0.663664 6:-0.900606 7:0.0886076 8:-0.547576 9:-0.543113 
-0 -0 0 8 1:0.0787172 2:-0.0919325 3:-0.598377 4:0.215347 5:-0.657658 6:-0.898182 7:0.101266 8:-0.547576 9:-0.540873 
-0 -1.693632743707561 0 8 1:0.0670554 2:-0.0938086 3:-0.602434 4:0.212871 5:-0.663664 6:-0.900606 7:0.0886076 8:-0.547576 9:-0.543113 
-0 -5.990327664448892 0 0 1:-0.16035 2:0.660413 3:0.383367 4:-0.106436 5:0.435435 6:0.0715152 7:0.316456 8:0.378815 9:0.301232 
-0 -8 0 0 1:-0.154519 2:0.660413 3:0.391481 4:-0.106436 5:0.435435 6:0.0715152 7:0.316456 8:0.382406 9:0.301232 
-0 -0 0 0.2183557367844801 1:-0.0728863 2:0.658537 3:0.444219 4:-0.158416 5:0.435435 6:0.107879 7:0.417722 8:0.378815 9:0.334826 
-0 -0 0 5.055867466897011 1:-0.131195 2:0.643527 3:0.464503 4:-0.183168 5:0.456456 6:0.112727 7:0.392405 8:0.371634 9:0.337066 
-0 -0 8 8 1:0.00291545 2:0.144465 3:0.423935 4:-0.594059 5:0.177177 6:-0.260606 7:0.0886076 8:-0.0233393 9:0.106383 
-0 -8 8 0.8446557753579991 1:-0.03207 2:0.11257 3:0.423935 4:-0.594059 5:0.177177 6:-0.260606 7:0.0253165 8:-0.0448833 9:0.0929451 
-0 -5.289066512507516 4.279856053639349 0 1:-0.0845481 2:0.0787992 3:0.411765 4:-0.519802 5:0.18018 6:-0.289697 7:0.0126582 8:-0.0520646 9:0.0839866 
-0.4769001706839092 -0 0 0 1:-0.0728863 2:0.0337711 3:0.492901 4:-0.5 5:0.228228 6:-0.265455 7:0.0379747 8:-0.0412926 9:0.106383 
-0 -0 1.063586411913179 0 1:-0.463557 2:0.170732 3:0.298174 4:-0.475248 5:0.144144 6:-0.253333 7:-0.0759494 8:-0.450628 9:0.106383 
-0 -0 0 5.956476456436604 1:-0.276968 2:0.521576 3:0.618661 4:-1 5:0.339339 6:-0.0278788 7:0.658228 8:0.303411 9:0.316909 
-0 -0 0 1.64887679651133 1:-0.282799 2:0.521576 3:0.618661 4:-1 5:0.339339 6:-0.0351515 7:0.64557 8:0.303411 9:0.31467 
-0 -0 0 0.9014300804899068 1:-0.28863 2:0.551595 3:0.614604 4:-1 5:0.36036 6:-0.0351515 7:0.658228 8:0.314183 9:0.319149 
-0 -0.4718234862373373 0 0 1:-0.300292 2:0.553471 3:0.614604 4:-1 5:0.36036 6:-0.030303 7:0.64557 8:0.321364 9:0.325868 
-0 -0.3949228451544512 0 0 1:-0.673469 2:0.15197 3:0.711968 4:-1 5:-0.135135 6:-0.219394 7:-0.0253165 8:-0.267504 9:0.00783875 
-0 -7.872443269925662 -0 0 1:0.125364 2:0.600375 3:0.107505 4:0.0222772 5:0.162162 6:0.813333 7:0.468354 8:0.29982 9:0.0503919 
-0 -8 -0 0 1:0.125364 2:0.600375 3:0.107505 4:0.0222772 5:0.159159 6:0.813333 7:0.468354 8:0.29623 9:0.0503919 
-0 -0 -1.809818418623913 0 1:0.125364 2:0.602251 3:0.115619 4:0.0247525 5:0.168168 6:0.815758 7:0.493671 8:0.307002 9:0.0503919 
-0.3128904459923479 -0 -0 0.3400069933383338 1:-0.241983 2:0.545966 3:-0.371197 4:-0.492574 5:-0.27027 6:0.709091 7:-0.0506329 8:0.13465 9:-0.341545 
-0 -3.539213561538525 -0 0 1:-0.253644 2:0.536585 3:-0.371197 4:-0.457921 5:-0.267267 6:0.68 7:-0.151899 8:0.0987433 9:-0.334826 
-0 -0 -0 1.190344855358413 1:-0.311953 2:0.5197 3:-0.36714 4:-0.455446 5:-0.264264 6:0.677576 7:-0.227848 8:0.0664273 9:-0.334826 
-0.1834929096375875 -0 -0 0 1:-0.311953 2:0.517824 3:-0.375254 4:-0.455446 5:-0.264264 6:0.677576 7:-0.227848 8:0.059246 9:-0.334826 
-0 -8 -0 0 1:0.422741 2:0.624765 3:0.0872211 4:0.477723 5:0.138138 6:0.345455 7:-0.101266 8:0.518851 9:0.18477 
-0 -8 -0 0 1:0.428571 2:0.624765 3:0.0872211 4:0.477723 5:0.156156 6:0.345455 7:-0.0379747 8:0.536804 9:0.204927 
-0 -8 -0 0 1:0.451895 2:0.624765 3:0.0831643 4:0.5 5:0.189189 6:0.26303 7:-0.0632911 8:0.536804 9:0.227324 
-0 -8 -0 0 1:0.451895 2:0.624765 3:0.0831643 4:0.5 5:0.189189 6:0.26303 7:-0.0886076 8:0.536804 9:0.204927 
-0.2435026786097881 -8 -0 0 1:0.463557 2:0.624765 3:0.0831643 4:0.5 5:0.189189 6:0.275152 7:-0.0632911 8:0.56912 9:0.204927 
-0 -8 -0 0 1:0.48688 2:0.624765 3:0.0831643 4:0.507426 5:0.189189 6:0.277576 7:-0.0632911 8:0.56912 9:0.204927 
-0 -7.764179047487466 -0 0 1:0.48105 2:0.624765 3:0.0547667 4:0.544554 5:0.177177 6:0.345455 7:-0.21519 8:0.526032 9:0.209406 
-0 -0 -2.787415728584189 0.8663516998919683 1:0.580175 2:-0.0900563 3:-0.403651 4:0.670792 5:-0.693694 6:-0.82303 7:0.291139 8:-0.436266 9:-0.496081 
-0.8250368233439489 -0 -0 0 1:0.580175 2:-0.0900563 3:-0.403651 4:0.670792 5:-0.708709 6:-0.82303 7:0.291139 8:-0.436266 9:-0.496081 
-0 -8 -8 6.47525555336647 1:0.516035 2:-0.0956848 3:-0.464503 4:0.641089 5:-0.747748 6:-0.864242 7:0.0253165 8:-0.472172 9:-0.513998 
-0 -4.295130920398883 -0 0 1:0.539359 2:1 3:0.269777 4:0.128713 5:0.309309 6:-0.0690909 7:0.0253165 8:0.378815 9:0.193729 
-0 -8 -0 2.736518786365284 1:0.539359 2:1 3:0.281947 4:0.133663 5:0.312312 6:-0.0666667 7:0.0253165 8:0.378815 9:0.193729 
-0 -8 -0 0 1:0.492711 2:0.968105 3:0.27789 4:0.138614 5:0.324324 6:-0.0690909 7:-0.0379747 8:0.368043 9:0.204927 
-0 -8 -0 0 1:0.469388 2:0.953096 3:0.27789 4:0.138614 5:0.315315 6:-0.0690909 7:-0.0506329 8:0.364452 9:0.193729 
-0 -8 -0 0 1:0.475219 2:0.968105 3:0.257606 4:0.123762 5:0.309309 6:-0.0690909 7:-0.0379747 8:0.364452 9:0.18701 
-0 -8 -0 0 1:0.475219 2:1 3:0.269777 4:0.123762 5:0.309309 6:-0.0690909 7:-0.0253165 8:0.368043 9:0.18701 
-1.875064240787678 -0.8128140972569042 -0 7.735280167448803 1:0.504373 2:0.116323 3:0.144016 4:0.433168 5:0.336336 6:-0.418182 7:-0.329114 8:-0.29623 9:0.0279955 
-0 -8 -0 0 1:0.539359 2:0.288931 3:0.123732 4:0.433168 5:0.336336 6:-0.362424 7:-0.329114 8:-0.174147 9:0.0615901 
-0 -8 -0 0 1:0.516035 2:0.288931 3:0.0912779 4:0.433168 5:0.309309 6:-0.362424 7:-0.379747 8:-0.174147 9:0.0391937 
-0 -3.066526140771979 -0 0 1:0.0962099 2:0.0206379 3:0.160243 4:-0.155941 5:-0.03003 6:-0.379394 7:-0.227848 8:-0.281867 9:0.0167973 
-0 -8 -0 0 1:0.0670554 2:0.0356473 3:0.176471 4:-0.163366 5:-0.00600601 6:-0.345455 7:-0.240506 8:-0.285458 9:0.0324748 
-0 -8 -0 0 1:0.0204082 2:0.189493 3:0.188641 4:-0.163366 5:0.0660661 6:-0.246061 7:-0.291139 8:-0.228007 9:0.0996641 
-0 -1.621304758099389 -0 0 1:0.381924 2:0.174484 3:0.529412 4:-0.816832 5:-0.336336 6:-0.267879 8:0.608618 9:-0.0683091 
-0 -8 -6.801290027902174 6.854884099375877 1:-0.16035 2:0.257036 3:0.415822 4:-0.809406 5:-0.255255 6:-0.461818 7:0.113924 8:0.450628 9:-0.234043 
-0 -1.74618414796461 -0 0 1:-0.154519 2:0.26454 3:0.415822 4:-0.809406 5:-0.255255 6:-0.461818 7:0.113924 8:0.45781 9:-0.231803 
-1.437256814502907 -0 -0 0 1:-0.166181 2:0.266417 3:0.391481 4:-0.829208 5:-0.291291 6:-0.473939 7:0.126582 8:0.4614 9:-0.256439 
-0 -2.069301945632379 -0 0 1:0.0379009 2:0.602251 3:0.298174 4:-0.153465 5:0.0960961 6:0.992727 7:0.481013 8:0.231598 9:0.115342 
-0 -0.3291773563774462 -0 0 1:0.0437318 2:0.617261 3:0.314402 4:-0.165842 5:0.0930931 6:0.992727 7:0.506329 8:0.231598 9:0.12654 
-0 -0 -0.08927610261770309 0 1:0.0495627 2:0.615385 3:0.310345 4:-0.158416 5:0.102102 6:0.992727 7:0.594937 8:0.249551 9:0.12206 
-0 -0.08015770623181133 -0 0 1:-0.276968 2:0.530957 3:-0.233266 4:-0.507426 5:-0.258258 6:0.820606 7:-0.113924 8:0.0448833 9:-0.204927 
-0 -1.659362409374971 -0 0 1:0.568513 2:0.114447 3:-0.513185 4:0.601485 5:-0.744745 6:-0.818182 7:-0.0379747 8:-0.378815 9:-0.491601 
-0 -0 -0.8243079817800824 0 1:0.48688 2:0.140713 3:-0.724138 4:0.509901 5:-0.942943 6:-0.871515 7:-0.341772 8:-0.400359 9:-0.569989 
-0.1387584197808635 -0 -2.069827696646621 0 1:0.475219 2:0.142589 3:-0.728195 4:0.50495 5:-0.954955 6:-0.871515 7:-0.379747 8:-0.396768 9:-0.574468 
-0 -0.6624357115403753 -0 0 1:0.475219 2:0.142589 3:-0.724138 4:0.507426 5:-0.942943 6:-0.871515 7:-0.379747 8:-0.396768 9:-0.572228 
-0 -0 -0 1.05421302013208 1:-0.0145773 2:0.0787992 3:0.334686 4:-0.200495 5:0.186186 6:-0.212121 7:-0.227848 8:-0.371634 9:0.164614 
-0 -0 -0.1049568741193235 8 1:-0.0204082 2:0.0806754 3:0.334686 4:-0.200495 5:0.186186 6:-0.212121 7:-0.227848 8:-0.368043 9:0.164614 
-5.056633522919869 -0 -8 8 1:-0.0145773 2:0.106942 3:0.334686 4:-0.200495 5:0.207207 6:-0.209697 7:-0.189873 8:-0.360862 9:0.169093 
-0 -0 -8 8 1:-0.0145773 2:0.121951 3:0.334686 4:-0.195545 5:0.207207 6:-0.207273 7:-0.189873 8:-0.35009 9:0.175812 
-0.7820758515093262 -0 -0.5672472778517764 1.912539453341767 1:0.16035 2:0.709193 3:0.273834 4:-0.183168 5:0.012012 6:0.992727 7:0.78481 8:0.382406 9:0.00783875 
-0 -0 -0 1.476028231403241 1:0.0787172 2:0.686679 3:0.286004 4:-0.235149 5:-0.00600601 6:0.992727 7:0.696203 8:0.324955 9:0.0145577 
-0 -3.483800554666889 -0 0 1:0.475219 2:0.624765 3:-0.0344828 4:0.368812 5:-0.027027 6:0.473939 7:-0.455696 8:0.533214 9:0.128779 
-0 -8 -0 0 1:0.475219 2:0.624765 3:-0.0344828 4:0.366337 5:-0.027027 6:0.473939 7:-0.455696 8:0.533214 9:0.12206 
-0 -1.978722394221843 -0 0 1:0.597668 2:0.36773 3:-0.630832 4:0.371287 5:-0.993994 6:-0.718788 7:-0.189873 8:-0.206463 9:-0.491601 
-0 -3.005044811674212 -0 0 1:0.556851 2:0.54409 3:0.0263692 4:0.180693 5:0.003003 6:-0.345455 7:-0.341772 8:0.02693 9:-0.0369541 
-0 -8 -0 0 1:0.562682 2:0.551595 3:0.030426 4:0.183168 5:0.003003 6:-0.345455 7:-0.316456 8:0.0305206 9:-0.0347144 
-0 -8 -0 0 1:0.556851 2:0.553471 3:0.0263692 4:0.188119 5:0.003003 6:-0.345455 7:-0.341772 8:0.0341113 9:-0.0369541 
-0 -8 -0 0 1:0.556851 2:0.538462 3:0.0263692 4:0.188119 5:0.003003 6:-0.347879 7:-0.341772 8:0.02693 9:-0.0369541 
-0 -8 -0 0 1:0.574344 2:0.534709 3:-0.0020284 4:0.178218 5:-0.0510511 6:-0.364848 7:-0.367089 8:0.02693 9:-0.0683091 
-0 -0.1347877485016672 -0 0 1:0.562682 2:0.54409 3:-0.00608519 4:0.178218 5:-0.0510511 6:-0.364848 7:-0.367089 8:0.02693 9:-0.0683091 
-0 -0 -4.084829443507567 0 1:0.0379009 2:0.243902 3:0.286004 4:-0.403465 5:0.132132 6:-0.229091 7:-0.164557 8:-0.195691 9:0.155655 
-0 -8 -0 0 1:0.172012 2:0.369606 3:0.27789 4:-0.428218 5:0.021021 6:-0.209697 7:-0.0253165 8:0.00179533 9:0.139978 
-0 -4.963033459814028 -0 0 1:0.172012 2:0.362101 3:0.27789 4:-0.433168 5:0.021021 6:-0.212121 7:-0.0126582 8:-0.005386 9:0.137738 
-0 -0 -6.575611428166609 0 1:0.16035 2:0.348968 3:0.298174 4:-0.410891 5:0.0570571 6:-0.207273 7:0.0126582 8:-0.0305206 9:0.148936 
-0 -1.093901891737544 -0 0 1:-0.0670554 2:0.388368 3:0.890467 4:-1 5:0.315315 6:-0.146667 7:0.0253165 8:1 9:0.0459127 
-0 -0 -2.04211290853609 0 1:0.0204082 2:0.465291 3:0.959432 4:-1 5:0.423423 6:-0.0933333 7:0.379747 8:1 9:0.0683091 
-0 -0 -0.6672474037737572 1.086843275679158 1:0.0145773 2:0.457786 3:0.983773 4:-1 5:0.411411 6:-0.0933333 7:0.417722 8:1 9:0.0727884 
-0.6161035114091895 -0 -0 8 1:0.0262391 2:0.470919 3:0.991886 4:-1 5:0.411411 6:-0.0836364 7:0.443038 8:1 9:0.0705487 
-0.5659136479848288 -0 -0 0 1:-0.0787172 2:0.577861 3:0.298174 4:-1 5:-0.363363 6:-0.478788 7:0.455696 8:0.888689 9:-0.319149 
-0.176835125814452 -0 -0 1.759222028465234 1:-0.0728863 2:0.587242 3:0.298174 4:-0.868812 5:-0.363363 6:-0.476364 7:0.405063 8:0.89228 9:-0.323628 
-0.004752343589250342 -0 -0 -0 1:-0.166181 2:0.258912 3:0.217039 4:-0.274752 5:0.381381 6:-0.372121 7:0.670886 8:0.166966 9:-0.596865 
-8 -0 -0 -0 1:-0.166181 2:0.257036 3:0.212982 4:-0.274752 5:0.378378 6:-0.379394 7:0.670886 8:0.166966 9:-0.599104 
-2.408273390469281 -0 -0 -0 1:-0.218659 2:0.262664 3:0.131846 4:-0.277228 5:0.336336 6:-0.435152 7:0.455696 8:0.13465 9:-0.666293 
-0 -0 -5.168226589187239 -0 1:-0.212828 2:0.262664 3:0.131846 4:-0.277228 5:0.336336 6:-0.435152 7:0.455696 8:0.13465 9:-0.661814 
-0 -1.523754671869793 -0 -0.2522293403463637 1:-0.504373 2:-0.110694 3:-0.699797 4:-0.405941 5:0.225225 6:-0.852121 7:-0.278481 8:-0.228007 9:-0.93505 
-0 -0 -6.42897361699568 -0 1:-0.504373 2:-0.108818 3:-0.699797 4:-0.405941 5:0.228228 6:-0.849697 7:-0.253165 8:-0.235189 9:-0.923852 
-1.846765532270939 -0 -0 -0 1:-0.510204 2:-0.110694 3:-0.69574 4:-0.415842 5:0.228228 6:-0.852121 7:-0.253165 8:-0.238779 9:-0.926092 
-0 -0 -8 -0 1:-0.107872 2:0.540338 3:-0.127789 5:0.039039 6:-0.481212 7:0.405063 8:0.357271 9:-0.287794 
-0 -0 -2.168567369305986 -0 1:-0.107872 2:0.534709 3:-0.127789 5:0.039039 6:-0.481212 7:0.405063 8:0.346499 9:-0.287794 
-0 -0 -8 -0 1:-0.107872 2:0.534709 3:-0.131846 5:0.039039 6:-0.481212 7:0.405063 8:0.346499 9:-0.290034 
-0 -0 -8 -0 1:-0.107872 2:0.534709 3:-0.131846 5:0.039039 6:-0.481212 7:0.405063 8:0.346499 9:-0.290034 
-0.04098184881520119 -0 -0 -0 1:-0.102041 2:0.534709 3:-0.127789 4:0.00742574 5:0.045045 6:-0.481212 7:0.455696 8:0.357271 9:-0.290034 
-0 -0 -8 -0 1:-0.0787172 2:0.549719 3:-0.188641 4:0.0148515 5:0.00600601 6:-0.486061 7:0.405063 8:0.35009 9:-0.296753 
-0 -0 -8 -0 1:-0.0787172 2:0.549719 3:-0.188641 4:0.0148515 5:0.00600601 6:-0.486061 7:0.405063 8:0.35009 9:-0.296753 
-0 -0 -8 -0 1:-0.0787172 2:0.549719 3:-0.188641 4:0.0148515 5:0.00600601 6:-0.486061 7:0.405063 8:0.35009 9:-0.296753 
-0 -0 -8 -0 1:-0.0728863 2:0.577861 3:-0.156187 4:0.039604 5:0.027027 6:-0.473939 7:0.417722 8:0.364452 9:-0.292273 
-0 -0 -8 -0 1:-0.0728863 2:0.577861 3:-0.144016 4:0.039604 5:0.027027 6:-0.464242 7:0.43038 8:0.375224 9:-0.287794 
-0 -0 -8 -0 1:0.131195 2:-0.223265 3:-0.391481 4:0.326733 5:-0.624625 6:-0.830303 7:-0.240506 8:-0.691203 9:-0.513998 
-0 -0 -8 -0 1:0.0962099 2:-0.234522 3:-0.411765 4:0.326733 5:-0.624625 6:-0.837576 7:-0.240506 8:-0.698384 9:-0.527436 
-0 -0 -0.103828426710133 -3.468750796490991 1:0.177843 2:-0.27955 3:-0.440162 4:0.381188 5:-0.591592 6:-0.835152 7:-0.341772 8:-0.773788 9:-0.484882 
-0 -6.134064527094122 -0 -0 1:0.265306 2:-0.307692 3:-0.225152 4:0.287129 5:-0.492492 6:-0.752727 7:-0.164557 8:-0.737882 9:-0.384099 
-0 -5.447891844988607 -0 -0 1:0.568513 2:-0.105066 3:0.440162 4:0.618812 5:0.576577 6:-0.352727 7:-0.518987 8:-0.597846 9:0.0414334 
-0.3387827271303975 -0 -0 -0 1:0.510204 2:-0.221388 3:0.476673 4:0.606436 5:0.585586 6:-0.355152 7:-0.64557 8:-0.684022 9:0.0391937 
-0 -0 -5.965425515443671 -0 1:-0.35277 2:0.405253 3:0.614604 4:-0.683168 5:0.948949 6:-0.0763636 7:-0.0632911 8:0.67684 9:0.379619 
-1.446588559076372 -2.852959320588869 -2.417044909567077 -0 1:-0.346939 2:0.424015 3:0.630832 4:-0.527228 5:0.936937 6:-0.0812121 7:-0.0759494 8:0.705566 9:0.368421 
-0 -0 -0 -0.932553193120903 1:-0.00291545 2:0.497186 3:0.780933 4:-1 5:0.0630631 6:0.241212 7:0.78481 8:0.978456 9:0.325868 
-0 -2.768345691055784 -0 -0 1:-0.107872 2:0.371482 3:0.728195 4:-1 5:0.114114 6:0.180606 7:0.696203 8:0.788151 9:0.31019 
-0 -0 -6.44800364356843 -0 1:-0.0962099 2:0.365854 3:0.732252 4:-1 5:0.129129 6:0.18303 7:0.696203 8:0.770197 9:0.307951 
-0 -0 -0.1836069173510915 -0 1:-0.0962099 2:0.373358 3:0.740365 4:-1 5:0.153153 6:0.18303 7:0.708861 8:0.780969 9:0.31243 
-0 -3.549349649022772 -0 -0 1:-0.28863 2:0.285178 3:0.533469 4:-0.534653 5:-0.00600601 6:-0.233939 7:-0.443038 8:-0.253142 9:-0.0100784 
-0 -8 -0 -0 1:-0.28863 2:0.285178 3:0.553753 4:-0.534653 5:-0.00600601 6:-0.221818 7:-0.443038 8:-0.238779 9:-0.0055991 
-0 -0.01439748971541645 -0 -3.547991122521828 1:-0.28863 2:0.196998 3:0.586207 4:-0.542079 5:-0.024024 6:-0.214545 7:-0.443038 8:-0.253142 9:0.0055991 
-0 -0 -0 -8 1:-0.306122 2:0.227017 3:0.496957 4:-0.527228 5:0.021021 6:-0.21697 7:-0.379747 8:-0.357271 9:0.0571109 
-0 -0 -2.710969420347233 -0 1:-0.306122 2:0.249531 3:0.513185 4:-0.566832 5:0.0870871 6:-0.18303 7:-0.253165 8:-0.393178 9:0.0795073 
-0 -0 -8 -0 1:-0.329446 2:0.255159 3:0.513185 4:-0.576733 5:0.0870871 6:-0.192727 7:-0.278481 8:-0.411131 9:0.0795073 
-0 -0 -8 -0 1:-0.311953 2:0.266417 3:0.513185 4:-0.576733 5:0.102102 6:-0.190303 7:-0.265823 8:-0.411131 9:0.0839866 
-0 -0 -4.584167818004054 -0 1:-0.650146 2:0.131332 3:0.69574 4:-0.70297 5:-0.108108 6:-0.187879 7:-0.240506 8:-0.612208 9:0.0212766 
-0 -0 -8 -0 1:-0.667638 2:0.121951 3:0.687627 4:-0.69802 5:-0.117117 6:-0.190303 7:-0.253165 8:-0.633752 9:0.0167973 
-8 -0 -8 -0 1:-0.667638 2:0.118199 3:0.68357 4:-0.700495 5:-0.117117 6:-0.190303 7:-0.253165 8:-0.633752 9:0.0145577 
-0 -0 -8 -0 1:-0.661808 2:0.121951 3:0.68357 4:-0.700495 5:-0.117117 6:-0.190303 7:-0.253165 8:-0.630162 9:0.0167973 
-3.104796379640559 -0 -8 -0 1:-0.655977 2:0.123827 3:0.68357 4:-0.69802 5:-0.117117 6:-0.190303 7:-0.227848 8:-0.626571 9:0.0167973 
-0 -0 -8 -0 1:-0.230321 2:0.255159 3:0.148073 4:-0.344059 5:0.306306 6:-0.44 7:0.367089 8:0.131059 9:-0.708847 
-8 -0 -0 -0 1:-0.247813 2:0.260788 3:0.103448 4:-0.388614 5:0.24024 6:-0.403636 7:0.278481 8:0.145422 9:-0.715566 
-4.275566384966119 -0 -5.026385099499017 -0 1:-0.247813 2:0.260788 3:0.0993915 4:-0.39604 5:0.234234 6:-0.406061 7:0.253165 8:0.152603 9:-0.715566 
-0 -0 -0 -0.4581840208254763 1:-0.22449 2:0.266417 3:0.103448 4:-0.391089 5:0.234234 6:-0.396364 7:0.253165 8:0.159785 9:-0.711086 
-0 -0 -0 -0.1800489094431685 1:-0.428571 2:-0.0562852 3:-0.78499 4:-0.443069 5:0.156156 6:-0.895758 7:-0.329114 8:-0.235189 9:-0.959686 
-0 -0 -8 -0 1:0.0145773 2:0.60788 3:-0.103448 4:-0.0371287 5:0.018018 6:-0.403636 7:0.405063 8:0.40754 9:-0.258679 
-0 -0 -0.3761295609475101 -0 1:0.0145773 2:0.60788 3:-0.103448 4:-0.0371287 5:0.012012 6:-0.403636 7:0.405063 8:0.40754 9:-0.258679 
-0 -0 -1.00633084432364 -0 1:0.00874636 2:0.624765 3:-0.0912779 4:-0.0717822 5:-0.021021 6:-0.37697 7:0.405063 8:0.443447 9:-0.231803 
-0 -8 -0 -0 1:0.294461 2:-0.26454 3:-0.0993915 4:0.190594 5:-0.504505 6:-0.68 7:-0.0253165 8:-0.633752 9:-0.354983 
-0 -0.3334317375650124 -0 -0 1:0.300292 2:-0.262664 3:-0.0953347 4:0.195545 5:-0.504505 6:-0.68 7:-0.0253165 8:-0.633752 9:-0.354983 
-0 -0 -0 -5.755278613033849 1:0.317784 2:-0.260788 3:-0.0912779 4:0.175743 5:-0.498498 6:-0.670303 7:0.0506329 8:-0.594255 9:-0.341545 
-0 -0 -0 -0.3802775762592223 1:0.35277 2:-0.273921 3:-0.0750507 4:0.188119 5:-0.489489 6:-0.675152 7:0.0506329 8:-0.594255 9:-0.352744 
-1.977073203828069 -0 -0 -0 1:0.492711 2:-0.123827 3:0.56998 4:0.534653 5:0.588589 6:-0.265455 7:-0.227848 8:-0.597846 9:0.117581 
-8 -0 -0 -0 1:0.492711 2:-0.121951 3:0.56998 4:0.534653 5:0.588589 6:-0.265455 7:-0.227848 8:-0.594255 9:0.117581 
-0 -0 -3.789610837058407 -0 1:0.463557 2:-0.118199 3:0.513185 4:0.509901 5:0.555556 6:-0.275152 7:-0.240506 8:-0.590664 9:0.0974244 
-0 -0 -0 -4.686865628361396 1:-0.0845481 2:0.397749 3:0.740365 4:-1 5:0.159159 6:0.173333 7:0.721519 8:0.870736 9:0.303471 
-0.6202469534617961 -0 -0 -0 1:-0.177843 2:0.403377 3:0.752535 4:-1 5:0.18018 6:0.185455 7:0.759494 8:0.917415 9:0.283315 
-0 -0 -0 -6.862568545436193 1:-0.195335 2:0.347092 3:0.492901 4:-0.564356 5:0.0750751 6:-0.173333 7:-0.0379747 8:-0.335727 9:0.0929451 
-0 -3.454593019378905 -0 -0 1:-0.201166 2:0.347092 3:0.488844 4:-0.564356 5:0.0690691 6:-0.168485 7:0.0379747 8:-0.342908 9:0.101904 
-0 -0 -1.374947023547483 -0 1:-0.626822 2:0.133208 3:0.56998 4:-0.688119 5:-0.156156 6:-0.233939 7:-0.202532 8:-0.662478 9:-0.012318 
-0.02456766125703154 -0 -8 -0 1:-0.632653 2:0.133208 3:0.561866 4:-0.688119 5:-0.159159 6:-0.233939 7:-0.202532 8:-0.662478 9:-0.0145577 
-0 -0 -0.2666018707740967 -0 1:-0.632653 2:0.133208 3:0.561866 4:-0.688119 5:-0.159159 6:-0.233939 7:-0.202532 8:-0.67325 9:-0.0145577 
-4.178264770430147 -0 -0 -0 1:-0.148688 2:0.27955 3:0.127789 4:-0.445545 5:0.231231 6:-0.350303 7:0.64557 8:0.238779 9:-0.729003 
-0 -0 -8 -0 1:-0.317784 2:-0.0337711 3:-0.659229 4:-0.527228 5:0.189189 6:-0.854545 8:-0.199282 9:-0.961926 
-0 -0 -8 -0 1:-0.317784 2:-0.0356473 3:-0.663286 4:-0.532178 5:0.186186 6:-0.849697 7:0.0253165 8:-0.195691 9:-0.966405 
-0 -0 -0.9935022318954637 -0 1:-0.323615 2:-0.0318949 3:-0.667343 4:-0.537129 5:0.177177 6:-0.844848 7:0.0379747 8:-0.192101 9:-0.968645 
-0 -0 -8 -0 1:-0.317784 2:-0.0262664 3:-0.663286 4:-0.537129 5:0.177177 6:-0.844848 7:0.0379747 8:-0.18851 9:-0.968645 
-0 -8 -0 -0 1:-0.00874636 2:0.624765 3:0.0669371 4:-0.222772 5:-0.036036 6:-0.29697 7:0.392405 8:0.411131 9:-0.18925 
-0 -0 -0 -1.300027096853986 1:0.00874636 2:0.624765 3:0.0669371 4:-0.217822 5:-0.027027 6:-0.294545 7:0.405063 8:0.411131 9:-0.178052 
-0 -2.06465403157243 -0 -8 1:0.00874636 2:0.624765 3:0.0669371 4:-0.215347 5:-0.027027 6:-0.289697 7:0.405063 8:0.414722 9:-0.178052 
-0 -0 -6.69626844955422 -0 1:0.399417 2:-0.330206 3:-0.0953347 4:0.121287 5:-0.486486 6:-0.677576 7:0.139241 8:-0.626571 9:-0.346025 
-0 -0 -0 -7.40128953598892 1:0.422741 2:0.0469043 3:0.488844 4:0.413366 5:0.471471 6:-0.243636 7:-0.189873 8:-0.493716 9:0.113102 
-0 -0 -0 -8 1:0.411079 2:0.0469043 3:0.488844 4:0.413366 5:0.471471 6:-0.243636 7:-0.189873 8:-0.493716 9:0.113102 
-0.0716033348613342 -0 -0 -0 1:0.41691 3:0.561866 4:0.418317 5:0.486486 6:-0.212121 7:-0.151899 8:-0.493716 9:0.146697 
-0 -3.425323190121607 -0 -0 1:0.428571 2:0.0600375 3:0.529412 4:0.428218 5:0.483483 6:-0.2 7:-0.101266 8:-0.432675 9:0.146697 
-0 -0 -3.884551666285574 -0 1:0.428571 2:0.0450281 3:0.529412 4:0.425743 5:0.483483 6:-0.202424 7:-0.101266 8:-0.443447 9:0.146697 
-0 -0 -0 -3.956562775574867 1:-0.195335 2:0.525328 3:0.622718 4:-0.638614 5:0.888889 6:-0.110303 7:0.101266 8:0.849192 9:0.325868 
-0 -0 -0 -2.304861009909466 1:-0.201166 2:0.476548 3:0.862069 4:-1 5:0.177177 6:0.2 7:0.721519 8:1 9:0.274356 
-0 -0 -8 -0 1:-0.172012 2:0.380863 3:0.602434 4:-0.643564 5:0.0870871 6:-0.107879 7:0.189873 8:-0.324955 9:0.139978 
-0 -0 -2.448367837581478 -0 1:-0.172012 2:0.380863 3:0.606491 4:-0.641089 5:0.0870871 6:-0.107879 7:0.189873 8:-0.324955 9:0.142217 
