svm_type c_svc
kernel_type rbf
gamma 0.5
nr_class 5
total_sv 220
rho 0.447626 0.829585 -0.0739399 0.507373 0.0649112 1.42132 0.184633 0.133002 -0.529347 0.224497
label 1 3 6 8 9
nr_sv 31 55 41 49 44
SV
0 0 0 11.25567272180002 1:-0.510689 3:0.0951456 4:-0.378035 5:0.369369 6:-0.430303 7:-0.0386266 8:-0.00179533 9:-0.569989 
0 7.970843722116515 0 0 1:-0.539192 2:0.00187617 3:0.0291262 4:-0.39422 5:0.312312 6:-0.444848 7:-0.0987124 8:-0.00179533 9:-0.576708 
0 0.6669529354173082 0 0 1:-0.225653 2:-0.19137 3:0.386408 4:0.412717 5:0.465465 6:-0.384242 7:-0.553648 8:-0.278276 9:-0.101904 
0 0 0 4.133490152522935 1:-0.220903 2:-0.193246 3:0.386408 4:0.412717 5:0.471471 6:-0.381818 7:-0.553648 8:-0.274686 9:-0.106383 
5.473294089422035 0 0 0 1:-0.220903 2:-0.172608 3:0.394175 4:0.412717 5:0.486486 6:-0.355152 7:-0.553648 8:-0.267504 9:-0.0772676 
1.155981933350205 0 2.10869898151656 0 1:-0.244656 2:-0.172608 3:0.394175 4:0.396532 5:0.471471 6:-0.369697 7:-0.579399 8:-0.274686 9:-0.0907055 
0 1.674189518859526 0 0 1:-0.220903 2:-0.39212 3:0.394175 4:0.0890173 5:-0.0960961 6:-0.464242 7:0.00429185 8:-0.206463 9:-0.370661 
0 0 0 1.400235829911184 1:0.0213777 2:-0.0525328 3:0.770874 4:0.454335 5:0.96997 6:-0.0254545 7:-0.0128755 8:-0.371634 9:0.388578 
2.030542989958191 0 0.9953468722204536 0 1:-0.00712589 2:-0.198874 3:0.549515 4:0.269364 5:0.750751 6:-0.204848 7:-0.545064 8:-0.421903 9:0.24972 
0 0 0 9.407073797945573 1:-0.0023753 2:-0.183865 3:0.580583 4:0.255491 5:0.744745 6:-0.192727 7:-0.51073 8:-0.414722 9:0.265398 
0 0 0.5988217200571676 4.83939937607102 1:-0.852732 2:-0.161351 3:0.666019 4:-0.546821 5:0.156156 6:-0.29697 7:-0.536481 8:-0.924596 9:-0.00111982 
0 7.067065353861523 0 0 1:-0.847981 2:-0.144465 3:0.669903 4:-0.544509 5:0.165165 6:-0.284848 7:-0.51073 8:-0.885099 9:0.0055991 
0 0 0 5.339909689189584 1:-0.553444 2:0.183865 3:0.0330097 4:-0.449711 5:0.222222 6:-0.396364 7:-0.0128755 8:0.235189 9:-0.632699 
1.514940584400118 0 0 0 1:-0.315914 2:-0.114447 3:0.359223 4:-0.0450867 5:-0.231231 6:-0.425455 7:0.175966 8:-0.0736086 9:-0.357223 
0 0 0 0.4489698556459353 1:-0.306413 2:-0.114447 3:0.378641 4:-0.0427746 5:-0.213213 6:-0.418182 7:0.201717 8:-0.0736086 9:-0.348264 
0 0 0.1740350084281555 0 1:-0.0546318 2:-0.257036 3:0.603883 4:0.0843931 5:0.66967 6:-0.21697 7:-0.364807 8:-0.429084 9:0.254199 
0 0 0 9.085862839110069 1:-0.558195 2:0.281426 3:0.0601942 4:-0.516763 5:0.198198 6:-0.292121 7:0.0472103 8:0.274686 9:-0.601344 
0 0 0 11.48614097590842 1:-0.591449 2:0.354597 3:-0.0640777 4:-0.542197 5:0.105105 6:-0.328485 7:-0.0300429 8:0.317774 9:-0.690929 
1.508189252608367 8.649392968268685 3.026216178606131 0 1:-0.605701 2:0.35272 3:-0.0796117 4:-0.53526 5:0.0960961 6:-0.330909 7:-0.0643777 8:0.328546 9:-0.697648 
0 0.6994316668634177 0 0 1:-0.634204 2:0.251407 3:0.0174757 4:-0.523699 5:0.186186 6:-0.393939 7:-0.11588 8:0.228007 9:-0.612542 
0.09760795209470691 0 0 0 1:-0.368171 2:0.0769231 3:0.502913 4:0.0358382 5:0.630631 6:-0.175758 7:-0.287554 8:-0.0951526 9:0.525196 
0 4.645382615849873 3.438974670240073 0 1:-0.382423 2:0.0881801 3:0.467961 4:0.0358382 5:0.627628 6:-0.185455 7:-0.287554 8:-0.105925 9:0.50056 
0 0 0 2.55930459661563 1:-0.344418 2:-0.00187617 3:0.413592 4:-0.158382 5:-0.276276 6:-0.372121 7:0.330472 8:-0.0448833 9:-0.31243 
0 1.910308834579681 2.488344113435784 0 1:-0.349169 3:0.394175 4:-0.16763 5:-0.297297 6:-0.37697 7:0.321888 8:-0.048474 9:-0.316909 
0 2.04896555721562 0 0.7554648167719563 1:0.0261283 2:-0.63227 3:0.949515 4:0.315607 5:0.840841 6:-0.0981818 7:0.545064 8:-0.633752 9:0.350504 
0.2872993962491984 0 0 0 1:0.0213777 2:-0.667917 3:1 4:0.310983 5:0.876877 6:-0.0763636 7:0.562232 8:-0.637343 9:0.368421 
0 3.692715968171375 0.227202131272715 0 1:-0.11639 2:-0.457786 3:0.603883 4:-0.116763 5:0.498498 6:-0.270303 7:-0.0729614 8:-0.533214 9:0.222844 
0 0 0 3.334109483660359 1:-0.957245 2:-0.277674 3:0.654369 4:-1 5:-0.252252 6:-0.362424 7:-0.433476 8:-0.7307 9:-0.106383 
0 9.115639254788082 0 1.125042062156669 1:-0.976247 2:-0.234522 3:0.603883 4:-1 5:-0.267267 6:-0.36 7:-0.459227 8:-0.601436 9:-0.106383 
0 4.682282484373637 1.460766926663615 0 1:-0.976247 2:-0.255159 3:0.6 4:-1 5:-0.243243 6:-0.347879 7:-0.502146 8:-0.583483 9:-0.106383 
1.767928816612033 0 0 0 1:-0.980998 2:-0.257036 3:0.596117 4:-1 5:-0.249249 6:-0.355152 7:-0.502146 8:-0.590664 9:-0.113102 
-0 0 32 0 1:0.163895 2:0.709193 3:0.0563107 4:0.123699 5:0.126126 6:0.231515 7:-0.296137 8:0.393178 9:0.131019 
-0 0 19.20587767428322 0 1:0.163895 2:0.709193 3:0.0640777 4:0.123699 5:0.129129 6:0.231515 7:-0.27897 8:0.393178 9:0.135498 
-0 0 32 0 1:0.211401 2:0.709193 3:0.0368932 4:0.121387 5:0.129129 6:0.231515 7:-0.253219 8:0.429084 9:0.101904 
-0 0 32 0 1:0.140143 2:0.703565 3:0.0291262 4:0.0913295 5:0.165165 6:0.0860606 7:-0.270386 8:0.371634 9:0.0862262 
-0 0 32 0 1:0.140143 2:0.709193 3:0.0291262 4:0.10289 5:0.165165 6:0.0909091 7:-0.270386 8:0.389587 9:0.0862262 
-0 0 7.567466751086193 0 1:0.159145 2:0.703565 3:0.0368932 4:0.0936416 5:0.177177 6:0.0860606 7:-0.253219 8:0.396768 9:0.0795073 
-0 3.489572882299568 1.140684956695263 0 1:0.0783848 2:0.675422 3:0.0213592 4:0.0682081 5:0.153153 6:0.049697 7:-0.27897 8:0.35009 9:0.101904 
-0 0.6630562059525439 0 0 1:0.04038 2:0.611632 3:0.00970874 4:0.065896 5:0.153153 6:0.030303 7:-0.296137 8:0.29623 9:0.0660694 
-0 0 1.593249715809958 0 1:-0.244656 2:0.260788 3:0.2 4:-0.0381503 5:0.144144 6:0.76 7:-0.373391 8:-0.0664273 9:0.227324 
-0.3105441512566552 0 0 0 1:-0.301663 2:0.20075 3:0.238835 4:-0.0381503 5:0.219219 6:0.747879 7:-0.347639 8:-0.131059 9:0.285554 
-1.165149314971595 0 0 0 1:-0.35867 2:0.153846 3:0.227184 4:-0.0381503 5:0.21021 6:0.77697 7:-0.399142 8:-0.170557 9:0.294513 
-0 1.076125123539194 0 0.9705756221015558 1:0.353919 2:0.170732 3:-0.786408 4:0.812717 5:-0.591592 6:-0.740606 7:-0.399142 8:-0.0305206 9:-0.473684 
-0 0 5.84208680471843 0 1:0.330166 2:0.178236 3:-0.638835 4:0.812717 5:-0.504505 6:-0.694545 7:-0.467811 8:-0.0843806 9:-0.426652 
-6.034496165637643 0 0 0 1:0.140143 2:0.0187617 3:0.238835 4:0.528324 5:0.573574 6:-0.287273 7:-0.83691 8:-0.174147 9:0.075028 
-0 0.4026032367224937 0 0 1:0.154394 2:0.0694184 3:0.242718 4:0.528324 5:0.600601 6:-0.284848 7:-0.828326 8:-0.170557 9:0.0884658 
-0 0 0 6.119545066771204 1:0.159145 2:0.206379 3:0.250485 4:0.537572 5:0.615616 6:-0.229091 7:-0.819742 8:-0.127469 9:0.0974244 
-0.6207092657749023 0.6716859316320209 0 0.221647567557432 1:0.805226 2:-0.750469 3:0.215534 4:0.986127 5:0.273273 6:-0.432727 7:0.862661 8:-0.482944 9:0.0593505 
-0 1.396337566445608 0 2.086294623472083 1:0.805226 2:-0.196998 3:0.238835 4:0.974566 5:0.408408 6:-0.187879 7:0.819742 8:-0.292639 9:0.209406 
-0 0 3.629193354704867 0 1:0.814727 2:-0.168856 3:0.231068 4:0.979191 5:0.402402 6:-0.18303 7:0.854077 8:-0.281867 9:0.213886 
-0.4247053871084163 0 0 0 1:0.786223 2:-0.198874 3:0.219417 4:0.96763 5:0.381381 6:-0.202424 7:0.83691 8:-0.29982 9:0.198208 
-0 0.06828786499901526 0 0 1:0.786223 2:-0.21576 3:0.219417 4:0.972254 5:0.384384 6:-0.209697 7:0.854077 8:-0.29982 9:0.195969 
-0 1.480683854691371 0 1.594865182991155 1:0.60095 2:-1 3:-0.153398 4:0.537572 5:-0.135135 6:-0.949091 7:-0.553648 8:-0.766607 9:-0.245241 
-0 0 0 0.5855618328381575 1:0.619952 2:-0.849906 3:-0.137864 4:0.521387 5:-0.135135 6:-0.883636 7:-0.545064 8:-0.701975 9:-0.220605 
-0 4.501669106332294 0 14.85101981419843 1:0.0023753 2:-0.300188 3:0.0291262 4:0.169942 5:-0.189189 6:-0.609697 7:-0.433476 8:-0.454219 9:-0.202688 
-0 1.5612162401115 0 3.42809089453384 1:-0.624703 2:-0.187617 3:-0.118447 4:-0.417341 5:-0.501502 6:-0.861818 7:-0.708155 8:-0.436266 9:-0.406495 
-0 0.006946258225332152 0 0 1:-0.653207 2:-0.234522 3:-0.149515 4:-0.417341 5:-0.510511 6:-0.878788 7:-0.716738 8:-0.4614 9:-0.417693 
-0 2.32029957802894 0 0 1:-0.605701 2:-0.270169 3:-0.0679612 4:-0.271676 5:-0.435435 6:-0.827879 7:-0.725322 8:-0.587074 9:-0.397536 
-0 0 0 1.17067358395838 1:-0.605701 2:-0.281426 3:-0.0796117 4:-0.287861 5:-0.492492 6:-0.832727 7:-0.725322 8:-0.587074 9:-0.417693 
-2.40348137135353 0 0 0 1:-0.543943 2:-0.0731707 3:0.0330097 4:-0.301734 5:-0.36036 6:-0.655758 7:-0.733906 8:-0.375224 9:-0.298992 
-0 0 6.135469504634887 0 1:-0.543943 2:-0.0731707 3:-0.00970874 4:-0.371098 5:-0.42042 6:-0.66303 7:-0.785408 8:-0.364452 9:-0.319149 
-0.1101061722944576 4.110888481468811 0 0 1:-0.140143 2:0.606004 3:0.0330097 4:-0.0890173 5:0.0900901 6:0.202424 7:-0.270386 8:0.213645 9:0.213886 
-0 0 0 3.799316707786312 1:-0.130641 2:0.606004 3:0.0330097 4:-0.0936416 5:0.0930931 6:0.202424 7:-0.270386 8:0.213645 9:0.207167 
-0 0 4.273288414257502 0 1:-0.387173 2:0.178236 3:0.297087 4:-0.105202 5:0.117117 6:0.98303 7:-0.44206 8:-0.206463 9:0.337066 
-0 0 14.1011304480119 0 1:0.0308789 2:0.624765 3:0.475728 4:0.465896 5:0.234234 6:1 7:-0.536481 8:0.605027 9:0.789474 
-0 0.5378251091070048 0 0 1:0.254157 2:0.318949 3:-0.891262 4:0.72948 5:-0.75976 6:-0.745455 7:-0.682403 8:-0.0664273 9:-0.527436 
-0 1.717886891717728 0 0 1:0.287411 2:0.358349 3:-0.937864 4:0.74104 5:-0.84985 6:-0.764848 7:-0.613734 8:0.02693 9:-0.536394 
-0 0 0 0.04135942771773402 1:0.287411 2:0.358349 3:-0.937864 4:0.736416 5:-0.864865 6:-0.764848 7:-0.622318 8:0.02693 9:-0.536394 
-0 0 9.332124427448726 0 1:0.173397 2:0.322702 3:0.180583 4:0.380347 5:0.489489 6:-0.255758 7:-0.811159 8:-0.102334 9:0.108623 
-0 0 21.51823142181757 0 1:0.187648 2:0.639775 3:0.157282 4:0.371098 5:0.396396 6:-0.192727 7:-0.811159 8:0.0664273 9:0.133259 
-0 0 3.395429718885495 0 1:0.27791 2:0.493433 3:0.145631 4:0.39422 5:0.312312 6:-0.267879 7:-0.776824 8:0.048474 9:0.0727884 
-0 0 0.6856326795565233 0 1:0.553444 2:-0.688555 3:-0.157282 4:0.442775 5:-0.126126 6:-0.806061 7:-0.630901 8:-0.630162 9:-0.18925 
-0 0 23.60402240236423 8.408457931906852 1:0.0356295 2:-0.183865 3:0.0330097 4:0.0219653 5:-0.222222 6:-0.556364 7:-0.381974 8:-0.278276 9:-0.193729 
-1.285015670650368 0 0 0 1:0.04038 2:-0.183865 3:0.0446602 4:0.0589595 5:-0.213213 6:-0.539394 7:-0.356223 8:-0.231598 9:-0.182531 
-0 0 10.9172389117689 0 1:-0.0973872 2:0.709193 3:0.227184 4:-0.158382 5:0.00600601 6:0.694545 7:-0.055794 8:0.314183 9:0.285554 
-0.07246210580047222 0 0 0 1:-0.0831354 2:0.709193 3:0.227184 4:-0.151445 5:-0.018018 6:0.648485 7:-0.0128755 8:0.35368 9:0.254199 
-0.1285433529905569 0.9311873635950015 0 1.525639775412238 1:-0.505938 2:0.287054 3:0.658252 4:-0.190751 5:-0.0780781 6:0.992727 7:-0.519313 8:-0.238779 9:0.419933 
-0.105675736106307 1.213443732969346 0 0.1673077304438715 1:0.064133 2:0.624765 3:0.848544 4:0.435838 5:0.354354 6:1 7:-0.175966 8:0.590664 9:0.932811 
-0 0 0 1.453971222008761 1:0.353919 2:0.58349 3:-0.902913 4:0.523699 5:-0.873874 6:-0.629091 7:-0.527897 8:0.163375 9:-0.433371 
-0 0 13.06314271019309 0 1:0.173397 2:0.484053 3:-0.607767 4:0.523699 5:-0.528529 6:-0.529697 7:-0.579399 8:0.00179533 9:-0.290034 
-0 0 22.75164344541296 0 1:0.315914 2:0.662289 3:0.223301 4:0.310983 5:0.237237 6:-0.166061 7:-0.587983 8:0.271095 9:0.119821 
-0 0 32 0 1:0.315914 2:0.658537 3:0.207767 4:0.308671 5:0.222222 6:-0.175758 7:-0.596567 8:0.271095 9:0.108623 
-0.01153321669063975 0.03058284879360356 0 0 1:0.990499 2:-0.0300188 3:0.219417 4:0.750289 5:0.0690691 6:-0.226667 7:1 8:0.070018 9:0.0996641 
-0 0 0 0.05879317253693596 1:0.976247 2:-0.0731707 3:0.165049 4:0.722543 5:-0.018018 6:-0.236364 7:0.974249 8:0.070018 9:0.0638298 
-0 0 4.300041044802127 0 1:0.415677 2:-0.574109 3:-0.0291262 4:0.304046 5:-0.0570571 6:-0.706667 7:-0.519313 8:-0.536804 9:-0.106383 
-1.16336310405931 2.114879653776259 0 0 1:-0.0831354 2:-0.245779 3:0.0330097 4:-0.017341 5:-0.237237 6:-0.568485 7:-0.44206 8:-0.364452 9:-0.180291 
-0 -0 0 11.60253107293539 1:-0.178147 2:0.255159 3:-0.219417 4:-0.153757 5:0.375375 6:-0.621818 7:0.175966 8:0.339318 9:-0.720045 
-5.791197765468024 -0 0 0 1:-0.239905 2:0.227017 3:-0.2 4:-0.139884 5:0.408408 6:-0.655758 7:0.124464 8:0.321364 9:-0.711086 
-0 -1.072649205630622 0 0 1:-0.315914 2:-0.0900563 3:-0.18835 4:-0.271676 5:0.297297 6:-0.752727 7:-0.364807 8:-0.184919 9:-0.852184 
-0 -0 0 11.48037175809336 1:-0.349169 2:0.00375235 3:-0.304854 4:-0.345665 5:0.198198 6:-0.784242 7:-0.321888 8:-0.105925 9:-0.910414 
-0 -0 0 15.8177373779603 1:-0.377672 2:-0.0356473 3:-0.304854 4:-0.354913 5:0.219219 6:-0.798788 7:-0.330472 8:-0.163375 9:-0.888018 
-0 -0.314038366280723 0 0 1:-0.168646 2:0.624765 3:-0.316505 4:0.0196532 5:-0.027027 6:-0.447273 7:-0.0901288 8:0.62298 9:-0.298992 
-0 -3.930215882206467 5.049264542741989 32 1:-0.19715 2:0.621013 3:-0.227184 4:0.00115607 5:0.03003 6:-0.432727 7:-0.11588 8:0.561939 9:-0.24972 
-0 -0 0 32 1:-0.19715 2:0.621013 3:-0.227184 4:0.00115607 5:0.03003 6:-0.435152 7:-0.11588 8:0.561939 9:-0.24972 
-0 -0 0 7.615295571400337 1:-0.19715 2:0.621013 3:-0.246602 4:0.00115607 5:0.03003 6:-0.44 7:-0.11588 8:0.561939 9:-0.254199 
-0 -0 12.03448043239472 0 1:0.102138 2:-0.181989 3:-0.716505 4:0.486705 5:-0.696697 6:-0.990303 7:-0.296137 8:-0.508079 9:-0.668533 
-0 -0 0 4.733374665193138 1:0.0023753 2:-0.288931 3:-0.654369 4:0.486705 5:-0.660661 6:-0.985455 7:-0.467811 8:-0.615799 9:-0.650616 
-0 -4.547320355802297 0.7696516239577067 0 1:0.00712589 2:-0.268293 3:-0.627184 4:0.491329 5:-0.657658 6:-0.978182 7:-0.44206 8:-0.597846 9:-0.646137 
-3.06969905280515 -0 0 0 1:-0.239905 2:0.538462 3:0.382524 4:0.0890173 5:0.411411 6:0.0981818 7:0.055794 8:0.393178 9:0.334826 
-0 -6.253308014062864 6.719668328924761 0 1:-0.235154 2:0.585366 3:0.351456 4:0.0265896 5:0.393393 6:0.0836364 7:-0.00429185 8:0.368043 9:0.325868 
-0 -0 0.4648455113590971 0.7474806365460146 1:0.368171 2:-0.397749 3:0.642718 4:0.495954 5:0.57958 6:-0.0569697 7:0.879828 8:-0.806104 9:0.303471 
-0 -1.362838023159484 0 0 1:0.382423 2:-0.420263 3:0.642718 4:0.493642 5:0.585586 6:-0.0642424 7:0.888412 8:-0.795332 9:0.307951 
-0.8944079191762773 -0 0 0 1:0.339667 2:-0.489681 3:0.650485 4:0.452023 5:0.552553 6:-0.0642424 7:0.845494 8:-0.863555 9:0.301232 
-0.7543541720562394 -0 0 0 1:0.339667 2:-0.489681 3:0.650485 4:0.452023 5:0.552553 6:-0.0642424 7:0.845494 8:-0.863555 9:0.298992 
-0 -0 7.932821345174771 0 1:0.0213777 2:-0.341463 3:0.36699 4:-0.0890173 5:0.186186 6:-0.389091 7:-0.356223 8:-0.766607 9:0.0503919 
-0 -5.795885738730951 0 17.87925615674181 1:0.0213777 2:-0.348968 3:0.359223 4:-0.10289 5:0.144144 6:-0.403636 7:-0.356223 8:-0.788151 9:0.0414334 
-1.437931468368455 -0 0 0 1:-0.610451 2:0.322702 3:0.378641 4:-0.942197 5:0.369369 6:-0.12 7:0.201717 8:0.02693 9:0.269877 
-0 -0 2.423427504782426 32 1:-0.847981 2:0.138837 3:0.61165 4:-0.83815 5:-0.153153 6:-0.21697 7:-0.562232 8:-0.572711 9:0.0145577 
-0 -0.7383378253317793 0 0 1:-0.833729 2:0.11257 3:0.584466 4:-1 5:-0.18018 6:-0.243636 7:-0.60515 8:-0.56553 9:-0.0167973 
-7.650105228370325 -0 0 0 1:-0.0783848 2:-0.407129 3:0.382524 4:-0.209249 5:0.18018 6:-0.401212 7:-0.296137 8:-0.820467 9:0.0324748 
-0 -0 0 7.116257838878075 1:-0.510689 2:0.49531 3:0.43301 4:-0.782659 5:0.324324 6:-0.0739394 7:0.0987124 8:0.238779 9:0.287794 
-19.15942203706661 -1.033857344778833 0 27.12866042208381 1:-0.833729 2:0.0619137 3:0.638835 4:-0.817341 5:-0.177177 6:-0.246061 7:-0.545064 8:-0.51167 9:-0.0324748 
-0 -0.5167384902931422 0 0 1:-0.653207 2:-0.0300188 3:-0.332039 4:-0.581503 5:0.141141 6:-0.798788 7:-0.364807 8:-0.116697 9:-0.863382 
-8.673285827684351 -0 0 0 1:-0.653207 2:0.043152 3:-0.285437 4:-0.576879 5:0.177177 6:-0.752727 7:-0.244635 8:0.005386 9:-0.852184 
-0 -0 0 20.23805772822019 1:-0.657957 2:0.0562852 3:-0.363107 4:-0.593064 5:0.123123 6:-0.772121 7:-0.296137 8:-0.02693 9:-0.863382 
-0.9551431997891925 -0 0 0 1:-0.206651 2:0.624765 3:-0.35534 4:-0.160694 5:-0.117117 6:-0.37697 7:0.0386266 8:0.913824 9:-0.281075 
-0 -0 3.970604988906769 0 1:-0.0736342 2:-0.0150094 3:-0.68932 4:0.186127 5:-0.747748 6:-0.922424 7:-0.27897 8:-0.51167 9:-0.594625 
-0 -2.729988684130471 0 28.59055278869492 1:-0.12114 2:-0.0919325 3:-0.615534 4:0.13526 5:-0.657658 6:-0.898182 7:-0.253219 8:-0.547576 9:-0.540873 
-0 -0 0 12.89118586306743 1:-0.306413 2:0.651032 3:0.339806 4:-0.172254 5:0.438438 6:0.0739394 7:-0.0643777 8:0.375224 9:0.305711 
-0 -0 0.5429073890288115 0 1:-0.239905 2:0.666041 3:0.386408 4:-0.206936 5:0.435435 6:0.110303 7:-0.0386266 8:0.378815 9:0.339306 
-0 -0 0 28.73016288918567 1:0.159145 2:-0.131332 3:0.479612 4:0.2 5:0.3003 6:-0.0957576 7:0.83691 8:-0.67325 9:0.243001 
-0 -0 0.1511192887016144 0 1:0.159145 2:-0.131332 3:0.479612 4:0.213873 5:0.303303 6:-0.0909091 7:0.845494 8:-0.666068 9:0.245241 
-1.211521218433897 -0 0 0 1:0.135392 2:-0.206379 3:0.483495 4:0.181503 5:0.33033 6:-0.0957576 7:0.819742 8:-0.694794 9:0.243001 
-0 -0 0 3.129843992968034 1:-0.159145 2:-0.0637899 3:0.351456 4:-0.47052 5:0.147147 6:-0.313939 7:-0.227468 8:-0.314183 9:0.0683091 
-0 -0 7.855390894621721 12.18958874413371 1:-0.182898 2:0.144465 3:0.363107 4:-0.620809 5:0.177177 6:-0.260606 7:-0.261803 8:-0.0233393 9:0.106383 
-0 -0 19.64253712151461 0 1:-0.211401 2:0.11257 3:0.363107 4:-0.620809 5:0.177177 6:-0.260606 7:-0.304721 8:-0.0448833 9:0.0929451 
-3.226102991146727 -0 0 0 1:-0.235154 2:0.0243902 3:0.390291 4:-0.549133 5:0.228228 6:-0.270303 7:-0.261803 8:-0.059246 9:0.104143 
-0 -14.55301962855975 -0 0 1:-0.0831354 2:0.600375 3:0.0601942 4:-0.0450867 5:0.159159 6:0.813333 7:-0.00429185 8:0.29623 9:0.0503919 
-0 -0 -0.964496856459251 0 1:-0.0831354 2:0.602251 3:0.0679612 4:-0.0427746 5:0.168168 6:0.815758 7:0.0128755 8:0.307002 9:0.0503919 
-0 -3.868667530257988 -0 0 1:-0.0736342 2:0.598499 3:0.0679612 4:-0.049711 5:0.168168 6:0.815758 7:0.00429185 8:0.29982 9:0.0503919 
-0.62650554022019 -0 -0 2.27846331521452 1:-0.382423 2:0.545966 3:-0.398058 4:-0.526012 5:-0.27027 6:0.709091 7:-0.356223 8:0.13465 9:-0.341545 
-0 -2.345450201115407 -0 0 1:-0.391924 2:0.536585 3:-0.398058 4:-0.493642 5:-0.267267 6:0.68 7:-0.424893 8:0.0987433 9:-0.334826 
-0 -0 -0 0.1121781782098044 1:-0.434679 2:0.523452 3:-0.394175 4:-0.491329 5:-0.264264 6:0.682424 7:-0.459227 8:0.0664273 9:-0.334826 
-0 -32 -0 0 1:0.159145 2:0.624765 3:0.0407767 4:0.380347 5:0.138138 6:0.345455 7:-0.390558 8:0.518851 9:0.18477 
-0 -29.47862711951171 -0 0 1:0.182898 2:0.624765 3:0.0368932 4:0.401156 5:0.189189 6:0.26303 7:-0.364807 8:0.536804 9:0.227324 
-0 -32 -0 0 1:0.182898 2:0.624765 3:0.0368932 4:0.401156 5:0.189189 6:0.26303 7:-0.381974 8:0.536804 9:0.204927 
-0.07388616445208751 -0 -1.044147128528799 0 1:0.192399 2:0.624765 3:0.0368932 4:0.401156 5:0.189189 6:0.275152 7:-0.364807 8:0.56912 9:0.204927 
-0.9230315890336225 -0 -0 0 1:0.287411 2:-0.0900563 3:-0.429126 4:0.560694 5:-0.708709 6:-0.82303 7:-0.124464 8:-0.436266 9:-0.496081 
-0 -4.820444894848377 -0 0 1:0.320665 2:-0.0806754 3:-0.429126 4:0.565318 5:-0.726727 6:-0.82303 7:-0.124464 8:-0.389587 9:-0.482643 
-0 -6.533331918865182 -14.06171181566594 8.681577355988756 1:0.235154 2:-0.0956848 3:-0.487379 4:0.532948 5:-0.747748 6:-0.864242 7:-0.304721 8:-0.472172 9:-0.513998 
-0 -6.014056312072117 -0 0 1:0.216152 2:0.968105 3:0.223301 4:0.0635838 5:0.324324 6:-0.0690909 7:-0.347639 8:0.368043 9:0.204927 
-0 -32 -0 0 1:0.19715 2:0.953096 3:0.223301 4:0.0635838 5:0.315315 6:-0.0690909 7:-0.356223 8:0.364452 9:0.193729 
-0 -32 -0 0 1:0.2019 2:0.968105 3:0.203883 4:0.049711 5:0.309309 6:-0.0690909 7:-0.347639 8:0.364452 9:0.18701 
-0 -0 -0.09086396201409921 4.056678984731905 1:0.2019 2:1 3:0.215534 4:0.049711 5:0.309309 6:-0.0690909 7:-0.339056 8:0.368043 9:0.18701 
-1.745455088448564 -0 -0 8.217878311611347 1:0.225653 2:0.116323 3:0.0951456 4:0.338728 5:0.336336 6:-0.418182 7:-0.545064 8:-0.29623 9:0.0279955 
-0 -32 -0 0 1:0.235154 2:0.288931 3:0.0446602 4:0.338728 5:0.309309 6:-0.362424 7:-0.579399 8:-0.174147 9:0.0391937 
-0 -0 -0 0.3725934053161475 1:0.482185 2:0.532833 3:-0.0524272 4:0.428902 5:0.276276 6:-0.170909 7:0.390558 8:-0.0520646 9:0.24748 
-0 -17.10118604155595 -0 0 1:-0.106888 2:0.0206379 3:0.11068 4:-0.213873 5:-0.03003 6:-0.379394 7:-0.493562 8:-0.281867 9:0.0100784 
-0 -1.49672764655934 -0 0 1:-0.0926366 2:0.315197 3:0.638835 4:-0.877457 5:0.153153 6:-0.224242 7:-0.0386266 8:1 9:-0.0683091 
-0 -0 -0.4978408915030116 0 1:-0.0926366 2:0.326454 3:0.669903 4:-0.872832 5:0.186186 6:-0.209697 7:-0.0300429 8:1 9:-0.0257559 
-0 -2.229101980341011 -0 0 1:-0.301663 2:0.27955 3:0.359223 4:-0.852023 5:-0.291291 6:-0.444848 7:-0.236052 8:0.526032 9:-0.243001 
-0 -0 -8.492197616724404 8.455164476731705 1:-0.315914 2:0.257036 3:0.35534 4:-0.821965 5:-0.255255 6:-0.461818 7:-0.244635 8:0.450628 9:-0.234043 
-2.526878327003884 -0 -0 0 1:-0.320665 2:0.266417 3:0.332039 4:-0.840462 5:-0.291291 6:-0.473939 7:-0.236052 8:0.4614 9:-0.256439 
-0 -7.334970820101171 -0 0 1:-0.144893 2:0.619137 3:0.258252 4:-0.213873 5:0.0960961 6:0.992727 7:0.0214592 8:0.238779 9:0.131019 
-0 -2.786927052001362 -0 0 1:-0.149644 2:0.617261 3:0.258252 4:-0.220809 5:0.0930931 6:0.992727 7:0.0214592 8:0.231598 9:0.12654 
-0.1716630511650362 -0 -0.9309726781195332 0 1:-0.144893 2:0.615385 3:0.254369 4:-0.213873 5:0.102102 6:0.992727 7:0.0815451 8:0.249551 9:0.12206 
-0.05666058494300724 -0 -2.60013355965701 0 1:0.2019 2:0.142589 3:-0.739806 4:0.40578 5:-0.954955 6:-0.871515 7:-0.579399 8:-0.396768 9:-0.574468 
-0 -3.616255102638311 -0 0 1:0.477435 2:0.688555 3:0.114563 4:0.197688 5:0.297297 6:-0.0521212 7:0.467811 8:0.123878 9:0.334826 
-0 -0 -0 0.04478521599201084 1:-0.2019 2:0.0806754 3:0.27767 4:-0.253179 5:0.186186 6:-0.212121 7:-0.476395 8:-0.368043 9:0.164614 
-6.324928796134204 -0 -17.25265511299515 32 1:-0.19715 2:0.106942 3:0.27767 4:-0.253179 5:0.207207 6:-0.209697 7:-0.450644 8:-0.360862 9:0.169093 
-0 -0 -0 0.4170496343303918 1:-0.19715 2:0.121951 3:0.27767 4:-0.248555 5:0.207207 6:-0.207273 7:-0.450644 8:-0.35009 9:0.175812 
-0.195281111523122 -0 -0 0 1:-0.0546318 2:0.709193 3:0.219417 4:-0.236994 5:0.012012 6:0.992727 7:0.2103 8:0.382406 9:0.00783875 
-0 -0 -0 0.832416461892394 1:-0.125891 2:0.705441 3:0.234951 4:-0.294798 5:-0.018018 6:0.992727 7:0.133047 8:0.332136 9:0.00111982 
-0 -12.68228733237553 -0 0 1:0.2019 2:0.624765 3:-0.0757282 4:0.276301 5:-0.027027 6:0.473939 7:-0.630901 8:0.533214 9:0.12206 
-0 -3.438589571723889 -0 0 1:0.301663 2:0.36773 3:-0.646602 4:0.280925 5:-0.993994 6:-0.718788 7:-0.450644 8:-0.206463 9:-0.491601 
-0 -32 -0 0 1:0.268409 2:0.553471 3:-0.0174757 4:0.109827 5:0.003003 6:-0.345455 7:-0.553648 8:0.0341113 9:-0.0369541 
-0 -22.24394557629608 -0 0 1:0.268409 2:0.538462 3:-0.0174757 4:0.109827 5:0.003003 6:-0.347879 7:-0.553648 8:0.02693 9:-0.0369541 
-0 -0 -3.34729126549503 1.543462785013913 1:0.496437 2:0.741088 3:0.227184 4:0.130636 5:0.396396 6:0.00363636 7:0.639485 8:0.220826 9:0.399776 
-0.9724808341613471 -0 -0 0.6191223590029075 1:0.524941 2:0.776735 3:0.242718 4:0.128324 5:0.414414 6:0.0206061 7:0.716738 8:0.245961 9:0.426652 
-0 -0 -12.49782196977639 0 1:-0.154394 2:0.243902 3:0.231068 4:-0.442775 5:0.132132 6:-0.229091 7:-0.433476 8:-0.195691 9:0.155655 
-0 -0 -2.419613792893372 0 1:-0.064133 2:0.326454 3:0.242718 4:-0.456647 5:0.045045 6:-0.207273 7:-0.321888 8:-0.037702 9:0.148936 
-0 -0 -1.669267354305353 0 1:-0.168646 2:0.465291 3:0.875728 4:-1 5:0.423423 6:-0.0933333 7:-0.0643777 8:1 9:0.0683091 
-0 -0 -1.687704967971647 0 1:-0.182898 2:0.452158 3:0.871845 4:-1 5:0.408408 6:-0.0981818 7:-0.0643777 8:1 9:0.0660694 
-0.5733718604261836 -0 -0 0 1:-0.163895 2:0.470919 3:0.906796 4:-1 5:0.411411 6:-0.0836364 7:-0.0214592 8:1 9:0.0705487 
-0 -0 -0 3.209825029378043 1:-0.163895 2:0.491557 3:0.914563 4:-1 5:0.423423 6:-0.0836364 7:-0.0472103 8:1 9:0.0727884 
-0.3282636549294067 -0.512365657628685 -0 1.650451752575937 1:-0.244656 2:0.587242 3:0.242718 4:-0.877457 5:-0.363363 6:-0.476364 7:-0.0472103 8:0.89228 9:-0.323628 
-8.395212370796425 -0 -0 -0 1:-0.320665 2:0.257036 3:0.161165 4:-0.322543 5:0.378378 6:-0.379394 7:0.133047 8:0.166966 9:-0.599104 
-0 -2.069280909380691 -7.927797076151022 -0.4084846803439072 1:-0.5962 2:-0.110694 3:-0.712621 4:-0.445087 5:0.225225 6:-0.852121 7:-0.51073 8:-0.228007 9:-0.93505 
-2.339893786567841 -0 -0 -0 1:-0.60095 2:-0.110694 3:-0.708738 4:-0.454335 5:0.228228 6:-0.852121 7:-0.493562 8:-0.238779 9:-0.926092 
-0.7909195585634057 -0 -0 -0 1:-0.273159 2:0.551595 3:-0.157282 4:-0.0682081 5:0.015015 6:-0.478788 7:-0.0300429 8:0.360862 9:-0.290034 
-0 -0 -29.78438997931972 -0 1:-0.249406 2:0.549719 3:-0.223301 4:-0.0520231 5:0.00600601 6:-0.486061 7:-0.0472103 8:0.35009 9:-0.296753 
-0 -0 -32 -0 1:-0.244656 2:0.577861 3:-0.180583 4:-0.0289017 5:0.027027 6:-0.464242 7:-0.0300429 8:0.375224 9:-0.287794 
-0 -5.561514057692774 -0 -0 1:-0.216152 2:0.549719 3:-0.12233 4:-0.0543353 5:0.045045 6:-0.454545 7:-0.055794 8:0.335727 9:-0.267637 
-0 -0 -0 -1.083878705222068 1:-0.0783848 2:-0.223265 3:-0.417476 4:0.239306 5:-0.624625 6:-0.830303 7:-0.484979 8:-0.691203 9:-0.513998 
-0 -0 -23.73705698331059 -0 1:-0.106888 2:-0.234522 3:-0.436893 4:0.239306 5:-0.624625 6:-0.837576 7:-0.484979 8:-0.698384 9:-0.527436 
-0 -0 -0 -4.324158059919753 1:-0.04038 2:-0.27955 3:-0.464078 4:0.290173 5:-0.591592 6:-0.835152 7:-0.553648 8:-0.773788 9:-0.484882 
-0 -1.826140057008738 -0 -0 1:0.0308789 2:-0.307692 3:-0.258252 4:0.202312 5:-0.492492 6:-0.752727 7:-0.433476 8:-0.737882 9:-0.384099 
-0 -0 -6.995040077323315 -0 1:0.311164 2:-0.232645 3:0.413592 4:0.509827 5:0.636637 6:-0.389091 7:-0.570815 8:-0.666068 9:0.0571109 
-0 -3.696071607912199 -0 -0 1:0.292162 2:-0.0863039 3:0.370874 4:0.514451 5:0.567568 6:-0.352727 7:-0.60515 8:-0.576302 9:0.0324748 
-0 -3.720675642401614 -0 -0 1:0.27791 2:-0.105066 3:0.378641 4:0.512139 5:0.576577 6:-0.352727 7:-0.67382 8:-0.597846 9:0.0414334 
-1.387423098480578 -0 -13.97789037633617 -0 1:0.154394 2:-0.0318949 3:0.487379 4:0.116763 5:0.525526 6:-0.0206061 7:0.785408 8:-0.687612 9:0.366181 
-0 -0 -0 -0.3004604500533882 1:-0.434679 2:0.41651 3:0.568932 4:-0.704046 5:0.93994 6:-0.0763636 7:-0.364807 8:0.680431 9:0.37738 
-0.8935972593055969 -0.6399881970737342 -3.438247298317694 -0 1:-0.467933 2:0.424015 3:0.561165 4:-0.558382 5:0.936937 6:-0.0812121 7:-0.373391 8:0.705566 9:0.368421 
-0 -0 -0 -0.6433856180150327 1:-0.420428 2:0.196998 3:0.518447 4:-0.572254 5:-0.024024 6:-0.214545 7:-0.622318 8:-0.253142 9:0.0055991 
-0 -5.053392506511199 -8.070154331994432 -0 1:-0.420428 2:0.19137 3:0.518447 4:-0.588439 5:-0.024024 6:-0.214545 7:-0.648069 8:-0.263914 9:0.0055991 
-0 -0 -0 -14.12301807542191 1:-0.434679 2:0.227017 3:0.43301 4:-0.558382 5:0.021021 6:-0.21697 7:-0.579399 8:-0.357271 9:0.0571109 
-0 -0 -32 -0 1:-0.714964 2:0.131332 3:0.623301 4:-0.722543 5:-0.108108 6:-0.187879 7:-0.484979 8:-0.612208 9:0.0212766 
-11.66557906106253 -0 -32 -0 1:-0.729216 2:0.118199 3:0.61165 4:-0.720231 5:-0.117117 6:-0.190303 7:-0.493562 8:-0.633752 9:0.0145577 
-0 -0 -1.139622955420394 -0 1:-0.724466 2:0.121951 3:0.61165 4:-0.720231 5:-0.117117 6:-0.190303 7:-0.493562 8:-0.630162 9:0.0167973 
-0 -0 -17.51906542916388 -0 1:-0.372922 2:0.255159 3:0.0990291 4:-0.387283 5:0.306306 6:-0.44 7:-0.0729614 8:0.131059 9:-0.708847 
-19.45846382636139 -0 -0 -0 1:-0.387173 2:0.260788 3:0.0563107 4:-0.428902 5:0.24024 6:-0.403636 7:-0.133047 8:0.145422 9:-0.715566 
-0 -0 -28.87301071488553 -0 1:-0.178147 2:0.624765 3:-0.130097 4:-0.132948 5:-0.021021 6:-0.37697 7:-0.0472103 8:0.443447 9:-0.231803 
-0 -18.04511063927586 -0 -0 1:0.0736342 2:-0.266417 3:-0.118447 4:0.100578 5:-0.495495 6:-0.665455 7:-0.287554 8:-0.597846 9:-0.339306 
-0 -0.7689168637658581 -0 -0 1:0.087886 2:-0.275797 3:-0.118447 4:0.0982659 5:-0.489489 6:-0.675152 7:-0.287554 8:-0.594255 9:-0.352744 
-0 -0 -0 -5.72820940020243 1:0.102138 2:-0.273921 3:-0.106796 4:0.0982659 5:-0.48048 6:-0.665455 7:-0.236052 8:-0.583483 9:-0.339306 
-11.822796315587 -0 -0 -0 1:0.216152 2:-0.121951 3:0.502913 4:0.433526 5:0.588589 6:-0.265455 7:-0.476395 8:-0.594255 9:0.117581 
-0 -0 -17.34497954584619 -0 1:0.211401 2:-0.043152 3:0.467961 4:0.0682081 5:0.516517 6:-0.0206061 7:0.819742 8:-0.662478 9:0.393057 
-0 -0 -0 -1.231544651701402 1:0.239905 2:0.0300188 3:0.43301 4:0.049711 5:0.516517 6:-0.0133333 7:0.879828 8:-0.62298 9:0.399776 
-1.20759736821771 -0 -0 -0 1:-0.515439 2:0.420263 3:0.52233 4:-0.646243 5:0.918919 6:-0.0933333 7:-0.390558 8:0.72711 9:0.357223 
-0 -0 -0 -8.047047899995176 1:-0.349169 2:0.335835 3:0.425243 4:-0.597688 5:0.0750751 6:-0.178182 7:-0.339056 8:-0.339318 9:0.0929451 
-7.209193552366883 -0 -0 -0 1:-0.306413 2:0.27955 3:0.0796117 4:-0.482081 5:0.231231 6:-0.350303 7:0.11588 8:0.238779 9:-0.729003 
-0 -0 -29.28125991146408 -0 1:-0.444181 2:-0.0337711 3:-0.673786 4:-0.558382 5:0.189189 6:-0.854545 7:-0.321888 8:-0.199282 9:-0.961926 
-0 -0 -0 -13.91611164155479 1:-0.178147 2:0.624765 3:0.0213592 4:-0.267052 5:-0.027027 6:-0.289697 7:-0.0472103 8:0.414722 9:-0.178052 
-0 -0 -12.13745759914442 -0 1:0.140143 2:-0.330206 3:-0.133981 4:0.0473988 5:-0.486486 6:-0.677576 7:-0.227468 8:-0.626571 9:-0.346025 
-0 -0 -0 -18.50409635451003 1:0.149644 2:0.0469043 3:0.425243 4:0.320231 5:0.471471 6:-0.243636 7:-0.450644 8:-0.493716 9:0.113102 
-0 -2.10540671929536 -0 -0 1:0.159145 2:0.0281426 3:0.436893 4:0.324855 5:0.48048 6:-0.229091 7:-0.44206 8:-0.472172 9:0.113102 
-0 -2.262026757825258 -0 -0 1:0.163895 2:0.0600375 3:0.464078 4:0.334104 5:0.483483 6:-0.2 7:-0.390558 8:-0.432675 9:0.146697 
-0 -0.7345961980916594 -0 -0 1:0.410926 2:-0.0168856 3:0.638835 4:0.0427746 5:0.591592 6:0.0836364 7:0.905579 8:-0.572711 9:0.460246 
-0 -0 -9.664385227424759 -0 1:-0.391924 2:0.536585 3:0.52233 4:-0.655491 5:0.864865 6:-0.129697 7:-0.287554 8:0.842011 9:0.316909 
-0 -0 -0 -4.18125172904989 1:-0.344418 2:0.523452 3:0.549515 4:-0.662428 5:0.888889 6:-0.110303 7:-0.253219 8:0.842011 9:0.325868 
