svm_type c_svc
kernel_type rbf
gamma 0.5
nr_class 7
total_sv 207
rho 0.46242 0.468842 -0.0253051 -0.115265 0.355173 0.534247 0.278476 0.094482 -0.274508 -0.040473 0.0567059 -0.236758 -0.246392 -0.381156 -0.0260996 -0.386353 -0.37563 -0.0566123 0.108478 0.66481 -0.520251
label 0 1 3 5 6 8 9
nr_sv 35 29 32 28 27 34 22
SV
0 0 0 0 1.649534564615556 0 1:0.472155 2:0.172 3:-0.256667 4:0.213313 5:0.217877 6:-0.276297 7:-0.203791 8:-0.274725 9:0.0709046 
0 0 16.61617685852223 2.338389138629824 0 0 1:0.443099 2:0.136 3:-0.27 4:0.18003 5:0.217877 6:-0.287518 7:-0.21327 8:-0.279121 9:0.0464548 
0 0 0 0 2.870888825604647 0 1:0.384988 2:0.132 3:-0.26 4:0.0953101 5:0.201117 6:-0.270687 7:-0.194313 8:-0.301099 9:0.0562347 
0 0 1.111938687598935 0 0 0 1:0.123487 2:-0.024 3:-0.416667 4:0.143722 5:0.0949721 6:-0.352034 7:-0.0236967 8:-0.582418 9:0.163814 
9.651901873835042 0 0 0 0 0 1:0.113801 2:-0.036 3:-0.413333 4:0.13767 5:0.0949721 6:-0.352034 7:-0.0331754 8:-0.578022 9:0.183374 
0 12.47983479170666 0 0 0 0 1:0.447942 2:0.268 3:-0.263333 4:0.352496 5:0.301676 6:-0.223001 7:0.0236967 8:-0.428571 9:0.295844 
0 0 0 0 1.521618642802623 0 1:0.360775 2:0.2 3:-0.306667 4:0.246596 5:0.251397 6:-0.234222 7:0.0236967 8:-0.415385 9:0.281174 
0 0 4.786824317846992 0 0 0 1:-0.00726392 2:-0.104 3:-0.306667 4:-0.177005 5:0.122905 6:-0.346424 7:-0.345972 8:-0.296703 9:-0.0317848 
0 0 0 0 4.79443758652953 0 1:0.191283 2:0.112 3:-0.33 4:0.0922844 5:0.234637 6:-0.223001 7:0.0805687 8:-0.41978 9:0.271394 
0 0 0 0 0 20.26993734871004 1:-0.113801 2:-0.104 3:-0.286667 4:-0.337368 5:0.0949721 6:-0.340813 7:-0.345972 8:-0.305495 9:-0.0513447 
0 0 0 19.34976633003103 0 0 1:-0.118644 2:-0.128 3:-0.293333 4:-0.364599 5:0.0949721 6:-0.349229 7:-0.35545 8:-0.314286 9:-0.0513447 
0 0 0 0 0.2087647082391546 0 1:-0.244552 2:-0.232 3:-0.306667 4:-0.464448 5:0.0446927 6:-0.374474 7:-0.412322 8:-0.296703 9:-0.0806846 
0 0 13.44864040983525 0 0.06320958400285979 0 1:-0.307506 2:-0.372 3:-0.473333 4:-0.291982 5:-0.00558659 6:-0.481066 7:-0.165877 8:-0.476923 9:0.00733496 
0 0 2.777912266830092 0 0 0 1:0.0460048 2:0.036 3:-0.34 4:0.00151286 5:0.256983 6:-0.242637 7:0.21327 8:-0.463736 9:0.281174 
0 0 0 0 0 6.258080744327532 1:-0.607748 2:-0.496 3:-0.266667 4:-0.694402 5:0.0167598 6:-0.486676 7:-0.488152 8:-0.257143 9:-0.105134 
0 0 0 0.3123410087938396 0 0 1:-0.627119 2:-0.492 3:-0.3 4:-0.697428 5:-0.0111732 6:-0.503506 7:-0.507109 8:-0.252747 9:-0.124694 
0 0 0 0.8227896794821158 0 0 1:-0.476998 2:-0.248 3:-0.446667 4:-0.270802 5:0.268156 6:-0.424965 7:0.421801 8:-0.81978 9:0.354523 
0 0 0 0 0 1.724274331071742 1:-0.501211 2:-0.24 3:-0.443333 4:-0.282905 5:0.268156 6:-0.424965 7:0.402844 8:-0.824176 9:0.354523 
0 0 0 0 0 9.045481282608778 1:-0.128329 3:-0.323333 4:-0.110439 5:0.296089 6:-0.231417 7:0.270142 8:-0.498901 9:0.330073 
0 1.887494457062868 0 0 0 0 1:-0.1477 2:0.004 3:-0.323333 4:-0.104387 5:0.329609 6:-0.239832 7:0.336493 8:-0.507692 9:0.408313 
0 0 0 0 0 1.208927551221893 1:-0.1477 3:-0.32 4:-0.122542 5:0.324022 6:-0.248247 7:0.317536 8:-0.512088 9:0.393643 
0 0 0.08049232489964875 0 0 0 1:-0.951574 2:-0.768 3:-0.38 4:-0.912254 5:-0.122905 6:-0.663394 7:-0.763033 8:-0.169231 9:-0.242054 
0 1.204341886606755 0 0 0.9606556885647323 0 1:-0.951574 2:-0.768 3:-0.386667 4:-0.912254 5:-0.139665 6:-0.669004 7:-0.791469 8:-0.169231 9:-0.246944 
5.847719493550169 0 0 0 0 0 1:-0.840194 2:-0.748 3:-0.366667 4:-0.888048 5:-0.122905 6:-0.657784 7:-0.772512 8:-0.156044 9:-0.237164 
0 0 0 0.5531286442162832 0 0 1:-0.840194 2:-0.708 3:-0.356667 4:-0.8941 5:-0.111732 6:-0.646564 7:-0.734597 8:-0.16044 9:-0.227384 
10.40742052709002 0 0 0 0 0 1:-0.772397 2:-0.764 3:-0.573333 4:-0.558245 5:-0.0391061 6:-0.649369 7:-0.364929 8:-0.498901 9:-0.0513447 
0 0.01143618810649042 0 1.197931295645082 0 0 1:-1 2:-0.836 3:-0.603333 4:-0.676248 5:-0.0335196 6:-0.654979 7:-0.393365 8:-0.547253 9:-0.114914 
0 0 0 0 0.3372805199946098 0 1:-0.903148 2:-0.84 3:-0.61 4:-0.639939 5:-0.0837989 6:-0.680224 7:-0.459716 8:-0.525275 9:-0.144254 
2.899090136627537 0 0 0 0 0 1:-0.869249 2:-0.824 3:-0.613333 4:-0.624811 5:-0.0782123 6:-0.680224 7:-0.450237 8:-0.534066 9:-0.129584 
30.87431154419697 0 0 0 0 0 1:-0.418886 2:-0.26 3:-0.496667 4:-0.219365 5:0.139665 6:-0.483871 7:0.402844 8:-0.951648 9:0.349633 
0 0 0 0 0 3.07029122421699 1:-0.176755 2:-0.048 3:-0.373333 4:-0.152799 5:0.284916 6:-0.318373 7:0.2891 8:-0.525275 9:0.378973 
1.938454449039063 0 0 0 0 0 1:-0.16707 2:-0.04 3:-0.376667 4:-0.0983359 5:0.357542 6:-0.338008 7:0.421801 8:-0.525275 9:0.437653 
0 0 0.7385962603690327 2.177671052187845 0 0 1:-0.157385 2:-0.036 3:-0.376667 4:-0.0983359 5:0.363128 6:-0.338008 7:0.421801 8:-0.520879 9:0.427873 
16.10809367246787 0 0 0 0 0 1:-0.128329 2:-0.032 3:-0.363333 4:-0.0983359 5:0.368715 6:-0.340813 7:0.402844 8:-0.516484 9:0.442543 
0 0 0 0 1.595808972836408 0 1:-0.1477 2:-0.028 3:-0.363333 4:-0.110439 5:0.346369 6:-0.338008 7:0.393365 8:-0.507692 9:0.442543 
-0 0 3.448100684112966 0 0 0 1:-0.181598 2:-0.348 3:-0.513333 4:-0.231467 5:-0.0670391 6:-0.69425 7:-0.421801 8:-0.112088 9:0.0660147 
-0 0 1.77220903498949 2.709803047424163 0 0 1:-0.181598 2:-0.348 3:-0.51 4:-0.231467 5:-0.0670391 6:-0.68864 7:-0.412322 8:-0.112088 9:0.0709046 
-0 0 0 0 3.027749586247973 0 1:-0.181598 2:-0.348 3:-0.51 4:-0.231467 5:-0.0670391 6:-0.68864 7:-0.402844 8:-0.112088 9:0.0757946 
-4.399259105286465 0 0 0 0 0 1:-0.220339 2:-0.376 3:-0.503333 4:-0.276853 5:-0.0670391 6:-0.674614 7:-0.402844 8:-0.112088 9:0.0757946 
-0 0 0 0 0 3.544083123329358 1:-0.230024 2:-0.392 3:-0.48 4:-0.343419 5:-0.0782123 6:-0.71108 7:-0.450237 8:-0.120879 9:0.0513447 
-1.920078968656465 0 0 0 0 0 1:-0.288136 2:-0.416 3:-0.483333 4:-0.358548 5:-0.0782123 6:-0.713885 7:-0.469194 8:-0.12967 9:0.0513447 
-0 0.2075446114729198 0 0 0 0 1:-0.27845 2:-0.42 3:-0.483333 4:-0.373676 5:-0.0782123 6:-0.7223 7:-0.478673 8:-0.0945055 9:0.0611247 
-0 0 0 3.207022104882707 0 0.2007595184977483 1:-0.336562 2:-0.348 3:-0.613333 4:-0.406959 5:0.0614525 6:-0.817672 7:-0.21327 8:-0.406593 9:0.0953545 
-0 2.297746167775021 0 0 0 0 1:0.360775 2:0.036 3:-0.446667 4:0.400908 5:0.150838 6:-0.419355 7:0.260664 8:-0.446154 9:0.359413 
-0 8.239677405144448 0 0 0 0 1:0.360775 2:0.052 3:-0.45 4:0.382753 5:0.162011 6:-0.40533 7:0.270142 8:-0.432967 9:0.378973 
-1.732838940966813 0 9.676498412820651 3.030074143397158 8.996352915251071 2.275191161872548 1:0.307506 2:0.04 3:-0.45 4:0.28593 5:0.167598 6:-0.41094 7:0.308057 8:-0.446154 9:0.320293 
-0 26.31088477755122 0.02060439888199664 0 1.159134890265511 0.5138908014808705 1:0.627119 2:0.432 3:-0.276667 4:0.739788 5:0.687151 6:-0.136045 7:0.867299 8:-0.336264 9:0.696822 
-0 0 0 0 0.2402683274037679 0 1:0.438257 2:0.308 3:-0.313333 4:0.476551 5:0.553073 6:-0.189341 7:0.763033 8:-0.362637 9:0.628362 
-0 0 0.280735005841673 0 0 0 1:-0.443099 2:-0.48 3:-0.61 4:-0.527988 5:0.0949721 6:-0.837307 7:-0.279621 8:-0.410989 9:0.0415648 
-1.810679618591772 0 0 0 0 0 1:-0.501211 2:-0.488 3:-0.606667 4:-0.546142 5:0.0949721 6:-0.848527 7:-0.298578 8:-0.415385 9:0.0415648 
-0 0 0 0 0 1.643840883623851 1:-0.46247 2:-0.488 3:-0.593333 4:-0.549168 5:0.100559 6:-0.851332 7:-0.298578 8:-0.410989 9:0.0464548 
-0 0 0 1.600203161936097 0 0 1:0.0169492 2:-0.072 3:-0.473333 4:0.104387 5:0.178771 6:-0.4446 7:0.526066 8:-0.547253 9:0.369193 
-13.78817052926117 0.09390154225076555 0 0 0 0 1:-0.719128 2:-0.844 3:-0.6 4:-0.791225 5:0.0391061 6:-0.904628 7:-0.516588 8:-0.38022 9:-0.105134 
-4.332313704581846 0 0 0 0 0 1:-0.302663 2:-0.296 3:-0.6 4:-0.0741301 5:0.0726257 6:-0.559607 7:0.383886 8:-0.881319 9:0.305623 
-22.82835069326305 0 0 0 0 0 1:-0.312349 2:-0.296 3:-0.6 4:-0.0741301 5:0.0614525 6:-0.562412 7:0.383886 8:-0.89011 9:0.305623 
-6.122661811045673 0 0 0 0 0 1:-0.331719 2:-0.3 3:-0.616667 4:-0.104387 5:0.0391061 6:-0.590463 7:0.327014 8:-0.885714 9:0.310513 
-0 0 0 0.1601680154385071 0 0 1:0.108959 2:0.192 3:-0.336667 4:0.177005 5:0.52514 6:-0.287518 7:0.611374 8:-0.520879 9:0.677262 
-0 1.046692924423833 1.178873998917418 0.8316951960233657 0.2377139004876604 0.1790072886445615 1:-0.646489 2:-0.992 3:-0.573333 4:-0.924357 5:-0.268156 6:-0.980365 7:-0.981043 8:0.116484 9:-0.422983 
-1.251587969706647 0 0 0 0 0 1:-0.525424 2:-0.444 3:-0.67 4:-0.225416 5:0.0223464 6:-0.71108 7:0.336493 8:-0.982418 9:0.339853 
-0 0 0 0 0 0.3061086395063389 1:-0.525424 2:-0.436 3:-0.666667 4:-0.216339 5:0.0391061 6:-0.70547 7:0.393365 8:-0.986813 9:0.364303 
-0 0 0.1243784425379269 0 0 0 1:-0.530266 2:-0.44 3:-0.676667 4:-0.210287 5:0.0446927 6:-0.71669 7:0.440758 8:-1 9:0.344743 
-0 0 0 0.1134812537519652 0 0 1:-0.0460048 2:0.076 3:-0.38 4:0.0832073 5:0.452514 6:-0.329593 7:0.535545 8:-0.586813 9:0.652812 
-0 0 0 0 0 1.770976925715792 1:-0.094431 2:0.028 3:-0.393333 4:0.065053 5:0.435754 6:-0.349229 7:0.49763 8:-0.586813 9:0.662592 
-19.54105035544678 0 0 0 0 0 1:-0.113801 2:0.008 3:-0.4 4:0.0620272 5:0.413408 6:-0.357644 7:0.488152 8:-0.626374 9:0.652812 
-0 -5.753838566782117 0.5423968791846687 3.128412476260145 0 0 1:0.491525 2:0.208 3:-0.453333 4:0.409985 5:0.251397 6:-0.259467 7:-0.0236967 8:0.142857 9:0.413203 
-0 -0 4.359189519051 0 0 0.2580519857607383 1:0.506053 2:0.208 3:-0.453333 4:0.409985 5:0.256983 6:-0.256662 7:-0.0236967 8:0.142857 9:0.413203 
-7.352863332559852 -0 0 0 0 0 1:0.48184 2:0.244 3:-0.46 4:0.406959 5:0.212291 6:-0.231417 7:-0.042654 8:0.125275 9:0.403423 
-0 -20.02932633075444 0 0 0 0 1:0.728814 2:0.356 3:-0.14 4:0.794251 5:0.564246 6:-0.12202 7:0.71564 8:-0.446154 9:0.628362 
-0 -4.698832063937529 0 0 0 0 1:0.728814 2:0.34 3:-0.14 4:0.782148 5:0.564246 6:-0.141655 7:0.696682 8:-0.446154 9:0.618582 
-2.447766381981377 -0 0 0 0 0 1:0.554479 2:0.384 4:0.609682 5:0.430168 6:-0.0322581 7:0.43128 8:-0.503297 9:0.603912 
-0 -0 0.591310959301812 0 0 0 1:1 2:0.392 3:-0.273333 4:0.990923 5:0.441341 6:-0.206171 7:0.829384 8:-0.323077 9:0.476773 
-0 -0 0 0 0 0.8795534064544863 1:0.941889 2:0.448 3:-0.0733333 4:0.866868 5:0.435754 6:-0.0434783 7:0.772512 8:-0.287912 9:0.466993 
-0 -2.443901044786788 0 0 0 0 1:0.723971 2:0.672 3:0.1 4:0.918306 5:0.837989 6:0.223001 7:0.952607 8:-0.0637363 9:0.843521 
-0 -0.5761988696465983 0 0 0 0 1:0.719128 2:0.676 3:0.0933333 4:0.8941 5:0.810056 6:0.183731 7:0.924171 8:-0.0241758 9:0.833741 
-0 -0 0 0 0 6.690558786123971 1:0.443099 2:0.308 3:-0.423333 4:0.364599 5:0.167598 6:-0.130435 7:-0.0236967 8:0.151648 9:0.383863 
-0 -0 0.6165771087588737 0 0 0 1:0.438257 2:0.304 3:-0.423333 4:0.361573 5:0.167598 6:-0.130435 7:-0.0236967 8:0.138462 9:0.383863 
-0 -0 0 0 6.950763832400511 0 1:0.438257 2:0.308 3:-0.41 4:0.364599 5:0.212291 6:-0.105189 7:0.0236967 8:0.142857 9:0.408313 
-0 -0 0 0 3.506449226307819 0 1:0.414044 2:0.316 3:-0.4 4:0.358548 5:0.212291 6:-0.0715288 7:0.042654 8:0.134066 9:0.418093 
-0 -0 0 0 8.131084287371932 0 1:0.384988 2:0.396 3:-0.196667 4:0.364599 5:0.27933 6:0.169705 7:0.184834 8:0.0681319 9:0.535452 
-0 -0 0 0 1.168777081102197 0.165214422731785 1:0.694915 2:0.712 3:0.143333 4:0.85174 5:0.843575 6:0.279102 7:0.943128 8:-0.0461538 9:0.804401 
-0 -0 0 0 7.2288810833608 0 1:0.186441 2:0.456 3:0.126667 4:0.252648 5:0.284916 6:0.464236 7:0.488152 8:-0.032967 9:0.819071 
-0 -0 0 0 10.53058212307502 0 1:0.196126 2:0.476 3:0.166667 4:0.252648 5:0.240223 6:0.472651 7:0.450237 8:-0.0461538 9:0.804401 
-2.093913001224024 -0 0 0 0 0 1:0.263923 2:0.296 3:0.26 4:0.319213 5:0.195531 6:0.178121 7:0.203791 8:-0.674725 9:0.530562 
-0 -0 0 0 0.5741730709603883 0 1:0.510896 2:0.4 3:0.00333333 4:0.555219 5:0.234637 6:0.0350631 7:0.706161 8:-0.318681 9:0.476773 
-0 -0 0 0 5.671460176431195 0 1:0.414044 2:0.372 3:0.08 4:0.467474 5:0.173184 6:0.0575035 7:0.592417 8:-0.323077 9:0.486553 
-0 -0 0.9967815517831246 0 0 0 1:0.220339 2:0.232 3:-0.0133333 4:0.379728 5:0.0893855 6:-0.00140252 7:0.57346 8:-0.41978 9:0.511002 
-0 -0 0 0 0 0.1150315935527807 1:0.0169492 2:0.336 3:0.526667 4:0.0590015 5:-0.162011 6:0.307153 7:-0.0616114 8:-0.138462 9:0.858191 
-0 -0 0 0 0.9202662573442695 0 1:0.0169492 2:0.34 3:0.53 4:0.0590015 5:-0.162011 6:0.309958 7:-0.0521327 8:-0.134066 9:0.867971 
-0 -0 0 0.1447529290092083 0 0 1:-0.0508475 2:0.196 3:0.403333 4:0.104387 5:0.0167598 6:0.085554 7:0.127962 8:-0.745055 9:0.760391 
-0 -0 0 0 0 0.7237332462138654 1:-0.0169492 2:0.224 3:0.436667 4:0.0953101 5:0.0391061 6:0.0911641 7:0.127962 8:-0.723077 9:0.770171 
-0 -4.69435055271073 0 1.030306822507666 0 0 1:0.0460048 2:0.04 3:-0.05 4:0.228442 5:-0.0670391 6:-0.189341 7:0.545024 8:-0.551648 9:0.691932 
-3.688564607717522 -0 1.2032080821218 0 0 0.1655050151832445 1:0.16707 2:0.152 3:0.0933333 4:0.246596 5:-0.0111732 6:-0.180926 7:0.383886 8:-0.52967 9:0.564792 
-0 -0 0 0 2.426266334695411 0 1:0.123487 2:0.156 3:0.126667 4:0.225416 6:-0.13885 7:0.43128 8:-0.534066 9:0.613692 
-0 -0 0.5106683982443122 0.01033199797013785 0 0 1:0.355932 2:0.984 3:0.99 4:0.588502 5:0.815642 6:1 7:0.772512 8:-0.226374 9:0.91198 
-0 -0 0 0 0 0.7292160968967576 1:0.380145 2:1 3:1 4:0.588502 5:0.787709 6:1 7:0.734597 8:-0.226374 9:0.887531 
-0 -0 0 0.5648567166266346 0 0 1:0.307506 2:0.992 3:0.993333 4:0.588502 5:0.776536 6:1 7:0.819905 8:-0.23956 9:0.92176 
-0 -0 -0 0 3.439334833067656 0 1:0.496368 2:-0.036 3:-0.84 4:0.0136157 5:0.122905 6:-0.725105 7:-0.232227 8:0.384615 9:-0.330073 
-0 -0 -0.6029447537815658 0 0 0 1:0.59322 2:-0.016 3:-0.82 4:0.0680787 5:0.173184 6:-0.747546 7:-0.222749 8:0.441758 9:-0.276284 
-0 -0 -0 0 1.836498641188176 0 1:0.602906 2:0.004 3:-0.8 4:0.0559758 5:0.173184 6:-0.730715 7:-0.21327 8:0.450549 9:-0.276284 
-0 -0 -0 4.502142813622475 0 0 1:0.496368 2:-0.036 3:-0.79 4:-0.0226929 5:0.167598 6:-0.744741 7:-0.241706 8:0.432967 9:-0.310513 
-0 -0 -0 0 0 2.693900584071761 1:0.535109 2:-0.02 3:-0.776667 4:-0.03177 5:0.189944 6:-0.725105 7:-0.21327 8:0.450549 9:-0.310513 
-0 -4.701826346217707 -0 0 0 0 1:0.612591 2:0.012 3:-0.473333 4:0.273828 5:0.0167598 6:-0.424965 7:0.0236967 8:-0.402198 9:-0.129584 
-9.523992718173234 -0 -0 0 0 0 1:0.607748 2:0.028 3:-0.42 4:0.228442 5:-0.0111732 6:-0.371669 7:-0.042654 8:-0.327473 9:-0.100244 
-0 -0 -2.149936920749756 0 2.264717723188683 0 1:0.617433 2:0.06 3:-0.39 4:0.219365 5:0.00558659 6:-0.352034 7:0.0236967 8:-0.243956 9:-0.0855746 
-0 -0.4158929856084871 -0 0 14.71240557119747 0 1:0.302663 3:-0.546667 4:-0.167927 5:0.0111732 6:-0.461431 7:-0.109005 8:-0.446154 9:-0.178484 
-6.331882971166007 -0 -0 0 0 0 1:0.268765 2:0.024 3:-0.52 4:-0.195159 5:0.0223464 6:-0.45582 7:-0.137441 8:-0.432967 9:-0.198044 
-0 -0 -0 0 0 1.247964688381636 1:0.268765 2:0.024 3:-0.52 4:-0.195159 5:0.0223464 6:-0.45582 7:-0.118483 8:-0.428571 9:-0.198044 
-4.865229566180927 -0 -2.963480315884784 0 0 0 1:0.399516 2:0.252 3:-0.35 4:0.213313 5:0.49162 6:-0.211781 7:0.260664 8:-0.147253 9:0.0366748 
-0 -0 -0 0 0 4.499717254701594 1:0.322034 2:0.208 3:-0.34 4:0.170953 5:0.486034 6:-0.217391 7:0.2891 8:-0.147253 9:0.0366748 
-0 -1.467166245570233 -0 0 0 0 1:0.273608 2:0.208 3:-0.346667 4:0.183056 5:0.458101 6:-0.237027 7:0.364929 8:-0.134066 9:0.0611247 
-0 -0 -2.403304711565298 0 11.48088551774542 0 1:0.27845 2:0.208 3:-0.346667 4:0.189107 5:0.458101 6:-0.234222 7:0.364929 8:-0.12967 9:0.0611247 
-0 -0 -0 21.20664035329132 0 2.864487145718292 1:0.191283 2:-0.048 3:-0.513333 4:-0.249622 5:0.201117 6:-0.500701 7:0.0331754 8:-0.327473 9:-0.168704 
-0 -0 -0 0 0 11.25628680794252 1:0.273608 2:0.188 3:-0.34 4:0.183056 5:0.435754 6:-0.245442 7:0.374408 8:-0.116484 9:0.0366748 
-0 -0 -0 26.51788031639562 0 0 1:0.118644 2:0.068 3:-0.386667 4:0.0832073 5:0.402235 6:-0.298738 7:0.270142 8:-0.134066 9:-0.00733496 
-0 -3.78817700796371 -0 0 0 0 1:0.118644 3:-0.4 4:0.134644 5:0.379888 6:-0.346424 7:0.232227 8:-0.169231 9:0.0220049 
-0 -0 -0 26.36064063603893 0 0 1:-0.0266344 2:-0.22 3:-0.51 4:-0.355522 5:0.251397 6:-0.506311 7:-0.0805687 8:-0.349451 9:-0.315403 
-0 -0 -0 14.17990074791858 0 0 1:-0.346247 2:-0.256 3:-0.4 4:-0.101362 5:0.318436 6:-0.396914 7:-0.014218 8:-0.353846 9:-0.110024 
-0 -0 -0 8.022213857303496 0 0 1:-0.336562 2:-0.252 3:-0.406667 4:-0.0953101 5:0.307263 6:-0.40533 7:-0.0521327 8:-0.353846 9:-0.119804 
-4.942280825232475 -0 -0 0 0 0 1:-0.336562 2:-0.256 3:-0.41 4:-0.0983359 5:0.290503 6:-0.408135 7:-0.0805687 8:-0.367033 9:-0.129584 
-0 -4.068817014444416 -0 0 0 0 1:-0.346247 2:-0.256 3:-0.413333 4:-0.0983359 5:0.290503 6:-0.408135 7:-0.0805687 8:-0.367033 9:-0.129584 
-0 -0 -0 1.354692890402653 0 0.08477429790246277 1:0.0653753 2:-0.58 3:-0.71 4:-0.667171 5:-0.212291 6:-0.786816 7:-0.791469 8:0.331868 9:-0.91687 
-0.100011961601621 -2.059520378297563 -0.7004657964641869 0 0 0 1:0.0653753 2:-0.584 3:-0.713333 4:-0.667171 5:-0.217877 6:-0.789621 7:-0.791469 8:0.331868 9:-0.91687 
-13.79718308354792 -0 -0 0 0 0 1:-0.244552 2:-0.248 3:-0.403333 4:-0.104387 5:0.223464 6:-0.413745 7:-0.146919 8:-0.323077 9:-0.173594 
-0 -0 -0 0 0 7.926992111398554 1:-0.268765 2:-0.292 3:-0.393333 4:-0.119516 5:0.24581 6:-0.357644 7:-0.0805687 8:-0.279121 9:-0.290954 
-0 -0 -0.2007817544632916 -0 0 0 1:0.0508475 2:0.036 3:-0.776667 4:-0.298033 5:0.396648 6:-0.635344 7:-0.895735 8:0.753846 9:-0.647922 
-0 -0 -0 -0 0.5311367809634084 0 1:0.0411622 2:0.024 3:-0.786667 4:-0.304085 5:0.385475 6:-0.643759 7:-0.895735 8:0.749451 9:-0.638142 
-9.634396997143845 -0 -0 -0 0 0 1:0.0508475 2:0.132 3:-0.44 4:-0.382753 5:0.167598 6:-0.511921 7:-0.478673 8:-0.305495 9:-0.251834 
-0 -0 -0 -0 0 6.341627325692698 1:0.0556901 2:0.208 3:-0.41 4:-0.458396 5:0.201117 6:-0.489481 7:-0.393365 8:-0.292308 9:-0.158924 
-0 -3.67903523751894 -0 -0 2.927110170021175 0 1:-0.031477 2:0.092 3:-0.54 4:-0.331316 5:0.173184 6:-0.539972 7:0.137441 8:-0.49011 9:-0.0953545 
-0 -0 -0 -31.40771556871466 0 0 1:-0.0217918 2:0.068 3:-0.543333 4:-0.325265 5:0.184358 6:-0.551192 7:0.014218 8:-0.463736 9:-0.183374 
-0 -0 -0 -32 0 0 1:0.0121065 2:0.024 3:-0.44 4:-0.0287443 5:0.351955 6:-0.464236 7:0.07109 8:-0.0681319 9:-0.0415648 
-0 -0 -0 -14.12241611154219 0 0 1:0.00242131 2:0.008 3:-0.443333 4:-0.0408472 5:0.351955 6:-0.489481 7:0.07109 8:-0.0813187 9:-0.0415648 
-0 -4.507097915948543 -0 -0 0 0 1:0.00242131 2:0.024 3:-0.44 4:-0.0408472 5:0.357542 6:-0.475456 7:0.0900474 8:-0.0725275 9:0.00244499 
-6.027839129745331 -0 -0 -0 0 0 1:0.0169492 2:0.048 3:-0.44 4:-0.0257186 5:0.368715 6:-0.469846 7:0.0900474 8:-0.0725275 9:0.0122249 
-0 -0 -3.948071999328375 -0 7.138745155738421 15.23804579417911 1:0.0750605 2:0.1 3:-0.43 4:-0.0196672 5:0.379888 6:-0.453015 7:0.137441 8:-0.010989 9:0.0220049 
-0 -0 -0 -0 0 12.54434978469616 1:0.1477 2:0.22 3:-0.406667 4:-0.515885 5:0.189944 6:-0.520337 7:-0.469194 8:-0.261538 9:-0.173594 
-0 -0 -0 -0 0.4428077415337803 0 1:0.171913 2:0.212 3:-0.426667 4:-0.491679 5:0.223464 6:-0.534362 7:-0.440758 8:-0.23956 9:-0.163814 
-0 -0 -0 -0 1.413957380520904 0 1:0.171913 2:0.212 3:-0.416667 4:-0.503782 5:0.223464 6:-0.531557 7:-0.364929 8:-0.230769 9:-0.149144 
-0 -0 -0 -0 0 0.7908501187447161 1:0.0799031 2:-0.148 3:-0.706667 4:-0.70348 5:0.273743 6:-0.652174 7:-0.71564 8:0.753846 9:-0.750611 
-0 -0 -0 -0 0 10.29651276087872 1:-0.254237 2:-0.052 3:-0.25 4:-0.543116 5:0.357542 6:-0.40533 7:0.0805687 8:-0.362637 9:-0.0806846 
-0 -0 -0 -0 0 10.6102650384734 1:-0.283293 2:-0.088 3:-0.24 4:-0.573374 5:0.284916 6:-0.408135 7:0.042654 8:-0.415385 9:-0.173594 
-0 -0 -0 -2.707002027070246 0.06674318585913599 0 1:-0.138015 2:-0.468 3:-0.71 4:-0.785174 5:0.24581 6:-0.767181 7:-0.962085 8:0.630769 9:-1 
-0.2867747054302194 -1.738422527486739 -0.7298071885821249 -0 0.08300756636416523 0.0362719997021814 1:-0.283293 2:-0.528 3:-0.713333 4:-0.812405 5:0.223464 6:-0.761571 7:-0.962085 8:0.6 9:-0.96088 
-0 -0 -0 -0 0.8537161420512966 0 1:0.302663 2:0.044 3:-0.476667 4:-0.76702 5:0.178771 6:-0.621318 7:-0.620853 8:-0.279121 9:-0.339853 
-0 -0.1144953980632627 -0 -0 0 0 1:0.210654 2:0.04 3:-0.486667 4:-0.785174 5:0.173184 6:-0.624123 7:-0.658768 8:-0.301099 9:-0.359413 
-9.064512822207567 -0 -0 -0 0 0 1:-0.331719 2:-0.272 3:-0.266667 4:-0.570348 5:0.240223 6:-0.441795 7:-0.07109 8:-0.406593 9:-0.237164 
-0 -0 -0 -12.59142934470902 0 0 1:-0.317191 2:-0.284 3:-0.273333 4:-0.564297 5:0.223464 6:-0.464236 7:-0.137441 8:-0.410989 9:-0.281174 
-0 -1.613395843836477 -0 -0 0 0 1:-0.326877 2:-0.288 3:-0.273333 4:-0.570348 5:0.223464 6:-0.467041 7:-0.137441 8:-0.410989 9:-0.286064 
-1.738493494459043 -0 -0 -0 0 0 1:-0.35109 2:-0.288 3:-0.246667 4:-0.594554 5:0.240223 6:-0.458626 7:-0.184834 8:-0.367033 9:-0.286064 
-0 -0 -0 -0 0 7.391055422382364 1:-0.200969 2:-0.188 3:-0.103333 4:-0.24357 5:0.541899 6:-0.284712 7:0.0900474 8:0.0197802 9:-0.144254 
-0 -0 -0 -9.315548562936966 0 0 1:-0.108959 2:-0.284 3:-0.203333 4:-0.219365 5:0.547486 6:-0.346424 7:0.0995261 8:0.0857143 9:-0.290954 
-0 -0 -0 -0 -1.303475452535937 0 1:0.336562 2:0.172 3:-0.886667 4:0.0771558 5:0.206704 6:-0.534362 7:-0.0521327 8:0.428571 9:0.134474 
-0 -0 -0 -0 -0 3.070091694870989 1:0.336562 2:0.188 3:-0.883333 4:0.0771558 5:0.206704 6:-0.525947 7:-0.014218 8:0.428571 9:0.154034 
-0 -0 -3.690041686036117 -0 -0 0 1:0.322034 2:0.164 3:-0.91 4:0.110439 5:0.0782123 6:-0.537167 7:0.0236967 8:0.362637 9:0.188264 
-0 -0 -0.1275124198494804 -0 -0 0 1:0.322034 2:0.144 3:-0.946667 4:0.065053 5:0.0726257 6:-0.598878 7:-0.0995261 8:0.375824 9:0.144254 
-0 -2.182383351514206 -0 -0 -0 0 1:0.35109 2:0.14 3:-0.673333 4:-0.167927 5:-0.0223464 6:-0.548387 7:-0.0900474 8:-0.204396 9:0.00244499 
-0 -0 -0 -20.8046714079715 -0 0 1:0.35109 2:0.152 3:-0.666667 4:-0.155825 5:0.0167598 6:-0.523142 7:-0.0521327 8:-0.204396 9:-0.0122249 
-0 -0 -0 -0 -5.483456770937902 0 1:0.35109 2:0.152 3:-0.666667 4:-0.161876 5:0.0167598 6:-0.523142 7:-0.0521327 8:-0.204396 9:-0.0122249 
-0 -0 -0 -0 -4.016830614439266 0 1:0.297821 2:0.168 3:-0.616667 4:-0.216339 5:-0.0391061 6:-0.447405 7:0.0236967 8:-0.265934 9:0.0415648 
-0 -0 -0 -0 -0 1.950578079192565 1:0.302663 2:0.172 3:-0.603333 4:-0.216339 5:-0.0391061 6:-0.447405 7:0.0236967 8:-0.257143 9:0.0464548 
-0 -0 -0 -0 -0 7.563697112299427 1:0.341404 2:0.172 3:-0.593333 4:-0.189107 5:-0.0335196 6:-0.45582 7:-0.014218 8:-0.235165 9:0.0366748 
-1.619245173295044 -0 -0 -0 -0 0 1:0.322034 2:0.18 3:-0.616667 4:-0.167927 5:-0.00558659 6:-0.453015 7:0.042654 8:-0.301099 9:0.0660147 
-6.875795255413268 -0 -0 -0 -0 0 1:0.322034 2:0.188 3:-0.61 4:-0.167927 5:-0.00558659 6:-0.40533 7:0.0616114 8:-0.301099 9:0.0806846 
-0 -0 -0 -0 -0.2497374611759097 0 1:0.220339 2:0.044 3:-0.743333 4:0.0438729 5:-0.0391061 6:-0.41094 7:0.279621 8:-0.164835 9:0.00733496 
-0 -0 -0 -5.460250010772238 -0 0 1:0.239709 2:0.044 3:-0.726667 4:0.0499244 5:-0.0391061 6:-0.399719 7:0.279621 8:-0.164835 9:0.0171149 
-0 -0 -1.988949332632036 -0 -0 0 1:0.244552 2:0.064 3:-0.696667 4:0.0680787 5:-0.0335196 6:-0.340813 7:0.2891 8:-0.156044 9:0.0757946 
-0.5332784620639703 -1.222429310985949 -0 -0 -0 0 1:0.220339 2:0.056 3:-0.686667 4:0.03177 5:-0.0502793 6:-0.335203 7:0.2891 8:-0.208791 9:0.0806846 
-0 -6.03647891792781 -0 -0 -0 0 1:0.215496 2:0.104 3:-0.65 4:0.0257186 5:-0.0949721 6:-0.321178 7:0.2891 8:-0.230769 9:0.168704 
-0 -0 -0 -0 -0 10.53963678952676 1:0.554479 2:0.416 3:-0.1 4:0.340393 5:0.536313 6:-0.0406732 7:0.421801 8:0.125275 9:0.418093 
-0 -3.392283870451393 -0 -0 -0 0 1:0.544794 2:0.416 3:-0.1 4:0.334342 5:0.52514 6:-0.0406732 7:0.421801 8:0.107692 9:0.418093 
-3.438616439195468 -0 -0 -6.927006822924413 -0 0 1:0.515738 2:0.416 3:-0.1 4:0.32829 5:0.52514 6:-0.0406732 7:0.421801 8:0.107692 9:0.418093 
-0 -0 -9.110166724863619 -0 -0 0 1:0.472155 2:0.436 3:-0.02 4:0.30711 5:0.52514 6:0.0546985 7:0.459716 8:0.0989011 9:0.491443 
-0 -0 -0 -0 -2.132048880492724 0 1:0.472155 2:0.428 3:-0.02 4:0.288956 5:0.52514 6:0.0546985 7:0.440758 8:0.0945055 9:0.457213 
-0 -0 -22.55601543005764 -0 -0 0 1:0.355932 2:0.508 3:0.00333333 4:0.164902 5:0.26257 6:0.180926 7:0.383886 8:-0.0373626 9:0.613692 
-0 -0 -0 -0 -0 0.3499803950968157 1:0.25908 2:0.356 3:-0.583333 4:-0.394856 5:-0.346369 6:-0.178121 7:0.0521327 8:0.116484 9:0.457213 
-0 -0 -3.614095751830555 -0 -0 0 1:0.341404 2:0.536 3:0.0366667 4:0.146747 5:0.234637 6:0.253857 7:0.49763 8:-0.0857143 9:0.701711 
-0 -0 -5.557973450948731 -0 -0 0 1:0.25908 2:0.56 3:0.186667 4:-0.0771558 5:-0.0893855 6:0.475456 7:0.327014 8:-0.287912 9:0.858191 
-0 -0 -0.4639486768313646 -0 -0 0 1:-0.00242131 2:0.06 3:-0.293333 4:-0.594554 5:-0.98324 6:0.029453 7:0.109005 8:-0.635165 9:0.525672 
-0 -0 -0 -0 -0.25442198957678 0.5631264261001855 1:-0.0169492 2:0.116 3:-0.253333 4:-0.639939 5:-0.932961 6:0.15568 7:0.109005 8:-0.687912 9:0.530562 
-0.278155102009309 -0 -0 -0 -0 0 1:-0.0169492 2:0.116 3:-0.26 4:-0.639939 5:-0.938547 6:0.15568 7:0.0900474 8:-0.696703 9:0.515892 
-0 -0 -0 -0.541914044719258 -0 0 1:0.00242131 2:0.116 3:-0.266667 4:-0.636914 5:-0.972067 6:0.172511 7:0.0900474 8:-0.731868 9:0.535452 
-0 -0.4592819977655164 -0 -0 -0 0 1:0.00726392 2:0.116 3:-0.263333 4:-0.636914 5:-0.972067 6:0.172511 7:0.109005 8:-0.731868 9:0.555012 
-1.257108661213062 -0 -0 -0 -0 0 1:0.283293 2:0.556 3:0.2 4:-0.110439 5:-0.117318 6:0.472651 7:0.251185 8:-0.305495 9:0.784841 
-0 -0.2032983653455636 -0 -0 -0.01725295389376601 0 1:0.263923 2:0.616 3:0.26 4:-0.134644 5:-0.0837989 6:0.604488 7:0.374408 8:-0.323077 9:0.94132 
-0 -0.1650638056655458 -0 -0 -0 0 1:0.467312 2:0.724 3:0.343333 4:-0.0680787 5:-0.0502793 6:0.635344 7:0.488152 8:-0.235165 9:0.99511 
-0.5676144664376569 -0 -0 -0 -0 -0 1:0.559322 2:0.568 3:-0.5 4:-0.0226929 5:0.603352 6:-0.12763 7:-0.914692 8:0.956044 9:-0.677262 
-0 -0 -0 -0 -0.2303774000891726 -0 1:0.559322 2:0.568 3:-0.506667 4:-0.0226929 5:0.614525 6:-0.12763 7:-0.914692 8:0.951648 9:-0.711491 
-0 -0.03648837412381684 -0.2727726013311035 -0.1875004544871856 -0 -0.07706975867224525 1:0.564165 2:0.564 3:-0.513333 4:-0.03177 5:0.653631 6:-0.110799 7:-0.914692 8:0.969231 9:-0.735941 
-0 -1.454714454681377 -0.4529782464919757 -0.3899723177387142 -0 -0.5854961471554538 1:-0.57385 2:-0.068 3:-0.306667 4:-0.97882 5:0.027933 6:-0.43899 7:-0.981043 8:-0.349451 9:0.00244499 
-5.888125243357628 -0 -0 -0 -0 -0 1:-0.520581 2:-0.06 3:-0.306667 4:-0.951589 5:-0.0223464 6:-0.399719 7:-0.905213 8:-0.340659 9:0.0220049 
-15.83953117868957 -4.152892535188649 -1.181145445131396 -0 -5.833522620548076 -0.3347693474253967 1:-0.196126 2:-0.1 3:-0.28 4:-0.609682 5:0.156425 6:-0.402525 7:-0.042654 8:-0.468132 9:0.334963 
-18.73171731990695 -2.548222991633747 -0 -16.73539449024504 -32 -0 1:-0.176755 2:0.044 3:-0.226667 4:-0.198185 5:0.167598 6:-0.335203 7:0.0900474 8:-0.226374 9:-0.163814 
-0 -0 -0.5990073570404111 -0 -0 -0.6466026945346461 1:-0.138015 2:0.084 3:-0.223333 4:-0.198185 5:0.167598 6:-0.298738 7:0.146919 8:-0.226374 9:-0.100244 
-0 -0 -0 -0 -0 -3.284103045602659 1:-0.0121065 2:0.172 3:-0.216667 4:-0.240545 5:0.117318 6:-0.273492 7:0.203791 8:-0.213187 9:-0.0757946 
-0 -0 -5.568610140873426 -0 -0 -0.01488789516654956 1:0.680387 2:0.452 3:-0.126667 4:0.18003 5:0.335196 6:-0.183731 7:0.0995261 8:0.261538 9:0.119804 
-0.5500042737651727 -0 -0 -0 -0 -0 1:0.820823 2:0.44 3:-0.246667 4:0.246596 5:0.351955 6:-0.239832 7:0.109005 8:0.257143 9:0.0513447 
-0 -1.757508197617144 -0 -0.06345362456517983 -0 -0 1:0.811138 2:0.436 3:-0.31 4:0.252648 5:0.407821 6:-0.312763 7:0.184834 8:0.27033 9:0.0415648 
-0 -0 -0 -2.128509789498906 -0 -0 1:0.786925 2:0.432 3:-0.313333 4:0.24357 5:0.407821 6:-0.315568 7:0.165877 8:0.27033 9:0.0268949 
-0 -0 -0 -0 -0.5297519960241335 -0 1:0.77724 2:0.424 3:-0.313333 4:0.219365 5:0.430168 6:-0.312763 7:0.184834 8:0.27033 9:0.0268949 
-0 -0 -0 -0 -0 -13.95347780276432 1:0.641646 2:0.392 3:-0.326667 4:0.0801815 5:0.374302 6:-0.223001 7:0.232227 8:0.226374 9:0.105134 
-0 -0 -1.506301481019588 -0 -0 -1.228850412767032 1:0.622276 2:0.344 3:-0.353333 4:0.086233 5:0.407821 6:-0.169705 7:0.260664 8:0.235165 9:0.0855746 
-0 -0 -0 -0 -0 -3.457841935332068 1:-0.0411622 2:0.076 3:-0.316667 4:-0.670197 5:0.184358 6:-0.43899 7:-0.165877 8:-0.415385 9:0.310513 
-0 -0 -0 -10.72461759843106 -0 -0 1:0.515738 2:0.296 3:-0.393333 4:-0.0196672 5:0.452514 6:-0.206171 7:0.279621 8:0.186813 9:0.0171149 
-0 -0 -0 -0 -10.24383326346515 -0 1:0.031477 2:0.104 3:-0.27 4:-0.842663 5:0.335196 6:-0.458626 7:-0.469194 8:-0.221978 9:0.149144 
-0 -0 -0 -0 -10.19508323036846 -0 1:0.37046 2:0.268 3:-0.416667 4:-0.310136 5:0.418994 6:-0.172511 7:-0.0236967 8:0.0637363 9:-0.212714 
-0 -0.484031789426334 -0.1460492810297283 -0.3446746151507282 -0.2059711430352409 -0.4540114576663654 1:0.578692 2:0.552 3:-0.466667 4:-0.458396 5:0.977654 6:-0.180926 7:-0.914692 8:0.898901 9:-0.853301 
-0 -0 -0 -0 -4.010438591219125 -0 1:-0.0121065 2:-0.004 3:-0.203333 4:-0.942511 5:0.368715 6:-0.489481 7:-0.696682 8:-0.125275 9:0.0122249 
