svm_type c_svc
kernel_type rbf
gamma 0.5
nr_class 7
total_sv 179
rho 0.371492 -0.031172 0.517578 -0.234774 0.352549 0.0176613 -0.067151 -0.0478183 -0.447075 0.0458708 -0.092783 -0.240924 -0.295747 0.0394072 -0.0974845 0.738415 0.142297 0.0475865 0.155794 0.379696 -0.448419
label 0 1 3 5 6 8 9
nr_sv 26 22 23 23 30 28 27
SV
0 0 16.77967457891239 0 0 0 1:0.312349 2:-0.0639175 3:-0.499072 4:0.144144 5:0.23494 6:-0.34877 7:-0.0239234 8:-0.0584192 9:-0.117117 
0 0 0 0 2.991940641645904 0 1:0.312349 2:-0.0226804 3:-0.491651 4:0.153153 5:0.240964 6:-0.34877 7:0.00478469 8:-0.0584192 9:-0.0945946 
0 0 0 0 3.724114639705281 0 1:0.25908 2:-0.0639175 3:-0.506494 4:0.105105 5:0.216867 6:-0.360347 7:-0.0430622 8:-0.0515464 9:-0.0990991 
0 0 0 1.184517550932187 0 0 1:0.230024 2:-0.0639175 3:-0.506494 4:0.0930931 5:0.228916 6:-0.360347 7:-0.0526316 8:-0.0515464 9:-0.103604 
6.814777928266007 0 0 0 0 0 1:0.123487 2:-0.121649 3:-0.636364 4:0.135135 5:0.180723 6:-0.39508 7:-0.0334928 8:-0.347079 9:-0.126126 
2.446518460003861 8.654265824730341 0 0 0 0 1:0.46247 2:0.274227 3:-0.358071 4:0.405405 5:0.493976 6:-0.178003 7:0.138756 8:-0.134021 9:0.027027 
0 0 0 0 0 2.205641218407736 1:-0.0799031 2:-0.265979 3:-0.554731 4:-0.108108 5:0.186747 6:-0.406657 7:-0.100478 8:-0.113402 9:-0.144144 
0 0 0 0 2.075780671229452 0 1:0.355932 2:0.179381 3:-0.432282 4:0.252252 5:0.427711 6:-0.232996 7:0.205742 8:-0.0859107 9:-0.0135135 
0 0 0 0 1.405357870717243 0 1:0.181598 2:0.0185567 3:-0.543599 4:0.0810811 5:0.319277 6:-0.267728 7:0.062201 8:-0.0927835 9:-0.0315315 
0 0 0 0 0 8.459196693702841 1:-0.263923 2:-0.393814 3:-0.632653 4:-0.249249 5:0.144578 6:-0.479016 7:-0.148325 8:-0.175258 9:-0.202703 
0 0 11.22866986694241 8.753752511771347 0.4599615838412846 0 1:-0.307506 2:-0.480412 3:-0.699443 4:-0.297297 5:0.0722892 6:-0.52822 7:-0.177033 8:-0.182131 9:-0.27027 
0 0 0.1789761099946969 0 0 0 1:-0.627119 2:-0.715464 3:-0.732839 4:-0.471471 5:0.0903614 6:-0.623734 7:-0.244019 8:-0.106529 9:-0.265766 
0 0 0 0 0 1.134859813048826 1:-0.641646 2:-0.719588 3:-0.732839 4:-0.483483 5:0.0843373 6:-0.623734 7:-0.244019 8:-0.120275 9:-0.265766 
0 0 0 3.753123540605336 0 7.379061943087035 1:0.0121065 2:0.0845361 3:-0.350649 4:-0.0930931 5:0.433735 6:-0.192475 7:0.263158 8:-0.189003 9:-0.0135135 
0 2.382548545292519 0 0 0 0 1:-0.00242131 2:0.0639175 3:-0.369202 4:-0.042042 5:0.451807 6:-0.204052 7:0.37799 8:-0.195876 9:0.045045 
0 0 0 0 0.8274270141910557 0 1:0.00242131 2:0.0515464 3:-0.398887 4:-0.0510511 5:0.445783 6:-0.221418 7:0.368421 8:-0.182131 9:0.036036 
7.382163224637233 0 0 0 0 0 1:-0.772397 2:-0.884536 3:-0.810761 4:-0.561562 5:0.0361446 6:-0.701881 7:-0.37799 8:-0.216495 9:-0.324324 
0 0 0 0.03379694736899266 0 0 1:-1 2:-0.958763 3:-0.844156 4:-0.678679 5:0.0421687 6:-0.70767 7:-0.406699 8:-0.292096 9:-0.382883 
0 0 0.2860539834954675 0 0 0 1:-0.985472 2:-0.979381 3:-0.847866 4:-0.648649 5:0.0120482 6:-0.730825 7:-0.483254 8:-0.271478 9:-0.40991 
0 0.6212392160958503 0 0 0.382415175858523 0 1:-0.985472 2:-0.979381 3:-0.847866 4:-0.663664 5:0.0120482 6:-0.730825 7:-0.483254 8:-0.271478 9:-0.40991 
0 0 0 0 0.5832041061742497 0 1:-0.932203 2:-0.975258 3:-0.851577 4:-0.648649 5:-0.0120482 6:-0.733719 7:-0.483254 8:-0.264605 9:-0.414414 
5.277784294675392 0 0 0 0 0 1:-0.878935 2:-0.946392 3:-0.851577 4:-0.63964 5:-0.0120482 6:-0.733719 7:-0.473684 8:-0.257732 9:-0.396396 
29.6127958833642 0.2590487983015736 0 0 0.5223230234471178 0 1:-0.418886 2:-0.364948 3:-0.725417 4:-0.225225 5:0.228916 6:-0.531114 7:0.397129 8:-0.924399 9:0.045045 
3.919833040019832 0 0 0 0 0 1:-0.16707 2:-0.138144 3:-0.591837 4:-0.105105 5:0.463855 6:-0.380608 7:0.416268 8:-0.257732 9:0.126126 
0 0 0 0.5522576092454069 0 0 1:-0.133172 2:-0.134021 3:-0.591837 4:-0.117117 5:0.46988 6:-0.386397 7:0.38756 8:-0.243986 9:0.117117 
15.34183481630437 0 0 0 0 0 1:-0.128329 2:-0.129897 3:-0.576994 4:-0.105105 5:0.475904 6:-0.383502 7:0.397129 8:-0.243986 9:0.130631 
-0 0 0 0 2.265558444383013 0 1:-0.312349 2:-0.463918 3:-0.858998 4:-0.399399 5:0.0662651 6:-0.890014 7:-0.23445 8:-0.0309278 9:-0.202703 
-0 0 4.306020478841845 0 0 0 1:-0.336562 2:-0.480412 3:-0.851577 4:-0.411411 5:0.120482 6:-0.878437 7:-0.22488 8:-0.0515464 9:-0.198198 
-0 0 0 5.583050202252437 0 4.1206892463017 1:-0.336562 2:-0.45567 3:-0.855288 4:-0.411411 5:0.144578 6:-0.875543 7:-0.22488 8:-0.0721649 9:-0.189189 
-4.456518986069534 0 9.199693831186389 3.070705996975957 7.79384391008797 1.648752565945512 1:0.307506 2:-0.0556701 3:-0.673469 4:0.276276 5:0.259036 6:-0.455861 7:0.301435 8:-0.134021 9:0.018018 
-0 6.270751859727267 0 0 0 0 1:0.418886 2:0.0474227 3:-0.606679 4:0.489489 5:0.277108 6:-0.447178 7:0.282297 8:-0.443299 9:-0.036036 
-0 0 0.07078886335857998 0 0 0 1:0.399516 2:0.043299 3:-0.6141 4:0.417417 5:0.192771 6:-0.467438 7:0.215311 8:-0.47079 9:-0.0855856 
-0 23.66749125466422 0 0 0.598452858252474 0.4415951613835333 1:0.627119 2:0.348454 3:-0.480519 4:0.726727 5:0.819277 6:-0.172214 7:0.866029 8:0.0378007 9:0.364865 
-8.444708486548823 0 0 0 0 0 1:-0.501211 2:-0.6 3:-0.847866 4:-0.54955 5:0.180723 6:-0.907381 7:-0.311005 8:-0.0859107 9:-0.238739 
-0 0 0 1.389675567898197 0 0 1:0.0702179 2:-0.162887 3:-0.703154 4:0.0960961 5:0.259036 6:-0.496382 7:0.483254 8:-0.271478 9:0.0585586 
-1.79225623326194 0 0 0 0 0 1:-0.719128 2:-0.96701 3:-0.840445 4:-0.792793 5:0.120482 6:-0.965268 7:-0.5311 8:-0.0309278 9:-0.373874 
-4.375045527883786 0 0 0 0 0 1:-0.719128 2:-0.96701 3:-0.840445 4:-0.792793 5:0.114458 6:-0.965268 7:-0.54067 8:-0.0309278 9:-0.373874 
-19.21072328014544 0 0 0 0 0 1:-0.312349 2:-0.402062 3:-0.840445 4:-0.0810811 5:0.144578 6:-0.612156 7:0.37799 8:-0.828179 9:0.0045045 
-3.299186950188049 0 0 0 0 0 1:-0.0556901 2:-0.179381 3:-0.673469 4:0.0660661 5:0.144578 6:-0.562952 7:0.339713 8:-0.690722 
-0 0.760723082154068 0 0 0.1424410317293714 0 1:-0.564165 2:-1 3:-0.777365 4:-0.843844 5:0.0542169 6:-0.994211 7:-0.703349 8:0.0927835 9:-0.481982 
-0 0 0 0 0 0.7215766778014824 1:-0.564165 2:-0.975258 3:-0.751391 4:-0.834835 5:0.10241 6:-0.962373 7:-0.655502 8:0.113402 9:-0.459459 
-0 0 0.2724692915318233 0 0 0 1:-0.569007 2:-0.979381 3:-0.762523 4:-0.834835 5:0.10241 6:-0.950796 7:-0.655502 8:0.0859107 9:-0.477477 
-8.401479835058799 0 0 0 0 0 1:-0.525424 2:-0.554639 3:-0.918367 4:-0.231231 5:0.10241 6:-0.765557 7:0.330144 8:-0.972509 9:0.036036 
-0 0.2723079352198082 0 0 0 0 1:-0.530266 2:-0.571134 3:-0.925788 4:-0.216216 5:0.120482 6:-0.771346 7:0.435407 8:-1 9:0.0405405 
-0.4534195118444971 0 0 0 0 0 1:-0.171913 2:-0.253608 3:-0.680891 4:0.00600601 5:0.240964 6:-0.609262 7:0.311005 8:-0.773196 9:0.103604 
-0 0 0 0.1466622039760295 0 0 1:-0.0460048 2:-0.0185567 3:-0.595547 4:0.0750751 5:0.566265 6:-0.371925 7:0.5311 8:-0.353952 9:0.324324 
-2.218924258465471 0 0 0 0 1.548855943581691 1:-0.094431 2:-0.0680412 3:-0.61039 4:0.0570571 5:0.548193 6:-0.392185 7:0.492823 8:-0.353952 9:0.333333 
-18.14344457780457 0 0 0 0 0 1:-0.113801 2:-0.0886598 3:-0.617811 4:0.0540541 5:0.524096 6:-0.400868 7:0.483254 8:-0.415808 9:0.324324 
-0 -17.24857900434138 0 0 0 0 1:0.728814 2:0.253608 3:-0.328386 4:0.768769 5:0.686747 6:-0.178003 7:0.69378 8:-0.134021 9:0.292793 
-0 -4.076521745602996 0 0 0 0 1:0.709443 2:0.253608 3:-0.328386 4:0.75976 5:0.662651 6:-0.178003 7:0.684211 8:-0.134021 9:0.292793 
-4.932793148005844 -0 0 0 0 0 1:0.554479 2:0.298969 3:-0.172542 4:0.597598 5:0.542169 6:-0.065123 7:0.425837 8:-0.223368 9:0.279279 
-0.4253316680780174 -1.843715653803543 0.9153843172960328 0.3313374520088808 0 0.4176772320077802 1:1 2:0.307216 3:-0.476809 4:0.975976 5:0.554217 6:-0.244573 7:0.827751 8:0.0584192 9:0.162162 
-0 -4.053306318010235 0 0 0 0 1:0.719128 2:0.6 3:-0.0686456 4:0.87988 5:0.951807 6:0.157742 7:0.923445 8:0.525773 9:0.490991 
-0 -0 0.1008532851849928 0 0 0.4699381384384532 1:0.733656 2:0.6 3:-0.0797774 4:0.885886 5:0.951807 6:0.157742 7:0.84689 8:0.539519 9:0.445946 
-0 -0 0 0.2224570839335422 0 0 1:0.733656 2:0.6 3:-0.0760668 4:0.882883 5:0.963855 6:0.183792 7:0.885167 8:0.539519 9:0.445946 
-0 -0 0 0 2.124521635649568 0 1:0.709443 2:0.6 3:-0.0760668 4:0.861862 5:0.951807 6:0.186686 7:0.866029 8:0.539519 9:0.45045 
-0 -0 0 0 0.5378698824350924 0 1:0.636804 2:0.657732 3:0.165121 4:0.750751 5:0.879518 6:0.360347 7:0.779904 8:0.484536 9:0.445946 
-0.587709676994816 -0 0 0 0 0 1:0.225182 2:0.245361 3:0.157699 4:0.276276 5:0.283133 6:0.16932 7:0.138756 8:-0.457045 9:0.234234 
-0 -0 0 0 0.6910698875408047 0 1:0.375303 2:0.241237 3:-0.120594 4:0.441441 5:0.23494 6:-0.0332851 7:0.483254 8:0.0446735 9:0.135135 
-0 -0 0 0.5413598271695431 8.278228247702989 0 1:0.181598 2:0.0927835 3:-0.16141 4:0.306306 5:0.0903614 6:-0.0738061 7:0.425837 8:-0.106529 9:0.211712 
-0 -0 2.700844392439514 0 0 1.863713092432953 1:0.239709 2:0.138144 3:-0.139147 4:0.342342 5:0.144578 6:-0.0940666 7:0.416268 8:-0.0652921 9:0.198198 
-5.043001069806047 -0 0 0 0 0 1:0.215496 2:0.117526 3:-0.168831 4:0.339339 5:0.138554 6:-0.111433 7:0.435407 8:-0.127148 9:0.202703 
-0 -0 0 0 0.9797599119753189 0 1:0.433414 2:0.789691 3:0.643785 4:0.570571 5:0.789157 6:0.777135 7:0.569378 8:0.285223 9:0.40991 
-0 -0 0 0 0 0.2362005428485597 1:-0.0508475 2:0.105155 3:0.276438 4:0.0960961 5:0.0963855 6:0.0564399 7:0.119617 8:-0.601375 9:0.423423 
-0 -1.565139901726737 0 0 0 0 1:0.0460048 2:-0.0556701 3:-0.2282 4:0.219219 5:0.0060241 6:-0.227207 7:0.54067 8:-0.298969 9:0.36036 
-0 -1.946571165742295 0 0.5198380835938845 0 0 1:0.0460048 2:-0.0556701 3:-0.2282 4:0.219219 5:0.0060241 6:-0.227207 7:0.521531 8:-0.298969 9:0.36036 
-0.5038601011586225 -0 0 0.5159232064440437 0 0.4028907345794392 1:0.16707 2:0.0597938 3:-0.0686456 4:0.237237 5:0.0662651 6:-0.218524 7:0.37799 8:-0.264605 9:0.243243 
-0.1253307170797239 -0 0.306502922711858 0.3671802164918952 0 0.4311885648875542 1:0.263923 2:0.962887 3:1 4:0.525526 5:-0.0180723 6:0.965268 7:0.856459 8:-0.512027 9:1 
-0 -0.2374403425381852 0 0 0.7224859197573398 0 1:0.244552 2:0.962887 3:1 4:0.516517 5:-0.0180723 6:0.965268 7:0.856459 8:-0.512027 9:0.990991 
-0.2990760032972157 -0 0.3278211366046093 0.3316610524206278 0 0.2451665034426346 1:0.355932 2:0.917526 3:0.929499 4:0.576577 5:0.957831 6:1 7:0.770335 8:0.209622 9:0.563063 
-0 -0 0 0 0 0.1522225522354727 1:0.380145 2:0.934021 3:0.940631 4:0.576577 5:0.927711 6:1 7:0.732057 8:0.209622 9:0.540541 
-0 -4.616145963607815 -1.035737167886137 0 0 0 1:0.612591 2:-0.0845361 3:-0.699443 4:0.264264 5:0.0963855 6:-0.470333 7:0.0143541 8:-0.0652921 9:-0.396396 
-7.56056391132092 -0 -0 0 0 0 1:0.607748 2:-0.0680412 3:-0.640074 4:0.219219 5:0.0662651 6:-0.41534 7:-0.0526316 8:0.0515464 9:-0.369369 
-0 -0 -0 0 3.154397973579287 0 1:0.617433 2:-0.0350515 3:-0.606679 4:0.21021 5:0.0843373 6:-0.39508 7:0.0143541 8:0.182131 9:-0.355856 
-6.031088860659222 -1.317142884207321 -0 0 9.671024545138588 0 1:0.302663 2:-0.0969072 3:-0.781076 4:-0.174174 5:0.0903614 6:-0.507959 7:-0.119617 8:-0.134021 9:-0.441441 
-0 -0 -0 0 4.972373415939805 0 1:0.27845 2:0.00618557 3:-0.487941 4:-0.351351 5:-0.0421687 6:-0.502171 7:-0.129187 8:0.553265 9:-0.585586 
-0 -0 -0 19.04815448314335 0 29.04129338557707 1:0.123487 2:-0.00618557 3:-0.521336 4:-0.312312 5:0.114458 6:-0.46165 7:0.00478469 8:0.457045 9:-0.581081 
-0 -0 -0 0 0 15.76094096067248 1:0.322034 2:0.117526 3:-0.55102 4:0.162162 5:0.60241 6:-0.256151 7:0.282297 8:0.333333 9:-0.243243 
-0 -0 -0.03667216076064355 0 0 0 1:0.341404 2:0.129897 3:-0.55102 4:0.201201 5:0.60241 6:-0.256151 7:0.320574 8:0.340206 9:-0.234234 
-2.021569782772379 -0 -0 0 0 0 1:0.322034 2:0.117526 3:-0.55102 4:0.192192 5:0.584337 6:-0.267728 7:0.311005 8:0.319588 9:-0.225225 
-0 -2.492602997940329 -2.644190667155477 0 0 0 1:0.268765 2:0.117526 3:-0.558442 4:0.174174 5:0.572289 6:-0.276411 7:0.349282 8:0.319588 9:-0.225225 
-0 -0 -0 0 9.116891655915575 0 1:0.302663 2:0.109278 3:-0.558442 4:0.189189 5:0.554217 6:-0.276411 7:0.358852 8:0.381443 9:-0.234234 
-0 -0 -0 1.066871056672714 0 0 1:0.191283 2:-0.146392 3:-0.74397 4:-0.255255 5:0.295181 6:-0.54848 7:0.0239234 8:0.0515464 9:-0.432432 
-0 -0 -0 0 0 0.1023221047830307 1:0.273608 2:0.0969072 3:-0.55102 4:0.174174 5:0.548193 6:-0.285094 7:0.368421 8:0.381443 9:-0.243243 
-0 -0 -0 21.84741493153163 0 0 1:0.118644 2:-0.0268041 3:-0.602968 4:0.0750751 5:0.512048 6:-0.340087 7:0.263158 8:0.353952 9:-0.283784 
-0 -0 -0 5.713230684959567 0 0 1:0.0217918 2:-0.261856 3:-0.662338 4:-0.627628 5:-0.0662651 6:-0.597685 7:-0.406699 8:0.367698 9:-0.842342 
-0 -0 -0 32 0 0 1:-0.0363196 2:-0.323711 3:-0.74397 4:-0.36036 5:0.349398 6:-0.554269 7:-0.0909091 8:-0.0103093 9:-0.567568 
-0 -0 -0 1.682074101602834 0 0 1:-0.0266344 2:-0.323711 3:-0.74026 4:-0.36036 5:0.349398 6:-0.554269 7:-0.0909091 8:0.0171821 9:-0.567568 
-0 -5.243737795876081 -0 0 0 0 1:-0.297821 2:-0.360825 3:-0.640074 4:-0.0630631 5:0.421687 6:-0.444284 7:0.0334928 8:-0.00343643 9:-0.36036 
-0 -0 -0.0326052107365955 0 0 0 1:-0.346247 2:-0.356701 3:-0.617811 4:-0.0990991 5:0.427711 6:-0.438495 7:-0.0334928 8:-0.0103093 9:-0.378378 
-0 -0 -0 0 0 12.04413967574922 1:-0.346247 2:-0.348454 3:-0.6141 4:-0.0930931 5:0.427711 6:-0.435601 7:-0.0143541 8:0.0103093 9:-0.378378 
-0 -0 -0 18.41852857902007 0 0 1:-0.336562 2:-0.356701 3:-0.625232 4:-0.102102 5:0.409639 6:-0.450072 7:-0.062201 8:0.0103093 9:-0.387387 
-12.86015198459244 -0 -0 0 0 0 1:-0.336562 2:-0.360825 3:-0.628942 4:-0.105105 5:0.391566 6:-0.452967 7:-0.0909091 8:-0.0103093 9:-0.396396 
-0 -0.1793428232870914 -0.602200847698154 0 0 0 1:0.00726392 2:-0.42268 3:-0.669759 4:-0.6997 5:-0.0843373 6:-0.542692 7:-0.502392 8:0.491409 9:-0.995495 
-0 -0 -0 -0 0 4.442667800676963 1:0.0556901 2:0.117526 3:-0.628942 4:-0.462462 5:0.295181 6:-0.536903 7:-0.406699 8:0.106529 9:-0.423423 
-5.970575921834929 -5.413375331755842 -0.8531482592457754 -0 3.637150732919291 0 1:-0.031477 2:-0.00206186 3:-0.773655 4:-0.336336 5:0.26506 6:-0.589001 7:0.129187 8:-0.202749 9:-0.364865 
-0 -0 -0 -26.84071400817817 0 0 1:-0.0217918 2:-0.0268041 3:-0.777365 4:-0.33033 5:0.277108 6:-0.600579 7:0.00478469 8:-0.161512 9:-0.445946 
-0 -0 -0 -7.427619301719455 0 0 1:-0.123487 2:-0.220619 3:-0.684601 4:-0.435435 5:0.180723 6:-0.751085 7:-0.205742 8:0.250859 9:-0.635135 
-0 -0 -0 -32 0 0 1:0.0121065 2:-0.0721649 3:-0.662338 4:-0.036036 5:0.457831 6:-0.510854 7:0.062201 8:0.457045 9:-0.315315 
-0 -0 -0 -7.193377575790464 0 0 1:0.00242131 2:-0.0886598 3:-0.666048 4:-0.048048 5:0.457831 6:-0.536903 7:0.062201 8:0.436426 9:-0.315315 
-0 -0.3447621287607825 -0 -0 0 0 1:0.00242131 2:-0.0721649 3:-0.662338 4:-0.048048 5:0.463855 6:-0.522431 7:0.0813397 8:0.450172 9:-0.274775 
-0 -2.13688639907202 -0 -0 0 0 1:0.0169492 2:-0.0597938 3:-0.654917 4:-0.036036 5:0.475904 6:-0.510854 7:0.148325 8:0.477663 9:-0.261261 
-2.362409069762414 -0 -0 -0 0 0 1:0.0169492 2:-0.0474227 3:-0.662338 4:-0.033033 5:0.475904 6:-0.516643 7:0.0813397 8:0.450172 9:-0.265766 
-0 -0 -0.5553388407500082 -0 6.065307354431386 16.41099477271906 1:0.0750605 2:0.00618557 3:-0.651206 4:-0.027027 5:0.487952 6:-0.499276 7:0.129187 8:0.546392 9:-0.256757 
-0 -0 -0.6099414684735226 -0 0 0 1:-0.00726392 2:0.0185567 3:-0.625232 4:-0.0900901 5:0.578313 6:-0.479016 7:0.244019 8:0.580756 9:-0.252252 
-0 -0 -0 -0 0 13.56704063746583 1:0.1477 2:0.129897 3:-0.625232 4:-0.51952 5:0.283133 6:-0.568741 7:-0.483254 8:0.154639 9:-0.436937 
-0 -0 -0 -0 1.823324044597772 0 1:0.152542 2:0.121649 3:-0.647495 4:-0.498498 5:0.295181 6:-0.589001 7:-0.454545 8:0.189003 9:-0.432432 
-0 -0 -0 -0 0 5.940496483473153 1:-0.263923 2:-0.0639175 3:-0.380334 4:-0.681682 5:0.385542 6:-0.470333 7:-0.186603 8:0.292096 9:-0.540541 
-0 -0 -0 -0 0 14.03900772846747 1:-0.254237 2:-0.150515 3:-0.450835 4:-0.546547 5:0.463855 6:-0.450072 7:0.0717703 8:-0.00343643 9:-0.351351 
-0 -0 -0 -0 1.160338694948712 0 1:0.302663 2:-0.0515464 3:-0.703154 4:-0.768769 5:0.271084 6:-0.672938 7:-0.636364 8:0.127148 9:-0.59009 
-0 -0 -0 -0.1463054790316008 0 0 1:0.302663 2:-0.0515464 3:-0.699443 4:-0.753754 5:0.283133 6:-0.664255 7:-0.636364 8:0.127148 9:-0.59009 
-0 -0.366246512904788 -0 -0 0 0 1:0.210654 2:-0.0556701 3:-0.714286 4:-0.786787 5:0.26506 6:-0.675832 7:-0.674641 8:0.0927835 9:-0.608108 
-0 -0 -0.3083336349305927 -0 0 0 1:0.225182 2:-0.0556701 3:-0.703154 4:-0.795796 5:0.301205 6:-0.670043 7:-0.69378 8:0.106529 9:-0.612613 
-3.473216862857086 -0 -0 -0 0 0 1:-0.331719 2:-0.385567 3:-0.469388 4:-0.573574 5:0.337349 6:-0.487699 7:-0.0717703 8:-0.0721649 9:-0.495495 
-0 -0 -0 -9.45730881181602 0 0 1:-0.317191 2:-0.385567 3:-0.469388 4:-0.567568 5:0.337349 6:-0.487699 7:-0.062201 8:-0.0652921 9:-0.490991 
-2.47124630546884 -0 -0 -0 0 0 1:-0.317191 2:-0.389691 3:-0.476809 4:-0.567568 5:0.319277 6:-0.510854 7:-0.148325 8:-0.0790378 9:-0.536036 
-0 -1.928823598609188 -0 -0 0 0 1:-0.326877 2:-0.393814 3:-0.476809 4:-0.573574 5:0.319277 6:-0.513748 7:-0.148325 8:-0.0790378 9:-0.540541 
-0 -0 -0 -2.749576818661995 0 0 1:-0.263923 2:-0.37732 3:-0.443414 4:-0.567568 5:0.331325 6:-0.507959 7:-0.186603 8:-0.0309278 9:-0.558559 
-0 -0 -0 -9.523999765765911 0 0 1:-0.283293 2:-0.307216 3:-0.398887 4:-0.621622 5:0.26506 6:-0.39508 7:-0.339713 8:0.223368 9:-0.882883 
-0 -0 -0.4783666169257045 -0 0 0 1:-0.443099 2:-0.319588 3:-0.22449 4:-0.600601 5:0.259036 6:-0.250362 7:-0.148325 8:0.147766 9:-0.779279 
-0 -0 -0 -0 0 6.297771305029198 1:-0.433414 2:-0.319588 3:-0.217069 4:-0.597598 5:0.26506 6:-0.250362 7:-0.148325 8:0.147766 9:-0.779279 
-0 -0 -0 -0 0 3.456463958313472 1:-0.200969 2:-0.290722 3:-0.28757 4:-0.249249 5:0.662651 6:-0.325615 7:0.0813397 8:0.594502 9:-0.40991 
-0 -0 -0.02462810173681404 -0 0 0 1:-0.200969 2:-0.278351 3:-0.298701 4:-0.237237 5:0.686747 6:-0.322721 7:0.0909091 8:0.594502 9:-0.40991 
-0 -0 -0 -4.43737207596656 0 0 1:-0.0750605 2:-0.360825 3:-0.384045 4:-0.222222 5:0.650602 6:-0.392185 7:0.100478 8:0.683849 9:-0.490991 
-0 -0 -0 -3.459535845692926 -0 0 1:0.35109 2:0.0597938 3:-0.914657 4:-0.162162 5:0.0963855 6:-0.571635 7:-0.062201 8:0.243986 9:-0.288288 
-0 -0 -0 -0 -6.436272252121215 0 1:0.35109 2:0.0597938 3:-0.914657 4:-0.168168 5:0.0963855 6:-0.571635 7:-0.062201 8:0.243986 9:-0.288288 
-0 -0 -0 -0 -3.428530713972876 0 1:0.297821 2:0.0762887 3:-0.858998 4:-0.222222 5:0.0361446 6:-0.493488 7:0.0143541 8:0.147766 9:-0.238739 
-0 -0 -0 -0 -0 10.39554070715192 1:0.341404 2:0.0804124 3:-0.833024 4:-0.195195 5:0.0421687 6:-0.502171 7:-0.0239234 8:0.195876 9:-0.243243 
-0 -0 -0 -14.00516637973562 -0 0 1:0.341404 2:0.0804124 3:-0.833024 4:-0.195195 5:0.0421687 6:-0.502171 7:-0.0239234 8:0.175258 9:-0.243243 
-5.036044392371676 -2.883437051955525 -0 -0 -0 0 1:0.322034 2:0.0886598 3:-0.858998 4:-0.174174 5:0.0722892 6:-0.499276 7:0.0334928 8:0.0927835 9:-0.216216 
-0 -2.087539233095213 -0 -0 -0 0 1:0.220339 2:-0.0515464 3:-1 4:0.036036 5:0.0361446 6:-0.455861 7:0.272727 8:0.305842 9:-0.27027 
-0 -0 -0 -2.800165769723931 -0 0 1:0.239709 2:-0.0515464 3:-0.981447 4:0.042042 5:0.0361446 6:-0.444284 7:0.272727 8:0.305842 9:-0.261261 
-5.197421326670526 -4.000316687724712 -3.839133097148518 -0.05852260981580173 -0 0 1:0.191283 2:0.0680412 3:-0.584416 4:0.012012 5:-0.186747 6:-0.186686 7:0.272727 8:-0.106529 9:0.036036 
-0 -0 -1.388444486507981 -0 -0 0 1:0.191283 2:0.0845361 3:-0.558442 4:0.012012 5:-0.289157 6:-0.204052 7:0.37799 8:-0.0927835 9:0.144144 
-0 -0 -0 -0 -0 8.483400076618093 1:0.559322 2:0.340206 3:-0.283859 4:0.336336 5:0.656627 6:-0.0738061 7:0.416268 8:0.773196 9:0.108108 
-0 -1.71619016613415 -0 -0 -0 0 1:0.544794 2:0.331959 3:-0.283859 4:0.324324 5:0.644578 6:-0.0738061 7:0.416268 8:0.731959 9:0.108108 
-2.331308419484584 -0 -0 -5.617870838169079 -1.688201235667236 0 1:0.515738 2:0.331959 3:-0.283859 4:0.318318 5:0.644578 6:-0.0738061 7:0.416268 8:0.731959 9:0.108108 
-0 -0 -0 -0 -0.5245491807487137 0 1:0.472155 2:0.34433 3:-0.194805 4:0.279279 5:0.644578 6:0.024602 7:0.435407 8:0.71134 9:0.144144 
-0 -0 -5.450629396434922 -0 -0 0 1:0.46247 2:0.468041 3:-0.102041 4:0.261261 5:0.578313 6:0.105644 7:0.5311 8:0.635739 9:0.288288 
-0 -0 -0.2131938096479657 -0 -0 0 1:0.283293 2:0.459794 3:-0.0463822 4:0.039039 5:0.271084 6:0.319826 7:0.54067 8:0.353952 9:0.490991 
-0 -0 -0 -0.9479557288440364 -0 0 1:0.25908 2:0.0845361 3:-0.235622 4:-0.177177 5:-0.536145 6:0.117221 7:0.157895 8:-0.257732 9:0.135135 
-0 -0 -0 -0 -0 1.59030790899714 1:0.205811 2:0.0927835 3:-0.22449 4:-0.189189 5:-0.560241 6:0.175109 7:0.177033 8:-0.264605 9:0.148649 
-0 -0 -0 -0 -0 0.3255809260876465 1:-0.0169492 2:0.0226804 3:-0.469388 4:-0.642643 5:-0.933735 6:0.128799 7:0.0717703 8:-0.525773 9:0.193694 
-0 -0 -0 -0 -0.4521171410839495 0 1:0.00242131 2:0.0226804 3:-0.469388 4:-0.63964 5:-0.96988 6:0.146165 7:0.0813397 8:-0.580756 9:0.216216 
-0 -0 -0 -0.02547041859186146 -0 0 1:0.263923 2:0.16701 3:-0.16141 4:-0.201201 5:-0.512048 6:0.253256 7:0.272727 8:-0.312715 9:0.175676 
-0 -0 -0.6825255377632651 -0 -0 0 1:0.307506 2:0.224742 3:-0.142857 4:-0.174174 5:-0.512048 6:0.357453 7:0.37799 8:-0.319588 9:0.247748 
-0 -0 -0.1728048947358691 -0 -0 0 1:0.317191 2:0.220619 3:-0.116883 4:-0.18018 5:-0.481928 6:0.392185 7:0.483254 8:-0.237113 9:0.265766 
-0 -0 -0 -0 -0 0.09632036078701356 1:0.283293 2:0.476289 3:0.0500928 4:-0.117117 5:-0.0481928 6:0.455861 7:0.244019 8:0.0859107 9:0.445946 
-0.4077505882833235 -0 -0 -0 -0 0 1:0.292978 2:0.517526 3:0.102041 4:-0.129129 5:-0.0240964 6:0.539797 7:0.253589 8:0.0515464 9:0.495495 
-0 -0 -1.355696454649486 -0 -0 0 1:0.27845 2:0.546392 3:0.109462 4:-0.135135 5:-0.0180723 6:0.571635 7:0.330144 8:0.0378007 9:0.567568 
-0 -0 -0 -0 -0.1564503033031707 0 1:0.263923 2:0.538144 3:0.116883 4:-0.141141 5:-0.0120482 6:0.591896 7:0.368421 8:0.0584192 9:0.59009 
-0 -0.1128131055432281 -0.2315078081731086 -0 -0 0 1:0.467312 2:0.649485 3:0.209647 4:-0.0750751 5:0.0240964 6:0.623734 7:0.483254 8:0.195876 9:0.63964 
-0 -1.085276509356856 -0.534839414606292 -0 -0.4402863424299877 -0.08941301479356982 1:-0.57385 2:-0.16701 3:-0.513915 4:-0.978979 5:0.108434 6:-0.484805 7:-1 8:0.0171821 9:-0.274775 
-0 -0 -0 -0 -3.11405548328771 -0 1:-0.375303 2:-0.121649 3:-0.480519 4:-0.840841 5:0.210843 6:-0.441389 7:-0.444976 8:0.0103093 9:-0.144144 
-9.988245322160443 -4.248403921665874 -0.730151265731629 -0 -1.727707296103417 -0 1:-0.196126 2:-0.2 3:-0.48423 4:-0.612613 5:0.246988 6:-0.447178 7:-0.0526316 8:-0.168385 9:0.0315315 
-4.603070225761183 -1.829414075418919 -0 -32 -32 -0 1:-0.176755 2:-0.0515464 3:-0.424861 4:-0.204204 5:0.259036 6:-0.377713 7:0.0813397 8:0.209622 9:-0.427928 
-1.623007633353331 -0 -0 -0.5965423654061499 -0 -0 1:-0.138015 2:-0.0103093 3:-0.42115 4:-0.204204 5:0.259036 6:-0.340087 7:0.138756 8:0.209622 9:-0.369369 
-0 -0 -0 -0 -0 -0.6279391929509998 1:0.0992736 2:0.129897 3:-0.398887 4:-0.267267 5:0.216867 6:-0.285094 7:0.301435 8:0.278351 9:-0.324324 
-2.364246478499346 -0 -0 -4.574575129284607 -0 -6.387243996974142 1:0.128329 2:0.101031 3:-0.387755 4:-0.24024 5:0.0301205 6:-0.232996 7:-0.0526316 8:0.0171821 9:-0.414414 
-0 -0 -0 -0 -0 -0.2620353417756696 1:0.162228 2:0.154639 3:-0.376623 4:-0.246246 5:0.0662651 6:-0.204052 7:0.0334928 8:0.0584192 9:-0.382883 
-0 -0 -1.789662290762792 -0 -0 -0 1:0.283293 2:0.319588 3:-0.302412 4:-0.234234 5:0.325301 6:-0.131693 7:0.22488 8:0.161512 9:-0.337838 
-0 -0 -0.3174475008044175 -0 -0 -0.3856429807729981 1:0.680387 2:0.369072 3:-0.313544 4:0.171171 5:0.439759 6:-0.221418 7:0.0909091 8:0.972509 9:-0.166667 
-0 -0 -0.1273662211997056 -0 -0 -0 1:0.835351 2:0.364948 3:-0.402597 4:0.228228 5:0.463855 6:-0.241679 7:0.100478 8:0.993127 9:-0.225225 
-0.6001900084721379 -0 -0.7195306677680102 -0 -0 -0 1:0.820823 2:0.360825 3:-0.506494 4:0.246246 5:0.542169 6:-0.345876 7:0.177033 8:1 9:-0.234234 
-0 -1.318375088572267 -0 -0 -0 -0.2369393086846205 1:0.811138 2:0.352577 3:-0.517625 4:0.243243 5:0.518072 6:-0.354559 7:0.177033 8:0.986254 9:-0.238739 
-0 -0 -0 -0.8979070766674127 -0 -0 1:0.77724 2:0.340206 3:-0.525046 4:0.21021 5:0.518072 6:-0.357453 7:0.157895 8:0.965636 9:-0.252252 
-0 -0 -0 -0 -1.040132185803644 -0 1:0.77724 2:0.340206 3:-0.521336 4:0.21021 5:0.542169 6:-0.354559 7:0.177033 8:0.986254 9:-0.252252 
-0 -0 -0 -0 -0 -9.928906354429357 1:0.636804 2:0.307216 3:-0.539889 4:0.0660661 5:0.5 6:-0.230101 7:0.244019 8:0.917526 9:-0.18018 
-0 -0 -0 -0 -0 -2.973029789260459 1:-0.0411622 2:-0.0185567 3:-0.525046 4:-0.672673 5:0.277108 6:-0.484805 7:-0.177033 8:-0.0859107 9:0.00900901 
-0 -0 -0 -8.53342643916781 -0 -0 1:0.506053 2:0.195876 3:-0.606679 4:-0.03003 5:0.493976 6:-0.244573 7:0.253589 8:0.828179 9:-0.27027 
-0 -0 -0 -0 -0.9809420519124062 -0 1:0.515738 2:0.208247 3:-0.61039 4:-0.027027 5:0.566265 6:-0.244573 7:0.272727 8:0.85567 9:-0.261261 
-0 -0 -0 -0 -12.68820705273677 -0 1:0.031477 2:0.0103093 3:-0.473098 4:-0.843844 5:0.439759 6:-0.505065 7:-0.483254 8:0.216495 9:-0.13964 
-0 -0 -0 -0.4901358370955851 -0 -0 1:0.268765 2:0.138144 3:-0.413729 4:-0.411411 5:0.307229 6:-0.195369 7:0.0143541 8:0.175258 9:-0.554054 
-0 -0 -0 -1.321847876043454 -0 -0 1:-0.0508475 2:-0.0639175 3:-0.461967 4:-0.933934 5:0.409639 6:-0.534009 7:-0.732057 8:0.347079 9:-0.216216 
-0 -0 -0 -0 -7.156262318011101 -0 1:0.37046 2:0.179381 3:-0.636364 4:-0.315315 5:0.53012 6:-0.209841 7:-0.0334928 8:0.66323 9:-0.472973 
-0 -0 -0 -0 -2.33194467320443 -0 1:-0.0121065 2:-0.101031 3:-0.398887 4:-0.942943 5:0.475904 6:-0.536903 7:-0.712919 8:0.367698 9:-0.265766 
-0 -0 -0 -0 -2.67490528265569 -0 1:0.191283 2:0.0350515 3:-0.406308 4:-0.57958 5:0.319277 6:-0.0767004 7:-0.282297 8:0.202749 9:-0.756757 
-0 -0 -0 -0.1577575711015873 -0 -0 1:0.220339 2:0.014433 3:-0.410019 4:-0.546547 5:0.301205 6:-0.065123 7:-0.23445 8:0.230241 9:-0.77027 
-0 -0 -0 -8.376503832015192 -0 -0 1:0.433414 2:0.113402 3:-0.621521 4:-0.252252 5:0.536145 6:-0.16932 7:0.0526316 8:0.718213 9:-0.527027 
