svm_type c_svc
kernel_type rbf
gamma 0.5
nr_class 5
total_sv 289
rho 0.344768 0.591101 0.00609244 0.529737 0.193152 0.570365 0.337932 0.290699 0.453506 0.501307
label 1 3 6 8 9
nr_sv 32 62 66 54 75
SV
0 0 0 2.136056367353353 1:-0.501188 2:-0.0356473 3:0.141748 4:-0.366474 5:0.39039 6:-0.445255 7:-0.0128755 8:-0.048474 9:-0.411043 
0 0 0 8 1:-0.510689 3:0.0951456 4:-0.378035 5:0.369369 6:-0.428224 7:-0.0386266 8:-0.00179533 9:-0.411043 
0 6.593814850774462 0 0 1:-0.539192 2:0.00187617 3:0.0291262 4:-0.39422 5:0.312312 6:-0.442822 7:-0.0987124 8:-0.00179533 9:-0.420245 
0 1.218008418045 0 0 1:-0.225653 2:-0.19137 3:0.386408 4:0.412717 5:0.465465 6:-0.381995 7:-0.553648 8:-0.278276 9:0.230061 
0 0 0 4.494763094356163 1:-0.220903 2:-0.193246 3:0.386408 4:0.412717 5:0.471471 6:-0.379562 7:-0.553648 8:-0.274686 9:0.223926 
2.426289797676193 0 0 0 1:-0.220903 2:-0.172608 3:0.394175 4:0.412717 5:0.486486 6:-0.352798 7:-0.553648 8:-0.267504 9:0.263804 
4.453846942994344 0 2.680209830642111 0 1:-0.244656 2:-0.172608 3:0.394175 4:0.396532 5:0.471471 6:-0.367397 7:-0.579399 8:-0.274686 9:0.245399 
0 0.5969072631609975 0 0 1:-0.220903 2:-0.39212 3:0.394175 4:0.0890173 5:-0.0960961 6:-0.462287 7:0.00429185 8:-0.206463 9:-0.138037 
0 0 0 1.433953991735933 1:0.0308789 2:-0.0750469 3:0.763107 4:0.482081 5:0.975976 6:-0.0291971 7:-0.0128755 8:-0.385996 9:0.892638 
2.669229976577779 0 0 0.4920945965349814 1:-0.00712589 2:-0.198874 3:0.549515 4:0.269364 5:0.750751 6:-0.201946 7:-0.545064 8:-0.421903 9:0.711656 
0 0.9842017815921665 1.347576653716629 8 1:-0.0023753 2:-0.183865 3:0.580583 4:0.255491 5:0.744745 6:-0.189781 7:-0.51073 8:-0.414722 9:0.733129 
0 0.5177936578031245 0 0 1:-0.182898 2:-0.043152 3:0.708738 4:0.116763 5:0.747748 6:-0.141119 7:-0.167382 8:-0.411131 9:0.726994 
0 7.982056005163679 0.136396281578392 5.159003361289156 1:-0.847981 2:-0.144465 3:0.669903 4:-0.544509 5:0.165165 6:-0.282238 7:-0.51073 8:-0.885099 9:0.377301 
0 0 0 2.566247667985883 1:-0.553444 2:0.181989 3:0.0485437 4:-0.45896 5:0.213213 6:-0.379562 7:-0.0128755 8:0.249551 9:-0.51227 
0 0 0 8 1:-0.553444 2:0.183865 3:0.0330097 4:-0.449711 5:0.222222 6:-0.394161 7:-0.0128755 8:0.235189 9:-0.496933 
0.05322244442179745 0 0 0 1:-0.315914 2:-0.114447 3:0.359223 4:-0.0450867 5:-0.231231 6:-0.423358 7:0.175966 8:-0.0736086 9:-0.119632 
0 0 1.724135834148051 0 1:-0.0546318 2:-0.257036 3:0.603883 4:0.0843931 5:0.66967 6:-0.214112 7:-0.364807 8:-0.429084 9:0.717791 
0 0 0 3.888858403143963 1:-0.558195 2:0.281426 3:0.0601942 4:-0.516763 5:0.198198 6:-0.289538 7:0.0472103 8:0.274686 9:-0.453988 
0 0 0 1.978652670272848 1:-0.5962 2:0.330206 3:-0.0407767 4:-0.539884 5:0.129129 6:-0.326034 7:-0.0300429 8:0.285458 9:-0.552147 
0 0 0 8 1:-0.591449 2:0.354597 3:-0.0640777 4:-0.542197 5:0.105105 6:-0.326034 7:-0.0300429 8:0.317774 9:-0.576687 
1.700731767117181 6.085873678946724 2.347068451348471 0 1:-0.605701 2:0.35272 3:-0.0796117 4:-0.53526 5:0.0960961 6:-0.328467 7:-0.0643777 8:0.328546 9:-0.58589 
0 0.4670145658514024 0 0 1:-0.84323 2:-0.373358 3:0.21165 4:-0.738728 5:0.324324 6:-0.734793 7:-0.0901288 8:-0.292639 9:-0.831288 
0 0 0 2.280606255158025 1:-0.344418 2:-0.00187617 3:0.413592 4:-0.158382 5:-0.276276 6:-0.36983 7:0.330472 8:-0.0448833 9:-0.0582822 
1.592355942625783 1.461088334434042 2.391302084374839 0 1:-0.349169 3:0.394175 4:-0.16763 5:-0.297297 6:-0.374696 7:0.321888 8:-0.048474 9:-0.0644172 
0 1.319124362579587 0 1.097719241678085 1:0.0261283 2:-0.63227 3:0.949515 4:0.315607 5:0.840841 6:-0.0948905 7:0.545064 8:-0.633752 9:0.849693 
0.2056846586041373 0 0 0 1:0.0213777 2:-0.667917 3:1 4:0.310983 5:0.876877 6:-0.0729927 7:0.562232 8:-0.637343 9:0.874233 
0 7.95541770724759 0 0 1:-0.11639 2:-0.457786 3:0.603883 4:-0.116763 5:0.498498 6:-0.26764 7:-0.0729614 8:-0.533214 9:0.674847 
0 0 0 2.381713123909442 1:-0.957245 2:-0.277674 3:0.654369 4:-1 5:-0.252252 6:-0.360097 7:-0.433476 8:-0.7307 9:0.223926 
0 8 0 1.808194290121143 1:-0.976247 2:-0.234522 3:0.603883 4:-1 5:-0.267267 6:-0.357664 7:-0.459227 8:-0.601436 9:0.223926 
0 3.371165358376865 0 0 1:-0.971496 2:-0.234522 3:0.615534 4:-1 5:-0.261261 6:-0.352798 7:-0.450644 8:-0.594255 9:0.223926 
0 0 1.63123861976838 0 1:-0.976247 2:-0.255159 3:0.6 4:-1 5:-0.243243 6:-0.345499 7:-0.502146 8:-0.583483 9:0.223926 
2.052611422784576 0 0 0 1:-0.980998 2:-0.255159 3:0.6 4:-1 5:-0.249249 6:-0.352798 7:-0.502146 8:-0.590664 9:0.223926 
-0 0 6.675223349797357 0 1:0.125891 2:0.703565 3:0.0213592 4:0.0751445 5:0.126126 6:0.0754258 7:-0.270386 8:0.360862 9:0.478528 
-0 0 8 0 1:0.140143 2:0.703565 3:0.0291262 4:0.0913295 5:0.165165 6:0.0900243 7:-0.270386 8:0.371634 9:0.48773 
-0 0.4130353960571186 8 0 1:0.159145 2:0.703565 3:0.0368932 4:0.0936416 5:0.177177 6:0.0900243 7:-0.253219 8:0.396768 9:0.478528 
-0 0 3.162440149016259 0 1:0.140143 2:0.703565 3:0.0213592 4:0.0936416 5:0.129129 6:0.0729927 7:-0.270386 8:0.371634 9:0.432515 
-0 1.386166277546772 1.452673987008496 0 1:-0.301663 2:0.20075 3:0.238835 4:-0.0381503 5:0.219219 6:0.754258 7:-0.347639 8:-0.131059 9:0.760736 
-0.4050117095167403 0 0 0 1:-0.36342 2:0.144465 3:0.227184 4:-0.0381503 5:0.207207 6:0.783455 7:-0.424893 8:-0.184919 9:0.773006 
-0 0 0 0.6151223933793393 1:0.448931 2:0.210131 3:-0.825243 4:0.856647 5:-0.78979 6:-0.783455 7:-0.381974 8:0.138241 9:-0.371166 
-0 0.7753215259814112 4.726643297357174 0 1:0.353919 2:0.170732 3:-0.786408 4:0.812717 5:-0.591592 6:-0.739659 7:-0.399142 8:-0.0305206 9:-0.279141 
-6.193602556488726 0 0 0 1:0.140143 2:0.0187617 3:0.238835 4:0.528324 5:0.573574 6:-0.284672 7:-0.83691 8:-0.174147 9:0.472393 
-0 0 0 2.837878996133093 1:0.154394 2:0.0694184 3:0.242718 4:0.528324 5:0.600601 6:-0.282238 7:-0.828326 8:-0.170557 9:0.490798 
-0 0 0 3.319364563363232 1:0.159145 2:0.206379 3:0.250485 4:0.537572 5:0.615616 6:-0.226277 7:-0.819742 8:-0.127469 9:0.503067 
-0 1.656530137302303 0 0 1:0.125891 2:0.217636 3:0.207767 4:0.505202 5:0.600601 6:-0.248175 7:-0.785408 8:-0.0987433 9:0.506135 
-0.6730152410155027 0.4171630235479737 0 0.2678006957463441 1:0.805226 2:-0.750469 3:0.215534 4:0.986127 5:0.273273 6:-0.430657 7:0.862661 8:-0.482944 9:0.45092 
-0.3983249303222943 0.8366899547523123 0 2.213471313546903 1:0.805226 2:-0.196998 3:0.238835 4:0.974566 5:0.408408 6:-0.184915 7:0.819742 8:-0.292639 9:0.656442 
-0 0 0.8836997005969804 0 1:0.814727 2:-0.187617 3:0.231068 4:0.96763 5:0.402402 6:-0.184915 7:0.819742 8:-0.289048 9:0.650307 
-0 1.088171877217291 0 0 1:0.814727 2:-0.17636 3:0.231068 4:0.972254 5:0.402402 6:-0.184915 7:0.854077 8:-0.281867 9:0.662577 
-0 1.154902102962943 0 0 1:0.60095 2:-1 3:-0.153398 4:0.537572 5:-0.135135 6:-0.948905 7:-0.553648 8:-0.766607 9:0.0337423 
-0 0 0 2.488246364858743 1:0.619952 2:-0.849906 3:-0.137864 4:0.521387 5:-0.135135 6:-0.883212 7:-0.545064 8:-0.701975 9:0.0674847 
-0 0 0 4.751879088945142 1:-0.334917 2:0.407129 3:0.370874 4:-0.514451 5:0.03003 6:-0.080292 7:-0.27897 8:0.202873 9:0.552147 
-0 8 0 0 1:-0.334917 2:0.465291 3:0.394175 4:-0.468208 5:0.141141 6:-0.00729927 7:-0.27897 8:0.249551 9:0.622699 
-0 8 0 1.687947543621951 1:-0.330166 2:0.532833 3:0.405825 4:-0.468208 5:0.177177 6:-0.00729927 7:-0.270386 8:0.249551 9:0.677914 
-0 8 0 0 1:-0.330166 2:0.575985 3:0.405825 4:-0.424277 5:0.177177 6:-0.00486618 7:-0.270386 8:0.249551 9:0.677914 
-0 2.326388663994232 0 2.566676988783468 1:-0.36342 2:0.470919 3:0.343689 4:-0.449711 5:0.108108 6:-0.0510949 7:-0.304721 8:0.120287 9:0.607362 
-2.921939249225176 0 0 0 1:-0.36342 2:0.354597 3:0.28932 4:-0.424277 5:0.033033 6:-0.111922 7:-0.356223 8:0.0628366 9:0.515337 
-2.111033464673483 0 0 0 1:-0.0308789 2:-0.313321 3:0.0213592 4:0.169942 5:-0.174174 6:-0.608273 7:-0.476395 8:-0.4614 9:0.0920245 
-0 0 0 7.760164619446571 1:0.0023753 2:-0.313321 3:0.0213592 4:0.172254 5:-0.174174 6:-0.608273 7:-0.467811 8:-0.45781 9:0.0920245 
-0 0 0 8 1:0.0023753 2:-0.300188 3:0.0291262 4:0.169942 5:-0.189189 6:-0.608273 7:-0.433476 8:-0.454219 9:0.0920245 
-0 3.4324697531102 0 0 1:-0.667458 2:-0.296435 3:-0.149515 4:-0.417341 5:-0.510511 6:-0.878345 7:-0.725322 8:-0.508079 9:-0.205521 
-0.5126158239665671 0 0 0 1:-0.686461 2:-0.27955 3:-0.0679612 4:-0.292486 5:-0.432432 6:-0.822384 7:-0.76824 8:-0.633752 9:-0.162577 
-0 0.6579869330057597 0 0 1:-0.605701 2:-0.270169 3:-0.0679612 4:-0.287861 5:-0.447447 6:-0.829684 7:-0.725322 8:-0.587074 9:-0.180982 
-0 0 0 5.879206842729039 1:-0.605701 2:-0.281426 3:-0.0796117 4:-0.287861 5:-0.492492 6:-0.832117 7:-0.725322 8:-0.587074 9:-0.202454 
-1.52180477886269 0 0 0 1:-0.543943 2:-0.0731707 3:0.0330097 4:-0.301734 5:-0.36036 6:-0.654501 7:-0.733906 8:-0.375224 9:-0.0398773 
-0 0 1.773572971701992 0 1:-0.377672 2:0.178236 3:0.297087 4:-0.105202 5:0.12012 6:0.990268 7:-0.44206 8:-0.202873 9:0.831288 
-0 0.7110063694560815 2.951669831741577 0.8025521244501647 1:0.254157 2:0.318949 3:-0.891262 4:0.72948 5:-0.75976 6:-0.744526 7:-0.682403 8:-0.0664273 9:-0.352761 
-0 1.423181042463546 0 0.8429257483560508 1:0.287411 2:0.358349 3:-0.937864 4:0.736416 5:-0.864865 6:-0.76399 7:-0.622318 8:0.02693 9:-0.365031 
-0 0 5.246050950486195 0 1:0.173397 2:0.322702 3:0.180583 4:0.419653 5:0.489489 6:-0.253041 7:-0.811159 8:-0.102334 9:0.518405 
-0 0 8 0 1:0.173397 2:0.322702 3:0.180583 4:0.380347 5:0.489489 6:-0.253041 7:-0.811159 8:-0.102334 9:0.518405 
-0 0 8 0 1:0.159145 2:0.514071 3:0.149515 4:0.371098 5:0.396396 6:-0.20438 7:-0.819742 8:-0.016158 9:0.533742 
-0 0 1.324767354781153 0 1:0.914489 2:-0.0900563 3:0.192233 4:0.835838 5:0.18018 6:-0.243309 7:0.896996 8:-0.184919 9:0.56135 
-0 0 8 0 1:-0.301663 2:0.405253 3:0.254369 4:-0.521387 5:-0.00900901 6:-0.136253 7:-0.347639 8:0.141831 9:0.48773 
-0 0 8 0 1:-0.301663 2:0.405253 3:0.250485 4:-0.523699 5:-0.018018 6:-0.138686 7:-0.347639 8:0.141831 9:0.484663 
-0 0 8 0 1:-0.301663 2:0.418386 3:0.250485 4:-0.523699 5:-0.018018 6:-0.138686 7:-0.339056 8:0.145422 9:0.484663 
-0 0 5.89565760648922 0 1:-0.292162 2:0.454034 3:0.250485 4:-0.523699 5:-0.018018 6:-0.138686 7:-0.330472 8:0.170557 9:0.484663 
-0 0 8 0 1:0.0356295 2:-0.183865 3:0.0330097 4:0.0219653 5:-0.222222 6:-0.554745 7:-0.381974 8:-0.278276 9:0.104294 
-0 0 6.048805645028101 0 1:0.0356295 2:-0.183865 3:0.0330097 4:0.0520231 5:-0.222222 6:-0.554745 7:-0.381974 8:-0.263914 9:0.104294 
-0 0 8 0 1:-0.0973872 2:0.709193 3:0.227184 4:-0.158382 5:0.00600601 6:0.70073 7:-0.055794 8:0.314183 9:0.760736 
-0 0 0.7696629019652332 0 1:-0.0973872 2:0.709193 3:0.246602 4:-0.151445 5:0.00900901 6:0.70073 7:-0.055794 8:0.314183 9:0.763804 
-0 0 0 1.640129400898207 1:-0.505938 2:0.287054 3:0.658252 4:-0.190751 5:-0.0810811 6:1 7:-0.527897 8:-0.238779 9:0.941718 
-0.2432456796249186 0 0 0 1:-0.505938 2:0.287054 3:0.658252 4:-0.190751 5:-0.0780781 6:1 7:-0.519313 8:-0.238779 9:0.944785 
-0.06664003476581014 0 0 0 1:0.396675 2:0.600375 3:-1 4:0.646243 5:-0.867868 6:-0.639903 7:-0.562232 8:0.166966 9:-0.273006 
-0 0 0.7195068349993172 0 1:0.353919 2:0.58349 3:-0.902913 4:0.523699 5:-0.873874 6:-0.627737 7:-0.527897 8:0.163375 9:-0.223926 
-0 0 0.1037204765630868 0 1:0.173397 2:0.484053 3:-0.634951 4:0.509827 5:-0.561562 6:-0.547445 7:-0.579399 8:0.00179533 9:-0.0490798 
-0 0 5.382248385387508 0 1:0.315914 2:0.662289 3:0.223301 4:0.310983 5:0.237237 6:-0.163017 7:-0.587983 8:0.271095 9:0.533742 
-0 0 3.873572082462175 0 1:0.353919 2:0.65666 3:0.18835 4:0.313295 5:0.186186 6:-0.172749 7:-0.596567 8:0.271095 9:0.484663 
-0.0569968977625846 0.1600882431765059 0 0 1:0.990499 2:-0.0300188 3:0.219417 4:0.750289 5:0.0690691 6:-0.223844 7:1 8:0.070018 9:0.506135 
-0.0497425865772986 0 0 0 1:0.976247 2:-0.0731707 3:0.165049 4:0.722543 5:-0.018018 6:-0.233577 7:0.974249 8:0.070018 9:0.457055 
-0 0 1.442580820497201 0 1:0.415677 2:-0.574109 3:-0.0291262 4:0.304046 5:-0.0570571 6:-0.705596 7:-0.519313 8:-0.536804 9:0.223926 
-0 0 0 3.586985558459381 1:-0.325416 2:0.452158 3:0.258252 4:-0.713295 5:-0.0780781 6:-0.136253 7:-0.399142 8:0.267504 9:0.47546 
-0 0 1.831448563584162 0 1:-0.249406 2:0.688555 3:0.149515 4:-0.861272 5:-0.183183 6:-0.131387 7:-0.347639 8:0.56553 9:0.41411 
-0 4.89273522685323 6.034096587927659 0 1:-0.0831354 2:-0.238274 3:0.00970874 4:-0.0473988 5:-0.252252 6:-0.56691 7:-0.44206 8:-0.357271 9:0.116564 
-0 0 5.664902641013375 0 1:-0.0736342 2:-0.19137 3:-0.00194175 4:-0.0520231 5:-0.267267 6:-0.559611 7:-0.44206 8:-0.289048 9:0.128834 
-0 0 1.688435818360345 0 1:-0.567696 2:-0.0994371 3:-0.176699 4:-0.630058 5:-0.663664 6:-0.759124 7:-0.939914 8:-0.163375 9:-0.220859 
-0 -0 0 8 1:-0.178147 2:0.255159 3:-0.219417 4:-0.153757 5:0.375375 6:-0.620438 7:0.175966 8:0.339318 9:-0.616564 
-0 -0 0 2.47239587179131 1:-0.182898 2:0.251407 3:-0.223301 4:-0.156069 5:0.366366 6:-0.620438 7:0.175966 8:0.339318 9:-0.616564 
-5.496610478766231 -0 0 0 1:-0.239905 2:0.227017 3:-0.2 4:-0.139884 5:0.408408 6:-0.654501 7:0.124464 8:0.321364 9:-0.604294 
-0 -0.0608511851694627 0 0 1:-0.315914 2:-0.0900563 3:-0.18835 4:-0.271676 5:0.297297 6:-0.751825 7:-0.364807 8:-0.184919 9:-0.797546 
-0 -0 0 8 1:-0.325416 2:-0.0825516 3:-0.316505 4:-0.301734 5:0.228228 6:-0.785888 7:-0.373391 8:-0.174147 9:-0.95092 
-0 -0 0 1.686097928791083 1:-0.325416 2:-0.0825516 3:-0.316505 4:-0.301734 5:0.228228 6:-0.788321 7:-0.373391 8:-0.174147 9:-0.960123 
-0 -0 0 7.219080644310069 1:-0.349169 2:-0.0393996 3:-0.304854 4:-0.334104 5:0.21021 6:-0.783455 7:-0.339056 8:-0.152603 9:-0.911043 
-0 -0 8 0 1:0.102138 2:-0.181989 3:-0.716505 4:0.486705 5:-0.696697 6:-0.990268 7:-0.296137 8:-0.508079 9:-0.546012 
-0 -0 0 6.659604323506556 1:0.0023753 2:-0.288931 3:-0.654369 4:0.486705 5:-0.660661 6:-0.985401 7:-0.467811 8:-0.615799 9:-0.521472 
-0 -2.287848110293391 0 0 1:0.00712589 2:-0.268293 3:-0.627184 4:0.491329 5:-0.657658 6:-0.978102 7:-0.44206 8:-0.597846 9:-0.515337 
-0.4713249002081792 -0 0 0 1:-0.239905 2:0.538462 3:0.382524 4:0.0890173 5:0.411411 6:0.10219 7:0.055794 8:0.393178 9:0.828221 
-0 -0 6.938152194697788 0 1:-0.235154 2:0.585366 3:0.351456 4:0.0265896 5:0.393393 6:0.0875912 7:-0.00429185 8:0.368043 9:0.815951 
-0 -0 0 5.11435880448901 1:0.368171 2:-0.397749 3:0.642718 4:0.495954 5:0.57958 6:-0.053528 7:0.879828 8:-0.806104 9:0.785276 
-0 -1.544662235362713 0.543285101017004 0 1:0.382423 2:-0.420263 3:0.642718 4:0.493642 5:0.585586 6:-0.0608273 7:0.888412 8:-0.795332 9:0.791411 
-2.587746402348484 -0 0 0 1:0.339667 2:-0.489681 3:0.650485 4:0.452023 5:0.552553 6:-0.0608273 7:0.845494 8:-0.863555 9:0.779141 
-0 -0 8 0 1:0.0213777 2:-0.341463 3:0.36699 4:-0.0890173 5:0.186186 6:-0.386861 7:-0.356223 8:-0.766607 9:0.43865 
-0 -0 0.344366129855031 0 1:0.0213777 2:-0.341463 3:0.36699 4:-0.100578 5:0.186186 6:-0.396594 7:-0.356223 8:-0.766607 9:0.43865 
-0 -0 0 8 1:0.0213777 2:-0.348968 3:0.359223 4:-0.10289 5:0.144144 6:-0.40146 7:-0.356223 8:-0.788151 9:0.42638 
-0 -0 0 0.3771188982514604 1:0.0213777 2:-0.348968 3:0.363107 4:-0.112139 5:0.147147 6:-0.40146 7:-0.356223 8:-0.788151 9:0.42638 
-0 -1.34899422723217 0 0 1:0.0261283 2:-0.380863 3:0.36699 4:-0.0959538 5:0.171171 6:-0.408759 7:-0.390558 8:-0.806104 9:0.41411 
-0 -0 0 5.081833218212126 1:0.0356295 2:-0.347092 3:0.378641 4:-0.0867052 5:0.171171 6:-0.403893 7:-0.347639 8:-0.795332 9:0.423313 
-5.231996645404248 -0 0 0 1:-0.444181 2:0.170732 3:0.537864 4:-0.34104 5:0.369369 6:-0.0924574 7:-0.0729614 8:-0.364452 9:0.693252 
-0 -0 0 8 1:-0.453682 2:0.144465 3:0.421359 4:-0.366474 5:0.285285 6:-0.175182 7:-0.270386 8:-0.439856 9:0.58589 
-0 -0 0 8 1:-0.453682 2:0.165103 3:0.421359 4:-0.366474 5:0.285285 6:-0.175182 7:-0.270386 8:-0.439856 9:0.58589 
-0 -0 0 8 1:-0.83848 2:0.146341 3:0.631068 4:-0.986127 5:-0.0870871 6:-0.20438 7:-0.545064 8:-0.576302 9:0.404908 
-0 -0.9209242071095834 0 8 1:-0.847981 2:0.138837 3:0.61165 4:-0.83815 5:-0.153153 6:-0.214112 7:-0.562232 8:-0.572711 9:0.389571 
-0 -0 0 8 1:-0.833729 2:0.120075 3:0.58835 4:-0.974566 5:-0.177177 6:-0.233577 7:-0.579399 8:-0.558348 9:0.358896 
-0 -0 0 8 1:-0.824228 2:0.121951 3:0.6 4:-0.93526 5:-0.171171 6:-0.231144 7:-0.570815 8:-0.551167 9:0.358896 
-0 -0 0 1.805801362532913 1:-0.819477 2:0.116323 3:0.603883 4:-1 5:-0.171171 6:-0.233577 7:-0.579399 8:-0.554758 9:0.352761 
-0 -0.2330809265460489 0 0 1:-0.334917 2:0.266417 3:-0.413592 4:-0.262428 5:0.222222 6:-0.678832 7:-0.00429185 8:0.364452 9:-0.809816 
-0.1758360202426017 -0 0 0 1:-0.638955 2:-0.125704 3:-0.258252 4:-0.521387 5:0.237237 6:-0.798054 7:-0.304721 8:-0.228007 9:-0.723926 
-0 -0 2.226508785850014 0 1:-0.0166271 2:-0.097561 3:-0.720388 4:0.343353 5:-0.741742 6:-0.965937 7:-0.364807 8:-0.526032 9:-0.484663 
-0 -0 0.2425009183475358 0 1:-0.244656 2:0.65666 3:0.347573 4:-0.105202 5:0.417417 6:0.080292 7:-0.055794 8:0.400359 9:0.791411 
-1.978121705655315 -0 0 0 1:-0.0688836 2:-0.401501 3:0.382524 4:-0.204624 5:0.186186 6:-0.386861 7:-0.296137 8:-0.813285 9:0.417178 
-8 -0 0 0 1:-0.0783848 2:-0.407129 3:0.382524 4:-0.209249 5:0.18018 6:-0.399027 7:-0.296137 8:-0.820467 9:0.41411 
-0 -0 0 8 1:-0.472684 2:0.234522 3:0.308738 4:-0.42659 5:0.213213 6:-0.194647 7:-0.261803 8:-0.411131 9:0.56135 
-0 -0.8486140139156404 8 0 1:-0.501188 2:0.253283 3:0.273786 4:-0.440462 5:0.189189 6:-0.206813 7:-0.296137 8:-0.385996 9:0.555215 
-0 -0 2.61324741506468 0 1:-0.501188 2:0.251407 3:0.273786 4:-0.440462 5:0.189189 6:-0.206813 7:-0.296137 8:-0.393178 9:0.555215 
-0 -0 0 6.659314585452362 1:-0.496437 2:0.251407 3:0.285437 4:-0.440462 5:0.192192 6:-0.206813 7:-0.296137 8:-0.393178 9:0.555215 
-0 -0 0 8 1:-0.486936 2:0.253283 3:0.28932 4:-0.440462 5:0.195195 6:-0.20438 7:-0.287554 8:-0.393178 9:0.56135 
-8 -0 0 0 1:-0.833729 2:0.054409 3:0.627184 4:-1 5:-0.189189 6:-0.250608 7:-0.562232 8:-0.554758 9:0.312883 
-8 -1.370096601515425 0 8 1:-0.833729 2:0.0619137 3:0.638835 4:-0.817341 5:-0.177177 6:-0.243309 7:-0.545064 8:-0.51167 9:0.325153 
-0 -0 0 6.586145187783145 1:-0.786223 2:0.0919325 3:0.669903 4:-1 5:-0.165165 6:-0.233577 7:-0.51073 8:-0.493716 9:0.340491 
-0 -0 1.034283339536308 0 1:-0.301663 2:0.27955 3:-0.405825 4:-0.280925 5:0.255255 6:-0.673966 7:0.0729614 8:0.439856 9:-0.837423 
-0 -0 0 8 1:-0.60095 2:0.00938086 3:-0.359223 4:-0.572254 5:0.147147 6:-0.79562 7:-0.304721 8:-0.0628366 9:-0.874233 
-0 -0 0 8 1:-0.615202 2:0.011257 3:-0.363107 4:-0.572254 5:0.144144 6:-0.800487 7:-0.313305 8:-0.059246 9:-0.880368 
-0 -0 0 7.098756544573203 1:-0.619952 2:0.011257 3:-0.36699 4:-0.572254 5:0.135135 6:-0.807786 7:-0.330472 8:-0.059246 9:-0.90184 
-0 -1.007945586845776 0 0 1:-0.653207 2:-0.0300188 3:-0.332039 4:-0.581503 5:0.141141 6:-0.798054 7:-0.364807 8:-0.116697 9:-0.812883 
-6.610829831350585 -0 0 0 1:-0.653207 2:0.043152 3:-0.285437 4:-0.576879 5:0.177177 6:-0.751825 7:-0.244635 8:0.005386 9:-0.797546 
-0 -0 3.176738067964171 0 1:-0.0736342 2:-0.0150094 3:-0.68932 4:0.186127 5:-0.747748 6:-0.922141 7:-0.27897 8:-0.51167 9:-0.444785 
-0 -4.298238369888665 0 0 1:-0.130641 2:-0.0919325 3:-0.619417 4:0.13526 5:-0.663664 6:-0.900243 7:-0.261803 8:-0.547576 9:-0.374233 
-0 -0 0 6.684985718489133 1:-0.12114 2:-0.0919325 3:-0.615534 4:0.13526 5:-0.657658 6:-0.89781 7:-0.253219 8:-0.547576 9:-0.371166 
-0 -0 0 8 1:-0.130641 2:-0.0938086 3:-0.619417 4:0.132948 5:-0.663664 6:-0.900243 7:-0.261803 8:-0.547576 9:-0.374233 
-0 -8 0 0 1:-0.315914 2:0.660413 3:0.324272 4:-0.165318 5:0.435435 6:0.0754258 7:-0.107296 8:0.378815 9:0.782209 
-0 -8 0 0 1:-0.311164 2:0.660413 3:0.332039 4:-0.165318 5:0.435435 6:0.0754258 7:-0.107296 8:0.382406 9:0.782209 
-0 -0.1409076680291979 0 0 1:-0.306413 2:0.645403 3:0.339806 4:-0.179191 5:0.435435 6:0.0778589 7:-0.0815451 8:0.375224 9:0.788344 
-0 -0 0 5.3089873029607 1:-0.239905 2:0.666041 3:0.386408 4:-0.206936 5:0.435435 6:0.114355 7:-0.0386266 8:0.378815 9:0.834356 
-0 -0 0 0.6473049926671762 1:-0.27791 2:0.645403 3:0.398058 4:-0.23237 5:0.459459 6:0.116788 7:-0.0472103 8:0.378815 9:0.831288 
-0 -0 0 8 1:0.159145 2:-0.131332 3:0.479612 4:0.2 5:0.3003 6:-0.0924574 7:0.83691 8:-0.67325 9:0.702454 
-0 -0 0 8 1:0.159145 2:-0.131332 3:0.479612 4:0.213873 5:0.303303 6:-0.0875912 7:0.845494 8:-0.666068 9:0.705521 
-0 -0 0 6.796075805625302 1:0.159145 2:-0.148218 3:0.487379 4:0.2 5:0.303303 6:-0.0924574 7:0.845494 8:-0.67325 9:0.717791 
-0 -0.2357053967719015 8 7.826816260218418 1:-0.182898 2:0.144465 3:0.363107 4:-0.620809 5:0.177177 6:-0.257908 7:-0.261803 8:-0.0233393 9:0.515337 
-0 -4.741683572382639 8 0 1:-0.211401 2:0.11257 3:0.363107 4:-0.620809 5:0.177177 6:-0.257908 7:-0.304721 8:-0.0448833 9:0.496933 
-0 -8 5.200213485419828 0 1:-0.254157 2:0.0787992 3:0.351456 4:-0.551445 5:0.18018 6:-0.287105 7:-0.313305 8:-0.0520646 9:0.484663 
-0 -2.292284426365068 0 0 1:-0.410926 2:0.527205 3:0.52233 4:-1 5:0.327327 6:-0.0389294 7:0.107296 8:0.29623 9:0.791411 
-0 -0 0 7.101593759040544 1:-0.429929 2:0.545966 3:0.557282 4:-1 5:0.369369 6:-0.0243309 7:0.158798 8:0.332136 9:0.815951 
-0 -8 -0 0 1:-0.0831354 2:0.604128 3:0.0601942 4:-0.0427746 5:0.162162 6:0.822384 7:-0.00429185 8:0.307002 9:0.43865 
-0 -8 -0 0 1:-0.0831354 2:0.600375 3:0.0601942 4:-0.0427746 5:0.162162 6:0.819951 7:-0.00429185 8:0.29982 9:0.43865 
-0 -1.654543912153744 -0 0 1:-0.0831354 2:0.600375 3:0.0601942 4:-0.0450867 5:0.162162 6:0.819951 7:-0.00429185 8:0.29982 9:0.43865 
-0.7447766038373939 -0 -0 0 1:-0.382423 2:0.545966 3:-0.398058 4:-0.526012 5:-0.27027 6:0.715328 7:-0.356223 8:0.13465 9:-0.0981595 
-0 -1.840667588709553 -0 0 1:-0.43943 2:0.5197 3:-0.394175 4:-0.491329 5:-0.264264 6:0.683698 7:-0.476395 8:0.0664273 9:-0.0889571 
-0 -0 -1.528508956766421 0 1:0.287411 2:-0.0900563 3:-0.429126 4:0.560694 5:-0.693694 6:-0.822384 7:-0.124464 8:-0.436266 9:-0.309816 
-1.017128033298768 -0 -0 0 1:0.287411 2:-0.0900563 3:-0.429126 4:0.560694 5:-0.708709 6:-0.822384 7:-0.124464 8:-0.436266 9:-0.309816 
-0 -3.955704908814678 -0 0 1:0.320665 2:-0.0806754 3:-0.429126 4:0.565318 5:-0.726727 6:-0.822384 7:-0.124464 8:-0.389587 9:-0.291411 
-0 -6.362114798068156 -8 7.743899667116836 1:0.235154 2:-0.0956848 3:-0.487379 4:0.532948 5:-0.747748 6:-0.863747 7:-0.304721 8:-0.472172 9:-0.334356 
-0 -8 -0 0 1:0.216152 2:0.968105 3:0.223301 4:0.0635838 5:0.324324 6:-0.0656934 7:-0.347639 8:0.368043 9:0.650307 
-0 -8 -0 0 1:0.19715 2:0.953096 3:0.223301 4:0.0635838 5:0.315315 6:-0.0656934 7:-0.356223 8:0.364452 9:0.634969 
-0 -8 -0 0 1:0.2019 2:0.968105 3:0.203883 4:0.049711 5:0.309309 6:-0.0656934 7:-0.347639 8:0.364452 9:0.625767 
-0 -1.372268689941578 -0 0 1:0.2019 2:1 3:0.215534 4:0.049711 5:0.309309 6:-0.0656934 7:-0.339056 8:0.368043 9:0.625767 
-2.71629690209308 -0 -0 6.500227924650726 1:0.225653 2:0.116323 3:0.0951456 4:0.338728 5:0.336336 6:-0.416058 7:-0.545064 8:-0.29623 9:0.407975 
-0 -8 -0 0 1:0.254157 2:0.288931 3:0.0757282 4:0.338728 5:0.336336 6:-0.360097 7:-0.545064 8:-0.174147 9:0.453988 
-0 -8 -0 0 1:0.235154 2:0.288931 3:0.0446602 4:0.338728 5:0.309309 6:-0.360097 7:-0.579399 8:-0.174147 9:0.423313 
-0 -4.010010423115222 -0 0 1:0.211401 2:0.288931 3:0.0563107 4:0.331792 5:0.297297 6:-0.367397 7:-0.587983 8:-0.220826 9:0.429448 
-0 -8 -0 0 1:-0.106888 2:0.0206379 3:0.11068 4:-0.211561 5:-0.03003 6:-0.377129 7:-0.476395 8:-0.281867 9:0.392638 
-0 -0.05249603907766523 -0 0 1:-0.106888 2:0.0206379 3:0.11068 4:-0.213873 5:-0.03003 6:-0.377129 7:-0.476395 8:-0.281867 9:0.392638 
-0 -8 -0 0 1:-0.106888 2:0.0206379 3:0.11068 4:-0.213873 5:-0.03003 6:-0.377129 7:-0.493562 8:-0.281867 9:0.383436 
-0 -4.694122265046016 -0 0 1:-0.168646 2:0.189493 3:0.133981 4:-0.220809 5:0.0600601 6:-0.250608 7:-0.519313 8:-0.228007 9:0.503067 
-0 -8 -0 0 1:-0.168646 2:0.189493 3:0.137864 4:-0.218497 5:0.0660661 6:-0.243309 7:-0.519313 8:-0.228007 9:0.506135 
-0 -1.258173735920073 -0 0 1:0.087886 2:0.138837 3:0.417476 4:-0.833526 5:-0.393393 6:-0.304136 7:-0.450644 8:0.576302 9:0.220859 
-0 -0.02056636546382132 -0 0 1:0.12114 2:0.172608 3:0.464078 4:-0.828902 5:-0.339339 6:-0.270073 7:-0.321888 8:0.608618 9:0.276074 
-0 -0 -0 4.645693677913812 1:-0.320665 2:0.255159 3:0.359223 4:-0.840462 5:-0.267267 6:-0.459854 7:-0.261803 8:0.443447 9:0.0398773 
-0 -8 -5.713791328274395 0 1:-0.315914 2:0.257036 3:0.35534 4:-0.821965 5:-0.255255 6:-0.459854 7:-0.244635 8:0.450628 9:0.0490798 
-0 -2.57625800183222 -0 0 1:-0.311164 2:0.26454 3:0.35534 4:-0.821965 5:-0.255255 6:-0.459854 7:-0.244635 8:0.45781 9:0.0521472 
-2.597441747723274 -0 -0 0 1:-0.320665 2:0.266417 3:0.332039 4:-0.840462 5:-0.291291 6:-0.472019 7:-0.236052 8:0.4614 9:0.0184049 
-0 -0.4812252960096401 -0 0 1:-0.144893 2:0.619137 3:0.258252 4:-0.213873 5:0.0960961 6:1 7:0.0214592 8:0.238779 9:0.54908 
-0 -0 -2.130848051406666 1.385098626452856 1:-0.144893 2:0.615385 3:0.254369 4:-0.213873 5:0.102102 6:1 7:0.0815451 8:0.249551 9:0.53681 
-0 -0.5548686694509211 -0 0 1:-0.410926 2:0.530957 3:-0.266019 4:-0.539884 5:-0.258258 6:0.827251 7:-0.399142 8:0.0448833 9:0.0889571 
-0.03479953286932756 -0 -3.563941389361945 0 1:0.2019 2:0.142589 3:-0.739806 4:0.40578 5:-0.954955 6:-0.871046 7:-0.579399 8:-0.396768 9:-0.417178 
-0 -0.5558503444444559 -0 0 1:0.2019 2:0.142589 3:-0.735922 4:0.408092 5:-0.942943 6:-0.871046 7:-0.579399 8:-0.396768 9:-0.41411 
-0 -0 -0 8 1:-0.19715 2:0.0787992 3:0.27767 4:-0.253179 5:0.186186 6:-0.209246 7:-0.476395 8:-0.371634 9:0.595092 
-0 -0 -0 1.33198258698863 1:-0.2019 2:0.0787992 3:0.27767 4:-0.253179 5:0.186186 6:-0.209246 7:-0.502146 8:-0.371634 9:0.588957 
-3.937976182823884 -0 -6.098330184871412 8 1:-0.2019 2:0.0806754 3:0.27767 4:-0.253179 5:0.186186 6:-0.209246 7:-0.476395 8:-0.368043 9:0.595092 
-0 -0 -8 8 1:-0.19715 2:0.106942 3:0.27767 4:-0.253179 5:0.207207 6:-0.206813 7:-0.450644 8:-0.360862 9:0.601227 
-0 -0 -8 0 1:-0.19715 2:0.121951 3:0.27767 4:-0.248555 5:0.207207 6:-0.20438 7:-0.450644 8:-0.35009 9:0.610429 
-0 -2.036790813373349 -0 0 1:-0.249406 2:0.35272 3:0.790291 4:-1 5:0.327327 6:-0.150852 7:-0.296137 8:1 9:0.43865 
-0.2477403655053287 -0 -0 0 1:-0.0546318 2:0.709193 3:0.219417 4:-0.236994 5:0.012012 6:1 7:0.2103 8:0.382406 9:0.380368 
-0 -0 -0 0.3647395796822858 1:-0.125891 2:0.705441 3:0.234951 4:-0.294798 5:-0.018018 6:1 7:0.133047 8:0.332136 9:0.371166 
-0 -0 -0 1.301881208743322 1:-0.35867 2:0.581614 3:-0.180583 4:-0.634682 5:-0.294294 6:0.93674 7:-0.287554 8:0.0843806 9:0.0920245 
-0 -1.818937133069962 -0 0 1:0.301663 2:0.36773 3:-0.646602 4:0.280925 5:-0.993994 6:-0.717762 7:-0.450644 8:-0.206463 9:-0.303681 
-0 -2.406780972273506 -0 0 1:0.268409 2:0.534709 3:-0.0640777 4:0.0936416 5:-0.0570571 6:-0.364964 7:-0.570815 8:0.02693 9:0.276074 
-0 -8 -0 0 1:0.244656 2:0.508443 3:-0.0252427 4:0.0913295 5:-0.00900901 6:-0.352798 7:-0.587983 8:0.00897666 9:0.315951 
-0 -0 -2.884782876625337 0 1:0.496437 2:0.741088 3:0.227184 4:0.130636 5:0.396396 6:0.00729927 7:0.639485 8:0.220826 9:0.917178 
-0.5981575081330851 -0 -0 1.985738607923095 1:0.558195 2:0.776735 3:0.258252 4:0.128324 5:0.414414 6:0.0243309 7:0.716738 8:0.245961 9:0.957055 
-0 -0 -5.001788219162193 0 1:-0.159145 2:0.230769 3:0.231068 4:-0.442775 5:0.132132 6:-0.226277 7:-0.44206 8:-0.220826 9:0.582822 
-0 -0 -8 0 1:-0.154394 2:0.243902 3:0.231068 4:-0.442775 5:0.132132 6:-0.226277 7:-0.433476 8:-0.195691 9:0.582822 
-0 -8 -0 0 1:-0.0451306 2:0.369606 3:0.223301 4:-0.465896 5:0.021021 6:-0.206813 7:-0.339056 8:0.00179533 9:0.56135 
-0 -0 -3.397304431283992 0 1:-0.182898 2:0.452158 3:0.871845 4:-1 5:0.408408 6:-0.0948905 7:-0.0643777 8:1 9:0.460123 
-0 -0 -0 2.605414804202047 1:-0.173397 2:0.457786 3:0.899029 4:-1 5:0.411411 6:-0.0900243 7:-0.0386266 8:1 9:0.469325 
-0.2543745023277613 -0 -0 8 1:-0.163895 2:0.470919 3:0.906796 4:-1 5:0.411411 6:-0.080292 7:-0.0214592 8:1 9:0.466258 
-0.1092363769649684 -0 -0 0 1:-0.244656 2:0.587242 3:0.242718 4:-0.877457 5:-0.363363 6:-0.474453 7:-0.0472103 8:0.89228 9:-0.0736196 
-3.420751662228227 -0 -0 -0 1:-0.320665 2:0.258912 3:0.165049 4:-0.322543 5:0.381381 6:-0.36983 7:0.133047 8:0.166966 9:-0.447853 
-8 -0 -0 -0 1:-0.320665 2:0.257036 3:0.161165 4:-0.322543 5:0.378378 6:-0.377129 7:0.133047 8:0.166966 9:-0.45092 
-0 -1.738933509052103 -0 -0 1:-0.296912 2:0.277674 3:0.157282 4:-0.301734 5:0.375375 6:-0.377129 7:0.0987124 8:0.195691 9:-0.453988 
-0 -0 -0 -2.095199850849829 1:-0.296912 2:0.273921 3:0.157282 4:-0.308671 5:0.375375 6:-0.377129 7:0.0987124 8:0.195691 9:-0.453988 
-0 -0 -7.36436872788208 -0 1:-0.353919 2:0.262664 3:0.0834951 4:-0.324855 5:0.336336 6:-0.43309 7:-0.0128755 8:0.13465 9:-0.542945 
-0 -0 -8 -0 1:-0.36342 2:0.262664 3:0.0834951 4:-0.324855 5:0.336336 6:-0.43309 7:-0.0128755 8:0.13465 9:-0.542945 
-0 -0 -8 -0 1:-0.35867 2:0.262664 3:0.0834951 4:-0.324855 5:0.336336 6:-0.43309 7:-0.0128755 8:0.13465 9:-0.53681 
-0 -0 -0.9724643211138755 -0 1:-0.5962 2:-0.110694 3:-0.712621 4:-0.445087 5:0.225225 6:-0.851582 7:-0.51073 8:-0.228007 9:-0.911043 
-0 -1.597047578101595 -0 -0 1:-0.60095 2:-0.110694 3:-0.716505 4:-0.445087 5:0.225225 6:-0.851582 7:-0.51073 8:-0.228007 9:-0.911043 
-0 -0 -6.666040898183484 -0 1:-0.5962 2:-0.108818 3:-0.712621 4:-0.445087 5:0.228228 6:-0.849148 7:-0.493562 8:-0.235189 9:-0.895706 
-1.933223435137632 -0 -0 -0 1:-0.60095 2:-0.110694 3:-0.708738 4:-0.454335 5:0.228228 6:-0.851582 7:-0.493562 8:-0.238779 9:-0.898773 
-0 -0 -8 -3.217316768435428 1:-0.0783848 2:-0.223265 3:-0.417476 4:0.239306 5:-0.624625 6:-0.829684 7:-0.484979 8:-0.691203 9:-0.334356 
-0.0208790125273333 -0 -8 -0 1:-0.106888 2:-0.234522 3:-0.436893 4:0.239306 5:-0.624625 6:-0.836983 7:-0.484979 8:-0.698384 9:-0.352761 
-0 -0 -0 -0.9680204194119407 1:-0.04038 2:-0.27955 3:-0.464078 4:0.290173 5:-0.591592 6:-0.83455 7:-0.553648 8:-0.773788 9:-0.294479 
-0 -6.264021279460912 -0 -0 1:0.0308789 2:-0.307692 3:-0.258252 4:0.202312 5:-0.492492 6:-0.751825 7:-0.433476 8:-0.737882 9:-0.156442 
-0 -1.915906745708597 -0 -0 1:0.311164 2:-0.0787992 3:0.398058 4:0.546821 5:0.57958 6:-0.343066 7:-0.579399 8:-0.547576 9:0.432515 
-0 -5.173986457756282 -0 -0 1:0.292162 2:-0.0863039 3:0.370874 4:0.514451 5:0.567568 6:-0.350365 7:-0.60515 8:-0.576302 9:0.41411 
-0 -0 -8 -0 1:0.125891 2:0.011257 3:0.456311 4:0.119075 5:0.513514 6:-0.0389294 7:0.819742 8:-0.640934 9:0.861963 
-0 -0 -6.800886935871204 -0 1:0.154394 2:-0.0225141 3:0.464078 4:0.109827 5:0.51952 6:-0.0340633 7:0.802575 8:-0.694794 9:0.868098 
-0 -0 -8 -0 1:0.144893 2:-0.0225141 3:0.464078 4:0.109827 5:0.51952 6:-0.0340633 7:0.793991 8:-0.694794 9:0.868098 
-0 -0 -8 -0 1:0.154394 2:-0.0206379 3:0.467961 4:0.109827 5:0.51952 6:-0.0316302 7:0.793991 8:-0.691203 9:0.868098 
-1.506481568443441 -0 -0 -0 1:0.154394 2:-0.0318949 3:0.487379 4:0.116763 5:0.525526 6:-0.0170316 7:0.785408 8:-0.687612 9:0.871166 
-0 -0 -6.652548553739862 -0 1:-0.472684 2:0.405253 3:0.545631 4:-0.704046 5:0.948949 6:-0.0729927 7:-0.364807 8:0.67684 9:0.889571 
-1.764809145839498 -0.6048204073565799 -0 -0 1:-0.467933 2:0.424015 3:0.561165 4:-0.558382 5:0.936937 6:-0.0778589 7:-0.373391 8:0.705566 9:0.874233 
-0 -3.611537450147842 -0 -0 1:-0.273159 2:0.371482 3:0.654369 4:-1 5:0.114114 6:0.184915 7:0.150215 8:0.788151 9:0.794479 
-0 -0 -6.025290253959672 -0 1:-0.263658 2:0.365854 3:0.658252 4:-1 5:0.129129 6:0.187348 7:0.150215 8:0.770197 9:0.791411 
-0 -5.836672341981626 -0 -0 1:-0.420428 2:0.285178 3:0.467961 4:-0.565318 5:-0.00600601 6:-0.231144 7:-0.622318 8:-0.253142 9:0.355828 
-0 -5.746906394783719 -0 -0 1:-0.420428 2:0.285178 3:0.487379 4:-0.565318 5:-0.00600601 6:-0.218978 7:-0.622318 8:-0.238779 9:0.361963 
-0 -0 -0 -0.8314817808710234 1:-0.420428 2:0.196998 3:0.518447 4:-0.572254 5:-0.024024 6:-0.211679 7:-0.622318 8:-0.253142 9:0.377301 
-0 -0 -0 -8 1:-0.434679 2:0.227017 3:0.43301 4:-0.558382 5:0.021021 6:-0.214112 7:-0.579399 8:-0.357271 9:0.447853 
-0 -0 -0 -1.460947693148205 1:-0.429929 2:0.245779 3:0.44466 4:-0.558382 5:0.033033 6:-0.206813 7:-0.579399 8:-0.357271 9:0.45092 
-0 -0 -8 -0 1:-0.434679 2:0.245779 3:0.448544 4:-0.602312 5:0.0720721 6:-0.199513 7:-0.51073 8:-0.393178 9:0.478528 
-0 -0 -3.649225126651791 -0 1:-0.434679 2:0.249531 3:0.448544 4:-0.595376 5:0.0870871 6:-0.180049 7:-0.493562 8:-0.393178 9:0.478528 
-0 -0 -8 -0 1:-0.453682 2:0.255159 3:0.448544 4:-0.604624 5:0.0870871 6:-0.189781 7:-0.51073 8:-0.411131 9:0.478528 
-0 -0 -8 -0 1:-0.714964 2:0.131332 3:0.623301 4:-0.722543 5:-0.108108 6:-0.184915 7:-0.484979 8:-0.612208 9:0.398773 
-0 -0 -1.946303641225805 -0 1:-0.714964 2:0.136961 3:0.623301 4:-0.717919 5:-0.108108 6:-0.184915 7:-0.484979 8:-0.612208 9:0.398773 
-0 -0 -8 -0 1:-0.724466 2:0.12758 3:0.615534 4:-0.717919 5:-0.117117 6:-0.184915 7:-0.493562 8:-0.630162 9:0.395706 
-1.337624849815622 -0 -8 -0 1:-0.729216 2:0.121951 3:0.615534 4:-0.717919 5:-0.117117 6:-0.187348 7:-0.493562 8:-0.633752 9:0.392638 
-8 -0 -8 -0 1:-0.729216 2:0.118199 3:0.61165 4:-0.720231 5:-0.117117 6:-0.187348 7:-0.493562 8:-0.633752 9:0.389571 
-0 -0 -8 -0 1:-0.724466 2:0.121951 3:0.61165 4:-0.720231 5:-0.117117 6:-0.187348 7:-0.493562 8:-0.630162 9:0.392638 
-0 -0 -8 -0 1:-0.719715 2:0.123827 3:0.61165 4:-0.717919 5:-0.117117 6:-0.187348 7:-0.476395 8:-0.626571 9:0.392638 
-8 -0 -0 -0 1:-0.387173 2:0.260788 3:0.0563107 4:-0.428902 5:0.24024 6:-0.40146 7:-0.133047 8:0.145422 9:-0.610429 
-8 -0 -0 -0 1:-0.387173 2:0.260788 3:0.0524272 4:-0.435838 5:0.234234 6:-0.403893 7:-0.150215 8:0.152603 9:-0.610429 
-3.950885524746365 -0 -0 -0 1:-0.387173 2:0.262664 3:0.0524272 4:-0.433526 5:0.234234 6:-0.403893 7:-0.150215 8:0.152603 9:-0.610429 
-0 -8 -0 -0 1:0.0736342 2:-0.266417 3:-0.118447 4:0.100578 5:-0.495495 6:-0.664234 7:-0.287554 8:-0.597846 9:-0.095092 
-0 -2.877357489431014 -0 -5.609813161546516 1:0.0736342 2:-0.260788 3:-0.130097 4:0.0982659 5:-0.498498 6:-0.6691 7:-0.287554 8:-0.594255 9:-0.0981595 
-3.578129260936492 -0 -0 -0 1:0.216152 2:-0.123827 3:0.502913 4:0.433526 5:0.588589 6:-0.262774 7:-0.476395 8:-0.597846 9:0.530675 
-8 -0 -0 -0 1:0.216152 2:-0.121951 3:0.502913 4:0.433526 5:0.588589 6:-0.262774 7:-0.476395 8:-0.594255 9:0.530675 
-0 -0 -0.3168329016327268 -0 1:0.206651 2:-0.118199 3:0.448544 4:0.415029 5:0.558559 6:-0.270073 7:-0.484979 8:-0.590664 9:0.51227 
-0 -0 -8 -0 1:0.192399 2:-0.118199 3:0.448544 4:0.410405 5:0.555556 6:-0.272506 7:-0.484979 8:-0.590664 9:0.503067 
-0 -0 -0 -0.8357003891314386 1:0.239905 2:0.0300188 3:0.43301 4:0.049711 5:0.516517 6:-0.00973236 7:0.879828 8:-0.62298 9:0.917178 
-0 -0.918152062735729 -0 -0 1:0.235154 2:0.0300188 3:0.43301 4:0.0635838 5:0.525526 6:-0.00486618 7:0.896996 8:-0.61939 9:0.911043 
-0 -0 -0 -0.7864836405292067 1:-0.273159 2:0.39212 3:0.68932 4:-1 5:0.168168 6:0.175182 7:0.193133 8:0.895871 9:0.745399 
-0 -0 -0 -8 1:-0.273159 2:0.390244 3:0.681553 4:-1 5:0.165165 6:0.170316 7:0.193133 8:0.895871 9:0.745399 
-0.176209190992418 -0 -0 -0 1:-0.330166 2:0.403377 3:0.67767 4:-1 5:0.18018 6:0.189781 7:0.193133 8:0.917415 9:0.757669 
-0 -0 -0 -8 1:-0.344418 2:0.347092 3:0.429126 4:-0.593064 5:0.0750751 6:-0.170316 7:-0.347639 8:-0.335727 9:0.496933 
-0 -0 -0 -0.3183738245510726 1:-0.349169 2:0.335835 3:0.425243 4:-0.597688 5:0.0750751 6:-0.175182 7:-0.339056 8:-0.339318 9:0.496933 
-0 -0 -0.8720681935563008 -0 1:-0.35867 2:0.345216 3:0.425243 4:-0.597688 5:0.0690691 6:-0.172749 7:-0.313305 8:-0.346499 9:0.5 
-0 -0 -8 -0 1:-0.349169 2:0.347092 3:0.425243 4:-0.593064 5:0.0690691 6:-0.16545 7:-0.296137 8:-0.342908 9:0.509202 
-0 -0 -8 -0 1:-0.349169 2:0.348968 3:0.425243 4:-0.593064 5:0.0720721 6:-0.163017 7:-0.296137 8:-0.342908 9:0.509202 
-1.947826005757688 -0 -1.678343256243318 -0 1:-0.700713 2:0.133208 3:0.495146 4:-0.708671 5:-0.159159 6:-0.231144 7:-0.459227 8:-0.662478 9:0.349693 
-0 -0 -0 -0.882198278696437 1:-0.306413 2:0.277674 3:0.0640777 4:-0.47052 5:0.219219 6:-0.364964 7:-0.0128755 8:0.206463 9:-0.634969 
-2.081043407114263 -0 -0 -0 1:-0.306413 2:0.27955 3:0.0796117 4:-0.482081 5:0.231231 6:-0.347932 7:0.11588 8:0.238779 9:-0.628834 
-0 -0 -8 -0 1:-0.444181 2:-0.0337711 3:-0.673786 4:-0.558382 5:0.189189 6:-0.854015 7:-0.321888 8:-0.199282 9:-0.947853 
-0 -0 -8 -0 1:-0.444181 2:-0.0262664 3:-0.67767 4:-0.56763 5:0.177177 6:-0.844282 7:-0.296137 8:-0.18851 9:-0.957055 
-0 -0 -7.220497495421084 -0 1:-0.463183 2:-0.0281426 3:-0.681553 4:-0.569942 5:0.165165 6:-0.854015 7:-0.313305 8:-0.192101 9:-0.966258 
-0 -0 -2.424314709763193 -0 1:-0.463183 2:-0.00750469 3:-0.685437 4:-0.579191 5:0.147147 6:-0.822384 7:-0.287554 8:-0.170557 9:-0.953988 
-0 -0 -0.5370861934501131 -0 1:0.111639 2:-0.296435 3:-0.12233 4:0.0728324 5:-0.477477 6:-0.664234 7:-0.2103 8:-0.615799 9:-0.104294 
-0 -0 -8 -0 1:0.135392 2:-0.300188 3:-0.11068 4:0.0635838 5:-0.474474 6:-0.664234 7:-0.201717 8:-0.608618 9:-0.101227 
-0 -0 -0 -5.208255484891331 1:0.159145 2:0.0469043 3:0.425243 4:0.320231 5:0.471471 6:-0.240876 7:-0.450644 8:-0.493716 9:0.52454 
-0 -0 -0 -8 1:0.149644 2:0.0469043 3:0.425243 4:0.320231 5:0.471471 6:-0.240876 7:-0.450644 8:-0.493716 9:0.52454 
-0 -0 -0 -1.389009085892499 1:0.163895 2:0.0562852 3:0.460194 4:0.32948 5:0.48048 6:-0.206813 7:-0.399142 8:-0.439856 9:0.56135 
-0 -3.354136757813611 -0 -0 1:0.163895 2:0.0600375 3:0.464078 4:0.334104 5:0.483483 6:-0.19708 7:-0.390558 8:-0.432675 9:0.570552 
-0 -1.620873768388022 -0 -0 1:-0.491686 2:0.60788 3:0.52233 4:-0.606936 5:0.840841 6:-0.138686 7:-0.347639 8:0.938959 9:0.791411 
-0 -0 -0 -4.261876305718681 1:-0.344418 2:0.525328 3:0.553398 4:-0.662428 5:0.888889 6:-0.107056 7:-0.253219 8:0.849192 9:0.815951 
