svm_type c_svc
kernel_type rbf
gamma 0.5
nr_class 6
total_sv 196
rho 0.0549458 0.485253 0.0476814 0.391326 0.157289 0.00498608 -0.0208261 -2.09423 -0.274376 0.532677 0.0175694 0.154484 0.0121657 0.365529 0.0815257
label 0 3 5 6 8 9
nr_sv 22 51 21 25 48 29
SV
2.062274524674601 0 0 5.613538116383024 0.8356909967315069 1:0.592233 2:0.0753968 3:-0.295405 4:0.480826 5:-0.0808081 6:-0.130435 7:0.240816 8:-0.503916 9:0.0264151 
0 1.285840843761796 0.7792719761771346 0 8 1:0.605178 2:0.0714286 3:-0.286652 4:0.463127 5:-0.0808081 6:-0.137681 7:0.257143 8:-0.503916 9:0.0339623 
8 0 0 0 0 1:0.579288 2:0.0555556 3:-0.299781 4:0.460177 5:-0.0858586 6:-0.166667 7:0.24898 8:-0.503916 9:0.0339623 
0 0 0 0 2.092793501730701 1:0.572816 2:0.015873 3:-0.31291 4:0.439528 5:-0.0555556 6:-0.130435 7:0.257143 8:-0.509138 9:0.0566038 
0 0.04411911081294786 0 0 0 1:-0.300971 2:0.015873 3:-0.142232 4:0.0737463 5:-0.222222 6:-0.00724638 7:0.346939 8:-0.608355 9:0.283019 
0 2.027014394616007 0 0 0 1:0.0744337 2:-0.456349 3:-0.382932 4:-0.0442478 5:-0.262626 6:-0.173913 7:0.404082 8:-0.493473 9:0.486792 
0 1.066743857959159 0 0 0 1:0.106796 2:-0.444444 3:-0.382932 4:-0.0117994 5:-0.242424 6:-0.152174 7:0.404082 8:-0.483029 9:0.486792 
0 0 0 0 5.076057285059886 1:0.203883 2:-0.202381 3:-0.273523 4:0.221239 5:-0.277778 6:0.0144928 7:0.232653 8:-0.326371 9:0.65283 
0 0 0.2449120724652227 4.129240226505036 0 1:0.203883 2:-0.198413 3:-0.269147 4:0.221239 5:-0.277778 6:0.0144928 7:0.24898 8:-0.326371 9:0.660377 
0 0 0.7715896486725826 0 0 1:-0.229773 2:-0.0912698 3:-0.172867 4:0.0619469 5:-0.156566 6:-0.0507246 7:0.338776 8:-0.556136 9:0.320755 
0 1.460694380932771 0 0 0 1:-0.203883 2:-0.543651 3:-0.557987 4:-0.20944 5:-0.409091 6:-0.391304 7:0.257143 8:-0.488251 9:0.366038 
4.556059117538338 0 0 0 0 1:0.139159 2:-0.230159 3:-0.391685 4:0.212389 5:-0.348485 6:-0.0434783 7:0.191837 8:-0.326371 9:0.584906 
0 0 1.68479371583491 0 0 1:-0.326861 2:-0.238095 3:-0.26477 4:-0.0825959 5:-0.247475 6:-0.202899 7:0.17551 8:-0.550914 9:0.2 
0 3.085276697875221 0 0 0 1:0.0550162 2:-0.365079 3:-0.413567 4:0.0648968 5:-0.429293 6:-0.108696 7:0.2 8:-0.331593 9:0.524528 
0 0 0 0 8 1:-0.113269 2:-0.238095 3:-0.317287 4:-0.0294985 5:-0.277778 6:-0.224638 7:0.0857143 8:-0.592689 9:0.132075 
0 0 0 0 0.5796054486898198 1:-0.113269 2:-0.238095 3:-0.317287 4:-0.0117994 5:-0.267677 6:-0.224638 7:0.0857143 8:-0.577023 9:0.132075 
0.6706898633785272 0 1.199531222221181 1.069654179002327 0.8102668804053086 1:-0.773463 2:-0.992063 3:-0.934354 4:-0.581121 5:-0.787879 6:-1 7:-0.118367 8:-0.665796 9:-0.0490566 
0 1.433858679587423 0 0 0 1:-0.7411 2:-0.968254 3:-0.868709 4:-0.572271 5:-0.757576 6:-0.92029 7:-0.0367347 8:-0.629243 9:-0.0188679 
0 3.980461627003636 0 0 0 1:-0.339806 2:-0.634921 3:-0.66302 4:-0.20944 5:-0.681818 6:-0.507246 7:-0.0693878 8:-0.389034 9:0.25283 
0 0 0 0 0.7859727478151755 1:-0.00323625 2:-0.539683 3:-0.522976 4:0.103245 5:-0.555556 6:-0.384058 7:0.0367347 8:-0.968668 9:0.358491 
4.971847146723975 0 0 0 0 1:0.0485437 2:-0.511905 3:-0.562363 4:0.150442 5:-0.520202 6:-0.376812 7:0.0367347 8:-0.958225 9:0.335849 
0 0 0 4.046430236491066 0 1:0.0485437 2:-0.511905 3:-0.562363 4:0.141593 5:-0.530303 6:-0.376812 7:0.0367347 8:-0.968668 9:0.335849 
-0 0 0 8 0 1:0.669903 2:0.0952381 3:-0.47046 4:0.778761 5:-0.166667 6:0.152174 7:0.420408 8:-0.655352 9:0.539623 
-0 0 0 8 0 1:0.644013 2:0.0952381 3:-0.479212 4:0.778761 5:-0.19697 6:0.130435 7:0.387755 8:-0.655352 9:0.49434 
-0 0 0 8 0 1:0.644013 2:0.0912698 3:-0.479212 4:0.764012 5:-0.217172 6:0.130435 7:0.363265 8:-0.655352 9:0.479245 
-0 0 0 8 0 1:0.624595 2:0.0714286 3:-0.487965 4:0.710914 5:-0.242424 6:0.0144928 7:0.363265 8:-0.655352 9:0.441509 
-0 0 0 8 0 1:0.618123 2:0.0634921 3:-0.487965 4:0.705015 5:-0.247475 6:0.0144928 7:0.363265 8:-0.665796 9:0.433962 
-0 0 0 8 0 1:0.618123 2:0.0634921 3:-0.487965 4:0.707965 5:-0.242424 6:0.0144928 7:0.363265 8:-0.655352 9:0.433962 
-0 0 0 8 0 1:0.618123 2:0.0634921 3:-0.487965 4:0.707965 5:-0.242424 6:0.0144928 7:0.363265 8:-0.650131 9:0.433962 
-0 0 0 8 0 1:0.618123 2:0.0634921 3:-0.487965 4:0.707965 5:-0.242424 6:0.0217391 7:0.379592 8:-0.644909 9:0.441509 
-0 0 0 8 0 1:0.618123 2:0.0634921 3:-0.479212 4:0.710914 5:-0.242424 6:0.0289855 7:0.379592 8:-0.644909 9:0.441509 
-0 0 0 0.6417979833054458 3.164650273454969 1:0.585761 2:0.0515873 3:-0.479212 4:0.707965 5:-0.222222 6:0.0289855 7:0.379592 8:-0.639687 9:0.441509 
-0 0 0 8 0 1:0.598706 2:0.0238095 3:-0.487965 4:0.710914 5:-0.212121 6:0.0144928 7:0.404082 8:-0.613577 9:0.471698 
-0 0.6266185519993529 0 0 0 1:0.572816 2:0.00793651 3:-0.557987 4:0.690265 5:-0.237374 6:0.0144928 7:0.346939 8:-0.613577 9:0.441509 
-0.07787160255424071 0.6789208867461578 0.6270493445350307 0 2.849163586174486 1:0.980583 2:0.103175 3:-0.199125 4:0.884956 5:0.136364 6:0.333333 7:0.893878 8:-0.24282 9:0.969811 
-0 0 0 2.95049302876322 0 1:0.961165 2:0.0833333 3:-0.221007 4:0.858407 5:0.0858586 6:0.23913 7:0.893878 8:-0.263708 9:0.916981 
-0 0 0 8 0 1:0.961165 2:0.0753968 3:-0.221007 4:0.858407 5:0.0858586 6:0.23913 7:0.893878 8:-0.26893 9:0.916981 
-0 0 0 8 0 1:0.961165 2:0.0753968 3:-0.221007 4:0.858407 5:0.0909091 6:0.253623 7:0.893878 8:-0.263708 9:0.916981 
-0 0 0.4058158720277926 8 0 1:0.488673 2:0.0396825 3:-0.02407 4:0.784661 5:-0.353535 6:0.318841 7:-0.126531 8:-0.336815 9:1 
-0 0 0 0.953657690450945 0 1:0.482201 2:0.031746 3:-0.0415755 4:0.772861 5:-0.393939 6:0.282609 7:-0.134694 8:-0.326371 9:0.954717 
-0 0 0 0 1.059294491941906 1:0.469256 2:0.00793651 3:-0.0415755 4:0.755162 5:-0.40404 6:0.289855 7:-0.134694 8:-0.305483 9:0.924528 
-0 0 0 8 0 1:0.469256 2:0.015873 3:-0.0415755 4:0.758112 5:-0.40404 6:0.289855 7:-0.126531 8:-0.305483 9:0.924528 
-0 0 0 8 0 1:0.488673 2:0.0277778 3:-0.0284464 4:0.764012 5:-0.39899 6:0.311594 7:-0.126531 8:-0.295039 9:0.954717 
-0 0.04455431469120529 0 8 0 1:0.488673 2:0.0277778 3:-0.0284464 4:0.764012 5:-0.39899 6:0.311594 7:-0.126531 8:-0.295039 9:0.954717 
-0 0 0 0 1.692865681453786 1:0.449838 2:-0.0436508 3:-0.0415755 4:0.740413 5:-0.393939 6:0.253623 7:-0.102041 8:-0.295039 9:0.924528 
-0 0 0 0 0.05958357246848908 1:0.449838 2:-0.047619 3:-0.0459519 4:0.731563 5:-0.40404 6:0.23913 7:-0.126531 8:-0.300261 9:0.909434 
-0 0 0 0.7972525289670961 0 1:0.436893 2:-0.047619 3:-0.0853392 4:0.705015 5:-0.409091 6:0.166667 7:-0.15102 8:-0.305483 9:0.871698 
-1.414993119475794 0 0 0 0 1:0.417476 2:-0.0793651 3:-0.0853392 4:0.705015 5:-0.409091 6:0.166667 7:-0.15102 8:-0.310705 9:0.871698 
-0 0 0 8 0 1:0.624595 2:-0.329365 3:-0.396061 4:0.80531 5:-0.530303 6:-0.311594 7:0.24898 8:-0.937337 9:0.70566 
-0 0 0 0.1801099743541443 0 1:0.624595 2:-0.329365 3:-0.396061 4:0.831858 5:-0.520202 6:-0.304348 7:0.257143 8:-0.900783 9:0.667925 
-0 0 0 8 0 1:0.631068 2:-0.329365 3:-0.391685 4:0.823009 5:-0.510101 6:-0.268116 7:0.346939 8:-0.937337 9:0.728302 
-0 0 0 8 0 1:0.631068 2:-0.329365 3:-0.378556 4:0.837758 5:-0.505051 6:-0.253623 7:0.355102 8:-0.937337 9:0.743396 
-7.916318689296581 0 0 0 0 1:0.572816 2:0.0119048 3:-0.531729 4:0.660767 5:-0.257576 6:-0.0724638 7:0.306122 8:-0.608355 9:0.358491 
-0 0 0 2.633415463175048 0 1:0.618123 2:-0.337302 3:-0.234136 4:0.817109 5:-0.515152 6:-0.268116 7:0.420408 8:-0.832898 9:0.811321 
-2.67052612926014 0 0 0 0 1:0.398058 2:-0.138889 3:-0.61488 4:0.516224 5:-0.393939 6:-0.463768 7:0.110204 8:-0.697128 9:0.0566038 
-0 0 0 6.536460161292967 0 1:0.721683 2:-0.178571 3:-0.282276 4:0.693215 5:-0.156566 6:-0.210145 7:0.771429 8:-0.279373 9:0.683019 
-0 0 0 1.691741675956666 0 1:0.385113 2:-0.246032 3:-0.234136 4:0.584071 5:-0.444444 6:-0.318841 7:-0.191837 8:-0.112272 9:0.554717 
-0 0 0 8 0 1:0.404531 2:-0.242063 3:-0.199125 4:0.589971 5:-0.429293 6:-0.311594 7:-0.191837 8:-0.0809399 9:0.569811 
-3.597910997359451 0 0 0 0 1:0.152104 2:-0.261905 3:-0.658643 4:0.430678 5:-0.5 6:-0.666667 7:0.0693878 8:-0.770235 9:-0.00377358 
-0.6300399291368752 2.431010681746328 0 0 0 1:0.0291262 2:-0.376984 3:-0.781182 4:0.312684 5:-0.60101 6:-0.884058 7:-0.102041 8:-0.817232 9:-0.169811 
-0 0 0 0 2.123814424816342 1:0.0485437 2:-0.376984 3:-0.772429 4:0.312684 5:-0.60101 6:-0.884058 7:-0.102041 8:-0.817232 9:-0.162264 
-0 0 0.9417913347270911 0.957801813704014 1.158313032305976 1:0.0550162 2:-0.361111 3:-0.803063 4:0.312684 5:-0.585859 6:-0.905797 7:-0.167347 8:-0.765013 9:-0.230189 
-0 0 0 0 0.7825709712516412 1:0.546926 2:-0.309524 3:-0.172867 4:0.569322 5:-0.247475 6:-0.326087 7:0.779592 8:-0.300261 9:0.667925 
-1.224902747620439 0 0 0 0 1:0.527508 2:-0.345238 3:-0.181619 4:0.548673 5:-0.267677 6:-0.333333 7:0.779592 8:-0.315927 9:0.690566 
-0.2046324448623039 0 0 0 0 1:0.521036 2:-0.345238 3:-0.181619 4:0.548673 5:-0.272727 6:-0.333333 7:0.779592 8:-0.321149 9:0.690566 
-0 1.742402200375378 0 0 0 1:0.527508 2:-0.396825 3:-0.190372 4:0.539823 5:-0.272727 6:-0.326087 7:0.844898 8:-0.321149 9:0.781132 
-0 0 0.3924716821950288 0 0 1:0.566343 2:-0.373016 3:-0.172867 4:0.536873 5:-0.242424 6:-0.289855 7:0.869388 8:-0.321149 9:0.803774 
-0 0 0.03225787467372307 0 1.395167350196008 1:0.294498 2:-0.34127 3:-0.229759 4:0.501475 5:-0.505051 6:-0.550725 7:-0.265306 8:-0.0496084 9:0.433962 
-1.688837132178644 0 0 0 0 1:0.307443 2:-0.404762 3:-0.203501 4:0.457227 5:-0.489899 6:-0.507246 7:-0.0612245 8:-0.0548303 9:0.584906 
-0 1.231139332689061 0 0 0 1:0.300971 2:-0.416667 3:-0.212254 4:0.460177 5:-0.5 6:-0.5 7:-0.0693878 8:-0.0391645 9:0.577358 
-0.8348378605709711 0 0 0 0 1:0.300971 2:-0.416667 3:-0.212254 4:0.460177 5:-0.5 6:-0.521739 7:-0.0938776 8:-0.0443864 9:0.532075 
-0 0 0.9683706930317223 0 0 1:0.352751 2:-0.357143 3:-0.190372 4:0.519174 5:-0.459596 6:-0.478261 7:-0.0367347 8:0.0182768 9:0.516981 
-0 0.1187154744158946 0 0 0 1:0.372168 2:-0.464286 3:-0.172867 4:0.651917 5:-0.792929 6:-0.268116 7:0.281633 8:-0.994778 9:0.758491 
-0 -0 0 0 0.7939198561467545 1:-0.566343 2:-0.424603 3:-0.365427 4:-0.870206 5:-0.222222 6:-0.434783 7:-0.412245 8:0.138381 9:-0.501887 
-0 -0 7.37190966336627 0 0 1:-0.598706 2:-0.456349 3:-0.387309 4:-0.896755 5:-0.222222 6:-0.514493 7:-0.453061 8:0.138381 9:-0.532075 
-0 -0 8 0 0 1:-0.624595 2:-0.464286 3:-0.391685 4:-0.914454 5:-0.237374 6:-0.521739 7:-0.461224 8:0.127937 9:-0.54717 
-3.041918930366967 -0 0 0 0 1:0.0291262 2:-0.301587 3:-0.199125 4:-0.0737463 5:-0.020202 6:0.115942 7:0.608163 8:0.0809399 9:0.207547 
-0 -0 6.447580979153493 0 0 1:-0.307443 2:-0.230159 3:-0.02407 4:-0.265487 5:-0.212121 6:0.224638 7:0.208163 8:0.535248 9:0.116981 
-5.710462849033369 -0 0 0 0 1:-0.0614887 2:-0.47619 3:-0.671772 4:-0.244838 5:-0.727273 6:-0.152174 7:0.412245 8:-0.342037 9:0.25283 
-0.05606789798715453 -0 0 0 0.848066284113967 1:-0.631068 2:-0.484127 3:-0.431072 4:-0.955752 5:-0.287879 6:-0.565217 7:-0.485714 8:0.10705 9:-0.539623 
-0 -0.935808913207764 0 0.8805990541997102 0 1:-0.631068 2:-0.492063 3:-0.444201 4:-0.973451 5:-0.308081 6:-0.586957 7:-0.485714 8:0.10705 9:-0.54717 
-1.077339307782555 -0 0 0 0 1:-0.631068 2:-0.492063 3:-0.444201 4:-0.982301 5:-0.308081 6:-0.586957 7:-0.461224 8:0.101828 9:-0.532075 
-0 -0 0 0.1753134356109836 0 1:-0.223301 2:-0.277778 3:-0.0678337 4:-0.274336 5:-0.308081 6:0.210145 7:-0.0122449 8:0.477807 9:0.101887 
-0 -0 0.8321279223359035 0 0 1:-0.223301 2:-0.277778 3:-0.0765864 4:-0.274336 5:-0.308081 6:0.188406 7:-0.0204082 8:0.472585 9:0.0943396 
-0 -0.2049914232109959 0 0.3505261229912184 0.8175393775048463 1:-0.210356 2:-0.277778 3:-0.0765864 4:-0.268437 5:-0.308081 6:0.195652 7:-0.0204082 8:0.477807 9:0.0943396 
-0.5866473409034628 -0 0 0 0 1:-0.436893 2:-0.531746 3:-0.536105 4:-0.920354 5:-0.388889 6:-0.514493 7:-0.22449 8:0.0652742 9:-0.426415 
-0 -0 0 0 0.04375157076483006 1:-0.423948 2:-0.488095 3:-0.597374 4:-0.952802 5:-0.505051 6:-0.543478 7:-0.24898 8:0.0130548 9:-0.501887 
-0.3389410700188028 -2.621299238702711 1.015056188309934 1.51207498787775 2.697243041956515 1:0.346278 2:-0.365079 3:-0.269147 4:0.138643 5:-0.116162 6:0.246377 7:0.853061 8:-0.0339426 9:0.320755 
-0 -0 0 3.314762381699804 0 1:0.197411 2:-0.615079 3:-0.969365 4:0.020649 5:-0.934343 6:-0.434783 7:0.22449 8:-0.498695 9:0.290566 
-0 -3.111261867541907 0 0 0.9199855421439158 1:0.197411 2:-0.626984 3:-0.969365 4:0.0147493 5:-0.934343 6:-0.456522 7:0.22449 8:-0.51436 9:0.267925 
-3.235068071493329 -0 0 0 0 1:0.119741 2:-0.650794 3:-0.964989 4:-0.00589971 5:-0.939394 6:-0.463768 7:0.240816 8:-0.530026 9:0.267925 
-0.3375641249633202 -0 0 0 0 1:0.0809061 2:-0.654762 3:-0.986871 4:-0.0176991 5:-0.974747 6:-0.485507 7:0.22449 8:-0.535248 9:0.275472 
-0 -0 0.5225737901323141 0 0 1:0.0809061 2:-0.646825 3:-0.995624 4:-0.0235988 5:-0.994949 6:-0.514493 7:0.216327 8:-0.54047 9:0.283019 
-0 -0 0 0 0.4634125563982802 1:0.0679612 2:-0.646825 3:-1 4:-0.0235988 5:-1 6:-0.514493 7:0.216327 8:-0.545692 9:0.267925 
-0.0280118593084519 -0.2413746162622586 -0 0.0798252371190547 0 1:-1 2:-0.210317 3:-0.194748 4:-0.9941 5:-0.20202 6:-0.514493 7:-1 8:0.169713 9:-0.977358 
-0 -0.08754805440566148 -0 0.3132175187506387 0.5096890455784991 1:-0.961165 2:-0.174603 3:-0.194748 4:-0.9941 5:-0.171717 6:-0.514493 7:-1 8:0.169713 9:-0.969811 
-0.3264617324600054 -0 -0.412210808983599 0 0 1:0.0355987 2:0.103175 3:0.374179 4:0.112094 5:0.383838 6:0.318841 7:0.281633 8:0.347258 9:0.0716981 
-0 -0.2583105709829466 -0 0.9263944905310594 0 1:0.0355987 2:0.107143 3:0.391685 4:0.123894 5:0.383838 6:0.318841 7:0.281633 8:0.357702 9:0.0716981 
-0 -0 -0 0 3.394732279864526 1:0.0355987 2:0.107143 3:0.396061 4:0.123894 5:0.383838 6:0.318841 7:0.281633 8:0.357702 9:0.0716981 
-0 -0 -1.722719482531025 0 0 1:-0.262136 2:-0.00793651 3:0.295405 4:-0.247788 5:0.0151515 6:0.15942 7:-0.0693878 8:0.707572 9:0.0792453 
-0 -0.09538161377416034 -0 0 0 1:-0.488673 2:0.00396825 3:0.562363 4:0.0648968 5:0.409091 6:0.137681 7:-0.363265 8:0.0234987 9:-0.0716981 
-0 -0 -0.2706322353864433 0 0 1:-0.695793 2:-0.277778 3:-0.247265 4:-0.917404 5:-0.20202 6:-0.57971 7:-0.673469 8:0.0704961 9:-0.781132 
-0 -0 -8 0 0.1124219629451782 1:-0.669903 2:-0.253968 3:-0.247265 4:-0.876106 5:-0.19697 6:-0.528986 7:-0.681633 8:0.0809399 9:-0.758491 
-0 -0 -0 0 2.076101654039545 1:-0.482201 2:-0.202381 3:0.47046 4:-0.0147493 5:0.166667 6:-0.195652 7:-0.371429 8:-0.10705 9:-0.132075 
-0 -0 -2.770286313445694 0 0 1:-0.831715 2:-0.337302 3:-0.352298 4:-0.935103 5:-0.29798 6:-0.681159 7:-0.738776 8:-0.0548303 9:-0.735849 
-0.01198604095093265 -0 -0 0 0 1:-0.831715 2:-0.321429 3:-0.356674 4:-0.929204 5:-0.308081 6:-0.644928 7:-0.763265 8:-0.0548303 9:-0.735849 
-0 -0 -0 0.4565408124380756 0 1:-0.546926 2:-0.293651 3:0.417943 4:-0.00589971 5:0.106061 6:-0.181159 7:-0.289796 8:-0.138381 9:-0.0490566 
-0 -0 -0 0.01071389559974841 0.3725399751805882 1:-0.63754 2:-0.47619 3:-0.474836 4:-0.781711 5:-0.363636 6:-0.927536 7:-0.763265 8:-0.10705 9:-0.977358 
-0 -0.8328860160842386 -0 0 0 1:-0.708738 2:-0.511905 3:-0.5186 4:-0.837758 5:-0.393939 6:-0.942029 7:-0.706122 8:-0.138381 9:-0.992453 
-0.6618477217779151 -0 -0 0.7625122886656892 0 1:-0.721683 2:-0.511905 3:-0.5186 4:-0.840708 5:-0.393939 6:-0.942029 7:-0.706122 8:-0.148825 9:-1 
-0.5996273510382754 -0 -0 0 0 1:-0.682848 2:-0.507937 3:-0.492341 4:-0.846608 5:-0.393939 6:-0.891304 7:-0.665306 8:-0.154047 9:-0.992453 
-0 -0 -1.784731230178389 0 1.065078387667384 1:-0.676375 2:-0.511905 3:-0.487965 4:-0.840708 5:-0.383838 6:-0.884058 7:-0.665306 8:-0.154047 9:-0.992453 
-0 -0 -0 0.6108726260049693 0 1:-0.00970874 2:-0.333333 3:0.295405 4:0.0501475 5:0.222222 6:-0.0434783 7:0.395918 8:0.221932 9:0.245283 
-1.107754641211258 -1.316415725470123 -2.156554756239596 0 0 1:-0.0226537 2:-0.34127 3:0.269147 4:0.0324484 5:0.19697 6:-0.0507246 7:0.379592 8:0.195822 9:0.222642 
-0 -0 -7.072113716533166 0 0 1:-0.449838 2:-0.373016 3:0.150985 4:-0.415929 5:-0.257576 6:-0.355072 7:-0.118367 8:0.488251 9:-0.0113208 
-0 -0.2097678489183196 -0 0 0 1:-0.443366 2:-0.412698 3:0.212254 4:-0.359882 5:-0.267677 6:-0.413043 7:-0.126531 8:0.483029 9:0.0792453 
-0 -0.03406704655998453 -0 0.1735209329224225 0 1:-0.346278 2:-0.373016 3:0.282276 4:-0.371681 5:-0.227273 6:-0.333333 7:0.0122449 8:0.488251 9:0.25283 
-1.944409288624193 -0 -0 0 0.3128006348519299 1:-0.449838 2:-0.337302 3:0.317287 4:-0.0737463 5:0.0656566 6:-0.376812 7:0.0285714 8:-0.143603 9:-0.00377358 
-0 -0.2920053087326952 -0 0 0 1:-0.456311 2:-0.325397 3:0.321663 4:-0.0589971 5:0.0707071 6:-0.376812 7:0.0204082 8:-0.148825 9:-0.0113208 
-4.888766260641794 -0 -2.90302233380725 -0 0.2665560583209901 1:0.229773 2:-0.18254 3:-0.527352 4:-0.0648968 5:-0.828283 6:-0.195652 7:-0.322449 8:-0.791123 9:0.132075 
-0 -3.507462074787637 -0 -0 0 1:0.229773 2:-0.18254 3:-0.527352 4:-0.0560472 5:-0.828283 6:-0.152174 7:-0.322449 8:-0.791123 9:0.154717 
-0 -0 -0 -0.0862015533637646 0 1:0.92233 2:0.138889 3:-0.404814 4:0.79351 5:-0.10101 6:0.362319 7:0.722449 8:-0.524804 9:0.962264 
-0 -0 -0.4966495082565088 -0 0 1:0.84466 2:0.0515873 3:-0.40919 4:0.716814 5:-0.141414 6:0.282609 7:0.681633 8:-0.54047 9:0.924528 
-0 -0 -0 -0 0.8069731566754386 1:0.84466 2:0.285714 3:-0.199125 4:0.873156 5:-0.0808081 6:0.268116 7:-0.0204082 8:0.0913838 9:0.735849 
-0 -0 -0 -0.06404875717566698 0 1:0.889968 2:-0.289683 3:-0.733042 4:0.938053 5:-0.434343 6:-0.311594 7:0.518367 8:-0.738903 9:0.984906 
-0 -6.866997304934178 -0 -0 0 1:0.84466 2:-0.31746 3:-0.741794 4:0.932153 5:-0.464646 6:-0.333333 7:0.461224 8:-0.754569 9:0.856604 
-0.7542996325466618 -0 -0 -0 0 1:0.307443 2:-0.123016 3:-0.369803 4:-0.0530973 5:-0.787879 6:-0.0434783 7:-0.24898 8:-0.822454 9:0.30566 
-0 -7.915111072984687 -0 -0 0 1:0.79288 2:0.0793651 3:-0.352298 4:0.79941 5:-0.131313 6:0.26087 7:0.616327 8:-0.535248 9:0.766038 
-0 -0.6857083951240917 -0 -0 0 1:0.585761 2:0.119048 3:-0.164114 4:0.702065 5:-0.257576 6:0.108696 7:-0.191837 8:-0.148825 9:0.637736 
-0 -8 -0 -0 0 1:0.585761 2:0.119048 3:-0.164114 4:0.702065 5:-0.257576 6:0.101449 7:-0.2 8:-0.148825 9:0.630189 
-0 -8 -0 -0 0 1:0.585761 2:0.119048 3:-0.172867 4:0.702065 5:-0.257576 6:0.101449 7:-0.2 8:-0.148825 9:0.630189 
-1.590465065506503 -0 -0 -0 0 1:0.559871 2:0.0873016 3:-0.16849 4:0.640118 5:-0.272727 6:0.0869565 7:-0.126531 8:-0.169713 9:0.713208 
-0 -3.742145170249549 -0 -0 0 1:0.566343 2:0.0952381 3:-0.115974 4:0.640118 5:-0.282828 6:0.152174 7:-0.110204 8:-0.190601 9:0.796226 
-0 -5.728171494684151 -0 -0 0 1:0.566343 2:0.0952381 3:-0.115974 4:0.640118 5:-0.282828 6:0.152174 7:-0.110204 8:-0.190601 9:0.796226 
-0 -8 -0 -0 0 1:0.566343 2:0.0952381 3:-0.102845 4:0.640118 5:-0.277778 6:0.152174 7:-0.110204 8:-0.190601 9:0.826415 
-0 -1.557771306990332 -0 -0 0 1:0.275081 2:-0.130952 3:-0.413567 4:-0.00589971 5:-0.823232 6:-0.144928 7:-0.395918 8:-0.86423 9:0.169811 
-0 -3.482854988104256 -0 -0 0 1:0.223301 2:-0.154762 3:-0.417943 4:-0.0412979 5:-0.843434 6:-0.101449 7:-0.379592 8:-0.879896 9:0.184906 
-0 -8 -0 -0 0 1:0.68932 2:0.0198413 3:-0.326039 4:0.713864 5:-0.19697 6:0.123188 7:0.477551 8:-0.618799 9:0.667925 
-0 -8 -0 -0 0 1:0.68932 2:0.0198413 3:-0.326039 4:0.713864 5:-0.19697 6:0.123188 7:0.477551 8:-0.618799 9:0.667925 
-0 -8 -0 -0 0 1:0.68932 2:0.0238095 3:-0.31291 4:0.716814 5:-0.19697 6:0.123188 7:0.477551 8:-0.618799 9:0.667925 
-0 -8 -0 -0 0 1:0.669903 2:0.0198413 3:-0.295405 4:0.707965 5:-0.212121 6:0.144928 7:0.485714 8:-0.618799 9:0.660377 
-0 -8 -0 -0 0 1:0.669903 2:0.00793651 3:-0.295405 4:0.699115 5:-0.217172 6:0.144928 7:0.485714 8:-0.629243 9:0.660377 
-0 -8 -0 -0 0 1:0.656958 2:0.00793651 3:-0.304158 4:0.699115 5:-0.217172 6:0.144928 7:0.485714 8:-0.634465 9:0.660377 
-0 -0.923771113934592 -0 -0 0 1:0.656958 2:0.0198413 3:-0.295405 4:0.707965 5:-0.212121 6:0.173913 7:0.485714 8:-0.634465 9:0.667925 
-0 -8 -0 -0 0 1:0.676375 2:0.0277778 3:-0.286652 4:0.737463 5:-0.186869 6:0.137681 7:0.412245 8:-0.639687 9:0.630189 
-0 -8 -0 -0 0 1:0.669903 2:0.0277778 3:-0.286652 4:0.737463 5:-0.186869 6:0.137681 7:0.379592 8:-0.639687 9:0.630189 
-0 -8 -0 -0 0 1:0.66343 2:0.031746 3:-0.286652 4:0.722714 5:-0.20202 6:0.137681 7:0.420408 8:-0.634465 9:0.637736 
-0 -8 -0 -0 0 1:0.656958 2:0.0238095 3:-0.286652 4:0.716814 5:-0.20202 6:0.137681 7:0.420408 8:-0.639687 9:0.637736 
-0 -8 -0 -0 0 1:0.650485 2:0.015873 3:-0.286652 4:0.707965 5:-0.207071 6:0.137681 7:0.420408 8:-0.650131 9:0.637736 
-0 -7.45492262479026 -0 -0 0 1:0.656958 2:0.0198413 3:-0.282276 4:0.707965 5:-0.207071 6:0.144928 7:0.436735 8:-0.639687 9:0.645283 
-0 -0 -0 -0.2172605591923421 0 1:0.84466 2:-0.440476 3:-0.820569 4:0.932153 5:-0.459596 6:-0.65942 7:0.265306 8:-0.733681 9:0.660377 
-0 -0 -0 -1.100327896226793 0 1:0.171521 2:-0.134921 3:-0.382932 4:-0.0294985 5:-0.863636 6:-0.289855 7:-0.665306 8:-0.895561 9:-0.0792453 
-0 -0 -0 -0 5.004051060717666 1:0.171521 2:-0.134921 3:-0.378556 4:-0.0235988 5:-0.858586 6:-0.282609 7:-0.64898 8:-0.890339 9:-0.0716981 
-0 -0 -0 -0.01008003175436986 0 1:0.152104 2:-0.162698 3:-0.369803 4:-0.0294985 5:-0.893939 6:-0.275362 7:-0.640816 8:-0.968668 9:-0.109434 
-5.653459828911228 -0 -0 -0 0 1:0.650485 2:0.0357143 3:-0.177243 4:0.713864 5:-0.171717 6:0.115942 7:0.436735 8:-0.587467 9:0.584906 
-0 -0 -0 -0 6.922469453380271 1:0.656958 2:0.0714286 3:-0.107221 4:0.728614 5:-0.126263 6:0.253623 7:0.485714 8:-0.582245 9:0.637736 
-0 -0 -0 -0 8 1:0.702265 2:0.0992063 3:-0.0328228 4:0.746313 5:-0.0959596 6:0.275362 7:0.510204 8:-0.545692 9:0.690566 
-0 -0 -0.4112755835416984 -0.1809017908811264 0 1:0.779935 2:0.103175 3:0.124726 4:0.743363 5:-0.030303 6:0.449275 7:0.697959 8:-0.524804 9:0.954717 
-0 -0 -0 -1.333730970401293 0 1:0.598706 2:0.162698 3:0.251641 4:0.666667 5:-0.131313 6:0.384058 7:0.0693878 8:-0.075718 9:0.803774 
-0 -0 -0.694343024022079 -0 6.913202878692473 1:0.598706 2:0.166667 3:0.260394 4:0.678466 5:-0.131313 6:0.398551 7:0.102041 8:-0.075718 9:0.811321 
-0 -4.130981313402258 -0 -0 0 1:0.786408 2:-0.349206 3:-0.684902 4:0.982301 5:-0.484848 6:-0.507246 7:0.216327 8:-0.660574 9:0.554717 
-0 -8 -0 -0 0 1:0.786408 2:-0.345238 3:-0.684902 4:0.982301 5:-0.484848 6:-0.507246 7:0.22449 8:-0.655352 9:0.554717 
-0 -3.354371655586039 -0 -0 0 1:0.63754 2:-0.424603 3:-0.820569 4:0.923304 5:-0.575758 6:-0.601449 7:0.24898 8:-0.671018 9:0.554717 
-0 -0 -1.72798553275193 -0 0 1:0.605178 2:-0.456349 3:-0.851204 4:0.905605 5:-0.59596 6:-0.666667 7:0.22449 8:-0.681462 9:0.524528 
-0 -0 -0 -0.3410462430363017 0 1:0.605178 2:-0.456349 3:-0.85558 4:0.905605 5:-0.59596 6:-0.717391 7:0.208163 8:-0.72846 9:0.516981 
-1.971871970775268 -7.992461804397516 -0 -0 0 1:0.61165 2:-0.452381 3:-0.820569 4:0.902655 5:-0.580808 6:-0.695652 7:0.159184 8:-0.754569 9:0.433962 
-0 -0 -0 -0 0.3817518264011733 1:0.618123 2:-0.460317 3:-0.846827 4:0.873156 5:-0.621212 6:-0.724638 7:0.167347 8:-0.765013 9:0.433962 
-0 -0 -0 -0.947111092802955 -0 1:-0.119741 2:0.0714286 3:-0.0153173 4:-0.542773 5:-0.333333 6:0.0362319 7:-0.689796 8:-0.467363 9:-0.569811 
-0 -0 -0 -1.243795691719311 -0 1:0.760518 2:0.25 3:0.133479 4:0.584071 5:0.217172 6:0.652174 7:0.62449 8:-0.164491 9:0.539623 
-0.7232760828861275 -1.083900248492932 -0.649185861613543 -0 -0.7469252882686873 1:0.469256 2:1 3:1 4:0.471976 5:1 6:0.992754 7:-0.420408 8:0.994778 9:-0.388679 
-0 -0 -0 -2.21896204329741 -0 1:-0.0226537 2:-0.174603 3:0.0415755 4:0.0619469 5:-0.126263 6:-0.188406 7:-0.191837 8:-0.639687 9:0.0867925 
-0 -0 -1.074502979895498 -0 -0 1:-0.0485437 2:0.0436508 3:-0.059081 4:-0.522124 5:-0.368687 6:0.0362319 7:-0.6 8:-0.462141 9:-0.524528 
-0.3722925694515485 -0 -0 -0 -0 1:0.0420712 2:0.047619 3:-0.0765864 4:-0.477876 5:-0.39899 6:0.0652174 7:-0.567347 8:-0.472585 9:-0.449057 
-2.681730370934517 -0 -0 -0 -0 1:0.184466 2:-0.222222 3:-0.0809628 4:0.129794 5:-0.19697 6:-0.304348 7:-0.0367347 8:-0.639687 9:0.0566038 
-0 -0 -0 -0 -2.122919230118443 1:0.76699 2:0.115079 3:0.0503282 4:0.722714 5:0.0808081 6:0.456522 7:0.453061 8:-0.284595 9:0.532075 
-0 -3.148006282638269 -0 -0 -8 1:0.79288 2:0.115079 3:0.0765864 4:0.728614 5:0.0959596 6:0.463768 7:0.469388 8:-0.289817 9:0.554717 
-0 -0 -0 -0 -2.01400465241171 1:0.760518 2:0.0436508 3:0.0765864 4:0.728614 5:0.020202 6:0.463768 7:0.387755 8:-0.289817 9:0.501887 
-0 -0 -0.4822466881118117 -0 -0 1:0.132686 2:-0.246032 3:-0.107221 4:0.0766962 5:-0.217172 6:-0.405797 7:-0.0612245 8:-0.655352 9:0.0716981 
-8 -0 -0 -0 -0 1:0.132686 2:-0.234127 3:-0.107221 4:0.103245 5:-0.217172 6:-0.384058 7:-0.0612245 8:-0.634465 9:0.0716981 
-0 -0 -0.05772407812006849 -0 -0 1:0.100324 2:-0.265873 3:-0.133479 4:0.0589971 5:-0.222222 6:-0.456522 7:-0.0938776 8:-0.686684 9:0.0716981 
-4.30920418160994 -0 -0 -0 -0 1:0.132686 2:-0.253968 3:-0.185996 4:0.0855457 5:-0.19697 6:-0.485507 7:-0.110204 8:-0.681462 9:0.0490566 
-0 -0 -0 -0 -0.1574132343110997 1:-0.0873786 2:-0.174603 3:-0.234136 4:-0.522124 5:-0.661616 6:-0.391304 7:-0.828571 8:-0.718016 9:-0.735849 
-0 -0 -0.437760353583528 -0 -0 1:-0.0873786 2:-0.190476 3:-0.247265 4:-0.513274 5:-0.656566 6:-0.391304 7:-0.844898 8:-0.712794 9:-0.750943 
-0 -0.226587109859252 -0 -0.7200733906527103 -2.018363716952685 1:-0.0809061 2:-0.174603 3:-0.238512 4:-0.525074 5:-0.666667 6:-0.42029 7:-0.844898 8:-0.712794 9:-0.735849 
-0 -0 -2.583891553103949 -0.06050815719381659 -0 1:0.63754 2:-0.0396825 3:0.0459519 4:0.525074 5:-0.0252525 6:0.275362 7:0.461224 8:-0.305483 9:0.509434 
-0 -0 -0 -0 -4.886730920137897 1:0.605178 2:-0.0515873 3:0.0284464 4:0.495575 5:-0.0808081 6:0.246377 7:0.387755 8:-0.336815 9:0.479245 
-0 -0 -0 -0 -4.642783481653986 1:0.598706 2:-0.0555556 3:0.00656455 4:0.510324 5:-0.0909091 6:0.224638 7:0.355102 8:-0.336815 9:0.449057 
-8 -0 -0 -0 -0 1:0.598706 2:-0.0714286 3:-0.0109409 4:0.507375 5:-0.0858586 6:0.210145 7:0.338776 8:-0.336815 9:0.433962 
-2.093883655550262 -0 -0 -0 -0 1:0.598706 2:-0.0714286 3:-0.0109409 4:0.507375 5:-0.0858586 6:0.210145 7:0.330612 8:-0.336815 9:0.433962 
-0 -5.19762009462368 -0 -0 -0 1:0.605178 2:-0.0674603 3:-0.0109409 4:0.525074 5:-0.0707071 6:0.217391 7:0.338776 8:-0.336815 9:0.441509 
-0 -0 -0.3141347778203311 -0 -0 1:0.333333 2:0.373016 3:0.763676 4:0.312684 5:0.409091 6:0.405797 7:-0.387755 8:0.550914 9:-0.403774 
-0 -0 -0 -1.131914448672598 -0 1:0.333333 2:0.392857 3:0.763676 4:0.312684 5:0.409091 6:0.42029 7:-0.330612 8:0.550914 9:-0.403774 
-0 -0 -0 -1.520999115788849 -0 1:0.372168 2:0.404762 3:0.785558 4:0.315634 5:0.449495 6:0.478261 7:-0.265306 8:0.561358 9:-0.350943 
-0 -0 -0 -0 -3.7058639103335 1:0.0679612 2:-0.357143 3:-0.256018 4:0.0914454 5:-0.368687 6:-0.586957 7:-0.314286 8:-0.848564 9:-0.0113208 
-0 -4.629309648449467 -0 -0 -0 1:0.0679612 2:-0.373016 3:-0.269147 4:0.0855457 5:-0.378788 6:-0.594203 7:-0.314286 8:-0.848564 9:-0.0566038 
-0 -0 -0.9844719367803789 -0 -0 1:-0.0485437 2:-0.361111 3:-0.256018 4:-0.0412979 5:-0.388889 6:-0.681159 7:-0.314286 8:-0.848564 9:-0.0415094 
