svm_type c_svc
kernel_type rbf
gamma 0.5
nr_class 6
total_sv 182
rho 0.32677 -0.104348 0.120733 0.394706 0.306961 -0.121373 0.0173327 -2.42019 -0.0812894 0.977452 0.0734844 0.179612 -0.0763165 0.428776 0.00771498
label 0 3 5 6 8 9
nr_sv 19 40 25 27 43 28
SV
0 6.360894582499268 0 0 0.9112364377888055 1:-0.0774194 2:0.00396825 3:-0.303167 4:0.0266041 5:0.0179028 6:-0.0434783 7:0.485714 8:-0.214854 9:0.343396 
0 0 2.257080825408941 0 0 1:-0.212903 2:-0.015873 3:-0.307692 4:-0.0391236 5:0.028133 6:-0.0942029 7:0.469388 8:-0.177719 9:0.358491 
6.089925340771758 0 0 4.19830302202562 0 1:0.593548 2:0.0753968 3:-0.339367 4:0.571205 5:-0.0946292 6:-0.130435 7:0.240816 8:-0.527851 9:0.0264151 
0 0.1271734191963765 0.8281204054822684 0 5.834171338493235 1:0.606452 2:0.0714286 3:-0.330317 4:0.552426 5:-0.0946292 6:-0.137681 7:0.257143 8:-0.527851 9:0.0339623 
0 0.2436855358397653 0 0 0 1:0.109677 2:-0.444444 3:-0.429864 4:0.0485133 5:-0.258312 6:-0.152174 7:0.404082 8:-0.506631 9:0.486792 
0 0 0 5.192863681297963 0 1:0.180645 2:-0.186508 3:-0.357466 4:0.314554 5:-0.324808 6:-0.0217391 7:0.110204 8:-0.374005 9:0.532075 
0 0 0.4567836493377932 0 0 1:0.206452 2:-0.202381 3:-0.316742 4:0.295775 5:-0.294118 6:0.0144928 7:0.232653 8:-0.34748 9:0.65283 
0 0 0 2.414338188057135 5.826031983282822 1:0.206452 2:-0.198413 3:-0.312217 4:0.295775 5:-0.294118 6:0.0144928 7:0.24898 8:-0.34748 9:0.660377 
6.269968789099722 0 0 0 0 1:0.141935 2:-0.230159 3:-0.438914 4:0.286385 5:-0.365729 6:-0.0434783 7:0.191837 8:-0.34748 9:0.584906 
0 0 0 0.7147455719477573 0 1:-0.63871 2:-0.797619 3:-0.841629 4:-0.411581 5:-0.7289 6:-0.73913 7:-0.0857143 8:-0.755968 9:0.0566038 
0 0.660813736056172 0 0 0 1:0.083871 2:-0.388889 3:-0.452489 4:0.126761 5:-0.44757 6:-0.130435 7:0.2 8:-0.35809 9:0.532075 
5.467702375380995 0 0 0 0 1:0.0709677 2:-0.376984 3:-0.520362 4:0.176839 5:-0.478261 6:-0.15942 7:0.0530612 8:-0.405836 9:0.471698 
0 0 2.258626837884951 0 0 1:-0.845161 2:-0.416667 3:-0.570136 4:-0.555556 5:-0.202046 6:-0.84058 7:0.0612245 8:-0.0450928 9:-0.101887 
0 5.666989401216544 0 0 1.456455547226641 1:-0.870968 2:-0.416667 3:-0.570136 4:-0.539906 5:-0.217391 6:-0.833333 7:0.077551 8:-0.0450928 9:-0.101887 
0 0 0 0 0.3760949209282058 1:-0.954839 2:-0.400794 3:-0.533937 4:-0.568075 5:-0.202046 6:-0.789855 7:0.159184 8:-0.0397878 9:-0.0339623 
1.078377457374309 0 0.5778970946234699 0.9436175944915466 0 1:-0.767742 2:-0.992063 3:-1 4:-0.555556 5:-0.810742 6:-1 7:-0.118367 8:-0.692308 9:-0.0490566 
0 0.6678769376666394 0 0 1.232741372643245 1:-0.748387 2:-0.964286 3:-0.918552 4:-0.558685 5:-0.815857 6:-0.891304 7:-0.044898 8:-0.676393 9:0.0188679 
0 0 0 0 0.5567553561259926 1:-0.406452 2:-0.646825 3:-0.683258 4:-0.192488 5:-0.70844 6:-0.492754 7:-0.0204082 8:-0.400531 9:0.283019 
1.693323603555962 0 0 0 0 1:-0.309677 2:-0.626984 3:-0.710407 4:-0.120501 5:-0.68798 6:-0.5 7:-0.0530612 8:-0.411141 9:0.260377 
-0 0.493529351241374 0 0 0 1:0.141935 2:-0.325397 3:-0.701357 4:0.496088 5:-0.580563 6:-0.130435 7:0.330612 8:-0.480106 9:0.554717 
-0 0 0 8 0 1:0.670968 2:0.0952381 3:-0.520362 4:0.887324 5:-0.181586 6:0.152174 7:0.420408 8:-0.681698 9:0.539623 
-0 0 0 8 0 1:0.645161 2:0.0952381 3:-0.529412 4:0.887324 5:-0.212276 6:0.130435 7:0.387755 8:-0.681698 9:0.49434 
-0 0 0 8 1.356635546740504 1:0.645161 2:0.0912698 3:-0.529412 4:0.871674 5:-0.232737 6:0.130435 7:0.363265 8:-0.681698 9:0.479245 
-0 0 0 3.860235148280583 0 1:0.625806 2:0.0714286 3:-0.538462 4:0.815336 5:-0.258312 6:0.0144928 7:0.363265 8:-0.681698 9:0.441509 
-0 0 0 8 0 1:0.619355 2:0.0634921 3:-0.538462 4:0.812207 5:-0.258312 6:0.0217391 7:0.379592 8:-0.671088 9:0.441509 
-0 0 0 8 0 1:0.619355 2:0.0634921 3:-0.529412 4:0.815336 5:-0.258312 6:0.0289855 7:0.379592 8:-0.671088 9:0.441509 
-0 0 0 8 1.449388282806962 1:0.587097 2:0.0515873 3:-0.529412 4:0.812207 5:-0.237852 6:0.0289855 7:0.379592 8:-0.665782 9:0.441509 
-0 0 0 8 0 1:0.6 2:0.0238095 3:-0.538462 4:0.815336 5:-0.227621 6:0.0144928 7:0.404082 8:-0.639257 9:0.471698 
-0.2810480784601133 0.6176146363257565 0.6722608240975977 0 2.648263709029091 1:0.980645 2:0.103175 3:-0.239819 4:1 5:0.12532 6:0.333333 7:0.893878 8:-0.262599 9:0.969811 
-0 0 0 5.231480216003882 0 1:0.96129 2:0.0833333 3:-0.262443 4:0.971831 5:0.0741688 6:0.23913 7:0.893878 8:-0.28382 9:0.916981 
-0 0 0 8 0 1:0.96129 2:0.0753968 3:-0.262443 4:0.971831 5:0.0741688 6:0.23913 7:0.893878 8:-0.289125 9:0.916981 
-0 0 0 8 0 1:0.96129 2:0.0753968 3:-0.262443 4:0.971831 5:0.0792839 6:0.253623 7:0.893878 8:-0.28382 9:0.916981 
-0 0 0.3577300032849633 0 0 1:0.490323 2:0.0396825 3:-0.0588235 4:0.893584 5:-0.370844 6:0.318841 7:-0.126531 8:-0.35809 9:1 
-0 0 0 8 0 1:0.470968 2:0.015873 3:-0.0769231 4:0.865415 5:-0.421995 6:0.289855 7:-0.134694 8:-0.32626 9:0.924528 
-0 0 0 7.268802004079883 0 1:0.470968 2:0.00793651 3:-0.0769231 4:0.862285 5:-0.421995 6:0.289855 7:-0.134694 8:-0.32626 9:0.924528 
-0 0 0 8 0 1:0.470968 2:0.015873 3:-0.0769231 4:0.865415 5:-0.421995 6:0.289855 7:-0.126531 8:-0.32626 9:0.924528 
-0 0.171508768461806 0 0 0 1:0.490323 2:0.0277778 3:-0.0633484 4:0.871674 5:-0.41688 6:0.311594 7:-0.126531 8:-0.31565 9:0.954717 
-0 0 0 0 2.802368465003385 1:0.464516 2:0.00396825 3:-0.0633484 4:0.862285 5:-0.421995 6:0.289855 7:-0.110204 8:-0.310345 9:0.939623 
-0.6715676353926127 0 0 0 0 1:0.458065 3:-0.0769231 4:0.852895 5:-0.421995 6:0.282609 7:-0.126531 8:-0.31565 9:0.939623 
-0 0 0 3.351876231294779 0 1:0.458065 2:-0.0436508 3:-0.0769231 4:0.843505 5:-0.41688 6:0.26087 7:-0.0938776 8:-0.320955 9:0.932075 
-0 0 0 8 0 1:0.458065 2:-0.047619 3:-0.0769231 4:0.840376 5:-0.411765 6:0.23913 7:-0.102041 8:-0.31565 9:0.924528 
-0 0 0 8 0 1:0.43871 2:-0.047619 3:-0.122172 4:0.809077 5:-0.42711 6:0.166667 7:-0.15102 8:-0.32626 9:0.871698 
-6.221778592792887 0 0 0 0 1:0.574194 2:0.0119048 3:-0.58371 4:0.762128 5:-0.273657 6:-0.0724638 7:0.306122 8:-0.633952 9:0.358491 
-0 0 0.002575981596455455 0 0 1:0.967742 2:0.00793651 3:-0.226244 4:0.953052 5:0.084399 6:0.0942029 7:1 8:-0.204244 9:0.886792 
-0 0.547853150194089 0 0 0 1:0.832258 2:-0.0952381 3:-0.298643 4:0.852895 5:-0.0383632 6:-0.0724638 7:0.934694 8:-0.209549 9:0.766038 
-5.124387764073883 0 0 0 0 1:-0.0774194 2:-0.396825 3:-0.656109 4:0.370892 5:-0.73913 6:-0.282609 7:0.2 8:-0.533156 9:0.456604 
-0.9874599557308634 0 0 0 0 1:0.393548 2:-0.246032 3:-0.257919 4:0.690141 5:-0.452685 6:-0.275362 7:-0.183673 8:-0.103448 9:0.569811 
-0 0 0 2.12565126106245 0 1:0.406452 2:-0.242063 3:-0.239819 4:0.687011 5:-0.44757 6:-0.311594 7:-0.191837 8:-0.0981432 9:0.569811 
-0 0.6777989050639303 0 0 0 1:-0.0967742 2:-0.369048 3:-0.552036 4:0.395931 5:-0.780051 6:-0.188406 7:0.191837 8:-0.564987 9:0.479245 
-2.885295432545108 0 0.2433133809084173 0 0.2925013902578366 1:-0.109677 2:-0.369048 3:-0.552036 4:0.395931 5:-0.780051 6:-0.188406 7:0.159184 8:-0.564987 9:0.479245 
-0.9642513230991598 0.6251884124863617 0.8546066139529437 0 1.057620966229114 1:0.0580645 2:-0.361111 3:-0.864253 4:0.392801 5:-0.606138 6:-0.905797 7:-0.167347 8:-0.793103 9:-0.230189 
-0.7369694818080196 0 0 0 1.389522321326515 1:0.548387 2:-0.309524 3:-0.21267 4:0.665102 5:-0.263427 6:-0.326087 7:0.779592 8:-0.320955 9:0.667925 
-0 1.141155048303266 0.382120503212174 0 0 1:0.567742 2:-0.373016 3:-0.21267 4:0.630673 5:-0.258312 6:-0.289855 7:0.869388 8:-0.342175 9:0.803774 
-0 0 0 1.083287704703378 0 1:0.567742 2:-0.373016 3:-0.20362 4:0.640063 5:-0.258312 6:-0.268116 7:0.844898 8:-0.342175 9:0.811321 
-0.2044411059793648 0 0 0 0 1:0.309677 2:-0.404762 3:-0.244344 4:0.546166 5:-0.508951 6:-0.507246 7:-0.0612245 8:-0.071618 9:0.584906 
-2.169244964313628 0 0 0 0 1:0.303226 2:-0.416667 3:-0.253394 4:0.549296 5:-0.519182 6:-0.521739 7:-0.102041 8:-0.061008 9:0.532075 
-0 0 0.2761098073432938 0 0 1:0.348387 2:-0.34127 3:-0.253394 4:0.621283 5:-0.468031 6:-0.485507 7:-0.077551 8:0.0238727 9:0.524528 
-0.3528532319871059 0 0.5972248705386943 0 0 1:0.374194 2:-0.34127 3:-0.221719 4:0.615023 5:-0.468031 6:-0.471014 7:-0.0285714 8:0.0132626 9:0.532075 
-0 0.3585403230462763 0 0 0.9179886741919956 1:0.374194 2:-0.357143 3:-0.226244 4:0.611894 5:-0.478261 6:-0.478261 7:-0.0367347 8:0.00795756 9:0.516981 
-0 -0 0 0 6.972155459531825 1:-0.812903 2:-0.281746 3:-0.533937 4:-0.461659 5:-0.324808 6:-0.137681 7:0.22449 8:0.151194 9:-0.313208 
-0 -0.2889920082183453 0 0.09830285501587593 0 1:-0.980645 2:-0.349206 3:-0.542986 4:-0.546166 5:-0.304348 6:-0.217391 7:0.322449 8:0.172414 9:-0.222642 
-0 -0 8 0 0 1:-0.593548 2:-0.456349 3:-0.434389 4:-0.890454 5:-0.237852 6:-0.514493 7:-0.453061 8:0.124668 9:-0.532075 
-0 -0 0.1442616016745529 0 0 1:-0.593548 2:-0.456349 3:-0.434389 4:-0.887324 5:-0.237852 6:-0.507246 7:-0.453061 8:0.124668 9:-0.532075 
-0 -0 8 0 0 1:-0.619355 2:-0.464286 3:-0.438914 4:-0.909233 5:-0.253197 6:-0.521739 7:-0.461224 8:0.114058 9:-0.54717 
-4.665898233593551 -0 0 0 0 1:0.0322581 2:-0.301587 3:-0.239819 4:-0.0172144 5:-0.0332481 6:0.115942 7:0.608163 8:0.066313 9:0.207547 
-2.595063220436269 -0 0 0 0 1:0.0129032 2:-0.325397 3:-0.248869 4:-0.029734 5:-0.109974 6:0.115942 7:0.665306 8:-0.0238727 9:0.177358 
-0 -0 7.410100278971012 0 0 1:-0.303226 2:-0.230159 3:-0.0588235 4:-0.220657 5:-0.227621 6:0.224638 7:0.208163 8:0.527851 9:0.116981 
-0 -0.4531633778668689 0 0.4442268691842156 0 1:-0.625806 2:-0.492063 3:-0.493213 4:-0.971831 5:-0.324808 6:-0.586957 7:-0.485714 8:0.0928382 9:-0.54717 
-1.034053690080069 -0 0 0 0 1:-0.625806 2:-0.492063 3:-0.493213 4:-0.981221 5:-0.324808 6:-0.586957 7:-0.461224 8:0.0875332 9:-0.532075 
-0 -0 0 0 3.408200749257406 1:-0.0129032 2:-0.396825 3:-0.325792 4:-0.057903 5:-0.191816 6:0.0724638 7:0.608163 8:-0.0291777 9:0.132075 
-0 -0 0.2238155373741486 0 0 1:-0.251613 2:-0.277778 3:-0.113122 4:-0.233177 5:-0.324808 6:0.188406 7:-0.0204082 8:0.458886 9:0.0792453 
-0 -0.1535400411685836 0 0.4956928364342123 0 1:-0.206452 2:-0.269841 3:-0.126697 4:-0.220657 5:-0.324808 6:0.195652 7:-0.0204082 8:0.469496 9:0.0943396 
-0 -0 0 0 3.014967147247223 1:-0.174194 2:-0.349206 3:-0.18552 4:-0.205008 5:-0.386189 6:0.181159 7:-0.0122449 8:0.480106 9:0.0113208 
-0 -0 0 0 0.5532883501416082 1:-0.580645 2:-0.488095 3:-0.61991 4:-0.496088 5:-0.396419 6:-0.384058 7:0.0938776 8:0.151194 9:-0.396226 
-5.429631697234617 -0.06044021888942164 0 0 0 1:-0.851613 2:-0.52381 3:-0.615385 4:-0.618153 5:-0.41688 6:-0.456522 7:0.110204 8:0.114058 9:-0.335849 
-0 -0 0 0 2.724307746468897 1:-0.425806 2:-0.492063 3:-0.660633 4:-0.953052 5:-0.478261 6:-0.456522 7:-0.134694 8:0.0291777 9:-0.381132 
-0 -0.5313573292339896 0 0.5744977469369391 0 1:-0.419355 2:-0.488095 3:-0.651584 4:-0.949922 5:-0.524297 6:-0.543478 7:-0.24898 8:-0.00265252 9:-0.501887 
-0 -0 0 2.491993235687588 0 1:0.335484 2:-0.369048 3:-0.316742 4:0.208138 5:-0.15601 6:0.246377 7:0.844898 8:-0.0503979 9:0.313208 
-0 -3.086824805703723 1.483436600140943 0 0 1:0.348387 2:-0.365079 3:-0.312217 4:0.208138 5:-0.130435 6:0.246377 7:0.853061 8:-0.0503979 9:0.320755 
-0.002786771130260506 -0 0 0 0 1:0.335484 2:-0.369048 3:-0.316742 4:0.186228 5:-0.150895 6:0.231884 7:0.844898 8:-0.061008 9:0.320755 
-0 -0 0 0 4.035835080413147 1:0.187097 2:-0.420635 3:-0.289593 4:0.107981 5:-0.242967 6:0.108696 7:0.771429 8:-0.114058 9:0.14717 
-0 -0 0 0 0.8610036202743321 2:-0.365079 3:-0.266968 4:-0.158059 5:-0.396419 6:0.0869565 7:0.0122449 8:0.538462 9:-0.101887 
-0 -0.05388084757102624 0 0 0 2:-0.365079 3:-0.253394 4:-0.15493 5:-0.396419 6:0.0869565 7:0.0122449 8:0.538462 9:-0.0867925 
-0 -0.004989966470901656 0 0 0 2:-0.380952 3:-0.257919 4:-0.179969 5:-0.411765 6:0.0434783 7:0.0122449 8:0.517241 9:-0.101887 
-0 -0 -0 0 0.4505979822412201 1:-0.845161 2:0.0793651 3:-0.271493 4:-0.452269 5:0.258312 6:0.15942 7:-0.379592 8:0.782493 9:-0.750943 
-0 -0.4770372333034605 -0 0.2142580204677323 0 1:-0.845161 2:0.0555556 3:-0.316742 4:-0.452269 5:0.248082 6:0.108696 7:-0.412245 8:0.793103 9:-0.826415 
-0 -0 -0 0.1945862589591053 0 1:-0.922581 2:-0.00793651 3:-0.371041 4:-0.477308 5:0.202046 6:0.0217391 7:-0.453061 8:0.755968 9:-0.89434 
-0 -0.1213535511586123 -0 0.1833377916400887 0 1:-0.993548 2:-0.210317 3:-0.235294 4:-0.99374 5:-0.217391 6:-0.514493 7:-1 8:0.156499 9:-0.977358 
-0 -0 -0.09093078913501204 0 0 1:0.0387097 2:0.103175 3:0.352941 4:0.179969 5:0.375959 6:0.318841 7:0.281633 8:0.33687 9:0.0716981 
-0 -0.1403217197752112 -0 0.8396885243295235 0 1:0.0387097 2:0.107143 3:0.371041 4:0.192488 5:0.375959 6:0.318841 7:0.281633 8:0.34748 9:0.0716981 
-0 -0 -0 0 3.907480978367555 1:0.0387097 2:0.107143 3:0.375566 4:0.192488 5:0.375959 6:0.318841 7:0.281633 8:0.34748 9:0.0716981 
-0 -0 -1.485135069369019 0 0 1:-0.258065 2:-0.00793651 3:0.271493 4:-0.201878 5:0.00255754 6:0.15942 7:-0.0693878 8:0.702918 9:0.0792453 
-0 -0 -0.0160937658011455 0 0 1:-0.206452 2:-0.047619 3:0.276018 4:-0.226917 5:-0.0332481 6:0.0942029 7:-0.044898 8:0.687003 9:0.124528 
-0 -0 -4.376835139869059 0 0 1:-0.664516 2:-0.253968 3:-0.289593 4:-0.868545 5:-0.212276 6:-0.528986 7:-0.681633 8:0.066313 9:-0.758491 
-0.7416066626116087 -0 -0 0 0 1:-0.941935 2:-0.198413 3:-0.488688 4:-0.461659 5:0.0434783 6:-0.166667 7:-0.15102 8:0.671088 9:-0.818868 
-0 -0 -6.360645420448219 0 0 1:-0.8 2:-0.321429 3:-0.357466 4:-0.934272 5:-0.273657 6:-0.652174 7:-0.730612 8:-0.0291777 9:-0.728302 
-0.5375588262347168 -0 -0 0 0 1:-0.825806 2:-0.337302 3:-0.39819 4:-0.931142 5:-0.314578 6:-0.681159 7:-0.738776 8:-0.071618 9:-0.735849 
-0 -0 -0 0 0.5533324969485501 1:-0.825806 2:-0.321429 3:-0.402715 4:-0.924883 5:-0.324808 6:-0.644928 7:-0.763265 8:-0.071618 9:-0.735849 
-0 -0 -0 0 0.8320897182731338 1:-0.664516 2:-0.253968 3:-0.511312 4:-0.345853 5:-0.0127877 6:-0.137681 7:-0.232653 8:0.660477 9:-0.962264 
-0 -0 -2.749531502309477 0 0 1:-0.703226 2:-0.230159 3:-0.497738 4:-0.383412 5:0.0230179 6:-0.166667 7:-0.167347 8:0.660477 9:-0.871698 
-0 -0 -0 0.1981249771050924 0 1:-0.632258 2:-0.47619 3:-0.524887 4:-0.768388 5:-0.381074 6:-0.927536 7:-0.763265 8:-0.124668 9:-0.977358 
-0.01705250782547625 -0 -0 0 0 1:-0.703226 2:-0.511905 3:-0.570136 4:-0.827856 5:-0.411765 6:-0.942029 7:-0.706122 8:-0.156499 9:-0.992453 
-0 -0.8687226913589903 -0 0.5946145924045081 0 1:-0.716129 2:-0.511905 3:-0.570136 4:-0.830986 5:-0.411765 6:-0.942029 7:-0.706122 8:-0.167109 9:-1 
-0 -0 -1.230753378226525 0 1.422409835996122 1:-0.670968 2:-0.511905 3:-0.538462 4:-0.830986 5:-0.401535 6:-0.884058 7:-0.665306 8:-0.172414 9:-0.992453 
-1.155007442758781 -0 -0 0 0 1:-0.683871 2:-0.511905 3:-0.542986 4:-0.830986 5:-0.401535 6:-0.905797 7:-0.665306 8:-0.172414 9:-1 
-2.792864660459525 -1.548045481118984 -2.568933254525484 0.7834932350920699 0.1285531391376333 1:-0.0193548 2:-0.34127 3:0.244344 4:0.0954617 5:0.186701 6:-0.0507246 7:0.379592 8:0.183024 9:0.222642 
-0.6504907971099505 -0 -0 0 1.065074162885149 1:-0.451613 2:-0.428571 3:0.113122 4:-0.380282 5:-0.289003 6:-0.42029 7:-0.134694 8:0.442971 9:-0.00377358 
-0 -0 -5.272026918838712 0 0 1:-0.445161 2:-0.373016 3:0.122172 4:-0.380282 5:-0.273657 6:-0.355072 7:-0.118367 8:0.480106 9:-0.0113208 
-0 -0.2304613082192815 -0 0 0 1:-0.43871 2:-0.412698 3:0.18552 4:-0.320814 5:-0.283887 6:-0.413043 7:-0.126531 8:0.474801 9:0.0792453 
-0.4839279157373653 -0 -1.110728779638006 0 0.005898297339781901 1:-0.432258 2:-0.400794 3:0.135747 4:-0.345853 5:-0.278772 6:-0.369565 7:-0.044898 8:0.474801 9:0.0943396 
-0 -0 -0 0.219049624935322 0 1:-0.341935 2:-0.373016 3:0.257919 4:-0.333333 5:-0.242967 6:-0.333333 7:0.0122449 8:0.480106 9:0.25283 
-0 -0 -1.494231178164996 -0.3303856973318867 0 1:0.225806 2:-0.134921 3:-0.429864 4:0.530516 5:-0.647059 6:0.550725 7:0.444898 8:-0.432361 9:0.728302 
-1.448881608663396 -0 -0 -0 0 1:0.2 2:-0.166667 3:-0.466063 4:0.511737 5:-0.693095 6:0.456522 7:0.297959 8:-0.437666 9:0.615094 
-3.63638031910207 -0.3433876559435799 -0.627144077178008 -0 0 1:0.232258 2:-0.18254 3:-0.579186 4:-0.00782473 5:-0.851662 6:-0.195652 7:-0.322449 8:-0.819629 9:0.132075 
-0 -0.4654934716068583 -0 -0.3134075097161528 0 1:0.922581 2:0.138889 3:-0.452489 4:0.902973 5:-0.11509 6:0.362319 7:0.722449 8:-0.549072 9:0.962264 
-0 -0 -0.5029318298571628 -0 0 1:0.825806 2:0.0277778 3:-0.438914 4:0.818466 5:-0.150895 6:0.202899 7:0.64898 8:-0.570292 9:0.856604 
-0 -0 -0 -0 0.6666061275931638 1:0.819355 2:0.269841 3:-0.257919 4:0.928013 5:-0.120205 6:0.246377 7:-0.044898 8:0.0238727 9:0.70566 
-0 -0 -0 -0.0972035901065029 0 1:0.845161 2:0.277778 3:-0.239819 4:0.98748 5:-0.0946292 6:0.253623 7:-0.0612245 8:0.061008 9:0.720755 
-0 -0 -0.2282189699366513 -0 0.4112448205740886 1:0.845161 2:0.285714 3:-0.239819 4:0.98748 5:-0.0946292 6:0.268116 7:-0.0204082 8:0.0769231 9:0.735849 
-0 -8 -0 -0 0 1:0.8 2:0.0793651 3:-0.39819 4:0.909233 5:-0.14578 6:0.26087 7:0.632653 8:-0.559682 9:0.788679 
-0 -3.734670953065205 -0 -0 0 1:0.793548 2:0.0793651 3:-0.39819 4:0.909233 5:-0.14578 6:0.26087 7:0.616327 8:-0.559682 9:0.766038 
-0 -3.838406446030768 -0 -0 0 1:0.793548 2:0.0714286 3:-0.40724 4:0.890454 5:-0.14578 6:0.202899 7:0.518367 8:-0.564987 9:0.698113 
-0 -8 -0 -0 0 1:0.793548 2:0.0714286 3:-0.40724 4:0.890454 5:-0.14578 6:0.202899 7:0.518367 8:-0.564987 9:0.690566 
-0 -8 -0 -0 0 1:0.793548 2:0.0714286 3:-0.40724 4:0.890454 5:-0.150895 6:0.202899 7:0.518367 8:-0.564987 9:0.690566 
-0 -4.700388263244164 -0 -0 0 1:0.716129 2:0.0198413 3:-0.393665 4:0.830986 5:-0.191816 6:0.152174 7:0.477551 8:-0.607427 9:0.690566 
-0 -5.427896332109072 -0 -0 0 1:0.587097 2:0.119048 3:-0.20362 4:0.805947 5:-0.273657 6:0.101449 7:-0.2 8:-0.167109 9:0.630189 
-0 -8 -0 -0 0 1:0.587097 2:0.119048 3:-0.21267 4:0.805947 5:-0.273657 6:0.101449 7:-0.2 8:-0.167109 9:0.630189 
-2.816201976689695 -0 -0 -0 0 1:0.56129 2:0.0873016 3:-0.208145 4:0.740219 5:-0.289003 6:0.0869565 7:-0.126531 8:-0.188329 9:0.713208 
-0 -8 -0 -0 0 1:0.567742 2:0.0952381 3:-0.153846 4:0.740219 5:-0.299233 6:0.152174 7:-0.110204 8:-0.209549 9:0.796226 
-0 -2.778942022613395 -0 -0 0 1:0.567742 2:0.0952381 3:-0.153846 4:0.740219 5:-0.299233 6:0.152174 7:-0.110204 8:-0.209549 9:0.796226 
-0 -8 -0 -0 0 1:0.567742 2:0.0952381 3:-0.140271 4:0.740219 5:-0.294118 6:0.152174 7:-0.110204 8:-0.209549 9:0.826415 
-0 -0.5400251032886791 -0 -0 0 1:0.129032 2:-0.174603 3:-0.538462 4:-0.0172144 5:-1 6:-0.304348 7:-0.640816 8:-0.973475 9:-0.00377358 
-0 -0 -0 -0.1523948190581163 0 1:0.129032 2:-0.174603 3:-0.542986 4:-0.0203443 5:-1 6:-0.304348 7:-0.64898 8:-0.973475 9:-0.00377358 
-0 -8 -0 -0 0 1:0.690323 2:0.0198413 3:-0.371041 4:0.818466 5:-0.212276 6:0.123188 7:0.477551 8:-0.644562 9:0.667925 
-0 -8 -0 -0 0 1:0.690323 2:0.0198413 3:-0.371041 4:0.818466 5:-0.212276 6:0.123188 7:0.477551 8:-0.644562 9:0.667925 
-0 -8 -0 -0 0 1:0.690323 2:0.0238095 3:-0.357466 4:0.821596 5:-0.212276 6:0.123188 7:0.477551 8:-0.644562 9:0.667925 
-0 -8 -0 -0 0 1:0.677419 2:0.0277778 3:-0.330317 4:0.843505 5:-0.202046 6:0.137681 7:0.412245 8:-0.665782 9:0.630189 
-0 -8 -0 -0 0 1:0.670968 2:0.0277778 3:-0.330317 4:0.843505 5:-0.202046 6:0.137681 7:0.379592 8:-0.665782 9:0.630189 
-0 -4.246722653071283 -0 -0 0 1:0.593548 2:0.126984 3:-0.0135747 4:0.799687 5:-0.248082 6:0.268116 7:-0.0285714 8:-0.177719 9:0.856604 
-0 -5.794723507648865 -0 -0 0 1:0.122581 2:-0.146825 3:-0.339367 4:0.549296 5:-0.780051 6:0.463768 7:0.0367347 8:-0.533156 9:0.418868 
-0 -4.16151887482657 -0 -0 0 1:0.109677 2:-0.18254 3:-0.357466 4:0.514867 5:-0.790281 6:0.391304 7:0.0938776 8:-0.559682 9:0.418868 
-1.318947484882981 -0 -0 -0.01593419663207613 0 1:0.0903226 2:-0.178571 3:-0.276018 4:0.496088 5:-0.73913 6:0.405797 7:0.044898 8:-0.506631 9:0.366038 
-0 -0 -0.002954905857630173 -0 0.9992605038424995 1:0.122581 2:-0.162698 3:-0.253394 4:0.499218 5:-0.7289 6:0.434783 7:0.0530612 8:-0.474801 9:0.381132 
-0 -0 -0 -0.2255797392924019 0 1:0.0774194 2:-0.178571 3:-0.289593 4:0.489828 5:-0.744246 6:0.434783 7:0.044898 8:-0.522546 9:0.373585 
-0 -2.889157281976512 -0 -0 0 1:0.2 2:-0.119048 3:-0.434389 4:0.0610329 5:-0.877238 6:-0.304348 7:-0.681633 8:-0.920424 9:-0.0716981 
-0 -0 -0.5508927457358654 -0.9469707208735786 2.713530340059699 1:0.174194 2:-0.134921 3:-0.429864 4:0.029734 5:-0.887468 6:-0.289855 7:-0.665306 8:-0.925729 9:-0.0792453 
-4.243456668481881 -0 -0 -0 0 1:0.651613 2:0.0357143 3:-0.217195 4:0.818466 5:-0.186701 6:0.115942 7:0.436735 8:-0.612732 9:0.584906 
-0 -0 -0 -0 6.301543317911589 1:0.658065 2:0.0714286 3:-0.144796 4:0.834116 5:-0.140665 6:0.253623 7:0.485714 8:-0.607427 9:0.637736 
-0 -0 -0 -0 8 1:0.703226 2:0.0992063 3:-0.0678733 4:0.852895 5:-0.109974 6:0.275362 7:0.510204 8:-0.570292 9:0.690566 
-0 -0 -0.2606449028889298 -0.08120325752122008 0 1:0.780645 2:0.103175 3:0.0950226 4:0.849765 5:-0.0434783 6:0.449275 7:0.697959 8:-0.549072 9:0.954717 
-0 -0 -0 -0.8997912286821481 0 1:0.63871 2:0.214286 3:0.271493 4:0.824726 5:-0.11509 6:0.384058 7:0.044898 8:-0.0981432 9:0.781132 
-0 -0 -0 -0.164282265719359 0 1:0.6 2:0.162698 3:0.226244 4:0.768388 5:-0.14578 6:0.384058 7:0.0693878 8:-0.0928382 9:0.803774 
-0 -0 -0 -0 6.601252940914229 1:0.6 2:0.166667 3:0.235294 4:0.780908 5:-0.14578 6:0.398551 7:0.102041 8:-0.0928382 9:0.811321 
-0 -0 -0.4376949336395883 -0 0 1:0.612903 2:0.166667 3:0.230769 4:0.777778 5:-0.12532 6:0.384058 7:0.102041 8:-0.0928382 9:0.826415 
-0 -0 -0 -2.355698453004425 -0 1:-0.406452 2:-0.373016 3:-0.565611 4:-0.339593 5:-0.468031 6:0.188406 7:0.24898 8:0.0185676 9:-0.25283 
-0 -0 -8 -0 -0 1:-0.419355 2:-0.384921 3:-0.574661 4:-0.348983 5:-0.478261 6:0.152174 7:0.273469 8:0.0185676 9:-0.222642 
-0 -0 -2.61940310349038 -0 -0 1:-0.419355 2:-0.384921 3:-0.579186 4:-0.348983 5:-0.478261 6:0.152174 7:0.265306 8:0.0185676 9:-0.230189 
-0 -0 -0.5274375999775438 -0.5727182246381314 -0 1:-0.109677 2:0.0714286 3:-0.0452489 4:-0.511737 5:-0.350384 6:0.0362319 7:-0.681633 8:-0.485411 9:-0.562264 
-0 -0 -0 -0.8469817663881121 -0 1:0.76129 2:0.25 3:0.104072 4:0.680751 5:0.207161 6:0.652174 7:0.62449 8:-0.183024 9:0.539623 
-0.5777331778030205 -0.9134199458601476 -0.3383282374716176 -0 -0.8381122580663338 1:0.470968 2:1 3:1 4:0.561815 5:1 6:0.992754 7:-0.420408 8:0.994695 9:-0.388679 
-1.060179515316185 -0 -0 -0 -0 1:0.0516129 2:-0.0198413 3:-0.122172 4:-0.43036 5:-0.442455 6:-0.057971 7:-0.57551 8:-0.564987 9:-0.464151 
-0 -0 -0 -0 -0.5252082965180738 1:0.767742 2:0.115079 3:0.0180995 4:0.827856 5:0.0690537 6:0.456522 7:0.453061 8:-0.30504 9:0.532075 
-0 -1.915636021089032 -0 -0 -8 1:0.793548 2:0.115079 3:0.0452489 4:0.834116 5:0.084399 6:0.463768 7:0.469388 8:-0.310345 9:0.554717 
-0 -0 -0 -0 -2.42211655236986 1:0.76129 2:0.0436508 3:0.0452489 4:0.834116 5:0.00767263 6:0.463768 7:0.387755 8:-0.310345 9:0.501887 
-0 -0 -4.936707964475067 -0 -0 1:-0.329032 2:-0.488095 3:-0.628959 4:-0.330203 5:-0.575448 7:0.289796 8:0.00265252 9:-0.14717 
-2.119254939287451 -0 -0 -0 -0 1:-0.290323 2:-0.511905 3:-0.669683 4:-0.298905 5:-0.570332 6:-0.0217391 7:0.281633 8:-0.0344828 9:-0.101887 
-2.426029935145968 -0 -0 -0 -0 1:-0.329032 2:-0.515873 3:-0.665158 4:-0.342723 5:-0.606138 6:-0.0362319 7:0.306122 8:-0.0822281 9:-0.101887 
-0 -0 -0 -0 -0.5807775110244373 1:-0.348387 2:-0.555556 3:-0.696833 4:-0.358372 5:-0.641944 6:-0.0869565 7:0.22449 8:-0.0769231 9:-0.154717 
-0 -1.238459213105378 -0 -0 -0 1:-0.341935 2:-0.555556 3:-0.696833 4:-0.352113 5:-0.636829 6:-0.0869565 7:0.22449 8:-0.0769231 9:-0.154717 
-0 -0 -0 -0 -2.330131675457362 1:-0.0709677 2:-0.174603 3:-0.280543 4:-0.467919 5:-0.662404 6:-0.376812 7:-0.820408 8:-0.734748 9:-0.728302 
-0.4719062097192717 -0 -0 -0 -0.03158785089635213 1:-0.0580645 2:-0.174603 3:-0.276018 4:-0.474178 5:-0.647059 6:-0.391304 7:-0.812245 8:-0.734748 9:-0.713208 
-0 -1.093962875649559 -0.5824288058700741 -1.044077077432036 -0 1:-0.0774194 2:-0.174603 3:-0.280543 4:-0.496088 5:-0.68798 6:-0.42029 7:-0.844898 8:-0.740053 9:-0.735849 
-0 -0 -1.962879224593316 -0.8554210583845192 -0 1:0.63871 2:-0.0396825 3:0.0135747 4:0.618153 5:-0.0383632 6:0.275362 7:0.461224 8:-0.32626 9:0.509434 
-0 -0 -1.598905519612439 -0 -0 1:0.6 2:-0.0555556 3:-0.0180995 4:0.586854 5:-0.0997442 6:0.224638 7:0.371429 8:-0.35809 9:0.449057 
-0 -0 -0 -0 -8 1:0.6 2:-0.0555556 3:-0.0271493 4:0.602504 5:-0.104859 6:0.224638 7:0.355102 8:-0.35809 9:0.449057 
-0 -0 -0 -0 -2.965503906562846 1:0.606452 2:-0.0555556 3:-0.0271493 4:0.608764 5:-0.0997442 6:0.224638 7:0.355102 8:-0.35809 9:0.449057 
-1.538383179217053 -0 -0 -0 -0 1:0.6 2:-0.0714286 3:-0.0452489 4:0.599374 5:-0.0997442 6:0.210145 7:0.338776 8:-0.35809 9:0.433962 
-8 -0 -0 -0 -0 1:0.6 2:-0.0714286 3:-0.0452489 4:0.599374 5:-0.0997442 6:0.210145 7:0.330612 8:-0.35809 9:0.433962 
-0 -6.752811299881284 -0 -0 -0 1:0.606452 2:-0.0674603 3:-0.0452489 4:0.618153 5:-0.084399 6:0.217391 7:0.338776 8:-0.35809 9:0.441509 
-0 -0 -0.5139031672725387 -0 -0 1:0.335484 2:0.373016 3:0.755656 4:0.392801 5:0.401535 6:0.405797 7:-0.387755 8:0.543767 9:-0.403774 
-0 -0 -0.4897645305714621 -0 -0 1:0.335484 2:0.392857 3:0.755656 4:0.392801 5:0.401535 6:0.42029 7:-0.330612 8:0.543767 9:-0.403774 
-0 -0 -0 -2.69054003134192 -0 1:0.374194 2:0.404762 3:0.778281 4:0.395931 5:0.442455 6:0.478261 7:-0.265306 8:0.554377 9:-0.350943 
