svm_type c_svc
kernel_type rbf
gamma 0.5
nr_class 5
total_sv 228
rho 0.371312 0.633172 -0.120843 0.552423 0.0595378 1.26803 0.284902 -0.288384 -0.213431 0.0868225
label 1 3 6 8 9
nr_sv 27 56 48 45 52
SV
0 0 0 11.08056371661 1:-0.510689 3:0.0951456 4:-0.378035 5:0.369369 6:-0.430303 7:-0.0386266 8:-0.00179533 9:-0.569989 
0 10.00628165679503 0 0 1:-0.539192 2:0.00187617 3:0.0291262 4:-0.39422 5:0.312312 6:-0.444848 7:-0.0987124 8:-0.00179533 9:-0.576708 
0 0 0 4.225873719174553 1:-0.220903 2:-0.193246 3:0.386408 4:0.412717 5:0.471471 6:-0.381818 7:-0.553648 8:-0.274686 9:-0.106383 
5.887174261879712 0 2.10078869006994 0 1:-0.244656 2:-0.172608 3:0.394175 4:0.396532 5:0.471471 6:-0.369697 7:-0.579399 8:-0.274686 9:-0.0907055 
0 0.2848008531291403 0 0 1:-0.220903 2:-0.39212 3:0.394175 4:0.0890173 5:-0.0960961 6:-0.464242 7:0.00429185 8:-0.206463 9:-0.370661 
0 0 0 1.420589493520504 1:0.0213777 2:-0.0525328 3:0.770874 4:0.454335 5:0.96997 6:-0.0254545 7:-0.0128755 8:-0.371634 9:0.388578 
1.235884002656204 0 1.014611383325843 0 1:-0.00712589 2:-0.198874 3:0.549515 4:0.269364 5:0.750751 6:-0.204848 7:-0.545064 8:-0.421903 9:0.24972 
0 0 0 9.301840511408203 1:-0.0023753 2:-0.183865 3:0.580583 4:0.255491 5:0.744745 6:-0.192727 7:-0.51073 8:-0.414722 9:0.265398 
0 0 0.5795783367760761 4.829939046204847 1:-0.852732 2:-0.161351 3:0.666019 4:-0.546821 5:0.156156 6:-0.29697 7:-0.536481 8:-0.924596 9:-0.00111982 
0 9.634441673093892 0 0 1:-0.847981 2:-0.144465 3:0.669903 4:-0.544509 5:0.165165 6:-0.284848 7:-0.51073 8:-0.885099 9:0.0055991 
0 0 0 4.729372758671396 1:-0.553444 2:0.183865 3:0.0330097 4:-0.449711 5:0.222222 6:-0.396364 7:-0.0128755 8:0.235189 9:-0.632699 
0 0 0 0.3378522137245726 1:-0.306413 2:-0.114447 3:0.378641 4:-0.0427746 5:-0.213213 6:-0.418182 7:0.201717 8:-0.0736086 9:-0.348264 
0 0 0.1962191243433359 0 1:-0.0546318 2:-0.257036 3:0.603883 4:0.0843931 5:0.66967 6:-0.21697 7:-0.364807 8:-0.429084 9:0.254199 
0 0 0 10.6161605417141 1:-0.558195 2:0.281426 3:0.0601942 4:-0.516763 5:0.198198 6:-0.292121 7:0.0472103 8:0.274686 9:-0.601344 
0 0 0 10.73262859335973 1:-0.591449 2:0.354597 3:-0.0640777 4:-0.542197 5:0.105105 6:-0.328485 7:-0.0300429 8:0.317774 9:-0.690929 
2.754794974407506 8.602973718017907 3.049426982482045 0 1:-0.605701 2:0.35272 3:-0.0796117 4:-0.53526 5:0.0960961 6:-0.330909 7:-0.0643777 8:0.328546 9:-0.697648 
2.506834327806189 7.916566194835322 3.302688638522998 0 1:-0.382423 2:0.0881801 3:0.467961 4:0.0358382 5:0.627628 6:-0.185455 7:-0.287554 8:-0.105925 9:0.50056 
0 0 0 2.720584468713489 1:-0.344418 2:-0.00187617 3:0.413592 4:-0.158382 5:-0.276276 6:-0.372121 7:0.330472 8:-0.0448833 9:-0.31243 
1.381700245120907 3.384525008644951 2.547464201092453 0 1:-0.349169 3:0.394175 4:-0.16763 5:-0.297297 6:-0.37697 7:0.321888 8:-0.048474 9:-0.316909 
0 1.792061107980445 0 0.790560860504436 1:0.0261283 2:-0.63227 3:0.949515 4:0.315607 5:0.840841 6:-0.0981818 7:0.545064 8:-0.633752 9:0.350504 
0.1136064806990346 0 0 0 1:0.0213777 2:-0.667917 3:1 4:0.310983 5:0.876877 6:-0.0763636 7:0.562232 8:-0.637343 9:0.368421 
0 5.758779311776281 0.1740428454819327 0 1:-0.11639 2:-0.457786 3:0.603883 4:-0.116763 5:0.498498 6:-0.270303 7:-0.0729614 8:-0.533214 9:0.222844 
0 0 0 3.330035473838885 1:-0.957245 2:-0.277674 3:0.654369 4:-1 5:-0.252252 6:-0.362424 7:-0.433476 8:-0.7307 9:-0.106383 
0 1.613589127467484 0 1.178752674896129 1:-0.976247 2:-0.234522 3:0.603883 4:-1 5:-0.267267 6:-0.36 7:-0.459227 8:-0.601436 9:-0.106383 
0 8.959021750309427 0 0 1:-0.971496 2:-0.234522 3:0.615534 4:-1 5:-0.261261 6:-0.355152 7:-0.450644 8:-0.594255 9:-0.106383 
0 0 1.436962424325394 0 1:-0.976247 2:-0.255159 3:0.6 4:-1 5:-0.243243 6:-0.347879 7:-0.502146 8:-0.583483 9:-0.106383 
2.372725342849523 0 0 0 1:-0.980998 2:-0.255159 3:0.6 4:-1 5:-0.249249 6:-0.355152 7:-0.502146 8:-0.590664 9:-0.106383 
-0 0 32 0 1:0.163895 2:0.709193 3:0.0563107 4:0.123699 5:0.126126 6:0.231515 7:-0.296137 8:0.393178 9:0.131019 
-0 0 32 0 1:0.163895 2:0.709193 3:0.0640777 4:0.123699 5:0.129129 6:0.231515 7:-0.27897 8:0.393178 9:0.135498 
-0 0 32 0 1:0.211401 2:0.709193 3:0.0368932 4:0.121387 5:0.129129 6:0.231515 7:-0.253219 8:0.429084 9:0.101904 
-0 0 0 2.182940699369444 1:0.135392 2:0.709193 3:-0.0135922 4:0.100578 5:0.12012 6:0.0739394 7:-0.270386 8:0.389587 9:0.0391937 
-0 0 32 0 1:0.140143 2:0.709193 3:0.0291262 4:0.10289 5:0.165165 6:0.0909091 7:-0.270386 8:0.389587 9:0.0862262 
-0 4.759202123284153 26.59041074490642 0 1:0.159145 2:0.703565 3:0.0368932 4:0.0936416 5:0.177177 6:0.0860606 7:-0.253219 8:0.396768 9:0.0795073 
-0 0 4.631507620213263 0 1:-0.244656 2:0.260788 3:0.2 4:-0.0381503 5:0.144144 6:0.76 7:-0.373391 8:-0.0664273 9:0.227324 
-0.03519528612792643 0.01126801313546458 0 0 1:-0.35867 2:0.153846 3:0.227184 4:-0.0381503 5:0.21021 6:0.77697 7:-0.399142 8:-0.170557 9:0.294513 
-0.502180707746553 0 0 0 1:-0.36342 2:0.144465 3:0.227184 4:-0.0381503 5:0.207207 6:0.77697 7:-0.424893 8:-0.184919 9:0.294513 
-0.07314362114070173 0 0 0 1:0.448931 2:0.210131 3:-0.825243 4:0.856647 5:-0.78979 6:-0.784242 7:-0.381974 8:0.138241 9:-0.540873 
-0 2.216541287617031 0 0 1:0.353919 2:0.170732 3:-0.786408 4:0.812717 5:-0.591592 6:-0.740606 7:-0.399142 8:-0.0305206 9:-0.473684 
-0 0 0 2.012506597695096 1:0.301663 2:0.178236 3:-0.638835 4:0.812717 5:-0.531532 6:-0.701818 7:-0.467811 8:-0.0879713 9:-0.453527 
-0 0 2.059504051144989 0 1:0.330166 2:0.178236 3:-0.638835 4:0.812717 5:-0.504505 6:-0.694545 7:-0.467811 8:-0.0843806 9:-0.426652 
-5.683932433809218 0 0 0 1:0.140143 2:0.0187617 3:0.238835 4:0.528324 5:0.573574 6:-0.287273 7:-0.83691 8:-0.174147 9:0.075028 
-0 0 0 7.054942706760663 1:0.154394 2:0.0694184 3:0.242718 4:0.528324 5:0.600601 6:-0.284848 7:-0.828326 8:-0.170557 9:0.0884658 
-0 1.077796978551601 0 0 1:0.125891 2:0.217636 3:0.207767 4:0.505202 5:0.600601 6:-0.250909 7:-0.785408 8:-0.0987433 9:0.0996641 
-0.5413394808031973 0.2916116997628365 0 0 1:0.805226 2:-0.750469 3:0.215534 4:0.986127 5:0.273273 6:-0.432727 7:0.862661 8:-0.482944 9:0.0593505 
-0 0 0 1.793773287229898 1:0.805226 2:-0.196998 3:0.238835 4:0.974566 5:0.408408 6:-0.187879 7:0.819742 8:-0.292639 9:0.209406 
-0 0 2.88881475900681 0 1:0.814727 2:-0.168856 3:0.231068 4:0.979191 5:0.402402 6:-0.18303 7:0.854077 8:-0.281867 9:0.213886 
-0.474052203410835 0 0 0 1:0.786223 2:-0.198874 3:0.219417 4:0.96763 5:0.381381 6:-0.202424 7:0.83691 8:-0.29982 9:0.198208 
-0 1.793252607174566 0 0 1:0.786223 2:-0.21576 3:0.219417 4:0.972254 5:0.384384 6:-0.209697 7:0.854077 8:-0.29982 9:0.195969 
-0 0.5097219866373662 0 0 1:0.60095 2:-1 3:-0.153398 4:0.537572 5:-0.135135 6:-0.949091 7:-0.553648 8:-0.766607 9:-0.245241 
-0.01930504667319203 0 0 0 1:0.605701 2:-0.988743 3:-0.137864 4:0.539884 5:-0.111111 6:-0.934545 7:-0.527897 8:-0.752244 9:-0.238522 
-0 0 0 8.507322034834466 1:-0.334917 2:0.407129 3:0.370874 4:-0.514451 5:0.03003 6:-0.0836364 7:-0.27897 8:0.202873 9:0.133259 
-0 25.84982034910468 0 3.292991516078856 1:-0.330166 2:0.532833 3:0.405825 4:-0.468208 5:0.177177 6:-0.0109091 7:-0.270386 8:0.249551 9:0.225084 
-5.11861516396871 4.751669497666588 0 0 1:-0.36342 2:0.354597 3:0.28932 4:-0.424277 5:0.033033 6:-0.115152 7:-0.356223 8:0.0628366 9:0.106383 
-0 1.628532459229687 0 0 1:-0.624703 2:-0.187617 3:-0.118447 4:-0.417341 5:-0.501502 6:-0.861818 7:-0.708155 8:-0.436266 9:-0.406495 
-1.028716960706217 0 0 0 1:-0.67696 2:-0.272045 3:-0.0601942 4:-0.273988 5:-0.432432 6:-0.82303 7:-0.759657 8:-0.62298 9:-0.386338 
-0.5255188908355641 0 0 0 1:-0.605701 2:-0.270169 3:-0.0485437 4:-0.262428 5:-0.426426 6:-0.820606 7:-0.725322 8:-0.587074 9:-0.386338 
-0 3.397652927906597 0 7.542748419749616 1:-0.605701 2:-0.270169 3:-0.0679612 4:-0.271676 5:-0.435435 6:-0.827879 7:-0.725322 8:-0.587074 9:-0.397536 
-0 0.5887080692938046 0 0 1:-0.548694 2:-0.258912 3:-0.0679612 4:-0.285549 5:-0.468468 6:-0.830303 7:-0.708155 8:-0.486535 9:-0.402016 
-1.171794048628838 0 9.165985246476065 0 1:-0.543943 2:-0.0731707 3:0.0330097 4:-0.301734 5:-0.36036 6:-0.655758 7:-0.733906 8:-0.375224 9:-0.298992 
-0 0 2.044408985132503 0 1:-0.387173 2:0.178236 3:0.297087 4:-0.105202 5:0.117117 6:0.98303 7:-0.44206 8:-0.206463 9:0.337066 
-0 0 14.62849381426245 0 1:0.0308789 2:0.624765 3:0.475728 4:0.465896 5:0.234234 6:1 7:-0.536481 8:0.605027 9:0.789474 
-0 1.326653094623105 0 0 1:0.254157 2:0.318949 3:-0.891262 4:0.72948 5:-0.75976 6:-0.745455 7:-0.682403 8:-0.0664273 9:-0.527436 
-0 0.3816434196859647 0 0 1:0.287411 2:0.358349 3:-0.937864 4:0.736416 5:-0.864865 6:-0.764848 7:-0.622318 8:0.02693 9:-0.536394 
-0 0 7.348150486688705 0 1:0.173397 2:0.322702 3:0.180583 4:0.380347 5:0.489489 6:-0.255758 7:-0.811159 8:-0.102334 9:0.108623 
-0 0 18.33361374780815 0 1:0.187648 2:0.639775 3:0.157282 4:0.371098 5:0.396396 6:-0.192727 7:-0.811159 8:0.0664273 9:0.133259 
-0 0 20.3554393545623 0 1:-0.301663 2:0.418386 3:0.250485 4:-0.523699 5:-0.018018 6:-0.141818 7:-0.339056 8:0.145422 9:0.0839866 
-0 0 3.689716855467355 0 1:-0.0973872 2:0.709193 3:0.227184 4:-0.158382 5:0.00600601 6:0.694545 7:-0.055794 8:0.314183 9:0.285554 
-0 0 0 0.337752778811088 1:-0.505938 2:0.287054 3:0.658252 4:-0.190751 5:-0.0780781 6:0.992727 7:-0.519313 8:-0.238779 9:0.419933 
-0.3234767319851636 0 0 0.6290413595257734 1:0.064133 2:0.624765 3:0.848544 4:0.435838 5:0.354354 6:1 7:-0.175966 8:0.590664 9:0.932811 
-0 1.815524168991374 0 0 1:0.0688836 2:0.624765 3:0.786408 4:0.440462 5:0.354354 6:1 7:-0.167382 8:0.601436 9:0.903695 
-0.06667200049704927 0 0 0 1:0.396675 2:0.600375 3:-1 4:0.646243 5:-0.867868 6:-0.641212 7:-0.562232 8:0.166966 9:-0.469205 
-0 0 0 1.199486085050648 1:0.353919 2:0.58349 3:-0.902913 4:0.523699 5:-0.873874 6:-0.629091 7:-0.527897 8:0.163375 9:-0.433371 
-0 0 14.55626475890609 0 1:0.173397 2:0.484053 3:-0.607767 4:0.523699 5:-0.528529 6:-0.529697 7:-0.579399 8:0.00179533 9:-0.290034 
-0 0 0 0.1896139899776151 1:0.173397 2:0.484053 3:-0.634951 4:0.509827 5:-0.561562 6:-0.549091 7:-0.579399 8:0.00179533 9:-0.305711 
-0 0 27.77605553642283 0 1:0.315914 2:0.662289 3:0.223301 4:0.310983 5:0.237237 6:-0.166061 7:-0.587983 8:0.271095 9:0.119821 
-0 0 32 0 1:0.315914 2:0.658537 3:0.207767 4:0.308671 5:0.222222 6:-0.175758 7:-0.596567 8:0.271095 9:0.108623 
-0 0.09035122480478858 0 0 1:0.990499 2:-0.0300188 3:0.219417 4:0.750289 5:0.0690691 6:-0.226667 7:1 8:0.070018 9:0.0996641 
-0.1175672325920927 0 0 0.4734482264046458 1:0.976247 2:-0.0731707 3:0.165049 4:0.722543 5:-0.018018 6:-0.236364 7:0.974249 8:0.070018 9:0.0638298 
-0 0 5.78984594686882 0 1:0.415677 2:-0.574109 3:-0.0291262 4:0.304046 5:-0.0570571 6:-0.706667 7:-0.519313 8:-0.536804 9:-0.106383 
-0 0 0 7.429662948590383 1:0.391924 2:-0.60788 3:-0.0330097 4:0.290173 5:-0.0510511 6:-0.711515 7:-0.484979 8:-0.543986 9:-0.108623 
-0.5712098264938161 2.462739996913971 0 0 1:0.391924 2:-0.621013 3:-0.0330097 4:0.290173 5:-0.0510511 6:-0.716364 7:-0.484979 8:-0.543986 9:-0.108623 
-0 0 5.986847897288534 0 1:0.415677 2:-0.557223 3:-0.0407767 4:0.262428 5:-0.15015 6:-0.706667 7:-0.562232 8:-0.475763 9:-0.137738 
-0 0 4.317372907272725 3.333690843167524 1:-0.249406 2:0.688555 3:0.149515 4:-0.861272 5:-0.183183 6:-0.134545 7:-0.347639 8:0.56553 9:0.0324748 
-0 -0 0 17.09160011793892 1:-0.182898 2:0.251407 3:-0.223301 4:-0.156069 5:0.366366 6:-0.621818 7:0.175966 8:0.339318 9:-0.720045 
-6.144523789135569 -0 0 0 1:-0.239905 2:0.227017 3:-0.2 4:-0.139884 5:0.408408 6:-0.655758 7:0.124464 8:0.321364 9:-0.711086 
-0 -0 0 27.65715587812996 1:-0.349169 2:0.00375235 3:-0.304854 4:-0.345665 5:0.198198 6:-0.784242 7:-0.321888 8:-0.105925 9:-0.910414 
-0 -0 0 0.5429549095882031 1:-0.377672 2:-0.0356473 3:-0.304854 4:-0.354913 5:0.198198 6:-0.803636 7:-0.339056 8:-0.163375 9:-0.910414 
-0 -1.871327386747313 4.708771954774932 32 1:-0.19715 2:0.621013 3:-0.227184 4:0.00115607 5:0.03003 6:-0.432727 7:-0.11588 8:0.561939 9:-0.24972 
-0 -0 0 32 1:-0.19715 2:0.621013 3:-0.227184 4:0.00115607 5:0.03003 6:-0.435152 7:-0.11588 8:0.561939 9:-0.24972 
-0 -0 0 14.11332060382687 1:-0.19715 2:0.621013 3:-0.246602 4:0.00115607 5:0.03003 6:-0.44 7:-0.11588 8:0.561939 9:-0.254199 
-0 -0 12.19644899935749 0 1:0.102138 2:-0.181989 3:-0.716505 4:0.486705 5:-0.696697 6:-0.990303 7:-0.296137 8:-0.508079 9:-0.668533 
-0 -0 0 4.861813060636883 1:0.0023753 2:-0.288931 3:-0.654369 4:0.486705 5:-0.660661 6:-0.985455 7:-0.467811 8:-0.615799 9:-0.650616 
-0 -0 0.2962000177638811 0 1:0.00712589 2:-0.268293 3:-0.627184 4:0.491329 5:-0.657658 6:-0.978182 7:-0.44206 8:-0.597846 9:-0.646137 
-0 -4.863965341932753 0 0 1:0.0118765 2:-0.262664 3:-0.654369 4:0.491329 5:-0.660661 6:-0.980606 7:-0.467811 8:-0.587074 9:-0.657335 
-2.279610786998598 -0 0 0 1:-0.239905 2:0.538462 3:0.382524 4:0.0890173 5:0.411411 6:0.0981818 7:0.055794 8:0.393178 9:0.334826 
-0 -0 4.900786047272659 0 1:-0.235154 2:0.585366 3:0.351456 4:0.0265896 5:0.393393 6:0.0836364 7:-0.00429185 8:0.368043 9:0.325868 
-0 -0.07534848494789781 0 0 1:0.368171 2:-0.485929 3:0.642718 4:0.493642 5:0.576577 6:-0.0569697 7:0.862661 8:-0.834829 9:0.303471 
-2.147149128931103 -0 0 0 1:0.368171 2:-0.478424 3:0.642718 4:0.491329 5:0.576577 6:-0.0666667 7:0.871245 8:-0.820467 9:0.303471 
-0 -0 0.1571976464014118 3.299161945743343 1:0.368171 2:-0.397749 3:0.642718 4:0.495954 5:0.57958 6:-0.0569697 7:0.879828 8:-0.806104 9:0.303471 
-0 -1.459507691129121 0 0 1:0.382423 2:-0.420263 3:0.642718 4:0.493642 5:0.585586 6:-0.0642424 7:0.888412 8:-0.795332 9:0.307951 
-0.2412974877751645 -0 0 0 1:0.339667 2:-0.489681 3:0.650485 4:0.452023 5:0.552553 6:-0.0642424 7:0.845494 8:-0.863555 9:0.301232 
-0 -0 9.491138681327353 0 1:0.0213777 2:-0.341463 3:0.36699 4:-0.0890173 5:0.186186 6:-0.389091 7:-0.356223 8:-0.766607 9:0.0503919 
-0 -0 0 15.21633916823558 1:0.0213777 2:-0.348968 3:0.359223 4:-0.10289 5:0.144144 6:-0.403636 7:-0.356223 8:-0.788151 9:0.0414334 
-0 -1.120181037331562 0 0 1:0.0261283 2:-0.380863 3:0.36699 4:-0.0959538 5:0.171171 6:-0.410909 7:-0.390558 8:-0.806104 9:0.0324748 
-10.61577197389507 -0 0 0 1:-0.444181 2:0.170732 3:0.537864 4:-0.34104 5:0.369369 6:-0.0957576 7:-0.0729614 8:-0.364452 9:0.236282 
-0 -0 0 11.39568667750681 1:-0.43943 2:0.195122 3:0.467961 4:-0.345665 5:0.324324 6:-0.124848 7:-0.0901288 8:-0.371634 9:0.207167 
-0 -2.549805723907308 0 32 1:-0.847981 2:0.138837 3:0.61165 4:-0.83815 5:-0.153153 6:-0.21697 7:-0.562232 8:-0.572711 9:0.0145577 
-0 -0 0 19.30326350407906 1:-0.824228 2:0.121951 3:0.6 4:-0.93526 5:-0.171171 6:-0.233939 7:-0.570815 8:-0.551167 9:-0.00783875 
-0 -2.373701375293162 0 0 1:-0.206651 2:0.624765 3:-0.413592 4:-0.0705202 5:-0.108108 6:-0.444848 7:-0.150215 8:0.759425 9:-0.319149 
-8.072548109399172 -0 0 0 1:-0.0783848 2:-0.407129 3:0.382524 4:-0.209249 5:0.18018 6:-0.401212 7:-0.296137 8:-0.820467 9:0.0324748 
-0 -0 0 32 1:-0.472684 2:0.234522 3:0.308738 4:-0.42659 5:0.213213 6:-0.197576 7:-0.261803 8:-0.411131 9:0.139978 
-0 -0 0 0.7949917289953333 1:-0.486936 2:0.253283 3:0.28932 4:-0.440462 5:0.195195 6:-0.207273 7:-0.270386 8:-0.385996 9:0.135498 
-0 -0.1246300215665884 11.41519170467106 0 1:-0.501188 2:0.253283 3:0.273786 4:-0.440462 5:0.189189 6:-0.209697 7:-0.296137 8:-0.385996 9:0.135498 
-16.25929985971989 -0 0 32 1:-0.833729 2:0.0619137 3:0.638835 4:-0.817341 5:-0.177177 6:-0.246061 7:-0.545064 8:-0.51167 9:-0.0324748 
-0 -0.4722806145978813 0 0 1:-0.653207 2:-0.0300188 3:-0.332039 4:-0.581503 5:0.141141 6:-0.798788 7:-0.364807 8:-0.116697 9:-0.863382 
-9.461153391943574 -0 0 0 1:-0.653207 2:0.043152 3:-0.285437 4:-0.576879 5:0.177177 6:-0.752727 7:-0.244635 8:0.005386 9:-0.852184 
-0 -0 0 21.08041626466351 1:-0.657957 2:0.0619137 3:-0.374757 4:-0.581503 5:0.12012 6:-0.772121 7:-0.27897 8:-0.00179533 9:-0.883539 
-1.558078560088569 -0 0 0 1:-0.2019 2:0.624765 3:-0.300971 4:-0.146821 5:-0.0930931 6:-0.362424 7:0.0815451 8:0.974865 9:-0.25196 
-0 -0 3.466268030104741 0 1:-0.0736342 2:-0.0150094 3:-0.68932 4:0.186127 5:-0.747748 6:-0.922424 7:-0.27897 8:-0.51167 9:-0.594625 
-0 -1.846087843310797 0 0 1:-0.130641 2:-0.0919325 3:-0.619417 4:0.13526 5:-0.663664 6:-0.900606 7:-0.261803 8:-0.547576 9:-0.543113 
-0 -0 0 29.28382538069036 1:-0.12114 2:-0.0919325 3:-0.615534 4:0.13526 5:-0.657658 6:-0.898182 7:-0.253219 8:-0.547576 9:-0.540873 
-0 -19.672166536308 0 0 1:-0.311164 2:0.660413 3:0.332039 4:-0.165318 5:0.435435 6:0.0715152 7:-0.107296 8:0.382406 9:0.301232 
-0 -0 0 7.387049494302375 1:-0.230404 2:0.65666 3:0.390291 4:-0.202312 5:0.453453 6:0.117576 7:0.0128755 8:0.382406 9:0.350504 
-0 -0.2353498528832681 0 0 1:-0.244656 2:0.666041 3:0.382524 4:-0.213873 5:0.435435 6:0.110303 7:-0.0386266 8:0.378815 9:0.339306 
-0 -0.9592450505306092 0 0 1:-0.287411 2:0.639775 3:0.390291 4:-0.239306 5:0.456456 6:0.105455 7:-0.0729614 8:0.360862 9:0.334826 
-0 -0 0 23.36582514904947 1:0.159145 2:-0.131332 3:0.479612 4:0.2 5:0.3003 6:-0.0957576 7:0.83691 8:-0.67325 9:0.243001 
-0 -0 0 8.558077580777212 1:0.159145 2:-0.131332 3:0.479612 4:0.213873 5:0.303303 6:-0.0909091 7:0.845494 8:-0.666068 9:0.245241 
-0 -6.809898891612272 0 0 1:-0.182898 2:0.144465 3:0.363107 4:-0.620809 5:0.177177 6:-0.260606 7:-0.261803 8:-0.0233393 9:0.106383 
-0 -6.764716973920319 22.96795171285912 0 1:-0.211401 2:0.11257 3:0.363107 4:-0.620809 5:0.177177 6:-0.260606 7:-0.304721 8:-0.0448833 9:0.0929451 
-1.17360731416318 -0 0 0 1:-0.244656 2:0.0337711 3:0.429126 4:-0.532948 5:0.228228 6:-0.265455 7:-0.296137 8:-0.0412926 9:0.106383 
-0 -1.754477078364727 0 0 1:-0.733967 2:0.15197 3:0.638835 4:-1 5:-0.135135 6:-0.219394 7:-0.339056 8:-0.267504 9:0.00783875 
-0 -0 -0.04655988736872962 0 1:-0.0831354 2:0.602251 3:0.0679612 4:-0.0427746 5:0.168168 6:0.815758 7:0.0128755 8:0.307002 9:0.0503919 
-0 -16.41958422086916 -0 0 1:-0.0736342 2:0.598499 3:0.0679612 4:-0.049711 5:0.168168 6:0.815758 7:0.00429185 8:0.29982 9:0.0503919 
-0.6016481980125208 -0 -0 1.458330005832136 1:-0.382423 2:0.545966 3:-0.398058 4:-0.526012 5:-0.27027 6:0.709091 7:-0.356223 8:0.13465 9:-0.341545 
-0 -4.717057364144808 -0 0 1:-0.401425 2:0.534709 3:-0.398058 4:-0.505202 5:-0.273273 6:0.675152 7:-0.44206 8:0.0915619 9:-0.341545 
-0 -32 -0 0 1:0.159145 2:0.624765 3:0.0407767 4:0.380347 5:0.138138 6:0.345455 7:-0.390558 8:0.518851 9:0.18477 
-0 -29.76721282004126 -0 0 1:0.182898 2:0.624765 3:0.0368932 4:0.401156 5:0.189189 6:0.26303 7:-0.364807 8:0.536804 9:0.227324 
-0 -32 -0 0 1:0.182898 2:0.624765 3:0.0368932 4:0.401156 5:0.189189 6:0.26303 7:-0.381974 8:0.536804 9:0.204927 
-0.08086316623587936 -0 -0 0 1:0.192399 2:0.624765 3:0.0368932 4:0.401156 5:0.189189 6:0.275152 7:-0.364807 8:0.56912 9:0.204927 
-0.9463433051366733 -0 -0 0 1:0.287411 2:-0.0900563 3:-0.429126 4:0.560694 5:-0.708709 6:-0.82303 7:-0.124464 8:-0.436266 9:-0.496081 
-0 -5.580673465527823 -13.64139221370749 8.008146537927155 1:0.235154 2:-0.0956848 3:-0.487379 4:0.532948 5:-0.747748 6:-0.864242 7:-0.304721 8:-0.472172 9:-0.513998 
-0 -9.826736514505914 -0 0 1:0.216152 2:0.968105 3:0.223301 4:0.0635838 5:0.324324 6:-0.0690909 7:-0.347639 8:0.368043 9:0.204927 
-0 -32 -0 0 1:0.19715 2:0.953096 3:0.223301 4:0.0635838 5:0.315315 6:-0.0690909 7:-0.356223 8:0.364452 9:0.193729 
-0 -32 -0 0 1:0.2019 2:0.968105 3:0.203883 4:0.049711 5:0.309309 6:-0.0690909 7:-0.347639 8:0.364452 9:0.18701 
-0 -0 -0.3329373243177291 2.67482373265777 1:0.2019 2:1 3:0.215534 4:0.049711 5:0.309309 6:-0.0690909 7:-0.339056 8:0.368043 9:0.18701 
-1.740224043134831 -0 -0 11.1659875788439 1:0.225653 2:0.116323 3:0.0951456 4:0.338728 5:0.336336 6:-0.418182 7:-0.545064 8:-0.29623 9:0.0279955 
-0 -25.87570922114044 -0 0 1:0.235154 2:0.288931 3:0.0446602 4:0.338728 5:0.309309 6:-0.362424 7:-0.579399 8:-0.174147 9:0.0391937 
-0 -9.811067503804647 -0 0 1:-0.168646 2:0.189493 3:0.137864 4:-0.218497 5:0.0660661 6:-0.246061 7:-0.519313 8:-0.228007 9:0.0996641 
-0 -1.906626973178551 -0 0 1:-0.301663 2:0.290807 3:0.36699 4:-0.842775 5:-0.279279 6:-0.444848 7:-0.236052 8:0.518851 9:-0.238522 
-0 -4.817038399864802 -0 0 1:-0.301663 2:0.288931 3:0.36699 4:-0.840462 5:-0.249249 6:-0.447273 7:-0.227468 8:0.518851 9:-0.229563 
-0 -0 -9.689278413354264 0 1:-0.315914 2:0.257036 3:0.35534 4:-0.821965 5:-0.255255 6:-0.461818 7:-0.244635 8:0.450628 9:-0.234043 
-0 -0 -0 3.780776237515952 1:-0.315914 2:0.266417 3:0.35534 4:-0.82659 5:-0.255255 6:-0.461818 7:-0.236052 8:0.4614 9:-0.234043 
-2.646329753717545 -0 -0 0 1:-0.320665 2:0.266417 3:0.332039 4:-0.840462 5:-0.291291 6:-0.473939 7:-0.236052 8:0.4614 9:-0.256439 
-0 -8.097164579836377 -0 0 1:-0.149644 2:0.617261 3:0.258252 4:-0.220809 5:0.0930931 6:0.992727 7:0.0214592 8:0.231598 9:0.12654 
-0.2259771860045647 -0 -1.747480989080032 0 1:-0.144893 2:0.615385 3:0.254369 4:-0.213873 5:0.102102 6:0.992727 7:0.0815451 8:0.249551 9:0.12206 
-0.07897184481956726 -0 -2.627720151529003 0 1:0.2019 2:0.142589 3:-0.739806 4:0.40578 5:-0.954955 6:-0.871515 7:-0.579399 8:-0.396768 9:-0.574468 
-0 -1.616369688259621 -0 0 1:0.2019 2:0.142589 3:-0.735922 4:0.408092 5:-0.942943 6:-0.871515 7:-0.579399 8:-0.396768 9:-0.572228 
-0 -1.657181479019135 -0 0 1:0.477435 2:0.688555 3:0.114563 4:0.197688 5:0.297297 6:-0.0521212 7:0.467811 8:0.123878 9:0.334826 
-6.244593787792311 -0 -25.9023064888964 14.99650681433687 1:-0.19715 2:0.106942 3:0.27767 4:-0.253179 5:0.207207 6:-0.209697 7:-0.450644 8:-0.360862 9:0.169093 
-0 -2.747196229694401 -0 0 1:0.19715 2:0.225141 3:0.561165 4:-0.831214 5:-0.285285 6:-0.224242 7:-0.141631 8:0.669659 9:-0.0369541 
-0.2455647620296492 -0 -0 0 1:-0.0546318 2:0.709193 3:0.219417 4:-0.236994 5:0.012012 6:0.992727 7:0.2103 8:0.382406 9:0.00783875 
-0 -0 -0 0.3615546801447287 1:-0.0688836 2:0.709193 3:0.203883 4:-0.260116 5:-0.003003 6:0.992727 7:0.193133 8:0.382406 9:0.00111982 
-0 -0 -0.5214397743173432 0 1:-0.12114 2:0.686679 3:0.231068 4:-0.285549 5:-0.00600601 6:0.992727 7:0.150215 8:0.324955 9:0.0145577 
-0 -0 -0 1.710573016692855 1:-0.125891 2:0.705441 3:0.234951 4:-0.294798 5:-0.018018 6:0.992727 7:0.133047 8:0.332136 9:0.00111982 
-0 -13.66291257031297 -0 0 1:0.2019 2:0.624765 3:-0.0757282 4:0.276301 5:-0.027027 6:0.473939 7:-0.630901 8:0.533214 9:0.12206 
-0 -2.641878335154569 -0 0 1:0.301663 2:0.36773 3:-0.646602 4:0.280925 5:-0.993994 6:-0.718788 7:-0.450644 8:-0.206463 9:-0.491601 
-0 -32 -0 0 1:0.268409 2:0.553471 3:-0.0174757 4:0.109827 5:0.003003 6:-0.345455 7:-0.553648 8:0.0341113 9:-0.0369541 
-0 -14.75577492260827 -0 0 1:0.268409 2:0.538462 3:-0.0174757 4:0.109827 5:0.003003 6:-0.347879 7:-0.553648 8:0.02693 9:-0.0369541 
-0 -0 -0 2.767481412442162 1:0.486936 2:0.729831 3:0.196117 4:0.126012 5:0.372372 6:-0.00848485 7:0.622318 8:0.202873 9:0.395297 
-0 -0 -2.981692113590804 0.197875507582075 1:0.496437 2:0.741088 3:0.227184 4:0.130636 5:0.396396 6:0.00363636 7:0.639485 8:0.220826 9:0.399776 
-1.022504173082724 -0 -0 0 1:0.524941 2:0.776735 3:0.242718 4:0.128324 5:0.414414 6:0.0206061 7:0.716738 8:0.245961 9:0.426652 
-0 -0 -11.60980634758065 0 1:-0.154394 2:0.243902 3:0.231068 4:-0.442775 5:0.132132 6:-0.229091 7:-0.433476 8:-0.195691 9:0.155655 
-0 -14.78868916550697 -0 0 1:-0.0451306 2:0.369606 3:0.223301 4:-0.465896 5:0.021021 6:-0.209697 7:-0.339056 8:0.00179533 9:0.139978 
-0 -0 -0.4993410907901827 0.7890051887249276 1:0.254157 2:0.219512 3:0.623301 4:-0.90289 5:-0.258258 6:-0.190303 7:0.0901288 8:0.834829 9:-0.012318 
-0 -1.473559258958311 -0 0 1:-0.244656 2:0.587242 3:0.242718 4:-0.877457 5:-0.363363 6:-0.476364 7:-0.0472103 8:0.89228 9:-0.323628 
-0.5687624064537508 -0 -0 5.492706231507567 1:-0.254157 2:0.577861 3:0.285437 4:-0.898266 5:-0.336336 6:-0.45697 7:-0.0214592 8:0.903052 9:-0.303471 
-8.778944505956538 -0 -0 -0 1:-0.320665 2:0.257036 3:0.161165 4:-0.322543 5:0.378378 6:-0.379394 7:0.133047 8:0.166966 9:-0.599104 
-0 -0 -7.625470316438273 -0.4685269937399267 1:-0.5962 2:-0.110694 3:-0.712621 4:-0.445087 5:0.225225 6:-0.852121 7:-0.51073 8:-0.228007 9:-0.93505 
-2.202496494146834 -0 -0 -0 1:-0.60095 2:-0.110694 3:-0.708738 4:-0.454335 5:0.228228 6:-0.852121 7:-0.493562 8:-0.238779 9:-0.926092 
-0 -1.828313788219691 -0 -0 1:-0.615202 2:-0.120075 3:-0.751456 4:-0.482081 5:0.195195 6:-0.878788 7:-0.527897 8:-0.278276 9:-0.93729 
-0.4752096987339815 -0 -0 -0 1:-0.273159 2:0.551595 3:-0.157282 4:-0.0682081 5:0.015015 6:-0.478788 7:-0.0300429 8:0.360862 9:-0.290034 
-0 -0 -10.90438966665408 -0 1:-0.273159 2:0.540338 3:-0.165049 4:-0.065896 5:0.039039 6:-0.481212 7:-0.0472103 8:0.357271 9:-0.287794 
-0.2433629245659575 -0 -0 -0 1:-0.268409 2:0.534709 3:-0.165049 4:-0.0589595 5:0.045045 6:-0.481212 7:-0.0128755 8:0.357271 9:-0.290034 
-0 -0 -2.181150116486754 -0 1:-0.249406 2:0.549719 3:-0.223301 4:-0.0520231 5:0.00600601 6:-0.486061 7:-0.0472103 8:0.35009 9:-0.296753 
-0 -0 -32 -0 1:-0.249406 2:0.549719 3:-0.223301 4:-0.0520231 5:0.00600601 6:-0.486061 7:-0.0472103 8:0.35009 9:-0.296753 
-0 -0 -32 -0 1:-0.249406 2:0.549719 3:-0.223301 4:-0.0520231 5:0.00600601 6:-0.486061 7:-0.0472103 8:0.35009 9:-0.296753 
-0 -0 -11.94245329390368 -0 1:-0.244656 2:0.577861 3:-0.180583 4:-0.0289017 5:0.027027 6:-0.464242 7:-0.0300429 8:0.375224 9:-0.287794 
-0 -0 -0 -2.079816105202381 1:-0.0783848 2:-0.223265 3:-0.417476 4:0.239306 5:-0.624625 6:-0.830303 7:-0.484979 8:-0.691203 9:-0.513998 
-0 -0 -25.03711954472288 -0 1:-0.106888 2:-0.234522 3:-0.436893 4:0.239306 5:-0.624625 6:-0.837576 7:-0.484979 8:-0.698384 9:-0.527436 
-0 -0 -0 -3.661167735651506 1:-0.04038 2:-0.27955 3:-0.464078 4:0.290173 5:-0.591592 6:-0.835152 7:-0.553648 8:-0.773788 9:-0.484882 
-0 -2.685964330027137 -0 -0 1:-0.0356295 2:-0.296435 3:-0.394175 4:0.243931 5:-0.573574 6:-0.82303 7:-0.545064 8:-0.780969 9:-0.471445 
-0 -4.410102338792586 -0 -0 1:0.0308789 2:-0.307692 3:-0.258252 4:0.202312 5:-0.492492 6:-0.752727 7:-0.433476 8:-0.737882 9:-0.384099 
-0 -7.269554246651315 -0 -0 1:0.27791 2:-0.105066 3:0.378641 4:0.512139 5:0.576577 6:-0.352727 7:-0.67382 8:-0.597846 9:0.0414334 
-0 -0 -32 -0 1:0.144893 2:-0.0225141 3:0.464078 4:0.109827 5:0.51952 6:-0.0375758 7:0.793991 8:-0.694794 9:0.363942 
-1.36669102787751 -0 -6.388706725123243 -0 1:0.154394 2:-0.0318949 3:0.487379 4:0.116763 5:0.525526 6:-0.0206061 7:0.785408 8:-0.687612 9:0.366181 
-1.326687845309555 -3.134195532977701 -8.855247888225749 -0 1:-0.467933 2:0.424015 3:0.561165 4:-0.558382 5:0.936937 6:-0.0812121 7:-0.373391 8:0.705566 9:0.368421 
-0 -0 -0 -1.391924561155186 1:-0.472684 2:0.418386 3:0.549515 4:-0.704046 5:0.915916 6:-0.0884848 7:-0.390558 8:0.701975 9:0.354983 
-0 -0 -0 -0.2031936389879346 1:-0.140143 2:0.512195 3:0.693204 4:-1 5:0.0630631 6:0.250909 7:0.244635 8:0.985637 9:0.343785 
-0 -3.680316174832295 -2.205340336671358 -3.611653608350259 1:-0.273159 2:0.371482 3:0.654369 4:-1 5:0.114114 6:0.180606 7:0.150215 8:0.788151 9:0.31019 
-0 -0 -32 -0 1:-0.714964 2:0.131332 3:0.623301 4:-0.722543 5:-0.108108 6:-0.187879 7:-0.484979 8:-0.612208 9:0.0212766 
-0 -0 -12.48443926106044 -0 1:-0.714964 2:0.136961 3:0.623301 4:-0.717919 5:-0.108108 6:-0.187879 7:-0.484979 8:-0.612208 9:0.0212766 
-0 -3.678860036151849 -0 -0 1:-0.705463 2:0.129456 3:0.623301 4:-0.717919 5:-0.114114 6:-0.187879 7:-0.493562 8:-0.615799 9:0.0212766 
-11.66774706783623 -0 -32 -0 1:-0.729216 2:0.118199 3:0.61165 4:-0.720231 5:-0.117117 6:-0.190303 7:-0.493562 8:-0.633752 9:0.0145577 
-0 -0 -32 -0 1:-0.724466 2:0.121951 3:0.61165 4:-0.720231 5:-0.117117 6:-0.190303 7:-0.493562 8:-0.630162 9:0.0167973 
-0 -0 -0 -1.820676029574074 1:-0.700713 2:0.138837 3:0.642718 4:-0.687861 5:-0.0990991 6:-0.170909 7:-0.527897 8:-0.630162 9:0.0279955 
-0 -0 -22.17825489167615 -0 1:-0.372922 2:0.255159 3:0.0990291 4:-0.387283 5:0.306306 6:-0.44 7:-0.0729614 8:0.131059 9:-0.708847 
-19.60420084940509 -0 -0 -0 1:-0.387173 2:0.260788 3:0.0563107 4:-0.428902 5:0.24024 6:-0.403636 7:-0.133047 8:0.145422 9:-0.715566 
-0 -0 -0 -0.03688078193349264 1:-0.534442 2:-0.0562852 3:-0.794175 4:-0.479769 5:0.156156 6:-0.895758 7:-0.545064 8:-0.235189 9:-0.959686 
-0 -0 -11.69087973325778 -0 1:-0.178147 2:0.624765 3:-0.130097 4:-0.132948 5:-0.021021 6:-0.37697 7:-0.0472103 8:0.443447 9:-0.231803 
-0 -2.804348007300399 -0 -4.231446801478956 1:0.102138 2:-0.273921 3:-0.114563 4:0.109827 5:-0.489489 6:-0.675152 7:-0.287554 8:-0.594255 9:-0.352744 
-11.77180219792321 -0 -0 -0 1:0.216152 2:-0.121951 3:0.502913 4:0.433526 5:0.588589 6:-0.265455 7:-0.476395 8:-0.594255 9:0.117581 
-0 -0 -5.400252542876681 -0 1:0.192399 2:-0.118199 3:0.448544 4:0.410405 5:0.555556 6:-0.275152 7:-0.484979 8:-0.590664 9:0.0974244 
-0 -0 -0 -0.2677921103375881 1:0.239905 2:0.0300188 3:0.43301 4:0.049711 5:0.516517 6:-0.0133333 7:0.879828 8:-0.62298 9:0.399776 
-0.4424805264709379 -0 -0.6032786734455917 -0 1:-0.515439 2:0.420263 3:0.52233 4:-0.646243 5:0.918919 6:-0.0933333 7:-0.390558 8:0.72711 9:0.357223 
-0.6444165829369494 -0 -0 -0 1:-0.330166 2:0.403377 3:0.67767 4:-1 5:0.18018 6:0.185455 7:0.193133 8:0.917415 9:0.283315 
-0 -0.04709486074062007 -0 -0 1:-0.695962 2:0.136961 3:0.483495 4:-0.715607 5:-0.177177 6:-0.243636 7:-0.484979 8:-0.684022 9:-0.0324748 
-0 -1.761504197678563 -0 -0 1:-0.700713 2:0.131332 3:0.475728 4:-0.717919 5:-0.18018 6:-0.250909 7:-0.493562 8:-0.694794 9:-0.0347144 
-6.770714351178071 -0 -0 -0 1:-0.306413 2:0.27955 3:0.0796117 4:-0.482081 5:0.231231 6:-0.350303 7:0.11588 8:0.238779 9:-0.729003 
-0 -0 -30.11785920720763 -0 1:-0.444181 2:-0.0337711 3:-0.673786 4:-0.558382 5:0.189189 6:-0.854545 7:-0.321888 8:-0.199282 9:-0.961926 
-0 -0 -0 -14.23258240198581 1:-0.178147 2:0.624765 3:0.0213592 4:-0.269364 5:-0.027027 6:-0.294545 7:-0.0472103 8:0.411131 9:-0.178052 
-0 -10.64690607888683 -0 -0 1:-0.178147 2:0.624765 3:0.0213592 4:-0.267052 5:-0.027027 6:-0.289697 7:-0.0472103 8:0.414722 9:-0.178052 
-0 -0 -9.205749149590027 -0 1:0.140143 2:-0.330206 3:-0.133981 4:0.0473988 5:-0.486486 6:-0.677576 7:-0.227468 8:-0.626571 9:-0.346025 
-0 -0 -0 -16.76640765963932 1:0.159145 2:0.0469043 3:0.425243 4:0.320231 5:0.471471 6:-0.243636 7:-0.450644 8:-0.493716 9:0.113102 
-0 -0 -5.130890116823542 -0 1:0.154394 3:0.495146 4:0.324855 5:0.486486 6:-0.212121 7:-0.424893 8:-0.493716 9:0.146697 
-0 -3.477050193848733 -0 -0 1:0.163895 2:0.0600375 3:0.464078 4:0.334104 5:0.483483 6:-0.2 7:-0.390558 8:-0.432675 9:0.146697 
-0 -0.5557117071379845 -0 -0 1:0.410926 2:-0.0168856 3:0.638835 4:0.0427746 5:0.591592 6:0.0836364 7:0.905579 8:-0.572711 9:0.460246 
-0 -0 -0 -0.4784933445628355 1:0.391924 3:0.619417 4:0.0381503 5:0.57958 6:0.0715152 7:0.905579 8:-0.56912 9:0.451288 
-0 -0 -0 -4.153205171608822 1:-0.515439 2:0.19137 3:0.526214 4:-0.731792 5:-0.15015 6:-0.190303 7:-0.330472 8:-0.630162 9:0.0235162 
