svm_type c_svc
kernel_type rbf
gamma 0.5
nr_class 7
total_sv 519
rho 0.527776 0.827225 -0.00424196 0.187309 0.398156 0.458985 -0.0202842 -0.00295696 -0.377079 -0.341365 0.0161027 -0.228841 -0.280323 -0.358829 -0.0501717 -0.708831 0.105679 0.486013 0.234242 0.927713 -0.549096
label 0 1 3 5 6 8 9
nr_sv 98 67 63 94 73 60 64
SV
0 0 0 0 0.1573489562127386 0 1:0.490196 2:0.135659 3:-0.275974 4:0.204204 5:0.197708 6:-0.276297 7:-0.203791 8:-0.35514 9:-0.102459 
0 0 2 0 0 0 1:0.470588 2:0.0968992 3:-0.279221 4:0.201201 5:0.197708 6:-0.290323 7:-0.21327 8:-0.359813 9:-0.110656 
0 0 1.251881989507786 0 0 0 1:0.470588 2:0.0968992 3:-0.282468 4:0.189189 5:0.191977 6:-0.290323 7:-0.21327 8:-0.369159 9:-0.114754 
0 0 2 0 0 0 1:0.470588 2:0.104651 3:-0.275974 4:0.174174 5:0.197708 6:-0.287518 7:-0.21327 8:-0.35514 9:-0.118852 
0 0 2 2 0 0 1:0.460784 2:0.100775 3:-0.288961 4:0.171171 5:0.197708 6:-0.287518 7:-0.21327 8:-0.359813 9:-0.122951 
0 0 2 0 0 0 1:0.455882 2:0.0968992 3:-0.288961 4:0.171171 5:0.186246 6:-0.287518 7:-0.21327 8:-0.359813 9:-0.122951 
0 0 2 0 0 0 1:0.45098 2:0.0968992 3:-0.288961 4:0.15015 5:0.186246 6:-0.287518 7:-0.21327 8:-0.359813 9:-0.122951 
0 0 2 0 0 0 1:0.436275 2:0.0968992 3:-0.288961 4:0.147147 5:0.180516 6:-0.287518 7:-0.21327 8:-0.359813 9:-0.122951 
0 0 2 0 0 0 1:0.436275 2:0.0968992 3:-0.282468 4:0.147147 5:0.186246 6:-0.287518 7:-0.21327 8:-0.359813 9:-0.122951 
0 0 0 0.1312112548637826 0 0 1:0.441176 2:0.0930233 3:-0.279221 4:0.132132 5:0.197708 6:-0.281907 7:-0.203791 8:-0.359813 9:-0.118852 
0 0 0 0 2 0 1:0.446078 2:0.0891473 3:-0.279221 4:0.126126 5:0.180516 6:-0.276297 7:-0.21327 8:-0.364486 9:-0.114754 
0 0 0 0 0.360121600333381 0 1:0.446078 2:0.0891473 3:-0.279221 4:0.12012 5:0.180516 6:-0.284712 7:-0.21327 8:-0.369159 9:-0.114754 
0 0 0 0 0 2 1:0.401961 2:0.0968992 3:-0.279221 4:0.0870871 5:0.180516 6:-0.270687 7:-0.194313 8:-0.383178 9:-0.114754 
0 0 0 0 0 2 1:0.392157 2:0.0852713 3:-0.269481 4:0.0750751 5:0.174785 6:-0.262272 7:-0.203791 8:-0.383178 9:-0.118852 
0 0 0 0 0 1.057425381965506 1:0.392157 2:0.0852713 3:-0.269481 4:0.0750751 5:0.174785 6:-0.262272 7:-0.203791 8:-0.383178 9:-0.114754 
0 0 2 0 0 0 1:0.328431 3:-0.311688 4:0.144144 5:0.123209 6:-0.307153 7:-0.014218 8:-0.485981 9:-0.0163934 
0 0 0 0 2 0 1:0.328431 2:0.0387597 3:-0.305195 4:0.153153 5:0.12894 6:-0.307153 7:0.014218 8:-0.485981 9:0.00409836 
0 0 0 0 0.940944548274819 0 1:0.27451 3:-0.318182 4:0.105105 5:0.106017 6:-0.318373 7:-0.0331754 8:-0.481308 
0 2 0 0 0 0 1:0.465686 2:0.317829 3:-0.188312 4:0.405405 5:0.369628 6:-0.141655 7:0.146919 8:-0.537383 9:0.114754 
1.53342114263347 2 0 0 0 0 1:0.480392 2:0.317829 3:-0.188312 4:0.405405 5:0.369628 6:-0.141655 7:0.146919 8:-0.537383 9:0.114754 
0 2 0 0 0 0 1:0.485294 2:0.317829 3:-0.188312 4:0.405405 5:0.375358 6:-0.141655 7:0.146919 8:-0.53271 9:0.114754 
0 2 0 0 0 0 1:0.485294 2:0.317829 3:-0.188312 4:0.405405 5:0.375358 6:-0.141655 7:0.146919 8:-0.528037 9:0.114754 
0 2 0 0 0 0 1:0.465686 2:0.306202 3:-0.201299 4:0.399399 5:0.358166 6:-0.152875 7:0.127962 8:-0.53271 9:0.102459 
0 1.555592063182157 0 0 0 0 1:0.465686 2:0.29845 3:-0.204545 4:0.393393 5:0.352436 6:-0.158485 7:0.127962 8:-0.53271 9:0.102459 
0 2 0 0 0 0 1:0.465686 2:0.29845 3:-0.204545 4:0.393393 5:0.352436 6:-0.158485 7:0.137441 8:-0.53271 9:0.102459 
0 2 0 0 0 0 1:0.455882 2:0.286822 3:-0.220779 4:0.36036 5:0.346705 6:-0.1669 7:0.184834 8:-0.509346 9:0.0901639 
0 2 0 0 0 0 1:0.465686 2:0.290698 3:-0.217532 4:0.36036 5:0.346705 6:-0.1669 7:0.184834 8:-0.509346 9:0.0942623 
2 0 0 0 0 0 1:0.465686 2:0.205426 3:-0.292208 4:0.336336 5:0.260745 6:-0.225806 7:0.014218 8:-0.528037 9:0.0860656 
2 0 0 0 0 0 1:0.465686 2:0.205426 3:-0.292208 4:0.336336 5:0.260745 6:-0.225806 7:0.014218 8:-0.528037 9:0.0860656 
0.2354868732125292 0 0 0 0 0 1:0.465686 2:0.205426 3:-0.292208 4:0.336336 5:0.260745 6:-0.223001 7:0.014218 8:-0.528037 9:0.0860656 
1.834303542908316 0 0 0 0 0 1:0.465686 2:0.205426 3:-0.292208 4:0.336336 5:0.260745 6:-0.223001 7:0.014218 8:-0.528037 9:0.0860656 
0 0 2 0 0 0 1:0.00490196 2:-0.131783 3:-0.324675 4:-0.183183 5:0.100287 6:-0.346424 7:-0.345972 8:-0.378505 9:-0.188525 
0 0 2 0 0 0 1:0.00490196 2:-0.131783 3:-0.324675 4:-0.183183 5:0.100287 6:-0.346424 7:-0.345972 8:-0.378505 9:-0.188525 
0 0 2 0 0 0 1:0.00490196 2:-0.131783 3:-0.324675 4:-0.183183 5:0.100287 6:-0.346424 7:-0.345972 8:-0.378505 9:-0.188525 
0 0 0 2 0 0 1:-0.0245098 2:-0.112403 3:-0.311688 4:-0.258258 5:0.100287 6:-0.326788 7:-0.317536 8:-0.38785 9:-0.192623 
0 0 0 2 0 0 1:-0.0196078 2:-0.112403 3:-0.308442 4:-0.258258 5:0.100287 6:-0.323983 7:-0.317536 8:-0.383178 9:-0.192623 
0 0 0 2 0 0 1:-0.0147059 2:-0.112403 3:-0.308442 4:-0.258258 5:0.100287 6:-0.323983 7:-0.317536 8:-0.383178 9:-0.192623 
0 0 0 2 0 0 1:0.00490196 2:-0.100775 3:-0.305195 4:-0.255255 5:0.106017 6:-0.321178 7:-0.35545 8:-0.383178 9:-0.196721 
0 0 0 0.006971008759488152 0 0 1:0.00490196 2:-0.100775 3:-0.305195 4:-0.255255 5:0.106017 6:-0.321178 7:-0.35545 8:-0.38785 9:-0.196721 
0 0 1.513097769562845 0 0 0 1:-0.122549 2:-0.205426 3:-0.376623 4:-0.123123 5:0.117479 6:-0.357644 7:-0.0331754 8:-0.53271 9:-0.0368852 
0 0 0 0.4606810844704598 0 0 1:0.397059 2:0.236434 3:-0.237013 4:0.264264 5:0.329513 6:-0.189341 7:0.21327 8:-0.5 9:0.0778689 
0 0 0 0 2 0 1:0.372549 2:0.228682 3:-0.253247 4:0.252252 5:0.30659 6:-0.194951 7:0.21327 8:-0.509346 9:0.0778689 
0 0 0 0 2 0 1:0.372549 2:0.228682 3:-0.253247 4:0.252252 5:0.30659 6:-0.194951 7:0.21327 8:-0.504673 9:0.0778689 
0 0 1.601376893088338 0 0.4982823312170192 0 1:0.372549 2:0.228682 3:-0.253247 4:0.252252 5:0.312321 6:-0.194951 7:0.21327 8:-0.504673 9:0.0778689 
0 0 0 0 2 0 1:0.318627 2:0.193798 3:-0.256494 4:0.18018 5:0.312321 6:-0.206171 7:0.222749 8:-0.5 9:0.0860656 
0 0 0 2 0 0 1:-0.0392157 2:-0.120155 3:-0.305195 4:-0.291291 5:0.0830946 6:-0.326788 7:-0.35545 8:-0.378505 9:-0.20082 
0 0 0 2 0 2 1:-0.102941 2:-0.131783 3:-0.305195 4:-0.342342 5:0.0716332 6:-0.340813 7:-0.345972 8:-0.38785 9:-0.204918 
0 0 0 2 0 2 1:-0.107843 2:-0.155039 3:-0.311688 4:-0.369369 5:0.0716332 6:-0.349229 7:-0.35545 8:-0.397196 9:-0.204918 
0 0 0 0 0 2 1:-0.235294 2:-0.251938 3:-0.324675 4:-0.459459 5:0.0200573 6:-0.360449 7:-0.412322 8:-0.378505 9:-0.229508 
0 0 0 2 0.05651934820408271 2 1:-0.235294 2:-0.255814 3:-0.324675 4:-0.468468 5:0.0200573 6:-0.374474 7:-0.412322 8:-0.378505 9:-0.229508 
0 0 0 0 0 2 1:-0.254902 2:-0.255814 3:-0.324675 4:-0.468468 5:0.0200573 6:-0.374474 7:-0.43128 8:-0.378505 9:-0.229508 
0 0 0 0 0 2 1:-0.254902 2:-0.255814 3:-0.324675 4:-0.468468 5:0.0200573 6:-0.374474 7:-0.43128 8:-0.378505 9:-0.229508 
0 0 0 0.8462343021741187 0 1.250404929870227 1:-0.254902 2:-0.255814 3:-0.324675 4:-0.468468 5:0.0200573 6:-0.374474 7:-0.43128 8:-0.378505 9:-0.233607 
0 0 2 0 1.604860981240909 0 1:-0.29902 2:-0.391473 3:-0.487013 4:-0.297297 5:-0.0315186 6:-0.481066 7:-0.165877 8:-0.570093 9:-0.155738 
0 0 0.5596007611042433 0 0 0 1:-0.29902 2:-0.391473 3:-0.487013 4:-0.303303 5:-0.0315186 6:-0.481066 7:-0.165877 8:-0.598131 9:-0.155738 
0 0 2 0 0 0 1:-0.406863 2:-0.437984 3:-0.487013 4:-0.345345 5:-0.0143266 6:-0.486676 7:-0.165877 8:-0.598131 9:-0.159836 
0 0 2 0 0 0 1:-0.406863 2:-0.437984 3:-0.487013 4:-0.345345 5:-0.00859599 6:-0.486676 7:-0.146919 8:-0.598131 9:-0.155738 
0 0 2 0 0 0 1:-0.416667 2:-0.44186 3:-0.49026 4:-0.351351 5:-0.00859599 6:-0.481066 7:-0.146919 8:-0.598131 9:-0.155738 
0 0 1.465721950862013 0 0 0 1:-0.421569 2:-0.449612 3:-0.49026 4:-0.357357 5:-0.00859599 6:-0.486676 7:-0.146919 8:-0.607477 9:-0.155738 
0 0 0 0.6277619076569754 0 0 1:-0.622549 2:-0.507752 3:-0.318182 4:-0.6997 5:-0.0372493 6:-0.503506 7:-0.507109 8:-0.331776 9:-0.266393 
0 0 0 0 0 2 1:0.0294118 2:0.139535 3:-0.181818 4:-0.0840841 5:0.318052 6:-0.15568 7:0.270142 8:-0.574766 9:0.0778689 
0 0 0 0 0 2 1:0.0245098 2:0.139535 3:-0.181818 4:-0.0930931 5:0.312321 6:-0.15568 7:0.270142 8:-0.574766 9:0.0778689 
0 0 0 0 0 2 1:0.00980392 2:0.131783 3:-0.178571 4:-0.0960961 5:0.312321 6:-0.15568 7:0.2891 8:-0.584112 9:0.0778689 
0 0 0 0 0 1.285807847214993 1:0.00980392 2:0.135659 3:-0.185065 4:-0.0900901 5:0.312321 6:-0.16129 7:0.2891 8:-0.579439 9:0.0942623 
0 0.5005961998969012 0 0 0 0 1:0.00980392 2:0.120155 3:-0.198052 4:-0.042042 5:0.329513 6:-0.1669 7:0.383886 8:-0.579439 9:0.131148 
0 0 0 0 1.653365884884863 0 1:0.0147059 2:0.108527 3:-0.224026 4:-0.0510511 5:0.323782 6:-0.183731 7:0.374408 8:-0.570093 9:0.122951 
0 0 0 0 0 1.642082783202687 1:-0.941176 2:-0.717054 3:-0.386364 4:-0.87988 5:-0.151862 6:-0.643759 7:-0.734597 8:-0.313084 9:-0.327869 
0 1.32102592718001 0 0 0.9442336144705218 0 1:-0.95098 2:-0.775194 3:-0.402597 4:-0.912913 5:-0.169054 6:-0.669004 7:-0.791469 8:-0.242991 9:-0.368852 
0 0 0.3473258880029766 0 0 0 1:-0.936275 2:-0.775194 3:-0.396104 4:-0.912913 5:-0.151862 6:-0.663394 7:-0.791469 8:-0.233645 9:-0.364754 
2 0 0 0 0 0 1:-0.838235 2:-0.755814 3:-0.383117 4:-0.888889 5:-0.151862 6:-0.657784 7:-0.772512 8:-0.228972 9:-0.360656 
2 0 0 0 0 0 1:-0.838235 2:-0.74031 3:-0.386364 4:-0.885886 5:-0.151862 6:-0.654979 7:-0.772512 8:-0.233645 9:-0.360656 
1.698219192393733 0 0 0 0 0 1:-0.838235 2:-0.744186 3:-0.386364 4:-0.891892 5:-0.151862 6:-0.654979 7:-0.772512 8:-0.233645 9:-0.364754 
2 0 0.008905384910106595 0 0 0 1:-0.79902 2:-0.713178 3:-0.366883 4:-0.864865 5:-0.140401 6:-0.640954 7:-0.763033 8:-0.219626 9:-0.360656 
0 0 0 1.59384433429101 0 0 1:-0.838235 2:-0.717054 3:-0.373377 4:-0.894895 5:-0.140401 6:-0.646564 7:-0.734597 8:-0.233645 9:-0.352459 
2 0 0 0 0 0 1:-0.759804 2:-0.767442 3:-0.577922 4:-0.561562 5:-0.0659026 6:-0.638149 7:-0.364929 8:-0.588785 9:-0.20082 
2 0 0 0 0 0 1:-0.769608 2:-0.771318 3:-0.584416 4:-0.561562 5:-0.0659026 6:-0.649369 7:-0.364929 8:-0.593458 9:-0.204918 
2 0 0 0 0 0 1:-0.769608 2:-0.771318 3:-0.584416 4:-0.561562 5:-0.0830946 6:-0.649369 7:-0.364929 8:-0.607477 9:-0.209016 
1.100290832918758 0 0 0 0 0 1:-0.79902 2:-0.786822 3:-0.594156 4:-0.561562 5:-0.0601719 6:-0.652174 7:-0.364929 8:-0.61215 9:-0.209016 
0 0.5249628291660753 0 0 0 0 1:-1 2:-0.841085 3:-0.613636 4:-0.678679 5:-0.0601719 6:-0.654979 7:-0.393365 8:-0.64486 9:-0.258197 
1.970850437584324 0 0 0 0 0 1:-0.877451 2:-0.829457 3:-0.62013 4:-0.63964 5:-0.111748 6:-0.680224 7:-0.459716 8:-0.621495 9:-0.270492 
2 0 0 0 0 0 1:-0.867647 2:-0.829457 3:-0.623377 4:-0.627628 5:-0.106017 6:-0.680224 7:-0.450237 8:-0.630841 9:-0.270492 
0 0 0 0 0.001662381189565935 0 1:-0.181373 2:-0.0930233 3:-0.402597 4:-0.123123 5:0.30086 6:-0.338008 7:0.393365 8:-0.621495 9:0.188525 
2 0 0 0 0 0 1:-0.166667 2:-0.0813953 3:-0.396104 4:-0.114114 5:0.329513 6:-0.343619 7:0.421801 8:-0.621495 9:0.196721 
2 0 0 0 0 0 1:-0.161765 2:-0.0775194 3:-0.396104 4:-0.105105 5:0.329513 6:-0.338008 7:0.421801 8:-0.621495 9:0.196721 
2 0 0 0 0 0 1:-0.156863 2:-0.0697674 3:-0.392857 4:-0.105105 5:0.340974 6:-0.338008 7:0.421801 8:-0.621495 9:0.204918 
2 0 1.3679398170302 0.6667497679817946 0 0 1:-0.147059 2:-0.0658915 3:-0.392857 4:-0.105105 5:0.346705 6:-0.338008 7:0.421801 8:-0.616822 9:0.196721 
2 0 2 1.520639350649615 0 0 1:-0.147059 2:-0.0658915 3:-0.392857 4:-0.105105 5:0.346705 6:-0.338008 7:0.421801 8:-0.616822 9:0.196721 
2 0 0 0 0 0 1:-0.147059 2:-0.0658915 3:-0.392857 4:-0.105105 5:0.346705 6:-0.338008 7:0.412322 8:-0.616822 9:0.196721 
2 0 0 0 0 0 1:-0.147059 2:-0.0658915 3:-0.392857 4:-0.111111 5:0.346705 6:-0.340813 7:0.412322 8:-0.616822 9:0.196721 
0.1469323164332449 0 0 0 0 0 1:-0.122549 2:-0.0658915 3:-0.392857 4:-0.117117 5:0.346705 6:-0.343619 7:0.393365 8:-0.61215 9:0.196721 
2 0 0 0 0 0 1:-0.117647 2:-0.0620155 3:-0.37987 4:-0.111111 5:0.346705 6:-0.340813 7:0.393365 8:-0.61215 9:0.20082 
2 0 0 0 0 0 1:-0.117647 2:-0.0620155 3:-0.37987 4:-0.105105 5:0.346705 6:-0.340813 7:0.402844 8:-0.61215 9:0.204918 
2 0 0 0 0 0 1:-0.117647 2:-0.0620155 3:-0.37987 4:-0.105105 5:0.352436 6:-0.340813 7:0.402844 8:-0.61215 9:0.209016 
2 0 0 0 0 0 1:-0.137255 2:-0.0658915 3:-0.37987 4:-0.105105 5:0.346705 6:-0.340813 7:0.402844 8:-0.626168 9:0.213115 
2 0 0 0 0 0 1:-0.161765 2:-0.0658915 3:-0.392857 4:-0.108108 5:0.346705 6:-0.340813 7:0.402844 8:-0.630841 9:0.209016 
2 0 0 0 0 0 1:-0.161765 2:-0.0658915 3:-0.392857 4:-0.108108 5:0.329513 6:-0.340813 7:0.383886 8:-0.630841 9:0.209016 
2 0 0 0 0 0 1:-0.161765 2:-0.0658915 3:-0.392857 4:-0.117117 5:0.329513 6:-0.343619 7:0.383886 8:-0.630841 9:0.209016 
2 0 0 0 0 0 1:-0.161765 2:-0.0658915 3:-0.392857 4:-0.114114 5:0.329513 6:-0.340813 7:0.383886 8:-0.626168 9:0.209016 
-0 0 1.495394896591676 0 0 0 1:-0.171569 2:-0.368217 3:-0.525974 4:-0.237237 5:-0.0945559 6:-0.69425 7:-0.421801 8:-0.182243 9:-0.106557 
-0 0.8056492848121178 2 2 0 0 1:-0.171569 2:-0.368217 3:-0.522727 4:-0.237237 5:-0.0945559 6:-0.68864 7:-0.412322 8:-0.182243 9:-0.102459 
-0 0 2 1.56124885432736 2 0 1:-0.171569 2:-0.368217 3:-0.522727 4:-0.237237 5:-0.0945559 6:-0.68864 7:-0.402844 8:-0.182243 9:-0.0983607 
-0 0 0 0 1.561259348989899 0 1:-0.171569 2:-0.368217 3:-0.522727 4:-0.237237 5:-0.0945559 6:-0.68864 7:-0.402844 8:-0.182243 9:-0.0942623 
-0 0 2 2 0 0 1:-0.171569 2:-0.368217 3:-0.519481 4:-0.237237 5:-0.0888252 6:-0.68864 7:-0.402844 8:-0.182243 9:-0.0942623 
-2 0 0 0 0 0 1:-0.210784 2:-0.395349 3:-0.516234 4:-0.282282 5:-0.0945559 6:-0.674614 7:-0.402844 8:-0.182243 9:-0.0983607 
-2 0 0 0 0 0 1:-0.240196 2:-0.399225 3:-0.506494 4:-0.285285 5:-0.0888252 6:-0.697055 7:-0.421801 8:-0.196262 9:-0.102459 
-1.067341203805256 0 0 0 0 0 1:-0.210784 2:-0.399225 3:-0.496753 4:-0.285285 5:-0.0888252 6:-0.697055 7:-0.421801 8:-0.191589 9:-0.102459 
-0 0 0 0 0 1.287698974842945 1:-0.205882 2:-0.395349 3:-0.49026 4:-0.306306 5:-0.100287 6:-0.702665 7:-0.450237 8:-0.186916 9:-0.118852 
-0 0 0 0 0 2 1:-0.220588 2:-0.410853 3:-0.493506 4:-0.348348 5:-0.106017 6:-0.71108 7:-0.450237 8:-0.191589 9:-0.118852 
-0 0 0 1.562824888863525 0 0 1:-0.328431 2:-0.368217 3:-0.623377 4:-0.411411 5:0.0372493 6:-0.817672 7:-0.21327 8:-0.495327 9:-0.0819672 
-0 2 0 0 0 0 1:0.431373 2:0.104651 3:-0.409091 4:0.489489 5:0.151862 6:-0.402525 7:0.279621 8:-0.747664 9:0.057377 
-0 2 0 0 0 0 1:0.436275 2:0.104651 3:-0.405844 4:0.489489 5:0.163324 6:-0.402525 7:0.2891 8:-0.747664 9:0.057377 
-0 0.8289083378891465 0 0 0 0 1:0.431373 2:0.108527 3:-0.409091 4:0.489489 5:0.151862 6:-0.402525 7:0.2891 8:-0.742991 9:0.057377 
-0.6061695515341449 0 0 0 0 0 1:0.416667 2:0.100775 3:-0.412338 4:0.42042 5:0.0888252 6:-0.41655 7:0.222749 8:-0.766355 9:0.0204918 
-0 0 0.4356328915392518 0 0 0 1:0.416667 2:0.100775 3:-0.412338 4:0.42042 5:0.0888252 6:-0.42216 7:0.222749 8:-0.766355 9:0.0163934 
-0 0 2 0 0 0 1:0.416667 2:0.100775 3:-0.412338 4:0.42042 5:0.0830946 6:-0.42216 7:0.222749 8:-0.766355 9:0.0122951 
-0 0 2 0 0 0 1:0.416667 2:0.100775 3:-0.412338 4:0.42042 5:0.0830946 6:-0.42216 7:0.222749 8:-0.766355 9:0.0122951 
-2 0 2 1.129105313232272 1.905095891759424 1.562303594350549 1:0.416667 2:0.100775 3:-0.412338 4:0.417417 5:0.0830946 6:-0.42216 7:0.222749 8:-0.766355 9:0.0122951 
-2 0 2 0 0 0 1:0.416667 2:0.100775 3:-0.412338 4:0.42042 5:0.0830946 6:-0.41655 7:0.222749 8:-0.766355 9:0.0163934 
-0 2 0.03845212447173504 0 0 0.7785127489709192 1:0.647059 2:0.387597 3:-0.295455 4:0.726727 5:0.679083 6:-0.136045 7:0.867299 8:-0.420561 9:0.422131 
-0 2 0 0 0 0 1:0.583333 2:0.325581 3:-0.308442 4:0.654655 5:0.65616 6:-0.15568 7:0.876777 8:-0.420561 9:0.413934 
-0 2 0 0 0 0 1:0.583333 2:0.317829 3:-0.318182 4:0.648649 5:0.621777 6:-0.172511 7:0.848341 8:-0.420561 9:0.409836 
-0 2 0 0 0 0 1:0.558824 2:0.306202 3:-0.318182 4:0.645646 5:0.616046 6:-0.172511 7:0.848341 8:-0.429907 9:0.409836 
-0 2 0 0 0 0 1:0.558824 2:0.294574 3:-0.321429 4:0.612613 5:0.610315 6:-0.172511 7:0.819905 8:-0.429907 9:0.405738 
-0 2 0 0 0 0 1:0.54902 2:0.294574 3:-0.324675 4:0.594595 5:0.610315 6:-0.175316 7:0.819905 8:-0.434579 9:0.397541 
-0 2 0 0 0 0 1:0.54902 2:0.306202 3:-0.318182 4:0.594595 5:0.610315 6:-0.172511 7:0.819905 8:-0.429907 9:0.405738 
-0 1.237411276680352 0 0 0 0 1:0.54902 2:0.306202 3:-0.318182 4:0.594595 5:0.616046 6:-0.172511 7:0.848341 8:-0.429907 9:0.405738 
-0 0 0.09883129041823081 0 0 0 1:0.465686 2:0.282946 3:-0.340909 4:0.486486 5:0.56447 6:-0.200561 7:0.781991 8:-0.439252 9:0.364754 
-0 0 0 0 0.1897060088448373 0 1:0.455882 2:0.267442 3:-0.331169 4:0.465465 5:0.541547 6:-0.189341 7:0.763033 8:-0.448598 9:0.364754 
-0 0 0 0 2 0 1:0.45098 2:0.267442 3:-0.337662 4:0.456456 5:0.541547 6:-0.194951 7:0.71564 8:-0.462617 9:0.356557 
-0 0 0.4805053420472562 0 0 0 1:-0.436275 2:-0.496124 3:-0.62013 4:-0.531532 5:0.0716332 6:-0.837307 7:-0.279621 8:-0.5 9:-0.127049 
-2 0 0 0 0 0 1:-0.455882 2:-0.496124 3:-0.62013 4:-0.531532 5:0.0716332 6:-0.837307 7:-0.279621 8:-0.5 9:-0.127049 
-1.587275476557569 0 0 0 0 0 1:-0.495098 2:-0.503876 3:-0.62013 4:-0.54955 5:0.0716332 6:-0.851332 7:-0.298578 8:-0.504673 9:-0.127049 
-2 0 0 0 0 0 1:-0.495098 2:-0.503876 3:-0.616883 4:-0.54955 5:0.0716332 6:-0.848527 7:-0.298578 8:-0.504673 9:-0.127049 
-0 0 0 0 0 1.043417726932331 1:-0.455882 2:-0.503876 3:-0.603896 4:-0.552553 5:0.0773639 6:-0.851332 7:-0.298578 8:-0.5 9:-0.122951 
-0 0 0 0 1.768647849375476 0 1:0.235294 2:0.0155039 3:-0.451299 4:0.27027 5:0.00286533 6:-0.45021 7:0.260664 8:-0.831776 9:-0.00409836 
-0 0 0 0 1.084423080389384 0 1:0.254902 2:0.20155 3:-0.366883 4:0.27027 5:0.461318 6:-0.253857 7:0.601896 8:-0.560748 9:0.352459 
-0 0 0 1.338707831365949 0 0 1:0.254902 2:0.20155 3:-0.37013 4:0.27027 5:0.461318 6:-0.259467 7:0.592417 8:-0.570093 9:0.344262 
-0 0 0 0 0.7246587625557048 0 1:0.215686 2:0.0310078 3:-0.438312 4:0.207207 5:0.0659026 6:-0.441795 7:0.383886 8:-0.799065 9:0.0737705 
-0.07164664785599847 0 0 0 0 0 1:-0.759804 2:-0.965116 3:-0.594156 4:-0.825826 5:-0.237822 6:-0.938289 7:-0.810427 8:-0.0607477 9:-0.372951 
-2 0 0 0 0 0 1:-0.764706 2:-0.968992 3:-0.590909 4:-0.828829 5:-0.191977 6:-0.924264 7:-0.772512 8:-0.0514019 9:-0.364754 
-2 0 0 0 0 0 1:-0.691176 2:-0.825581 3:-0.61039 4:-0.792793 5:0.0200573 6:-0.904628 7:-0.516588 8:-0.462617 9:-0.25 
-0.05202068738930541 0 0 0 0 0 1:-0.691176 2:-0.848837 3:-0.61039 4:-0.792793 5:0.0143266 6:-0.904628 7:-0.516588 8:-0.462617 9:-0.25 
-2 0 0 0 0 0 1:-0.715686 2:-0.848837 3:-0.61039 4:-0.792793 5:0.0143266 6:-0.904628 7:-0.516588 8:-0.46729 9:-0.25 
-2 0 0 0 0 0 1:-0.715686 2:-0.848837 3:-0.61039 4:-0.792793 5:0.00859599 6:-0.904628 7:-0.526066 8:-0.46729 9:-0.25 
-2 0 0 0 0 0 1:-0.715686 2:-0.848837 3:-0.61039 4:-0.792793 5:0.00859599 6:-0.907433 7:-0.526066 8:-0.471963 9:-0.25 
-2 0 0 0 0 0 1:-0.691176 2:-0.848837 3:-0.61039 4:-0.792793 5:0.0143266 6:-0.904628 7:-0.526066 8:-0.471963 9:-0.25 
-1.301061244747277 0 0 0 0 0 1:-0.0392157 2:-0.100775 3:-0.461039 4:0.0690691 5:0.0429799 6:-0.514727 7:0.364929 8:-0.915888 9:0.0901639 
-2 0 0 0 0 0 1:-0.0441176 2:-0.108527 3:-0.464286 4:0.0660661 5:0.0372493 6:-0.514727 7:0.345972 8:-0.915888 9:0.0901639 
-0 0 0 0.6939537819358058 0 0 1:0.0490196 2:0.104651 3:-0.38961 4:0.12012 5:0.484241 6:-0.329593 7:0.592417 8:-0.630841 9:0.409836 
-0 0.6873327457644179 0.921477165836561 0 0 0.291914081146824 1:-0.642157 2:-0.992248 3:-0.584416 4:-0.924925 5:-0.30086 6:-0.980365 7:-0.981043 8:0.0607477 9:-0.516393 
-0 0 0 0.721875153024549 0 0 1:-0.617647 2:-0.984496 3:-0.561688 4:-0.924925 5:-0.249284 6:-0.963534 7:-0.914692 8:0.0794393 9:-0.483607 
-0 0 0 0 0 0.2207181422304759 1:-0.588235 2:-0.868217 3:-0.542208 4:-0.840841 5:0.00286533 6:-0.890603 7:-0.63981 8:-0.392523 9:-0.348361 
-2 0 0 0 0 0.6617990464036145 1:-0.0343137 2:0.0426357 3:-0.396104 4:0.0750751 5:0.438395 6:-0.329593 7:0.535545 8:-0.686916 9:0.385246 
-2 0 0 0 0 0 1:-0.0343137 2:0.0426357 3:-0.396104 4:0.0750751 5:0.438395 6:-0.329593 7:0.535545 8:-0.686916 9:0.389344 
-2 0 0 0 0 0 1:-0.0343137 2:0.0426357 3:-0.396104 4:0.0750751 5:0.438395 6:-0.329593 7:0.535545 8:-0.686916 9:0.389344 
-1.833989526194823 0 0 0 0 0 1:-0.0343137 2:0.0426357 3:-0.396104 4:0.0750751 5:0.438395 6:-0.329593 7:0.535545 8:-0.686916 9:0.393443 
-2 0 0 0 0 0 1:-0.0343137 2:0.0426357 3:-0.396104 4:0.0750751 5:0.438395 6:-0.329593 7:0.535545 8:-0.682243 9:0.393443 
-2 0 0 0 0 0 1:-0.0637255 2:0.00387597 3:-0.405844 4:0.0630631 5:0.421203 6:-0.346424 7:0.526066 8:-0.682243 9:0.393443 
-2 0 0 0 0 0 1:-0.0686275 2:-0.00387597 3:-0.405844 4:0.0570571 5:0.421203 6:-0.349229 7:0.526066 8:-0.686916 9:0.393443 
-2 0 0.6986006441770913 0 0 0.8775367965995156 1:-0.0833333 2:-0.00387597 3:-0.409091 4:0.0570571 5:0.421203 6:-0.349229 7:0.49763 8:-0.686916 9:0.393443 
-2 0 0 0 0 0 1:-0.0833333 2:-0.0116279 3:-0.409091 4:0.0540541 5:0.421203 6:-0.354839 7:0.49763 8:-0.700935 9:0.393443 
-2 0 0 0 0 0 1:-0.0686275 2:-0.00387597 3:-0.405844 4:0.0570571 5:0.421203 6:-0.349229 7:0.526066 8:-0.686916 9:0.393443 
-2 0 0 0 0 0 1:-0.102941 2:-0.0232558 3:-0.415584 4:0.0540541 5:0.398281 6:-0.357644 7:0.488152 8:-0.728972 9:0.385246 
-2 0 0 0 0 0 1:-0.112745 2:-0.0232558 3:-0.448052 4:0.039039 5:0.398281 6:-0.371669 7:0.488152 8:-0.728972 9:0.385246 
-2 0 0 0 0 0 1:-0.117647 2:-0.0465116 3:-0.451299 4:0.039039 5:0.39255 6:-0.374474 7:0.478673 8:-0.761682 9:0.377049 
-0 -2 2 2 0 0 1:0.509804 2:0.170543 3:-0.467532 4:0.399399 5:0.232092 6:-0.259467 7:-0.0236967 8:0.088785 9:0.184426 
-0 -1.647248414151511 2 1.394640079653093 0 1.235728937642014 1:0.52451 2:0.170543 3:-0.467532 4:0.399399 5:0.237822 6:-0.256662 7:-0.0236967 8:0.088785 9:0.184426 
-2 -0 0.8348429922466216 0 0 0 1:0.5 2:0.205426 3:-0.474026 4:0.396396 5:0.191977 6:-0.231417 7:-0.042654 8:0.0700935 9:0.17623 
-2 -0 2 0 0 0 1:0.5 2:0.205426 3:-0.474026 4:0.396396 5:0.191977 6:-0.231417 7:-0.042654 8:0.0700935 9:0.17623 
-1.37504570429476 -0 0 0 0 0 1:0.509804 2:0.228682 3:-0.461039 4:0.393393 5:0.186246 6:-0.225806 7:-0.042654 8:0.0700935 9:0.17623 
-2 -0 0 0 0 0 1:0.509804 2:0.228682 3:-0.461039 4:0.393393 5:0.186246 6:-0.225806 7:-0.042654 8:0.0700935 9:0.17623 
-0 -2 0 0 0 0 1:0.794118 2:0.313953 3:-0.13961 4:0.780781 5:0.56447 6:-0.12202 7:0.763033 8:-0.537383 9:0.385246 
-0 -2 0 0 0 0 1:0.75 2:0.313953 3:-0.162338 4:0.780781 5:0.553009 6:-0.12202 7:0.71564 8:-0.537383 9:0.364754 
-0 -2 0 0 0 0 1:0.75 2:0.29845 3:-0.162338 4:0.768769 5:0.553009 6:-0.141655 7:0.696682 8:-0.537383 9:0.356557 
-0 -2 0 0 0 0 1:0.730392 2:0.29845 3:-0.162338 4:0.75976 5:0.530086 6:-0.141655 7:0.687204 8:-0.537383 9:0.356557 
-0 -2 0 0 0 0 1:0.705882 2:0.352713 3:-0.103896 4:0.72973 5:0.518625 6:-0.102384 7:0.668246 8:-0.537383 9:0.348361 
-0 -2 0 0 0 0 1:0.705882 2:0.352713 3:-0.103896 4:0.72973 5:0.518625 6:-0.0911641 7:0.668246 8:-0.53271 9:0.348361 
-0 -2 0 0 0 0 1:0.710784 2:0.352713 3:-0.103896 4:0.72973 5:0.524355 6:-0.0967742 7:0.668246 8:-0.537383 9:0.348361 
-0 -0.7202011922589462 0 0 0 0 1:0.705882 2:0.352713 3:-0.103896 4:0.72973 5:0.524355 6:-0.0967742 7:0.658768 8:-0.537383 9:0.344262 
-0 -1.057553099531996 1.322815004620945 0 0 0 1:0.691176 2:0.337209 3:-0.103896 4:0.693694 5:0.501433 6:-0.0967742 7:0.620853 8:-0.556075 9:0.327869 
-0 -0 0 0 2 0 1:0.632353 2:0.348837 3:-0.00649351 4:0.624625 5:0.495702 6:-0.0210379 7:0.582938 8:-0.570093 9:0.348361 
-0 -0 0 0 1.329131251540006 0 1:0.642157 2:0.372093 4:0.630631 5:0.507163 6:-0.00140252 7:0.592417 8:-0.565421 9:0.360656 
-1.542182799378936 -0 0 0 0 0 1:0.588235 2:0.352713 3:-0.012987 4:0.597598 5:0.461318 6:-0.0210379 7:0.478673 8:-0.593458 9:0.360656 
-2 -0 0 0 0 0 1:0.583333 2:0.352713 3:-0.0227273 4:0.597598 5:0.449857 6:-0.029453 7:0.478673 8:-0.598131 9:0.360656 
-2 -0 0 0 0 0 1:0.583333 2:0.348837 3:-0.0227273 4:0.597598 5:0.432665 6:-0.0322581 7:0.440758 8:-0.598131 9:0.348361 
-2 -0 0 0 0 0 1:0.573529 2:0.341085 3:-0.025974 4:0.597598 5:0.415473 6:-0.0322581 7:0.43128 8:-0.598131 9:0.344262 
-0 -0 0 0 0 0.3006987544440454 1:1 2:0.620155 3:0.172078 4:1 5:0.575931 6:0.301543 7:0.620853 8:-0.406542 9:0.27459 
-0 -0.4056436058110786 0 0 0 0 1:0.745098 2:0.620155 3:0.0714286 4:0.903904 5:0.833811 6:0.223001 7:0.952607 8:-0.130841 9:0.545082 
-0 -0 0 0 0 0.505641991203181 1:0.754902 2:0.624031 3:0.0584416 4:0.882883 5:0.816619 6:0.208976 7:0.886256 8:-0.0794393 9:0.495902 
-0 -0 0 0 0.8627713170231536 0 1:0.740196 2:0.624031 3:0.0649351 4:0.861862 5:0.805158 6:0.214586 7:0.895735 8:-0.0794393 9:0.504098 
-0 -0 0 0 0.3012486302637495 2 1:0.460784 2:0.267442 3:-0.438312 4:0.354354 5:0.146132 6:-0.130435 7:-0.0236967 8:0.0981308 9:0.159836 
-0 -0 0 0 0 0.6089078164180716 1:0.460784 2:0.263566 3:-0.438312 4:0.354354 5:0.146132 6:-0.130435 7:-0.0236967 8:0.088785 9:0.159836 
-0 -0 0 0 0 2 1:0.460784 2:0.263566 3:-0.438312 4:0.354354 5:0.146132 6:-0.130435 7:-0.0236967 8:0.088785 9:0.159836 
-0 -0 0 0 1.243253904177713 0 1:0.455882 2:0.263566 3:-0.438312 4:0.351351 5:0.146132 6:-0.130435 7:-0.0236967 8:0.0841121 9:0.159836 
-0 -0 0 0 2 0 1:0.455882 2:0.267442 3:-0.431818 4:0.354354 5:0.146132 6:-0.12202 7:0.014218 8:0.0841121 9:0.168033 
-0 -0 0 0 2 2 1:0.455882 2:0.267442 3:-0.425325 4:0.354354 5:0.191977 6:-0.105189 7:0.0236967 8:0.088785 9:0.180328 
-0 -0 0 0 2 0 1:0.431373 2:0.275194 3:-0.415584 4:0.348348 5:0.191977 6:-0.0715288 7:0.042654 8:0.0794393 9:0.188525 
-0 -0 0 0 2 0 1:0.431373 2:0.275194 3:-0.415584 4:0.345345 5:0.191977 6:-0.0715288 7:0.0331754 8:0.0700935 9:0.188525 
-0 -0 0 0 2 0 1:0.431373 2:0.286822 3:-0.353896 4:0.351351 5:0.191977 6:-0.0210379 7:0.0616114 8:0.0700935 9:0.221311 
-0 -0 0 0 0.3475784007185736 0 1:0.431373 2:0.294574 3:-0.353896 4:0.351351 5:0.203438 6:-0.0182328 7:0.0616114 8:0.0700935 9:0.233607 
-0 -0 0 0 2 0 1:0.431373 2:0.302326 3:-0.350649 4:0.351351 5:0.2149 6:-0.0154278 7:0.0616114 8:0.0700935 9:0.233607 
-0 -0 0 0 2 0 1:0.401961 2:0.352713 3:-0.217532 4:0.354354 5:0.260745 6:0.169705 7:0.184834 8:0.00934579 9:0.286885 
-0 -0 0 0 0.2525465326549185 0 1:0.715686 2:0.658915 3:0.113636 4:0.837838 5:0.839542 6:0.279102 7:0.943128 8:-0.11215 9:0.512295 
-0 -0 0 0.03014568721104968 0 0 1:0.710784 2:0.666667 3:0.201299 4:0.834835 5:0.851003 6:0.391304 7:1 8:-0.116822 9:0.54918 
-0 -0 0 0 2 0 1:0.20098 2:0.410853 3:0.0974026 4:0.243243 5:0.266476 6:0.464236 7:0.488152 8:-0.0981308 9:0.52459 
-0 -0 0 0 2 0 1:0.20098 2:0.410853 3:0.0974026 4:0.243243 5:0.266476 6:0.464236 7:0.488152 8:-0.107477 9:0.52459 
-0 -0 0 0 0.620339633763839 0 1:0.20098 2:0.410853 3:0.0974026 4:0.243243 5:0.255014 6:0.464236 7:0.450237 8:-0.107477 9:0.516393 
-0 -0 0 0 2 0 1:0.20098 2:0.410853 3:0.0974026 4:0.243243 5:0.237822 6:0.464236 7:0.450237 8:-0.107477 9:0.504098 
-0 -0 0 0 2 0 1:0.210784 2:0.410853 3:0.12013 4:0.243243 5:0.237822 6:0.472651 7:0.450237 8:-0.107477 9:0.516393 
-0 -0 0 0 2 0 1:0.220588 2:0.422481 3:0.126623 4:0.249249 5:0.255014 6:0.472651 7:0.450237 8:-0.0981308 9:0.52459 
-0 -0 0 0 2 0 1:0.210784 2:0.430233 3:0.136364 4:0.243243 5:0.22063 6:0.472651 7:0.450237 8:-0.11215 9:0.512295 
-0 -0 0 0 2 0 1:0.205882 2:0.430233 3:0.136364 4:0.243243 5:0.22063 6:0.472651 7:0.440758 8:-0.116822 9:0.512295 
-0 -0 0 0 2 0 1:0.205882 2:0.430233 3:0.136364 4:0.243243 5:0.22063 6:0.481066 7:0.450237 8:-0.11215 9:0.512295 
-0 -0 0 0 2 0 1:0.215686 2:0.426357 3:0.155844 4:0.249249 5:0.2149 6:0.464236 7:0.440758 8:-0.107477 9:0.528689 
-0.9849485157514469 -0 0 0 0 0 1:0.284314 2:0.255814 3:0.227273 4:0.312312 5:0.174785 6:0.178121 7:0.21327 8:-0.775701 9:0.282787 
-2 -0 0 0 0 0 1:0.279412 2:0.255814 3:0.227273 4:0.309309 5:0.174785 6:0.178121 7:0.203791 8:-0.775701 9:0.282787 
-2 -0 1.070954847246397 0 0 0 1:0.279412 2:0.255814 3:0.227273 4:0.309309 5:0.174785 6:0.178121 7:0.203791 8:-0.780374 9:0.282787 
-0 -0 0 0 0 0.03018305648778298 1:0.0294118 2:0.294574 3:0.487013 4:0.0510511 5:-0.191977 6:0.307153 7:-0.0616114 8:-0.21028 9:0.557377 
-0 -0 0 0 0.1898660304672196 0 1:0.0294118 2:0.29845 3:0.493506 4:0.0510511 5:-0.180516 6:0.312763 7:-0.0331754 8:-0.205607 9:0.577869 
-0 -1.555212219963002 0.2539043342504689 0.9155476657868855 0 0 1:-0.0539216 2:0.100775 3:0.318182 4:0.0990991 5:0.00859599 6:0.105189 7:0.232227 8:-0.841121 9:0.479508 
-0 -0 0 0 0 0.7540326245517177 1:-0.0392157 2:0.158915 3:0.366883 4:0.0960961 5:-0.00859599 6:0.085554 7:0.127962 8:-0.85514 9:0.47541 
-0 -0 0 0 2 0 1:0.0245098 2:0.186047 3:0.399351 4:0.0900901 5:0.0200573 6:0.0967742 7:0.156398 8:-0.827103 9:0.491803 
-0 -0 0 0 0.3876376575376286 0 1:-0.00490196 2:0.186047 3:0.399351 4:0.0870871 5:0.0143266 6:0.0911641 7:0.137441 8:-0.831776 9:0.483607 
-0 -0 0 0 0 0.2396984106950937 1:-0.00490196 2:0.186047 3:0.399351 4:0.0870871 5:0.0143266 6:0.0911641 7:0.127962 8:-0.831776 9:0.483607 
-0 -0 0.1941145064192612 0.2850071081919072 0 0.3446369488105641 1:0.279412 2:0.965116 3:1 4:0.525526 5:-0.117479 6:0.966339 7:0.85782 8:-0.794393 9:1 
-0 -0.1734431134295015 0 0 0 0 1:0.259804 2:0.965116 3:1 4:0.516517 5:-0.117479 6:0.966339 7:0.85782 8:-0.794393 9:0.991803 
-0 -0 0.2729565797788694 0.3309922203003068 0 0 1:0.372549 2:0.922481 3:0.938312 4:0.576577 5:0.810888 6:1 7:0.772512 8:-0.303738 9:0.602459 
-0 -0 0 0 0 0.4124314921409588 1:0.397059 2:0.937984 3:0.948052 4:0.576577 5:0.782235 6:1 7:0.734597 8:-0.303738 9:0.581967 
-0 -0 -0 0 2 0 1:0.514706 2:-0.0658915 3:-0.844156 4:0.00600601 5:0.100287 6:-0.725105 7:-0.232227 8:0.345794 9:-0.438525 
-0 -0 -0 0 0.6611274773464125 0 1:0.544118 2:-0.0581395 3:-0.831169 4:0.021021 5:0.106017 6:-0.725105 7:-0.232227 8:0.369159 9:-0.430328 
-0 -0 -0.1495070923656133 0 1.787813976476699 0 1:0.612745 2:-0.0465116 3:-0.824675 4:0.0600601 5:0.151862 6:-0.747546 7:-0.222749 8:0.406542 9:-0.393443 
-0 -0 -1.043066596197165 0 0.5786128490319632 0.02675955899901354 1:0.622549 2:-0.0271318 3:-0.805195 4:0.048048 5:0.151862 6:-0.730715 7:-0.21327 8:0.415888 9:-0.393443 
-0 -0 -0 1.747337006918156 0 0 1:0.514706 2:-0.0658915 3:-0.795455 4:-0.027027 5:0.146132 6:-0.73913 7:-0.241706 8:0.401869 9:-0.422131 
-0 -0 -0 2 0 0 1:0.514706 2:-0.0658915 3:-0.795455 4:-0.03003 5:0.146132 6:-0.744741 7:-0.241706 8:0.397196 9:-0.422131 
-0 -0 -0 2 0 0 1:0.558824 2:-0.0620155 3:-0.782468 4:-0.03003 5:0.180516 6:-0.730715 7:-0.203791 8:0.415888 9:-0.418033 
-0 -2 -0 0 0 0 1:0.632353 2:-0.0232558 3:-0.49026 4:0.264264 5:-0.0200573 6:-0.42777 7:0.014218 8:-0.490654 9:-0.286885 
-0 -1.266591284589048 -0 0 0 0 1:0.632353 2:-0.0193798 3:-0.49026 4:0.264264 5:-0.0200573 6:-0.424965 7:0.014218 8:-0.490654 9:-0.286885 
-0 -2 -0 0 0 0 1:0.632353 2:-0.0193798 3:-0.487013 4:0.264264 5:-0.00859599 6:-0.424965 7:0.0236967 8:-0.490654 9:-0.270492 
-0 -2 -0 0 0 0 1:0.598039 2:-0.0193798 3:-0.49026 4:0.276276 5:-0.0200573 6:-0.41094 7:0.014218 8:-0.481308 9:-0.286885 
-2 -0 -0 0 0 0 1:0.627451 2:-0.00387597 3:-0.435065 4:0.219219 5:-0.0372493 6:-0.371669 7:-0.042654 8:-0.411215 9:-0.245902 
-2 -0 -0 0 0 0 1:0.617647 2:-0.00387597 3:-0.435065 4:0.204204 5:-0.0372493 6:-0.371669 7:-0.042654 8:-0.411215 9:-0.25 
-2 -0 -0 0 0 0 1:0.617647 2:-0.00387597 3:-0.435065 4:0.204204 5:-0.0372493 6:-0.371669 7:-0.042654 8:-0.411215 9:-0.25 
-2 -0 -0 0 0 0 1:0.617647 2:-0.00387597 3:-0.435065 4:0.204204 5:-0.0372493 6:-0.371669 7:-0.042654 8:-0.411215 9:-0.25 
-2 -0 -0 0 0 0 1:0.617647 2:-0.00387597 3:-0.435065 4:0.204204 5:-0.0372493 6:-0.371669 7:-0.042654 8:-0.411215 9:-0.25 
-2 -0 -0 0 2 0 1:0.627451 2:0.0193798 3:-0.435065 4:0.219219 5:-0.025788 6:-0.368864 7:-0.0331754 8:-0.38785 9:-0.245902 
-0 -0 -0 0 0.8589535113373361 0 1:0.627451 2:0.0232558 3:-0.435065 4:0.219219 5:-0.025788 6:-0.368864 7:-0.014218 8:-0.373832 9:-0.245902 
-0.3365627510973307 -0 -0 0 2 0 1:0.632353 2:0.0232558 3:-0.431818 4:0.219219 5:-0.0200573 6:-0.366059 7:-0.00473934 8:-0.369159 9:-0.233607 
-0 -0 -0.190044085620734 0 0 0 1:0.622549 2:0.0271318 3:-0.412338 4:0.213213 5:-0.025788 6:-0.354839 7:0.014218 8:-0.327103 9:-0.237705 
-0 -0 -2 0 0 0.41088696781705 1:0.637255 2:0.0271318 3:-0.405844 4:0.21021 5:-0.0200573 6:-0.352034 7:0.0236967 8:-0.32243 9:-0.233607 
-0 -0 -0 0 1.498496466133662 2 1:0.294118 2:0.0658915 3:-0.301948 4:-0.351351 5:-0.140401 6:-0.45582 7:-0.118483 8:-0.0700935 9:-0.442623 
-0 -0 -0 0 0 2 1:0.294118 2:0.0697674 3:-0.301948 4:-0.348348 5:-0.12894 6:-0.45582 7:-0.118483 8:-0.0700935 9:-0.442623 
-0 -0 -0 0 0 2 1:0.294118 2:0.0697674 3:-0.301948 4:-0.348348 5:-0.123209 6:-0.45582 7:-0.118483 8:-0.0700935 9:-0.442623 
-0 -0 -0 0 0 0.6413392893499781 1:0.259804 2:0.0658915 3:-0.305195 4:-0.351351 5:-0.117479 6:-0.481066 7:-0.137441 8:-0.0841121 9:-0.45082 
-0 -0 -0 0 0 2 1:0.132353 2:0.0542636 3:-0.334416 4:-0.312312 5:0.00859599 6:-0.419355 7:0.014218 8:-0.163551 9:-0.438525 
-0 -0 -0 2 0 2 1:0.137255 2:0.0542636 3:-0.334416 4:-0.312312 5:0.00859599 6:-0.41655 7:0.014218 8:-0.135514 9:-0.438525 
-0 -0 -0 2 0 2 1:0.137255 2:0.0542636 3:-0.334416 4:-0.312312 5:0.00859599 6:-0.41655 7:0.014218 8:-0.135514 9:-0.438525 
-0 -0 -0 2 0 2 1:0.137255 2:0.0542636 3:-0.331169 4:-0.312312 5:0.00859599 6:-0.41655 7:0.014218 8:-0.135514 9:-0.438525 
-0 -0 -0 0 0 2 1:0.137255 2:0.0310078 3:-0.334416 4:-0.324324 5:-0.00286533 6:-0.41094 7:-0.014218 8:-0.140187 9:-0.442623 
-0 -0 -0 2 0 0 1:0.132353 2:0.0232558 3:-0.334416 4:-0.339339 5:-0.00286533 6:-0.42216 7:-0.014218 8:-0.140187 9:-0.442623 
-0 -0 -0 2 0 0 1:0.122549 2:0.0232558 3:-0.334416 4:-0.345345 5:-0.00859599 6:-0.42216 7:-0.0236967 8:-0.149533 9:-0.446721 
-0 -0 -0 2 0 0 1:0.117647 2:0.0232558 3:-0.337662 4:-0.345345 5:-0.00859599 6:-0.42216 7:-0.0331754 8:-0.163551 9:-0.446721 
-0 -0 -0 2 0 0 1:0.117647 2:0.0232558 3:-0.337662 4:-0.345345 5:-0.00859599 6:-0.42216 7:-0.0331754 8:-0.163551 9:-0.446721 
-0 -0 -0 2 0 0 1:0.117647 2:0.0232558 3:-0.337662 4:-0.339339 5:-0.00859599 6:-0.42216 7:-0.0331754 8:-0.163551 9:-0.446721 
-0 -0 -0 0 0 1.039196914688031 1:0.122549 2:0.0232558 3:-0.337662 4:-0.339339 5:-0.00859599 6:-0.42216 7:-0.0331754 8:-0.163551 9:-0.442623 
-0 -0 -0 0 0.5717547932210901 0 1:0.137255 2:-0.00387597 3:-0.357143 4:-0.354354 5:-0.0487106 6:-0.453015 7:-0.0805687 8:-0.140187 9:-0.434426 
-0 -0 -0 0 2 0 1:0.137255 2:-0.00387597 3:-0.357143 4:-0.354354 5:-0.0544413 6:-0.45582 7:-0.0805687 8:-0.140187 9:-0.434426 
-2 -0 -2 0 2 2 1:0.416667 2:0.213178 3:-0.366883 4:0.204204 5:0.47851 6:-0.211781 7:0.260664 8:-0.219626 9:-0.131148 
-2 -0 -2 0 0 2 1:0.416667 2:0.213178 3:-0.363636 4:0.204204 5:0.47851 6:-0.211781 7:0.270142 8:-0.219626 9:-0.131148 
-1.13903716284174 -0 -0 0 0 2 1:0.416667 2:0.213178 3:-0.363636 4:0.204204 5:0.47851 6:-0.211781 7:0.2891 8:-0.219626 9:-0.131148 
-0 -0 -1.998289343481439 0 1.380575579621994 2 1:0.416667 2:0.213178 3:-0.36039 4:0.204204 5:0.47851 6:-0.211781 7:0.2891 8:-0.214953 9:-0.131148 
-0 -0 -0 0 2 2 1:0.416667 2:0.213178 3:-0.36039 4:0.204204 5:0.47851 6:-0.211781 7:0.298578 8:-0.214953 9:-0.131148 
-0 -0 -0 0 0 2 1:0.357843 2:0.170543 3:-0.357143 4:0.162162 5:0.47851 6:-0.217391 7:0.2891 8:-0.219626 9:-0.131148 
-0 -0 -0 0 0 2 1:0.338235 2:0.170543 3:-0.357143 4:0.162162 5:0.472779 6:-0.217391 7:0.2891 8:-0.219626 9:-0.131148 
-0 -0 -0 0 0 1.11092867367424 1:0.333333 2:0.162791 3:-0.357143 4:0.162162 5:0.472779 6:-0.225806 7:0.2891 8:-0.228972 9:-0.131148 
-0 -0 -0 0 0 2 1:0.352941 2:0.182171 3:-0.357143 4:0.189189 5:0.461318 6:-0.225806 7:0.317536 8:-0.214953 9:-0.122951 
-0 -1.487464262448772 -0 0 0 0 1:0.284314 2:0.170543 3:-0.363636 4:0.174174 5:0.444126 6:-0.237027 7:0.35545 8:-0.228972 9:-0.114754 
-0 -0 -0 0 2 0 1:0.289216 2:0.170543 3:-0.363636 4:0.174174 5:0.444126 6:-0.237027 7:0.364929 8:-0.205607 9:-0.110656 
-0 -0 -0 0 2 0 1:0.294118 2:0.170543 3:-0.363636 4:0.18018 5:0.444126 6:-0.234222 7:0.364929 8:-0.200935 9:-0.110656 
-0 -0 -0 0 2 0 1:0.303922 2:0.170543 3:-0.366883 4:0.18018 5:0.444126 6:-0.234222 7:0.364929 8:-0.200935 9:-0.118852 
-0 -0 -0 0 0.08432459407410493 0 1:0.303922 2:0.166667 3:-0.366883 4:0.18018 5:0.438395 6:-0.234222 7:0.364929 8:-0.200935 9:-0.118852 
-0 -0 -0 0 1.833450168862746 0 1:0.220588 2:-0.0310078 3:-0.386364 4:-0.48048 5:-0.180516 6:-0.509116 7:-0.317536 8:-0.116822 9:-0.545082 
-2 -0 -0 0 0 0 1:0.220588 2:-0.0387597 3:-0.386364 4:-0.48048 5:-0.180516 6:-0.509116 7:-0.317536 8:-0.126168 9:-0.545082 
-0.3387535930013047 -0 -0 0 0 0 1:0.245098 2:-0.0387597 3:-0.386364 4:-0.48048 5:-0.174785 6:-0.509116 7:-0.327014 8:-0.116822 9:-0.545082 
-0 -0 -0 2 0 0 1:0.132353 2:0.0348837 3:-0.402597 4:0.0750751 5:0.386819 6:-0.298738 7:0.270142 8:-0.205607 9:-0.168033 
-0 -0 -0 2 0 0 1:0.132353 2:0.0271318 3:-0.405844 4:0.0720721 5:0.386819 6:-0.298738 7:0.270142 8:-0.214953 9:-0.168033 
-0 -0 -0 2 0 0 1:0.122549 2:0.0271318 3:-0.409091 4:0.0690691 5:0.386819 6:-0.301543 7:0.260664 8:-0.219626 9:-0.172131 
-0 -0 -0 2 0 0 1:0.117647 2:0.0232558 3:-0.409091 4:0.0690691 5:0.375358 6:-0.304348 7:0.260664 8:-0.219626 9:-0.172131 
-0 -0 -0 2 0 0 1:0.117647 2:0.0232558 3:-0.405844 4:0.0720721 5:0.386819 6:-0.304348 7:0.260664 8:-0.219626 9:-0.168033 
-0 -0 -0 2 0 0 1:0.117647 2:0.0232558 3:-0.402597 4:0.0720721 5:0.386819 6:-0.301543 7:0.260664 8:-0.219626 9:-0.168033 
-0 -0 -0 2 0 0 1:0.122549 2:0.0232558 3:-0.402597 4:0.0750751 5:0.386819 6:-0.301543 7:0.260664 8:-0.219626 9:-0.163934 
-0 -0 -0 2 0 0 1:0.132353 2:0.0232558 3:-0.402597 4:0.0750751 5:0.386819 6:-0.301543 7:0.260664 8:-0.219626 9:-0.163934 
-0 -0 -0 0.7864315646876864 0 0 1:0.122549 3:-0.405844 4:0.0780781 5:0.375358 6:-0.301543 7:0.232227 8:-0.219626 9:-0.168033 
-0 -0 -0 2 0 0 1:0.102941 2:-0.00387597 3:-0.405844 4:0.0720721 5:0.375358 6:-0.307153 7:0.232227 8:-0.233645 9:-0.168033 
-0 -0 -0 2 0 0 1:0.0343137 2:-0.186047 3:-0.454545 4:-0.627628 5:-0.163324 6:-0.548387 7:-0.393365 8:-0.196262 9:-0.67623 
-0 -0 -0 2 0 0 1:0.0392157 2:-0.186047 3:-0.454545 4:-0.627628 5:-0.163324 6:-0.548387 7:-0.393365 8:-0.191589 9:-0.67623 
-0 -0 -0 2 0 0 1:-0.0294118 2:-0.135659 3:-0.415584 4:0.024024 5:0.415473 6:-0.349229 7:0.222749 8:-0.285047 9:-0.209016 
-0 -0 -0 1.86400433272383 0 0 1:-0.0588235 2:-0.135659 3:-0.415584 4:0.018018 5:0.404011 6:-0.349229 7:0.222749 8:-0.294393 9:-0.209016 
-0.3014969471281322 -0 -0 0 0 0 1:0.0686275 2:-0.263566 3:-0.464286 4:-0.681682 5:-0.186246 6:-0.511921 7:-0.49763 8:-0.172897 9:-0.745902 
-0 -0 -0 2 0 0 1:-0.348039 2:-0.286822 3:-0.415584 4:-0.108108 5:0.30659 6:-0.396914 7:-0.014218 8:-0.439252 9:-0.254098 
-0 -0 -0 2 0 0 1:-0.348039 2:-0.286822 3:-0.415584 4:-0.108108 5:0.30086 6:-0.396914 7:-0.0236967 8:-0.439252 9:-0.254098 
-0 -0 -0 2 0 0 1:-0.338235 2:-0.27907 3:-0.415584 4:-0.108108 5:0.30086 6:-0.396914 7:-0.014218 8:-0.439252 9:-0.254098 
-0 -0 -0 2 0 0 1:-0.338235 2:-0.27907 3:-0.415584 4:-0.108108 5:0.30086 6:-0.396914 7:-0.014218 8:-0.439252 9:-0.254098 
-0 -0 -0 1.178305845614034 0 0 1:-0.333333 2:-0.27907 3:-0.415584 4:-0.108108 5:0.30086 6:-0.396914 7:-0.014218 8:-0.439252 9:-0.254098 
-0 -0 -0 2 0 0 1:-0.328431 2:-0.275194 3:-0.422078 4:-0.102102 5:0.289398 6:-0.40533 7:-0.0521327 8:-0.439252 9:-0.262295 
-0 -0 -0 2 0 0 1:-0.328431 2:-0.275194 3:-0.425325 4:-0.102102 5:0.283668 6:-0.40533 7:-0.07109 8:-0.448598 9:-0.270492 
-2 -0 -0 2 0 0 1:-0.328431 2:-0.275194 3:-0.425325 4:-0.105105 5:0.283668 6:-0.408135 7:-0.07109 8:-0.453271 9:-0.270492 
-2 -2 -0 0 0 0 1:-0.328431 2:-0.27907 3:-0.425325 4:-0.105105 5:0.272206 6:-0.408135 7:-0.0805687 8:-0.453271 9:-0.270492 
-2 -2 -0 0 0 0 1:-0.338235 2:-0.27907 3:-0.428571 4:-0.105105 5:0.272206 6:-0.408135 7:-0.0805687 8:-0.453271 9:-0.270492 
-2 -1.514951897932708 -0 0 0 0 1:-0.328431 2:-0.27907 3:-0.425325 4:-0.102102 5:0.272206 6:-0.408135 7:-0.07109 8:-0.448598 9:-0.270492 
-2 -0 -0 0 0 0 1:-0.269608 2:-0.263566 3:-0.422078 4:-0.0960961 5:0.272206 6:-0.399719 7:-0.07109 8:-0.434579 9:-0.270492 
-2 -0 -0 0 0 0 1:-0.254902 2:-0.255814 3:-0.418831 4:-0.0960961 5:0.260745 6:-0.396914 7:-0.07109 8:-0.429907 9:-0.27459 
-2 -0 -0 0 0 0 1:-0.254902 2:-0.255814 3:-0.425325 4:-0.0990991 5:0.260745 6:-0.402525 7:-0.0805687 8:-0.429907 9:-0.278689 
-0 -0 -0 2 0 0 1:-0.22549 2:-0.24031 3:-0.422078 4:-0.0960961 5:0.255014 6:-0.402525 7:-0.0900474 8:-0.401869 9:-0.286885 
-0 -0 -0 2 0 0 1:-0.191176 2:-0.228682 3:-0.422078 4:-0.0900901 5:0.255014 6:-0.396914 7:-0.0900474 8:-0.392523 9:-0.286885 
-2 -0 -0 0 0 0 1:-0.151961 2:-0.24031 3:-0.422078 4:-0.0690691 5:0.226361 6:-0.396914 7:-0.118483 8:-0.406542 9:-0.290984 
-0 -0.6803137117419155 -0 0 0 0 1:0.0784314 2:-0.593023 3:-0.717532 4:-0.66967 5:-0.243553 6:-0.786816 7:-0.791469 8:0.28972 9:-0.930328 
-0 -2 -0.5686811468976123 0 0 0 1:0.0784314 2:-0.596899 3:-0.720779 4:-0.66967 5:-0.249284 6:-0.789621 7:-0.791469 8:0.28972 9:-0.930328 
-0 -0 -0 1.127553534725517 0 0 1:0.0196078 2:-0.329457 3:-0.461039 4:-0.693694 5:-0.163324 6:-0.489481 7:-0.478673 8:-0.11215 9:-0.815574 
-0 -0 -0 2 0 0 1:0.0196078 2:-0.329457 3:-0.461039 4:-0.693694 5:-0.157593 6:-0.489481 7:-0.478673 8:-0.11215 9:-0.815574 
-0 -0 -0 2 0 0 1:0.0196078 2:-0.329457 3:-0.461039 4:-0.690691 5:-0.151862 6:-0.486676 7:-0.469194 8:-0.107477 9:-0.815574 
-2 -1.219573198369359 -0 0 0 0 1:-0.235294 2:-0.271318 3:-0.418831 4:-0.111111 5:0.203438 6:-0.413745 7:-0.146919 8:-0.406542 9:-0.307377 
-2 -0 -0 0 0 0 1:-0.22549 2:-0.271318 3:-0.415584 4:-0.111111 5:0.203438 6:-0.408135 7:-0.146919 8:-0.38785 9:-0.307377 
-0 -0 -0.4340986946582631 -0 0 0 1:0.0637255 2:0.00387597 3:-0.782468 4:-0.303303 5:0.381089 6:-0.635344 7:-0.895735 8:0.738318 9:-0.704918 
-0 -0 -0 -0 0.7083293506115588 0 1:0.0539216 2:-0.00775194 3:-0.792208 4:-0.309309 5:0.369628 6:-0.643759 7:-0.895735 8:0.733645 9:-0.696721 
-2 -0.4273649925151384 -0 -2 0 0 1:0.0637255 2:0.0968992 3:-0.454545 4:-0.387387 5:0.146132 6:-0.511921 7:-0.478673 8:-0.38785 9:-0.372951 
-2 -0 -0 -0 0 0 1:0.0343137 2:0.100775 3:-0.454545 4:-0.477477 5:0.12894 6:-0.517532 7:-0.49763 8:-0.406542 9:-0.381148 
-2 -0 -0 -0 0 0 1:0.0392157 2:0.100775 3:-0.451299 4:-0.477477 5:0.13467 6:-0.514727 7:-0.488152 8:-0.401869 9:-0.372951 
-1.372966788834974 -0 -0 -0 0 0 1:0.0539216 2:0.135659 3:-0.441558 4:-0.45045 5:0.163324 6:-0.497896 7:-0.421801 8:-0.383178 9:-0.331967 
-2 -0 -0 -0 0 0 1:0.0539216 2:0.135659 3:-0.441558 4:-0.441441 5:0.163324 6:-0.497896 7:-0.421801 8:-0.383178 9:-0.32377 
-0 -2 -0 -2 0 0 1:-0.112745 2:-0.147287 3:-0.474026 4:-0.435435 5:0.0716332 6:-0.697055 7:-0.194313 8:-0.275701 9:-0.487705 
-0 -1.573706718200122 -0 -2 0 0 1:-0.112745 2:-0.147287 3:-0.467532 4:-0.435435 5:0.0773639 6:-0.691445 7:-0.194313 8:-0.275701 9:-0.483607 
-0 -0 -0 -2 0 0 1:-0.112745 2:-0.143411 3:-0.467532 4:-0.435435 5:0.0773639 6:-0.691445 7:-0.175355 8:-0.275701 9:-0.47541 
-0 -0 -0 -2 0 0 1:-0.112745 2:-0.135659 3:-0.467532 4:-0.435435 5:0.0773639 6:-0.68864 7:-0.165877 8:-0.271028 9:-0.47541 
-0 -0 -0 -1.978423149356791 0 0 1:-0.127451 2:-0.135659 3:-0.467532 4:-0.465465 5:0.0830946 6:-0.691445 7:-0.165877 8:-0.266355 9:-0.483607 
-0 -0 -0 -2 0 0 1:0.0343137 2:0.0155039 3:-0.454545 4:-0.015015 5:0.335244 6:-0.464236 7:0.07109 8:-0.121495 9:-0.196721 
-0 -0 -0 -2 0 0 1:0.0245098 2:-0.00775194 3:-0.454545 4:-0.036036 5:0.335244 6:-0.464236 7:0.07109 8:-0.135514 9:-0.196721 
-0 -0 -0 -2 0 0 1:0.0147059 2:-0.00775194 3:-0.457792 4:-0.036036 5:0.335244 6:-0.475456 7:0.07109 8:-0.135514 9:-0.196721 
-0 -0 -0 -2 0 0 1:0.0147059 2:-0.0232558 3:-0.457792 4:-0.048048 5:0.335244 6:-0.489481 7:0.07109 8:-0.149533 9:-0.196721 
-0 -0 -0 -2 0 0 1:0.00490196 2:-0.0232558 3:-0.457792 4:-0.048048 5:0.335244 6:-0.489481 7:0.07109 8:-0.149533 9:-0.196721 
-2 -2 -0 -2 0 0 1:0.0147059 2:-0.00775194 3:-0.454545 4:-0.048048 5:0.340974 6:-0.475456 7:0.0900474 8:-0.140187 9:-0.159836 
-1.734876671620378 -0 -0 -2 0 0 1:0.0147059 2:0.00387597 3:-0.454545 4:-0.039039 5:0.346705 6:-0.464236 7:0.109005 8:-0.135514 9:-0.159836 
-0 -0 -0 -2 0 0 1:0.0245098 2:0.00387597 3:-0.448052 4:-0.039039 5:0.346705 6:-0.464236 7:0.127962 8:-0.121495 9:-0.155738 
-0 -0.5701054398773634 -0 -2 0 0 1:0.0294118 2:0.00387597 3:-0.448052 4:-0.036036 5:0.352436 6:-0.464236 7:0.156398 8:-0.121495 9:-0.147541 
-0 -0 -0 -2 0 0 1:0.0294118 2:0.0155039 3:-0.448052 4:-0.03003 5:0.358166 6:-0.464236 7:0.127962 8:-0.11215 9:-0.151639 
-0 -0 -0 -2 0 0 1:0.0294118 2:0.0155039 3:-0.454545 4:-0.033033 5:0.352436 6:-0.464236 7:0.127962 8:-0.130841 9:-0.151639 
-0 -0 -0 -2 0 0 1:0.0294118 2:0.0155039 3:-0.454545 4:-0.033033 5:0.352436 6:-0.469846 7:0.127962 8:-0.130841 9:-0.151639 
-2 -0 -0 -2 0 0 1:0.0294118 2:0.0155039 3:-0.454545 4:-0.033033 5:0.352436 6:-0.469846 7:0.0900474 8:-0.130841 9:-0.151639 
-2 -2 -0 -2 0 0 1:0.0294118 2:0.0155039 3:-0.454545 4:-0.033033 5:0.352436 6:-0.469846 7:0.0900474 8:-0.140187 9:-0.151639 
-0 -0 -2 -2 2 2 1:0.0882353 2:0.0658915 3:-0.444805 4:-0.027027 5:0.363897 6:-0.453015 7:0.137441 8:-0.0747664 9:-0.143443 
-0 -0 -1.868888609240888 -2 2 0 1:0.0882353 2:0.0465116 3:-0.444805 4:-0.027027 5:0.363897 6:-0.464236 7:0.137441 8:-0.107477 9:-0.147541 
-0 -0 -0 -2 2 0 1:0.0637255 2:0.0465116 3:-0.444805 4:-0.039039 5:0.363897 6:-0.464236 7:0.127962 8:-0.107477 9:-0.151639 
-0 -0 -0 -2 0 0 1:0.0637255 2:0.0465116 3:-0.438312 4:-0.039039 5:0.386819 6:-0.453015 7:0.137441 8:-0.107477 9:-0.147541 
-0 -0 -0 -2 1.764247012981967 0 1:0.0637255 2:0.0465116 3:-0.435065 4:-0.039039 5:0.386819 6:-0.45021 7:0.146919 8:-0.107477 9:-0.143443 
-0 -0 -0 -2 0 0 1:0.0637255 2:0.0465116 3:-0.431818 4:-0.039039 5:0.398281 6:-0.45021 7:0.156398 8:-0.107477 9:-0.139344 
-0 -0 -0 -2 0 0.3928626443995086 1:0.0637255 2:0.0465116 3:-0.428571 4:-0.039039 5:0.404011 6:-0.447405 7:0.156398 8:-0.107477 9:-0.139344 
-0 -0 -0 -0.5902233918427294 0 0 1:-0.00490196 2:0.0271318 3:-0.431818 4:-0.0570571 5:0.398281 6:-0.4446 7:0.175355 8:-0.121495 9:-0.139344 
-0 -0 -0 -0 0 0.566850748577306 1:0.00490196 2:0.0775194 3:-0.422078 4:-0.0900901 5:0.449857 6:-0.43338 7:0.251185 8:-0.0514019 9:-0.139344 
-0 -0 -0 -0 0 2 1:0.156863 2:0.170543 3:-0.422078 4:-0.522523 5:0.169054 6:-0.520337 7:-0.469194 8:-0.345794 9:-0.307377 
-0 -0 -0 -0 0 2 1:0.161765 2:0.182171 3:-0.422078 4:-0.51952 5:0.169054 6:-0.520337 7:-0.469194 8:-0.341121 9:-0.307377 
-0 -0 -0 -0 0 2 1:0.161765 2:0.189922 3:-0.425325 4:-0.498498 5:0.197708 6:-0.523142 7:-0.440758 8:-0.32243 9:-0.290984 
-0 -0 -0 -0 0 2 1:0.161765 2:0.189922 3:-0.425325 4:-0.498498 5:0.197708 6:-0.523142 7:-0.440758 8:-0.32243 9:-0.290984 
-0 -0 -0 -0 0.8374018071216518 0 1:0.181373 2:0.170543 3:-0.438312 4:-0.507508 5:0.203438 6:-0.531557 7:-0.383886 8:-0.317757 9:-0.286885 
-0 -0 -0 -0 2 2 1:0.186275 2:0.174419 3:-0.431818 4:-0.507508 5:0.203438 6:-0.531557 7:-0.364929 8:-0.308411 9:-0.286885 
-0 -0 -0 -0 0 0.4662153959689126 1:0.181373 2:0.178295 3:-0.431818 4:-0.498498 5:0.203438 6:-0.528752 7:-0.383886 8:-0.308411 9:-0.286885 
-0 -0 -0 -1.936186362681599 0 0 1:0.0882353 2:-0.189922 3:-0.727273 4:-0.711712 5:0.255014 6:-0.654979 7:-0.734597 8:0.738318 9:-0.790984 
-0 -0 -0 -0 0 1.431915459346387 1:-0.303922 2:-0.0426357 3:-0.204545 4:-0.777778 5:0.272206 6:-0.42777 7:-0.184834 8:-0.257009 9:-0.401639 
-0 -0 -0 -0 0 2 1:-0.22549 2:-0.0620155 3:-0.201299 4:-0.777778 5:0.277937 6:-0.42216 7:-0.165877 8:-0.228972 9:-0.413934 
-0 -0 -0 -0 0 2 1:-0.0539216 2:-0.0193798 3:-0.298701 4:-0.222222 5:0.501433 6:-0.394109 7:0.165877 8:0.0373832 9:-0.172131 
-0 -0 -0 -0 0 0.4472958231486509 1:-0.0441176 2:-0.321705 3:-0.737013 4:-0.6997 5:0.375358 6:-0.677419 7:-0.810427 8:0.775701 9:-0.901639 
-0 -0.3129447056267843 -0 -0 0 0 1:0.166667 2:0.0387597 3:-0.477273 4:-0.744745 5:0.174785 6:-0.596073 7:-0.57346 8:-0.359813 9:-0.348361 
-0 -0 -0 -0 0 1.265046301140397 1:0.191176 2:0.0852713 3:-0.461039 4:-0.771772 5:0.191977 6:-0.579243 7:-0.57346 8:-0.378505 9:-0.368852 
-0 -0 -0 -0 0 2 1:0.20098 2:0.0930233 3:-0.451299 4:-0.768769 5:0.22063 6:-0.570827 7:-0.554502 8:-0.35514 9:-0.377049 
-0 -0 -0 -0 0 2 1:0.20098 2:0.0930233 3:-0.451299 4:-0.771772 5:0.203438 6:-0.570827 7:-0.554502 8:-0.35514 9:-0.377049 
-0 -0 -0 -0 0 1.217163092035471 1:-0.401961 2:-0.174419 3:-0.175325 4:-0.777778 5:0.186246 6:-0.368864 7:-0.260664 8:-0.32243 9:-0.47541 
-2 -0.5460826395208327 -0 -0 0 0 1:-0.406863 2:-0.178295 3:-0.181818 4:-0.738739 5:0.12894 6:-0.366059 7:-0.393365 8:-0.35514 9:-0.532787 
-0 -0 -0 -0 0 2 1:-0.318627 2:-0.100775 3:-0.185065 4:-0.753754 5:0.169054 6:-0.340813 7:-0.364929 8:-0.359813 9:-0.532787 
-0 -0 -0 -0 0 2 1:-0.29902 2:-0.0813953 3:-0.211039 4:-0.738739 5:0.151862 6:-0.340813 7:-0.364929 8:-0.35514 9:-0.532787 
-0 -0 -0 -0 0 2 1:-0.29902 2:-0.116279 3:-0.224026 4:-0.777778 5:0.151862 6:-0.352034 7:-0.364929 8:-0.373832 9:-0.532787 
-0 -0 -0 -0.8703640224631386 0 0 1:-0.127451 2:-0.484496 3:-0.717532 4:-0.786787 5:0.226361 6:-0.767181 7:-0.962085 8:0.607477 9:-1 
-0.0555864867258071 -1.577511327009221 -0.5803842735589753 -0 0.1221243156617261 0 1:-0.27451 2:-0.542636 3:-0.720779 4:-0.813814 5:0.203438 6:-0.761571 7:-0.962085 8:0.574766 9:-0.967213 
-0 -0 -0.07296118368511569 -2 0.7075512383406115 0 1:0.318627 2:0.0116279 3:-0.49026 4:-0.768769 5:0.157593 6:-0.621318 7:-0.620853 8:-0.359813 9:-0.446721 
-0 -0 -0 -0.3394327123005325 0 0 1:0.318627 2:0.0116279 3:-0.487013 4:-0.753754 5:0.169054 6:-0.612903 7:-0.620853 8:-0.359813 9:-0.446721 
-0 -0 -0 -2 0 0 1:-0.401961 2:-0.248062 3:-0.107143 4:-0.591592 5:0.0888252 6:-0.267882 7:-0.232227 8:-0.350467 9:-0.659836 
-0.1497747360574047 -0 -0 -0 0 0 1:-0.401961 2:-0.248062 3:-0.107143 4:-0.591592 5:0.0888252 6:-0.267882 7:-0.251185 8:-0.350467 9:-0.659836 
-0 -0 -0 -1.779532104601804 0 0 1:-0.401961 2:-0.248062 3:-0.107143 4:-0.591592 5:0.0888252 6:-0.265077 7:-0.241706 8:-0.341121 9:-0.659836 
-0 -0 -0 -2 0 0 1:-0.387255 2:-0.248062 3:-0.100649 4:-0.591592 5:0.0945559 6:-0.265077 7:-0.232227 8:-0.341121 9:-0.659836 
-0 -0 -0 -2 0 0 1:-0.387255 2:-0.248062 3:-0.100649 4:-0.591592 5:0.0945559 6:-0.265077 7:-0.21327 8:-0.341121 9:-0.655738 
-0 -0 -0 -2 0 0 1:-0.387255 2:-0.248062 3:-0.100649 4:-0.591592 5:0.0945559 6:-0.259467 7:-0.194313 8:-0.341121 9:-0.655738 
-0 -0 -0 -2 0 0 1:-0.416667 2:-0.25969 3:-0.100649 4:-0.597598 5:0.0945559 6:-0.265077 7:-0.194313 8:-0.341121 9:-0.651639 
-0.4525660857599836 -0 -0 -0 0 0 1:-0.436275 2:-0.267442 3:-0.100649 4:-0.603604 5:0.0945559 6:-0.265077 7:-0.21327 8:-0.350467 9:-0.651639 
-2 -0 -0 -0 0 0 1:-0.436275 2:-0.267442 3:-0.100649 4:-0.603604 5:0.0945559 6:-0.265077 7:-0.21327 8:-0.350467 9:-0.651639 
-1.711216573518892 -0 -0 -0 0 0 1:-0.436275 2:-0.267442 3:-0.100649 4:-0.603604 5:0.0945559 6:-0.265077 7:-0.21327 8:-0.350467 9:-0.651639 
-0.3771056683298044 -0 -0 -0 0 0 1:-0.176471 2:-0.271318 3:-0.126623 4:-0.261261 5:0.501433 6:-0.304348 7:0.07109 8:-0.0420561 9:-0.311475 
-0 -0 -0 -0 0 1.443293035150542 1:-0.191176 2:-0.213178 3:-0.126623 4:-0.249249 5:0.530086 6:-0.284712 7:0.0900474 8:-0.0420561 9:-0.282787 
-0 -0 -0 -1.209470541422629 0 0 1:-0.0637255 2:-0.27907 3:-0.211039 4:-0.222222 5:0.518625 6:-0.349229 7:0.109005 8:0.0186916 9:-0.356557 
-0 -0 -1.151602022137304 -2 -1.953046417257474 0.5765991813616436 1:0.352941 2:0.135659 3:-0.88961 4:0.0690691 5:0.186246 6:-0.534362 7:-0.0521327 8:0.392523 9:-0.0491803 
-0 -0 -0 -1.466406254580103 -0 0 1:0.352941 2:0.147287 3:-0.886364 4:0.0690691 5:0.186246 6:-0.531557 7:-0.042654 8:0.392523 9:-0.0327869 
-0 -0 -0 -0 -0 2 1:0.352941 2:0.151163 3:-0.886364 4:0.0690691 5:0.186246 6:-0.525947 7:-0.014218 8:0.392523 9:-0.0327869 
-0 -0 -1.786249903427389 -0 -0 0 1:0.338235 2:0.127907 3:-0.912338 4:0.102102 5:0.0544413 6:-0.537167 7:0.0236967 8:0.32243 9:-0.00409836 
-0 -0 -1.839879576490749 -0 -0 0 1:0.338235 2:0.108527 3:-0.948052 4:0.0570571 5:0.0487106 6:-0.598878 7:-0.0995261 8:0.336449 9:-0.0409836 
-0 -0.2625448455208735 -0 -0 -0 0 1:0.284314 2:0.0813953 3:-0.987013 4:0.0540541 5:-0.0429799 6:-0.590463 7:-0.014218 8:0.224299 9:-0.0163934 
-0 -1.803134114664529 -0 -0 -0 0 1:0.367647 2:0.104651 3:-0.681818 4:-0.174174 5:-0.0487106 6:-0.548387 7:-0.0900474 8:-0.280374 9:-0.159836 
-0 -2 -0 -0 -0 0 1:0.367647 2:0.112403 3:-0.681818 4:-0.174174 5:-0.0315186 6:-0.548387 7:-0.0805687 8:-0.280374 9:-0.159836 
-2 -0 -0 -2 -2 0 1:0.372549 2:0.116279 3:-0.665584 4:-0.162162 5:-0.00286533 6:-0.523142 7:-0.0521327 8:-0.280374 9:-0.155738 
-0 -0 -0 -2 -1.931239871958493 0 1:0.367647 2:0.116279 3:-0.675325 4:-0.162162 5:-0.00859599 6:-0.523142 7:-0.0521327 8:-0.280374 9:-0.172131 
-0 -0 -0 -2 -2 0 1:0.367647 2:0.116279 3:-0.675325 4:-0.168168 5:-0.00859599 6:-0.523142 7:-0.0521327 8:-0.280374 9:-0.172131 
-0 -0 -0 -2 -0 0 1:0.367647 2:0.116279 3:-0.675325 4:-0.168168 5:-0.0315186 6:-0.523142 7:-0.07109 8:-0.280374 9:-0.172131 
-0 -0 -0 -2 -0 0 1:0.367647 2:0.116279 3:-0.675325 4:-0.168168 5:-0.0315186 6:-0.523142 7:-0.07109 8:-0.285047 9:-0.172131 
-0 -0 -0 -2 -0 0 1:0.367647 2:0.116279 3:-0.672078 4:-0.162162 5:-0.00859599 6:-0.497896 7:-0.0521327 8:-0.285047 9:-0.155738 
-0 -0 -0 -1.261749578823583 -0 0 1:0.367647 2:0.116279 3:-0.668831 4:-0.162162 5:-0.00859599 6:-0.481066 7:-0.014218 8:-0.285047 9:-0.147541 
-0 -0 -0 -2 -0 0.6724915865707958 1:0.367647 2:0.135659 3:-0.649351 4:-0.162162 5:-0.00859599 6:-0.464236 7:0.0236967 8:-0.285047 9:-0.143443 
-0 -0 -0 -0 -2 2 1:0.318627 2:0.135659 3:-0.613636 4:-0.222222 5:-0.0659026 6:-0.447405 7:0.0236967 8:-0.336449 9:-0.122951 
-0 -0 -0 -0 -0 2 1:0.328431 2:0.135659 3:-0.613636 4:-0.201201 5:-0.0659026 6:-0.447405 7:0.0236967 8:-0.327103 9:-0.122951 
-0 -0 -0 -0 -0 2 1:0.352941 2:0.135659 3:-0.613636 4:-0.198198 5:-0.0601719 6:-0.447405 7:0.0236967 8:-0.32243 9:-0.122951 
-0 -0 -0 -0 -0 2 1:0.357843 2:0.135659 3:-0.603896 4:-0.195195 5:-0.0601719 6:-0.45582 7:-0.014218 8:-0.313084 9:-0.131148 
-0 -0 -0 -0 -0 2 1:0.357843 2:0.135659 3:-0.603896 4:-0.195195 5:-0.0601719 6:-0.45582 7:-0.014218 8:-0.327103 9:-0.131148 
-2 -0 -0 -0 -0 0 1:0.338235 2:0.143411 3:-0.626623 4:-0.174174 5:-0.0315186 6:-0.453015 7:0.042654 8:-0.383178 9:-0.106557 
-0.1756974307367324 -0 -0 -0 -0 0 1:0.338235 2:0.151163 3:-0.62013 4:-0.174174 5:-0.0315186 6:-0.40533 7:0.0616114 8:-0.383178 9:-0.0942623 
-2 -0 -0 -0 -0 0 1:0.338235 2:0.158915 3:-0.636364 4:-0.174174 5:-0.0315186 6:-0.436185 7:0.0331754 8:-0.383178 9:-0.102459 
-2 -2 -1.76792963483905 -0.001819591137105308 -0 0 1:0.205882 2:0.124031 3:-0.386364 4:0.012012 5:-0.277937 6:-0.15007 7:0.279621 8:-0.518692 9:0.122951 
-2 -0 -0 -0 -0 0 1:0.191176 2:0.124031 3:-0.38961 4:-0.003003 5:-0.289398 6:-0.15007 7:0.279621 8:-0.518692 9:0.122951 
-0.872985671280228 -2 -0 -0 -0 0 1:0.191176 2:0.108527 3:-0.38961 4:-0.00600601 5:-0.295129 6:-0.15007 7:0.279621 8:-0.518692 9:0.122951 
-0 -0.2079516719829889 -0 -0 -0 0 1:0.191176 2:0.131783 3:-0.376623 4:-0.00600601 5:-0.295129 6:-0.13885 7:0.336493 8:-0.518692 9:0.168033 
-0 -0 -0.1455194763964772 -0 -0 2 1:0.578431 2:0.379845 3:-0.123377 4:0.336336 5:0.524355 6:-0.0406732 7:0.421801 8:0.0794393 9:0.188525 
-0 -0 -0 -2 -0 2 1:0.573529 2:0.372093 3:-0.123377 4:0.33033 5:0.524355 6:-0.0406732 7:0.421801 8:0.0700935 9:0.188525 
-1.952334149143249 -0 -0 -2 -0 2 1:0.563725 2:0.372093 3:-0.123377 4:0.324324 5:0.512894 6:-0.0406732 7:0.421801 8:0.0514019 9:0.188525 
-2 -0.8592578396169658 -0 -2 -0 2 1:0.534314 2:0.372093 3:-0.123377 4:0.318318 5:0.512894 6:-0.0406732 7:0.421801 8:0.0514019 9:0.188525 
-0 -0 -0 -1.834452263196922 -0 2 1:0.534314 2:0.379845 3:-0.0779221 4:0.318318 5:0.512894 6:-0.00420757 7:0.450237 8:0.0514019 9:0.196721 
-0 -0 -2 -0 -0 0 1:0.534314 2:0.383721 3:-0.0681818 4:0.318318 5:0.512894 6:0.026648 7:0.459716 8:0.0514019 9:0.221311 
-0 -2 -2 -0 -0 0 1:0.534314 2:0.387597 3:-0.0681818 4:0.318318 5:0.524355 6:0.0434783 7:0.488152 8:0.0514019 9:0.245902 
-0 -0 -2 -0 -0 0 1:0.490196 2:0.391473 3:-0.0454545 4:0.297297 5:0.512894 6:0.0546985 7:0.459716 8:0.0420561 9:0.25 
-0 -0 -2 -0 -0 0 1:0.490196 2:0.391473 3:-0.0454545 4:0.294294 5:0.512894 6:0.0546985 7:0.440758 8:0.0420561 9:0.221311 
-0.8566009711752481 -0 -0 -0 -2 0 1:0.490196 2:0.383721 3:-0.0454545 4:0.279279 5:0.512894 6:0.0546985 7:0.440758 8:0.0373832 9:0.221311 
-0 -0 -0 -0 -0.1731078894037118 0.2577153406521303 1:0.490196 2:0.383721 3:-0.0584416 4:0.279279 5:0.507163 6:0.0546985 7:0.440758 8:0.0373832 9:0.221311 
-0 -0 -1.467665936957395 -0 -0 0 1:0.377451 2:0.465116 3:0.0194805 4:0.156156 5:0.266476 6:0.186536 7:0.412322 8:-0.088785 9:0.364754 
-0 -0 -2 -0 -0 0 1:0.377451 2:0.457364 3:0.012987 4:0.156156 5:0.266476 6:0.183731 7:0.412322 8:-0.0934579 9:0.364754 
-0 -0 -2 -0 -0 0 1:0.372549 2:0.457364 3:-0.00324675 4:0.156156 5:0.266476 6:0.183731 7:0.412322 8:-0.0934579 9:0.364754 
-0 -0 -2 -0 -0 0 1:0.357843 2:0.453488 3:-0.00324675 4:0.147147 5:0.255014 6:0.183731 7:0.412322 8:-0.0934579 9:0.364754 
-0 -0 -2 -0 -0 0 1:0.372549 2:0.457364 3:-0.00324675 4:0.156156 5:0.266476 6:0.183731 7:0.412322 8:-0.0934579 9:0.364754 
-0 -0 -2 -0 -0 0 1:0.377451 2:0.46124 3:-0.00324675 4:0.156156 5:0.266476 6:0.189341 7:0.412322 8:-0.0934579 9:0.360656 
-0 -0 -2 -0 -0 0 1:0.372549 2:0.46124 3:-0.0227273 4:0.156156 5:0.243553 6:0.180926 7:0.383886 8:-0.102804 9:0.352459 
-0 -0 -2 -0 -0 0 1:0.377451 2:0.46124 3:-0.0227273 4:0.159159 5:0.249284 6:0.180926 7:0.412322 8:-0.0981308 9:0.352459 
-0 -0 -0.9545593221123273 -0 -0 0 1:0.382353 2:0.46124 3:-0.0227273 4:0.159159 5:0.249284 6:0.180926 7:0.412322 8:-0.0981308 9:0.356557 
-0 -0 -2 -0 -0 0 1:0.382353 2:0.46124 3:-0.0227273 4:0.162162 5:0.249284 6:0.180926 7:0.412322 8:-0.0981308 9:0.356557 
-0 -0 -2 -0 -0 0 1:0.387255 2:0.46124 3:-0.0227273 4:0.162162 5:0.249284 6:0.180926 7:0.412322 8:-0.0981308 9:0.356557 
-0 -0 -0 -0 -0 0.2186194424231676 1:0.27451 2:0.313953 3:-0.594156 4:-0.399399 5:-0.381089 6:-0.178121 7:0.0521327 8:0.0607477 9:0.221311 
-0 -0 -0.2341128054502246 -0 -0 0 1:0.357843 2:0.488372 3:0.00974026 4:0.138138 5:0.2149 6:0.253857 7:0.49763 8:-0.154206 9:0.42623 
-0 -0 -0 -0 -0 1.64081245324151 1:0.220588 2:0.147287 3:-0.0714286 4:-0.189189 5:-0.633238 6:0.200561 7:0.184834 8:-0.626168 9:0.22541 
-0 -0 -0.7711872068414719 -0 -0 0 1:0.313725 2:0.511628 3:0.0876623 4:-0.012012 5:0.0315186 6:0.368864 7:0.336493 8:-0.252336 9:0.520492 
-0 -0 -2 -0 -0 0 1:0.27451 2:0.511628 3:0.155844 4:-0.0840841 5:-0.117479 6:0.475456 7:0.327014 8:-0.369159 9:0.557377 
-0 -0 -0 -0.6906817283682947 -0 0 1:0.323529 2:0.232558 3:-0.00649351 4:-0.192192 5:-0.581662 6:0.329593 7:0.308057 8:-0.649533 9:0.254098 
-0.3597214236924435 -0 -0 -0 -0 0 1:0.308824 2:0.546512 3:0.214286 4:-0.129129 5:-0.123209 6:0.553997 7:0.260664 8:-0.411215 9:0.540984 
-0 -0 -1.415667473494414 -0 -0 0 1:0.279412 2:0.565891 3:0.227273 4:-0.141141 5:-0.111748 6:0.604488 7:0.374408 8:-0.406542 9:0.627049 
-0 -0 -2 -0 -0.08225954609783503 0 1:0.279412 2:0.565891 3:0.227273 4:-0.141141 5:-0.111748 6:0.604488 7:0.35545 8:-0.406542 9:0.627049 
-0 -0.100902470129367 -0 -0 -0 0 1:0.485294 2:0.670543 3:0.308442 4:-0.0750751 5:-0.0773639 6:0.635344 7:0.488152 8:-0.313084 9:0.672131 
-0.3522394906749342 -0 -0 -0 -0.002405688198313573 -0 1:0.578431 2:0.51938 3:-0.519481 4:-0.03003 5:0.604585 6:-0.12763 7:-0.914692 8:0.948598 9:-0.758197 
-0 -0.1034002990152969 -0.4176488820456622 -0 -0 -0 1:0.583333 2:0.515504 3:-0.525974 4:-0.039039 5:0.644699 6:-0.110799 7:-0.914692 8:0.96729 9:-0.778689 
-2 -1.711759654135657 -0.4341833465459985 -0 -0 -0.2721173705888679 1:-0.568627 2:-0.0968992 3:-0.324675 4:-0.978979 5:0.00286533 6:-0.43899 7:-0.981043 8:-0.434579 9:-0.159836 
-1.003022865717834 -0 -0 -0 -0 -0 1:-0.568627 2:-0.0968992 3:-0.324675 4:-0.975976 5:0.0143266 6:-0.436185 7:-0.962085 8:-0.429907 9:-0.151639 
-0 -0 -0 -0 -0.185110818569497 -0 1:-0.343137 2:-0.0387597 3:-0.292208 4:-0.840841 5:0.111748 6:-0.40533 7:-0.526066 8:-0.397196 9:-0.057377 
-0 -0 -0 -0 -2 -0 1:-0.367647 2:-0.0387597 3:-0.295455 4:-0.840841 5:0.111748 6:-0.40533 7:-0.526066 8:-0.401869 9:-0.057377 
-0 -0 -0 -0 -2 -0 1:-0.367647 2:-0.0465116 3:-0.295455 4:-0.840841 5:0.100287 6:-0.40533 7:-0.526066 8:-0.420561 9:-0.057377 
-0 -0 -0 -0 -2 -0 1:-0.367647 2:-0.0542636 3:-0.295455 4:-0.840841 5:0.100287 6:-0.396914 7:-0.43128 8:-0.439252 9:-0.0409836 
-2 -0 -0 -0 -0 -0 1:-0.279412 2:-0.0697674 3:-0.292208 4:-0.75976 5:0.100287 6:-0.380084 7:-0.2891 8:-0.471963 9:0.0368852 
-0.9128509819084766 -0 -0 -0 -0 -0 1:-0.279412 2:-0.0813953 3:-0.295455 4:-0.765766 5:0.0888252 6:-0.385694 7:-0.2891 8:-0.485981 9:0.0368852 
-2 -0 -0 -0 -0 -0 1:-0.279412 2:-0.0813953 3:-0.295455 4:-0.75976 5:0.0888252 6:-0.380084 7:-0.270142 8:-0.481308 9:0.0368852 
-2 -0.6440721163465256 -0 -0 -0 -0 1:-0.259804 2:-0.0813953 3:-0.308442 4:-0.750751 5:0.0945559 6:-0.385694 7:-0.232227 8:-0.481308 9:0.0532787 
-2 -2 -1.020882555714229 -1.119809384249818 -2 -1.881956525182242 1:-0.186275 2:-0.127907 3:-0.298701 4:-0.612613 5:0.13467 6:-0.402525 7:-0.042654 8:-0.560748 9:0.118852 
-2 -1.772125902600637 -1.154280489645803 -2 -2 -2 1:0.142157 2:0.155039 3:-0.214286 4:-0.24024 5:-0.0716332 6:-0.194951 7:-0.042654 8:-0.434579 9:-0.286885 
-2 -0 -0 -2 -2 -2 1:0.142157 2:0.155039 3:-0.214286 4:-0.243243 5:-0.0716332 6:-0.194951 7:-0.042654 8:-0.434579 9:-0.286885 
-2 -0 -0 -2 -0 -0 1:0.151961 2:0.178295 3:-0.204545 4:-0.243243 5:-0.0601719 6:-0.186536 7:-0.042654 8:-0.411215 9:-0.286885 
-2 -0 -0 -2 -0 -0 1:0.161765 2:0.182171 3:-0.204545 4:-0.24024 5:-0.0544413 6:-0.186536 7:-0.042654 8:-0.411215 9:-0.286885 
-2 -0 -0 -2 -0 -0 1:0.176471 2:0.182171 3:-0.204545 4:-0.24024 5:-0.0544413 6:-0.186536 7:-0.0331754 8:-0.411215 9:-0.282787 
-2 -0 -0 -2 -0 -0 1:0.176471 2:0.182171 3:-0.204545 4:-0.225225 5:-0.0429799 6:-0.175316 7:-0.0236967 8:-0.406542 9:-0.282787 
-0 -0 -0 -1.838543876886943 -0 -2 1:0.176471 2:0.205426 3:-0.204545 4:-0.246246 5:-0.0372493 6:-0.1669 7:0.042654 8:-0.406542 9:-0.258197 
-0 -0 -0 -0 -0 -0.4627224814467103 1:0.176471 2:0.205426 3:-0.204545 4:-0.246246 5:-0.0372493 6:-0.1669 7:0.0236967 8:-0.406542 9:-0.258197 
-0 -0 -2 -0 -0 -0 1:0.70098 2:0.406977 3:-0.149351 4:0.171171 5:0.318052 6:-0.183731 7:0.0995261 8:0.214953 9:-0.0614754 
-0 -0 -1.174406354067281 -0 -0 -0 1:0.710784 2:0.406977 3:-0.207792 4:0.174174 5:0.318052 6:-0.180926 7:0.07109 8:0.200935 9:-0.114754 
-0 -0 -2 -0 -0 -0 1:0.710784 2:0.387597 3:-0.207792 4:0.174174 5:0.318052 6:-0.192146 7:0.07109 8:0.200935 9:-0.114754 
-0 -0 -0.2305584043744553 -0 -0 -0 1:0.843137 2:0.395349 3:-0.266234 4:0.237237 5:0.335244 6:-0.239832 7:0.109005 8:0.21028 9:-0.118852 
-0 -1.191920852530897 -0 -0 -0 -0.4436243808410859 1:0.833333 2:0.391473 3:-0.327922 4:0.243243 5:0.39255 6:-0.312763 7:0.184834 8:0.224299 9:-0.127049 
-0 -0 -0 -0.5000326812960197 -0 -0 1:0.808824 2:0.387597 3:-0.331169 4:0.234234 5:0.39255 6:-0.315568 7:0.165877 8:0.224299 9:-0.139344 
-0 -0 -0 -0 -0 -1.891565234741356 1:0.681373 2:0.352713 3:-0.331169 4:0.0810811 5:0.358166 6:-0.223001 7:0.232227 8:0.186916 9:-0.0737705 
-0 -0 -0 -0 -0 -2 1:0.666667 2:0.348837 3:-0.331169 4:0.0720721 5:0.358166 6:-0.223001 7:0.232227 8:0.17757 9:-0.0737705 
-0 -0 -0 -0 -0 -2 1:0.661765 2:0.348837 3:-0.344156 4:0.0720721 5:0.358166 6:-0.223001 7:0.232227 8:0.17757 9:-0.0737705 
-0 -0 -0 -0 -0 -2 1:0.656863 2:0.348837 3:-0.347403 4:0.0660661 5:0.369628 6:-0.200561 7:0.241706 8:0.17757 9:-0.0737705 
-0 -0 -0 -0 -0 -2 1:0.656863 2:0.348837 3:-0.347403 4:0.0660661 5:0.375358 6:-0.192146 7:0.251185 8:0.17757 9:-0.0737705 
-0 -0 -2 -0 -0 -2 1:0.642157 2:0.302326 3:-0.37013 4:0.0780781 5:0.39255 6:-0.169705 7:0.260664 8:0.186916 9:-0.0901639 
-0 -0.2079812223300301 -0 -0 -0.498040833027663 -1.609154680558065 1:-0.0294118 2:0.0426357 3:-0.334416 4:-0.672673 5:0.163324 6:-0.43899 7:-0.165877 8:-0.504673 9:0.0983607 
-0 -0 -0 -1.63280455745302 -0 -0 1:0.279412 2:0.228682 3:-0.194805 4:-0.261261 5:0.186246 6:-0.12763 7:0.194313 8:-0.345794 9:-0.29918 
-0 -0 -0 -0 -0 -2 1:0.583333 2:0.27907 3:-0.373377 4:0.027027 5:0.381089 6:-0.1669 7:0.336493 8:0.172897 9:-0.102459 
-0 -0.6030387144860421 -0 -0 -0 -0.362808305964068 1:0.583333 2:0.251938 3:-0.373377 4:0.003003 5:0.381089 6:-0.175316 7:0.336493 8:0.168224 9:-0.102459 
-0 -0 -0 -2 -0 -0 1:0.52451 2:0.244186 3:-0.405844 4:-0.03003 5:0.369628 6:-0.203366 7:0.260664 8:0.116822 9:-0.147541 
-0 -0 -0 -2 -0 -0 1:0.52451 2:0.244186 3:-0.405844 4:-0.03003 5:0.369628 6:-0.206171 7:0.260664 8:0.116822 9:-0.155738 
-0 -0 -0 -2 -0 -0 1:0.534314 2:0.244186 3:-0.402597 4:-0.03003 5:0.375358 6:-0.203366 7:0.270142 8:0.116822 9:-0.151639 
-0 -0 -0 -2 -0 -0 1:0.529412 2:0.251938 3:-0.409091 4:-0.024024 5:0.386819 6:-0.206171 7:0.270142 8:0.130841 9:-0.147541 
-0 -0 -0 -2 -0 -0 1:0.529412 2:0.251938 3:-0.409091 4:-0.024024 5:0.386819 6:-0.208976 7:0.270142 8:0.130841 9:-0.151639 
-0 -0 -0 -0.4924205482626459 -0 -0 1:0.529412 2:0.251938 3:-0.412338 4:-0.03003 5:0.386819 6:-0.208976 7:0.260664 8:0.130841 9:-0.151639 
-0 -0 -0 -2 -0 -0 1:0.52451 2:0.255814 3:-0.402597 4:-0.03003 5:0.438395 6:-0.203366 7:0.270142 8:0.130841 9:-0.155738 
-0 -0 -0 -2 -0 -0 1:0.519608 2:0.255814 3:-0.402597 4:-0.039039 5:0.438395 6:-0.203366 7:0.270142 8:0.121495 9:-0.155738 
-2 -0 -0 -0 -0 -0 1:0.519608 2:0.25969 3:-0.38961 4:-0.039039 5:0.461318 6:-0.194951 7:0.270142 8:0.126168 9:-0.147541 
-0.9547692894175328 -0 -0 -0 -0 -0 1:0.519608 2:0.25969 3:-0.38961 4:-0.039039 5:0.461318 6:-0.189341 7:0.270142 8:0.126168 9:-0.147541 
-0 -0 -0 -0 -2 -0 1:0.0441176 2:0.0697674 3:-0.288961 4:-0.843844 5:0.318052 6:-0.458626 7:-0.469194 8:-0.299065 9:-0.0368852 
-0 -0 -0 -0 -0.12180383074687 -0 1:0.387255 2:0.236434 3:-0.422078 4:-0.309309 5:0.404011 6:-0.172511 7:-0.0236967 8:0.0233645 9:-0.340164 
-0 -0 -0 -0 -2 -0 1:0.387255 2:0.236434 3:-0.425325 4:-0.312312 5:0.404011 6:-0.172511 7:-0.0236967 8:0.0186916 9:-0.340164 
-0 -0 -0 -0 -2 -0 1:0.387255 2:0.228682 3:-0.431818 4:-0.315315 5:0.404011 6:-0.172511 7:-0.0236967 8:0.0046729 9:-0.340164 
-0 -0 -0 -0 -1.972828607891242 -0 1:0.387255 2:0.232558 3:-0.431818 4:-0.315315 5:0.404011 6:-0.169705 7:-0.0236967 8:0.00934579 9:-0.340164 
-0.01283831453463621 -0.4896023500320881 -0 -0 -0 -0.4422890249268508 1:0.598039 2:0.503876 3:-0.480519 4:-0.462462 5:0.977077 6:-0.180926 7:-0.914692 8:0.892523 9:-0.877049 
-0 -0 -0 -0 -0.4736705920516551 -0 1:0.0686275 2:0.0426357 3:-0.201299 4:-0.903904 5:0.449857 6:-0.483871 7:-0.696682 8:-0.135514 9:-0.147541 
-0 -0 -0 -0 -0.3702788393501024 -0 1:0.0147059 2:-0.0193798 3:-0.217532 4:-0.942943 5:0.375358 6:-0.489481 7:-0.696682 8:-0.182243 9:-0.147541 
-0 -0 -0 -0 -2 -0 2:-0.0348837 3:-0.217532 4:-0.942943 5:0.358166 6:-0.489481 7:-0.696682 8:-0.191589 9:-0.147541 
-0 -0 -0 -0 -2 -0 2:-0.0348837 3:-0.217532 4:-0.942943 5:0.358166 6:-0.489481 7:-0.696682 8:-0.196262 9:-0.147541 
-0 -0 -0 -1.188478421700111 -2 -0 2:-0.0348837 3:-0.224026 4:-0.942943 5:0.352436 6:-0.489481 7:-0.696682 8:-0.196262 9:-0.151639 
-0 -0 -0 -0 -1.606503289931832 -0 1:0.205882 2:0.0930233 3:-0.230519 4:-0.57958 5:0.203438 6:-0.0434783 7:-0.260664 8:-0.308411 9:-0.598361 
-0 -0 -0 -0 -2 -0 1:0.205882 2:0.0930233 3:-0.230519 4:-0.57958 5:0.203438 6:-0.0434783 7:-0.270142 8:-0.308411 9:-0.598361 
-0 -0 -0 -0 -2 -0 1:0.205882 2:0.0930233 3:-0.230519 4:-0.57958 5:0.197708 6:-0.0434783 7:-0.270142 8:-0.313084 9:-0.598361 
-0 -0 -0 -2 -0 -0 1:0.45098 2:0.166667 3:-0.418831 4:-0.246246 5:0.415473 6:-0.13324 7:0.0616114 8:0.0514019 9:-0.389344 
-0 -0 -0 -0.005000662524458232 -0 -0 1:0.45098 2:0.166667 3:-0.418831 4:-0.249249 5:0.415473 6:-0.13324 7:0.0616114 8:0.046729 9:-0.389344 
-0 -0 -0 -0.4520212721552965 -0 -0 1:0.45098 2:0.166667 3:-0.418831 4:-0.252252 5:0.409742 6:-0.13324 7:0.0616114 8:0.0420561 9:-0.389344 
