svm_type c_svc
kernel_type rbf
gamma 0.5
nr_class 6
total_sv 303
rho 0.0162504 0.174774 0.106752 0.168016 0.473903 0.215998 0.0630169 -0.294329 -0.101515 0.492443 0.0352736 -0.356955 -0.0204721 0.0489965 0.0942877
label 0 3 5 6 8 9
nr_sv 47 62 47 31 62 54
SV
0 2 0 0 0 1:-0.0774194 2:0.533333 3:-0.0765027 4:-0.0324484 5:0.462366 6:0.0909091 7:0.485714 8:-0.104651 9:0.353612 
0 1.441368518790077 0 0 0 1:-0.083871 2:0.533333 3:-0.0874317 4:-0.0324484 5:0.455197 6:0.0909091 7:0.469388 8:-0.104651 9:0.353612 
0 0 1.709460283457323 0 0 1:-0.212903 2:0.50303 3:-0.0819672 4:-0.0943953 5:0.476703 6:0.0330579 7:0.469388 8:-0.0639535 9:0.368821 
0 0 0.1964408992654159 0 0 1:-0.251613 2:0.50303 3:-0.0874317 4:-0.135693 5:0.469534 7:0.420408 8:-0.0697674 9:0.338403 
0.2041227726649835 0.2710264638501477 0.7909242191181741 2 0.8072010495110681 1:0.593548 2:0.642424 3:-0.120219 4:0.480826 5:0.304659 6:-0.00826446 7:0.240816 8:-0.447674 9:0.0342205 
0 0 0 0.750619468738625 2 1:0.606452 2:0.636364 3:-0.10929 4:0.463127 5:0.304659 6:-0.0165289 7:0.257143 8:-0.447674 9:0.0418251 
2 0 0 0 0 1:0.580645 2:0.636364 3:-0.125683 4:0.463127 5:0.297491 6:-0.0165289 7:0.24898 8:-0.447674 9:0.0418251 
2 0 0 0 2 1:0.580645 2:0.612121 3:-0.125683 4:0.460177 5:0.297491 6:-0.0495868 7:0.24898 8:-0.447674 9:0.0418251 
0 0 0 0 2 1:0.574194 2:0.551515 3:-0.142077 4:0.439528 5:0.340502 6:-0.00826446 7:0.257143 8:-0.453488 9:0.0646388 
0.4107025667059691 0 0 0 0 1:0.548387 2:0.551515 3:-0.15847 4:0.439528 5:0.318996 6:-0.00826446 7:0.257143 8:-0.453488 9:0.0646388 
2 0 0 2 0 1:0.509677 2:0.593939 3:-0.147541 4:0.421829 5:0.268817 6:0.0165289 7:0.232653 8:-0.482558 9:0.0798479 
0 0 0 0.3012827836596152 0 1:-0.296774 2:0.551515 3:0.0710383 4:0.0737463 5:0.103943 6:0.132231 7:0.346939 8:-0.563953 9:0.292776 
0 0 0 0 1.220315211762759 1:0.109677 2:-0.0666667 3:-0.185792 4:0.00884956 5:0.0681004 6:-0.0413223 7:0.379592 8:-0.412791 9:0.48289 
0.8566513756647733 0 0 0 0 1:0.109677 2:-0.0666667 3:-0.185792 4:0.00884956 5:0.0681004 6:-0.0413223 7:0.379592 8:-0.412791 9:0.513308 
0 1.235508294671224 0 0 0 1:0.0451613 2:-0.2 3:-0.234973 4:-0.0678466 5:0.0250896 6:-0.0909091 7:0.379592 8:-0.418605 9:0.48289 
0 2 0 0 0 1:0.109677 2:-0.151515 3:-0.229508 4:-0.0117994 5:0.0752688 6:-0.0330579 7:0.404082 8:-0.424419 9:0.498099 
0.100912925531506 0 0 0 0 1:-0.116129 2:-0.030303 3:-0.131148 4:0.132743 5:-0.290323 6:-0.123967 7:0.240816 8:-0.901163 9:0.460076 
0 0 0 0.8637910544761037 0 1:-0.0258065 2:-0.0606061 3:-0.120219 4:0.138643 5:-0.240143 6:-0.0743802 7:0.24898 8:-0.906977 9:0.475285 
0 0 0.179239100533222 0 0 1:-0.109677 2:-0.127273 3:-0.125683 4:0.0943953 5:-0.283154 6:-0.107438 7:0.24898 8:-0.930233 9:0.460076 
0 0.319666124022394 0 0 0 1:-0.167742 2:-0.333333 3:-0.497268 4:-0.174041 5:-0.182796 6:-0.31405 7:0.240816 8:-0.430233 9:0.406844 
0.1279247545247262 0 0 0 0 1:-0.141935 2:-0.248485 3:-0.480874 4:-0.135693 5:-0.132616 6:-0.297521 7:0.265306 8:-0.430233 9:0.414449 
0 1.927495866637168 0 0 0 1:-0.43871 2:-0.527273 3:-0.666667 4:-0.371681 5:-0.426523 6:-0.578512 7:0.077551 8:-0.511628 9:0.193916 
0 0 1.133384504226392 0 0 1:-0.825806 2:-0.0484848 3:-0.398907 4:-0.528024 5:0.168459 6:-0.801653 7:0.0285714 8:0.0348837 9:-0.102662 
0.6579035942855145 0 0 0 0 1:-0.967742 2:-0.109091 3:-0.382514 4:-0.59882 5:0.11828 6:-0.842975 7:0.0693878 8:0.0523256 9:-0.0722433 
0 0 0 0.4530715270043614 0 1:-0.967742 2:-0.127273 3:-0.393443 4:-0.610619 5:0.111111 6:-0.842975 7:0.0693878 8:0.0465116 9:-0.095057 
0 1.653710776061838 0 0 0 1:-0.896774 2:-0.115152 3:-0.398907 4:-0.59587 5:0.11828 6:-0.826446 7:0.0530612 8:0.0639535 9:-0.102662 
0 0 1.009232997574059 0 0 1:-0.890323 2:-0.109091 3:-0.398907 4:-0.581121 5:0.139785 6:-0.826446 7:0.0530612 8:0.0639535 9:-0.102662 
0 0 0 0 1.889246021948854 1:-0.845161 2:-0.109091 3:-0.398907 4:-0.581121 5:0.154122 6:-0.818182 7:0.0612245 8:0.0813953 9:-0.095057 
0 2 0 0 0 1:-0.870968 2:-0.109091 3:-0.398907 4:-0.566372 5:0.132616 6:-0.809917 7:0.077551 8:0.0813953 9:-0.095057 
0 0.03428507024752649 0 0 0 1:-0.954839 2:-0.0848485 3:-0.355191 4:-0.59292 5:0.154122 6:-0.760331 7:0.159184 8:0.0872093 9:-0.026616 
0 0 0 0 2 1:-0.109677 2:0.163636 3:-0.147541 4:-0.0294985 5:0.0250896 6:-0.115702 7:0.0857143 8:-0.546512 9:0.140684 
0 0 0 0 2 1:-0.109677 2:0.163636 3:-0.147541 4:-0.0294985 5:0.0250896 6:-0.115702 7:0.0857143 8:-0.534884 9:0.140684 
0 0 0 0 2 1:-0.109677 2:0.163636 3:-0.147541 4:-0.0117994 5:0.0394265 6:-0.115702 7:0.0857143 8:-0.52907 9:0.140684 
0 0 0 0 2 1:-0.109677 2:0.163636 3:-0.147541 4:-0.0117994 5:0.0394265 6:-0.115702 7:0.0857143 8:-0.52907 9:0.140684 
0 0 0 0 1.272645982241749 1:-0.109677 2:0.163636 3:-0.147541 4:-0.0117994 5:0.0537634 6:-0.0743802 7:0.0857143 8:-0.52907 9:0.140684 
0 0 0 0 2 1:-0.0645161 2:0.115152 3:-0.202186 4:0.0294985 5:0.0609319 6:-0.132231 7:0.0857143 8:-0.534884 9:0.110266 
0 0 0 0 2 1:-0.0645161 2:0.10303 3:-0.213115 4:0.0294985 5:0.0394265 6:-0.132231 7:0.077551 8:-0.546512 9:0.102662 
0.7504808898337743 0 0.8246566176648957 0.710944907364544 0.3398609214647595 1:-0.767742 2:-0.987879 3:-0.918033 4:-0.581121 5:-0.698925 6:-1 7:-0.118367 8:-0.627907 9:-0.0418251 
0 0.842824653837618 0 0 1.027805487124875 1:-0.748387 2:-0.945455 3:-0.819672 4:-0.584071 5:-0.706093 6:-0.876033 7:-0.044898 8:-0.610465 9:0.026616 
0 0 0.1593576197462498 0 0 2:-0.30303 3:-0.398907 4:0.0943953 5:-0.369176 6:-0.289256 7:0.044898 8:-0.965116 9:0.391635 
0 0 0 0 1.076033989965867 2:-0.29697 3:-0.404372 4:0.103245 5:-0.369176 6:-0.297521 7:0.0367347 8:-0.965116 9:0.368821 
0 0 0 1.213843797692453 0 1:0.0387097 2:-0.266667 3:-0.437158 4:0.141593 5:-0.333333 6:-0.264463 7:0.0285714 8:-0.953488 9:0.368821 
2 0 0 0 0 1:0.0516129 2:-0.254545 3:-0.453552 4:0.150442 5:-0.318996 6:-0.289256 7:0.0367347 8:-0.953488 9:0.346008 
0 0 0 2 0 1:0.0516129 2:-0.254545 3:-0.453552 4:0.141593 5:-0.333333 6:-0.289256 7:0.0367347 8:-0.965116 9:0.346008 
1.375716427490629 0 0 0 0 1:0.0322581 2:-0.254545 3:-0.453552 4:0.138643 5:-0.340502 6:-0.272727 7:0.0693878 8:-0.965116 9:0.361217 
2 0 0 0 0 1:0.0322581 2:-0.248485 3:-0.448087 4:0.138643 5:-0.340502 6:-0.272727 7:0.077551 8:-0.965116 9:0.361217 
2 0 0 0 0 1:0.0193548 2:-0.248485 3:-0.448087 4:0.135693 5:-0.340502 6:-0.272727 7:0.0857143 8:-0.959302 9:0.361217 
-0 0 0 2 0 1:0.670968 2:0.672727 3:-0.338798 4:0.778761 5:0.182796 6:0.31405 7:0.420408 8:-0.616279 9:0.551331 
-0 0 0 2 0 1:0.645161 2:0.672727 3:-0.349727 4:0.778761 5:0.139785 6:0.289256 7:0.387755 8:-0.616279 9:0.505703 
-0 0 0.1769683037252006 2 2 1:0.645161 2:0.666667 3:-0.349727 4:0.764012 5:0.111111 6:0.289256 7:0.363265 8:-0.616279 9:0.490494 
-0 0 0 2 0 1:0.625806 2:0.636364 3:-0.360656 4:0.710914 5:0.0752688 6:0.157025 7:0.363265 8:-0.616279 9:0.452471 
-0 0 0 2 0 1:0.619355 2:0.624242 3:-0.360656 4:0.705015 5:0.0681004 6:0.157025 7:0.363265 8:-0.627907 9:0.444867 
-0 0 0 2 0 1:0.619355 2:0.624242 3:-0.360656 4:0.707965 5:0.0752688 6:0.157025 7:0.363265 8:-0.616279 9:0.444867 
-0 0 0 2 0 1:0.619355 2:0.624242 3:-0.360656 4:0.707965 5:0.0752688 6:0.157025 7:0.363265 8:-0.610465 9:0.444867 
-0 0 0 2 0 1:0.619355 2:0.624242 3:-0.360656 4:0.707965 5:0.0752688 6:0.165289 7:0.379592 8:-0.604651 9:0.452471 
-0 0 0 2 0 1:0.619355 2:0.624242 3:-0.349727 4:0.710914 5:0.0752688 6:0.173554 7:0.379592 8:-0.604651 9:0.452471 
-2 0 0 2 0 1:0.587097 2:0.606061 3:-0.349727 4:0.707965 5:0.103943 6:0.173554 7:0.379592 8:-0.598837 9:0.452471 
-0 0 0 2 0 1:0.574194 2:0.6 3:-0.360656 4:0.707965 5:0.0752688 6:0.173554 7:0.379592 8:-0.598837 9:0.444867 
-0 0 0 2 0 1:0.574194 2:0.557576 3:-0.377049 4:0.702065 5:0.0752688 6:0.165289 7:0.379592 8:-0.598837 9:0.452471 
-0 0 0 2 0 1:0.574194 2:0.557576 3:-0.371585 4:0.702065 5:0.0752688 6:0.165289 7:0.379592 8:-0.598837 9:0.452471 
-0 0 0 0.4251469129499718 0 1:0.567742 2:0.575758 3:-0.377049 4:0.702065 5:0.0824373 6:0.173554 7:0.379592 8:-0.598837 9:0.452471 
-0 0 0 2 0 1:0.593548 2:0.575758 3:-0.377049 4:0.713864 5:0.111111 6:0.173554 7:0.395918 8:-0.581395 9:0.452471 
-0 0 0 2 0 1:0.6 2:0.563636 3:-0.360656 4:0.710914 5:0.11828 6:0.157025 7:0.404082 8:-0.569767 9:0.48289 
-0 0 0 2 0 1:0.593548 2:0.563636 3:-0.398907 4:0.710914 5:0.0896057 6:0.157025 7:0.363265 8:-0.569767 9:0.460076 
-0 0 0 1.006084266233718 0 1:0.587097 2:0.539394 3:-0.42623 4:0.696165 5:0.0896057 6:0.157025 7:0.346939 8:-0.581395 9:0.460076 
-0.7244748890278602 1.058464068071355 0.8251151758660691 0.6462989783294778 2 1:0.980645 2:0.684848 4:0.884956 5:0.612903 6:0.520661 7:0.893878 8:-0.156977 9:0.984791 
-0 0 0 2 0 1:0.974194 2:0.666667 3:-0.0218579 4:0.870206 5:0.548387 6:0.413223 7:0.893878 8:-0.180233 9:0.954373 
-0 0 0 2 0 1:0.96129 2:0.654545 3:-0.0273224 4:0.858407 5:0.541219 6:0.413223 7:0.893878 8:-0.180233 9:0.931559 
-0 0 0 2 0 1:0.96129 2:0.642424 3:-0.0273224 4:0.858407 5:0.541219 6:0.413223 7:0.893878 8:-0.186047 9:0.931559 
-0 0 0 2 0.6824898569137426 1:0.96129 2:0.642424 3:-0.0273224 4:0.858407 5:0.548387 6:0.429752 7:0.893878 8:-0.180233 9:0.931559 
-0 0 0 2 0 1:0.974194 2:0.642424 3:-0.0218579 4:0.858407 5:0.555556 6:0.429752 7:0.910204 8:-0.180233 9:0.954373 
-0 0 0 1.013112637799428 0 1:0.974194 2:0.654545 3:-0.0218579 4:0.864307 5:0.555556 6:0.429752 7:0.910204 8:-0.174419 9:0.954373 
-0 0 0 2 0 1:0.625806 2:0.0242424 3:-0.245902 4:0.80531 5:-0.333333 6:-0.214876 7:0.24898 8:-0.930233 9:0.718631 
-0 0 0 2 0 1:0.619355 2:0.0242424 3:-0.251366 4:0.831858 5:-0.318996 6:-0.206612 7:0.24898 8:-0.889535 9:0.657795 
-0 0 0 2 0 1:0.625806 2:0.0242424 3:-0.245902 4:0.831858 5:-0.318996 6:-0.206612 7:0.257143 8:-0.889535 9:0.680608 
-0 0 0 0.8806732854712293 0 1:0.632258 2:0.0242424 3:-0.240437 4:0.823009 5:-0.304659 6:-0.165289 7:0.346939 8:-0.930233 9:0.741445 
-0 0 0 2 0 1:0.632258 2:0.0242424 3:-0.224044 4:0.834808 5:-0.304659 6:-0.165289 7:0.346939 8:-0.924419 9:0.741445 
-0 0 0 2 0 1:0.632258 2:0.0242424 3:-0.224044 4:0.837758 5:-0.297491 6:-0.14876 7:0.355102 8:-0.930233 9:0.756654 
-0 0 0 0.916552752802422 0 1:0.632258 2:0.0545455 3:-0.202186 4:0.843658 5:-0.297491 6:-0.0743802 7:0.363265 8:-0.953488 9:0.726236 
-0 0 0 2 0 1:0.632258 2:0.0606061 3:-0.196721 4:0.840708 5:-0.304659 6:-0.0743802 7:0.363265 8:-0.959302 9:0.741445 
-0 0 0 1.385865910106741 0 1:0.083871 2:-0.0969697 3:-0.601093 4:0.330383 5:-0.541219 6:-0.256198 7:0.22449 8:-0.406977 9:0.460076 
-0 2 0 0 0 1:0.083871 2:-0.115152 3:-0.601093 4:0.321534 5:-0.541219 6:-0.264463 7:0.22449 8:-0.418605 9:0.460076 
-0 0.479712748904093 0 0 0 1:0.083871 2:-0.0969697 3:-0.601093 4:0.330383 5:-0.541219 6:-0.256198 7:0.240816 8:-0.406977 9:0.460076 
-0 2 0 0 0 1:0.0322581 2:-0.115152 3:-0.622951 4:0.324484 5:-0.548387 6:-0.247934 7:0.216327 8:-0.436047 9:0.452471 
-0.9827660790584563 0 0 0 0 1:0.574194 2:0.545455 3:-0.415301 4:0.660767 5:0.0537634 6:0.0578512 7:0.306122 8:-0.563953 9:0.368821 
-2 0 0 0 0 1:0.522581 2:0.466667 3:-0.437158 4:0.60767 5:0.0537634 6:-0.157025 7:0.289796 8:-0.55814 9:0.338403 
-0 0.3822560962673258 0 0 0 1:0.896774 2:0.424242 3:-0.0491803 4:0.79056 5:0.455197 6:0.0991736 7:0.967347 8:-0.0523256 9:0.81749 
-0 0 0 2 0 1:0.619355 2:0.0121212 3:-0.0437158 4:0.817109 5:-0.311828 6:-0.165289 7:0.420408 8:-0.813953 9:0.825095 
-0 1.335866306114824 0 0 0 1:-0.0903226 2:-0.121212 3:-0.546448 4:0.280236 5:-0.634409 6:-0.22314 7:0.159184 8:-0.488372 9:0.467681 
-2 0 0 0 0 1:-0.0967742 2:-0.133333 3:-0.519126 4:0.283186 5:-0.620072 6:-0.214876 7:0.2 8:-0.505814 9:0.490494 
-2 0 0 0 0 1:-0.0967742 2:-0.133333 3:-0.519126 4:0.283186 5:-0.620072 6:-0.214876 7:0.191837 8:-0.505814 9:0.490494 
-0.3190294173218103 0 0 0 0 1:-0.083871 2:-0.0606061 3:-0.448087 4:0.309735 5:-0.591398 6:-0.0991736 7:0.22449 8:-0.517442 9:0.505703 
-0.2968150903779077 0 0 0 0 1:0.4 2:0.315152 3:-0.519126 4:0.516224 5:-0.139785 6:-0.38843 7:0.110204 8:-0.662791 9:0.0646388 
-2 0 0 0 0.1285386895605633 1:0.4 2:0.272727 3:-0.535519 4:0.516224 5:-0.139785 6:-0.404959 7:0.0857143 8:-0.674419 9:0.0570342 
-0 0 0 2 0 1:0.729032 2:0.266667 3:-0.103825 4:0.696165 5:0.204301 6:-0.0495868 7:0.812245 8:-0.197674 9:0.73384 
-0 0 0 1.069150965555446 0 1:0.722581 2:0.254545 3:-0.103825 4:0.693215 5:0.204301 6:-0.0826446 7:0.787755 8:-0.197674 9:0.718631 
-0 0 0 1.119123146960604 0 1:-0.0967742 2:-0.0424242 3:-0.382514 4:0.312684 5:-0.663082 6:-0.0909091 7:0.159184 8:-0.482558 9:0.48289 
-0 0 0.3707065625784008 0 1.842373094210644 1:-0.109677 2:-0.0363636 3:-0.377049 4:0.315634 5:-0.655914 6:-0.0743802 7:0.159184 8:-0.488372 9:0.490494 
-2 0 0 0 0 1:0.0322581 2:-0.0484848 3:-0.726776 4:0.312684 5:-0.433692 6:-0.867769 7:-0.102041 8:-0.796512 9:-0.163498 
-0.3755958859101306 0 0 0 0 1:0.0516129 2:-0.0484848 3:-0.715847 4:0.312684 5:-0.433692 6:-0.867769 7:-0.102041 8:-0.796512 9:-0.155894 
-0 0.9519766346540949 0 0 0 1:0.0645161 2:-0.0484848 3:-0.743169 4:0.312684 5:-0.433692 6:-0.892562 7:-0.126531 8:-0.77907 9:-0.209125 
-0 0 0 0 0.4512760792022793 1:0.0645161 2:-0.0121212 3:-0.743169 4:0.312684 5:-0.412186 6:-0.892562 7:-0.15102 8:-0.738372 9:-0.21673 
-0 0 0.9727537630363143 1.68192941184251 2 1:0.0580645 2:-0.0242424 3:-0.754098 4:0.312684 5:-0.412186 6:-0.892562 7:-0.167347 8:-0.738372 9:-0.224335 
-0.7570997562489146 0 0.03899507656091523 0 1.075703114360862 1:0.548387 2:0.0545455 3:0.0327869 4:0.569322 5:0.0681004 6:-0.231405 7:0.779592 8:-0.22093 9:0.680608 
-0 0.8686822854433699 0 0 0 1:0.567742 2:-0.0424242 3:0.0327869 4:0.536873 5:0.0752688 6:-0.190083 7:0.869388 8:-0.244186 9:0.81749 
-0 0 0.5445088432295823 0 0 1:0.6 2:-0.0484848 3:0.0491803 4:0.557522 5:0.103943 6:-0.190083 7:0.844898 8:-0.232558 9:0.825095 
-0.6954602777723429 0 0 0 0 1:0.367742 2:-0.121212 3:0.0163934 4:0.669617 5:-0.713262 6:-0.140496 7:0.17551 8:-0.988372 9:0.619772 
-0 0 0 0 0.1326127698289924 1:0.367742 2:-0.115152 3:0.0163934 4:0.693215 5:-0.684588 6:-0.190083 7:0.15102 8:-0.97093 9:0.589354 
-0.3331739109844529 0 0.287924000042064 0 0 1:0.374194 2:-0.181818 3:0.0327869 4:0.651917 5:-0.706093 6:-0.165289 7:0.281633 8:-0.994186 9:0.771863 
-0 -0 0 0 0.2122772194251734 1:-0.812903 2:0.0969697 3:-0.355191 4:-0.492625 5:-0.0179211 6:-0.0165289 7:0.22449 8:0.296512 9:-0.307985 
-0 -0 0 0 2 1:-0.812903 2:0.0545455 3:-0.355191 4:-0.498525 5:-0.0250896 6:-0.0247934 7:0.232653 8:0.302326 9:-0.277567 
-0 -0.2030329122490234 0 0 0 1:-0.980645 2:-0.00606061 3:-0.36612 4:-0.572271 5:0.0107527 6:-0.107438 7:0.281633 8:0.319767 9:-0.21673 
-0 -0 0 0.2327947769015581 0 1:-0.980645 2:0.0181818 3:-0.36612 4:-0.569322 5:0.0322581 6:-0.0413223 7:0.314286 8:0.337209 9:-0.21673 
-0 -0 2 0 0 1:-0.593548 2:-0.169697 3:-0.234973 4:-0.896755 5:0.103943 6:-0.446281 7:-0.453061 8:0.267442 9:-0.528517 
-0 -0 0.508754651241706 0 0 1:-0.593548 2:-0.169697 3:-0.234973 4:-0.893805 5:0.103943 6:-0.438017 7:-0.453061 8:0.267442 9:-0.528517 
-0 -0 2 0 0 1:-0.606452 2:-0.181818 3:-0.240437 4:-0.914454 5:0.0967742 6:-0.454545 7:-0.453061 8:0.255814 9:-0.536122 
-0 -0.249834098113967 2 0 0 1:-0.619355 2:-0.181818 3:-0.240437 4:-0.914454 5:0.0824373 6:-0.454545 7:-0.461224 8:0.255814 9:-0.543726 
-0 -0 2 0 0 1:-0.606452 2:-0.181818 3:-0.240437 4:-0.914454 5:0.0967742 6:-0.454545 7:-0.453061 8:0.255814 9:-0.536122 
-0 -0 2 0 0 1:-0.606452 2:-0.181818 3:-0.240437 4:-0.908555 5:0.0967742 6:-0.454545 7:-0.453061 8:0.261628 9:-0.536122 
-2 -0 2 0 0 1:0.0322581 2:0.0666667 4:-0.0737463 5:0.390681 6:0.272727 7:0.608163 8:0.203488 9:0.21673 
-0 -0 0.1773739876273632 0 0 1:0.00645161 2:0.0606061 3:0.0546448 4:-0.0884956 5:0.340502 6:0.330579 7:0.706122 8:0.180233 9:0.254753 
-1.13292618579174 -0 0 0 0 1:0.0129032 2:0.030303 3:-0.010929 4:-0.0855457 5:0.283154 6:0.272727 7:0.665306 8:0.104651 9:0.186312 
-1.981254752707502 -0 0 0 0 1:0.0129032 2:0.030303 3:-0.010929 4:-0.0855457 5:0.283154 6:0.272727 7:0.665306 8:0.104651 9:0.186312 
-0.0936663667665176 -1.012972551315011 0 0 2 1:-0.0580645 2:-0.193939 3:-0.590164 4:-0.238938 5:-0.612903 6:-0.0247934 7:0.412245 8:-0.267442 9:0.262357 
-2 -0 0 0 2 1:-0.0580645 2:-0.2 3:-0.590164 4:-0.244838 5:-0.612903 6:-0.0330579 7:0.412245 8:-0.267442 9:0.262357 
-0 -0 0 0.1617236917724346 0 1:-0.0258065 2:-0.193939 3:-0.579235 4:-0.233038 5:-0.634409 6:-0.0165289 7:0.420408 8:-0.261628 9:0.277567 
-0 -0 0 0 2 1:-0.0258065 2:-0.2 3:-0.590164 4:-0.247788 5:-0.648746 6:-0.0165289 7:0.420408 8:-0.261628 9:0.269962 
-0 -0 0 0 2 1:-0.0258065 2:-0.2 3:-0.590164 4:-0.247788 5:-0.648746 6:-0.0165289 7:0.420408 8:-0.261628 9:0.269962 
-0 -0 0 0 2 1:-0.0451613 2:-0.2 3:-0.590164 4:-0.247788 5:-0.648746 6:-0.0165289 7:0.420408 8:-0.261628 9:0.269962 
-0 -0 0 0 0.3265483161560587 1:-0.0451613 2:-0.193939 3:-0.579235 4:-0.244838 5:-0.648746 6:-0.0165289 7:0.428571 8:-0.255814 9:0.277567 
-0 -0.3547733687040473 0 0 0 1:-0.625806 2:-0.212121 3:-0.289617 4:-0.955752 5:0.0107527 6:-0.504132 7:-0.485714 8:0.232558 9:-0.536122 
-0 -0 0 0.8247416025778521 0 1:-0.625806 2:-0.224242 3:-0.306011 4:-0.973451 5:-0.0179211 6:-0.528926 7:-0.485714 8:0.232558 9:-0.543726 
-1.281885848747951 -0 0 0 0 1:-0.625806 2:-0.224242 3:-0.306011 4:-0.982301 5:-0.0179211 6:-0.528926 7:-0.461224 8:0.226744 9:-0.528517 
-0 -0 0 0 2 1:-0.0129032 2:-0.0787879 3:-0.0983607 4:-0.112094 5:0.175627 6:0.22314 7:0.616327 8:0.0988372 9:0.140684 
-0 -0 0 0 2 1:-0.0129032 2:-0.0787879 3:-0.103825 4:-0.112094 5:0.168459 6:0.22314 7:0.608163 8:0.0988372 9:0.140684 
-0 -0 0 0 1.144534626165394 1:-0.00645161 2:-0.0787879 3:-0.103825 4:-0.109145 5:0.175627 6:0.22314 7:0.616327 8:0.116279 9:0.140684 
-0 -0 1.205056372651991 0 0 1:0.083871 2:0.0666667 3:0.0491803 4:-0.0324484 5:0.369176 6:0.46281 7:0.836735 8:0.156977 9:0.353612 
-0 -0 0 0.1346417120443753 0 1:0.148387 2:0.0545455 3:0.0327869 4:-0.00589971 5:0.340502 6:0.520661 7:0.861224 8:0.122093 9:0.422053 
-0 -0.0222379227798862 0 0 0 1:0.103226 2:-0.266667 3:-0.68306 4:-0.141593 5:-0.698925 6:-0.157025 7:0.420408 8:-0.296512 9:0.285171 
-0 -2 0 0 0 1:0.187097 2:-0.327273 3:-0.825137 4:-0.020649 5:-0.835125 6:-0.247934 7:0.346939 8:-0.360465 9:0.30038 
-0 -0 0 0 0.3442698924462356 1:-0.645161 2:-0.260606 3:-0.448087 4:-0.542773 5:-0.11828 6:-0.280992 7:0.17551 8:0.296512 9:-0.285171 
-0 -0 0 0 2 1:-0.580645 2:-0.218182 3:-0.453552 4:-0.516224 5:-0.0967742 6:-0.280992 7:0.134694 8:0.302326 9:-0.353612 
-0 -0 0 0 2 1:-0.606452 2:-0.218182 3:-0.442623 4:-0.525074 5:-0.103943 6:-0.272727 7:0.118367 8:0.296512 9:-0.368821 
-0 -0 0 0 2 1:-0.580645 2:-0.218182 3:-0.459016 4:-0.525074 5:-0.11828 6:-0.297521 7:0.0938776 8:0.296512 9:-0.391635 
-2 -0 0 0 0 1:-0.851613 2:-0.272727 3:-0.453552 4:-0.640118 5:-0.146953 6:-0.380165 7:0.110204 8:0.255814 9:-0.330798 
-1.326996435148086 -0 0 0 0 1:-0.845161 2:-0.272727 3:-0.448087 4:-0.634218 5:-0.146953 6:-0.380165 7:0.110204 8:0.261628 9:-0.330798 
-0 -0 0 0 1.269159293237141 1:-0.425806 2:-0.224242 3:-0.508197 4:-0.955752 5:-0.232975 6:-0.380165 7:-0.167347 8:0.162791 9:-0.414449 
-0 -2 0 0 0 1:0.348387 2:-0.030303 3:-0.0874317 4:0.138643 5:0.25448 6:0.421488 7:0.853061 8:0.0755814 9:0.330798 
-0 -0.4050868944658207 0 1.835101088243368 0 1:0.335484 2:-0.030303 3:-0.0928962 4:0.138643 5:0.225806 6:0.421488 7:0.844898 8:0.0755814 9:0.323194 
-0 -0 0 0.582612581692063 0 1:0.206452 2:-0.375758 3:-0.868852 4:-0.0117994 5:-0.870968 6:-0.289256 7:0.289796 8:-0.401163 9:0.292776 
-0 -2 0 0 0 1:0.180645 2:-0.412121 3:-0.956284 4:0.0324484 5:-0.899642 6:-0.355372 7:0.24898 8:-0.424419 9:0.307985 
-0 -0.8290203918273077 0 0 0 1:0.2 2:-0.412121 3:-0.95082 4:0.020649 5:-0.899642 6:-0.355372 7:0.240816 8:-0.430233 9:0.307985 
-0 -0 0 2 0 1:0.2 2:-0.412121 3:-0.961749 4:0.020649 5:-0.90681 6:-0.355372 7:0.22449 8:-0.44186 9:0.30038 
-1.622713960472293 -0 0 0 0 1:0.122581 2:-0.466667 3:-0.956284 4:-0.00589971 5:-0.913978 6:-0.38843 7:0.240816 8:-0.476744 9:0.277567 
-0.2864422184839034 -0 0 0 0 1:0.083871 2:-0.460606 3:-0.994536 4:-0.0235988 5:-0.992832 6:-0.446281 7:0.216327 8:-0.488372 9:0.292776 
-0 -0 0.8736596313542954 0 0 1:0.0709677 2:-0.472727 3:-1 4:-0.0265487 5:-1 6:-0.446281 7:0.216327 8:-0.494186 9:0.277567 
-0.03973849613598703 -0 -0 0 0.2779123006960321 1:-0.845161 2:0.648485 3:-0.0382514 4:-0.483776 5:0.799283 6:0.322314 7:-0.379592 8:0.988372 9:-0.749049 
-0 -0.5179884863725861 -0 0.5227301169845251 0 1:-0.845161 2:0.612121 3:-0.0928962 4:-0.483776 5:0.784946 6:0.264463 7:-0.412245 8:1 9:-0.825095 
-0 -0 -0 0.190941440203453 0 1:-0.993548 2:0.206061 3:0.00546448 4:-0.9941 5:0.132616 6:-0.446281 7:-1 8:0.302326 9:-0.977186 
-0 -0.1523137760091817 -0 0.06091799609066417 0 1:-0.954839 2:0.260606 3:0.00546448 4:-0.9941 5:0.175627 6:-0.446281 7:-1 8:0.302326 9:-0.969582 
-0.6783779525625506 -0 -0 0 1.243497675473469 1:0.0387097 2:0.684848 3:0.715847 4:0.112094 5:0.964158 6:0.504132 7:0.281633 8:0.5 9:0.0798479 
-0 -0.4537576387462277 -0 0.5941364255818006 0 1:0.0387097 2:0.690909 3:0.737705 4:0.123894 5:0.964158 6:0.504132 7:0.281633 8:0.511628 9:0.0798479 
-0 -0 -0 0.007523548012786967 0 1:0.0387097 2:0.690909 3:0.743169 4:0.123894 5:0.964158 6:0.504132 7:0.281633 8:0.511628 9:0.0798479 
-0 -0.02708118035909594 -0 0.0781816953184738 0 1:-0.483871 2:0.533333 3:0.95082 4:0.0648968 5:1 6:0.297521 7:-0.363265 8:0.139535 9:-0.0646388 
-0 -0 -2 0 0 1:-0.664516 2:0.139394 3:-0.0601093 4:-0.876106 5:0.139785 6:-0.46281 7:-0.681633 8:0.203488 9:-0.756654 
-0 -0 -1.255187532326769 0 0 1:-0.664516 2:0.121212 3:-0.0601093 4:-0.876106 5:0.139785 6:-0.504132 7:-0.681633 8:0.186047 9:-0.756654 
-0.9163132994592993 -0 -0 0 0 1:-0.941935 2:0.224242 3:-0.300546 4:-0.492625 5:0.498208 6:-0.0495868 7:-0.15102 8:0.866279 9:-0.81749 
-0 -0 -0.5279368487694237 0 0 1:-0.8 2:0.0424242 3:-0.142077 4:-0.932153 5:0.0609319 6:-0.595041 7:-0.730612 8:0.0988372 9:-0.726236 
-0 -0 -2 0 0 1:-0.8 2:0.0363636 3:-0.142077 4:-0.938053 5:0.0537634 6:-0.603306 7:-0.730612 8:0.0988372 9:-0.726236 
-0 -0 -1.111691579566505 0 0 1:-0.806452 2:0.0181818 3:-0.153005 4:-0.938053 5:-0.00358423 6:-0.603306 7:-0.738776 8:0.0639535 9:-0.73384 
-0.5135364910819514 -0 -0 0 0 1:-0.825806 2:0.0121212 3:-0.191257 4:-0.935103 5:-0.00358423 6:-0.636364 7:-0.738776 8:0.0523256 9:-0.73384 
-0 -0 -0 0 0.7769865639601662 1:-0.825806 2:0.0363636 3:-0.196721 4:-0.929204 5:-0.0179211 6:-0.595041 7:-0.763265 8:0.0523256 9:-0.73384 
-0 -0 -0 0.09176282223140492 0.3311495117688857 1:-0.541935 2:0.0787879 3:0.770492 4:-0.00589971 5:0.569892 6:-0.0661157 7:-0.289796 8:-0.0406977 9:-0.0418251 
-0 -0.07056134421863562 -0 0.05323109604063202 0 1:-0.870968 2:0.157576 3:-0.377049 4:-0.457227 5:0.448029 6:-0.0909091 7:-0.22449 8:0.843023 9:-0.946768 
-0 -0 -0 0.0186635533368725 0.6636788677306042 1:-0.664516 2:0.139394 3:-0.327869 4:-0.383481 5:0.419355 6:-0.0165289 7:-0.232653 8:0.854651 9:-0.961977 
-0 -0 -0.07573051367256549 0 0 1:-0.703226 2:0.175758 3:-0.311475 4:-0.418879 5:0.469534 6:-0.0495868 7:-0.167347 8:0.854651 9:-0.870722 
-0 -0 -0.1475657844096622 0 0 1:-0.716129 2:0.175758 3:-0.322404 4:-0.430678 5:0.469534 6:-0.0661157 7:-0.183673 8:0.848837 9:-0.870722 
-0 -0 -2 0 0 1:-0.722581 2:0.163636 3:-0.322404 4:-0.430678 5:0.469534 6:-0.0743802 7:-0.208163 8:0.831395 9:-0.870722 
-0 -0 -1.455570827871106 0 0 1:-0.651613 2:-0.157576 3:-0.262295 4:-0.846608 5:-0.103943 6:-0.85124 7:-0.706122 8:0.0406977 9:-0.885932 
-0.9917062721098833 -0.5613759727535411 -0 0 0 1:-0.703226 2:-0.254545 3:-0.398907 4:-0.837758 5:-0.139785 6:-0.933884 7:-0.706122 8:-0.0406977 9:-0.992395 
-0 -0.3237485041383393 -0 0.7927154515926428 0 1:-0.716129 2:-0.254545 3:-0.398907 4:-0.840708 5:-0.139785 6:-0.933884 7:-0.706122 8:-0.0523256 9:-1 
-0.2979209440388894 -0 -0 0 0.8370599576715667 1:-0.677419 2:-0.248485 3:-0.36612 4:-0.846608 5:-0.139785 6:-0.876033 7:-0.665306 8:-0.0581395 9:-0.992395 
-0 -0 -0.6823361767583792 0 0 1:-0.670968 2:-0.254545 3:-0.360656 4:-0.840708 5:-0.125448 6:-0.867769 7:-0.665306 8:-0.0581395 9:-0.992395 
-0 -0 -1.006694203715635 0 0 1:-0.0193548 2:0.00606061 3:0.584699 4:0.0324484 5:0.698925 6:0.0743802 7:0.379592 8:0.331395 9:0.224335 
-0.8317307284002863 -0.6883702887433897 -2 0.4941526375951344 0.3996563146375474 1:-0.0193548 2:0.00606061 3:0.584699 4:0.0324484 5:0.698925 6:0.0826446 7:0.379592 8:0.331395 9:0.231939 
-1.733372057796885 -0 -0 0 0 1:-0.445161 2:0.0181818 3:0.644809 4:-0.0648968 5:0.519713 6:-0.289256 7:0.0367347 8:-0.0348837 9:0.026616 
-0 -0.4217745336975493 -0.5021311757853106 0.338105329402429 1.507017451132165 1:-0.445161 2:0.0121212 3:0.644809 4:-0.0737463 5:0.512545 6:-0.289256 7:0.0285714 8:-0.0465116 9:0.00380228 
-0 -0 -1.223571198024372 -0 0 1:0.225806 2:0.321212 3:-0.229508 4:0.442478 5:-0.469534 6:0.768595 7:0.444898 8:-0.343023 9:0.741445 
-0 -0 -0.09794825050704209 -0 0 1:0.2 2:0.272727 3:-0.273224 4:0.424779 5:-0.53405 6:0.661157 7:0.297959 8:-0.348837 9:0.627376 
-0 -1.228586684290381 -0 -0 0 1:0.251613 2:0.248485 3:-0.398907 4:-0.0648968 5:-0.756272 6:-0.0826446 7:-0.322449 8:-0.767442 9:0.163498 
-1.472245160210721 -2 -0 -0 0 1:0.232258 2:0.248485 3:-0.409836 4:-0.0648968 5:-0.756272 6:-0.0826446 7:-0.322449 8:-0.767442 9:0.140684 
-2 -2 -1.871000486888928 -0 0 1:0.232258 2:0.248485 3:-0.409836 4:-0.0648968 5:-0.756272 6:-0.0826446 7:-0.322449 8:-0.767442 9:0.140684 
-0 -0 -0 -0.04379094756554507 0 1:0.935484 2:0.739394 3:-0.300546 4:0.79056 5:0.268817 6:0.561983 7:0.681633 8:-0.488372 9:0.969582 
-0 -0 -0.03026965110080003 -0 0 1:0.922581 2:0.739394 3:-0.256831 4:0.79351 5:0.275986 6:0.553719 7:0.722449 8:-0.47093 9:0.977186 
-0 -0.3089265157876119 -0 -0 0 1:0.845161 2:0.0424242 3:-0.677596 4:0.932153 5:-0.240143 6:-0.239669 7:0.461224 8:-0.726744 9:0.870722 
-0 -1.373855970680146 -0 -0 0 1:0.187097 2:0.230303 3:-0.262295 4:0.415929 5:-0.634409 6:0.578512 7:0.2 8:-0.389535 9:0.490494 
-0 -2 -0 -0 0 1:0.793548 2:0.642424 3:-0.191257 4:0.781711 5:0.247312 6:0.396694 7:0.559184 8:-0.482558 9:0.726236 
-0 -2 -0 -0 0 1:0.793548 2:0.642424 3:-0.191257 4:0.781711 5:0.247312 6:0.371901 7:0.518367 8:-0.482558 9:0.711027 
-0 -2 -0 -0 0 1:0.793548 2:0.636364 3:-0.202186 4:0.781711 5:0.232975 6:0.371901 7:0.518367 8:-0.488372 9:0.711027 
-0 -2 -0 -0 0 1:0.793548 2:0.636364 3:-0.202186 4:0.781711 5:0.232975 6:0.371901 7:0.518367 8:-0.488372 9:0.703422 
-0 -2 -0 -0 0 1:0.793548 2:0.636364 3:-0.202186 4:0.781711 5:0.225806 6:0.371901 7:0.518367 8:-0.488372 9:0.703422 
-0 -2 -0 -0 0 1:0.716129 2:0.557576 3:-0.185792 4:0.725664 5:0.168459 6:0.31405 7:0.477551 8:-0.534884 9:0.703422 
-0 -1.787012218569635 -0 -0 0 1:0.716129 2:0.575758 3:-0.185792 4:0.731563 5:0.189964 6:0.338843 7:0.477551 8:-0.523256 9:0.703422 
-0 -2 -0 -0 0 1:0.735484 2:0.587879 3:-0.185792 4:0.737463 5:0.204301 6:0.322314 7:0.469388 8:-0.523256 9:0.703422 
-0 -1.097533433303209 -0 -0 0 1:0.787097 2:-0.0363636 3:-0.704918 4:0.914454 5:-0.283154 6:-0.371901 7:0.371429 8:-0.767442 9:0.802281 
-0 -2 -0 -0 0 1:0.793548 2:-0.0121212 3:-0.688525 4:0.923304 5:-0.268817 6:-0.347107 7:0.371429 8:-0.744186 9:0.802281 
-0 -2 -0 -0 0 1:0.793548 2:-0.0121212 3:-0.688525 4:0.926254 5:-0.268817 6:-0.338843 7:0.371429 8:-0.738372 9:0.802281 
-0 -0 -0 -0.2973984362549672 0 1:0.290323 2:0.472727 3:-0.00546448 4:0.563422 5:-0.505376 6:1 7:0.346939 8:-0.313953 9:0.741445 
-0 -0 -0 -0.1139509429277348 0 1:0.129032 2:0.260606 3:-0.36612 4:-0.0766962 5:-0.964158 6:-0.206612 7:-0.64898 8:-0.936047 9:0.00380228 
-0 -2 -0 -0 0 1:0.690323 2:0.557576 3:-0.15847 4:0.713864 5:0.139785 6:0.280992 7:0.477551 8:-0.575581 9:0.680608 
-0 -2 -0 -0 0 1:0.690323 2:0.557576 3:-0.15847 4:0.713864 5:0.139785 6:0.280992 7:0.477551 8:-0.575581 9:0.680608 
-0 -2 -0 -0 0 1:0.690323 2:0.563636 3:-0.142077 4:0.716814 5:0.139785 6:0.280992 7:0.477551 8:-0.575581 9:0.680608 
-0 -2 -0 -0 0 1:0.690323 2:0.563636 3:-0.120219 4:0.716814 5:0.139785 6:0.280992 7:0.485714 8:-0.575581 9:0.680608 
-0 -2 -0 -0 0 1:0.690323 2:0.575758 3:-0.120219 4:0.719764 5:0.139785 6:0.305785 7:0.485714 8:-0.552326 9:0.680608 
-0 -2 -0 -0 0 1:0.690323 2:0.557576 3:-0.120219 4:0.713864 5:0.139785 6:0.305785 7:0.485714 8:-0.575581 9:0.680608 
-0 -2 -0 -0 0 1:0.670968 2:0.557576 3:-0.120219 4:0.707965 5:0.11828 6:0.305785 7:0.485714 8:-0.575581 9:0.673004 
-0 -2 -0 -0 0 1:0.670968 2:0.539394 3:-0.120219 4:0.699115 5:0.111111 6:0.305785 7:0.485714 8:-0.587209 9:0.673004 
-0 -2 -0 -0 0 1:0.658065 2:0.539394 3:-0.131148 4:0.699115 5:0.111111 6:0.305785 7:0.485714 8:-0.593023 9:0.673004 
-0 -2 -0 -0 0 1:0.677419 2:0.569697 3:-0.10929 4:0.737463 5:0.154122 6:0.297521 7:0.412245 8:-0.598837 9:0.642586 
-0 -2 -0 -0 0 1:0.664516 2:0.575758 3:-0.10929 4:0.722714 5:0.132616 6:0.297521 7:0.420408 8:-0.593023 9:0.65019 
-0 -2 -0 -0 0 1:0.658065 2:0.563636 3:-0.10929 4:0.716814 5:0.132616 6:0.297521 7:0.420408 8:-0.598837 9:0.65019 
-0 -2 -0 -0 0 1:0.651613 2:0.551515 3:-0.10929 4:0.707965 5:0.125448 6:0.297521 7:0.420408 8:-0.610465 9:0.65019 
-0 -0.793984481192886 -0 -0 0 1:0.658065 2:0.551515 3:-0.103825 4:0.707965 5:0.125448 6:0.297521 7:0.420408 8:-0.610465 9:0.657795 
-0 -0 -0 -0.5339532844864809 0 1:0.845161 2:-0.145455 3:-0.775956 4:0.932153 5:-0.232975 6:-0.61157 7:0.265306 8:-0.703488 9:0.673004 
-0 -0.6383566020730992 -0 -0 0 1:0.0774194 2:0.212121 3:-0.10929 4:0.39233 5:-0.691756 6:0.595041 7:0.044898 8:-0.517442 9:0.368821 
-0.6247884405162579 -0 -0 -0 0 1:0.0903226 2:0.254545 3:-0.0437158 4:0.410029 5:-0.598566 6:0.603306 7:0.044898 8:-0.424419 9:0.376426 
-0 -0 -0 -0.3353059741575181 1.303167973286199 1:0.122581 2:0.278788 3:-0.0163934 4:0.412979 5:-0.584229 6:0.636364 7:0.0530612 8:-0.389535 9:0.391635 
-0 -0 -0 -0.5884857194916523 2 1:0.174194 2:0.321212 3:-0.229508 4:-0.0294985 5:-0.806452 6:-0.190083 7:-0.665306 8:-0.883721 9:-0.0722433 
-0 -0 -0 -0 1.285835077724262 1:0.174194 2:0.321212 3:-0.224044 4:-0.0235988 5:-0.799283 6:-0.181818 7:-0.64898 8:-0.877907 9:-0.0646388 
-0 -0 -0 -0.2107269375411009 0 1:0.154839 2:0.278788 3:-0.213115 4:-0.0294985 5:-0.849462 6:-0.173554 7:-0.640816 8:-0.965116 9:-0.102662 
-0.2557386065091992 -0 -0 -0 0 1:0.658065 2:0.581818 3:0.0273224 4:0.713864 5:0.175627 6:0.272727 7:0.436735 8:-0.540698 9:0.596958 
-1.964061928571241 -0 -0 -0 0 1:0.658065 2:0.581818 3:0.0273224 4:0.713864 5:0.175627 6:0.272727 7:0.436735 8:-0.540698 9:0.596958 
-2 -2 -0 -0 0 1:0.651613 2:0.581818 3:0.0273224 4:0.713864 5:0.175627 6:0.272727 7:0.436735 8:-0.540698 9:0.596958 
-0 -0 -0 -0 0.9219710333888884 1:0.658065 2:0.636364 3:0.114754 4:0.728614 5:0.240143 6:0.429752 7:0.469388 8:-0.534884 9:0.65019 
-0 -0 -0 -0 2 1:0.658065 2:0.636364 3:0.114754 4:0.719764 5:0.240143 6:0.421488 7:0.469388 8:-0.534884 9:0.65019 
-0 -0 -0 -0 2 1:0.703226 2:0.678788 3:0.20765 4:0.746313 5:0.283154 6:0.454545 7:0.510204 8:-0.494186 9:0.703422 
-0 -0 -0 -0 0.4116278398253194 1:0.709677 2:0.660606 3:0.240437 4:0.725664 5:0.261649 6:0.454545 7:0.526531 8:-0.511628 9:0.73384 
-0 -0 -0 -0 2 1:0.709677 2:0.648485 3:0.240437 4:0.725664 5:0.261649 6:0.454545 7:0.526531 8:-0.511628 9:0.73384 
-0 -0 -0 -0 2 1:0.696774 2:0.642424 3:0.240437 4:0.722714 5:0.261649 6:0.454545 7:0.526531 8:-0.517442 9:0.73384 
-0 -0 -0.9158110274735871 -0.8993205929823581 1.232979151119358 1:0.780645 2:0.684848 3:0.404372 4:0.743363 5:0.376344 6:0.652893 7:0.697959 8:-0.47093 9:0.969582 
-0 -2 -0 -0 0 1:0.8 3:-0.606557 4:0.9941 5:-0.25448 6:-0.438017 7:0.240816 8:-0.622093 9:0.56654 
-0 -2 -0 -0 0 1:0.787097 2:-0.00606061 3:-0.606557 4:0.982301 5:-0.268817 6:-0.438017 7:0.216327 8:-0.622093 9:0.56654 
-0 -2 -0 -0 0 1:0.787097 3:-0.606557 4:0.982301 5:-0.268817 6:-0.438017 7:0.22449 8:-0.616279 9:0.56654 
-0 -2 -0 -0 0 1:0.8 3:-0.606557 4:0.982301 5:-0.268817 6:-0.429752 7:0.240816 8:-0.616279 9:0.56654 
-0 -0.9664139580664699 -0 -0 0 1:0.8 2:0.00606061 3:-0.606557 4:0.99115 5:-0.268817 6:-0.429752 7:0.257143 8:-0.598837 9:0.574144 
-0 -0 -1.592421180707216 -0 0 1:0.606452 2:-0.169697 3:-0.814208 4:0.905605 5:-0.426523 6:-0.619835 7:0.22449 8:-0.645349 9:0.536122 
-0 -0 -0 -0.2201292769834617 0 1:0.606452 2:-0.169697 3:-0.819672 4:0.905605 5:-0.426523 6:-0.677686 7:0.208163 8:-0.697674 9:0.528517 
-1.976719403128283 -1.94926840408811 -0 -0 0 1:0.612903 2:-0.163636 3:-0.775956 4:0.902655 5:-0.405018 6:-0.652893 7:0.159184 8:-0.726744 9:0.444867 
-0 -0 -0.04059365852970608 -0 0.8467896851559585 1:0.619355 2:-0.175758 3:-0.808743 4:0.873156 5:-0.462366 6:-0.68595 7:0.167347 8:-0.738372 9:0.444867 
-0.9580156830739253 -0 -0 -0 -0 1:-0.458065 2:-0.0181818 3:-0.404372 4:-0.39823 5:-0.197133 6:0.371901 7:0.281633 8:0.139535 9:-0.193916 
-0 -0 -0 -0.9131744891580704 -0 1:-0.477419 2:-0.030303 3:-0.404372 4:-0.39823 5:-0.204301 6:0.371901 7:0.281633 8:0.139535 9:-0.201521 
-0 -0 -0 -0.5687276992288117 -0 1:-0.419355 2:-0.0666667 3:-0.409836 4:-0.380531 5:-0.204301 6:0.371901 7:0.281633 8:0.162791 9:-0.231939 
-0 -0 -0.4611527692335104 -0.4316695744881747 -0 1:-0.122581 2:0.642424 3:0.202186 4:-0.548673 5:-0.046595 6:0.190083 7:-0.714286 8:-0.424419 9:-0.596958 
-0 -0 -0 -0.04203517057636766 -0 1:-0.116129 2:0.636364 3:0.229508 4:-0.542773 5:-0.0537634 6:0.181818 7:-0.689796 8:-0.406977 9:-0.56654 
-0.1495461821945594 -0 -0 -0 -0 1:-0.0774194 2:0.678788 3:0.240437 4:-0.516224 5:-0.0322581 6:0.256198 7:-0.640816 8:-0.383721 9:-0.513308 
-0 -0 -0 -1.200611487302579 -0 1:0.787097 2:1 3:0.502732 4:0.613569 5:0.806452 6:0.917355 7:0.526531 8:-0.0697674 9:0.56654 
-0 -0 -0.3498280172865434 -0 -0 1:0.76129 2:0.909091 3:0.415301 4:0.584071 5:0.727599 6:0.884298 7:0.62449 8:-0.0697674 9:0.551331 
-0 -0 -0 -1.644230051984279 -0 1:-0.0193548 2:0.260606 3:0.300546 4:0.0619469 5:0.240143 6:-0.0743802 7:-0.191837 8:-0.598837 9:0.095057 
-0 -0 -0 -0 -0.01718853028624655 1:0.0451613 2:0.6 3:0.153005 4:-0.477876 5:-0.146953 6:0.214876 7:-0.567347 8:-0.412791 9:-0.444867 
-1.848604019710846 -0 -0 -0 -0 1:0.187097 2:0.187879 3:0.147541 4:0.129794 5:0.139785 6:-0.206612 7:-0.0367347 8:-0.598837 9:0.0646388 
-0 -0.7705511244745521 -0 -0 -1.888091603214284 1:0.767742 2:0.70303 3:0.311475 4:0.722714 5:0.53405 6:0.661157 7:0.453061 8:-0.203488 9:0.543726 
-0 -2 -0 -0 -2 1:0.793548 2:0.70303 3:0.344262 4:0.728614 5:0.555556 6:0.669421 7:0.469388 8:-0.209302 9:0.56654 
-0 -0 -0 -0 -1.468343608513636 1:0.754839 2:0.563636 3:0.306011 4:0.710914 5:0.462366 6:0.652893 7:0.436735 8:-0.238372 9:0.513308 
-2 -0 -0 -0 -0 1:0.135484 2:0.169697 3:0.114754 4:0.103245 5:0.111111 6:-0.297521 7:-0.0612245 8:-0.593023 9:0.0798479 
-2 -0 -0 -0 -0 1:0.0774194 2:0.145455 3:0.103825 4:0.0589971 5:0.103943 6:-0.322314 7:-0.0938776 8:-0.651163 9:0.0798479 
-0 -0 -1.756141180437188 -0 -0 1:0.109677 2:0.151515 3:0.0983607 4:0.0766962 5:0.132616 6:-0.380165 7:-0.0612245 8:-0.651163 9:0.0874525 
-2 -0 -0 -0 -0 1:0.135484 2:0.139394 3:0.0163934 4:0.0855457 5:0.139785 6:-0.413223 7:-0.110204 8:-0.645349 9:0.0570342 
-2 -0 -0 -0 -0 1:0.135484 2:0.139394 3:0.0163934 4:0.0855457 5:0.139785 6:-0.413223 7:-0.118367 8:-0.645349 9:0.0494297 
-2 -0 -0 -0 -0 1:0.135484 2:0.139394 3:0.010929 4:0.0855457 5:0.139785 6:-0.413223 7:-0.126531 8:-0.656977 9:0.0494297 
-0.7965981865240349 -0 -0 -0 -0 1:0.135484 2:0.139394 3:0.0163934 4:0.0855457 5:0.139785 6:-0.404959 7:-0.126531 8:-0.656977 9:0.0570342 
-2 -0 -0 -0 -0 1:0.148387 2:0.139394 3:0.0163934 4:0.0855457 5:0.139785 6:-0.38843 7:-0.126531 8:-0.645349 9:0.0570342 
-0.6901101601367541 -0 -2 -0 -0 1:-0.290323 2:-0.254545 3:-0.519126 4:-0.339233 5:-0.362007 6:0.115702 7:0.281633 8:0.0930233 9:-0.095057 
-0 -0 -0.8609449528871846 -0 -0 1:-0.335484 2:-0.242424 3:-0.508197 4:-0.377581 5:-0.383513 6:0.107438 7:0.265306 8:0.0930233 9:-0.110266 
-0 -0 -2 -0 -0 1:-0.316129 2:-0.248485 3:-0.497268 4:-0.359882 5:-0.390681 6:0.115702 7:0.297959 8:0.0813953 9:-0.110266 
-0 -0 -2 -0 -0 1:-0.316129 2:-0.248485 3:-0.497268 4:-0.359882 5:-0.376344 6:0.115702 7:0.297959 8:0.0813953 9:-0.110266 
-0 -0 -2 -0 -0 1:-0.309677 2:-0.224242 3:-0.497268 4:-0.356932 5:-0.376344 6:0.123967 7:0.306122 8:0.0872093 9:-0.110266 
-0 -0 -2 -0 -0 1:-0.303226 2:-0.248485 3:-0.491803 4:-0.359882 5:-0.369176 6:0.115702 7:0.330612 8:0.0872093 9:-0.095057 
-0 -0 -2 -0 -0 1:-0.341935 2:-0.266667 3:-0.513661 4:-0.383481 5:-0.433692 6:0.0991736 7:0.306122 8:0.0406977 9:-0.095057 
-0 -1.046724278684085 -2 -0 -0 1:-0.341935 2:-0.266667 3:-0.513661 4:-0.383481 5:-0.433692 6:0.0991736 7:0.306122 8:0.0406977 9:-0.095057 
-2 -0 -2 -0 -0 1:-0.329032 2:-0.266667 3:-0.513661 4:-0.383481 5:-0.412186 6:0.0991736 7:0.306122 8:0.0406977 9:-0.095057 
-2 -0 -2 -0 -0 1:-0.329032 2:-0.260606 3:-0.513661 4:-0.380531 5:-0.412186 6:0.0991736 7:0.306122 8:0.0406977 9:-0.095057 
-0.006792920972664828 -0 -0 -0 -0 1:-0.329032 2:-0.266667 3:-0.519126 4:-0.383481 5:-0.412186 6:0.115702 7:0.289796 8:0.0406977 9:-0.095057 
-0 -0.6550021992981676 -0 -0 -0 1:-0.341935 2:-0.290909 3:-0.562842 4:-0.389381 5:-0.433692 6:0.0909091 7:0.273469 8:0.0406977 9:-0.125475 
-0 -0 -0 -0 -0.5177193299402796 1:-0.335484 2:-0.290909 3:-0.551913 4:-0.386431 5:-0.433692 6:0.107438 7:0.273469 8:0.0465116 9:-0.125475 
-0 -0 -0 -0 -0.1788301798798258 1:-0.341935 2:-0.309091 3:-0.551913 4:-0.389381 5:-0.462366 6:0.0661157 7:0.232653 8:0.0465116 9:-0.148289 
-0 -0 -0 -0.03989685979434732 -0 1:-0.348387 2:-0.321212 3:-0.551913 4:-0.39528 5:-0.462366 6:0.0413223 7:0.22449 8:0.0465116 9:-0.148289 
-0 -0 -0 -0 -1.169768928193621 1:-0.083871 2:0.260606 3:-0.0437158 4:-0.522124 5:-0.519713 6:-0.305785 7:-0.828571 8:-0.686047 9:-0.73384 
-0 -0.2368244168910292 -0.4038337500432817 -0.8944697952189127 -0.598511080002221 1:-0.0774194 2:0.260606 3:-0.0491803 4:-0.525074 5:-0.526882 6:-0.338843 7:-0.844898 8:-0.680233 9:-0.73384 
-0 -0.2295350498767273 -0.8932937940714349 -0.2793583643394156 -0 1:0.63871 2:0.466667 3:0.306011 4:0.525074 5:0.383513 6:0.454545 7:0.461224 8:-0.226744 9:0.520913 
-0 -0 -1.462397909187082 -0 -2 1:0.606452 2:0.448485 3:0.278689 4:0.495575 5:0.297491 6:0.421488 7:0.387755 8:-0.261628 9:0.48289 
-0 -0 -0 -0 -2 1:0.606452 2:0.448485 3:0.284153 4:0.495575 5:0.304659 6:0.421488 7:0.387755 8:-0.261628 9:0.490494 
-0 -0 -0 -0 -1.842499603589526 1:0.6 2:0.442424 3:0.256831 4:0.510324 5:0.290323 6:0.396694 7:0.355102 8:-0.261628 9:0.460076 
-2 -0.3397706784010872 -0 -0 -0 1:0.6 2:0.418182 3:0.234973 4:0.507375 5:0.297491 6:0.380165 7:0.338776 8:-0.261628 9:0.444867 
-1.183441511407146 -0 -0 -0 -0 1:0.6 2:0.418182 3:0.234973 4:0.507375 5:0.297491 6:0.380165 7:0.330612 8:-0.261628 9:0.444867 
-2 -0 -0 -0 -0 1:0.6 2:0.424242 3:0.234973 4:0.513274 5:0.304659 6:0.380165 7:0.330612 8:-0.261628 9:0.444867 
-0 -1.752457846971064 -0 -0 -0 1:0.606452 2:0.424242 3:0.234973 4:0.525074 5:0.318996 6:0.38843 7:0.338776 8:-0.261628 9:0.452471 
-0 -0 -0 -0 -0.3214178968803461 1:0.0387097 2:0.0181818 3:-0.0491803 4:0.0265487 5:-0.0967742 6:-0.504132 7:-0.265306 8:-0.819767 9:0.0646388 
-0 -0.5759820603415846 -0 -0 -2 1:0.0709677 2:-0.0181818 3:-0.0710383 4:0.0914454 5:-0.103943 6:-0.528926 7:-0.314286 8:-0.831395 9:-0.00380228 
-0 -2 -0 -0 -0 1:0.0709677 2:-0.0424242 3:-0.0874317 4:0.0855457 5:-0.11828 6:-0.53719 7:-0.314286 8:-0.831395 9:-0.0494297 
-0 -0.6308196764617862 -0 -0 -0 1:0.0516129 2:-0.0545455 3:-0.0928962 4:0.0855457 5:-0.11828 6:-0.553719 7:-0.338776 8:-0.831395 9:-0.0646388 
-0 -0.07532627267700048 -0 -0 -0 1:-0.0451613 2:-0.0363636 3:-0.0983607 4:-0.0265487 5:-0.175627 6:-0.661157 7:-0.363265 8:-0.848837 9:-0.0798479 
-0 -0 -0 -0.02278515097947805 -0 1:-0.0451613 2:-0.030303 3:-0.0928962 4:-0.0147493 5:-0.132616 6:-0.652893 7:-0.346939 8:-0.843023 9:-0.0570342 
-0 -0 -1.109196974283777 -0 -0 1:-0.0451613 2:-0.0242424 3:-0.0710383 4:-0.0412979 5:-0.132616 6:-0.636364 7:-0.314286 8:-0.831395 9:-0.0342205 
