svm_type c_svc
kernel_type rbf
gamma 0.5
nr_class 6
total_sv 791
rho 0.289771 0.341375 0.144412 0.679679 0.480456 0.371998 0.0965183 1.14712 0.121929 0.700735 0.0813798 -0.452532 0.0283302 0.229785 0.141155
label 0 3 5 6 8 9
nr_sv 146 171 138 72 141 123
SV
0 0.5 0 0 0 1:-0.0402685 2:-0.181176 3:-0.260394 4:-0.0324484 5:0.030303 6:-0.0746269 7:0.915789 8:-0.195822 9:0.343396 
0 0.3723646853488345 0 0 0 1:-0.0469799 2:-0.181176 3:-0.269147 4:-0.0324484 5:0.0252525 6:-0.0746269 7:0.894737 8:-0.195822 9:0.343396 
0 0.5 0 0 0 1:-0.187919 2:-0.204706 3:-0.273523 4:-0.100295 5:0.0252525 6:-0.126866 7:0.894737 8:-0.174935 9:0.343396 
0 0 0.44697747034634 0 0 1:-0.221477 2:-0.204706 3:-0.269147 4:-0.135693 5:0.0353535 6:-0.156716 7:0.831579 8:-0.164491 9:0.328302 
0.5 0.0379882827211777 0.5 0.5 0 1:0.657718 2:-0.0964706 3:-0.295405 4:0.480826 5:-0.0808081 6:-0.164179 7:0.6 8:-0.503916 9:0.0264151 
0.5 0.5 0.2463893373297653 0.5 0 1:0.671141 2:-0.101176 3:-0.286652 4:0.463127 5:-0.0808081 6:-0.171642 7:0.621053 8:-0.503916 9:0.0339623 
0.5 0 0 0.5 0 1:0.644295 2:-0.101176 3:-0.299781 4:0.463127 5:-0.0858586 6:-0.171642 7:0.610526 8:-0.503916 9:0.0339623 
0.5 0 0 0.5 0 1:0.644295 2:-0.12 3:-0.299781 4:0.460177 5:-0.0858586 6:-0.201493 7:0.610526 8:-0.503916 9:0.0339623 
0.5 0 0 0 0 1:0.577181 2:-0.12 3:-0.304158 4:0.460177 5:-0.0858586 6:-0.201493 7:0.610526 8:-0.503916 9:0.0264151 
0 0 0 0 0.5 1:0.577181 2:-0.162353 3:-0.304158 4:0.39823 5:-0.0858586 6:-0.208955 7:0.610526 8:-0.51436 9:0.0264151 
0 0 0 0 0.5 1:0.52349 2:-0.171765 3:-0.31291 4:0.389381 5:-0.0959596 6:-0.208955 7:0.568421 8:-0.519582 9:0.0339623 
0 0 0 0 0.5 1:0.516779 2:-0.171765 3:-0.321663 4:0.389381 5:-0.0959596 6:-0.208955 7:0.568421 8:-0.519582 9:0.0264151 
0 0 0 0 0.5 1:0.516779 2:-0.176471 3:-0.321663 4:0.389381 5:-0.0959596 6:-0.208955 7:0.568421 8:-0.519582 9:0.0264151 
0 0 0 0 0.5 1:0.52349 2:-0.171765 3:-0.321663 4:0.389381 5:-0.0909091 6:-0.186567 7:0.568421 8:-0.51436 9:0.0264151 
0 0 0 0 0.5 1:0.557047 2:-0.171765 3:-0.321663 4:0.39823 5:-0.0808081 6:-0.201493 7:0.578947 8:-0.509138 9:0.0339623 
0 0 0 0 0.5 1:0.557047 2:-0.171765 3:-0.321663 4:0.39823 5:-0.0808081 6:-0.201493 7:0.568421 8:-0.509138 9:0.0264151 
0 0 0 0 0.5 1:0.557047 2:-0.181176 3:-0.321663 4:0.39823 5:-0.0808081 6:-0.201493 7:0.568421 8:-0.509138 9:0.0264151 
0 0 0 0 0.5 1:0.557047 2:-0.181176 3:-0.326039 4:0.39823 5:-0.0808081 6:-0.201493 7:0.568421 8:-0.509138 9:0.0264151 
0 0 0 0 0.5 1:0.557047 2:-0.181176 3:-0.321663 4:0.39823 5:-0.0707071 6:-0.201493 7:0.578947 8:-0.509138 9:0.0339623 
0.5 0 0 0 0 1:0.637584 2:-0.167059 3:-0.31291 4:0.439528 5:-0.0555556 6:-0.164179 7:0.621053 8:-0.509138 9:0.0566038 
0.5 0 0 0 0 1:0.610738 2:-0.167059 3:-0.326039 4:0.439528 5:-0.0707071 6:-0.164179 7:0.621053 8:-0.509138 9:0.0566038 
0 0 0 0 0.1444430494534709 1:0.610738 2:-0.171765 3:-0.326039 4:0.410029 5:-0.0757576 6:-0.171642 7:0.578947 8:-0.509138 9:0.0566038 
0.2852376605619559 0 0 0 0 1:0.590604 2:-0.176471 3:-0.334792 4:0.421829 5:-0.0757576 6:-0.171642 7:0.578947 8:-0.519582 9:0.0566038 
0.2766178899416292 0 0 0 0 1:0.577181 2:-0.143529 3:-0.321663 4:0.424779 5:-0.0757576 6:-0.149254 7:0.6 8:-0.535248 9:0.0792453 
0.5 0 0 0 0 1:0.57047 2:-0.129412 3:-0.317287 4:0.427729 5:-0.0808081 6:-0.141791 7:0.589474 8:-0.530026 9:0.0716981 
0.5 0 0 0 0 1:0.57047 2:-0.134118 3:-0.317287 4:0.421829 5:-0.0959596 6:-0.141791 7:0.589474 8:-0.535248 9:0.0716981 
0.5 0 0 0.1174974037506969 0 1:0.57047 2:-0.134118 3:-0.317287 4:0.421829 5:-0.106061 6:-0.141791 7:0.589474 8:-0.535248 9:0.0716981 
0 0 0 0.5 0 1:0.201342 2:-0.421176 3:-0.334792 4:0.235988 5:-0.333333 6:-0.0970149 7:0.389474 8:-0.394256 9:0.486792 
0 0 0 0.5 0 1:0.208054 2:-0.416471 3:-0.326039 4:0.235988 5:-0.313131 6:-0.0746269 7:0.431579 8:-0.357702 9:0.524528 
0 0 0 0.5 0 1:0.208054 2:-0.411765 3:-0.326039 4:0.235988 5:-0.308081 6:-0.0597015 7:0.431579 8:-0.357702 9:0.532075 
0 0 0 0.5 0 1:0.228188 2:-0.407059 3:-0.31291 4:0.238938 5:-0.308081 6:-0.0522388 7:0.431579 8:-0.35248 9:0.532075 
0 0 0 0.5 0 1:0.228188 2:-0.411765 3:-0.31291 4:0.235988 5:-0.29798 6:-0.0597015 7:0.442105 8:-0.357702 9:0.554717 
0 0 0 0.5 0 1:0.261745 2:-0.407059 3:-0.299781 4:0.230088 5:-0.277778 6:-0.0149254 7:0.589474 8:-0.321149 9:0.615094 
0 0 0 0.5 0 1:0.261745 2:-0.425882 3:-0.299781 4:0.230088 5:-0.277778 6:-0.0149254 7:0.547368 8:-0.331593 9:0.615094 
0 0 0 0.5 0 1:0.261745 2:-0.425882 3:-0.304158 4:0.221239 5:-0.277778 6:-0.0149254 7:0.547368 8:-0.336815 9:0.615094 
0 0 0 0.5 0 1:0.255034 2:-0.425882 3:-0.282276 4:0.221239 5:-0.277778 6:-0.0149254 7:0.578947 8:-0.331593 9:0.645283 
0 0 0.1908151959840989 0.3692377550909507 0 1:0.255034 2:-0.425882 3:-0.273523 4:0.221239 5:-0.277778 6:-0.0149254 7:0.589474 8:-0.326371 9:0.65283 
0 0 0.01020785952001678 0 0 1:-0.328859 2:-0.228235 3:-0.291028 4:-0.19174 5:-0.0353535 6:-0.208955 7:0.705263 8:-0.164491 9:0.30566 
0 0 0.4235052749658189 0 0 1:-0.436242 2:-0.331765 3:-0.352298 4:-0.268437 5:-0.010101 6:-0.447761 7:0.652632 8:-0.0913838 9:0.169811 
0 0 0.5 0 0 1:-0.402685 2:-0.331765 3:-0.343545 4:-0.268437 5:-0.00505051 6:-0.447761 7:0.652632 8:-0.10705 9:0.162264 
0 0 0.3351984530630174 0 0 1:-0.255034 2:-0.36 3:-0.21663 4:-0.0117994 5:-0.212121 6:-0.0895522 7:0.557895 8:-0.592689 9:0.245283 
0 0 0.5 0 0 1:-0.221477 2:-0.36 3:-0.21663 4:-0.00589971 5:-0.212121 6:-0.0746269 7:0.557895 8:-0.577023 9:0.245283 
0.5 0 0 0 0 1:0.201342 2:-0.487059 3:-0.387309 4:0.20649 5:-0.343434 6:-0.0746269 7:0.547368 8:-0.342037 9:0.569811 
0.5 0 0 0 0 1:0.154362 2:-0.515294 3:-0.404814 4:0.19174 5:-0.353535 6:-0.0895522 7:0.536842 8:-0.342037 9:0.569811 
0.5 0 0 0 0 1:0.154362 2:-0.515294 3:-0.404814 4:0.188791 5:-0.353535 6:-0.0895522 7:0.536842 8:-0.342037 9:0.569811 
0.5 0 0 0 0 1:0.167785 2:-0.501176 3:-0.404814 4:0.19174 5:-0.353535 6:-0.0746269 7:0.536842 8:-0.336815 9:0.569811 
0.3037495555847424 0 0 0 0 1:0.167785 2:-0.491765 3:-0.391685 4:0.19174 5:-0.348485 6:-0.0746269 7:0.536842 8:-0.336815 9:0.584906 
0.5 0 0 0 0 1:0.187919 2:-0.487059 3:-0.391685 4:0.19469 5:-0.348485 6:-0.0746269 7:0.536842 8:-0.321149 9:0.584906 
0.5 0 0 0 0 1:0.194631 2:-0.482353 3:-0.382932 4:0.20059 5:-0.343434 6:-0.0671642 7:0.536842 8:-0.321149 9:0.592453 
0.5 0 0 0 0 1:0.187919 2:-0.458824 3:-0.391685 4:0.212389 5:-0.348485 6:-0.0746269 7:0.536842 8:-0.326371 9:0.584906 
0.5 0 0 0 0 1:0.174497 2:-0.463529 3:-0.400438 4:0.212389 5:-0.348485 6:-0.0746269 7:0.494737 8:-0.326371 9:0.577358 
0.5 0 0 0 0 1:0.174497 2:-0.463529 3:-0.404814 4:0.212389 5:-0.348485 6:-0.0746269 7:0.473684 8:-0.342037 9:0.569811 
0.5 0 0 0 0 1:0.174497 2:-0.463529 3:-0.40919 4:0.212389 5:-0.348485 6:-0.0746269 7:0.473684 8:-0.342037 9:0.554717 
0.5 0 0 0 0 1:0.174497 2:-0.463529 3:-0.404814 4:0.20649 5:-0.348485 6:-0.0746269 7:0.484211 8:-0.342037 9:0.54717 
0.5 0 0 0 0 1:0.187919 2:-0.463529 3:-0.404814 4:0.212389 5:-0.343434 6:-0.0746269 7:0.484211 8:-0.326371 9:0.554717 
0.5 0 0 0 0 1:0.187919 2:-0.463529 3:-0.400438 4:0.221239 5:-0.343434 6:-0.0671642 7:0.494737 8:-0.326371 9:0.562264 
0.5 0 0 0.5 0 1:0.194631 2:-0.458824 3:-0.396061 4:0.221239 5:-0.338384 6:-0.0597015 7:0.494737 8:-0.326371 9:0.569811 
0.5 0 0 0 0 1:0.187919 2:-0.463529 3:-0.391685 4:0.221239 5:-0.333333 6:-0.0597015 7:0.494737 8:-0.326371 9:0.577358 
0.5 0 0 0 0 1:0.187919 2:-0.463529 3:-0.391685 4:0.221239 5:-0.333333 6:-0.0597015 7:0.494737 8:-0.331593 9:0.577358 
0.5 0 0 0 0 1:0.181208 2:-0.463529 3:-0.391685 4:0.221239 5:-0.333333 6:-0.0597015 7:0.494737 8:-0.331593 9:0.569811 
0 0.5 0 0 0 1:0.100671 2:-0.647059 3:-0.413567 4:0.0530973 5:-0.429293 6:-0.164179 7:0.526316 8:-0.336815 9:0.516981 
0 0.5 0 0 0 1:0.100671 2:-0.647059 3:-0.417943 4:0.0530973 5:-0.434343 6:-0.186567 7:0.526316 8:-0.342037 9:0.501887 
0 0.02886314068926634 0 0 0 1:0.100671 2:-0.647059 3:-0.413567 4:0.0530973 5:-0.429293 6:-0.186567 7:0.547368 8:-0.342037 9:0.524528 
0 0.5 0 0 0 1:0.100671 2:-0.647059 3:-0.413567 4:0.0619469 5:-0.429293 6:-0.164179 7:0.547368 8:-0.336815 9:0.524528 
0 0.5 0 0 0 1:0.127517 2:-0.647059 3:-0.404814 4:0.0619469 5:-0.429293 6:-0.164179 7:0.547368 8:-0.336815 9:0.532075 
0 0.5 0 0 0 1:0.100671 2:-0.618824 3:-0.413567 4:0.0648968 5:-0.429293 6:-0.141791 7:0.547368 8:-0.331593 9:0.524528 
0 0 0 0 0.4701777234348004 1:0.127517 2:-0.651765 3:-0.47046 4:0.0648968 5:-0.464646 6:-0.201493 7:0.357895 8:-0.383812 9:0.471698 
0.05440163710701212 0 0 0 0 1:-0.0604027 2:-0.802353 3:-0.571116 4:0.117994 5:-0.545455 6:-0.373134 7:0.389474 8:-0.989556 9:0.418868 
0.5 0 0 0 0 1:-0.0469799 2:-0.792941 3:-0.571116 4:0.141593 5:-0.550505 6:-0.350746 7:0.4 8:-0.994778 9:0.403774 
0.5 0 0 0 0 1:-0.0469799 2:-0.792941 3:-0.571116 4:0.141593 5:-0.550505 6:-0.380597 7:0.4 8:-0.994778 9:0.403774 
0 0 0.5 0 0 1:-0.818792 2:-0.628235 3:-0.5186 4:-0.528024 5:-0.176768 6:-0.880597 7:0.326316 8:-0.0704961 9:-0.0943396 
0 0 0.5 0 0 1:-0.818792 2:-0.632941 3:-0.5186 4:-0.528024 5:-0.176768 6:-0.880597 7:0.326316 8:-0.0704961 9:-0.109434 
0 0 0.5 0 0 1:-0.791946 2:-0.632941 3:-0.5186 4:-0.525074 5:-0.176768 6:-0.873134 7:0.336842 8:-0.0652742 9:-0.0943396 
0 0 0 0.3757329625608155 0 1:-0.966443 2:-0.694118 3:-0.50547 4:-0.610619 5:-0.212121 6:-0.91791 7:0.378947 8:-0.0600522 9:-0.0792453 
0.3461399555810735 0 0 0.5 0 1:-0.966443 2:-0.694118 3:-0.514223 4:-0.610619 5:-0.217172 6:-0.91791 7:0.378947 8:-0.0600522 9:-0.101887 
0 0.5 0 0 0 1:-0.892617 2:-0.68 3:-0.514223 4:-0.59292 5:-0.212121 6:-0.895522 7:0.378947 8:-0.0443864 9:-0.0943396 
0 0.5 0 0 0 1:-0.892617 2:-0.684706 3:-0.5186 4:-0.59587 5:-0.212121 6:-0.902985 7:0.368421 8:-0.0443864 9:-0.109434 
0 0.5 0.2718751491106469 0 0 1:-0.892617 2:-0.684706 3:-0.5186 4:-0.59587 5:-0.212121 6:-0.902985 7:0.357895 8:-0.0443864 9:-0.109434 
0 0.5 0 0 0 1:-0.892617 2:-0.684706 3:-0.527352 4:-0.59587 5:-0.212121 6:-0.902985 7:0.357895 8:-0.0443864 9:-0.109434 
0 0.5 0 0 0 1:-0.892617 2:-0.68 3:-0.5186 4:-0.59292 5:-0.212121 6:-0.902985 7:0.357895 8:-0.0443864 9:-0.109434 
0 0 0.5 0 0 1:-0.885906 2:-0.68 3:-0.5186 4:-0.581121 5:-0.19697 6:-0.902985 7:0.357895 8:-0.0443864 9:-0.109434 
0 0.5 0.2783028114787304 0 0.5 1:-0.838926 2:-0.68 3:-0.5186 4:-0.581121 5:-0.186869 6:-0.895522 7:0.368421 8:-0.0287206 9:-0.101887 
0 0.5 0 0 0.5 1:-0.838926 2:-0.68 3:-0.5186 4:-0.581121 5:-0.186869 6:-0.895522 7:0.378947 8:-0.0287206 9:-0.0943396 
0 0 0 0 0.2643905843177197 1:-0.825503 2:-0.68 3:-0.514223 4:-0.566372 5:-0.19697 6:-0.88806 7:0.389474 8:-0.0287206 9:-0.0792453 
0 0.5 0 0 0.5 1:-0.865772 2:-0.68 3:-0.5186 4:-0.566372 5:-0.20202 6:-0.88806 7:0.389474 8:-0.0287206 9:-0.101887 
0 0.3911397159739156 0 0 0 1:-0.892617 2:-0.684706 3:-0.5186 4:-0.566372 5:-0.212121 6:-0.895522 7:0.389474 8:-0.0443864 9:-0.101887 
0 0.5 0 0 0 1:-0.95302 2:-0.661176 3:-0.483589 4:-0.59292 5:-0.186869 6:-0.843284 7:0.494737 8:-0.0234987 9:-0.0339623 
0 0 0 0 0.5 1:-0.0738255 2:-0.454118 3:-0.317287 4:-0.0117994 5:-0.277778 6:-0.201493 7:0.4 8:-0.592689 9:0.132075 
0 0 0 0 0.5 1:-0.0738255 2:-0.468235 3:-0.317287 4:-0.0294985 5:-0.277778 6:-0.261194 7:0.4 8:-0.592689 9:0.132075 
0 0 0 0 0.5 1:-0.0738255 2:-0.468235 3:-0.317287 4:-0.0294985 5:-0.277778 6:-0.261194 7:0.4 8:-0.582245 9:0.132075 
0 0 0 0 0.5 1:-0.0738255 2:-0.468235 3:-0.317287 4:-0.0117994 5:-0.267677 6:-0.261194 7:0.4 8:-0.577023 9:0.132075 
0 0 0 0 0.5 1:-0.0738255 2:-0.468235 3:-0.317287 4:-0.0117994 5:-0.267677 6:-0.261194 7:0.4 8:-0.577023 9:0.132075 
0 0 0 0 0.5 1:-0.0738255 2:-0.468235 3:-0.317287 4:-0.0117994 5:-0.257576 6:-0.223881 7:0.4 8:-0.577023 9:0.132075 
0 0 0 0 0.5 1:-0.114094 2:-0.477647 3:-0.343545 4:-0.0117994 5:-0.257576 6:-0.261194 7:0.4 8:-0.56658 9:0.132075 
0 0 0 0 0.5 1:-0.114094 2:-0.491765 3:-0.352298 4:-0.0117994 5:-0.257576 6:-0.268657 7:0.4 8:-0.56658 9:0.109434 
0 0 0 0 0.5 1:-0.120805 2:-0.496471 3:-0.352298 4:-0.0235988 5:-0.257576 6:-0.276119 7:0.378947 8:-0.577023 9:0.109434 
0 0 0 0 0.5 1:-0.127517 2:-0.505882 3:-0.356674 4:-0.0235988 5:-0.267677 6:-0.276119 7:0.378947 8:-0.577023 9:0.109434 
0 0 0 0 0.5 1:-0.14094 2:-0.510588 3:-0.356674 4:-0.0235988 5:-0.267677 6:-0.283582 7:0.378947 8:-0.577023 9:0.109434 
0 0 0 0 0.5 1:-0.14094 2:-0.505882 3:-0.356674 4:-0.0235988 5:-0.257576 6:-0.276119 7:0.389474 8:-0.56658 9:0.109434 
0 0 0 0 0.5 1:-0.14094 2:-0.505882 3:-0.356674 4:-0.0235988 5:-0.257576 6:-0.276119 7:0.4 8:-0.561358 9:0.109434 
0 0 0 0 0.1471204222339485 1:-0.127517 2:-0.505882 3:-0.352298 4:-0.0117994 5:-0.252525 6:-0.268657 7:0.410526 8:-0.561358 9:0.116981 
0 0 0 0 0.5 1:-0.14094 2:-0.496471 3:-0.352298 4:-0.0235988 5:-0.257576 6:-0.283582 7:0.4 8:-0.556136 9:0.116981 
0 0 0 0 0.5 1:-0.14094 2:-0.510588 3:-0.352298 4:-0.0471976 5:-0.257576 6:-0.298507 7:0.4 8:-0.56658 9:0.116981 
0 0 0 0 0.5 1:-0.154362 2:-0.510588 3:-0.356674 4:-0.0471976 5:-0.277778 6:-0.298507 7:0.4 8:-0.56658 9:0.116981 
0 0 0 0 0.5 1:-0.154362 2:-0.515294 3:-0.356674 4:-0.0648968 5:-0.277778 6:-0.320896 7:0.4 8:-0.571802 9:0.116981 
0 0 0 0 0.5 1:-0.120805 2:-0.510588 3:-0.343545 4:-0.0147493 5:-0.262626 6:-0.268657 7:0.410526 8:-0.582245 9:0.109434 
0 0 0 0 0.5 1:-0.120805 2:-0.510588 3:-0.343545 4:-0.0147493 5:-0.262626 6:-0.268657 7:0.410526 8:-0.587467 9:0.109434 
0 0 0 0 0.5 1:-0.120805 2:-0.510588 3:-0.347921 4:-0.0147493 5:-0.262626 6:-0.268657 7:0.410526 8:-0.587467 9:0.109434 
0 0 0 0 0.5 1:-0.100671 2:-0.510588 3:-0.343545 4:-0.00294985 5:-0.252525 6:-0.261194 7:0.410526 8:-0.582245 9:0.109434 
0 0 0 0 0.5 1:-0.0872483 2:-0.501176 3:-0.343545 4:-0.00294985 5:-0.247475 6:-0.253731 7:0.410526 8:-0.571802 9:0.109434 
0 0 0 0 0.5 1:-0.0872483 2:-0.501176 3:-0.343545 4:-0.00294985 5:-0.242424 6:-0.253731 7:0.410526 8:-0.571802 9:0.109434 
0 0 0 0 0.5 1:-0.0671141 2:-0.501176 3:-0.343545 4:0.00884956 5:-0.242424 6:-0.253731 7:0.410526 8:-0.571802 9:0.109434 
0 0 0 0 0.5 1:-0.0268456 2:-0.505882 3:-0.36105 4:0.0294985 5:-0.252525 6:-0.276119 7:0.4 8:-0.582245 9:0.101887 
0 0 0 0 0.5 1:-0.0268456 2:-0.515294 3:-0.369803 4:0.0294985 5:-0.267677 6:-0.276119 7:0.389474 8:-0.592689 9:0.0943396 
0 0.2296576640878832 0 0 0 1:-0.38255 2:-0.962353 3:-0.61488 4:-0.244838 5:-0.681818 6:-0.529851 7:0.273684 8:-0.383812 9:0.313208 
0 0.5 0 0 0 1:-0.38255 2:-0.952941 3:-0.628009 4:-0.238938 5:-0.686869 6:-0.537313 7:0.263158 8:-0.37859 9:0.283019 
0 0.5 0 0 0 1:-0.38255 2:-0.976471 3:-0.628009 4:-0.244838 5:-0.686869 6:-0.552239 7:0.263158 8:-0.389034 9:0.283019 
0 0.5 0 0 0 1:-0.38255 2:-0.976471 3:-0.636761 4:-0.244838 5:-0.691919 6:-0.552239 7:0.252632 8:-0.399478 9:0.283019 
0 0.5 0 0 0 1:-0.38255 2:-0.976471 3:-0.636761 4:-0.244838 5:-0.691919 6:-0.552239 7:0.252632 8:-0.399478 9:0.275472 
0 0.5 0 0 0 1:-0.308725 2:-0.938824 3:-0.66302 4:-0.20944 5:-0.681818 6:-0.552239 7:0.2 8:-0.389034 9:0.25283 
0 0.5 0 0 0 1:-0.281879 2:-0.934118 3:-0.654267 4:-0.19764 5:-0.666667 6:-0.552239 7:0.2 8:-0.389034 9:0.25283 
0.5 0.5 0 0 0 1:-0.281879 2:-0.929412 3:-0.654267 4:-0.171091 5:-0.666667 6:-0.544776 7:0.221053 8:-0.389034 9:0.260377 
0.2046109515188844 0.4806328002823087 0 0 0.5 1:-0.234899 2:-0.915294 3:-0.645514 4:-0.159292 5:-0.641414 6:-0.537313 7:0.210526 8:-0.373368 9:0.260377 
0 0 0 0 0.03845373219173246 1:-0.234899 2:-0.915294 3:-0.645514 4:-0.159292 5:-0.641414 6:-0.544776 7:0.210526 8:-0.389034 9:0.25283 
0 0 0 0 0.5 1:-0.234899 2:-0.915294 3:-0.645514 4:-0.159292 5:-0.641414 6:-0.544776 7:0.2 8:-0.394256 9:0.25283 
0.5 0 0 0 0 1:-0.234899 2:-0.887059 3:-0.645514 4:-0.138643 5:-0.626263 6:-0.537313 7:0.221053 8:-0.373368 9:0.260377 
0.5 0 0 0 0 1:-0.234899 2:-0.882353 3:-0.628009 4:-0.129794 5:-0.621212 6:-0.537313 7:0.231579 8:-0.373368 9:0.275472 
0.5 0 0 0 0 1:-0.234899 2:-0.882353 3:-0.628009 4:-0.129794 5:-0.611111 6:-0.544776 7:0.210526 8:-0.37859 9:0.245283 
0 0 0.163487366591125 0 0.5 1:-0.248322 2:-0.887059 3:-0.592998 4:-0.141593 5:-0.621212 6:-0.544776 7:0.2 8:-0.383812 9:0.237736 
0 0 0 0 0.5 1:-0.248322 2:-0.896471 3:-0.601751 4:-0.141593 5:-0.621212 6:-0.544776 7:0.2 8:-0.383812 9:0.237736 
0 0 0 0 0.5 1:-0.248322 2:-0.896471 3:-0.601751 4:-0.147493 5:-0.621212 6:-0.544776 7:0.2 8:-0.383812 9:0.237736 
0 0 0.1007892931306055 0 0 1:-0.0469799 2:-0.835294 3:-0.522976 4:0.0619469 5:-0.580808 6:-0.425373 7:0.315789 8:-0.979112 9:0.358491 
0 0 0 0.5 0.5 1:0.0671141 2:-0.816471 3:-0.549234 4:0.123894 5:-0.540404 6:-0.41791 7:0.315789 8:-0.968668 9:0.343396 
0.5 0 0 0.5 0.1128360845189573 1:0.0738255 2:-0.807059 3:-0.549234 4:0.138643 5:-0.535354 6:-0.41791 7:0.315789 8:-0.958225 9:0.343396 
0.5 0 0 0 0 1:0.0805369 2:-0.802353 3:-0.549234 4:0.138643 5:-0.530303 6:-0.41791 7:0.326316 8:-0.958225 9:0.358491 
0.5 0 0 0.5 0 1:0.0805369 2:-0.802353 3:-0.549234 4:0.141593 5:-0.530303 6:-0.395522 7:0.326316 8:-0.958225 9:0.358491 
0.5 0 0 0 0 1:0.0939597 2:-0.792941 3:-0.562363 4:0.150442 5:-0.520202 6:-0.41791 7:0.336842 8:-0.958225 9:0.335849 
0.5 0 0 0.5 0 1:0.0939597 2:-0.792941 3:-0.562363 4:0.141593 5:-0.530303 6:-0.41791 7:0.336842 8:-0.968668 9:0.335849 
0.5 0 0 0.03785743980390761 0 1:0.0671141 2:-0.816471 3:-0.562363 4:0.138643 5:-0.540404 6:-0.41791 7:0.336842 8:-0.968668 9:0.335849 
0.5 0 0 0.5 0 1:0.0671141 2:-0.816471 3:-0.575492 4:0.138643 5:-0.540404 6:-0.41791 7:0.336842 8:-0.97389 9:0.335849 
0.5 0 0 0.5 0 1:0.0671141 2:-0.816471 3:-0.575492 4:0.135693 5:-0.540404 6:-0.41791 7:0.336842 8:-0.97389 9:0.335849 
0.5 0 0 0 0 1:0.0671141 2:-0.797647 3:-0.562363 4:0.138643 5:-0.540404 6:-0.41791 7:0.357895 8:-0.97389 9:0.335849 
0.5 0.4370949874537054 0 0 0 1:0.0738255 2:-0.792941 3:-0.562363 4:0.138643 5:-0.540404 6:-0.402985 7:0.378947 8:-0.97389 9:0.335849 
0.5 0 0 0 0 1:0.0738255 2:-0.792941 3:-0.562363 4:0.138643 5:-0.535354 6:-0.402985 7:0.378947 8:-0.968668 9:0.350943 
0.5 0 0 0 0 1:0.0738255 2:-0.788235 3:-0.557987 4:0.138643 5:-0.535354 6:-0.402985 7:0.389474 8:-0.968668 9:0.350943 
0.5 0 0 0 0 1:0.0604027 2:-0.788235 3:-0.557987 4:0.135693 5:-0.535354 6:-0.402985 7:0.4 8:-0.963446 9:0.350943 
-0 0 0 0.5 0 1:0.208054 2:-0.585882 3:-0.654267 4:0.412979 5:-0.565657 6:-0.201493 7:0.747368 8:-0.472585 9:0.577358 
-0 0 0 0.5 0 1:0.194631 2:-0.585882 3:-0.66302 4:0.412979 5:-0.59596 6:-0.201493 7:0.715789 8:-0.472585 9:0.562264 
-0 0 0 0.5 0 1:0.194631 2:-0.576471 3:-0.654267 4:0.418879 5:-0.575758 6:-0.186567 7:0.684211 8:-0.456919 9:0.501887 
-0 0 0 0.5 0 1:0.194631 2:-0.571765 3:-0.645514 4:0.424779 5:-0.575758 6:-0.171642 7:0.684211 8:-0.456919 9:0.524528 
-0 0 0 0.5 0 1:0.194631 2:-0.571765 3:-0.636761 4:0.424779 5:-0.565657 6:-0.171642 7:0.694737 8:-0.456919 9:0.539623 
-0 0 0 0.5 0 1:0.187919 2:-0.571765 3:-0.645514 4:0.410029 5:-0.560606 6:-0.164179 7:0.715789 8:-0.456919 9:0.554717 
-0 0 0 0.5 0 1:0.194631 2:-0.571765 3:-0.623632 4:0.415929 5:-0.560606 6:-0.164179 7:0.726316 8:-0.456919 9:0.554717 
-0 0 0.3768699305058739 0.5 0.4888200243607949 1:0.738255 2:-0.0729412 3:-0.47046 4:0.778761 5:-0.166667 6:0.126866 7:0.831579 8:-0.655352 9:0.539623 
-0 0 0 0.5 0 1:0.711409 2:-0.0729412 3:-0.479212 4:0.778761 5:-0.19697 6:0.104478 7:0.789474 8:-0.655352 9:0.49434 
-0 0 0 0.5 0 1:0.711409 2:-0.0776471 3:-0.479212 4:0.764012 5:-0.217172 6:0.104478 7:0.757895 8:-0.655352 9:0.479245 
-0 0 0 0.5 0 1:0.691275 2:-0.101176 3:-0.487965 4:0.710914 5:-0.242424 6:-0.0149254 7:0.757895 8:-0.655352 9:0.441509 
-0 0 0 0.1884711446893778 0 1:0.684564 2:-0.110588 3:-0.487965 4:0.707965 5:-0.242424 6:-0.0149254 7:0.757895 8:-0.655352 9:0.433962 
-0 0 0 0.5 0 1:0.684564 2:-0.110588 3:-0.487965 4:0.707965 5:-0.242424 6:-0.0149254 7:0.757895 8:-0.650131 9:0.433962 
-0 0 0 0.5 0 1:0.684564 2:-0.110588 3:-0.487965 4:0.707965 5:-0.242424 6:-0.00746269 7:0.778947 8:-0.644909 9:0.441509 
-0 0 0 0.5 0 1:0.684564 2:-0.110588 3:-0.479212 4:0.710914 5:-0.242424 7:0.778947 8:-0.644909 9:0.441509 
-0.5 0 0 0 0 1:0.651007 2:-0.124706 3:-0.479212 4:0.707965 5:-0.222222 7:0.778947 8:-0.639687 9:0.441509 
-0.5 0 0 0 0 1:0.630872 2:-0.167059 3:-0.501094 4:0.690265 5:-0.237374 6:-0.0149254 7:0.778947 8:-0.639687 9:0.441509 
-0.2221285788746262 0 0 0 0 1:0.630872 2:-0.167059 3:-0.5186 4:0.690265 5:-0.237374 6:-0.0149254 7:0.778947 8:-0.639687 9:0.433962 
-0.5 0 0 0 0 1:0.630872 2:-0.167059 3:-0.5186 4:0.690265 5:-0.237374 6:-0.0223881 7:0.757895 8:-0.639687 9:0.426415 
-0 0 0 0.5 0 1:0.657718 2:-0.157647 3:-0.5186 4:0.710914 5:-0.232323 6:-0.0149254 7:0.757895 8:-0.613577 9:0.449057 
-0.5 0 0 0.5 0 1:0.657718 2:-0.157647 3:-0.5186 4:0.690265 5:-0.232323 6:-0.0298507 7:0.736842 8:-0.624021 9:0.426415 
-0 0 0 0.5 0 1:0.651007 2:-0.157647 3:-0.536105 4:0.690265 5:-0.242424 6:-0.0447761 7:0.726316 8:-0.629243 9:0.418868 
-0 0 0 0.5 0 1:0.651007 2:-0.157647 3:-0.536105 4:0.690265 5:-0.242424 6:-0.0447761 7:0.726316 8:-0.629243 9:0.418868 
-0 0 0 0.5 0 1:0.651007 2:-0.157647 3:-0.536105 4:0.690265 5:-0.242424 6:-0.0447761 7:0.726316 8:-0.629243 9:0.418868 
-0 0 0 0.09141540684633952 0 1:0.651007 2:-0.157647 3:-0.536105 4:0.690265 5:-0.242424 6:-0.0447761 7:0.726316 8:-0.629243 9:0.426415 
-0 0 0 0.5 0 1:0.651007 2:-0.157647 3:-0.536105 4:0.690265 5:-0.242424 6:-0.0298507 7:0.726316 8:-0.629243 9:0.426415 
-0 0 0 0.5 0 1:0.651007 2:-0.176471 3:-0.540481 4:0.696165 5:-0.232323 6:-0.0149254 7:0.736842 8:-0.624021 9:0.449057 
-0 0 0 0.5 0 1:0.637584 2:-0.167059 3:-0.540481 4:0.699115 5:-0.237374 6:-0.00746269 7:0.757895 8:-0.613577 9:0.441509 
-0 0 0 0.5 0 1:0.637584 2:-0.176471 3:-0.540481 4:0.690265 5:-0.237374 6:-0.0149254 7:0.757895 8:-0.613577 9:0.441509 
-0 0 0 0.5 0 1:0.637584 2:-0.176471 3:-0.557987 4:0.690265 5:-0.237374 6:-0.0149254 7:0.736842 8:-0.613577 9:0.441509 
-0 0.3165143119785619 0.5 0.5 0.3541766532969068 1:0.550336 2:-0.138824 3:-0.02407 4:0.784661 5:-0.353535 6:0.298507 7:0.126316 8:-0.336815 9:1 
-0 0 0 0.5 0 1:0.550336 2:-0.138824 3:-0.0371991 4:0.784661 5:-0.393939 6:0.276119 7:0.115789 8:-0.326371 9:0.984906 
-0 0 0 0.5 0 1:0.550336 2:-0.148235 3:-0.0371991 4:0.778761 5:-0.393939 6:0.276119 7:0.115789 8:-0.326371 9:0.984906 
-0 0 0 0.5 0 1:0.543624 2:-0.148235 3:-0.0415755 4:0.772861 5:-0.393939 6:0.261194 7:0.115789 8:-0.326371 9:0.954717 
-0 0 0 0.5 0 1:0.536913 2:-0.152941 3:-0.0415755 4:0.769912 5:-0.393939 6:0.261194 7:0.115789 8:-0.326371 9:0.954717 
-0 0 0 0.5 0 1:0.530201 2:-0.162353 3:-0.0415755 4:0.766962 5:-0.39899 6:0.261194 7:0.115789 8:-0.326371 9:0.939623 
-0 0 0 0.5 0 1:0.536913 2:-0.162353 3:-0.0371991 4:0.769912 5:-0.393939 6:0.261194 7:0.115789 8:-0.310705 9:0.954717 
-0 0 0 0.5 0 1:0.543624 2:-0.152941 3:-0.0371991 4:0.769912 5:-0.393939 6:0.276119 7:0.115789 8:-0.310705 9:0.962264 
-0 0 0 0.5 0 1:0.543624 2:-0.152941 3:-0.0328228 4:0.769912 5:-0.393939 6:0.276119 7:0.115789 8:-0.310705 9:0.969811 
-0 0 0.01089886434968572 0.5 0 1:0.543624 2:-0.148235 3:-0.02407 4:0.769912 5:-0.393939 6:0.276119 7:0.115789 8:-0.305483 9:0.969811 
-0 0 0 0.5 0 1:0.550336 2:-0.152941 3:-0.02407 4:0.764012 5:-0.393939 6:0.276119 7:0.126316 8:-0.305483 9:0.984906 
-0 0 0 0.5 0 1:0.536913 2:-0.152941 3:-0.0328228 4:0.764012 5:-0.39899 6:0.276119 7:0.126316 8:-0.305483 9:0.954717 
-0 0 0 0.5 0 1:0.536913 2:-0.167059 3:-0.0328228 4:0.758112 5:-0.40404 6:0.268657 7:0.126316 8:-0.305483 9:0.954717 
-0 0 0 0.5 0 1:0.530201 2:-0.167059 3:-0.0415755 4:0.758112 5:-0.40404 6:0.268657 7:0.115789 8:-0.305483 9:0.924528 
-0 0 0 0.5 0 1:0.530201 2:-0.176471 3:-0.0415755 4:0.755162 5:-0.40404 6:0.268657 7:0.115789 8:-0.305483 9:0.924528 
-0 0 0 0.5 0 1:0.530201 2:-0.167059 3:-0.0415755 4:0.758112 5:-0.40404 6:0.268657 7:0.126316 8:-0.305483 9:0.924528 
-0 0 0 0.5 0 1:0.536913 2:-0.167059 3:-0.0328228 4:0.758112 5:-0.40404 6:0.276119 7:0.126316 8:-0.305483 9:0.954717 
-0 0 0 0.5 0 1:0.550336 2:-0.152941 3:-0.0284464 4:0.764012 5:-0.39899 6:0.291045 7:0.126316 8:-0.295039 9:0.954717 
-0 0 0 0.5 0 1:0.550336 2:-0.152941 3:-0.0284464 4:0.764012 5:-0.39899 6:0.291045 7:0.126316 8:-0.295039 9:0.954717 
-0 0 0 0.5 0 1:0.530201 2:-0.176471 3:-0.02407 4:0.758112 5:-0.40404 6:0.268657 7:0.147368 8:-0.289817 9:0.954717 
-0 0 0 0.5 0 1:0.52349 2:-0.181176 3:-0.0284464 4:0.755162 5:-0.40404 6:0.268657 7:0.147368 8:-0.289817 9:0.939623 
-0 0 0 0.5 0 1:0.516779 2:-0.181176 3:-0.0415755 4:0.755162 5:-0.40404 6:0.261194 7:0.126316 8:-0.289817 9:0.939623 
-0 0 0 0.5 0 1:0.516779 2:-0.185882 3:-0.0415755 4:0.746313 5:-0.40404 6:0.261194 7:0.126316 8:-0.295039 9:0.939623 
-0 0 0 0.5 0 1:0.516779 2:-0.209412 3:-0.0415755 4:0.746313 5:-0.40404 6:0.246269 7:0.126316 8:-0.295039 9:0.939623 
-0 0 0 0.5 0 1:0.516779 2:-0.204706 3:-0.0415755 4:0.746313 5:-0.40404 6:0.261194 7:0.147368 8:-0.289817 9:0.94717 
-0 0 0 0.5 0 1:0.516779 2:-0.204706 3:-0.0371991 4:0.746313 5:-0.40404 6:0.261194 7:0.147368 8:-0.289817 9:0.94717 
-0 0 0 0.5 0 1:0.516779 2:-0.204706 3:-0.0371991 4:0.746313 5:-0.40404 6:0.261194 7:0.147368 8:-0.289817 9:0.94717 
-0 0 0 0.5 0 1:0.516779 2:-0.204706 3:-0.0371991 4:0.746313 5:-0.39899 6:0.261194 7:0.157895 8:-0.289817 9:0.94717 
-0 0 0 0.5 0 1:0.516779 2:-0.209412 3:-0.0415755 4:0.743363 5:-0.40404 6:0.238806 7:0.147368 8:-0.289817 9:0.932075 
-0 0 0 0.5 0 1:0.510067 2:-0.223529 3:-0.0459519 4:0.740413 5:-0.40404 6:0.238806 7:0.147368 8:-0.295039 9:0.932075 
-0 0 0 0.5 0 1:0.510067 2:-0.237647 3:-0.0415755 4:0.734513 5:-0.40404 6:0.231343 7:0.168421 8:-0.300261 9:0.932075 
-0 0 0 0.5 0 1:0.516779 2:-0.237647 3:-0.0415755 4:0.737463 5:-0.39899 6:0.238806 7:0.168421 8:-0.300261 9:0.932075 
-0 0 0 0.5 0 1:0.516779 2:-0.237647 3:-0.0284464 4:0.740413 5:-0.393939 6:0.231343 7:0.178947 8:-0.295039 9:0.954717 
-0 0 0 0.5 0 1:0.510067 2:-0.237647 3:-0.0415755 4:0.740413 5:-0.393939 6:0.231343 7:0.157895 8:-0.295039 9:0.924528 
-0.5 0 0 0.5 0 1:0.510067 2:-0.242353 3:-0.0415755 4:0.734513 5:-0.393939 6:0.216418 7:0.157895 8:-0.295039 9:0.924528 
-0 0 0 0.5 0 1:0.510067 2:-0.242353 3:-0.0459519 4:0.734513 5:-0.40404 6:0.216418 7:0.126316 8:-0.295039 9:0.909434 
-0 0 0 0.5 0 1:0.510067 2:-0.242353 3:-0.0459519 4:0.731563 5:-0.40404 6:0.216418 7:0.126316 8:-0.300261 9:0.909434 
-0 0 0 0.5 0 1:0.510067 2:-0.242353 3:-0.0459519 4:0.734513 5:-0.40404 6:0.216418 7:0.126316 8:-0.295039 9:0.909434 
-0.1161255443026847 0 0 0.5 0 1:0.516779 2:-0.242353 3:-0.0415755 4:0.734513 5:-0.393939 6:0.216418 7:0.157895 8:-0.295039 9:0.924528 
-0 0 0 0.5 0 1:0.516779 2:-0.237647 3:-0.0415755 4:0.740413 5:-0.393939 6:0.216418 7:0.157895 8:-0.295039 9:0.924528 
-0 0 0 0.5 0 1:0.516779 2:-0.237647 3:-0.0415755 4:0.740413 5:-0.393939 6:0.216418 7:0.157895 8:-0.295039 9:0.924528 
-0 0 0 0.5 0 1:0.510067 2:-0.242353 3:-0.059081 4:0.731563 5:-0.40404 6:0.171642 7:0.126316 8:-0.289817 9:0.909434 
-0 0 0 0.5 0 1:0.510067 2:-0.242353 3:-0.0853392 4:0.731563 5:-0.40404 6:0.164179 7:0.105263 8:-0.295039 9:0.879245 
-0.5 0 0 0.5 0 1:0.496644 2:-0.242353 3:-0.0853392 4:0.705015 5:-0.409091 6:0.141791 7:0.0947368 8:-0.305483 9:0.871698 
-0.5 0 0 0 0 1:0.47651 2:-0.28 3:-0.0853392 4:0.705015 5:-0.409091 6:0.141791 7:0.0947368 8:-0.310705 9:0.871698 
-0 0 0 0.5 0 1:0.597315 2:-0.665882 3:-0.426696 4:0.705015 5:-0.60101 6:-0.350746 7:0.663158 8:-0.989556 9:0.750943 
-0 0 0 0.5 0 1:0.691275 2:-0.576471 3:-0.391685 4:0.80531 5:-0.530303 6:-0.343284 7:0.663158 8:-0.937337 9:0.713208 
-0 0 0 0.5 0 1:0.691275 2:-0.576471 3:-0.396061 4:0.80531 5:-0.530303 6:-0.350746 7:0.610526 8:-0.937337 9:0.70566 
-0 0 0 0.5 0 1:0.691275 2:-0.576471 3:-0.400438 4:0.80531 5:-0.530303 6:-0.350746 7:0.6 8:-0.937337 9:0.667925 
-0 0 0 0.08627355819681301 0 1:0.684564 2:-0.576471 3:-0.400438 4:0.831858 5:-0.520202 6:-0.343284 7:0.610526 8:-0.900783 9:0.645283 
-0 0 0 0.5 0 1:0.691275 2:-0.576471 3:-0.396061 4:0.831858 5:-0.520202 6:-0.343284 7:0.621053 8:-0.900783 9:0.667925 
-0 0 0 0.5 0 1:0.697987 2:-0.576471 3:-0.391685 4:0.823009 5:-0.510101 6:-0.30597 7:0.736842 8:-0.937337 9:0.728302 
-0 0 0 0.5 0 1:0.697987 2:-0.576471 3:-0.378556 4:0.834808 5:-0.510101 6:-0.30597 7:0.736842 8:-0.932115 9:0.728302 
-0 0.5 0 0 0 1:0.147651 2:-0.651765 3:-0.649891 4:0.333333 5:-0.676768 6:-0.373134 7:0.610526 8:-0.472585 9:0.456604 
-0 0.5 0 0 0 1:0.147651 2:-0.651765 3:-0.649891 4:0.333333 5:-0.676768 6:-0.373134 7:0.610526 8:-0.467363 9:0.456604 
-0 0.0382847284016547 0 0 0 1:0.154362 2:-0.651765 3:-0.649891 4:0.333333 5:-0.656566 6:-0.373134 7:0.621053 8:-0.456919 9:0.464151 
-0 0.5 0 0 0 1:0.14094 2:-0.651765 3:-0.654267 4:0.333333 5:-0.676768 6:-0.373134 7:0.6 8:-0.456919 9:0.449057 
-0 0.5 0 0 0 1:0.14094 2:-0.670588 3:-0.654267 4:0.330383 5:-0.676768 6:-0.38806 7:0.6 8:-0.467363 9:0.449057 
-0 0.5 0 0 0 1:0.127517 2:-0.670588 3:-0.680525 4:0.330383 5:-0.676768 6:-0.38806 7:0.578947 8:-0.467363 9:0.449057 
-0 0.5 0 0 0 1:0.127517 2:-0.684706 3:-0.680525 4:0.321534 5:-0.676768 6:-0.395522 7:0.578947 8:-0.477807 9:0.449057 
-0 0.5 0 0 0 1:0.127517 2:-0.670588 3:-0.680525 4:0.330383 5:-0.676768 6:-0.38806 7:0.6 8:-0.467363 9:0.449057 
-0 0.5 0 0 0 1:0.14094 2:-0.670588 3:-0.654267 4:0.330383 5:-0.666667 6:-0.38806 7:0.6 8:-0.467363 9:0.464151 
-0 0.5 0 0 0 1:0.0738255 2:-0.684706 3:-0.698031 4:0.324484 5:-0.681818 6:-0.380597 7:0.568421 8:-0.493473 9:0.441509 
-0.4634185495396753 0 0 0 0 1:0.637584 2:-0.171765 3:-0.531729 4:0.660767 5:-0.257576 6:-0.141791 7:0.684211 8:-0.608355 9:0.358491 
-0.5 0 0 0.5 0 1:0.637584 2:-0.171765 3:-0.531729 4:0.660767 5:-0.257576 6:-0.104478 7:0.684211 8:-0.608355 9:0.358491 
-0.5 0 0 0.5 0 1:0.637584 2:-0.171765 3:-0.531729 4:0.660767 5:-0.257576 6:-0.104478 7:0.694737 8:-0.608355 9:0.358491 
-0.5 0 0 0.5 0 1:0.644295 2:-0.171765 3:-0.531729 4:0.660767 5:-0.257576 6:-0.104478 7:0.694737 8:-0.608355 9:0.358491 
-0 0 0 0.2968683804190062 0 1:0.637584 2:-0.176471 3:-0.557987 4:0.657817 5:-0.257576 6:-0.156716 7:0.705263 8:-0.603133 9:0.373585 
-0.5 0 0 0 0 1:0.577181 2:-0.232941 3:-0.557987 4:0.60767 5:-0.272727 6:-0.298507 7:0.642105 8:-0.608355 9:0.320755 
-0.08867822245684269 0 0 0 0 1:0.577181 2:-0.232941 3:-0.557987 4:0.60767 5:-0.272727 6:-0.298507 7:0.642105 8:-0.603133 9:0.320755 
-0.5 0 0 0 0 1:0.583893 2:-0.232941 3:-0.557987 4:0.60767 5:-0.262626 6:-0.298507 7:0.642105 8:-0.603133 9:0.328302 
-0.5 0 0 0 0 1:0.583893 2:-0.232941 3:-0.549234 4:0.60767 5:-0.257576 6:-0.298507 7:0.663158 8:-0.603133 9:0.328302 
-0 0 0 0 0.3477838210168619 1:0.395973 2:-0.435294 3:-0.177243 4:0.637168 5:-0.535354 6:-0.179104 7:-0.168421 8:-0.310705 9:0.607547 
-0 0.5 0 0 0 1:-0.00671141 2:-0.689412 3:-0.636761 4:0.289086 5:-0.732323 6:-0.358209 7:0.515789 8:-0.54047 9:0.471698 
-0 0.5 0 0 0 1:-0.0201342 2:-0.689412 3:-0.636761 4:0.280236 5:-0.742424 6:-0.358209 7:0.494737 8:-0.54047 9:0.471698 
-0 0.5 0 0 0 1:-0.0536913 2:-0.689412 3:-0.636761 4:0.280236 5:-0.742424 6:-0.358209 7:0.494737 8:-0.54047 9:0.456604 
-0.5 0 0 0 0 1:-0.0402685 2:-0.670588 3:-0.606127 4:0.292035 5:-0.732323 6:-0.313433 7:0.526316 8:-0.556136 9:0.479245 
-0.124904635321301 0 0 0 0 1:-0.0536913 2:-0.670588 3:-0.606127 4:0.292035 5:-0.732323 6:-0.328358 7:0.526316 8:-0.556136 9:0.456604 
-0.5 0 0 0 0 1:-0.0536913 2:-0.670588 3:-0.61488 4:0.289086 5:-0.732323 6:-0.328358 7:0.526316 8:-0.556136 9:0.456604 
-0.5 0 0 0 0 1:-0.0671141 2:-0.670588 3:-0.61488 4:0.289086 5:-0.732323 6:-0.328358 7:0.526316 8:-0.556136 9:0.456604 
-0.5 0.4885815069096414 0 0 0 1:-0.0604027 2:-0.698824 3:-0.61488 4:0.283186 5:-0.732323 6:-0.350746 7:0.547368 8:-0.556136 9:0.479245 
-0.5 0 0 0 0 1:-0.0604027 2:-0.698824 3:-0.61488 4:0.283186 5:-0.732323 6:-0.350746 7:0.536842 8:-0.556136 9:0.479245 
-0.5 0 0 0 0 1:-0.033557 2:-0.651765 3:-0.56674 4:0.303835 5:-0.727273 6:-0.276119 7:0.547368 8:-0.524804 9:0.456604 
-0.5 0 0 0 0 1:-0.0402685 2:-0.651765 3:-0.579869 4:0.303835 5:-0.727273 6:-0.276119 7:0.547368 8:-0.54047 9:0.456604 
-0.5 0 0 0 0 1:-0.0469799 2:-0.665882 3:-0.579869 4:0.303835 5:-0.732323 6:-0.276119 7:0.547368 8:-0.54047 9:0.456604 
-0.5 0 0 0 0 1:-0.0402685 2:-0.651765 3:-0.56674 4:0.303835 5:-0.727273 6:-0.261194 7:0.557895 8:-0.550914 9:0.486792 
-0.5 0 0 0 0 1:-0.033557 2:-0.651765 3:-0.56674 4:0.306785 5:-0.722222 6:-0.253731 7:0.578947 8:-0.54047 9:0.501887 
-0.3057805964936974 0 0 0 0 1:-0.033557 2:-0.642353 3:-0.56674 4:0.306785 5:-0.722222 6:-0.246269 7:0.578947 8:-0.54047 9:0.509434 
-0.5 0 0 0 0 1:-0.033557 2:-0.642353 3:-0.557987 4:0.309735 5:-0.722222 6:-0.253731 7:0.578947 8:-0.550914 9:0.501887 
-0.5 0 0 0 0 1:-0.0469799 2:-0.642353 3:-0.557987 4:0.309735 5:-0.722222 6:-0.253731 7:0.578947 8:-0.550914 9:0.501887 
-0.5 0 0 0 0 1:-0.0469799 2:-0.642353 3:-0.557987 4:0.303835 5:-0.722222 6:-0.253731 7:0.578947 8:-0.571802 9:0.501887 
-0.5 0 0 0 0 1:-0.0536913 2:-0.642353 3:-0.562363 4:0.303835 5:-0.722222 6:-0.253731 7:0.578947 8:-0.571802 9:0.49434 
-0.5 0 0 0 0 1:-0.0469799 2:-0.642353 3:-0.557987 4:0.309735 5:-0.712121 6:-0.246269 7:0.578947 8:-0.56658 9:0.49434 
-0.5 0 0 0 0 1:-0.033557 2:-0.628235 3:-0.557987 4:0.309735 5:-0.712121 6:-0.246269 7:0.578947 8:-0.56658 9:0.501887 
-0.5 0 0 0 0.3814235689674759 1:0.456376 2:-0.350588 3:-0.61488 4:0.516224 5:-0.393939 6:-0.507463 7:0.431579 8:-0.697128 9:0.0566038 
-0.5 0 0 0 0 1:0.456376 2:-0.383529 3:-0.628009 4:0.516224 5:-0.393939 6:-0.522388 7:0.4 8:-0.707572 9:0.0490566 
-0.5 0 0 0 0 1:0.42953 2:-0.388235 3:-0.645514 4:0.507375 5:-0.40404 6:-0.522388 7:0.4 8:-0.723238 9:0.0415094 
-0.3679851298679191 0 0 0 0 1:0.42953 2:-0.388235 3:-0.645514 4:0.507375 5:-0.40404 6:-0.522388 7:0.4 8:-0.723238 9:0.0490566 
-0 0 0 0.5 0 1:0.402685 2:-0.430588 3:-0.256018 4:0.619469 5:-0.474747 6:-0.320896 7:-0.115789 8:-0.154047 9:0.49434 
-0 0 0 0.1624575020882065 0 1:0.402685 2:-0.430588 3:-0.247265 4:0.619469 5:-0.469697 6:-0.320896 7:-0.105263 8:-0.148825 9:0.49434 
-0 0 0 0.5 0 1:0.402685 2:-0.430588 3:-0.247265 4:0.619469 5:-0.469697 6:-0.313433 7:-0.105263 8:-0.148825 9:0.49434 
-0 0 0 0.5 0 1:0.402685 2:-0.430588 3:-0.247265 4:0.619469 5:-0.464646 6:-0.313433 7:-0.0842105 8:-0.138381 9:0.501887 
-0 0 0 0.5 0 1:0.402685 2:-0.425882 3:-0.242888 4:0.622419 5:-0.464646 6:-0.313433 7:-0.0736842 8:-0.138381 9:0.509434 
-0 0 0 0.5 0 1:0.416107 2:-0.430588 3:-0.238512 4:0.619469 5:-0.464646 6:-0.313433 7:-0.0631579 8:-0.138381 9:0.509434 
-0 0 0 0.5 0 1:0.402685 2:-0.430588 3:-0.247265 4:0.619469 5:-0.474747 6:-0.313433 7:-0.0631579 8:-0.138381 9:0.501887 
-0 0 0 0.5 0 1:0.449664 2:-0.477647 3:-0.21663 4:0.59292 5:-0.434343 6:-0.313433 7:0.0526316 8:-0.0861619 9:0.569811 
-0 0 0 0.5 0 1:0.463087 2:-0.472941 3:-0.199125 4:0.589971 5:-0.429293 6:-0.350746 7:0.0421053 8:-0.0809399 9:0.569811 
-0 0 0 0.5 0 1:0.442953 2:-0.472941 3:-0.21663 4:0.584071 5:-0.444444 6:-0.350746 7:0.0421053 8:-0.0861619 9:0.569811 
-0 0 0 0.5 0 1:0.442953 2:-0.472941 3:-0.21663 4:0.581121 5:-0.444444 6:-0.350746 7:0.0421053 8:-0.0861619 9:0.569811 
-0 0 0 0.5 0 1:0.442953 2:-0.477647 3:-0.21663 4:0.575221 5:-0.449495 6:-0.350746 7:0.0421053 8:-0.0861619 9:0.562264 
-0 0 0.1154683677147803 0 0 1:0.510067 2:-0.694118 3:-0.137856 4:0.690265 5:-0.636364 6:-0.313433 7:0.821053 8:-0.921671 9:0.781132 
-0.08770407202567546 0 0 0 0 1:-0.0536913 2:-0.651765 3:-0.527352 4:0.297935 5:-0.762626 6:-0.30597 7:0.494737 8:-0.556136 9:0.464151 
-0.5 0 0 0 0.5 1:-0.0671141 2:-0.632941 3:-0.5186 4:0.309735 5:-0.762626 6:-0.253731 7:0.484211 8:-0.54047 9:0.456604 
-0.5 0 0 0.5 0 1:-0.0604027 2:-0.632941 3:-0.514223 4:0.309735 5:-0.762626 6:-0.238806 7:0.494737 8:-0.54047 9:0.471698 
-0.5 0 0 0 0 1:-0.0604027 2:-0.628235 3:-0.50547 4:0.312684 5:-0.762626 6:-0.238806 7:0.494737 8:-0.535248 9:0.471698 
-0 0 0.2764651014807074 0.5 0.1028405531906976 1:-0.0604027 2:-0.623529 3:-0.501094 4:0.315634 5:-0.757576 6:-0.223881 7:0.536842 8:-0.54047 9:0.479245 
-0.5 0 0.04736272592235179 0.2474296650637726 0.5 1:-0.0738255 2:-0.623529 3:-0.501094 4:0.315634 5:-0.757576 6:-0.223881 7:0.494737 8:-0.54047 9:0.479245 
-0.5 0 0 0 0.5 1:-0.0738255 2:-0.623529 3:-0.501094 4:0.315634 5:-0.757576 6:-0.223881 7:0.494737 8:-0.545692 9:0.479245 
-0 0 0 0 0.4402717814105408 1:0.201342 2:-0.505882 3:-0.66302 4:0.421829 5:-0.505051 6:-0.768657 7:0.336842 8:-0.770235 9:-0.0641509 
-0 0 0 0 0.02031891477500008 1:0.201342 2:-0.510588 3:-0.66302 4:0.40708 5:-0.505051 6:-0.828358 7:0.336842 8:-0.785901 9:-0.0641509 
-0.4412061404459093 0 0 0 0 1:0.0939597 2:-0.623529 3:-0.772429 4:0.324484 5:-0.60101 6:-0.932836 7:0.157895 8:-0.817232 9:-0.162264 
-0.5 0 0 0 0.08380617772192796 1:0.0939597 2:-0.632941 3:-0.772429 4:0.315634 5:-0.60101 6:-0.940299 7:0.157895 8:-0.817232 9:-0.162264 
-0.5 0 0 0 0.5 1:0.0738255 2:-0.632941 3:-0.781182 4:0.312684 5:-0.60101 6:-0.940299 7:0.157895 8:-0.817232 9:-0.169811 
-0.5 0 0 0 0.5 1:0.0939597 2:-0.632941 3:-0.772429 4:0.312684 5:-0.60101 6:-0.940299 7:0.157895 8:-0.817232 9:-0.162264 
-0 0.5 0 0.2725490132570209 0 1:0.114094 2:-0.632941 3:-0.781182 4:0.312684 5:-0.60101 6:-0.962687 7:0.147368 8:-0.801567 9:-0.207547 
-0 0.5 0 0.5 0 1:0.107383 2:-0.632941 3:-0.794311 4:0.312684 5:-0.60101 6:-0.962687 7:0.126316 8:-0.801567 9:-0.215094 
-0 0.008995605654947923 0 0.5 0.5 1:0.107383 2:-0.614118 3:-0.789934 4:0.312684 5:-0.60101 6:-0.962687 7:0.126316 8:-0.801567 9:-0.215094 
-0 0 0 0 0.3346807326078227 1:0.107383 2:-0.604706 3:-0.789934 4:0.324484 5:-0.585859 6:-0.947761 7:0.126316 8:-0.780679 9:-0.215094 
-0 0 0.389942581876697 0.5 0.5 1:0.107383 2:-0.604706 3:-0.794311 4:0.312684 5:-0.585859 6:-0.962687 7:0.0947368 8:-0.765013 9:-0.222642 
-0.1654477434318097 0.5 0.5 0.5 0.5 1:0.100671 2:-0.614118 3:-0.803063 4:0.312684 5:-0.585859 6:-0.962687 7:0.0736842 8:-0.765013 9:-0.230189 
-0 0 0.5 0 0.5 1:0.348993 2:-0.590588 3:-0.229759 4:0.501475 5:-0.505051 6:-0.597015 7:-0.0526316 8:-0.0496084 9:0.433962 
-0 0 0 0 0.5 1:0.348993 2:-0.590588 3:-0.229759 4:0.501475 5:-0.505051 6:-0.589552 7:-0.0210526 8:-0.0496084 9:0.464151 
-0 0 0 0 0.5 1:0.362416 2:-0.604706 3:-0.194748 4:0.495575 5:-0.494949 6:-0.559701 7:0.0210526 8:-0.0496084 9:0.516981 
-0.5 0 0 0 0 1:0.362416 2:-0.665882 3:-0.203501 4:0.457227 5:-0.489899 6:-0.552239 7:0.210526 8:-0.0548303 9:0.584906 
-0.08737843753515663 0 0 0 0 1:0.355705 2:-0.68 3:-0.212254 4:0.460177 5:-0.5 6:-0.544776 7:0.2 8:-0.0391645 9:0.577358 
-0.5 0 0 0 0 1:0.355705 2:-0.68 3:-0.212254 4:0.460177 5:-0.5 6:-0.567164 7:0.168421 8:-0.0443864 9:0.539623 
-0.5 0 0 0 0 1:0.355705 2:-0.68 3:-0.212254 4:0.460177 5:-0.5 6:-0.567164 7:0.168421 8:-0.0443864 9:0.532075 
-0.5 0 0 0 0 1:0.355705 2:-0.68 3:-0.212254 4:0.460177 5:-0.5 6:-0.567164 7:0.157895 8:-0.0443864 9:0.532075 
-0 0 0.2394122418025439 0 0 1:0.409396 2:-0.590588 3:-0.207877 4:0.530973 5:-0.444444 6:-0.529851 7:0.242105 8:0.0391645 9:0.524528 
-0 0 0.04149022220992215 0 0 1:0.42953 2:-0.590588 3:-0.181619 4:0.522124 5:-0.449495 6:-0.514925 7:0.252632 8:0.0287206 9:0.532075 
-0 0 0 0.4940163196893079 0 1:0.436242 2:-0.590588 3:-0.185996 4:0.519174 5:-0.454545 6:-0.522388 7:0.252632 8:0.0287206 9:0.524528 
-0 -0 0 0 0.5 1:-0.805369 2:-0.52 3:-0.483589 4:-0.492625 5:-0.308081 6:-0.171642 7:0.578947 8:0.164491 9:-0.313208 
-0 -0 0 0 0.5 1:-0.805369 2:-0.52 3:-0.483589 4:-0.489676 5:-0.308081 6:-0.171642 7:0.578947 8:0.180157 9:-0.30566 
-0 -0 0 0 0.5 1:-0.778523 2:-0.538824 3:-0.483589 4:-0.492625 5:-0.30303 6:-0.179104 7:0.589474 8:0.169713 9:-0.283019 
-0 -0 0 0 0.5 1:-0.805369 2:-0.552941 3:-0.483589 4:-0.498525 5:-0.313131 6:-0.179104 7:0.589474 8:0.169713 9:-0.283019 
-0 -0 0 0 0.05485440924190327 1:-0.872483 2:-0.585882 3:-0.492341 4:-0.536873 5:-0.318182 6:-0.186567 7:0.621053 8:0.169713 9:-0.283019 
-0 -0 0 0 0.5 1:-0.832215 2:-0.567059 3:-0.483589 4:-0.533923 5:-0.313131 6:-0.179104 7:0.631579 8:0.180157 9:-0.275472 
-0 -0 0.5 0 0 1:-0.624161 2:-0.703529 3:-0.343545 4:-0.884956 5:-0.242424 6:-0.477612 7:-0.231579 8:0.159269 9:-0.49434 
-0 -0 0.5 0 0 1:-0.624161 2:-0.712941 3:-0.343545 4:-0.884956 5:-0.242424 6:-0.492537 7:-0.231579 8:0.159269 9:-0.49434 
-0 -0 0.5 0 0 1:-0.57047 2:-0.689412 3:-0.343545 4:-0.879056 5:-0.237374 6:-0.477612 7:-0.231579 8:0.159269 9:-0.479245 
-0 -0 0.5 0 0 1:-0.563758 2:-0.698824 3:-0.374179 4:-0.876106 5:-0.212121 6:-0.507463 7:-0.231579 8:0.143603 9:-0.509434 
-0 -0 0.3736582550841372 0 0 1:-0.563758 2:-0.703529 3:-0.374179 4:-0.879056 5:-0.212121 6:-0.514925 7:-0.231579 8:0.138381 9:-0.509434 
-0 -0 0.5 0 0 1:-0.563758 2:-0.708235 3:-0.374179 4:-0.882006 5:-0.217172 6:-0.529851 7:-0.252632 8:0.138381 9:-0.524528 
-0 -0 0.5 0 0 1:-0.557047 2:-0.708235 3:-0.374179 4:-0.882006 5:-0.217172 6:-0.529851 7:-0.252632 8:0.138381 9:-0.524528 
-0 -0 0.5 0 0 1:-0.557047 2:-0.708235 3:-0.374179 4:-0.882006 5:-0.217172 6:-0.529851 7:-0.252632 8:0.138381 9:-0.524528 
-0 -0 0.5 0 0 1:-0.557047 2:-0.708235 3:-0.374179 4:-0.882006 5:-0.217172 6:-0.529851 7:-0.252632 8:0.143603 9:-0.524528 
-0 -0 0.5 0 0 1:-0.577181 2:-0.727059 3:-0.387309 4:-0.896755 5:-0.222222 6:-0.559701 7:-0.294737 8:0.138381 9:-0.532075 
-0 -0 0.5 0 0 1:-0.57047 2:-0.727059 3:-0.382932 4:-0.896755 5:-0.222222 6:-0.559701 7:-0.284211 8:0.138381 9:-0.532075 
-0 -0 0.5 0 0 1:-0.577181 2:-0.727059 3:-0.387309 4:-0.893805 5:-0.222222 6:-0.552239 7:-0.294737 8:0.138381 9:-0.532075 
-0 -0 0.5 0 0 1:-0.577181 2:-0.736471 3:-0.387309 4:-0.908555 5:-0.222222 6:-0.559701 7:-0.294737 8:0.133159 9:-0.532075 
-0 -0 0.5 0 0 1:-0.583893 2:-0.736471 3:-0.391685 4:-0.908555 5:-0.227273 6:-0.559701 7:-0.294737 8:0.133159 9:-0.539623 
-0 -0 0.5 0 0 1:-0.590604 2:-0.736471 3:-0.391685 4:-0.914454 5:-0.227273 6:-0.567164 7:-0.294737 8:0.127937 9:-0.539623 
-0 -0 0.5 0 0 1:-0.604027 2:-0.736471 3:-0.391685 4:-0.914454 5:-0.237374 6:-0.567164 7:-0.305263 8:0.127937 9:-0.54717 
-0 -0 0.5 0 0 1:-0.590604 2:-0.736471 3:-0.391685 4:-0.914454 5:-0.227273 6:-0.567164 7:-0.294737 8:0.127937 9:-0.539623 
-0 -0 0.5 0 0 1:-0.590604 2:-0.736471 3:-0.391685 4:-0.908555 5:-0.227273 6:-0.567164 7:-0.294737 8:0.133159 9:-0.539623 
-0 -0 0.5 0 0 1:-0.281879 2:-0.458824 3:-0.02407 4:-0.265487 5:-0.222222 6:0.201493 7:0.547368 8:0.530026 9:0.116981 
-0 -0 0.5 0 0 1:-0.275168 2:-0.458824 3:-0.02407 4:-0.265487 5:-0.212121 6:0.201493 7:0.557895 8:0.535248 9:0.116981 
-0 -0 0.5 0 0 1:-0.255034 2:-0.458824 3:-0.02407 4:-0.265487 5:-0.212121 6:0.201493 7:0.557895 8:0.535248 9:0.116981 
-0 -0 0.5 0 0 1:-0.255034 2:-0.477647 3:-0.0371991 4:-0.265487 5:-0.212121 6:0.186567 7:0.578947 8:0.535248 9:0.139623 
-0 -0 0.5 0 0 1:-0.255034 2:-0.477647 3:-0.0415755 4:-0.265487 5:-0.222222 6:0.186567 7:0.547368 8:0.535248 9:0.109434 
-0 -0 0.5 0 0 1:-0.255034 2:-0.477647 3:-0.0634573 4:-0.265487 5:-0.227273 6:0.179104 7:0.547368 8:0.535248 9:0.109434 
-0 -0 0.5 0 0 1:-0.255034 2:-0.477647 3:-0.0722101 4:-0.265487 5:-0.227273 6:0.179104 7:0.526316 8:0.535248 9:0.0792453 
-0 -0 0.2735424064106545 0 0 1:-0.255034 2:-0.491765 3:-0.0722101 4:-0.265487 5:-0.227273 6:0.179104 7:0.526316 8:0.535248 9:0.0792453 
-0.0300762756245364 -0 0 0 0 1:-0.234899 2:-0.477647 3:-0.0853392 4:-0.262537 5:-0.237374 6:0.186567 7:0.484211 8:0.498695 9:0.162264 
-0.5 -0 0 0 0 1:-0.234899 2:-0.477647 3:-0.0809628 4:-0.256637 5:-0.232323 6:0.19403 7:0.526316 8:0.498695 9:0.184906 
-0.5 -0 0 0.1927472320986422 0 1:-0.234899 2:-0.477647 3:-0.0722101 4:-0.256637 5:-0.232323 6:0.201493 7:0.526316 8:0.498695 9:0.184906 
-0.5 -0.5 0 0.5 0 1:-0.221477 2:-0.454118 3:-0.0765864 4:-0.253687 5:-0.232323 6:0.19403 7:0.526316 8:0.477807 9:0.154717 
-0 -0.2902440908167038 0 0 0 1:-0.268456 2:-0.454118 3:-0.0765864 4:-0.256637 5:-0.237374 6:0.19403 7:0.526316 8:0.467363 9:0.139623 
-0.5 -0.5 0 0 0.5 1:0.033557 2:-0.745882 3:-0.66302 4:-0.233038 5:-0.722222 6:-0.179104 7:0.821053 8:-0.336815 9:0.260377 
-0.5 -0.5 0 0 0.5 1:-0.0201342 2:-0.745882 3:-0.671772 4:-0.238938 5:-0.727273 6:-0.179104 7:0.821053 8:-0.342037 9:0.25283 
-0.5 -0 0 0 0.5 1:-0.0201342 2:-0.750588 3:-0.671772 4:-0.244838 5:-0.727273 6:-0.186567 7:0.821053 8:-0.342037 9:0.25283 
-0.5 -0 0 0 0.5 1:0.0134228 2:-0.745882 3:-0.671772 4:-0.238938 5:-0.727273 6:-0.179104 7:0.831579 8:-0.342037 9:0.260377 
-0 -0 0 0 0.5 1:0.0134228 2:-0.745882 3:-0.671772 4:-0.238938 5:-0.727273 6:-0.179104 7:0.852632 8:-0.342037 9:0.260377 
-0 -0 0 0 0.5 1:0.0201342 2:-0.745882 3:-0.671772 4:-0.238938 5:-0.727273 6:-0.179104 7:0.852632 8:-0.336815 9:0.260377 
-0.5 -0 0 0 0.5 1:0.0201342 2:-0.745882 3:-0.66302 4:-0.238938 5:-0.727273 6:-0.171642 7:0.852632 8:-0.336815 9:0.267925 
-0.5 -0 0 0 0.5 1:0.0134228 2:-0.745882 3:-0.66302 4:-0.233038 5:-0.742424 6:-0.171642 7:0.831579 8:-0.336815 9:0.267925 
-0.4375619180667312 -0 0 0 0.5 1:0.0134228 2:-0.750588 3:-0.66302 4:-0.247788 5:-0.742424 6:-0.171642 7:0.831579 8:-0.336815 9:0.267925 
-0 -0 0 0 0.5 1:0.0134228 2:-0.750588 3:-0.671772 4:-0.247788 5:-0.752525 6:-0.171642 7:0.831579 8:-0.336815 9:0.260377 
-0 -0 0 0 0.5 1:0.0134228 2:-0.750588 3:-0.671772 4:-0.247788 5:-0.752525 6:-0.171642 7:0.831579 8:-0.336815 9:0.260377 
-0 -0 0 0 0.5 1:-0.00671141 2:-0.750588 3:-0.671772 4:-0.247788 5:-0.752525 6:-0.171642 7:0.831579 8:-0.336815 9:0.260377 
-0 -0 0 0 0.5 1:-0.00671141 2:-0.750588 3:-0.66302 4:-0.247788 5:-0.752525 6:-0.171642 7:0.842105 8:-0.336815 9:0.267925 
-0 -0 0 0 0.5 1:-0.00671141 2:-0.745882 3:-0.66302 4:-0.244838 5:-0.752525 6:-0.171642 7:0.842105 8:-0.331593 9:0.267925 
-0 -0 0 0 0.5 1:0.0134228 2:-0.745882 3:-0.66302 4:-0.244838 5:-0.742424 6:-0.171642 7:0.863158 8:-0.331593 9:0.267925 
-0 -0 0 0 0.5 1:0.0134228 2:-0.741176 3:-0.66302 4:-0.233038 5:-0.742424 6:-0.156716 7:0.863158 8:-0.326371 9:0.267925 
-0 -0 0 0 0.5 1:-0.0134228 2:-0.745882 3:-0.671772 4:-0.238938 5:-0.742424 6:-0.171642 7:0.863158 8:-0.331593 9:0.283019 
-0 -0 0 0 0.5 1:-0.0134228 2:-0.750588 3:-0.671772 4:-0.244838 5:-0.742424 6:-0.179104 7:0.863158 8:-0.336815 9:0.283019 
-0 -0 0 0 0.5 1:-0.0201342 2:-0.750588 3:-0.671772 4:-0.244838 5:-0.752525 6:-0.179104 7:0.852632 8:-0.336815 9:0.283019 
-0 -0 0 0 0.5 1:-0.0134228 2:-0.750588 3:-0.671772 4:-0.238938 5:-0.752525 6:-0.179104 7:0.852632 8:-0.336815 9:0.283019 
-0 -0 0 0 0.5 2:-0.750588 3:-0.684902 4:-0.244838 5:-0.752525 6:-0.19403 7:0.852632 8:-0.347258 9:0.267925 
-0 -0 0 0 0.5 2:-0.76 3:-0.684902 4:-0.244838 5:-0.752525 6:-0.19403 7:0.852632 8:-0.347258 9:0.267925 
-0 -0 0 0 0.5 2:-0.76 3:-0.689278 4:-0.244838 5:-0.767677 6:-0.19403 7:0.852632 8:-0.347258 9:0.267925 
-0 -0 0 0 0.07285975646709669 2:-0.769412 3:-0.689278 4:-0.244838 5:-0.777778 6:-0.19403 7:0.852632 8:-0.347258 9:0.267925 
-0 -0 0 0 0.5 1:-0.704698 2:-0.623529 3:-0.5186 4:-0.536873 5:-0.277778 6:-0.216418 7:0.610526 8:0.211488 9:-0.260377 
-0 -0 0 0 0.5 1:-0.644295 2:-0.642353 3:-0.50547 4:-0.510324 5:-0.287879 6:-0.223881 7:0.631579 8:0.227154 9:-0.215094 
-0 -0 0 0 0.5 1:-0.644295 2:-0.642353 3:-0.5186 4:-0.510324 5:-0.287879 6:-0.223881 7:0.6 8:0.227154 9:-0.25283 
-0 -0 0 0 0.5 1:-0.644295 2:-0.647059 3:-0.5186 4:-0.510324 5:-0.287879 6:-0.253731 7:0.6 8:0.206266 9:-0.25283 
-0 -0.4171423962661605 0.5 0 0 1:-0.610738 2:-0.76 3:-0.431072 4:-0.955752 5:-0.287879 6:-0.61194 7:-0.336842 8:0.10705 9:-0.539623 
-0 -0 0.5 0 0 1:-0.604027 2:-0.76 3:-0.431072 4:-0.955752 5:-0.287879 6:-0.61194 7:-0.326316 8:0.112272 9:-0.532075 
-0.1847874952102563 -0 0.5 0 0 1:-0.610738 2:-0.76 3:-0.439825 4:-0.958702 5:-0.30303 6:-0.634328 7:-0.326316 8:0.117493 9:-0.539623 
-0 -0 0.5 0 0 1:-0.610738 2:-0.769412 3:-0.439825 4:-0.973451 5:-0.30303 6:-0.634328 7:-0.326316 8:0.117493 9:-0.539623 
-0 -0 0.5 0 0 1:-0.610738 2:-0.769412 3:-0.444201 4:-0.973451 5:-0.30303 6:-0.634328 7:-0.326316 8:0.117493 9:-0.54717 
-0 -0 0.5 0.2994534679773095 0 1:-0.610738 2:-0.769412 3:-0.444201 4:-0.973451 5:-0.30303 6:-0.634328 7:-0.326316 8:0.10705 9:-0.54717 
-0 -0 0.5 0.5 0 1:-0.610738 2:-0.769412 3:-0.444201 4:-0.973451 5:-0.308081 6:-0.634328 7:-0.336842 8:0.10705 9:-0.54717 
-0.5 -0 0 0 0 1:-0.610738 2:-0.769412 3:-0.444201 4:-0.982301 5:-0.308081 6:-0.634328 7:-0.305263 8:0.101828 9:-0.532075 
-0.5 -0 0 0 0 1:-0.610738 2:-0.769412 3:-0.444201 4:-0.982301 5:-0.308081 6:-0.634328 7:-0.305263 8:0.101828 9:-0.532075 
-0 -0 0.3563671325083864 0 0 1:-0.228188 2:-0.510588 3:-0.0765864 4:-0.274336 5:-0.30303 6:0.201493 7:0.273684 8:0.498695 9:0.0716981 
-0 -0 0.5 0 0 1:-0.228188 2:-0.515294 3:-0.0765864 4:-0.274336 5:-0.30303 6:0.19403 7:0.273684 8:0.493473 9:0.0716981 
-0 -0 0.5 0 0 1:-0.208054 2:-0.515294 3:-0.0765864 4:-0.274336 5:-0.29798 6:0.19403 7:0.273684 8:0.498695 9:0.0716981 
-0 -0 0.5 0 0 1:-0.187919 2:-0.515294 3:-0.0678337 4:-0.274336 5:-0.30303 6:0.186567 7:0.273684 8:0.493473 9:0.101887 
-0 -0 0.5 0 0 1:-0.221477 2:-0.515294 3:-0.0765864 4:-0.277286 5:-0.308081 6:0.164179 7:0.263158 8:0.467363 9:0.0792453 
-0 -0 0.5 0 0 1:-0.187919 2:-0.515294 3:-0.0765864 4:-0.274336 5:-0.308081 6:0.164179 7:0.263158 8:0.472585 9:0.0792453 
-0.03976122374160652 -0 0.5 0 0 1:-0.187919 2:-0.515294 3:-0.0765864 4:-0.274336 5:-0.308081 6:0.164179 7:0.263158 8:0.472585 9:0.0943396 
-0 -0 0 0.07470080157658955 0 1:-0.174497 2:-0.515294 3:-0.0765864 4:-0.268437 5:-0.308081 6:0.171642 7:0.263158 8:0.477807 9:0.0943396 
-0 -0.2444817417977357 0 0.5 0 1:-0.174497 2:-0.505882 3:-0.0897155 4:-0.265487 5:-0.308081 6:0.171642 7:0.263158 8:0.477807 9:0.0943396 
-0.5 -0 0 0 0 1:-0.704698 2:-0.750588 3:-0.536105 4:-0.569322 5:-0.358586 6:-0.440299 7:0.452632 8:0.159269 9:-0.290566 
-0 -0 0 0 0.5 1:-0.0939597 2:-0.604706 3:-0.150985 4:-0.241888 5:-0.378788 6:0.11194 7:0.284211 8:0.477807 9:-0.0113208 
-0 -0 0 0 0.5 1:-0.120805 2:-0.604706 3:-0.150985 4:-0.241888 5:-0.378788 6:0.11194 7:0.284211 8:0.477807 9:-0.0113208 
-0 -0 0 0 0.5 1:-0.107383 2:-0.609412 3:-0.137856 4:-0.250737 5:-0.373737 6:0.126866 7:0.305263 8:0.477807 9:0.0113208 
-0 -0 0 0 0.08247875006038435 1:-0.134228 2:-0.609412 3:-0.137856 4:-0.250737 5:-0.373737 6:0.126866 7:0.294737 8:0.477807 9:0.0113208 
-0 -0 0 0 0.5 1:-0.14094 2:-0.6 3:-0.146608 4:-0.250737 5:-0.368687 6:0.156716 7:0.273684 8:0.488251 9:0.0113208 
-0 -0.5 0 0 0 1:0.234899 2:-0.849412 3:-0.859956 4:-0.020649 5:-0.883838 6:-0.380597 7:0.736842 8:-0.425587 9:0.290566 
-0 -0 0 0 0.5 1:-0.630872 2:-0.797647 3:-0.557987 4:-0.542773 5:-0.378788 6:-0.410448 7:0.515789 8:0.164491 9:-0.290566 
-0 -0 0 0 0.5 1:-0.597315 2:-0.764706 3:-0.562363 4:-0.536873 5:-0.363636 6:-0.410448 7:0.463158 8:0.169713 9:-0.358491 
-0 -0 0 0 0.5 1:-0.563758 2:-0.764706 3:-0.562363 4:-0.516224 5:-0.363636 6:-0.410448 7:0.463158 8:0.169713 9:-0.358491 
-0 -0 0 0 0.5 1:-0.590604 2:-0.764706 3:-0.553611 4:-0.525074 5:-0.368687 6:-0.402985 7:0.442105 8:0.164491 9:-0.373585 
-0 -0 0 0 0.3107823293684413 1:-0.590604 2:-0.764706 3:-0.553611 4:-0.536873 5:-0.373737 6:-0.425373 7:0.431579 8:0.164491 9:-0.373585 
-0 -0 0 0 0.5 1:-0.590604 2:-0.764706 3:-0.571116 4:-0.536873 5:-0.373737 6:-0.425373 7:0.410526 8:0.164491 9:-0.381132 
-0 -0 0 0 0.5 1:-0.590604 2:-0.778824 3:-0.571116 4:-0.536873 5:-0.378788 6:-0.440299 7:0.410526 8:0.159269 9:-0.411321 
-0 -0 0 0 0.5 1:-0.563758 2:-0.778824 3:-0.571116 4:-0.530973 5:-0.378788 6:-0.440299 7:0.410526 8:0.159269 9:-0.411321 
-0 -0 0 0 0.5 1:-0.563758 2:-0.764706 3:-0.56674 4:-0.525074 5:-0.378788 6:-0.425373 7:0.410526 8:0.164491 9:-0.396226 
-0 -0 0 0 0.5 1:-0.563758 2:-0.764706 3:-0.553611 4:-0.519174 5:-0.373737 6:-0.425373 7:0.431579 8:0.164491 9:-0.381132 
-0 -0 0 0 0.5 1:-0.563758 2:-0.764706 3:-0.553611 4:-0.519174 5:-0.373737 6:-0.425373 7:0.431579 8:0.164491 9:-0.373585 
-0.5 -0 0 0 0 1:-0.838926 2:-0.802353 3:-0.557987 4:-0.628319 5:-0.39899 6:-0.492537 7:0.442105 8:0.133159 9:-0.335849 
-0.5 -0 0 0 0 1:-0.845638 2:-0.802353 3:-0.557987 4:-0.634218 5:-0.39899 6:-0.492537 7:0.442105 8:0.127937 9:-0.335849 
-0.5 -0 0 0 0 1:-0.845638 2:-0.802353 3:-0.557987 4:-0.634218 5:-0.39899 6:-0.492537 7:0.431579 8:0.127937 9:-0.335849 
-0.5 -0 0 0 0 1:-0.845638 2:-0.807059 3:-0.562363 4:-0.640118 5:-0.39899 6:-0.5 7:0.431579 8:0.127937 9:-0.335849 
-0.5 -0 0 0 0 1:-0.838926 2:-0.807059 3:-0.557987 4:-0.634218 5:-0.39899 6:-0.5 7:0.431579 8:0.133159 9:-0.335849 
-0.5 -0 0 0 0 1:-0.805369 2:-0.807059 3:-0.557987 4:-0.634218 5:-0.393939 6:-0.5 7:0.442105 8:0.138381 9:-0.335849 
-0.3023576543488338 -0 0 0 0 1:-0.805369 2:-0.807059 3:-0.553611 4:-0.634218 5:-0.393939 6:-0.492537 7:0.442105 8:0.138381 9:-0.328302 
-0.5 -0 0 0 0 1:-0.85906 2:-0.802353 3:-0.553611 4:-0.648968 5:-0.393939 6:-0.485075 7:0.452632 8:0.143603 9:-0.313208 
-0.5 -0 0 0 0 1:-0.85906 2:-0.821176 3:-0.553611 4:-0.648968 5:-0.393939 6:-0.485075 7:0.452632 8:0.143603 9:-0.313208 
-0 -0 0 0 0.4620660635674433 1:-0.402685 2:-0.769412 3:-0.606127 4:-0.955752 5:-0.459596 6:-0.5 7:0.115789 8:0.0443864 9:-0.381132 
-0 -0 0 0 0.5 1:-0.402685 2:-0.769412 3:-0.606127 4:-0.955752 5:-0.459596 6:-0.5 7:0.0736842 8:0.0443864 9:-0.418868 
-0 -0 0 0 0.5 1:0.0268456 2:-0.651765 3:-0.225383 4:-0.227139 5:-0.393939 6:0.0149254 7:0.305263 8:0.524804 9:-0.124528 
-0 -0 0 0 0.5 1:0.0134228 2:-0.656471 3:-0.225383 4:-0.230088 5:-0.393939 6:0.0149254 7:0.305263 8:0.524804 9:-0.124528 
-0 -0 0 0 0.2342633277658399 1:-0.00671141 2:-0.632941 3:-0.212254 4:-0.218289 5:-0.368687 6:0.0223881 7:0.305263 8:0.498695 9:-0.0867925 
-0 -0 0 0 0.5 1:0.0268456 2:-0.661176 3:-0.212254 4:-0.19764 5:-0.333333 7:0.421053 8:0.488251 9:-0.0716981 
-0 -0 0 0 0.5 1:-0.0201342 2:-0.651765 3:-0.207877 4:-0.20354 5:-0.333333 6:-0.00746269 7:0.421053 8:0.477807 9:-0.0792453 
-0 -0 0 0 0.5 1:-0.033557 2:-0.651765 3:-0.207877 4:-0.20354 5:-0.333333 6:-0.00746269 7:0.421053 8:0.477807 9:-0.0792453 
-0 -0 0 0 0.3430362764069727 1:-0.0201342 2:-0.651765 3:-0.203501 4:-0.20354 5:-0.333333 7:0.442105 8:0.483029 9:-0.0716981 
-0 -0.5 0 0.5 0 1:0.228188 2:-0.887059 3:-0.899344 4:-0.0117994 5:-0.919192 6:-0.41791 7:0.631579 8:-0.462141 9:0.275472 
-0 -0.5 0 0 0 1:0.234899 2:-0.887059 3:-0.899344 4:-0.00589971 5:-0.914141 6:-0.41791 7:0.642105 8:-0.456919 9:0.275472 
-0 -0 0 0.5 0 1:0.255034 2:-0.887059 3:-0.894967 4:-0.0117994 5:-0.909091 6:-0.41791 7:0.663158 8:-0.462141 9:0.283019 
-0 -0.5 0 0.4541309790309214 0 1:0.228188 2:-0.887059 3:-0.90372 4:-0.0117994 5:-0.919192 6:-0.41791 7:0.631579 8:-0.462141 9:0.283019 
-0.5 -0 0 0 0 1:0.201342 2:-0.905882 3:-0.912473 4:-0.0265487 5:-0.919192 6:-0.462687 7:0.621053 8:-0.477807 9:0.298113 
-0 -0.400507924064206 0 0 0 1:0.228188 2:-0.915294 3:-0.964989 4:0.020649 5:-0.934343 6:-0.477612 7:0.610526 8:-0.488251 9:0.290566 
-0 -0.5 0 0.267176625277517 0 1:0.228188 2:-0.915294 3:-0.964989 4:0.0324484 5:-0.929293 6:-0.477612 7:0.610526 8:-0.483029 9:0.298113 
-0 -0.5 0 0.5 0 1:0.248322 2:-0.915294 3:-0.960613 4:0.020649 5:-0.929293 6:-0.477612 7:0.6 8:-0.488251 9:0.298113 
-0 -0.5 0 0.5 0 1:0.248322 2:-0.915294 3:-0.969365 4:0.020649 5:-0.934343 6:-0.477612 7:0.578947 8:-0.498695 9:0.290566 
-0 -0 0 0.5 0 1:0.248322 2:-0.929412 3:-0.969365 4:0.0147493 5:-0.934343 6:-0.5 7:0.578947 8:-0.51436 9:0.267925 
-0.2015479816748187 -0.5 0 0 0 1:0.214765 2:-0.929412 3:-0.969365 4:0.0147493 5:-0.939394 6:-0.5 7:0.568421 8:-0.51436 9:0.267925 
-0.5 -0 0 0 0 1:0.187919 2:-0.929412 3:-0.969365 4:-0.00884956 5:-0.939394 6:-0.5 7:0.568421 8:-0.519582 9:0.267925 
-0 -0.5 0 0 0 1:0.194631 2:-0.929412 3:-0.969365 4:0.0147493 5:-0.939394 6:-0.485075 7:0.578947 8:-0.519582 9:0.267925 
-0 -0.5 0 0 0 1:0.194631 2:-0.929412 3:-0.969365 4:0.0147493 5:-0.939394 6:-0.485075 7:0.578947 8:-0.519582 9:0.267925 
-0 -0.5 0 0 0 1:0.194631 2:-0.929412 3:-0.960613 4:0.0147493 5:-0.939394 6:-0.485075 7:0.6 8:-0.519582 9:0.267925 
-0.5 -0 0 0 0 1:0.127517 2:-0.962353 3:-0.986871 4:-0.0176991 5:-0.974747 6:-0.529851 7:0.578947 8:-0.535248 9:0.275472 
-0.5 -0 0.5 0 0 1:0.127517 2:-0.952941 3:-0.995624 4:-0.0235988 5:-0.994949 6:-0.559701 7:0.568421 8:-0.54047 9:0.283019 
-0.5 -0 0 0 0 1:0.114094 2:-0.952941 3:-1 4:-0.0235988 5:-1 6:-0.559701 7:0.568421 8:-0.545692 9:0.267925 
-0.2816487278903085 -0 0.2989127432397727 0 0 1:0.114094 2:-0.952941 3:-1 4:-0.0235988 5:-1 6:-0.559701 7:0.568421 8:-0.545692 9:0.267925 
-0 -0 -0 0 0.0009537996190773531 1:-0.838926 2:-0.0917647 3:-0.229759 4:-0.483776 5:0.267677 6:0.134328 7:-0.2 8:0.785901 9:-0.750943 
-0 -0.3348172683636964 -0 0.335765003016889 0 1:-0.838926 2:-0.12 3:-0.273523 4:-0.483776 5:0.257576 6:0.0820896 7:-0.242105 8:0.796345 9:-0.826415 
-0 -0.1816666023141935 -0 0.3109830247526961 0 1:-0.993289 2:-0.435294 3:-0.194748 4:-0.9941 5:-0.20202 6:-0.559701 7:-1 8:0.169713 9:-0.977358 
-0 -0 -0 0 0.342828270241587 1:-0.95302 2:-0.392941 3:-0.194748 4:-0.9941 5:-0.171717 6:-0.559701 7:-1 8:0.169713 9:-0.969811 
-0 -0 -0 0 0.3313261916346786 1:-0.174497 2:-0.167059 3:0.330416 4:-0.221239 5:0.00505051 6:0.11194 7:0.157895 8:0.72846 9:0.0792453 
-0 -0.3266585211682539 -0 0 0.5 1:-0.174497 2:-0.152941 3:0.330416 4:-0.221239 5:0.00505051 6:0.126866 7:0.157895 8:0.733681 9:0.0792453 
-0 -0 -0 0.5 0.5 1:-0.167785 2:-0.152941 3:0.339168 4:-0.221239 5:0.030303 6:0.126866 7:0.189474 8:0.733681 9:0.0792453 
-0 -0 -0.5 0 0 1:-0.241611 2:-0.237647 3:0.291028 4:-0.250737 5:0.010101 6:0.119403 7:0.2 8:0.70235 9:0.0792453 
-0 -0 -0.3436002384818964 0 0 1:-0.228188 2:-0.195294 3:0.295405 4:-0.247788 5:0.0151515 6:0.134328 7:0.2 8:0.707572 9:0.0792453 
-0 -0 -0.5 0 0 1:-0.174497 2:-0.242353 3:0.299781 4:-0.271386 5:-0.020202 6:0.0671642 7:0.231579 8:0.691906 9:0.124528 
-0 -0 -0.5 0 0 1:-0.194631 2:-0.265882 3:0.295405 4:-0.277286 5:-0.0252525 6:0.0447761 7:0.231579 8:0.681462 9:0.124528 
-0 -0 -0.5 0 0 1:-0.194631 2:-0.265882 3:0.295405 4:-0.277286 5:-0.030303 6:0.0373134 7:0.231579 8:0.671018 9:0.124528 
-0 -0 -0.5 0 0 1:-0.194631 2:-0.265882 3:0.291028 4:-0.277286 5:-0.030303 6:0.0373134 7:0.231579 8:0.671018 9:0.124528 
-0 -0 -0 0 0.5 1:-0.463087 2:-0.181176 3:0.540481 4:0.0648968 5:0.409091 6:0.11194 7:-0.178947 8:0.0234987 9:-0.0867925 
-0 -0 -0 0 0.5 1:-0.463087 2:-0.181176 3:0.557987 4:0.0648968 5:0.409091 6:0.11194 7:-0.178947 8:0.0234987 9:-0.0867925 
-0 -0.1269999355027267 -0 0.4020305894138609 0.297430485785889 1:-0.463087 2:-0.181176 3:0.562363 4:0.0648968 5:0.409091 6:0.11194 7:-0.178947 8:0.0234987 9:-0.0716981 
-0 -0 -0.5 0 0 1:-0.677852 2:-0.515294 3:-0.260394 4:-0.926254 5:-0.20202 6:-0.641791 7:-0.589474 8:0.0704961 9:-0.803774 
-0 -0 -0.5 0 0 1:-0.677852 2:-0.515294 3:-0.247265 4:-0.917404 5:-0.20202 6:-0.641791 7:-0.589474 8:0.0704961 9:-0.781132 
-0 -0 -0.5 0 0 1:-0.677852 2:-0.515294 3:-0.247265 4:-0.917404 5:-0.20202 6:-0.626866 7:-0.578947 8:0.0704961 9:-0.781132 
-0 -0 -0.2770748947344347 0 0 1:-0.697987 2:-0.52 3:-0.247265 4:-0.917404 5:-0.222222 6:-0.641791 7:-0.589474 8:0.0861619 9:-0.788679 
-0 -0 -0.5 0 0 1:-0.651007 2:-0.487059 3:-0.247265 4:-0.876106 5:-0.19697 6:-0.574627 7:-0.589474 8:0.0809399 9:-0.758491 
-0 -0 -0.5 0 0 1:-0.651007 2:-0.501176 3:-0.247265 4:-0.876106 5:-0.19697 6:-0.61194 7:-0.589474 8:0.0652742 9:-0.758491 
-0.2358675510811155 -0 -0 0 0 1:-0.912752 2:-0.411765 3:-0.422319 4:-0.495575 5:0.0757576 6:-0.164179 7:0.115789 8:0.712794 9:-0.796226 
-0.5 -0 -0 0 0 1:-0.939597 2:-0.421176 3:-0.439825 4:-0.492625 5:0.0555556 6:-0.201493 7:0.0947368 8:0.67624 9:-0.818868 
-0.196501665038073 -0 -0 0 0 1:-0.939597 2:-0.44 3:-0.466083 4:-0.492625 5:0.0505051 6:-0.231343 7:0.0421053 8:0.655352 9:-0.849057 
-0 -0 -0.5 0 0 1:-0.798658 2:-0.562353 3:-0.31291 4:-0.932153 5:-0.257576 6:-0.69403 7:-0.652632 8:-0.0130548 9:-0.735849 
-0 -0 -0.5 0 0 1:-0.791946 2:-0.562353 3:-0.31291 4:-0.932153 5:-0.252525 6:-0.69403 7:-0.652632 8:-0.0130548 9:-0.728302 
-0 -0 -0.5 0 0 1:-0.791946 2:-0.557647 3:-0.31291 4:-0.923304 5:-0.257576 6:-0.69403 7:-0.652632 8:-0.0078329 9:-0.728302 
-0 -0 -0.5 0 0 1:-0.791946 2:-0.567059 3:-0.31291 4:-0.938053 5:-0.257576 6:-0.701493 7:-0.652632 8:-0.0130548 9:-0.728302 
-0 -0 -0.5 0 0 1:-0.791946 2:-0.567059 3:-0.31291 4:-0.926254 5:-0.277778 6:-0.69403 7:-0.663158 8:-0.0182768 9:-0.735849 
-0 -0 -0.5 0 0 1:-0.798658 2:-0.581176 3:-0.321663 4:-0.938053 5:-0.29798 6:-0.701493 7:-0.663158 8:-0.0443864 9:-0.735849 
-0.1389139962386906 -0 -0.5 0 0 1:-0.818792 2:-0.585882 3:-0.352298 4:-0.935103 5:-0.29798 6:-0.731343 7:-0.663158 8:-0.0548303 9:-0.735849 
-0 -0 -0.5 0 0 1:-0.805369 2:-0.581176 3:-0.352298 4:-0.932153 5:-0.29798 6:-0.701493 7:-0.684211 8:-0.0600522 9:-0.735849 
-0 -0 -0 0 0.06756361739138017 1:-0.818792 2:-0.567059 3:-0.356674 4:-0.929204 5:-0.308081 6:-0.69403 7:-0.694737 8:-0.0548303 9:-0.735849 
-0 -0 -0 0.01146908572471365 0 1:-0.865772 2:-0.463529 3:-0.496718 4:-0.457227 5:0.0252525 6:-0.223881 7:0.0105263 8:0.655352 9:-0.94717 
-0 -0.006142006892262926 -0 0 0.5 1:-0.651007 2:-0.487059 3:-0.461707 4:-0.383481 6:-0.171642 7:-0.0105263 8:0.665796 9:-0.962264 
-0 -0 -0 0 0.3426314618973674 1:-0.671141 2:-0.491765 3:-0.461707 4:-0.383481 6:-0.171642 7:-0.0210526 8:0.650131 9:-0.969811 
-0 -0 -0.5 0 0 1:-0.684564 2:-0.458824 3:-0.448578 4:-0.412979 5:0.0353535 6:-0.201493 7:0.0526316 8:0.660574 9:-0.871698 
-0 -0 -0.1629432283331738 0 0 1:-0.684564 2:-0.454118 3:-0.448578 4:-0.412979 5:0.0353535 6:-0.201493 7:0.0526316 8:0.660574 9:-0.871698 
-0 -0 -0.5 0 0 1:-0.691275 2:-0.458824 3:-0.448578 4:-0.418879 5:0.0353535 6:-0.201493 7:0.0736842 8:0.665796 9:-0.871698 
-0 -0 -0.5 0 0 1:-0.704698 2:-0.458824 3:-0.45733 4:-0.430678 5:0.0353535 6:-0.216418 7:0.0526316 8:0.660574 9:-0.871698 
-0 -0 -0.5 0 0 1:-0.711409 2:-0.458824 3:-0.45733 4:-0.430678 5:0.0353535 6:-0.223881 7:0.0526316 8:0.655352 9:-0.871698 
-0 -0 -0.5 0 0 1:-0.711409 2:-0.468235 3:-0.45733 4:-0.430678 5:0.0353535 6:-0.223881 7:0.0210526 8:0.644909 9:-0.871698 
-0 -0 -0.2569173403758073 0 0 1:-0.637584 2:-0.717647 3:-0.40919 4:-0.846608 5:-0.368687 6:-0.925373 7:-0.621053 8:-0.0652742 9:-0.886792 
-0 -0 -0 0 0.2847596965070097 1:-0.61745 2:-0.750588 3:-0.474836 4:-0.781711 5:-0.363636 6:-0.985075 7:-0.694737 8:-0.10705 9:-0.977358 
-0 -0.2181346132187391 -0 0.2493680011381368 0 1:-0.691275 2:-0.792941 3:-0.5186 4:-0.837758 5:-0.393939 6:-1 7:-0.621053 8:-0.138381 9:-0.992453 
-0.14931440033683 -0.5 -0 0.5 0 1:-0.704698 2:-0.792941 3:-0.5186 4:-0.840708 5:-0.393939 6:-1 7:-0.621053 8:-0.148825 9:-1 
-0.5 -0 -0.5 0 0.5 1:-0.66443 2:-0.788235 3:-0.492341 4:-0.846608 5:-0.393939 6:-0.947761 7:-0.568421 8:-0.154047 9:-0.992453 
-0 -0 -0.5 0 0.5 1:-0.657718 2:-0.792941 3:-0.487965 4:-0.840708 5:-0.383838 6:-0.940299 7:-0.568421 8:-0.154047 9:-0.992453 
-0 -0 -0.5 0 0.02967058517378452 1:-0.671141 2:-0.792941 3:-0.492341 4:-0.840708 5:-0.383838 6:-0.940299 7:-0.568421 8:-0.154047 9:-1 
-0.5 -0 -0.09844642901385475 0 0 1:-0.671141 2:-0.792941 3:-0.492341 4:-0.840708 5:-0.383838 6:-0.962687 7:-0.568421 8:-0.154047 9:-1 
-0 -0 -0.1634984063037839 0 0 1:-0.449664 2:-0.698824 3:0.164114 4:-0.415929 5:-0.257576 6:-0.455224 7:0.115789 8:0.451697 9:-0.0264151 
-0 -0 -0.5 0 0 1:-0.449664 2:-0.698824 3:0.142232 4:-0.415929 5:-0.272727 6:-0.462687 7:0.0947368 8:0.451697 9:-0.0264151 
-0 -0 -0.5 0 0 1:-0.449664 2:-0.698824 3:0.142232 4:-0.415929 5:-0.272727 6:-0.477612 7:0.0947368 8:0.451697 9:-0.0264151 
-0 -0 -0.5 0 0 1:-0.42953 2:-0.694118 3:0.142232 4:-0.415929 5:-0.272727 6:-0.462687 7:0.115789 8:0.451697 9:-0.00377358 
-0 -0 -0.5 0 0 1:-0.422819 2:-0.694118 3:0.164114 4:-0.415929 5:-0.257576 6:-0.462687 7:0.157895 8:0.456919 9:0.0113208 
-0 -0 -0.5 0 0 1:-0.422819 2:-0.628235 3:0.159737 4:-0.418879 5:-0.257576 6:-0.402985 7:0.147368 8:0.483029 9:0.00377358 
-0 -0 -0.5 0 0 1:-0.422819 2:-0.628235 3:0.150985 4:-0.415929 5:-0.257576 6:-0.395522 7:0.136842 8:0.488251 9:-0.0113208 
-0 -0 -0.5 0 0 1:-0.422819 2:-0.642353 3:0.150985 4:-0.415929 5:-0.257576 6:-0.440299 7:0.136842 8:0.472585 9:-0.0113208 
-0 -0 -0.5 0 0 1:-0.422819 2:-0.642353 3:0.150985 4:-0.415929 5:-0.267677 6:-0.440299 7:0.115789 8:0.472585 9:-0.0113208 
-0 -0 -0.5 0 0 1:-0.422819 2:-0.642353 3:0.150985 4:-0.415929 5:-0.267677 6:-0.447761 7:0.115789 8:0.467363 9:-0.0113208 
-0 -0 -0.5 0 0 1:-0.416107 2:-0.642353 3:0.150985 4:-0.410029 5:-0.267677 6:-0.440299 7:0.115789 8:0.467363 9:-0.00377358 
-0.5 -0 -0.5 0 0 1:-0.409396 2:-0.661176 3:0.164114 4:-0.383481 5:-0.262626 6:-0.410448 7:0.231579 8:0.483029 9:0.0943396 
-0.3366276408498747 -0.2756450389392933 -0 0.1715025896950263 0 1:-0.315436 2:-0.628235 3:0.282276 4:-0.371681 5:-0.227273 6:-0.373134 7:0.305263 8:0.488251 9:0.25283 
-0 -0 -0.5 0 0 1:-0.38255 2:-0.628235 3:0.185996 4:-0.371681 5:-0.257576 6:-0.373134 7:0.231579 8:0.488251 9:0.109434 
-0.5 -0.5 -0 0.5 0.5 1:-0.422819 2:-0.581176 3:0.317287 4:-0.0648968 5:0.0707071 6:-0.41791 7:0.336842 8:-0.133159 9:0.0188679 
-0.5 -0.5 -0 0 0.07007604215076678 1:-0.42953 2:-0.585882 3:0.317287 4:-0.0707965 5:0.0707071 6:-0.41791 7:0.315789 8:-0.138381 9:0.0188679 
-0.5 -0 -0 0 0 1:-0.436242 2:-0.585882 3:0.317287 4:-0.0707965 5:0.0656566 6:-0.41791 7:0.315789 8:-0.138381 9:0.00377358 
-0.5 -0 -0 0 0.5 1:-0.422819 2:-0.585882 3:0.317287 4:-0.0707965 5:0.0656566 6:-0.41791 7:0.326316 8:-0.138381 9:-0.00377358 
-0.5 -0 -0 0.2027608005778458 0.5 1:-0.422819 2:-0.585882 3:0.317287 4:-0.0737463 5:0.0656566 6:-0.41791 7:0.326316 8:-0.143603 9:-0.00377358 
-0.4103229579755807 -0.02784604946339609 -0 0 0 1:-0.42953 2:-0.571765 3:0.321663 4:-0.0589971 5:0.0757576 6:-0.41791 7:0.315789 8:-0.143603 9:0.00377358 
-0 -0 -0 0 0.5 1:-0.42953 2:-0.571765 3:0.321663 4:-0.0589971 5:0.0707071 6:-0.41791 7:0.315789 8:-0.148825 9:-0.0113208 
-0 -0 -0 -0.2302561241936331 0 1:0.268456 2:-0.341176 3:-0.382932 4:0.448378 5:-0.641414 6:0.567164 7:0.842105 8:-0.409922 9:0.720755 
-0 -0 -0.5 -0 0.1982327893277989 1:0.275168 2:-0.345882 3:-0.382932 4:0.442478 5:-0.626263 6:0.537313 7:0.863158 8:-0.409922 9:0.728302 
-0 -0.2790999865848509 -0.06326840468562875 -0 0 1:0.261745 2:-0.369412 3:-0.382932 4:0.433628 5:-0.646465 6:0.514925 7:0.810526 8:-0.420366 9:0.720755 
-0.2774306398305265 -0.5 -0 -0 0 1:0.261745 2:-0.378824 3:-0.40919 4:0.427729 5:-0.646465 6:0.485075 7:0.726316 8:-0.420366 9:0.667925 
-0.5 -0 -0 -0 0 1:0.248322 2:-0.369412 3:-0.400438 4:0.427729 5:-0.646465 6:0.492537 7:0.736842 8:-0.420366 9:0.667925 
-0.5 -0.5 -0 -0 0 1:0.241611 2:-0.369412 3:-0.40919 4:0.427729 5:-0.671717 6:0.455224 7:0.705263 8:-0.420366 9:0.65283 
-0.5 -0.5 -0 -0 0 1:0.248322 2:-0.369412 3:-0.404814 4:0.427729 5:-0.666667 6:0.455224 7:0.715789 8:-0.420366 9:0.667925 
-0 -0.5 -0 -0 0 1:0.248322 2:-0.364706 3:-0.404814 4:0.430678 5:-0.666667 6:0.470149 7:0.715789 8:-0.409922 9:0.667925 
-0 -0.3225019274403105 -0 -0 0 1:0.268456 2:-0.364706 3:-0.400438 4:0.430678 5:-0.656566 6:0.477612 7:0.726316 8:-0.409922 9:0.667925 
-0 -0.5 -0 -0 0 1:0.248322 2:-0.374118 3:-0.404814 4:0.430678 5:-0.656566 6:0.485075 7:0.715789 8:-0.415144 9:0.667925 
-0 -0.5 -0 -0 0 1:0.248322 2:-0.374118 3:-0.404814 4:0.430678 5:-0.666667 6:0.470149 7:0.684211 8:-0.415144 9:0.65283 
-0.5 -0.5 -0 -0 0 1:0.248322 2:-0.383529 3:-0.417943 4:0.424779 5:-0.671717 6:0.440299 7:0.673684 8:-0.415144 9:0.615094 
-0 -0.2866124181534901 -0 -0 0 1:0.268456 2:-0.392941 3:-0.509847 4:-0.079646 5:-0.828283 6:-0.208955 7:-0.157895 8:-0.81201 9:0.192453 
-0 -0.5 -0 -0 0 1:0.268456 2:-0.407059 3:-0.509847 4:-0.079646 5:-0.828283 6:-0.223881 7:-0.189474 8:-0.81201 9:0.169811 
-0.5 -0.5 -0.5 -0 0 1:0.302013 2:-0.402353 3:-0.5186 4:-0.0648968 5:-0.828283 6:-0.231343 7:-0.126316 8:-0.791123 9:0.154717 
-0.5 -0.5 -0.5 -0 0.5 1:0.281879 2:-0.402353 3:-0.527352 4:-0.0648968 5:-0.828283 6:-0.231343 7:-0.126316 8:-0.791123 9:0.132075 
-0.5 -0.5 -0.5 -0 0.5 1:0.281879 2:-0.402353 3:-0.527352 4:-0.0648968 5:-0.828283 6:-0.231343 7:-0.126316 8:-0.791123 9:0.132075 
-0.5 -0 -0 -0 0 1:0.281879 2:-0.402353 3:-0.527352 4:-0.0648968 5:-0.828283 6:-0.186567 7:-0.126316 8:-0.791123 9:0.154717 
-0.3602004307565292 -0 -0 -0 0 1:0.281879 2:-0.402353 3:-0.527352 4:-0.0560472 5:-0.828283 6:-0.186567 7:-0.126316 8:-0.791123 9:0.154717 
-0 -0 -0.5 -0 0 1:0.255034 2:-0.425882 3:-0.549234 4:-0.0914454 5:-0.843434 6:-0.179104 7:-0.157895 8:-0.83812 9:0.177358 
-0 -0 -0.04519926061707077 -0 0 1:0.255034 2:-0.425882 3:-0.549234 4:-0.0943953 5:-0.843434 6:-0.179104 7:-0.157895 8:-0.843342 9:0.177358 
-0 -0 -0 -0.08047756208447036 0.0885917094277535 1:0.919463 2:0.143529 3:-0.199125 4:0.873156 5:-0.0808081 6:0.231343 7:0.210526 8:0.075718 9:0.720755 
-0 -0.5 -0 -0 0 1:0.939597 2:-0.529412 3:-0.741794 4:0.938053 5:-0.459596 6:-0.350746 7:0.936842 8:-0.770235 9:0.954717 
-0 -0 -0 -0.07160424773952442 0.1554820532073027 1:0.979866 2:-0.505882 3:-0.698031 4:0.958702 5:-0.409091 6:-0.350746 7:1 8:-0.686684 9:0.94717 
-0 -0.0817936972512493 -0 -0 0 1:0.973154 2:-0.505882 3:-0.698031 4:0.958702 5:-0.424242 6:-0.350746 7:0.957895 8:-0.691906 9:0.932075 
-0 -0.1954510744352297 -0 -0 0 1:0.95302 2:-0.524706 3:-0.728665 4:0.938053 5:-0.444444 6:-0.350746 7:0.905263 8:-0.70235 9:0.924528 
-0 -0.5 -0 -0 0 1:0.939597 2:-0.524706 3:-0.733042 4:0.938053 5:-0.444444 6:-0.358209 7:0.894737 8:-0.70235 9:0.916981 
-0 -0 -0 -0.2093754724359715 0 1:1 2:-0.538824 3:-0.706783 4:0.941003 5:-0.419192 6:-0.350746 7:0.968421 8:-0.718016 9:0.962264 
-0 -0.5 -0 -0 0 1:0.946309 2:-0.543529 3:-0.728665 4:0.955752 5:-0.439394 6:-0.373134 7:0.863158 8:-0.718016 9:0.856604 
-0 -0.5 -0 -0 0 1:0.946309 2:-0.543529 3:-0.728665 4:0.955752 5:-0.439394 6:-0.373134 7:0.863158 8:-0.718016 9:0.856604 
-0 -0.5 -0 -0 0 1:0.919463 2:-0.562353 3:-0.741794 4:0.932153 5:-0.464646 6:-0.373134 7:0.884211 8:-0.754569 9:0.856604 
-0.1451567383066484 -0.5 -0.1599904701642575 -0 0 1:0.234899 2:-0.416471 3:-0.40919 4:0.415929 5:-0.742424 6:0.373134 7:0.547368 8:-0.451697 9:0.479245 
-0.5 -0.5 -0.5 -0 0 1:0.234899 2:-0.416471 3:-0.40919 4:0.415929 5:-0.742424 6:0.365672 7:0.547368 8:-0.451697 9:0.479245 
-0 -0.5 -0 -0 0 1:0.268456 2:-0.411765 3:-0.404814 4:0.418879 5:-0.737374 6:0.373134 7:0.547368 8:-0.446475 9:0.49434 
-0 -0.5 -0 -0 0 1:0.281879 2:-0.397647 3:-0.396061 4:0.427729 5:-0.722222 6:0.373134 7:0.568421 8:-0.446475 9:0.516981 
-0 -0.5 -0 -0 0 1:0.288591 2:-0.374118 3:-0.378556 4:0.466077 5:-0.722222 6:0.425373 7:0.568421 8:-0.436031 9:0.54717 
-0 -0.5 -0 -0 0 1:0.281879 2:-0.392941 3:-0.391685 4:0.463127 5:-0.727273 6:0.41791 7:0.557895 8:-0.436031 9:0.524528 
-0.5 -0 -0 -0 0 1:0.355705 2:-0.331765 3:-0.374179 4:-0.0530973 5:-0.787879 6:-0.0746269 7:-0.0421053 8:-0.822454 9:0.298113 
-0.5 -0 -0 -0 0 1:0.362416 2:-0.331765 3:-0.369803 4:-0.0530973 5:-0.787879 6:-0.0746269 7:-0.0315789 8:-0.822454 9:0.30566 
-0.002501510033720403 -0.5 -0 -0 0 1:0.395973 2:-0.355294 3:-0.382932 4:-0.0412979 5:-0.787879 6:-0.156716 7:-0.0842105 8:-0.817232 9:0.245283 
-0.1335723574598292 -0 -0 -0 0 1:0.697987 2:-0.0258824 3:-0.185996 4:0.684366 5:-0.232323 6:0.11194 7:0.252632 8:-0.101828 9:0.728302 
-0.5 -0 -0 -0 0 1:0.704698 2:-0.0305882 3:-0.159737 4:0.684366 5:-0.222222 6:0.11194 7:0.252632 8:-0.112272 9:0.735849 
-0 -0.3110183482803175 -0 -0 0 1:0.66443 2:-0.0447059 3:-0.159737 4:0.684366 5:-0.242424 6:0.11194 7:0.189474 8:-0.127937 9:0.720755 
-0 -0.5 -0 -0 0 1:0.66443 2:-0.0447059 3:-0.159737 4:0.675516 5:-0.242424 6:0.11194 7:0.189474 8:-0.143603 9:0.720755 
-0 -0.5 -0 -0 0 1:0.66443 2:-0.0447059 3:-0.146608 4:0.684366 5:-0.242424 6:0.11194 7:0.2 8:-0.127937 9:0.720755 
-0 -0.5 -0 -0 0 1:0.644295 2:-0.0494118 3:-0.150985 4:0.663717 5:-0.262626 6:0.104478 7:0.157895 8:-0.164491 9:0.70566 
-0 -0.5 -0 -0 0 1:0.651007 2:-0.0447059 3:-0.150985 4:0.675516 5:-0.257576 6:0.104478 7:0.157895 8:-0.164491 9:0.70566 
-0 -0.5 -0 -0 0 1:0.651007 2:-0.0447059 3:-0.150985 4:0.684366 5:-0.257576 6:0.104478 7:0.157895 8:-0.159269 9:0.70566 
-0 -0.5 -0 -0 0 1:0.651007 2:-0.0352941 3:-0.146608 4:0.687316 5:-0.257576 6:0.104478 7:0.157895 8:-0.159269 9:0.70566 
-0 -0.5 -0 -0 0 1:0.651007 2:-0.0305882 3:-0.150985 4:0.702065 5:-0.257576 6:0.104478 7:0.0631579 8:-0.148825 9:0.675472 
-0 -0.5 -0 -0 0 1:0.651007 2:-0.0447059 3:-0.155361 4:0.702065 5:-0.257576 6:0.0895522 7:0.0526316 8:-0.148825 9:0.65283 
-0 -0.5 -0 -0 0 1:0.651007 2:-0.0447059 3:-0.164114 4:0.702065 5:-0.257576 6:0.0820896 7:0.0421053 8:-0.148825 9:0.637736 
-0 -0.5 -0 -0 0 1:0.651007 2:-0.0447059 3:-0.164114 4:0.702065 5:-0.257576 6:0.0746269 7:0.0315789 8:-0.148825 9:0.630189 
-0 -0.5 -0 -0 0 1:0.651007 2:-0.0447059 3:-0.172867 4:0.702065 5:-0.257576 6:0.0746269 7:0.0315789 8:-0.148825 9:0.630189 
-0 -0.5 -0 -0 0 1:0.66443 2:-0.0494118 3:-0.185996 4:0.687316 5:-0.247475 6:0.0671642 7:0.0526316 8:-0.143603 9:0.65283 
-0 -0.5 -0 -0 0 1:0.66443 2:-0.0588235 3:-0.185996 4:0.684366 5:-0.247475 6:0.0597015 7:0.0526316 8:-0.143603 9:0.65283 
-0 -0.5 -0 -0 0 1:0.66443 2:-0.0494118 3:-0.172867 4:0.684366 5:-0.247475 6:0.0671642 7:0.0736842 8:-0.143603 9:0.675472 
-0 -0.5 -0 -0 0 1:0.66443 2:-0.0494118 3:-0.164114 4:0.684366 5:-0.247475 6:0.0671642 7:0.0842105 8:-0.143603 9:0.698113 
-0 -0.5 -0 -0 0 1:0.66443 2:-0.04 3:-0.164114 4:0.687316 5:-0.247475 6:0.0746269 7:0.126316 8:-0.127937 9:0.713208 
-0.5 -0.5 -0 -0 0 1:0.624161 2:-0.0823529 3:-0.16849 4:0.640118 5:-0.272727 6:0.0597015 7:0.126316 8:-0.169713 9:0.713208 
-0.5 -0.5 -0 -0 0 1:0.624161 2:-0.0823529 3:-0.164114 4:0.640118 5:-0.272727 6:0.0597015 7:0.147368 8:-0.169713 9:0.728302 
-0.5 -0.5 -0 -0 0 1:0.624161 2:-0.0917647 3:-0.137856 4:0.616519 5:-0.277778 6:0.0895522 7:0.147368 8:-0.190601 9:0.773585 
-0 -0.5 -0 -0 0 1:0.637584 2:-0.0776471 3:-0.137856 4:0.634218 5:-0.272727 6:0.104478 7:0.147368 8:-0.174935 9:0.773585 
-0 -0.5 -0 -0 0 1:0.637584 2:-0.0588235 3:-0.124726 4:0.634218 5:-0.267677 6:0.104478 7:0.168421 8:-0.174935 9:0.788679 
-0 -0.5 -0 -0 0 1:0.637584 2:-0.0588235 3:-0.115974 4:0.643068 5:-0.262626 6:0.126866 7:0.168421 8:-0.169713 9:0.788679 
-0 -0.5 -0 -0 0 1:0.651007 2:-0.0588235 3:-0.107221 4:0.648968 5:-0.262626 6:0.141791 7:0.168421 8:-0.169713 9:0.788679 
-0 -0.5 -0 -0 0 1:0.637584 2:-0.0352941 3:-0.102845 4:0.646018 5:-0.262626 6:0.156716 7:0.147368 8:-0.174935 9:0.796226 
-0 -0.5 -0 -0 0 1:0.637584 2:-0.0588235 3:-0.102845 4:0.646018 5:-0.267677 6:0.126866 7:0.147368 8:-0.174935 9:0.796226 
-0 -0.5 -0 -0 0 1:0.637584 2:-0.0635294 3:-0.102845 4:0.643068 5:-0.272727 6:0.126866 7:0.147368 8:-0.174935 9:0.796226 
-0 -0.5 -0 -0 0 1:0.630872 2:-0.0635294 3:-0.115974 4:0.643068 5:-0.282828 6:0.126866 7:0.147368 8:-0.190601 9:0.796226 
-0 -0.5 -0 -0 0 1:0.630872 2:-0.0729412 3:-0.115974 4:0.640118 5:-0.282828 6:0.126866 7:0.147368 8:-0.190601 9:0.796226 
-0 -0.5 -0 -0 0 1:0.630872 2:-0.0729412 3:-0.115974 4:0.640118 5:-0.282828 6:0.126866 7:0.147368 8:-0.190601 9:0.796226 
-0 -0.5 -0 -0 0 1:0.630872 2:-0.0729412 3:-0.102845 4:0.640118 5:-0.277778 6:0.126866 7:0.147368 8:-0.190601 9:0.826415 
-0 -0.5 -0 -0 0 1:0.644295 2:-0.0588235 3:-0.0897155 4:0.646018 5:-0.272727 6:0.156716 7:0.157895 8:-0.164491 9:0.826415 
-0 -0.5 -0 -0 0 1:0.677852 2:-0.0588235 3:-0.0897155 4:0.657817 5:-0.262626 6:0.156716 7:0.168421 8:-0.159269 9:0.841509 
-0 -0.5 -0 -0 0 1:0.677852 2:-0.0305882 3:-0.0897155 4:0.672566 5:-0.257576 6:0.156716 7:0.168421 8:-0.148825 9:0.841509 
-0 -0.5 -0 -0 0 1:0.684564 2:-0.0447059 3:-0.0765864 4:0.672566 5:-0.257576 6:0.156716 7:0.189474 8:-0.143603 9:0.841509 
-0 -0.5 -0 -0 0 1:0.677852 2:-0.0447059 3:-0.0897155 4:0.672566 5:-0.257576 6:0.156716 7:0.147368 8:-0.143603 9:0.796226 
-0 -0.01205702133314629 -0 -0 0 1:0.865772 2:-0.604706 3:-0.763676 4:0.923304 5:-0.489899 6:-0.470149 7:0.768421 8:-0.780679 9:0.788679 
-0 -0.5 -0 -0 0 1:0.865772 2:-0.604706 3:-0.750547 4:0.923304 5:-0.484848 6:-0.470149 7:0.768421 8:-0.770235 9:0.788679 
-0 -0.5 -0 -0 0 1:0.865772 2:-0.604706 3:-0.750547 4:0.926254 5:-0.484848 6:-0.462687 7:0.768421 8:-0.765013 9:0.788679 
-0 -0.5 -0 -0 0 1:0.644295 2:-0.0541176 3:0.00218818 4:0.666667 5:-0.252525 6:0.19403 7:0.210526 8:-0.169713 9:0.811321 
-0 -0.5 -0 -0 0 1:0.644295 2:-0.0541176 3:0.00218818 4:0.666667 5:-0.252525 6:0.19403 7:0.210526 8:-0.169713 9:0.811321 
-0 -0.5 -0 -0 0 1:0.644295 2:-0.0447059 3:0.0109409 4:0.681416 5:-0.242424 6:0.19403 7:0.221053 8:-0.164491 9:0.818868 
-0 -0.5 -0 -0 0 1:0.651007 2:-0.0352941 3:0.0109409 4:0.681416 5:-0.237374 6:0.201493 7:0.252632 8:-0.164491 9:0.826415 
-0 -0.5 -0 -0 0 1:0.651007 2:-0.0352941 3:0.0196937 4:0.684366 5:-0.237374 6:0.208955 7:0.252632 8:-0.164491 9:0.833962 
-0 -0.5 -0 -0 0 1:0.66443 2:-0.0352941 3:0.0196937 4:0.684366 5:-0.212121 6:0.231343 7:0.263158 8:-0.164491 9:0.841509 
-0 -0.5 -0 -0 0 1:0.657718 2:-0.0352941 3:0.0196937 4:0.696165 5:-0.232323 6:0.246269 7:0.252632 8:-0.159269 9:0.856604 
-0 -0.5 -0 -0 0 1:0.657718 2:-0.0447059 3:0.0196937 4:0.666667 5:-0.232323 6:0.216418 7:0.252632 8:-0.180157 9:0.856604 
-0 -0.5 -0 -0 0 1:0.671141 2:-0.0117647 3:0.0371991 4:0.696165 5:-0.191919 6:0.276119 7:0.263158 8:-0.143603 9:0.856604 
-0 -0.5 -0 -0 0 1:0.684564 2:-0.0352941 3:0.0196937 4:0.693215 5:-0.191919 6:0.238806 7:0.242105 8:-0.133159 9:0.833962 
-0 -0.5 -0 -0 0 1:0.684564 2:-0.0635294 3:0.02407 4:0.654867 5:-0.19697 6:0.186567 7:0.273684 8:-0.101828 9:0.871698 
-0 -0.349000869462187 -0 -0 0 1:0.684564 2:-0.0635294 3:0.02407 4:0.654867 5:-0.19697 6:0.186567 7:0.273684 8:-0.101828 9:0.856604 
-0 -0.5 -0 -0 0 1:0.677852 2:-0.0635294 3:0.02407 4:0.654867 5:-0.19697 6:0.186567 7:0.263158 8:-0.101828 9:0.849057 
-0 -0.5 -0 -0 0 1:0.684564 2:-0.0588235 3:0.0547046 4:0.654867 5:-0.191919 6:0.201493 7:0.305263 8:-0.10705 9:0.89434 
-0 -0 -0 -0.1327622683420123 0 1:0.865772 2:-0.722353 3:-0.842451 4:0.914454 5:-0.505051 6:-0.738806 7:0.6 8:-0.754569 9:0.607547 
-0 -0.5 -0 -0 0 1:0.154362 2:-0.402353 3:-0.31291 4:0.427729 5:-0.767677 6:0.373134 7:0.410526 8:-0.535248 9:0.418868 
-0 -0.5 -0 -0 0 1:0.134228 2:-0.402353 3:-0.273523 4:0.424779 5:-0.767677 6:0.402985 7:0.389474 8:-0.556136 9:0.396226 
-0 -0.5 -0 -0 0 1:0.134228 2:-0.397647 3:-0.273523 4:0.427729 5:-0.767677 6:0.410448 7:0.4 8:-0.550914 9:0.403774 
-0 -0.5 -0 -0 0 1:0.174497 2:-0.402353 3:-0.26477 4:0.424779 5:-0.762626 6:0.402985 7:0.410526 8:-0.556136 9:0.418868 
-0 -0.5 -0 -0 0 1:0.107383 2:-0.402353 3:-0.26477 4:0.424779 5:-0.772727 6:0.402985 7:0.389474 8:-0.556136 9:0.396226 
-0 -0.5 -0 -0 0 1:0.134228 2:-0.407059 3:-0.242888 4:0.40413 5:-0.737374 6:0.380597 7:0.347368 8:-0.503916 9:0.366038 
-0.5 -0 -0 -0 0.5 1:0.134228 2:-0.397647 3:-0.234136 4:0.410029 5:-0.717172 6:0.38806 7:0.347368 8:-0.483029 9:0.366038 
-0 -0.5 -0 -0 0 1:0.147651 2:-0.397647 3:-0.229759 4:0.412979 5:-0.717172 6:0.38806 7:0.347368 8:-0.477807 9:0.396226 
-0.135724337133616 -0.001945647309063408 -0 -0 0 1:0.147651 2:-0.397647 3:-0.234136 4:0.410029 5:-0.707071 6:0.395522 7:0.347368 8:-0.483029 9:0.373585 
-0 -0 -0 -0 0.2433845142623045 1:0.147651 2:-0.378824 3:-0.225383 4:0.40708 5:-0.707071 6:0.440299 7:0.389474 8:-0.493473 9:0.373585 
-0 -0 -0 -0.3248874587644507 0 1:0.120805 2:-0.397647 3:-0.247265 4:0.40413 5:-0.722222 6:0.41791 7:0.347368 8:-0.498695 9:0.373585 
-0 -0 -0 -0.04761176002027454 0.009601213912621993 1:0.228188 2:-0.345882 3:-0.382932 4:-0.0235988 5:-0.863636 6:-0.320896 7:-0.568421 8:-0.890339 9:-0.0792453 
-0 -0 -0 -0.5 0.5 1:0.221477 2:-0.345882 3:-0.382932 4:-0.0235988 5:-0.863636 6:-0.328358 7:-0.568421 8:-0.895561 9:-0.0792453 
-0 -0 -0 -0.5 0.5 1:0.221477 2:-0.345882 3:-0.382932 4:-0.0294985 5:-0.863636 6:-0.328358 7:-0.568421 8:-0.895561 9:-0.0792453 
-0 -0 -0 -0 0.5 1:0.221477 2:-0.345882 3:-0.378556 4:-0.0235988 5:-0.858586 6:-0.320896 7:-0.547368 8:-0.890339 9:-0.0716981 
-0 -0 -0 -0 0.5 1:0.221477 2:-0.345882 3:-0.378556 4:-0.0235988 5:-0.858586 6:-0.320896 7:-0.547368 8:-0.890339 9:-0.0641509 
-0 -0 -0 -0 0.5 1:0.214765 2:-0.350588 3:-0.378556 4:-0.0324484 5:-0.863636 6:-0.320896 7:-0.547368 8:-0.900783 9:-0.0641509 
-0 -0 -0 -0 0.5 1:0.214765 2:-0.350588 3:-0.378556 4:-0.0353982 5:-0.863636 6:-0.320896 7:-0.547368 8:-0.911227 9:-0.0641509 
-0 -0 -0 -0 0.5 1:0.194631 2:-0.374118 3:-0.36105 4:-0.0471976 5:-0.873737 6:-0.291045 7:-0.505263 8:-0.947781 9:-0.0490566 
-0 -0 -0 -0 0.5 1:0.201342 2:-0.378824 3:-0.369803 4:-0.0294985 5:-0.893939 6:-0.313433 7:-0.536842 8:-0.968668 9:-0.109434 
-0 -0 -0.4344748853612554 -0.5 0.5 1:0.731544 2:0.0823529 3:0.295405 4:0.725664 5:-0.0808081 6:0.41791 7:0.347368 8:-0.0496084 9:0.841509 
-0 -0 -0 -0.2861315636682925 0.5 1:0.704698 2:0.0682353 3:0.295405 4:0.719764 5:-0.10101 6:0.365672 7:0.347368 8:-0.0809399 9:0.781132 
-0 -0 -0 -0 0.1099781443311 1:0.66443 2:0.00705882 3:0.251641 4:0.666667 5:-0.131313 6:0.365672 7:0.378947 8:-0.075718 9:0.803774 
-0.1688152850506413 -0 -0 -0 0 1:0.677852 2:0.0117647 3:0.256018 4:0.675516 5:-0.111111 6:0.365672 7:0.421053 8:-0.075718 9:0.826415 
-0 -0.5 -0 -0 0 1:0.872483 2:-0.595294 3:-0.684902 4:0.9941 5:-0.474747 6:-0.552239 7:0.6 8:-0.660574 9:0.554717 
-0 -0.5 -0 -0 0 1:0.872483 2:-0.595294 3:-0.684902 4:0.99115 5:-0.484848 6:-0.552239 7:0.578947 8:-0.660574 9:0.554717 
-0 -0.5 -0 -0 0 1:0.85906 2:-0.6 3:-0.684902 4:0.982301 5:-0.484848 6:-0.552239 7:0.568421 8:-0.660574 9:0.554717 
-0 -0.5 -0 -0 0 1:0.85906 2:-0.595294 3:-0.684902 4:0.982301 5:-0.484848 6:-0.552239 7:0.578947 8:-0.655352 9:0.554717 
-0 -0.5 -0 -0 0 1:0.872483 2:-0.595294 3:-0.684902 4:0.982301 5:-0.484848 6:-0.544776 7:0.6 8:-0.655352 9:0.554717 
-0 -0.5 -0 -0 0 1:0.872483 2:-0.590588 3:-0.684902 4:0.99115 5:-0.484848 6:-0.544776 7:0.621053 8:-0.639687 9:0.562264 
-0 -0.5 -0 -0 0 1:0.872483 2:-0.590588 3:-0.680525 4:0.99115 5:-0.474747 6:-0.544776 7:0.652632 8:-0.639687 9:0.615094 
-0 -0.5 -0 -0 0 1:0.872483 2:-0.576471 3:-0.684902 4:0.9941 5:-0.484848 6:-0.537313 7:0.652632 8:-0.629243 9:0.615094 
-0 -0.5 -0 -0 0 1:0.704698 2:-0.689412 3:-0.820569 4:0.923304 5:-0.575758 6:-0.649254 7:0.610526 8:-0.671018 9:0.554717 
-0 -0 -0.5 -0 0 1:0.671141 2:-0.727059 3:-0.851204 4:0.905605 5:-0.59596 6:-0.716418 7:0.578947 8:-0.681462 9:0.524528 
-0 -0 -0.5 -0 0 1:0.671141 2:-0.727059 3:-0.838074 4:0.896755 5:-0.59596 6:-0.723881 7:0.6 8:-0.686684 9:0.569811 
-0.5 -0 -0.08527608513276737 -0 0 1:0.671141 2:-0.722353 3:-0.85558 4:0.905605 5:-0.570707 6:-0.738806 7:0.6 8:-0.70235 9:0.532075 
-0.1769242626348598 -0 -0 -0 0 1:0.671141 2:-0.722353 3:-0.85558 4:0.905605 5:-0.570707 6:-0.738806 7:0.568421 8:-0.712794 9:0.524528 
-0 -0 -0 -0.3007726370705395 0 1:0.671141 2:-0.727059 3:-0.85558 4:0.905605 5:-0.59596 6:-0.768657 7:0.557895 8:-0.72846 9:0.516981 
-0.5 -0.5 -0 -0 0.5 1:0.684564 2:-0.722353 3:-0.816193 4:0.902655 5:-0.575758 6:-0.746269 7:0.505263 8:-0.754569 9:0.441509 
-0.5 -0.5 -0 -0 0.2039377406162746 1:0.677852 2:-0.722353 3:-0.820569 4:0.902655 5:-0.580808 6:-0.746269 7:0.494737 8:-0.754569 9:0.433962 
-0.5 -0.5 -0 -0 0.5 1:0.684564 2:-0.722353 3:-0.816193 4:0.902655 5:-0.575758 6:-0.746269 7:0.505263 8:-0.754569 9:0.441509 
-0 -0.5 -0 -0 0 1:0.684564 2:-0.722353 3:-0.816193 4:0.917404 5:-0.575758 6:-0.738806 7:0.515789 8:-0.738903 9:0.471698 
-0 -0.5 -0 -0 0 1:0.697987 2:-0.712941 3:-0.798687 4:0.917404 5:-0.575758 6:-0.738806 7:0.515789 8:-0.738903 9:0.471698 
-0 -0.5 -0 -0 0 1:0.697987 2:-0.712941 3:-0.798687 4:0.917404 5:-0.575758 6:-0.738806 7:0.515789 8:-0.738903 9:0.471698 
-0 -0 -0.5 -0 0 1:0.684564 2:-0.731765 3:-0.846827 4:0.873156 5:-0.621212 6:-0.776119 7:0.505263 8:-0.765013 9:0.433962 
-0 -0 -0 -0.5 -0 1:-0.456376 2:-0.618824 3:-0.522976 4:-0.39823 5:-0.439394 6:0.179104 7:0.652632 8:0.0234987 9:-0.207547 
-0 -0 -0 -0.3368379595649217 -0 1:-0.42953 2:-0.618824 3:-0.522976 4:-0.383481 5:-0.434343 6:0.179104 7:0.652632 8:0.0287206 9:-0.207547 
-0 -0 -0 -0.5 -0 1:-0.38255 2:-0.628235 3:-0.514223 4:-0.377581 5:-0.449495 6:0.164179 7:0.610526 8:0.0339426 9:-0.25283 
-0 -0 -0 -0.08902473645852749 -0 1:-0.395973 2:-0.642353 3:-0.522976 4:-0.386431 5:-0.459596 6:0.126866 7:0.642105 8:0.0339426 9:-0.222642 
-0 -0 -0 -0.5 -0 1:-0.395973 2:-0.642353 3:-0.527352 4:-0.386431 5:-0.459596 6:0.126866 7:0.631579 8:0.0339426 9:-0.230189 
-0 -0 -0 -0 -0.1829241791081102 1:-0.355705 2:-0.628235 3:-0.531729 4:-0.377581 5:-0.510101 6:0.164179 7:0.663158 8:0.0182768 9:-0.237736 
-0 -0 -0.5 -0 -0 1:-0.0872483 2:-0.101176 3:-0.0371991 4:-0.554572 5:-0.333333 6:0.0149254 7:-0.642105 8:-0.483029 9:-0.6 
-0 -0 -0 -0.5 -0 1:-0.0805369 2:-0.101176 3:-0.0153173 4:-0.542773 5:-0.333333 6:0.00746269 7:-0.6 8:-0.467363 9:-0.569811 
-0 -0 -0 -0.08055317691412349 -0 1:-0.0738255 2:-0.101176 3:-0.0109409 4:-0.539823 5:-0.333333 6:0.00746269 7:-0.589474 8:-0.462141 9:-0.562264 
-0.3544200129995388 -0.5 -0.5 -0.1489493692613032 -0.5 1:0.530201 2:1 3:1 4:0.471976 5:1 6:0.992537 7:-0.252632 8:0.994778 9:-0.388679 
-0 -0.1159970003754842 -0.2890817393713713 -0 -0.05847064777184918 1:0.449664 2:0.915294 3:0.982495 4:0.40708 5:0.934343 6:1 7:-0.242105 8:1 9:-0.396226 
-0 -0 -0 -0.5 -0 1:0.0201342 2:-0.392941 3:0.0415755 4:0.0619469 5:-0.126263 6:-0.223881 7:0.0421053 8:-0.639687 9:0.0867925 
-0 -0 -0 -0.5 -0 1:0.0201342 2:-0.392941 3:0.0284464 4:0.0619469 5:-0.126263 6:-0.231343 7:0.0421053 8:-0.639687 9:0.0716981 
-0 -0 -0 -0.5 -0 1:0.0738255 2:-0.392941 3:0.0328228 4:0.0737463 5:-0.126263 6:-0.231343 7:0.0421053 8:-0.629243 9:0.0867925 
-0 -0 -0 -0.3963249887417815 -0 1:0.0738255 2:-0.392941 3:0.0328228 4:0.0619469 5:-0.136364 6:-0.253731 7:0.0315789 8:-0.629243 9:0.0716981 
-0 -0 -0 -0 -0.5 1:0.181208 2:-0.421176 3:-0.0196937 4:0.115044 5:-0.176768 6:-0.261194 7:0.136842 8:-0.592689 9:0.132075 
-0 -0 -0 -0 -0.03391372286290122 1:0.0805369 2:-0.138824 3:-0.0765864 4:-0.480826 5:-0.39899 6:0.0373134 7:-0.452632 8:-0.472585 9:-0.449057 
-0 -0 -0 -0 -0.5 1:0.0872483 2:-0.129412 3:-0.0765864 4:-0.477876 5:-0.39899 6:0.0373134 7:-0.442105 8:-0.472585 9:-0.449057 
-0.2222822390094143 -0 -0 -0 -0 1:0.402685 2:0.557647 3:0.881838 4:0.356932 5:0.712121 6:0.679104 7:-0.0631579 8:0.72846 9:-0.366038 
-0.5 -0 -0.5 -0 -0 1:0.221477 2:-0.430588 3:-0.0371991 4:0.100295 5:-0.171717 6:-0.291045 7:0.221053 8:-0.603133 9:0.139623 
-0.5 -0 -0 -0 -0 1:0.201342 2:-0.425882 3:-0.0328228 4:0.106195 5:-0.171717 6:-0.283582 7:0.210526 8:-0.597911 9:0.116981 
-0.5 -0 -0 -0 -0 1:0.174497 2:-0.444706 3:-0.0328228 4:0.0943953 5:-0.19697 6:-0.335821 7:0.221053 8:-0.618799 9:0.109434 
-0.5 -0 -0 -0 -0 1:0.174497 2:-0.444706 3:-0.0328228 4:0.103245 5:-0.19697 6:-0.335821 7:0.221053 8:-0.618799 9:0.109434 
-0.5 -0 -0 -0 -0 1:0.234899 2:-0.458824 3:-0.0634573 4:0.120944 5:-0.20202 6:-0.335821 7:0.242105 8:-0.650131 9:0.0943396 
-0.5 -0 -0 -0 -0 1:0.234899 2:-0.454118 3:-0.0634573 4:0.123894 5:-0.207071 6:-0.335821 7:0.242105 8:-0.650131 9:0.0943396 
-0.5 -0 -0 -0 -0.0487144063728857 1:0.234899 2:-0.454118 3:-0.0722101 4:0.123894 5:-0.207071 6:-0.335821 7:0.242105 8:-0.650131 9:0.0943396 
-0.5 -0 -0 -0 -0 1:0.234899 2:-0.454118 3:-0.0722101 4:0.123894 5:-0.207071 6:-0.335821 7:0.242105 8:-0.665796 9:0.0867925 
-0.5 -0 -0 -0 -0 1:0.234899 2:-0.458824 3:-0.0765864 4:0.123894 5:-0.207071 6:-0.335821 7:0.231579 8:-0.665796 9:0.0792453 
-0.5 -0 -0 -0 -0 1:0.234899 2:-0.458824 3:-0.0765864 4:0.123894 5:-0.207071 6:-0.335821 7:0.231579 8:-0.650131 9:0.0867925 
-0.5 -0.2760746871676463 -0 -0 -0.5 1:0.255034 2:-0.458824 3:-0.0722101 4:0.123894 5:-0.207071 6:-0.335821 7:0.242105 8:-0.650131 9:0.0867925 
-0 -0 -0 -0 -0.5 1:0.261745 2:-0.458824 3:-0.0722101 4:0.129794 5:-0.19697 6:-0.335821 7:0.221053 8:-0.650131 9:0.0792453 
-0 -0.5 -0 -0 -0 1:0.261745 2:-0.458824 3:-0.0809628 4:0.129794 5:-0.20202 6:-0.365672 7:0.221053 8:-0.650131 9:0.0792453 
-0.5 -0 -0 -0 -0 1:0.228188 2:-0.454118 3:-0.0853392 4:0.123894 5:-0.19697 6:-0.358209 7:0.221053 8:-0.644909 9:0.0566038 
-0.5 -0 -0 -0 -0 1:0.234899 2:-0.454118 3:-0.0809628 4:0.129794 5:-0.19697 6:-0.343284 7:0.231579 8:-0.639687 9:0.0566038 
-0.5 -0 -0 -0 -0 1:0.234899 2:-0.449412 3:-0.0809628 4:0.129794 5:-0.19697 6:-0.343284 7:0.242105 8:-0.639687 9:0.0566038 
-0.5 -0 -0 -0 -0 1:0.234899 2:-0.449412 3:-0.0722101 4:0.129794 5:-0.19697 6:-0.343284 7:0.242105 8:-0.639687 9:0.0641509 
-0.5 -0 -0 -0 -0 1:0.221477 2:-0.449412 3:-0.0678337 4:0.126844 5:-0.212121 6:-0.350746 7:0.242105 8:-0.634465 9:0.0641509 
-0 -0 -0.3784293351660624 -0 -0 1:0.228188 2:-0.454118 3:-0.0415755 4:0.129794 5:-0.20202 6:-0.38806 7:0.231579 8:-0.644909 9:0.0943396 
-0 -0 -0.5 -0 -0 1:-0.362416 2:-0.76 3:-0.597374 4:-0.39528 5:-0.611111 6:-0.0746269 7:0.568421 8:-0.0496084 9:-0.162264 
-0 -0 -0.5 -0 -0 1:-0.342282 2:-0.76 3:-0.597374 4:-0.39528 5:-0.60101 6:-0.0671642 7:0.578947 8:-0.0443864 9:-0.162264 
-0 -0 -0.5 -0 -0 1:-0.33557 2:-0.76 3:-0.592998 4:-0.39233 5:-0.575758 6:-0.0522388 7:0.568421 8:-0.0391645 9:-0.154717 
-0 -0 -0.5 -0 -0 1:-0.342282 2:-0.76 3:-0.597374 4:-0.39233 5:-0.575758 6:-0.0522388 7:0.568421 8:-0.0391645 9:-0.154717 
-0 -0 -0.3305933418473966 -0 -0 1:-0.342282 2:-0.764706 3:-0.597374 4:-0.39528 5:-0.575758 6:-0.0522388 7:0.568421 8:-0.0391645 9:-0.154717 
-0 -0 -0.5 -0 -0 1:-0.33557 2:-0.76 3:-0.597374 4:-0.362832 5:-0.570707 6:-0.0298507 7:0.589474 8:-0.0130548 9:-0.139623 
-0 -0 -0.5 -0 -0 1:-0.322148 2:-0.76 3:-0.592998 4:-0.362832 5:-0.555556 6:-0.0149254 7:0.6 8:-0.0130548 9:-0.132075 
-0.5 -0 -0.5 -0 -0 1:-0.33557 2:-0.741176 3:-0.588621 4:-0.353982 5:-0.570707 6:-0.0298507 7:0.589474 8:-0.0234987 9:-0.139623 
-0 -0 -0.5 -0 -0 1:-0.33557 2:-0.76 3:-0.588621 4:-0.365782 5:-0.590909 6:-0.0522388 7:0.589474 8:-0.0234987 9:-0.154717 
-0.5 -0 -0 -0 -0 1:0.161074 2:-0.477647 3:-0.111597 4:0.0766962 5:-0.222222 6:-0.447761 7:0.189474 8:-0.655352 9:0.0641509 
-0.5 -0 -0.5 -0 -0 1:0.181208 2:-0.477647 3:-0.107221 4:0.0766962 5:-0.217172 6:-0.447761 7:0.210526 8:-0.655352 9:0.0716981 
-0.5 -0 -0 -0 -0 1:0.181208 2:-0.472941 3:-0.107221 4:0.0884956 5:-0.217172 6:-0.440299 7:0.210526 8:-0.655352 9:0.0716981 
-0.5 -0 -0 -0 -0 1:0.194631 2:-0.472941 3:-0.107221 4:0.0884956 5:-0.207071 6:-0.440299 7:0.210526 8:-0.655352 9:0.0716981 
-0.5 -0 -0.04054447157097713 -0 -0 1:0.181208 2:-0.463529 3:-0.107221 4:0.103245 5:-0.217172 6:-0.425373 7:0.210526 8:-0.634465 9:0.0716981 
-0.5 -0 -0 -0 -0 1:0.181208 2:-0.477647 3:-0.107221 4:0.079646 5:-0.217172 6:-0.462687 7:0.210526 8:-0.671018 9:0.0716981 
-0.5 -0 -0 -0 -0 1:0.161074 2:-0.477647 3:-0.115974 4:0.079646 5:-0.222222 6:-0.462687 7:0.189474 8:-0.671018 9:0.0641509 
-0 -0 -0.5 -0 -0 1:0.161074 2:-0.496471 3:-0.115974 4:0.079646 5:-0.222222 6:-0.514925 7:0.189474 8:-0.67624 9:0.0641509 
-0.5 -0 -0 -0 -0 1:0.120805 2:-0.482353 3:-0.115974 4:0.0589971 5:-0.222222 6:-0.447761 7:0.168421 8:-0.686684 9:0.0716981 
-0.5 -0 -0 -0 -0 1:0.147651 2:-0.501176 3:-0.133479 4:0.0589971 5:-0.222222 6:-0.5 7:0.168421 8:-0.686684 9:0.0716981 
-0.5 -0 -0 -0 -0 1:0.147651 2:-0.482353 3:-0.133479 4:0.0589971 5:-0.222222 6:-0.485075 7:0.168421 8:-0.681462 9:0.0716981 
-0.5 -0 -0.5 -0 -0 1:0.154362 2:-0.477647 3:-0.12035 4:0.0766962 5:-0.20202 6:-0.5 7:0.210526 8:-0.686684 9:0.0792453 
-0.5 -0 -0 -0 -0 1:0.154362 2:-0.468235 3:-0.129103 4:0.0884956 5:-0.207071 6:-0.470149 7:0.168421 8:-0.660574 9:0.0490566 
-0.5 -0 -0 -0 -0 1:0.181208 2:-0.487059 3:-0.185996 4:0.0855457 5:-0.19697 6:-0.529851 7:0.147368 8:-0.681462 9:0.0490566 
-0.5 -0 -0 -0 -0 1:0.181208 2:-0.487059 3:-0.185996 4:0.0855457 5:-0.19697 6:-0.529851 7:0.136842 8:-0.681462 9:0.0415094 
-0.4964962980422336 -0 -0 -0 -0 1:0.181208 2:-0.487059 3:-0.190372 4:0.0855457 5:-0.19697 6:-0.529851 7:0.126316 8:-0.691906 9:0.0415094 
-0.483235071701168 -0 -0 -0 -0 1:0.181208 2:-0.487059 3:-0.185996 4:0.0855457 5:-0.19697 6:-0.522388 7:0.126316 8:-0.691906 9:0.0490566 
-0 -0 -0.5 -0 -0 1:-0.302013 2:-0.764706 3:-0.575492 4:-0.368732 5:-0.555556 6:-0.0298507 7:0.663158 8:0.0182768 9:-0.14717 
-0 -0 -0.5 -0 -0 1:-0.295302 2:-0.769412 3:-0.575492 4:-0.365782 5:-0.555556 6:-0.0298507 7:0.673684 8:0.00261097 9:-0.139623 
-0 -0 -0.5 -0 -0 1:-0.295302 2:-0.769412 3:-0.575492 4:-0.365782 5:-0.560606 6:-0.0298507 7:0.652632 8:0.00261097 9:-0.14717 
-0 -0 -0.5 -0 -0 1:-0.295302 2:-0.774118 3:-0.575492 4:-0.365782 5:-0.560606 6:-0.0298507 7:0.652632 8:-0.00261097 9:-0.14717 
-0 -0 -0.5 -0 -0 1:-0.275168 2:-0.774118 3:-0.575492 4:-0.353982 5:-0.560606 6:-0.0298507 7:0.652632 8:-0.0130548 9:-0.132075 
-0 -0 -0.5 -0 -0 1:-0.275168 2:-0.774118 3:-0.575492 4:-0.353982 5:-0.560606 6:-0.0298507 7:0.652632 8:-0.0130548 9:-0.132075 
-0.5 -0.5 -0.5 -0 -0 1:-0.268456 2:-0.797647 3:-0.61488 4:-0.336283 5:-0.555556 6:-0.0447761 7:0.631579 8:-0.0234987 9:-0.116981 
-0.3827394171992053 -0 -0.5 -0 -0 1:-0.268456 2:-0.802353 3:-0.61488 4:-0.345133 5:-0.555556 6:-0.0447761 7:0.631579 8:-0.0234987 9:-0.116981 
-0 -0 -0.5 -0 -0 1:-0.268456 2:-0.802353 3:-0.623632 4:-0.345133 5:-0.555556 6:-0.0447761 7:0.631579 8:-0.0234987 9:-0.124528 
-0.5 -0.3219374166041091 -0.5 -0 -0 1:-0.261745 2:-0.797647 3:-0.61488 4:-0.339233 5:-0.550505 6:-0.0522388 7:0.631579 8:-0.0182768 9:-0.116981 
-0.5 -0.5 -0.5 -0 -0 1:-0.261745 2:-0.792941 3:-0.61488 4:-0.339233 5:-0.550505 6:-0.0522388 7:0.652632 8:-0.0182768 9:-0.101887 
-0.5 -0 -0.5 -0 -0 1:-0.308725 2:-0.783529 3:-0.606127 4:-0.365782 5:-0.555556 6:-0.0522388 7:0.631579 8:-0.0182768 9:-0.116981 
-0 -0 -0.5 -0 -0 1:-0.322148 2:-0.783529 3:-0.606127 4:-0.377581 5:-0.565657 6:-0.0522388 7:0.631579 8:-0.0234987 9:-0.124528 
-0 -0 -0.5 -0 -0 1:-0.308725 2:-0.783529 3:-0.606127 4:-0.377581 5:-0.565657 6:-0.0597015 7:0.631579 8:-0.0182768 9:-0.116981 
-0 -0 -0.5 -0 -0 1:-0.308725 2:-0.797647 3:-0.606127 4:-0.374631 5:-0.570707 6:-0.0522388 7:0.631579 8:-0.0182768 9:-0.124528 
-0 -0 -0.5 -0 -0 1:-0.288591 2:-0.792941 3:-0.597374 4:-0.371681 5:-0.575758 6:-0.0522388 7:0.663158 8:-0.0339426 9:-0.116981 
-0 -0 -0.5 -0 -0 1:-0.288591 2:-0.788235 3:-0.597374 4:-0.359882 5:-0.570707 6:-0.0522388 7:0.673684 8:-0.0287206 9:-0.116981 
-0 -0 -0.5 -0 -0 1:-0.288591 2:-0.788235 3:-0.597374 4:-0.359882 5:-0.560606 6:-0.0522388 7:0.673684 8:-0.0287206 9:-0.116981 
-0 -0 -0.5 -0 -0 1:-0.281879 2:-0.769412 3:-0.597374 4:-0.356932 5:-0.560606 6:-0.0447761 7:0.684211 8:-0.0234987 9:-0.116981 
-0 -0 -0.5 -0 -0 1:-0.275168 2:-0.788235 3:-0.592998 4:-0.359882 5:-0.555556 6:-0.0522388 7:0.715789 8:-0.0234987 9:-0.101887 
-0 -0 -0.5 -0 -0 1:-0.288591 2:-0.797647 3:-0.601751 4:-0.377581 5:-0.570707 6:-0.0522388 7:0.673684 8:-0.0287206 9:-0.124528 
-0 -0 -0.5 -0 -0 1:-0.288591 2:-0.802353 3:-0.632385 4:-0.377581 5:-0.575758 6:-0.0671642 7:0.663158 8:-0.0339426 9:-0.139623 
-0 -0 -0.5 -0 -0 1:-0.288591 2:-0.802353 3:-0.632385 4:-0.377581 5:-0.575758 6:-0.0671642 7:0.663158 8:-0.0443864 9:-0.139623 
-0 -0 -0.5 -0 -0 1:-0.288591 2:-0.802353 3:-0.632385 4:-0.377581 5:-0.585859 6:-0.0671642 7:0.663158 8:-0.0496084 9:-0.139623 
-0 -0 -0.5 -0 -0 1:-0.288591 2:-0.802353 3:-0.61488 4:-0.377581 5:-0.585859 6:-0.0671642 7:0.663158 8:-0.0496084 9:-0.139623 
-0.5 -0 -0.5 -0 -0 1:-0.315436 2:-0.816471 3:-0.610503 4:-0.383481 5:-0.60101 6:-0.0746269 7:0.673684 8:-0.0704961 9:-0.101887 
-0.5 -0 -0.5 -0 -0 1:-0.315436 2:-0.802353 3:-0.610503 4:-0.383481 5:-0.60101 6:-0.0671642 7:0.684211 8:-0.0652742 9:-0.101887 
-0.5 -0.2265160067138352 -0.5 -0 -0.5 1:-0.315436 2:-0.802353 3:-0.610503 4:-0.383481 5:-0.60101 6:-0.0671642 7:0.684211 8:-0.0652742 9:-0.101887 
-0.5 -0 -0.5 -0 -0 1:-0.302013 2:-0.802353 3:-0.610503 4:-0.383481 5:-0.585859 6:-0.0671642 7:0.684211 8:-0.0652742 9:-0.101887 
-0.5 -0 -0.5 -0 -0 1:-0.302013 2:-0.797647 3:-0.610503 4:-0.380531 5:-0.585859 6:-0.0671642 7:0.684211 8:-0.0652742 9:-0.101887 
-0.5 -0 -0.5 -0 -0 1:-0.302013 2:-0.802353 3:-0.61488 4:-0.383481 5:-0.585859 6:-0.0522388 7:0.663158 8:-0.0652742 9:-0.101887 
-0.5 -0 -0 -0 -0 1:-0.322148 2:-0.811765 3:-0.623632 4:-0.383481 5:-0.585859 6:-0.0522388 7:0.663158 8:-0.0652742 9:-0.109434 
-0.5 -0 -0 -0 -0 1:-0.302013 2:-0.802353 3:-0.636761 4:-0.380531 5:-0.585859 6:-0.0522388 7:0.642105 8:-0.0600522 9:-0.124528 
-0.2382485571990692 -0 -0.5 -0 -0 1:-0.302013 2:-0.821176 3:-0.623632 4:-0.386431 5:-0.580808 6:-0.0597015 7:0.684211 8:-0.0600522 9:-0.101887 
-0 -0 -0.5 -0 -0 1:-0.322148 2:-0.844706 3:-0.641138 4:-0.39528 5:-0.621212 6:-0.119403 7:0.578947 8:-0.0600522 9:-0.154717 
-0 -0 -0.5 -0 -0 1:-0.315436 2:-0.844706 3:-0.641138 4:-0.389381 5:-0.616162 6:-0.119403 7:0.578947 8:-0.0600522 9:-0.154717 
-0 -0 -0 -0 -0.5 1:-0.0469799 2:-0.392941 3:-0.234136 4:-0.522124 5:-0.661616 6:-0.432836 7:-0.778947 8:-0.718016 9:-0.735849 
-0 -0 -0.09678536081255056 -0.3896246777448237 -0.5 1:-0.0469799 2:-0.411765 3:-0.247265 4:-0.513274 5:-0.656566 6:-0.432836 7:-0.8 8:-0.712794 9:-0.750943 
-0 -0 -0 -0 -0.2070607330271888 1:-0.033557 2:-0.392941 3:-0.238512 4:-0.498525 5:-0.641414 6:-0.41791 7:-0.768421 8:-0.707572 9:-0.728302 
-0 -0 -0.5 -0.5 -0.5 1:-0.0402685 2:-0.392941 3:-0.238512 4:-0.525074 5:-0.666667 6:-0.462687 7:-0.8 8:-0.712794 9:-0.735849 
-0 -0.3219286407213712 -0 -0 -0 1:0.449664 2:0.261176 3:0.768053 4:0.371681 5:0.454545 6:0.41791 7:-0.357895 8:0.545692 9:-0.433962 
-0 -0 -0.4249066641097237 -0.5 -0 1:0.389262 2:0.256471 3:0.763676 4:0.312684 5:0.409091 6:0.38806 7:-0.210526 8:0.550914 9:-0.403774 
-0 -0 -0 -0.3259252417160597 -0 1:0.389262 2:0.256471 3:0.763676 4:0.312684 5:0.40404 6:0.38806 7:-0.210526 8:0.535248 9:-0.403774 
-0 -0 -0.5 -0.5 -0 1:0.389262 2:0.275294 3:0.763676 4:0.312684 5:0.409091 6:0.402985 7:-0.147368 8:0.550914 9:-0.403774 
-0 -0 -0.5 -0.5 -0 1:0.389262 2:0.28 3:0.763676 4:0.312684 5:0.409091 6:0.402985 7:-0.136842 8:0.550914 9:-0.403774 
-0 -0.1730233920352348 -0 -0 -0.5 1:0.442953 2:0.303529 3:0.794311 4:0.321534 5:0.449495 6:0.470149 7:-0.0526316 8:0.561358 9:-0.350943 
-0 -0 -0 -0 -0.1314023486015901 1:0.42953 2:0.294118 3:0.785558 4:0.315634 5:0.449495 6:0.462687 7:-0.0526316 8:0.561358 9:-0.350943 
-0 -0.5 -0.5 -0 -0 1:0.174497 2:-0.529412 3:-0.194748 4:0.0855457 5:-0.227273 6:-0.597015 7:0.0947368 8:-0.718016 9:0.0792453 
-0 -0.5 -0 -0 -0 1:0.174497 2:-0.529412 3:-0.194748 4:0.0855457 5:-0.227273 6:-0.589552 7:0.0947368 8:-0.712794 9:0.0792453 
-0 -0.5 -0 -0 -0 1:0.194631 2:-0.552941 3:-0.203501 4:0.0855457 5:-0.232323 6:-0.619403 7:0.0631579 8:-0.723238 9:0.0566038 
-0 -0.5 -0 -0 -0 1:0.194631 2:-0.543529 3:-0.203501 4:0.0884956 5:-0.232323 6:-0.597015 7:0.0631579 8:-0.718016 9:0.0566038 
-0 -0.5 -0 -0 -0 1:0.181208 2:-0.557647 3:-0.234136 4:0.0825959 5:-0.247475 6:-0.604478 7:0.0421053 8:-0.738903 9:0.0188679 
-0 -0 -0 -0 -0.5 1:0.0805369 2:-0.581176 3:-0.238512 4:0.0265487 5:-0.363636 6:-0.61194 7:-0.0526316 8:-0.83812 9:0.0566038 
-0 -0 -0 -0 -0.346722127340631 1:0.0805369 2:-0.595294 3:-0.242888 4:0.0265487 5:-0.368687 6:-0.641791 7:-0.0736842 8:-0.83812 9:0.0490566 
-0 -0.5 -0 -0 -0.5 1:0.0939597 2:-0.609412 3:-0.256018 4:0.0855457 5:-0.368687 6:-0.641791 7:-0.115789 8:-0.848564 9:-0.0113208 
-0 -0.5 -0 -0 -0.5 1:0.114094 2:-0.609412 3:-0.256018 4:0.0914454 5:-0.368687 6:-0.634328 7:-0.115789 8:-0.848564 9:-0.0113208 
-0 -0.5 -0 -0 -0.5 1:0.114094 2:-0.628235 3:-0.269147 4:0.0855457 5:-0.378788 6:-0.641791 7:-0.115789 8:-0.848564 9:-0.0566038 
-0 -0.5 -0 -0 -0.5 1:0.0939597 2:-0.637647 3:-0.273523 4:0.0855457 5:-0.378788 6:-0.656716 7:-0.147368 8:-0.848564 9:-0.0716981 
-0 -0.1186450837303476 -0 -0 -0 1:0.0536913 2:-0.647059 3:-0.273523 4:0.0383481 5:-0.378788 6:-0.738806 7:-0.189474 8:-0.848564 9:-0.101887 
