svm_type c_svc
kernel_type rbf
gamma 0.5
nr_class 7
total_sv 225
rho 0.125465 0.796223 -0.19746 -0.127614 -0.188544 0.384441 0.479892 -0.276468 -0.282242 -0.443879 0.0426773 -0.293878 -0.166934 -0.17741 -0.039133 1.08732 -0.880925 1.07772 -0.304913 1.07681 0.00904401
label 0 1 3 5 6 8 9
nr_sv 45 34 21 27 43 21 34
SV
0 0 0 0.3257969063768406 0 0 1:0.443099 2:0.100775 3:-0.288961 4:0.171171 5:0.217877 6:-0.275321 7:-0.209524 8:-0.279121 9:-0.122951 
0 0 4.190636163609224 0 0 0 1:0.438257 2:0.0968992 3:-0.288961 4:0.171171 5:0.206704 6:-0.275321 7:-0.209524 8:-0.279121 9:-0.122951 
0 0 8 0 0 0 1:0.433414 2:0.0968992 3:-0.288961 4:0.15015 5:0.206704 6:-0.275321 7:-0.209524 8:-0.279121 9:-0.122951 
0 0 0 0 0 0.06437832952704681 1:0.384988 2:0.0968992 3:-0.279221 4:0.0870871 5:0.201117 6:-0.258203 7:-0.190476 8:-0.301099 9:-0.114754 
0 0 2.990274868742384 0 0 0 1:0.312349 3:-0.311688 4:0.144144 5:0.145251 6:-0.295292 7:-0.00952381 8:-0.397802 9:-0.0163934 
0 0 0 0 2.410525221306763 0 1:0.312349 2:0.0387597 3:-0.305195 4:0.153153 5:0.150838 6:-0.295292 7:0.0190476 8:-0.397802 9:0.00409836 
0 0 0 0 7.941629889044342 0 1:0.25908 3:-0.318182 4:0.105105 5:0.128492 6:-0.306705 7:-0.0285714 8:-0.393407 
8 0 0 0 0 0 1:0.128329 2:-0.0503876 3:-0.425325 4:0.144144 5:0.0949721 6:-0.340942 7:-0.0190476 8:-0.578022 9:-0.0245902 
8 0 0 0 0 0 1:0.123487 2:-0.0542636 3:-0.431818 4:0.135135 5:0.0949721 6:-0.340942 7:-0.0190476 8:-0.582418 9:-0.0245902 
2.861464722851785 0 0 0 0 0 1:0.0992736 2:-0.0697674 3:-0.425325 4:0.12012 5:0.0782123 6:-0.349501 7:-0.0285714 8:-0.582418 9:-0.0122951 
0 4.214053667590912 0 0 0 0 1:0.46247 2:0.317829 3:-0.188312 4:0.405405 5:0.385475 6:-0.126961 7:0.152381 8:-0.446154 9:0.114754 
0 8 0 0 0 0 1:0.467312 2:0.317829 3:-0.188312 4:0.405405 5:0.391061 6:-0.126961 7:0.152381 8:-0.441758 9:0.114754 
0 8 0 0 0 0 1:0.467312 2:0.317829 3:-0.188312 4:0.405405 5:0.391061 6:-0.126961 7:0.152381 8:-0.437363 9:0.114754 
0.150403409828965 0 0 0 0 0 1:0.447942 2:0.290698 3:-0.217532 4:0.36036 5:0.363128 6:-0.152639 7:0.190476 8:-0.41978 9:0.0942623 
0 0 0 0.421536496454513 0 0 1:-0.0363196 2:-0.112403 3:-0.311688 4:-0.258258 5:0.122905 6:-0.315264 7:-0.314286 8:-0.305495 9:-0.192623 
0 0 0 8 0.3213406893510435 8 1:-0.113801 2:-0.131783 3:-0.305195 4:-0.342342 5:0.0949721 6:-0.329529 7:-0.342857 8:-0.305495 9:-0.204918 
0 0 0 8 0 8 1:-0.118644 2:-0.155039 3:-0.311688 4:-0.369369 5:0.0949721 6:-0.338088 7:-0.352381 8:-0.314286 9:-0.204918 
0 0 0 0 0 0.3239950458553882 1:-0.244552 2:-0.251938 3:-0.324675 4:-0.459459 5:0.0446927 6:-0.349501 7:-0.409524 8:-0.296703 9:-0.229508 
0 0 0 2.248292052009805 0 8 1:-0.244552 2:-0.255814 3:-0.324675 4:-0.468468 5:0.0446927 6:-0.363766 7:-0.409524 8:-0.296703 9:-0.229508 
0 0 6.415276237802072 0 0.3090059086494186 0 1:-0.307506 2:-0.391473 3:-0.487013 4:-0.297297 5:-0.00558659 6:-0.472183 7:-0.161905 8:-0.476923 9:-0.155738 
0 0 0 3.247060470557821 0 0 1:-0.57385 2:-0.5 3:-0.288961 4:-0.687688 5:0.0111732 6:-0.486448 7:-0.485714 8:-0.252747 9:-0.25 
0 0.5068113562926313 0 0 0 0 1:-0.501211 2:-0.302326 3:-0.467532 4:-0.231231 5:0.217877 6:-0.415121 7:0.428571 8:-0.793407 9:0.131148 
0 0 0 2.543603823831906 0 0 1:-0.501211 2:-0.271318 3:-0.464286 4:-0.288288 5:0.26257 6:-0.417974 7:0.409524 8:-0.828571 9:0.131148 
0 0 0 0 0 1.670819147577845 1:-0.501211 2:-0.263566 3:-0.461039 4:-0.288288 5:0.26257 6:-0.417974 7:0.409524 8:-0.828571 9:0.135246 
0 0 0 0 0 8 1:0.0121065 2:0.139535 3:-0.181818 4:-0.0930931 5:0.329609 6:-0.141227 7:0.27619 8:-0.481319 9:0.0778689 
0 0 0 0 0 5.63312255110743 1:-0.00242131 2:0.131783 3:-0.178571 4:-0.0960961 5:0.329609 6:-0.141227 7:0.295238 8:-0.49011 9:0.0778689 
0 1.193589116071283 0 0 0 0 1:-0.00242131 2:0.120155 3:-0.198052 4:-0.042042 5:0.346369 6:-0.152639 7:0.390476 8:-0.485714 9:0.131148 
0 0 0 0 0.1294341463129196 0 1:0.00242131 2:0.108527 3:-0.224026 4:-0.0510511 5:0.340782 6:-0.169757 7:0.380952 8:-0.476923 9:0.122951 
0 0 0 0 0 1.897266274870094 1:-0.941889 2:-0.717054 3:-0.386364 4:-0.87988 5:-0.122905 6:-0.63766 7:-0.733333 8:-0.235165 9:-0.327869 
0 1.45032582981158 0 0 0.5751723292920495 0 1:-0.951574 2:-0.775194 3:-0.402597 4:-0.912913 5:-0.139665 6:-0.663338 7:-0.790476 8:-0.169231 9:-0.368852 
5.749003082193862 0 0 0 0 0 1:-0.840194 2:-0.755814 3:-0.383117 4:-0.888889 5:-0.122905 6:-0.651926 7:-0.771429 8:-0.156044 9:-0.360656 
0 0 0.4136729811344372 0 0 0 1:-0.840194 2:-0.744186 3:-0.386364 4:-0.891892 5:-0.122905 6:-0.649073 7:-0.771429 8:-0.16044 9:-0.364754 
8 0 0 0 0 0 1:-0.772397 2:-0.771318 3:-0.584416 4:-0.561562 5:-0.0391061 6:-0.643367 7:-0.361905 8:-0.498901 9:-0.204918 
2.931448251249078 0 0 0 0 0 1:-0.772397 2:-0.771318 3:-0.584416 4:-0.561562 5:-0.0558659 6:-0.643367 7:-0.361905 8:-0.512088 9:-0.209016 
0 0.09003121445539691 0 0.654878361797117 0 0 1:-1 2:-0.841085 3:-0.613636 4:-0.678679 5:-0.0335196 6:-0.649073 7:-0.390476 8:-0.547253 9:-0.258197 
0 0.1403404622440788 0 0 0 0 1:-0.985472 2:-0.860465 3:-0.61039 4:-0.645646 5:-0.0614525 6:-0.666191 7:-0.457143 8:-0.534066 9:-0.262295 
0.6788262943948232 0 0 0 0 0 1:-0.869249 2:-0.829457 3:-0.623377 4:-0.627628 5:-0.0782123 6:-0.67475 7:-0.447619 8:-0.534066 9:-0.270492 
0 0 0 0 0.8370559613466494 0 1:-0.384988 2:-0.27907 3:-0.506494 4:-0.234234 5:0.100559 6:-0.46933 7:0.342857 8:-0.938462 9:0.0983607 
8 0 0 0 0 0 1:-0.404358 2:-0.282946 3:-0.506494 4:-0.228228 5:0.128492 6:-0.472183 7:0.390476 8:-0.947253 9:0.127049 
5.656647592155283 0 0 0 0 0 1:-0.423729 2:-0.282946 3:-0.512987 4:-0.225225 5:0.139665 6:-0.477889 7:0.390476 8:-0.951648 9:0.131148 
8 0 0 0 0 0 1:-0.418886 2:-0.282946 3:-0.50974 4:-0.225225 5:0.139665 6:-0.475036 7:0.409524 8:-0.951648 9:0.131148 
5.120899655274538 0 0 0 0 0 1:-0.414044 2:-0.27907 3:-0.512987 4:-0.228228 5:0.145251 6:-0.472183 7:0.4 8:-0.942857 9:0.135246 
8 0 0 0 0 0 1:-0.423729 2:-0.290698 3:-0.512987 4:-0.228228 5:0.145251 6:-0.477889 7:0.4 8:-0.951648 9:0.131148 
0 0 0 0.4048261740683047 0 0 1:-0.108959 2:0.0852713 3:-0.233766 4:-0.0990991 5:0.363128 6:-0.203994 7:0.457143 8:-0.582418 9:0.122951 
0 0 0 0 0.6079655856339709 0 1:-0.108959 2:0.0775194 3:-0.25 4:-0.105105 5:0.318436 6:-0.221113 7:0.419048 8:-0.586813 9:0.122951 
-0 0 5.201968174203217 0 0 0 1:-0.181598 2:-0.368217 3:-0.525974 4:-0.237237 5:-0.0670391 6:-0.689016 7:-0.419048 8:-0.112088 9:-0.106557 
-0 0 0 0 3.244523008955672 0 1:-0.181598 2:-0.368217 3:-0.522727 4:-0.237237 5:-0.0670391 6:-0.68331 7:-0.4 8:-0.112088 9:-0.0983607 
-7.351321612945057 0 0 0 0 0 1:-0.220339 2:-0.395349 3:-0.516234 4:-0.282282 5:-0.0670391 6:-0.669044 7:-0.4 8:-0.112088 9:-0.0983607 
-0 0 0 1.546278963943703 0 0 1:-0.215496 2:-0.395349 3:-0.49026 4:-0.306306 5:-0.0726257 6:-0.697575 7:-0.447619 8:-0.116484 9:-0.118852 
-0 0 0 0 0 3.559765621094754 1:-0.230024 2:-0.410853 3:-0.493506 4:-0.348348 5:-0.0782123 6:-0.706134 7:-0.447619 8:-0.120879 9:-0.118852 
-0.05026948343861152 0 0 0 0 0 1:-0.288136 2:-0.434109 3:-0.496753 4:-0.363363 5:-0.0837989 6:-0.71184 7:-0.495238 8:-0.12967 9:-0.118852 
-0 0 0 0 0 0.1218893500369113 1:-0.263923 2:-0.422481 3:-0.49026 4:-0.366366 5:-0.0726257 6:-0.71184 7:-0.457143 8:-0.116484 9:-0.106557 
-0 0.2169867648626546 0 0 0 0 1:-0.27845 2:-0.437984 3:-0.496753 4:-0.378378 5:-0.0782123 6:-0.717546 7:-0.47619 8:-0.0945055 9:-0.110656 
-0 0 0 5.040107714955949 0 0 1:-0.336562 2:-0.368217 3:-0.623377 4:-0.411411 5:0.0614525 6:-0.814551 7:-0.209524 8:-0.406593 9:-0.0819672 
-0 8 0 0 0 0 1:0.360775 2:0.0193798 3:-0.464286 4:0.372372 5:0.162011 6:-0.39515 7:0.27619 8:-0.432967 9:0.155738 
-0 1.815668947763552 0 0 0 0 1:0.360775 2:0.0193798 3:-0.464286 4:0.369369 5:0.162011 6:-0.403709 7:0.27619 8:-0.441758 9:0.155738 
-0 0 0 0 8 0 1:0.307506 2:0.00775194 3:-0.464286 4:0.276276 5:0.167598 6:-0.400856 7:0.314286 8:-0.446154 9:0.106557 
-0 0 1.36417432525873 0 1.135755864897955 0 1:0.307506 3:-0.467532 4:0.273273 5:0.167598 6:-0.403709 7:0.314286 8:-0.446154 9:0.106557 
-0 0 0 0 0 0.490155069026346 1:0.312349 2:0.0116279 3:-0.451299 4:0.27027 5:0.178771 6:-0.400856 7:0.342857 8:-0.446154 9:0.118852 
-0 0 5.947904665354761 0 0 0 1:0.399516 2:0.100775 3:-0.412338 4:0.417417 5:0.106145 6:-0.412268 7:0.228571 8:-0.661538 9:0.0122951 
-6.53671477680996 0 0 0 0 0 1:0.399516 2:0.100775 3:-0.412338 4:0.42042 5:0.106145 6:-0.406562 7:0.228571 8:-0.661538 9:0.0163934 
-0 0 0 0 0 1.689191640063041 1:-0.46247 2:-0.503876 3:-0.603896 4:-0.552553 5:0.100559 6:-0.848787 7:-0.295238 8:-0.410989 9:-0.122951 
-0 0.6700319507254576 0 0 0 0 1:0.27845 2:-0.00775194 3:-0.464286 4:0.255255 5:0.162011 6:-0.417974 7:0.466667 8:-0.459341 9:0.147541 
-0 0 0 1.800645827019476 0.5395000373545629 0 1:0.0702179 2:-0.0930233 3:-0.49026 4:0.0960961 5:0.167598 6:-0.440799 7:0.495238 8:-0.534066 9:0.143443 
-0 0 0 0 0 2.508664334042513 1:0.0121065 2:-0.108527 3:-0.493506 4:0.0870871 5:0.167598 6:-0.437946 7:0.504762 8:-0.547253 9:0.147541 
-0 0 0.180177584832428 0 0 0 1:-0.443099 2:-0.593023 3:-0.607143 4:-0.600601 5:0.0726257 6:-0.885877 7:-0.352381 8:-0.331868 9:-0.196721 
-0 0 0 2.443494246968801 0 0.5363965785252961 1:0.200969 2:0.0310078 3:-0.422078 4:0.222222 5:0.100559 6:-0.426534 7:0.342857 8:-0.740659 9:0.045082 
-5.161090396589493 0 0 0 0 0 1:-0.719128 2:-0.848837 3:-0.61039 4:-0.792793 5:0.0391061 6:-0.902996 7:-0.514286 8:-0.38022 9:-0.25 
-8 0 0 0 0 0 1:-0.719128 2:-0.848837 3:-0.61039 4:-0.792793 5:0.0335196 6:-0.902996 7:-0.52381 8:-0.38022 9:-0.25 
-7.064059573195764 0 0 0 0 0 1:-0.302663 2:-0.317829 3:-0.61039 4:-0.0810811 5:0.0726257 6:-0.552068 7:0.390476 8:-0.881319 9:0.0942623 
-8 0 0 0 0 0 1:-0.312349 2:-0.317829 3:-0.61039 4:-0.0810811 5:0.0614525 6:-0.554922 7:0.390476 8:-0.89011 9:0.0942623 
-8 0 0 0 0 0 1:-0.326877 2:-0.317829 3:-0.61039 4:-0.0930931 5:0.0502793 6:-0.563481 7:0.380952 8:-0.89011 9:0.110656 
-0 1.264201178442817 0 0 0 0.1550736516270621 1:-0.646489 2:-0.992248 3:-0.584416 4:-0.924925 5:-0.268156 6:-0.980029 7:-0.980952 8:0.116484 9:-0.516393 
-0 0 0.9146250513781934 0 0 0 1:-0.622276 2:-0.988372 3:-0.577922 4:-0.924925 5:-0.26257 6:-0.977175 7:-0.942857 8:0.120879 9:-0.508197 
-0 0 0 0.9357240403247388 0 0 1:-0.622276 2:-0.984496 3:-0.561688 4:-0.924925 5:-0.217877 6:-0.96291 7:-0.914286 8:0.134066 9:-0.483607 
-5.152801396728975 0 0 0 0 0 1:-0.525424 2:-0.453488 3:-0.678571 4:-0.231231 5:0.027933 6:-0.706134 7:0.342857 8:-0.982418 9:0.131148 
-0 0.5044078348483365 0 0 0 0 1:-0.530266 2:-0.457364 3:-0.685065 4:-0.216216 5:0.0446927 6:-0.71184 7:0.447619 8:-1 9:0.135246 
-7.832435768240471 0 0 0 0 0 1:-0.171913 2:-0.178295 3:-0.470779 4:0.00600601 5:0.150838 6:-0.554922 7:0.32381 8:-0.854945 9:0.180328 
-8 0 0 0 0 0.419148371116251 1:-0.171913 2:-0.178295 3:-0.470779 4:0.00600601 5:0.150838 6:-0.552068 7:0.32381 8:-0.854945 9:0.184426 
-0 -5.290135528766943 0 1.494587223497661 0 0 1:0.491525 2:0.170543 3:-0.467532 4:0.399399 5:0.251397 6:-0.24679 7:-0.0190476 8:0.142857 9:0.184426 
-0 -0 4.508259347576973 0 0 0 1:0.491525 2:0.20155 3:-0.467532 4:0.393393 5:0.212291 6:-0.235378 7:-0.047619 8:0.12967 9:0.184426 
-1.633721048616507 -0 0 0 0 0 1:0.48184 2:0.205426 3:-0.474026 4:0.396396 5:0.212291 6:-0.21826 7:-0.0380952 8:0.125275 9:0.17623 
-6.28985916501825 -0 0 0 0 0 1:0.491525 2:0.228682 3:-0.461039 4:0.393393 5:0.206704 6:-0.212553 7:-0.0380952 8:0.125275 9:0.17623 
-0 -0.9089798825876459 0 0 0 0 1:0.709443 2:0.29845 3:-0.162338 4:0.75976 5:0.541899 6:-0.126961 7:0.695238 8:-0.446154 9:0.356557 
-1.522384910565124 -0 0 0 0 0 1:0.564165 2:0.348837 3:-0.0227273 4:0.597598 5:0.446927 6:-0.0156919 7:0.447619 8:-0.503297 9:0.348361 
-8 -0 0 0 0 0 1:0.554479 2:0.341085 3:-0.025974 4:0.597598 5:0.430168 6:-0.0156919 7:0.438095 8:-0.503297 9:0.344262 
-0 -0.7628906079217563 0.2685032829597718 0.02235063323583817 0 0 1:1 2:0.348837 3:-0.292208 4:0.975976 5:0.441341 6:-0.192582 7:0.838095 8:-0.323077 9:0.237705 
-0 -0 0 0.1009495821284712 0 0.1446491462642313 1:0.951574 2:0.655039 3:0.272727 4:0.945946 5:0.564246 6:0.46933 7:0.733333 8:-0.331868 9:0.327869 
-0 -0 0 0 5.507796815459949 2.811694357940985 1:0.438257 2:0.263566 3:-0.438312 4:0.351351 5:0.167598 6:-0.115549 7:-0.0190476 8:0.138462 9:0.159836 
-3.641739410235535 -0 0 0 0 0 1:0.263923 2:0.255814 3:0.227273 4:0.309309 5:0.195531 6:0.198288 7:0.209524 8:-0.674725 9:0.282787 
-0 -0 0 0.2731571753061806 0 0.1583898182499077 1:0.283293 2:0.937984 3:1 4:0.636637 5:0.256983 6:1 7:0.971429 8:-0.635165 9:0.877049 
-0 -0 0 0 0.1959704722783009 0.1796063679711462 1:0.0169492 2:0.294574 3:0.487013 4:0.0510511 5:-0.162011 6:0.332382 7:-0.0571429 8:-0.138462 9:0.557377 
-0 -0 0 0.2808462447153956 0 0.6824519309413578 1:-0.0508475 2:0.158915 3:0.366883 4:0.0960961 5:0.0167598 6:0.104137 7:0.133333 8:-0.745055 9:0.47541 
-0 -5.509290657366472 0 0.9749137717331566 5.71312126055783 0 1:0.0460048 2:0.00775194 3:-0.0746753 4:0.219219 5:-0.0670391 6:-0.175464 7:0.533333 8:-0.573626 9:0.418033 
-2.507447112030468 -0 1.376275002136758 0 0 1.435805459917935 1:0.16707 2:0.116279 3:0.0649351 4:0.237237 5:-0.0111732 6:-0.166904 7:0.390476 8:-0.52967 9:0.311475 
-0 -0 0.3824625306659638 0 0 0 1:0.331719 2:0.992248 3:1 4:0.600601 5:0.0670391 6:1 7:0.933333 8:-0.714286 9:0.930328 
-0 -0 0 0 0 0.4577160860385499 1:0.346247 2:1 3:1 4:0.588589 5:0.0502793 6:1 7:0.933333 8:-0.696703 9:0.930328 
-0 -0 0.001760619136677844 0.04264535982475173 0 0 1:0.346247 2:1 3:1 4:0.594595 5:0.0502793 6:1 7:0.933333 8:-0.696703 9:0.930328 
-0 -0 0.07295405497875458 0.2991618076662064 0.5778085750134184 0 1:0.263923 2:0.965116 3:1 4:0.525526 5:-0.0893855 6:1 7:0.866667 8:-0.687912 9:1 
-0 -0 0 0 0.03957204891445123 0 1:0.244552 2:0.965116 3:1 4:0.516517 5:-0.0893855 6:1 7:0.866667 8:-0.687912 9:0.991803 
-0 -0 -0 0 5.011019947465944 0 1:0.496368 2:-0.0658915 3:-0.844156 4:0.00600601 5:0.122905 6:-0.720399 7:-0.228571 8:0.384615 9:-0.438525 
-0 -0 -0.8766923535208957 0 0 0 1:0.602906 2:-0.0271318 3:-0.805195 4:0.048048 5:0.173184 6:-0.726106 7:-0.209524 8:0.450549 9:-0.393443 
-0 -4.167434005239516 -0 0 0 0 1:0.612591 2:-0.0193798 3:-0.487013 4:0.264264 5:0.0167598 6:-0.415121 7:0.0285714 8:-0.402198 9:-0.270492 
-0 -3.093095851103556 -0 0 0 0 1:0.578692 2:-0.0193798 3:-0.49026 4:0.276276 5:0.00558659 6:-0.400856 7:0.0190476 8:-0.393407 9:-0.286885 
-4.500178929333545 -0 -0 0 0 0 1:0.607748 2:0.0193798 3:-0.435065 4:0.219219 6:-0.35806 7:-0.0285714 8:-0.305495 9:-0.245902 
-0 -0 -0 0 3.208231425817462 0 1:0.602906 2:0.0271318 3:-0.412338 4:0.213213 6:-0.343795 7:0.0190476 8:-0.248352 9:-0.237705 
-7.463286550190905 -0 -0 0 0 0 1:0.602906 2:0.0271318 3:-0.412338 4:0.213213 5:0.00558659 6:-0.338088 7:0.0190476 8:-0.248352 9:-0.237705 
-0 -0 -5.141207719290778 0 0 0.07792277406493407 1:0.598063 2:0.0271318 3:-0.405844 4:0.21021 5:0.00558659 6:-0.340942 7:0.0285714 8:-0.243956 9:-0.237705 
-0 -0 -0 0 8 0 1:0.302663 2:-0.0310078 3:-0.558442 4:-0.174174 5:0.0111732 6:-0.452211 7:-0.104762 8:-0.446154 9:-0.311475 
-2.015669278469389 -0 -0 0 0 0 1:0.268765 2:-0.00775194 3:-0.532468 4:-0.201201 5:0.0223464 6:-0.446505 7:-0.133333 8:-0.432967 9:-0.327869 
-0 -0 -0 0 3.931226131935591 0 1:0.297821 2:-0.0155039 3:-0.545455 4:-0.162162 5:0.128492 6:-0.449358 7:0.00952381 8:-0.389011 9:-0.303279 
-0 -0 -0 0 8 0 1:0.297821 2:-0.00775194 3:-0.545455 4:-0.153153 5:0.150838 6:-0.437946 7:0.0380952 8:-0.389011 9:-0.29918 
-0 -0 -0 0 2.497678183765558 0 1:0.27845 2:0.0658915 3:-0.301948 4:-0.351351 5:-0.111732 6:-0.446505 7:-0.114286 8:-0.00659341 9:-0.442623 
-0 -0 -0 0 0 1.670470123909472 1:0.123487 2:0.0271318 3:-0.347403 4:-0.306306 5:0.0335196 6:-0.389444 7:-0.0190476 8:-0.125275 9:-0.467213 
-0 -0 -0 8 0 8 1:0.118644 2:0.0542636 3:-0.334416 4:-0.312312 5:0.0335196 6:-0.409415 7:0.0190476 8:-0.0945055 9:-0.438525 
-0 -0 -0 0 0 7.97578419495895 1:0.123487 2:0.0542636 3:-0.331169 4:-0.312312 5:0.0335196 6:-0.406562 7:0.0190476 8:-0.0681319 9:-0.438525 
-0 -0 -0 3.129838493884722 0 0 1:0.104116 2:0.0232558 3:-0.337662 4:-0.345345 5:0.0167598 6:-0.412268 7:-0.0285714 8:-0.0945055 9:-0.446721 
-0.0222043396084089 -0 -0 0 0 0 1:0.108959 2:0.0271318 3:-0.344156 4:-0.339339 5:0.00558659 6:-0.415121 7:-0.0666667 8:-0.0945055 9:-0.45082 
-0 -0 -0.06284622178241683 0 0 5.176745599073642 1:0.263923 2:-0.0581395 3:-0.50974 4:-0.201201 5:0.312849 6:-0.455064 7:0.171429 8:-0.323077 9:-0.290984 
-0 -0 -0 8 0 0 1:0.0217918 2:-0.186047 3:-0.454545 4:-0.627628 5:-0.134078 6:-0.540656 7:-0.390476 8:-0.125275 9:-0.67623 
-0 -0 -0 8 0 0 1:0.0266344 2:-0.186047 3:-0.454545 4:-0.627628 5:-0.134078 6:-0.540656 7:-0.390476 8:-0.120879 9:-0.67623 
-5.664089881594816 -4.269341091590059 -0 8 0 0 1:-0.0363196 2:-0.244186 3:-0.525974 4:-0.36036 5:0.251397 6:-0.49786 7:-0.0761905 8:-0.367033 9:-0.42623 
-0 -0 -0 8 0 0 1:-0.0266344 2:-0.244186 3:-0.522727 4:-0.36036 5:0.251397 6:-0.49786 7:-0.0761905 8:-0.349451 9:-0.42623 
-2.287769364880366 -0 -0 7.303998635388976 0 0 1:-0.0605327 2:-0.325581 3:-0.512987 4:-0.378378 5:0.268156 6:-0.492154 7:-0.209524 8:-0.393407 9:-0.516393 
-0 -0 -0 8 0 0.5908183013683315 1:-0.0605327 2:-0.325581 3:-0.516234 4:-0.387387 5:0.268156 6:-0.492154 7:-0.209524 8:-0.397802 9:-0.516393 
-0 -0 -0 0.5414065212262951 0 0 1:0.0653753 2:-0.593023 3:-0.717532 4:-0.66967 5:-0.212291 6:-0.783167 7:-0.790476 8:0.331868 9:-0.930328 
-0.05666190721068391 -2.0789788530942 -0.5294685428608096 0 0 0 1:0.0653753 2:-0.596899 3:-0.720779 4:-0.66967 5:-0.217877 6:-0.78602 7:-0.790476 8:0.331868 9:-0.930328 
-0.1190483561110323 -0 -0 -0 0 0 1:-0.0169492 2:-0.00387597 3:-0.782468 4:-0.327327 5:0.385475 6:-0.629101 7:-0.92381 8:0.749451 9:-0.713115 
-0 -0 -0.7225815466018171 -0 0 0.3283163613830096 1:0.0508475 2:0.00387597 3:-0.782468 4:-0.303303 5:0.396648 6:-0.629101 7:-0.895238 8:0.753846 9:-0.704918 
-0 -0.1494709076238439 -0 -0 0 0 1:0.0411622 2:-0.00775194 3:-0.792208 4:-0.3003 5:0.396648 6:-0.634807 7:-0.895238 8:0.753846 9:-0.696721 
-0 -0 -0 -0 0.61908429438031 0 1:0.0266344 2:-0.0193798 3:-0.788961 4:-0.306306 5:0.385475 6:-0.643367 7:-0.780952 8:0.749451 9:-0.655738 
-8 -0 -0 -0 0 0 1:0.0508475 2:0.0968992 3:-0.454545 4:-0.387387 5:0.167598 6:-0.503566 7:-0.47619 8:-0.305495 9:-0.372951 
-1.692001569557131 -0 -0 -0 0 0 1:0.0411622 2:0.135659 3:-0.441558 4:-0.441441 5:0.184358 6:-0.489301 7:-0.419048 8:-0.301099 9:-0.32377 
-0 -0 -0 -0 0 5.889337643465661 1:0.0556901 2:0.170543 3:-0.425325 4:-0.462462 5:0.201117 6:-0.480742 7:-0.390476 8:-0.292308 9:-0.295082 
-1.053665126852121 -6.664387351113644 -0.5133656906377756 -0 0 0 1:-0.031477 2:0.0581395 3:-0.551948 4:-0.336336 5:0.173184 6:-0.532097 7:0.142857 8:-0.49011 9:-0.241803 
-0 -0 -0 -0 6.870599766486072 0 1:-0.0217918 2:0.0620155 3:-0.551948 4:-0.336336 5:0.184358 6:-0.532097 7:0.142857 8:-0.468132 9:-0.241803 
-0 -0 -0 -8 0 0 1:-0.0217918 2:0.0348837 3:-0.555195 4:-0.33033 5:0.184358 6:-0.543509 7:0.0190476 8:-0.463736 9:-0.315574 
-0 -0 -0 -6.913405642838788 0 0 1:-0.031477 2:0.0232558 3:-0.558442 4:-0.342342 5:0.184358 6:-0.546362 7:0.0190476 8:-0.468132 9:-0.303279 
-0 -0 -1.664908633148218 -0 0 0 1:-0.0799031 2:0.0581395 3:-0.487013 4:-0.333333 5:0.346369 6:-0.495007 7:0.209524 8:-0.384615 9:-0.221311 
-0 -0.9515119765138732 -0 -8 0 0 1:-0.123487 2:-0.147287 3:-0.474026 4:-0.435435 5:0.0949721 6:-0.691869 7:-0.190476 8:-0.2 9:-0.487705 
-0 -0 -0 -8 0 0 1:-0.123487 2:-0.147287 3:-0.467532 4:-0.435435 5:0.100559 6:-0.686163 7:-0.190476 8:-0.2 9:-0.483607 
-0 -0 -0 -8 0 0 1:-0.123487 2:-0.143411 3:-0.467532 4:-0.435435 5:0.100559 6:-0.686163 7:-0.171429 8:-0.2 9:-0.47541 
-0 -0 -0 -0.897163490189834 0 0 1:-0.123487 2:-0.135659 3:-0.467532 4:-0.435435 5:0.100559 6:-0.68331 7:-0.161905 8:-0.195604 9:-0.47541 
-0 -0 -0 -0 0 8 1:0.1477 2:0.182171 3:-0.422078 4:-0.51952 5:0.189944 6:-0.512126 7:-0.466667 8:-0.261538 9:-0.307377 
-0 -0 -0 -0 0 2.716869133276396 1:0.1477 2:0.189922 3:-0.425325 4:-0.498498 5:0.217877 6:-0.514979 7:-0.438095 8:-0.243956 9:-0.290984 
-0 -0 -0.07508127746295237 -0 0 0 1:0.171913 2:0.178295 3:-0.425325 4:-0.489489 5:0.22905 6:-0.520685 7:-0.419048 8:-0.23956 9:-0.295082 
-0 -0 -0 -0 3.146895614224454 1.509793612046429 1:0.171913 2:0.174419 3:-0.431818 4:-0.507508 5:0.223464 6:-0.523538 7:-0.361905 8:-0.230769 9:-0.286885 
-0 -0 -0 -0 0 0.2508028704953558 1:0.16707 2:0.178295 3:-0.431818 4:-0.498498 5:0.223464 6:-0.520685 7:-0.380952 8:-0.230769 9:-0.286885 
-0 -0 -0 -0 0 3.473114028678522 1:-0.220339 2:0.104651 3:-0.383117 4:-0.462462 5:0.418994 6:-0.417974 7:0.209524 8:-0.353846 9:-0.204918 
-0 -0 -0 -0 0 0.5464775336319637 1:0.0750605 2:-0.189922 3:-0.727273 4:-0.711712 5:0.273743 6:-0.649073 7:-0.733333 8:0.753846 9:-0.790984 
-0 -0 -0 -1.454080451436337 0 0 1:0.0799031 2:-0.174419 3:-0.714286 4:-0.705706 5:0.273743 6:-0.64622 7:-0.714286 8:0.753846 9:-0.790984 
-0 -0 -0 -0 0 1.964741416751406 1:-0.234867 2:-0.0620155 3:-0.201299 4:-0.777778 5:0.296089 6:-0.412268 7:-0.161905 8:-0.156044 9:-0.413934 
-0 -0 -0 -0 0 0.1973047837960651 1:-0.094431 2:-0.321705 3:-0.701299 4:-0.795796 5:0.312849 6:-0.666191 7:-0.742857 8:0.758242 9:-0.819672 
-0 -0 -0 -0 0 3.843842297343929 1:-0.273608 2:-0.0813953 3:-0.269481 4:-0.54955 5:0.363128 6:-0.412268 7:0.0857143 8:-0.362637 9:-0.221311 
-0 -0 -0 -0 0 8 1:-0.254237 2:-0.0813953 3:-0.269481 4:-0.546547 5:0.357542 6:-0.39515 7:0.0857143 8:-0.362637 9:-0.229508 
-0 -0 -0 -0 0 1.395037708672413 1:-0.196126 2:-0.0775194 3:-0.285714 4:-0.522523 5:0.335196 6:-0.398003 7:0.0285714 8:-0.384615 9:-0.270492 
-0.04271686217117805 -0 -0 -0 0 0 1:-0.414044 2:-0.178295 3:-0.181818 4:-0.738739 5:0.150838 6:-0.355207 7:-0.390476 8:-0.274725 9:-0.532787 
-0 -0 -0 -0 0 0.8323837094581857 1:-0.307506 2:-0.0813953 3:-0.211039 4:-0.738739 5:0.173184 6:-0.329529 7:-0.361905 8:-0.274725 9:-0.532787 
-0.5827573332178089 -1.804070537304383 -0 -0 0 0 1:-0.283293 2:-0.542636 3:-0.717532 4:-0.807808 5:0.223464 6:-0.757489 7:-0.961905 8:0.6 9:-0.967213 
-0 -0 -0.4169570264301075 -0 0 0 1:-0.283293 2:-0.542636 3:-0.720779 4:-0.813814 5:0.223464 6:-0.757489 7:-0.961905 8:0.6 9:-0.967213 
-0 -0 -0 -5.431574191356536 0 0 1:0.302663 2:0.0116279 3:-0.487013 4:-0.753754 5:0.189944 6:-0.606277 7:-0.619048 8:-0.279121 9:-0.446721 
-2.960730386143292 -0 -0 -0 0 0 1:-0.331719 2:-0.294574 3:-0.285714 4:-0.573574 5:0.240223 6:-0.43224 7:-0.0666667 8:-0.406593 9:-0.360656 
-6.76904401952585 -0 -0 -0 0 0 1:-0.317191 2:-0.302326 3:-0.285714 4:-0.567568 5:0.240223 6:-0.43224 7:-0.047619 8:-0.402198 9:-0.356557 
-0 -2.196810020656921 -0 -0 0 0 1:-0.326877 2:-0.310078 3:-0.292208 4:-0.573574 5:0.223464 6:-0.457917 7:-0.133333 8:-0.410989 9:-0.401639 
-0 -0 -0 -0.1360020477321222 0 0 1:-0.249395 2:-0.282946 3:-0.262987 4:-0.576577 5:0.223464 6:-0.449358 7:-0.190476 8:-0.375824 9:-0.422131 
-4.055222173464368 -0 -0 -0 0 0 1:-0.35109 2:-0.310078 3:-0.266234 4:-0.597598 5:0.240223 6:-0.449358 7:-0.180952 8:-0.367033 9:-0.401639 
-0 -0 -0 -8 0 0 1:-0.283293 2:-0.228682 3:-0.224026 4:-0.621622 5:0.173184 6:-0.340942 7:-0.32381 8:-0.217582 9:-0.713115 
-0 -0 -0 -4.143017826946378 0 0 1:-0.302663 2:-0.228682 3:-0.224026 4:-0.624625 5:0.173184 6:-0.340942 7:-0.32381 8:-0.221978 9:-0.713115 
-0.5708084580535252 -0 -0 -0 0 0 1:-0.409201 2:-0.248062 3:-0.107143 4:-0.591592 5:0.111732 6:-0.25535 7:-0.247619 8:-0.27033 9:-0.659836 
-0 -0 -0.0957176238267906 -0 0 5.883270450866894 1:-0.433414 2:-0.24031 3:-0.0649351 4:-0.597598 5:0.173184 6:-0.198288 7:-0.133333 8:-0.265934 9:-0.618852 
-0.1577926983600155 -0.5791124686029249 -0 -0 -0 0 1:0.336562 2:0.135659 3:-0.88961 4:0.0690691 5:0.206704 6:-0.526391 7:-0.047619 8:0.428571 9:-0.0491803 
-0 -0 -3.460239003428873 -0 -0 0 1:0.336562 2:0.147287 3:-0.886364 4:0.0690691 5:0.206704 6:-0.523538 7:-0.0380952 8:0.428571 9:-0.0327869 
-5.960827315705218 -2.708354065550545 -0 -2.554296727513818 -0 0 1:0.355932 2:0.116279 3:-0.665584 4:-0.162162 5:0.0223464 6:-0.514979 7:-0.047619 8:-0.204396 9:-0.155738 
-0 -0 -0 -8 -0 0 1:0.35109 2:0.116279 3:-0.675325 4:-0.162162 5:0.0167598 6:-0.514979 7:-0.047619 8:-0.204396 9:-0.172131 
-0 -0 -0 -8 -1.724661827646 0 1:0.35109 2:0.116279 3:-0.675325 4:-0.168168 5:0.0167598 6:-0.514979 7:-0.047619 8:-0.204396 9:-0.172131 
-0 -0 -0 -8 -0 0 1:0.35109 2:0.116279 3:-0.675325 4:-0.168168 5:-0.00558659 6:-0.514979 7:-0.0666667 8:-0.208791 9:-0.172131 
-0 -0 -0 -0 -4.038901526131305 0 1:0.292978 2:0.124031 3:-0.642857 4:-0.225225 5:-0.0446927 6:-0.437946 7:0.0190476 8:-0.274725 9:-0.127049 
-0 -0 -0 -0 -4.120016721361678 0.7636574769870922 1:0.297821 2:0.131783 3:-0.626623 4:-0.222222 5:-0.0391061 6:-0.437946 7:0.0285714 8:-0.265934 9:-0.127049 
-0 -0 -0 -0 -0 8 1:0.302663 2:0.135659 3:-0.613636 4:-0.222222 5:-0.0391061 6:-0.437946 7:0.0285714 8:-0.257143 9:-0.122951 
-0 -0 -0 -0 -0 0.05113335821333886 1:0.341404 2:0.135659 3:-0.603896 4:-0.195195 5:-0.0335196 6:-0.446505 7:-0.00952381 8:-0.235165 9:-0.131148 
-0 -0 -0 -2.120012773361166 -0 0 1:0.239709 2:0.0116279 3:-0.733766 4:0.042042 5:-0.0391061 6:-0.389444 7:0.285714 8:-0.164835 9:-0.147541 
-0 -4.999735926584377 -0 -0 -0 0 1:0.254237 2:0.0271318 3:-0.694805 4:0.048048 5:-0.0223464 6:-0.352354 7:0.314286 8:-0.16044 9:-0.0901639 
-7.013509716871924 -4.63257645047034 -0.2038118382991054 -0 -0 0 1:0.191283 2:0.124031 3:-0.386364 4:0.012012 5:-0.24581 6:-0.135521 7:0.285714 8:-0.428571 9:0.122951 
-0 -0 -6.982609881736761 -0 -0 0 1:0.176755 2:0.131783 3:-0.376623 4:-0.00600601 5:-0.26257 6:-0.124108 7:0.342857 8:-0.428571 9:0.168033 
-0 -0 -0 -0 -0 1.548194842890559 1:0.225182 2:0.228682 3:-0.159091 4:-0.144144 5:-0.424581 6:0.101284 7:0.333333 8:-0.498901 9:0.22541 
-0 -0 -0 -0 -0.7529995999518542 0 1:-0.0169492 2:0.0813953 3:-0.279221 4:-0.642643 5:-0.938547 6:0.175464 7:0.0952381 8:-0.696703 9:0.270492 
-0 -0 -0 -0 -0 0.07004509674466078 1:-0.0169492 2:0.0813953 3:-0.285714 4:-0.642643 5:-0.938547 6:0.175464 7:0.0857143 8:-0.696703 9:0.266393 
-0 -0 -0 -0.286328524507817 -0 0 1:0.00242131 2:0.0813953 3:-0.285714 4:-0.63964 5:-0.972067 6:0.192582 7:0.0952381 8:-0.731868 9:0.286885 
-0 -0 -0 -0 -0 1.961113497518487 1:0.263923 2:0.217054 3:-0.0162338 4:-0.201201 5:-0.547486 6:0.298146 7:0.285714 8:-0.56044 9:0.25 
-0 -0 -0 -1.687517663601755 -0 0 1:0.302663 2:0.232558 3:-0.00649351 4:-0.195195 5:-0.547486 6:0.352354 7:0.295238 8:-0.556044 9:0.254098 
-0 -0 -1.387608448759211 -0 -0 0 1:0.317191 2:0.267442 3:0.0227273 4:-0.18018 5:-0.519553 6:0.435093 7:0.495238 8:-0.512088 9:0.331967 
-0 -0 -0.8722361491955886 -0 -0 -0 1:0.559322 2:0.51938 3:-0.512987 4:-0.021021 5:0.603352 6:-0.0984308 7:-0.895238 8:0.956044 9:-0.729508 
-0.526025554053648 -0.3112231755378002 -0 -0.1193377506203596 -0 -0.5459278397177268 1:0.559322 2:0.51938 3:-0.512987 4:-0.03003 5:0.603352 6:-0.112696 7:-0.914286 8:0.956044 9:-0.729508 
-0 -0 -0 -0 -0.2142854505517406 -0 1:0.559322 2:0.51938 3:-0.519481 4:-0.03003 5:0.614525 6:-0.112696 7:-0.914286 8:0.951648 9:-0.758197 
-0 -0.2549282621742754 -0 -0 -0 -0 1:0.583535 2:0.546512 3:-0.50974 4:-0.036036 5:0.659218 6:-0.0927247 7:-0.904762 8:0.991209 9:-0.77459 
-0 -1.45763708387611 -0.4846525669116915 -0 -0 -0 1:-0.57385 2:-0.0968992 3:-0.324675 4:-0.978979 5:0.027933 6:-0.429387 7:-0.980952 8:-0.349451 9:-0.159836 
-6.419653941867017 -0 -0 -0 -0 -0 1:-0.520581 2:-0.0891473 3:-0.324675 4:-0.951952 5:-0.00558659 6:-0.389444 7:-0.904762 8:-0.340659 9:-0.143443 
-0 -0 -0 -0 -6.348340918954693 -0 1:-0.375303 2:-0.0542636 3:-0.295455 4:-0.840841 5:0.122905 6:-0.386591 7:-0.428571 8:-0.353846 9:-0.0409836 
-0.1440669756882028 -0 -0 -0 -0 -0 1:-0.288136 2:-0.0813953 3:-0.295455 4:-0.765766 5:0.111732 6:-0.375178 7:-0.285714 8:-0.397802 9:0.0368852 
-8 -3.520572821013226 -0.2819649682431998 -0 -2.655854795448028 -0 1:-0.196126 2:-0.127907 3:-0.298701 4:-0.612613 5:0.156425 6:-0.392297 7:-0.0380952 8:-0.468132 9:0.118852 
-8 -3.691920557927937 -0 -8 -8 -0 1:-0.176755 2:0.0116279 3:-0.246753 4:-0.204204 5:0.167598 6:-0.323823 7:0.0952381 8:-0.226374 9:-0.29918 
-8 -0 -0 -0 -8 -0 1:-0.138015 2:0.0503876 3:-0.243506 4:-0.204204 5:0.167598 6:-0.286733 7:0.152381 8:-0.226374 9:-0.245902 
-0 -0 -0 -2.93271509096865 -0 -0 1:-0.0217918 2:0.135659 3:-0.237013 4:-0.246246 5:0.106145 6:-0.263909 7:0.161905 8:-0.213187 9:-0.262295 
-0 -0 -0 -0 -0 -1.266687420363165 1:0.0992736 2:0.182171 3:-0.224026 4:-0.267267 5:0.128492 6:-0.232525 7:0.314286 8:-0.182418 9:-0.204918 
-0 -0 -0.7240129331535579 -0 -0 -0 1:0.0702179 2:0.20155 3:-0.217532 4:-0.264264 5:0.117318 6:-0.229672 7:0.295238 8:-0.178022 9:-0.184426 
-7.505485280366202 -0 -0 -1.711161554566469 -0 -0 1:0.128329 2:0.155039 3:-0.214286 4:-0.24024 5:-0.0446927 6:-0.18117 7:-0.0380952 8:-0.349451 9:-0.286885 
-0 -0 -0 -0 -0 -8 1:0.162228 2:0.205426 3:-0.204545 4:-0.246246 5:-0.0111732 6:-0.152639 7:0.047619 8:-0.323077 9:-0.258197 
-0 -0 -3.226854788955732 -0 -0 -0 1:0.283293 2:0.325581 3:-0.155844 4:-0.213213 5:0.178771 6:-0.109843 7:0.161905 8:-0.279121 9:-0.229508 
-0 -0 -0.280591760864343 -0 -0 -0 1:0.68523 2:0.562016 3:-0.496753 4:-0.108108 5:0.871508 6:-0.064194 7:-0.504762 8:0.951648 9:-0.75 
-0 -0 -0 -0 -0.5901223641201395 -2.189049274211734 1:-0.0411622 2:0.0426357 3:-0.334416 4:-0.672673 5:0.184358 6:-0.429387 7:-0.161905 8:-0.415385 9:0.0983607 
-2.637701593947952 -0 -0 -0 -0 -0 1:-0.0411622 2:0.0426357 3:-0.334416 4:-0.675676 5:0.184358 6:-0.429387 7:-0.2 8:-0.415385 9:0.0942623 
-0 -0 -0 -1.474293611412926 -0 -0 1:0.171913 2:0.182171 3:-0.211039 4:-0.309309 5:0.26257 6:-0.229672 7:0.190476 8:-0.0769231 9:-0.233607 
-0 -0 -0 -0 -0 -0.3924797380615129 1:0.68523 2:0.496124 3:-0.555195 4:-0.144144 5:0.899441 6:-0.14408 7:-0.52381 8:0.903297 9:-0.77459 
-0 -0 -0 -0.6207753492387755 -0 -0 1:0.680387 2:0.484496 3:-0.558442 4:-0.174174 5:0.893855 6:-0.146933 7:-0.52381 8:0.872527 9:-0.778689 
-0 -0 -0 -0 -1.48790471559694 -0 1:0.0460048 2:0.0852713 3:-0.275974 4:-0.843844 5:0.346369 6:-0.446505 7:-0.466667 8:-0.226374 9:-0.0368852 
-0 -0 -0 -0 -8 -0 1:0.031477 2:0.0697674 3:-0.288961 4:-0.843844 5:0.335196 6:-0.449358 7:-0.466667 8:-0.221978 9:-0.0368852 
-0 -0 -0 -7.667715612340722 -0 -0 1:0.268765 2:0.189922 3:-0.237013 4:-0.411411 5:0.212291 6:-0.14408 7:0.0285714 8:-0.248352 9:-0.413934 
-0 -0 -0 -0.9657420242274239 -0 -0 1:-0.0508475 3:-0.279221 4:-0.933934 5:0.307263 6:-0.477889 7:-0.714286 8:-0.138462 9:-0.106557 
-0 -0 -0 -0 -0.4175058979696213 -0 1:0.564165 2:0.48062 3:-0.50974 4:-0.453453 5:0.955307 6:-0.158345 7:-0.752381 8:0.876923 9:-0.840164 
-0.1063754433051616 -0 -0 -0 -0 -0 1:0.578692 2:0.503876 3:-0.480519 4:-0.456456 5:0.977654 6:-0.161198 7:-0.914286 8:0.898901 9:-0.872951 
-0 -0.2440027150028265 -0 -0 -0 -0 1:0.578692 2:0.503876 3:-0.480519 4:-0.462462 5:0.977654 6:-0.166904 7:-0.914286 8:0.898901 9:-0.877049 
-0 -0 -0 -0 -0.8061784087058016 -0 1:0.0556901 2:0.0426357 3:-0.201299 4:-0.903904 5:0.463687 6:-0.475036 7:-0.695238 8:-0.0681319 9:-0.147541 
-0.2502725597096277 -0 -0 -0 -0 -0 1:0.00726392 2:-0.0193798 3:-0.217532 4:-0.951952 5:0.391061 6:-0.480742 7:-0.742857 8:-0.107692 9:-0.155738 
-0 -0 -0 -0 -0.311098998519265 -0 1:0.191283 2:0.0930233 3:-0.230519 4:-0.57958 5:0.223464 6:-0.0271041 7:-0.257143 8:-0.230769 9:-0.598361 
-0 -0 -0 -0 -8 -0 1:0.191283 2:0.0930233 3:-0.230519 4:-0.57958 5:0.223464 6:-0.0271041 7:-0.266667 8:-0.230769 9:-0.598361 
