svm_type c_svc
kernel_type rbf
gamma 0.5
nr_class 5
total_sv 721
rho 0.515747 0.295287 -0.000290151 0.351507 0.165174 0.291431 0.572256 0.139388 -0.08545 0.236406
label 1 3 6 8 9
nr_sv 43 138 197 125 218
SV
0 2 0 0 1:-0.748219 2:-0.324578 3:0.215534 4:-0.565318 5:0.471471 6:-0.66303 7:-0.218884 8:-0.328546 9:-0.56551 
0 0.2455791692335913 0.02426357846288037 0 1:-0.748219 2:-0.32833 3:0.215534 4:-0.569942 5:0.471471 6:-0.677576 7:-0.218884 8:-0.339318 9:-0.56551 
0 0.6926225023414307 0 2 1:-0.225653 2:-0.19137 3:0.386408 4:0.412717 5:0.465465 6:-0.384242 7:-0.553648 8:-0.278276 9:-0.101904 
0.4566812293765393 0 0 0 1:-0.220903 2:-0.193246 3:0.386408 4:0.412717 5:0.471471 6:-0.381818 7:-0.553648 8:-0.274686 9:-0.106383 
0.05820790411378909 0 0 1.834097757417031 1:-0.220903 2:-0.193246 3:0.386408 4:0.412717 5:0.471471 6:-0.381818 7:-0.553648 8:-0.274686 9:-0.106383 
2 0 0 0 1:-0.220903 2:-0.172608 3:0.394175 4:0.412717 5:0.486486 6:-0.355152 7:-0.553648 8:-0.267504 9:-0.0772676 
2 0 2 0 1:-0.244656 2:-0.172608 3:0.394175 4:0.396532 5:0.471471 6:-0.369697 7:-0.579399 8:-0.274686 9:-0.0907055 
1.461691265179507 0 0.3750813637448547 0 1:-0.244656 2:-0.178236 3:0.394175 4:0.39422 5:0.471471 6:-0.369697 7:-0.579399 8:-0.274686 9:-0.0907055 
0 0 0 1.260558154136917 1:0.0308789 2:-0.0750469 3:0.763107 4:0.482081 5:0.975976 6:-0.0327273 7:-0.0128755 8:-0.385996 9:0.381859 
0.7011184699954529 0 1.075541085006227 2 1:-0.00712589 2:-0.198874 3:0.549515 4:0.269364 5:0.750751 6:-0.204848 7:-0.545064 8:-0.421903 9:0.24972 
0 0 0 0.8424325889088978 1:-0.0213777 2:-0.20075 3:0.549515 4:0.267052 5:0.744745 6:-0.204848 7:-0.545064 8:-0.425494 9:0.24748 
0 0 0 1.082396826556689 1:-0.0118765 2:-0.202627 3:0.576699 4:0.253179 5:0.741742 6:-0.204848 7:-0.545064 8:-0.425494 9:0.24972 
0 0 0 1.854758186743167 1:-0.0023753 2:-0.183865 3:0.584466 4:0.255491 5:0.750751 6:-0.192727 7:-0.502146 8:-0.400359 9:0.265398 
0 0 0 2 1:-0.0023753 2:-0.183865 3:0.580583 4:0.255491 5:0.744745 6:-0.192727 7:-0.51073 8:-0.414722 9:0.265398 
0 0 0 2 1:-0.0118765 2:-0.183865 3:0.580583 4:0.255491 5:0.744745 6:-0.192727 7:-0.51073 8:-0.414722 9:0.263158 
0 0.001617953435891391 0 0 1:-0.809976 2:-0.161351 3:0.646602 4:-0.465896 5:0.213213 6:-0.289697 7:-0.476395 8:-0.895871 9:0.0167973 
0 2 0 0 1:-0.809976 2:-0.161351 3:0.646602 4:-0.465896 5:0.213213 6:-0.284848 7:-0.476395 8:-0.895871 9:0.0167973 
0 0 0 1.259616675016304 1:-0.852732 2:-0.161351 3:0.666019 4:-0.537572 5:0.165165 6:-0.29697 7:-0.536481 8:-0.924596 9:-0.00111982 
0 2 0.7620078182598762 2 1:-0.852732 2:-0.161351 3:0.666019 4:-0.546821 5:0.156156 6:-0.29697 7:-0.536481 8:-0.924596 9:-0.00111982 
0 2 0 2 1:-0.847981 2:-0.144465 3:0.669903 4:-0.544509 5:0.165165 6:-0.284848 7:-0.51073 8:-0.885099 9:0.0055991 
0.7173574490126283 0 1.098093943495565 0 1:-0.315914 2:-0.114447 3:0.359223 4:-0.0450867 5:-0.231231 6:-0.425455 7:0.175966 8:-0.0736086 9:-0.357223 
0.4422651843953458 0 0 0 1:-0.84323 2:-0.373358 3:0.21165 4:-0.738728 5:0.324324 6:-0.735758 7:-0.0901288 8:-0.292639 9:-0.87682 
0 0.4841947655020348 0.159924795870093 0 1:-0.84323 2:-0.35272 3:0.215534 4:-0.738728 5:0.324324 6:-0.735758 7:-0.0901288 8:-0.292639 9:-0.867861 
0 1.188530545194385 0 0 1:-0.368171 2:0.0769231 3:0.502913 4:0.0358382 5:0.630631 6:-0.175758 7:-0.287554 8:-0.0951526 9:0.525196 
0 2 1.40169350320147 0 1:-0.382423 2:0.0881801 3:0.471845 4:0.0358382 5:0.630631 6:-0.18303 7:-0.270386 8:-0.0879713 9:0.50056 
2 2 2 0.611121403842627 1:-0.382423 2:0.0881801 3:0.467961 4:0.0358382 5:0.627628 6:-0.185455 7:-0.287554 8:-0.105925 9:0.50056 
0 0 0 0.02958987063871491 1:-0.344418 3:0.394175 4:-0.163006 5:-0.291291 6:-0.369697 7:0.347639 8:-0.048474 9:-0.316909 
2 2 2 2 1:-0.349169 3:0.394175 4:-0.16763 5:-0.297297 6:-0.37697 7:0.321888 8:-0.048474 9:-0.316909 
0 0.816471526760319 0.09692162924971209 0 1:-0.35867 2:-0.00187617 3:0.394175 4:-0.16763 5:-0.297297 6:-0.37697 7:0.321888 8:-0.0520646 9:-0.316909 
0 2 0 2 1:-0.36342 2:-0.00187617 3:0.394175 4:-0.169942 5:-0.297297 6:-0.37697 7:0.321888 8:-0.070018 9:-0.316909 
0 0.07881507133199411 0 0 1:0.0261283 2:-0.639775 3:0.949515 4:0.315607 5:0.840841 6:-0.0981818 7:0.545064 8:-0.633752 9:0.348264 
0 2 0 1.040317532517757 1:0.0261283 2:-0.63227 3:0.949515 4:0.315607 5:0.840841 6:-0.0981818 7:0.545064 8:-0.633752 9:0.350504 
0.2889396507888524 0 0 0 1:0.0213777 2:-0.667917 3:1 4:0.310983 5:0.876877 6:-0.0763636 7:0.562232 8:-0.637343 9:0.368421 
0 0.6250594574858601 0 0 1:-0.102138 2:-0.439024 3:0.592233 4:-0.0843931 5:0.510511 6:-0.26303 7:-0.0901288 8:-0.479354 9:0.225084 
0 2 0 0 1:-0.102138 2:-0.439024 3:0.592233 4:-0.0843931 5:0.510511 6:-0.26303 7:-0.0901288 8:-0.479354 9:0.225084 
0 2 0 0 1:-0.11639 2:-0.457786 3:0.603883 4:-0.116763 5:0.498498 6:-0.270303 7:-0.0729614 8:-0.533214 9:0.222844 
0 2 0 2 1:-0.976247 2:-0.234522 3:0.603883 4:-1 5:-0.267267 6:-0.36 7:-0.459227 8:-0.601436 9:-0.106383 
0 2 0 1.901944165586732 1:-0.976247 2:-0.234522 3:0.61165 4:-1 5:-0.264264 6:-0.36 7:-0.450644 8:-0.601436 9:-0.106383 
0 2 0 2 1:-0.971496 2:-0.234522 3:0.615534 4:-1 5:-0.261261 6:-0.355152 7:-0.450644 8:-0.594255 9:-0.106383 
0 0.7322393728796787 0 0 1:-0.966746 2:-0.234522 3:0.623301 4:-1 5:-0.255255 6:-0.355152 7:-0.424893 8:-0.594255 9:-0.104143 
0 2 1.373907791510005 0 1:-0.976247 2:-0.255159 3:0.6 4:-1 5:-0.243243 6:-0.347879 7:-0.502146 8:-0.583483 9:-0.106383 
0 1.799677007944799 0 0 1:-0.980998 2:-0.255159 3:0.6 4:-1 5:-0.249249 6:-0.355152 7:-0.502146 8:-0.590664 9:-0.106383 
1.977627406171586 0 0 0 1:-0.980998 2:-0.257036 3:0.596117 4:-1 5:-0.249249 6:-0.355152 7:-0.502146 8:-0.590664 9:-0.113102 
-0 0 1.088950427102855 0 1:-0.268409 2:0.251407 3:0.176699 4:-0.0427746 5:0.162162 6:0.684848 7:-0.381974 8:-0.0807899 9:0.238522 
-0 0 2 0 1:-0.292162 2:0.24015 3:0.161165 4:-0.0427746 5:0.135135 6:0.667879 7:-0.381974 8:-0.0879713 9:0.211646 
-0 0 2 0 1:-0.292162 2:0.24015 3:0.157282 4:-0.0450867 5:0.135135 6:0.667879 7:-0.381974 8:-0.0879713 9:0.211646 
-0 0 2 0 1:-0.268409 2:0.242026 3:0.161165 4:-0.0427746 5:0.138138 6:0.667879 7:-0.381974 8:-0.070018 9:0.216125 
-0 0.4481080957805359 0 0 1:-0.301663 2:0.20075 3:0.238835 4:-0.0381503 5:0.219219 6:0.747879 7:-0.347639 8:-0.131059 9:0.285554 
-0.7013559121360808 0 0 0 1:-0.36342 2:0.144465 3:0.227184 4:-0.0381503 5:0.207207 6:0.77697 7:-0.424893 8:-0.184919 9:0.294513 
-0 2 2 1.355807739783931 1:0.353919 2:0.170732 3:-0.786408 4:0.812717 5:-0.591592 6:-0.740606 7:-0.399142 8:-0.0305206 9:-0.473684 
-0 0 2 0 1:0.353919 2:0.170732 3:-0.786408 4:0.810405 5:-0.591592 6:-0.740606 7:-0.416309 8:-0.0305206 9:-0.473684 
-2 0 0 0 1:0.140143 2:0.0187617 3:0.238835 4:0.528324 5:0.573574 6:-0.287273 7:-0.83691 8:-0.174147 9:0.075028 
-2 0 0 2 1:0.154394 2:0.0694184 3:0.242718 4:0.528324 5:0.600601 6:-0.284848 7:-0.828326 8:-0.170557 9:0.0884658 
-0.5032027533866997 0 0 1.866852328051544 1:0.154394 2:0.155722 3:0.242718 4:0.537572 5:0.600601 6:-0.253333 7:-0.828326 8:-0.138241 9:0.0884658 
-0 0 0 2 1:0.159145 2:0.206379 3:0.250485 4:0.537572 5:0.615616 6:-0.229091 7:-0.819742 8:-0.127469 9:0.0974244 
-0 1.540639849344086 0 0 1:0.125891 2:0.217636 3:0.207767 4:0.505202 5:0.600601 6:-0.250909 7:-0.785408 8:-0.0987433 9:0.0996641 
-0 0 1.731500584620326 0 1:0.106888 2:0.21576 3:0.184466 4:0.486705 5:0.570571 6:-0.270303 7:-0.83691 8:-0.131059 9:0.0996641 
-0.4252166465391115 0.3670783354536962 0 0.3268629171729566 1:0.805226 2:-0.750469 3:0.215534 4:0.986127 5:0.273273 6:-0.432727 7:0.862661 8:-0.482944 9:0.0593505 
-0 1.061121737578831 0 1.626200758265498 1:0.805226 2:-0.196998 3:0.238835 4:0.974566 5:0.408408 6:-0.187879 7:0.819742 8:-0.292639 9:0.209406 
-0.5655810282397544 0 0 0 1:0.786223 2:-0.198874 3:0.219417 4:0.96763 5:0.381381 6:-0.2 7:0.83691 8:-0.292639 9:0.198208 
-0 0.5056798736913253 0.3598428193323407 0 1:0.786223 2:-0.198874 3:0.219417 4:0.96763 5:0.381381 6:-0.202424 7:0.83691 8:-0.29982 9:0.198208 
-0 1.412021075332697 0 1.178080198161194 1:0.60095 2:-1 3:-0.153398 4:0.537572 5:-0.135135 6:-0.949091 7:-0.553648 8:-0.766607 9:-0.245241 
-0 0 0 1.583920480874071 1:0.619952 2:-0.849906 3:-0.137864 4:0.521387 5:-0.135135 6:-0.883636 7:-0.545064 8:-0.701975 9:-0.220605 
-0 0 0 2 1:-0.334917 2:0.407129 3:0.370874 4:-0.514451 5:0.03003 6:-0.0836364 7:-0.27897 8:0.202873 9:0.133259 
-0 0 0 2 1:-0.349169 2:0.407129 3:0.370874 4:-0.514451 5:0.03003 6:-0.0836364 7:-0.296137 8:0.202873 9:0.133259 
-0 0 0 2 1:-0.334917 2:0.452158 3:0.382524 4:-0.47052 5:0.042042 6:-0.0787879 7:-0.27897 8:0.202873 9:0.148936 
-0 2 0 0 1:-0.334917 2:0.465291 3:0.394175 4:-0.468208 5:0.141141 6:-0.0109091 7:-0.27897 8:0.249551 9:0.18477 
-0 2 0 0.03288853141502692 1:-0.330166 2:0.532833 3:0.405825 4:-0.468208 5:0.177177 6:-0.0109091 7:-0.270386 8:0.249551 9:0.225084 
-0 2 0 0 1:-0.330166 2:0.575985 3:0.405825 4:-0.424277 5:0.177177 6:-0.00848485 7:-0.270386 8:0.249551 9:0.225084 
-0 1.659775984911596 0 0 1:-0.349169 2:0.570356 3:0.359223 4:-0.493642 5:0.144144 6:-0.0109091 7:-0.27897 8:0.231598 9:0.218365 
-0 2 0 0 1:-0.349169 2:0.532833 3:0.351456 4:-0.493642 5:0.138138 6:-0.030303 7:-0.296137 8:0.202873 9:0.198208 
-0 2 0 0 1:-0.349169 2:0.532833 3:0.359223 4:-0.472832 5:0.144144 6:-0.030303 7:-0.296137 8:0.202873 9:0.198208 
-0 2 0 0 1:-0.349169 2:0.540338 3:0.359223 4:-0.47052 5:0.144144 6:-0.030303 7:-0.296137 8:0.202873 9:0.198208 
-0 2 0 0 1:-0.349169 2:0.540338 3:0.36699 4:-0.468208 5:0.144144 6:-0.030303 7:-0.287554 8:0.202873 9:0.198208 
-0 2 0 0 1:-0.349169 2:0.540338 3:0.36699 4:-0.468208 5:0.144144 6:-0.030303 7:-0.287554 8:0.202873 9:0.198208 
-0 2 0 0 1:-0.349169 2:0.525328 3:0.351456 4:-0.461272 5:0.138138 6:-0.0424242 7:-0.296137 8:0.184919 9:0.18701 
-0 2 0 0 1:-0.36342 2:0.512195 3:0.351456 4:-0.461272 5:0.123123 6:-0.0424242 7:-0.304721 8:0.166966 9:0.18701 
-0 0 0 1.282739286375524 1:-0.36342 2:0.512195 3:0.343689 4:-0.477457 5:0.111111 6:-0.0424242 7:-0.304721 8:0.149013 9:0.180291 
-0 2 0 2 1:-0.36342 2:0.470919 3:0.343689 4:-0.449711 5:0.108108 6:-0.0545455 7:-0.304721 8:0.120287 9:0.173572 
-0 2 0 2 1:-0.36342 2:0.446529 3:0.343689 4:-0.449711 5:0.0930931 6:-0.0593939 7:-0.321888 8:0.116697 9:0.164614 
-0 0.03301117741812575 0 2 1:-0.325416 2:0.489681 3:0.351456 4:-0.45896 5:0.102102 6:-0.0666667 7:-0.304721 8:0.177738 9:0.157895 
-0 0 0 2 1:-0.344418 2:0.478424 3:0.320388 4:-0.45896 5:0.0870871 6:-0.0812121 7:-0.347639 8:0.120287 9:0.144457 
-0 0 0 2 1:-0.344418 2:0.470919 3:0.316505 4:-0.45896 5:0.0750751 6:-0.0836364 7:-0.347639 8:0.113106 9:0.137738 
-2 0 0 2 1:-0.36342 2:0.354597 3:0.28932 4:-0.424277 5:0.033033 6:-0.115152 7:-0.356223 8:0.0628366 9:0.106383 
-1.615660911839471 0 0 0 1:-0.36342 2:0.354597 3:0.281553 4:-0.424277 5:0.03003 6:-0.117576 7:-0.364807 8:0.0628366 9:0.106383 
-0 0 0.3335436915833329 0 1:-0.36342 2:0.354597 3:0.266019 4:-0.42659 5:0.027027 6:-0.117576 7:-0.373391 8:0.0628366 9:0.106383 
-0 0 0 0.8269296135959205 1:-0.0356295 2:-0.32833 3:0.00582524 4:0.165318 5:-0.18018 6:-0.621818 7:-0.51073 8:-0.497307 9:-0.207167 
-0 0 0 2 1:-0.04038 2:-0.337711 3:0.00582524 4:0.165318 5:-0.18018 6:-0.621818 7:-0.51073 8:-0.504488 9:-0.207167 
-0 0 0 2 1:-0.0356295 2:-0.32833 3:0.0174757 4:0.169942 5:-0.174174 6:-0.61697 7:-0.51073 8:-0.497307 9:-0.207167 
-1.89927315430835 0 0 0 1:-0.0308789 2:-0.313321 3:0.0213592 4:0.169942 5:-0.174174 6:-0.609697 7:-0.476395 8:-0.4614 9:-0.202688 
-0 0 0 2 1:0.0023753 2:-0.313321 3:0.0213592 4:0.172254 5:-0.174174 6:-0.609697 7:-0.467811 8:-0.45781 9:-0.202688 
-0.3370560774802729 0 0 2 1:0.0023753 2:-0.300188 3:0.0291262 4:0.169942 5:-0.189189 6:-0.609697 7:-0.433476 8:-0.454219 9:-0.202688 
-0 2 0 0 1:-0.667458 2:-0.296435 3:-0.149515 4:-0.417341 5:-0.510511 6:-0.878788 7:-0.725322 8:-0.508079 9:-0.419933 
-1.21842902133046 0 0 0 1:-0.686461 2:-0.27955 3:-0.0679612 4:-0.292486 5:-0.432432 6:-0.82303 7:-0.76824 8:-0.633752 9:-0.388578 
-0 0 0 0.05383108623138298 1:-0.605701 2:-0.270169 3:-0.0679612 4:-0.271676 5:-0.435435 6:-0.827879 7:-0.725322 8:-0.587074 9:-0.397536 
-0 1.970176250354076 0 2 1:-0.605701 2:-0.270169 3:-0.0679612 4:-0.287861 5:-0.447447 6:-0.830303 7:-0.725322 8:-0.587074 9:-0.402016 
-0 0 0 2 1:-0.605701 2:-0.281426 3:-0.0796117 4:-0.287861 5:-0.492492 6:-0.832727 7:-0.725322 8:-0.587074 9:-0.417693 
-0 0 0 2 1:-0.586698 2:-0.270169 3:-0.0679612 4:-0.287861 5:-0.468468 6:-0.832727 7:-0.725322 8:-0.576302 9:-0.402016 
-0 0 0 0.2838633254499578 1:-0.543943 2:-0.0731707 3:0.0330097 4:-0.301734 5:-0.36036 6:-0.655758 7:-0.733906 8:-0.375224 9:-0.298992 
-0 0 2 0 1:0.0308789 2:0.624765 3:0.475728 4:0.465896 5:0.234234 6:1 7:-0.536481 8:0.605027 9:0.789474 
-0 0 1.246493484777967 0 1:0.0308789 2:0.624765 3:0.475728 4:0.463584 5:0.243243 6:1 7:-0.519313 8:0.594255 9:0.793953 
-0 1.009847437839833 0 0 1:0.254157 2:0.318949 3:-0.891262 4:0.72948 5:-0.75976 6:-0.745455 7:-0.682403 8:-0.0664273 9:-0.527436 
-0 0.9885109042994271 0 0 1:0.287411 2:0.358349 3:-0.937864 4:0.74104 5:-0.84985 6:-0.764848 7:-0.613734 8:0.02693 9:-0.536394 
-0 0 2 0 1:0.173397 2:0.322702 3:0.180583 4:0.419653 5:0.489489 6:-0.255758 7:-0.811159 8:-0.102334 9:0.108623 
-0 0 2 0 1:0.173397 2:0.322702 3:0.180583 4:0.380347 5:0.489489 6:-0.255758 7:-0.811159 8:-0.102334 9:0.108623 
-0 0 2 0 1:0.206651 2:0.395872 3:0.18835 4:0.380347 5:0.501502 6:-0.241212 7:-0.802575 8:-0.0197487 9:0.115342 
-0 0 2 0 1:0.159145 2:0.514071 3:0.149515 4:0.371098 5:0.396396 6:-0.207273 7:-0.819742 8:-0.016158 9:0.119821 
-0 0 0.987612587457506 0 1:0.914489 2:-0.0900563 3:0.192233 4:0.835838 5:0.18018 6:-0.246061 7:0.896996 8:-0.184919 9:0.139978 
-0 0 0.02463012613610728 0 1:0.553444 2:-0.688555 3:-0.157282 4:0.442775 5:-0.126126 6:-0.806061 7:-0.630901 8:-0.630162 9:-0.18925 
-0 0 2 0 1:-0.301663 2:0.405253 3:0.254369 4:-0.521387 5:-0.00900901 6:-0.139394 7:-0.347639 8:0.141831 9:0.0862262 
-0 0 2 0 1:-0.301663 2:0.405253 3:0.250485 4:-0.523699 5:-0.018018 6:-0.141818 7:-0.347639 8:0.141831 9:0.0839866 
-0 0 2 0.2079134509473681 1:-0.301663 2:0.418386 3:0.250485 4:-0.523699 5:-0.018018 6:-0.141818 7:-0.339056 8:0.145422 9:0.0839866 
-0 0 2 2 1:-0.292162 2:0.454034 3:0.250485 4:-0.523699 5:-0.018018 6:-0.141818 7:-0.330472 8:0.170557 9:0.0839866 
-0 0 2 0 1:-0.273159 2:0.457786 3:0.250485 4:-0.523699 5:-0.018018 6:-0.141818 7:-0.330472 8:0.210054 9:0.0839866 
-0 0 2 0 1:-0.273159 2:0.472795 3:0.250485 4:-0.523699 5:-0.018018 6:-0.141818 7:-0.321888 8:0.231598 9:0.0839866 
-0 0 2 0 1:-0.268409 2:0.487805 3:0.21165 4:-0.576879 5:-0.0720721 6:-0.139394 7:-0.330472 8:0.24237 9:0.0817469 
-0 0 2 0 1:-0.273159 2:0.487805 3:0.21165 4:-0.586127 5:-0.0720721 6:-0.146667 7:-0.330472 8:0.238779 9:0.0817469 
-0 0 2 0 1:-0.273159 2:0.510319 3:0.215534 4:-0.586127 5:-0.0720721 6:-0.139394 7:-0.321888 8:0.278276 9:0.0817469 
-0 0 2 0 1:-0.268409 2:0.512195 3:0.234951 4:-0.588439 5:-0.045045 6:-0.144242 7:-0.313305 8:0.29623 9:0.0884658 
-0 0 2 0 1:-0.287411 2:0.491557 3:0.223301 4:-0.606936 5:-0.0780781 6:-0.139394 7:-0.347639 8:0.263914 9:0.0683091 
-0 0 2 0 1:-0.292162 2:0.448405 3:0.207767 4:-0.597688 5:-0.111111 6:-0.149091 7:-0.399142 8:0.24237 9:0.0503919 
-0 0 2 0 1:-0.287411 2:0.476548 3:0.180583 4:-0.611561 5:-0.132132 6:-0.153939 7:-0.407725 8:0.256732 9:0.0324748 
-0 0 2 0 1:-0.292162 2:0.476548 3:0.172816 4:-0.613873 5:-0.141141 6:-0.163636 7:-0.407725 8:0.256732 9:0.0324748 
-0 0 2 0 1:-0.292162 2:0.476548 3:0.172816 4:-0.623121 5:-0.144144 6:-0.163636 7:-0.407725 8:0.256732 9:0.0324748 
-0 0 0.2127034398263467 0 1:-0.306413 2:0.470919 3:0.172816 4:-0.625434 5:-0.144144 6:-0.163636 7:-0.424893 8:0.24237 9:0.0324748 
-0 0 2 0 1:-0.306413 2:0.470919 3:0.172816 4:-0.625434 5:-0.141141 6:-0.163636 7:-0.424893 8:0.24237 9:0.0324748 
-0 0 2 0 1:-0.306413 2:0.470919 3:0.172816 4:-0.625434 5:-0.132132 6:-0.153939 7:-0.416309 8:0.24237 9:0.0347144 
-0 0 2 2 1:0.0356295 2:-0.183865 3:0.0330097 4:0.0219653 5:-0.222222 6:-0.556364 7:-0.381974 8:-0.278276 9:-0.193729 
-0 0 2 0 1:0.0356295 2:-0.183865 3:0.0330097 4:0.0520231 5:-0.222222 6:-0.556364 7:-0.381974 8:-0.263914 9:-0.193729 
-0 0 2 1.491948425521849 1:0.04038 2:-0.183865 3:0.0330097 4:0.0566474 5:-0.216216 6:-0.551515 7:-0.356223 8:-0.253142 9:-0.18701 
-0 0 2 0 1:0.04038 2:-0.183865 3:0.0446602 4:0.0589595 5:-0.213213 6:-0.539394 7:-0.356223 8:-0.231598 9:-0.182531 
-0 0 2 0 1:0.0451306 2:-0.180113 3:0.0446602 4:0.0843931 5:-0.207207 6:-0.529697 7:-0.356223 8:-0.231598 9:-0.180291 
-0 0 2 0 1:0.04038 2:-0.180113 3:0.0446602 4:0.0982659 5:-0.195195 6:-0.534545 7:-0.424893 8:-0.263914 9:-0.178052 
-0 0 0 0.718893388560098 1:-0.505938 2:0.287054 3:0.658252 4:-0.190751 5:-0.0810811 6:0.992727 7:-0.527897 8:-0.238779 9:0.417693 
-0.2653606562333545 0 0 0.7607302234212343 1:0.064133 2:0.624765 3:0.848544 4:0.435838 5:0.354354 6:1 7:-0.175966 8:0.590664 9:0.932811 
-0 1.916264142949042 0 0 1:0.0688836 2:0.624765 3:0.786408 4:0.440462 5:0.354354 6:1 7:-0.167382 8:0.601436 9:0.903695 
-0 0 0 2 1:0.36342 2:0.589118 3:-0.902913 4:0.523699 5:-0.873874 6:-0.629091 7:-0.519313 8:0.174147 9:-0.433371 
-0 0 0 0.04786498957880746 1:0.353919 2:0.58349 3:-0.902913 4:0.523699 5:-0.873874 6:-0.629091 7:-0.527897 8:0.163375 9:-0.433371 
-0 0 0.8545988485652564 0 1:0.244656 2:0.512195 3:-0.743689 4:0.530636 5:-0.672673 6:-0.551515 7:-0.553648 8:0.0556553 9:-0.323628 
-0 0 2 0 1:0.244656 2:0.512195 3:-0.743689 4:0.528324 5:-0.672673 6:-0.551515 7:-0.553648 8:0.0556553 9:-0.323628 
-0 0 2 0 1:0.173397 2:0.484053 3:-0.607767 4:0.523699 5:-0.528529 6:-0.529697 7:-0.579399 8:0.00179533 9:-0.290034 
-0 0 2 0 1:0.173397 2:0.484053 3:-0.615534 4:0.521387 5:-0.531532 6:-0.532121 7:-0.579399 8:0.00179533 9:-0.294513 
-0 0 2 0 1:0.173397 2:0.484053 3:-0.634951 4:0.509827 5:-0.561562 6:-0.549091 7:-0.579399 8:0.00179533 9:-0.305711 
-0 0 2 0 1:0.315914 2:0.662289 3:0.223301 4:0.310983 5:0.237237 6:-0.166061 7:-0.587983 8:0.271095 9:0.119821 
-0 0 2 0 1:0.315914 2:0.662289 3:0.207767 4:0.310983 5:0.222222 6:-0.166061 7:-0.596567 8:0.271095 9:0.108623 
-0 0 2 0 1:0.315914 2:0.658537 3:0.207767 4:0.308671 5:0.222222 6:-0.175758 7:-0.596567 8:0.271095 9:0.108623 
-0 0 2 0 1:0.334917 2:0.658537 3:0.207767 4:0.310983 5:0.207207 6:-0.175758 7:-0.596567 8:0.271095 9:0.0862262 
-0 0 2 0 1:0.334917 2:0.658537 3:0.207767 4:0.315607 5:0.207207 6:-0.166061 7:-0.596567 8:0.271095 9:0.0862262 
-0 0 2 0 1:0.349169 2:0.658537 3:0.207767 4:0.317919 5:0.207207 6:-0.166061 7:-0.596567 8:0.271095 9:0.0862262 
-0 0 2 0 1:0.353919 2:0.658537 3:0.207767 4:0.317919 5:0.207207 6:-0.166061 7:-0.596567 8:0.285458 9:0.0862262 
-0 0 2 0 1:0.353919 2:0.662289 3:0.192233 4:0.315607 5:0.192192 6:-0.175758 7:-0.596567 8:0.285458 9:0.0862262 
-0 0 2 0 1:0.353919 2:0.65666 3:0.18835 4:0.313295 5:0.186186 6:-0.175758 7:-0.596567 8:0.271095 9:0.0839866 
-0 0 2 0 1:0.353919 2:0.654784 3:0.18835 4:0.313295 5:0.186186 6:-0.175758 7:-0.596567 8:0.271095 9:0.0817469 
-0 0 2 0 1:0.353919 2:0.652908 3:0.18835 4:0.313295 5:0.186186 6:-0.175758 7:-0.622318 8:0.271095 9:0.0795073 
-0 0 2 0 1:0.349169 2:0.645403 3:0.18835 4:0.313295 5:0.186186 6:-0.175758 7:-0.622318 8:0.271095 9:0.0795073 
-0 0 2 0 1:0.353919 2:0.645403 3:0.18835 4:0.315607 5:0.186186 6:-0.175758 7:-0.596567 8:0.274686 9:0.0795073 
-0 0 2 0 1:0.353919 2:0.645403 3:0.18835 4:0.317919 5:0.189189 6:-0.175758 7:-0.596567 8:0.274686 9:0.0795073 
-0 0 2 0 1:0.353919 2:0.645403 3:0.18835 4:0.322543 5:0.189189 6:-0.175758 7:-0.596567 8:0.274686 9:0.0817469 
-0 0 2 0 1:0.353919 2:0.645403 3:0.192233 4:0.324855 5:0.189189 6:-0.175758 7:-0.596567 8:0.274686 9:0.0817469 
-0 0.5357037661831551 0 0 1:0.990499 2:-0.0300188 3:0.219417 4:0.750289 5:0.0690691 6:-0.226667 7:1 8:0.070018 9:0.0996641 
-0 0 0.8299297001169182 1.003576577026722 1:1 2:-0.0225141 3:0.184466 4:0.734104 5:0.027027 6:-0.229091 7:0.982833 8:0.070018 9:0.0884658 
-0.08146394793051051 0 0 0 1:0.976247 2:-0.0731707 3:0.165049 4:0.722543 5:-0.018018 6:-0.236364 7:0.974249 8:0.070018 9:0.0638298 
-0 0 0.7888926289129858 0 1:0.415677 2:-0.574109 3:-0.0291262 4:0.304046 5:-0.0570571 6:-0.706667 7:-0.519313 8:-0.536804 9:-0.106383 
-0 0 2 2 1:-0.249406 2:0.688555 3:0.149515 4:-0.861272 5:-0.183183 6:-0.134545 7:-0.347639 8:0.56553 9:0.0324748 
-0 0 0 1.072307443899725 1:-0.28266 2:0.688555 3:0.141748 4:-0.861272 5:-0.189189 6:-0.134545 7:-0.347639 8:0.543986 9:0.0279955 
-0 0 0 2 1:-0.27791 2:0.615385 3:0.207767 4:-0.80578 5:-0.153153 6:-0.132121 7:-0.330472 8:0.543986 9:0.0459127 
-0 0 0 2 1:-0.0546318 2:-0.247655 3:0.00582524 4:0.00115607 5:-0.27027 6:-0.590303 7:-0.424893 8:-0.35368 9:-0.195969 
-0 0 0 2 1:-0.0546318 2:-0.245779 3:0.00970874 4:0.00115607 5:-0.255255 6:-0.578182 7:-0.424893 8:-0.35368 9:-0.193729 
-0 0 0 2 1:-0.0546318 2:-0.242026 3:0.0252427 4:0.00115607 5:-0.249249 6:-0.573333 7:-0.424893 8:-0.35368 9:-0.18701 
-0 1.741600887471225 0 0 1:-0.0783848 2:-0.24015 3:0.0330097 4:-0.017341 5:-0.237237 6:-0.568485 7:-0.44206 8:-0.357271 9:-0.180291 
-0.4912884496096343 2 0 0 1:-0.0831354 2:-0.245779 3:0.0330097 4:-0.017341 5:-0.237237 6:-0.568485 7:-0.44206 8:-0.364452 9:-0.180291 
-0 2 2 0.02326368107766039 1:-0.0831354 2:-0.238274 3:0.00970874 4:-0.0473988 5:-0.252252 6:-0.568485 7:-0.44206 8:-0.357271 9:-0.18477 
-0 0 2 0 1:-0.0831354 2:-0.238274 3:-0.00582524 4:-0.0520231 5:-0.261261 6:-0.568485 7:-0.450644 8:-0.357271 9:-0.18477 
-0 0 2 0 1:-0.0831354 2:-0.238274 3:-0.00970874 4:-0.0566474 5:-0.27027 6:-0.568485 7:-0.450644 8:-0.357271 9:-0.18477 
-0 0 2 0 1:-0.0831354 2:-0.238274 3:-0.0135922 4:-0.0566474 5:-0.276276 6:-0.568485 7:-0.459227 8:-0.357271 9:-0.18925 
-0 0 2 0 1:-0.0831354 2:-0.238274 3:-0.0135922 4:-0.0635838 5:-0.276276 6:-0.573333 7:-0.459227 8:-0.357271 9:-0.18925 
-0 0 2 0 1:-0.0831354 2:-0.195122 3:-0.00582524 4:-0.0566474 5:-0.27027 6:-0.568485 7:-0.450644 8:-0.29982 9:-0.18477 
-0 0 1.473602520451948 0 1:-0.0831354 2:-0.193246 3:-0.00582524 4:-0.0520231 5:-0.27027 6:-0.561212 7:-0.450644 8:-0.289048 9:-0.18477 
-0 0 2 0 1:-0.0736342 2:-0.19137 3:-0.00194175 4:-0.0520231 5:-0.267267 6:-0.561212 7:-0.44206 8:-0.289048 9:-0.175812 
-0 0 2 0 1:-0.087886 2:-0.193246 3:-0.0135922 4:-0.049711 5:-0.27027 6:-0.566061 7:-0.459227 8:-0.307002 9:-0.18477 
-0 0 0.4426788584265349 0 1:-0.567696 2:-0.0994371 3:-0.176699 4:-0.630058 5:-0.663664 6:-0.76 7:-0.939914 8:-0.163375 9:-0.431131 
-0 -0 0 1.533056099572896 1:-0.325416 2:-0.0825516 3:-0.316505 4:-0.301734 5:0.228228 6:-0.786667 7:-0.373391 8:-0.174147 9:-0.964166 
-0 -0 0 2 1:-0.349169 2:-0.0393996 3:-0.304854 4:-0.334104 5:0.21021 6:-0.784242 7:-0.339056 8:-0.152603 9:-0.93505 
-0 -0 0 2 1:-0.349169 3:-0.300971 4:-0.334104 5:0.21021 6:-0.781818 7:-0.330472 8:-0.105925 9:-0.903695 
-0 -0 0 2 1:-0.349169 2:0.00375235 3:-0.304854 4:-0.345665 5:0.198198 6:-0.784242 7:-0.321888 8:-0.105925 9:-0.910414 
-0 -0 0 2 1:-0.35867 2:0.00375235 3:-0.304854 4:-0.347977 5:0.198198 6:-0.789091 7:-0.330472 8:-0.109515 9:-0.910414 
-0 -0 0 2 1:-0.368171 2:-0.0281426 3:-0.304854 4:-0.350289 5:0.198198 6:-0.798788 7:-0.339056 8:-0.145422 9:-0.910414 
-0 -0 0 2 1:-0.377672 2:-0.0356473 3:-0.304854 4:-0.354913 5:0.198198 6:-0.803636 7:-0.339056 8:-0.163375 9:-0.910414 
-0 -0 0 2 1:-0.377672 2:-0.0356473 3:-0.304854 4:-0.354913 5:0.198198 6:-0.803636 7:-0.339056 8:-0.163375 9:-0.899216 
-0 -0 0 2 1:-0.149644 2:0.622889 3:-0.262136 4:0.0589595 5:0.036036 6:-0.447273 7:-0.0300429 8:0.597846 9:-0.276596 
-0 -0 0 2 1:-0.149644 2:0.624765 3:-0.262136 4:0.0635838 5:0.036036 6:-0.444848 7:-0.0300429 8:0.601436 9:-0.276596 
-0 -0 0 2 1:-0.163895 2:0.622889 3:-0.28932 4:0.0196532 5:0.00600601 6:-0.447273 7:-0.0901288 8:0.601436 9:-0.285554 
-0 -0 0 0.3789498114283685 1:-0.163895 2:0.624765 3:-0.285437 4:0.0219653 5:0.00600601 6:-0.447273 7:-0.0815451 8:0.608618 9:-0.285554 
-0 -0 0 2 1:-0.173397 2:0.624765 3:-0.285437 4:0.0196532 5:-0.00900901 6:-0.444848 7:-0.0729614 8:0.615799 9:-0.287794 
-0 -0 0 2 1:-0.182898 2:0.624765 3:-0.28932 4:0.0196532 5:-0.00900901 6:-0.444848 7:-0.0815451 8:0.612208 9:-0.296753 
-0 -0 0 2 1:-0.182898 2:0.624765 3:-0.285437 4:0.0196532 5:-0.003003 6:-0.444848 7:-0.0729614 8:0.612208 9:-0.287794 
-0 -0 0 2 1:-0.173397 2:0.624765 3:-0.246602 4:0.0219653 5:0.00900901 6:-0.442424 7:-0.0643777 8:0.615799 9:-0.278835 
-0 -0 0 2 1:-0.173397 2:0.624765 3:-0.242718 4:0.0265896 5:0.036036 6:-0.435152 7:-0.0643777 8:0.615799 9:-0.274356 
-0 -0 0 2 1:-0.168646 2:0.624765 3:-0.234951 4:0.0219653 5:0.039039 6:-0.442424 7:-0.0643777 8:0.615799 9:-0.267637 
-0 -0 0 2 1:-0.182898 2:0.624765 3:-0.234951 4:0.0219653 5:0.039039 6:-0.442424 7:-0.0643777 8:0.597846 9:-0.276596 
-0 -0 0 2 1:-0.182898 2:0.619137 3:-0.234951 4:0.0196532 5:0.039039 6:-0.447273 7:-0.0643777 8:0.597846 9:-0.276596 
-0 -0 0 2 1:-0.182898 2:0.619137 3:-0.246602 4:0.0196532 5:0.00900901 6:-0.447273 7:-0.0729614 8:0.597846 9:-0.278835 
-0 -0 0 2 1:-0.182898 2:0.619137 3:-0.246602 4:0.017341 5:0.00900901 6:-0.447273 7:-0.0729614 8:0.597846 9:-0.278835 
-0 -0 0 2 1:-0.178147 2:0.624765 3:-0.246602 4:0.0196532 5:0.00900901 6:-0.444848 7:-0.0729614 8:0.612208 9:-0.278835 
-0 -0 0 2 1:-0.168646 2:0.624765 3:-0.234951 4:0.0196532 5:0.00900901 6:-0.444848 7:-0.0729614 8:0.615799 9:-0.278835 
-0 -0 0 2 1:-0.168646 2:0.624765 3:-0.234951 4:0.0219653 5:0.00900901 6:-0.444848 7:-0.0729614 8:0.615799 9:-0.278835 
-0 -0 0 2 1:-0.168646 2:0.624765 3:-0.234951 4:0.0242775 5:0.00900901 6:-0.444848 7:-0.0729614 8:0.615799 9:-0.278835 
-0 -0 0 2 1:-0.187648 2:0.624765 3:-0.254369 4:0.0219653 5:0.027027 6:-0.452121 7:-0.0901288 8:0.612208 9:-0.281075 
-0 -0 0 2 1:-0.19715 2:0.624765 3:-0.262136 4:0.017341 5:0.024024 6:-0.454545 7:-0.107296 8:0.583483 9:-0.281075 
-0 -0 0 2 1:-0.19715 2:0.621013 3:-0.262136 4:0.0150289 5:0.024024 6:-0.454545 7:-0.11588 8:0.56912 9:-0.281075 
-0 -0 0 2 1:-0.192399 2:0.621013 3:-0.254369 4:0.0150289 5:0.024024 6:-0.452121 7:-0.11588 8:0.56912 9:-0.267637 
-0 -0 0 2 1:-0.192399 2:0.621013 3:-0.231068 4:0.0150289 5:0.027027 6:-0.435152 7:-0.107296 8:0.56912 9:-0.258679 
-0 -0 0 2 1:-0.192399 2:0.621013 3:-0.227184 4:0.0150289 5:0.039039 6:-0.435152 7:-0.0987124 8:0.576302 9:-0.254199 
-0 -0 0 2 1:-0.192399 2:0.622889 3:-0.207767 4:0.0150289 5:0.039039 6:-0.432727 7:-0.0901288 8:0.583483 9:-0.25196 
-0 -0 0 2 1:-0.187648 2:0.624765 3:-0.227184 4:0.0150289 5:0.042042 6:-0.432727 7:-0.0987124 8:0.576302 9:-0.24972 
-0 -0 0 2 1:-0.192399 2:0.621013 3:-0.227184 4:0.00346821 5:0.042042 6:-0.432727 7:-0.11588 8:0.56553 9:-0.24972 
-0 -2 2 2 1:-0.19715 2:0.621013 3:-0.227184 4:0.00115607 5:0.03003 6:-0.432727 7:-0.11588 8:0.561939 9:-0.24972 
-0 -0.7780002589135228 1.749741551509605 2 1:-0.19715 2:0.621013 3:-0.227184 4:0.00115607 5:0.03003 6:-0.435152 7:-0.11588 8:0.561939 9:-0.24972 
-0 -0 0 2 1:-0.19715 2:0.621013 3:-0.246602 4:0.00115607 5:0.03003 6:-0.44 7:-0.11588 8:0.561939 9:-0.254199 
-0 -0 2 0 1:0.102138 2:-0.181989 3:-0.724272 4:0.472832 5:-0.705706 6:-1 7:-0.296137 8:-0.508079 9:-0.684211 
-0.180923276739144 -0 2 0 1:0.102138 2:-0.181989 3:-0.716505 4:0.482081 5:-0.6997 6:-0.997576 7:-0.296137 8:-0.508079 9:-0.681971 
-0 -0 2 0 1:0.102138 2:-0.181989 3:-0.716505 4:0.486705 5:-0.696697 6:-0.990303 7:-0.296137 8:-0.508079 9:-0.668533 
-0 -0 2 0 1:0.064133 2:-0.213884 3:-0.704854 4:0.50289 5:-0.696697 6:-0.985455 7:-0.356223 8:-0.536804 9:-0.666293 
-0 -0 0 1.339321662918525 1:-0.00712589 2:-0.288931 3:-0.654369 4:0.486705 5:-0.660661 6:-0.987879 7:-0.467811 8:-0.615799 9:-0.650616 
-0 -0 0 2 1:0.0023753 2:-0.288931 3:-0.654369 4:0.486705 5:-0.660661 6:-0.985455 7:-0.467811 8:-0.615799 9:-0.650616 
-0 -0.5300217091285344 0 0 1:0.0023753 2:-0.275797 3:-0.627184 4:0.491329 5:-0.657658 6:-0.980606 7:-0.44206 8:-0.601436 9:-0.646137 
-0 -2 0 0 1:0.00712589 2:-0.268293 3:-0.627184 4:0.491329 5:-0.657658 6:-0.978182 7:-0.44206 8:-0.597846 9:-0.646137 
-0 -2 0 0 1:0.0118765 2:-0.262664 3:-0.654369 4:0.491329 5:-0.660661 6:-0.980606 7:-0.467811 8:-0.587074 9:-0.657335 
-2 -0 0 0 1:-0.239905 2:0.538462 3:0.382524 4:0.0890173 5:0.411411 6:0.0981818 7:0.055794 8:0.393178 9:0.334826 
-0.2206847113024053 -0 0 0 1:-0.230404 2:0.545966 3:0.382524 4:0.0890173 5:0.411411 6:0.0981818 7:0.055794 8:0.393178 9:0.337066 
-0 -0 2 0 1:-0.235154 2:0.585366 3:0.351456 4:0.0265896 5:0.393393 6:0.0836364 7:-0.00429185 8:0.368043 9:0.325868 
-0 -0 2 0 1:-0.220903 2:0.587242 3:0.370874 4:0.0104046 5:0.399399 6:0.0884848 7:0.00429185 8:0.371634 9:0.328108 
-0 -0 0.3142805843423803 0 1:-0.220903 2:0.590994 3:0.370874 4:0.0104046 5:0.399399 6:0.0909091 7:0.00429185 8:0.378815 9:0.328108 
-2 -0 0 0 1:0.368171 2:-0.478424 3:0.642718 4:0.491329 5:0.576577 6:-0.0666667 7:0.871245 8:-0.820467 9:0.303471 
-0 -0 0.5369726879921638 2 1:0.368171 2:-0.397749 3:0.642718 4:0.495954 5:0.57958 6:-0.0569697 7:0.879828 8:-0.806104 9:0.303471 
-0 -1.364758568390165 0 1.782208384057786 1:0.382423 2:-0.420263 3:0.642718 4:0.493642 5:0.585586 6:-0.0642424 7:0.888412 8:-0.795332 9:0.307951 
-0.4301565048958697 -0 0 0 1:0.339667 2:-0.489681 3:0.650485 4:0.452023 5:0.552553 6:-0.0642424 7:0.845494 8:-0.863555 9:0.301232 
-0 -0 2 0 1:0.0213777 2:-0.341463 3:0.36699 4:-0.0890173 5:0.186186 6:-0.389091 7:-0.356223 8:-0.766607 9:0.0503919 
-0 -0 2 0 1:0.0213777 2:-0.341463 3:0.36699 4:-0.100578 5:0.186186 6:-0.398788 7:-0.356223 8:-0.766607 9:0.0503919 
-0 -0 2 0 1:0.0213777 2:-0.341463 3:0.359223 4:-0.100578 5:0.177177 6:-0.398788 7:-0.356223 8:-0.788151 9:0.0459127 
-0 -0 1.979111499391149 2 1:0.0213777 2:-0.348968 3:0.359223 4:-0.10289 5:0.144144 6:-0.403636 7:-0.356223 8:-0.788151 9:0.0414334 
-0 -0 0 2 1:0.0213777 2:-0.348968 3:0.359223 4:-0.116763 5:0.144144 6:-0.403636 7:-0.356223 8:-0.788151 9:0.0414334 
-0 -0 0 2 1:0.0213777 2:-0.348968 3:0.363107 4:-0.112139 5:0.147147 6:-0.403636 7:-0.356223 8:-0.788151 9:0.0414334 
-0 -0.05694797269024893 0 1.918072022385769 1:0.0213777 2:-0.382739 3:0.36699 4:-0.0982659 5:0.168168 6:-0.410909 7:-0.390558 8:-0.806104 9:0.0324748 
-0 -2 0 2 1:0.0261283 2:-0.380863 3:0.36699 4:-0.0959538 5:0.171171 6:-0.410909 7:-0.390558 8:-0.806104 9:0.0324748 
-0 -0 0 2 1:0.0356295 2:-0.347092 3:0.378641 4:-0.0867052 5:0.171171 6:-0.406061 7:-0.347639 8:-0.795332 9:0.0391937 
-2 -0 0 0 1:-0.444181 2:0.170732 3:0.537864 4:-0.34104 5:0.369369 6:-0.0957576 7:-0.0729614 8:-0.364452 9:0.236282 
-2 -0 0 0 1:-0.43943 2:0.17636 3:0.537864 4:-0.34104 5:0.369369 6:-0.0957576 7:-0.0729614 8:-0.364452 9:0.236282 
-2 -0 0 0 1:-0.43943 2:0.181989 3:0.537864 4:-0.34104 5:0.369369 6:-0.0957576 7:-0.0729614 8:-0.360862 9:0.236282 
-0.2521815458161055 -0 0 0 1:-0.444181 2:0.185741 3:0.479612 4:-0.347977 5:0.336336 6:-0.122424 7:-0.0729614 8:-0.364452 9:0.213886 
-0 -0 0 2 1:-0.847981 2:0.138837 3:0.615534 4:-1 5:-0.153153 6:-0.21697 7:-0.562232 8:-0.56912 9:0.0167973 
-0 -0.183065779652513 0 2 1:-0.847981 2:0.138837 3:0.61165 4:-0.83815 5:-0.153153 6:-0.21697 7:-0.562232 8:-0.572711 9:0.0145577 
-0 -0 0 2 1:-0.847981 2:0.138837 3:0.61165 4:-1 5:-0.153153 6:-0.21697 7:-0.562232 8:-0.572711 9:0.0145577 
-0 -0 0 2 1:-0.833729 2:0.138837 3:0.61165 4:-1 5:-0.153153 6:-0.21697 7:-0.545064 8:-0.56553 9:0.0145577 
-0 -0 0 2 1:-0.833729 2:0.142589 3:0.61165 4:-1 5:-0.153153 6:-0.21697 7:-0.545064 8:-0.554758 9:0.0145577 
-0 -0 0 2 1:-0.84323 2:0.138837 3:0.603883 4:-1 5:-0.168168 6:-0.226667 7:-0.562232 8:-0.554758 9:0.00335946 
-0 -0 0 2 1:-0.833729 2:0.12758 3:0.596117 4:-1 5:-0.174174 6:-0.229091 7:-0.562232 8:-0.551167 9:-0.00111982 
-0 -0 0 2 1:-0.828979 2:0.12758 3:0.596117 4:-1 5:-0.174174 6:-0.229091 7:-0.562232 8:-0.547576 9:-0.00111982 
-0 -0 0 2 1:-0.833729 2:0.120075 3:0.58835 4:-0.974566 5:-0.177177 6:-0.236364 7:-0.579399 8:-0.558348 9:-0.00783875 
-0 -0 0 1.705235300276776 1:-0.833729 2:0.121951 3:0.596117 4:-1 5:-0.171171 6:-0.236364 7:-0.570815 8:-0.558348 9:-0.00783875 
-0 -0 0 2 1:-0.824228 2:0.121951 3:0.6 4:-1 5:-0.171171 6:-0.236364 7:-0.570815 8:-0.554758 9:-0.00783875 
-0 -0 0 2 1:-0.824228 2:0.121951 3:0.6 4:-0.93526 5:-0.171171 6:-0.233939 7:-0.570815 8:-0.551167 9:-0.00783875 
-0 -0 0 2 1:-0.819477 2:0.116323 3:0.603883 4:-1 5:-0.171171 6:-0.236364 7:-0.579399 8:-0.554758 9:-0.012318 
-0 -0 0 2 1:-0.819477 2:0.116323 3:0.58835 4:-1 5:-0.177177 6:-0.238788 7:-0.579399 8:-0.558348 9:-0.0145577 
-0 -0 0 2 1:-0.833729 2:0.11257 3:0.58835 4:-1 5:-0.18018 6:-0.241212 7:-0.596567 8:-0.56553 9:-0.0145577 
-0 -0 0 2 1:-0.833729 2:0.11257 3:0.584466 4:-1 5:-0.18018 6:-0.243636 7:-0.60515 8:-0.56553 9:-0.0167973 
-0 -0 0 2 1:-0.410926 2:0.0318949 3:-0.335922 4:-0.391908 5:0.177177 6:-0.798788 7:-0.270386 8:-0.02693 9:-0.905935 
-0 -0 0 2 1:-0.410926 2:0.011257 3:-0.335922 4:-0.415029 5:0.177177 6:-0.801212 7:-0.287554 8:-0.0520646 9:-0.905935 
-0 -0 0 1.050796394808024 1:-0.43943 2:0.011257 3:-0.335922 4:-0.415029 5:0.177177 6:-0.801212 7:-0.296137 8:-0.059246 9:-0.905935 
-1.536128472738174 -0 0 0 1:-0.638955 2:-0.121951 3:-0.258252 4:-0.519075 5:0.237237 6:-0.798788 7:-0.304721 8:-0.228007 9:-0.798432 
-2 -0 0 0 1:-0.638955 2:-0.125704 3:-0.258252 4:-0.521387 5:0.237237 6:-0.798788 7:-0.304721 8:-0.228007 9:-0.798432 
-0 -1.067805140564868 0.6696107430785888 0 1:-0.206651 2:0.624765 3:-0.413592 4:-0.0705202 5:-0.108108 6:-0.444848 7:-0.150215 8:0.759425 9:-0.319149 
-0 -0 2 0 1:-0.0166271 2:-0.097561 3:-0.720388 4:0.343353 5:-0.741742 6:-0.966061 7:-0.364807 8:-0.526032 9:-0.62374 
-2 -0 0 0 1:-0.0688836 2:-0.401501 3:0.382524 4:-0.204624 5:0.186186 6:-0.389091 7:-0.296137 8:-0.813285 9:0.0347144 
-2 -0 0 0 1:-0.0688836 2:-0.407129 3:0.382524 4:-0.209249 5:0.186186 6:-0.401212 7:-0.296137 8:-0.820467 9:0.0347144 
-2 -0 0 0 1:-0.0783848 2:-0.407129 3:0.382524 4:-0.209249 5:0.18018 6:-0.401212 7:-0.296137 8:-0.820467 9:0.0324748 
-0.9090214857221267 -0 0 0 1:-0.0783848 2:-0.407129 3:0.374757 4:-0.213873 5:0.177177 6:-0.401212 7:-0.296137 8:-0.824057 9:0.0279955 
-0.8123587876544603 -0 0 0 1:-0.130641 2:-0.407129 3:0.359223 4:-0.250867 5:0.144144 6:-0.406061 7:-0.364807 8:-0.842011 9:0.0145577 
-0 -0 0 1.891222371807366 1:-0.472684 2:0.213884 3:0.308738 4:-0.433526 5:0.204204 6:-0.2 7:-0.261803 8:-0.421903 9:0.137738 
-0 -0 0 2 1:-0.472684 2:0.234522 3:0.308738 4:-0.42659 5:0.213213 6:-0.197576 7:-0.261803 8:-0.411131 9:0.139978 
-0 -0 0 2 1:-0.463183 2:0.213884 3:0.332039 4:-0.42659 5:0.216216 6:-0.2 7:-0.261803 8:-0.414722 9:0.148936 
-0 -0 0 2 1:-0.505938 2:0.223265 3:0.300971 4:-0.435838 5:0.192192 6:-0.212121 7:-0.296137 8:-0.40754 9:0.135498 
-0 -0 0 2 1:-0.505938 2:0.225141 3:0.300971 4:-0.435838 5:0.192192 6:-0.209697 7:-0.296137 8:-0.40395 9:0.135498 
-0 -0 0 2 1:-0.505938 2:0.234522 3:0.300971 4:-0.435838 5:0.195195 6:-0.207273 7:-0.27897 8:-0.40395 9:0.135498 
-0 -0 0 2 1:-0.491686 2:0.242026 3:0.300971 4:-0.435838 5:0.195195 6:-0.207273 7:-0.270386 8:-0.389587 9:0.137738 
-0 -0 0 2 1:-0.486936 2:0.253283 3:0.28932 4:-0.440462 5:0.195195 6:-0.207273 7:-0.270386 8:-0.385996 9:0.135498 
-0 -0 0 2 1:-0.486936 2:0.253283 3:0.28932 4:-0.440462 5:0.195195 6:-0.209697 7:-0.270386 8:-0.385996 9:0.135498 
-0 -2 2 2 1:-0.501188 2:0.253283 3:0.273786 4:-0.440462 5:0.189189 6:-0.209697 7:-0.296137 8:-0.385996 9:0.135498 
-0 -1.215040096001111 2 2 1:-0.501188 2:0.251407 3:0.273786 4:-0.440462 5:0.189189 6:-0.209697 7:-0.296137 8:-0.393178 9:0.135498 
-0 -0 2 2 1:-0.501188 2:0.251407 3:0.273786 4:-0.440462 5:0.189189 6:-0.209697 7:-0.296137 8:-0.393178 9:0.133259 
-0 -0 2 2 1:-0.496437 2:0.251407 3:0.285437 4:-0.440462 5:0.192192 6:-0.209697 7:-0.296137 8:-0.393178 9:0.135498 
-0 -0 0.967409865569978 2 1:-0.486936 2:0.253283 3:0.28932 4:-0.440462 5:0.195195 6:-0.207273 7:-0.287554 8:-0.393178 9:0.139978 
-0 -0 0 2 1:-0.486936 2:0.253283 3:0.297087 4:-0.433526 5:0.201201 6:-0.207273 7:-0.270386 8:-0.393178 9:0.146697 
-0 -0 0 2 1:-0.482185 2:0.253283 3:0.304854 4:-0.431214 5:0.201201 6:-0.207273 7:-0.270386 8:-0.385996 9:0.146697 
-0 -0 0 2 1:-0.482185 2:0.230769 3:0.308738 4:-0.428902 5:0.207207 6:-0.207273 7:-0.270386 8:-0.40395 9:0.146697 
-0 -0 0 2 1:-0.482185 2:0.230769 3:0.300971 4:-0.433526 5:0.207207 6:-0.209697 7:-0.296137 8:-0.40395 9:0.144457 
-0 -0 0 2 1:-0.496437 2:0.230769 3:0.297087 4:-0.435838 5:0.195195 6:-0.212121 7:-0.304721 8:-0.40395 9:0.135498 
-0 -0 0 2 1:-0.501188 2:0.230769 3:0.297087 4:-0.447399 5:0.195195 6:-0.212121 7:-0.304721 8:-0.40395 9:0.133259 
-0 -0 0 2 1:-0.510689 2:0.230769 3:0.293204 4:-0.447399 5:0.192192 6:-0.219394 7:-0.304721 8:-0.40395 9:0.131019 
-0 -0 2 0 1:-0.515439 2:0.230769 3:0.269903 4:-0.447399 5:0.183183 6:-0.224242 7:-0.313305 8:-0.40395 9:0.131019 
-0 -0 0 2 1:-0.510689 2:0.232645 3:0.293204 4:-0.447399 5:0.192192 6:-0.219394 7:-0.304721 8:-0.400359 9:0.131019 
-0 -0 0 2 1:-0.510689 2:0.230769 3:0.297087 4:-0.447399 5:0.195195 6:-0.212121 7:-0.304721 8:-0.40395 9:0.133259 
-2 -0 0 0 1:-0.824228 2:0.054409 3:0.646602 4:-1 5:-0.168168 6:-0.250909 7:-0.562232 8:-0.554758 9:-0.0279955 
-2 -0 0 0 1:-0.828979 2:0.054409 3:0.638835 4:-1 5:-0.168168 6:-0.253333 7:-0.562232 8:-0.554758 9:-0.0324748 
-2 -0 0 0 1:-0.833729 2:0.054409 3:0.634951 4:-1 5:-0.177177 6:-0.253333 7:-0.562232 8:-0.554758 9:-0.0347144 
-2 -0 0 0 1:-0.833729 2:0.054409 3:0.627184 4:-1 5:-0.189189 6:-0.253333 7:-0.562232 8:-0.554758 9:-0.0414334 
-2 -0 0 0 1:-0.833729 2:0.0619137 3:0.634951 4:-1 5:-0.183183 6:-0.250909 7:-0.545064 8:-0.536804 9:-0.0347144 
-1.027727437851274 -0 0 0 1:-0.833729 2:0.0619137 3:0.638835 4:-1 5:-0.177177 6:-0.250909 7:-0.545064 8:-0.529623 9:-0.0324748 
-2 -2 0 2 1:-0.833729 2:0.0619137 3:0.638835 4:-0.817341 5:-0.177177 6:-0.246061 7:-0.545064 8:-0.51167 9:-0.0324748 
-0 -0 0 2 1:-0.786223 2:0.0919325 3:0.669903 4:-1 5:-0.165165 6:-0.236364 7:-0.51073 8:-0.493716 9:-0.0212766 
-0 -0 0 2 1:-0.795724 2:0.0938086 3:0.673786 4:-1 5:-0.174174 6:-0.231515 7:-0.51073 8:-0.486535 9:-0.0257559 
-0 -0 0 0.6260936215754325 1:-0.790974 2:0.0938086 3:0.673786 4:-1 5:-0.174174 6:-0.231515 7:-0.51073 8:-0.472172 9:-0.0235162 
-0 -0 0 0.1825743929717276 1:-0.619952 2:0.011257 3:-0.36699 4:-0.572254 5:0.135135 6:-0.808485 7:-0.330472 8:-0.059246 9:-0.928331 
-0 -0.68180972204811 0 0 1:-0.653207 2:-0.0300188 3:-0.332039 4:-0.581503 5:0.141141 6:-0.798788 7:-0.364807 8:-0.116697 9:-0.863382 
-0 -0 0 2 1:-0.648456 2:0.0637899 3:-0.374757 4:-0.579191 5:0.12012 6:-0.769697 7:-0.270386 8:0.00897666 9:-0.883539 
-0 -0 0 2 1:-0.648456 2:0.0637899 3:-0.374757 4:-0.579191 5:0.12012 6:-0.772121 7:-0.27897 8:0.00897666 9:-0.883539 
-0 -0 0 2 1:-0.653207 2:0.0619137 3:-0.374757 4:-0.581503 5:0.12012 6:-0.772121 7:-0.27897 8:0.00179533 9:-0.883539 
-0 -0 0 2 1:-0.657957 2:0.0619137 3:-0.374757 4:-0.581503 5:0.12012 6:-0.772121 7:-0.27897 8:-0.00179533 9:-0.883539 
-0 -0 0 2 1:-0.657957 2:0.0619137 3:-0.374757 4:-0.581503 5:0.12012 6:-0.779394 7:-0.27897 8:-0.005386 9:-0.883539 
-0 -0 0 2 1:-0.657957 2:0.0619137 3:-0.374757 4:-0.581503 5:0.123123 6:-0.772121 7:-0.27897 8:-0.00179533 9:-0.883539 
-0.5793018109597527 -0 0 0 1:-0.187648 2:0.624765 3:-0.316505 4:-0.137572 5:-0.102102 6:-0.362424 7:0.124464 8:0.974865 9:-0.254199 
-0 -0 1.149022051064887 0 1:-0.0736342 2:-0.0150094 3:-0.693204 4:0.186127 5:-0.750751 6:-0.924848 7:-0.27897 8:-0.51167 9:-0.594625 
-0 -0 2 0 1:-0.0736342 2:-0.0150094 3:-0.68932 4:0.186127 5:-0.747748 6:-0.922424 7:-0.27897 8:-0.51167 9:-0.594625 
-0 -0 0 2 1:-0.130641 2:-0.0712946 3:-0.67767 4:0.137572 5:-0.66967 6:-0.922424 7:-0.270386 8:-0.551167 9:-0.56103 
-0 -0 0 2 1:-0.130641 2:-0.0675422 3:-0.67767 4:0.137572 5:-0.66967 6:-0.922424 7:-0.270386 8:-0.547576 9:-0.56103 
-0 -0 0 1.758663510828836 1:-0.130641 2:-0.0675422 3:-0.673786 4:0.137572 5:-0.666667 6:-0.92 7:-0.253219 8:-0.547576 9:-0.554311 
-0 -0 0 2 1:-0.130641 2:-0.0712946 3:-0.673786 4:0.13526 5:-0.666667 6:-0.92 7:-0.253219 8:-0.547576 9:-0.554311 
-0 -0 0 2 1:-0.130641 2:-0.101313 3:-0.634951 4:0.132948 5:-0.666667 6:-0.907879 7:-0.261803 8:-0.554758 9:-0.545353 
-0 -0.9221790736537282 0 2 1:-0.130641 2:-0.0919325 3:-0.619417 4:0.13526 5:-0.663664 6:-0.900606 7:-0.261803 8:-0.547576 9:-0.543113 
-0 -0 0 2 1:-0.12114 2:-0.0919325 3:-0.615534 4:0.13526 5:-0.657658 6:-0.898182 7:-0.253219 8:-0.547576 9:-0.540873 
-0 -2 0 2 1:-0.130641 2:-0.0938086 3:-0.619417 4:0.132948 5:-0.663664 6:-0.900606 7:-0.261803 8:-0.547576 9:-0.543113 
-0 -0 0 2 1:-0.140143 2:-0.0938086 3:-0.646602 4:0.128324 5:-0.666667 6:-0.90303 7:-0.270386 8:-0.547576 9:-0.543113 
-0 -2 0 0 1:-0.315914 2:0.660413 3:0.324272 4:-0.165318 5:0.435435 6:0.0715152 7:-0.107296 8:0.378815 9:0.301232 
-0 -2 0 0 1:-0.311164 2:0.660413 3:0.332039 4:-0.165318 5:0.435435 6:0.0715152 7:-0.107296 8:0.382406 9:0.301232 
-0 -2 0 0 1:-0.306413 2:0.660413 3:0.332039 4:-0.165318 5:0.435435 6:0.0715152 7:-0.0815451 8:0.382406 9:0.301232 
-0 -2 0 0 1:-0.306413 2:0.645403 3:0.339806 4:-0.179191 5:0.435435 6:0.0739394 7:-0.0815451 8:0.375224 9:0.305711 
-0 -0 0 0.1513320056324911 1:-0.239905 2:0.666041 3:0.386408 4:-0.206936 5:0.444444 6:0.112727 7:-0.0386266 8:0.378815 9:0.341545 
-0 -0.4724925384986972 0 2 1:-0.239905 2:0.666041 3:0.386408 4:-0.206936 5:0.435435 6:0.110303 7:-0.0386266 8:0.378815 9:0.339306 
-0 -0 0 2 1:-0.244656 2:0.658537 3:0.382524 4:-0.211561 5:0.435435 6:0.107879 7:-0.0386266 8:0.378815 9:0.334826 
-0 -0 0 2 1:-0.244656 2:0.658537 3:0.382524 4:-0.213873 5:0.435435 6:0.107879 7:-0.0386266 8:0.378815 9:0.334826 
-0 -2 0 2 1:-0.244656 2:0.666041 3:0.382524 4:-0.213873 5:0.435435 6:0.110303 7:-0.0386266 8:0.378815 9:0.339306 
-0 -0 0 2 1:-0.244656 2:0.666041 3:0.382524 4:-0.211561 5:0.435435 6:0.110303 7:-0.0214592 8:0.378815 9:0.339306 
-0 -0.07680338027850742 0 0 1:-0.268409 2:0.658537 3:0.382524 4:-0.225434 5:0.435435 6:0.107879 7:-0.0386266 8:0.378815 9:0.339306 
-0 -2 0 0 1:-0.287411 2:0.639775 3:0.390291 4:-0.239306 5:0.456456 6:0.105455 7:-0.0729614 8:0.360862 9:0.334826 
-0 -0.9649105858951037 0 0 1:-0.292162 2:0.643527 3:0.401942 4:-0.236994 5:0.456456 6:0.112727 7:-0.055794 8:0.371634 9:0.337066 
-0 -0 0 2 1:0.168646 2:-0.155722 3:0.495146 4:0.230058 5:0.315315 6:-0.0860606 7:0.828326 8:-0.684022 9:0.254199 
-0 -0 0 2 1:0.159145 2:-0.155722 3:0.487379 4:0.2 5:0.3003 6:-0.0909091 7:0.828326 8:-0.684022 9:0.254199 
-0 -0 0 2 1:0.154394 2:-0.131332 3:0.475728 4:0.2 5:0.294294 6:-0.0957576 7:0.828326 8:-0.67325 9:0.238522 
-0 -0 0 2 1:0.159145 2:-0.131332 3:0.479612 4:0.2 5:0.3003 6:-0.0957576 7:0.83691 8:-0.67325 9:0.243001 
-0 -0 0 2 1:0.159145 2:-0.131332 3:0.479612 4:0.213873 5:0.303303 6:-0.0909091 7:0.845494 8:-0.666068 9:0.245241 
-0 -0 0 2 1:0.159145 2:-0.148218 3:0.487379 4:0.2 5:0.303303 6:-0.0957576 7:0.845494 8:-0.67325 9:0.254199 
-0 -0 0 2 1:0.159145 2:-0.148218 3:0.479612 4:0.2 5:0.3003 6:-0.0957576 7:0.83691 8:-0.67325 9:0.243001 
-0 -0 0 2 1:0.159145 2:-0.148218 3:0.479612 4:0.2 5:0.3003 6:-0.10303 7:0.83691 8:-0.67325 9:0.243001 
-0 -0 0 2 1:0.154394 2:-0.148218 3:0.471845 4:0.2 5:0.297297 6:-0.10303 7:0.828326 8:-0.67325 9:0.238522 
-0 -0 0 2 1:0.154394 2:-0.148218 3:0.471845 4:0.206936 5:0.3003 6:-0.10303 7:0.828326 8:-0.67684 9:0.238522 
-0 -0 0 2 1:0.159145 2:-0.148218 3:0.475728 4:0.206936 5:0.3003 6:-0.0957576 7:0.828326 8:-0.67684 9:0.238522 
-0 -0 0 2 1:0.159145 2:-0.148218 3:0.479612 4:0.206936 5:0.303303 6:-0.0957576 7:0.828326 8:-0.67684 9:0.238522 
-0 -0 0 2 1:0.159145 2:-0.148218 3:0.479612 4:0.206936 5:0.309309 6:-0.0957576 7:0.828326 8:-0.67684 9:0.243001 
-0 -0 0 1.384101484871669 1:0.144893 2:-0.170732 3:0.483495 4:0.188439 5:0.324324 6:-0.0981818 7:0.828326 8:-0.67325 9:0.240761 
-0.7163233384306722 -0 0 0 1:0.135392 2:-0.206379 3:0.483495 4:0.181503 5:0.33033 6:-0.0957576 7:0.819742 8:-0.694794 9:0.243001 
-0 -0 0 1.445099508589071 1:-0.12114 2:0.0750469 3:0.44466 4:-0.569942 5:0.252252 6:-0.238788 7:-0.236052 8:-0.070018 9:0.146697 
-0 -0 0 2 1:-0.11639 2:0.0787992 3:0.448544 4:-0.569942 5:0.255255 6:-0.238788 7:-0.236052 8:-0.0556553 9:0.146697 
-0 -2 2 2 1:-0.182898 2:0.144465 3:0.363107 4:-0.620809 5:0.177177 6:-0.260606 7:-0.261803 8:-0.0233393 9:0.106383 
-0 -2 2 2 1:-0.211401 2:0.11257 3:0.363107 4:-0.620809 5:0.177177 6:-0.260606 7:-0.304721 8:-0.0448833 9:0.0929451 
-0 -2 2 0 1:-0.254157 2:0.0787992 3:0.351456 4:-0.551445 5:0.18018 6:-0.289697 7:-0.313305 8:-0.0520646 9:0.0839866 
-0 -2 2 0 1:-0.239905 2:0.0787992 3:0.359223 4:-0.551445 5:0.183183 6:-0.284848 7:-0.296137 8:-0.0520646 9:0.0884658 
-0 -2 2 0 1:-0.235154 2:0.0787992 3:0.363107 4:-0.546821 5:0.183183 6:-0.284848 7:-0.296137 8:-0.0520646 9:0.0974244 
-0 -0 2 0 1:-0.244656 2:0.0712946 3:0.363107 4:-0.549133 5:0.186186 6:-0.284848 7:-0.296137 8:-0.070018 9:0.0974244 
-0 -0 2 0 1:-0.244656 2:0.0562852 3:0.363107 4:-0.551445 5:0.186186 6:-0.284848 7:-0.296137 8:-0.070018 9:0.0974244 
-0 -0 1.170139765977181 0 1:-0.239905 2:0.0562852 3:0.394175 4:-0.53526 5:0.213213 6:-0.275152 7:-0.304721 8:-0.0556553 9:0.101904 
-0 -0.2345792841882347 2 0 1:-0.254157 2:0.0337711 3:0.401942 4:-0.53526 5:0.21021 6:-0.277576 7:-0.339056 8:-0.0628366 9:0.0996641 
-0 -0 2 0 1:-0.254157 2:0.0300188 3:0.401942 4:-0.546821 5:0.21021 6:-0.277576 7:-0.339056 8:-0.0628366 9:0.0996641 
-0 -1.730221934639315 0 0 1:-0.410926 2:0.527205 3:0.52233 4:-1 5:0.327327 6:-0.0424242 7:0.107296 8:0.29623 9:0.307951 
-0 -0 0 2 1:-0.410926 2:0.521576 3:0.549515 4:-1 5:0.339339 6:-0.0278788 7:0.124464 8:0.303411 9:0.316909 
-0 -0 0 2 1:-0.420428 2:0.551595 3:0.545631 4:-1 5:0.36036 6:-0.0351515 7:0.124464 8:0.314183 9:0.319149 
-0 -0 0 1.825332068187539 1:-0.429929 2:0.553471 3:0.545631 4:-1 5:0.36036 6:-0.030303 7:0.11588 8:0.321364 9:0.325868 
-0 -0 0 2 1:-0.429929 2:0.545966 3:0.557282 4:-1 5:0.369369 6:-0.0278788 7:0.158798 8:0.332136 9:0.325868 
-0 -0.9109034740649932 0 0 1:-0.733967 2:0.15197 3:0.638835 4:-1 5:-0.135135 6:-0.219394 7:-0.339056 8:-0.267504 9:0.00783875 
-0 -0 -0 1.058862552455984 1:-0.382423 2:0.542214 3:-0.378641 4:-0.528324 5:-0.261261 6:0.711515 7:-0.356223 8:0.131059 9:-0.332587 
-0 -1.495398594745173 -0 0 1:0.159145 2:0.624765 3:0.0407767 4:0.380347 5:0.138138 6:0.345455 7:-0.390558 8:0.518851 9:0.18477 
-0 -2 -0 0 1:0.182898 2:0.624765 3:0.0368932 4:0.401156 5:0.189189 6:0.26303 7:-0.364807 8:0.536804 9:0.227324 
-0 -2 -0 0 1:0.182898 2:0.624765 3:0.0368932 4:0.401156 5:0.189189 6:0.26303 7:-0.381974 8:0.536804 9:0.204927 
-0.04944446056321608 -0.5965779217746694 -0 0 1:0.192399 2:0.624765 3:0.0368932 4:0.401156 5:0.189189 6:0.275152 7:-0.364807 8:0.56912 9:0.204927 
-0 -0 -0.5451662134024786 0 1:0.244656 2:0.624765 3:-0.106796 4:0.445087 5:0.135135 6:0.345455 7:-0.356223 8:0.61939 9:0.139978 
-0.1420322562044328 -2 -0 0 1:0.206651 2:0.624765 3:0.00970874 4:0.442775 5:0.177177 6:0.345455 7:-0.467811 8:0.526032 9:0.209406 
-0 -1.803502536269641 -0 0 1:0.163895 2:0.624765 3:-0.0718447 4:0.421965 5:0.135135 6:0.340606 7:-0.570815 8:0.508079 9:0.200448 
-0 -1.997529413142038 -0 0 1:0.163895 2:0.624765 3:-0.0718447 4:0.421965 5:0.135135 6:0.340606 7:-0.570815 8:0.508079 9:0.200448 
-0 -2 -0 0 1:0.163895 2:0.624765 3:-0.0563107 4:0.421965 5:0.135135 6:0.34303 7:-0.570815 8:0.508079 9:0.209406 
-0 -2 -0 0 1:0.168646 2:0.624765 3:-0.0524272 4:0.421965 5:0.129129 6:0.362424 7:-0.596567 8:0.500898 9:0.216125 
-0 -2 -0 0 1:0.144893 2:0.624765 3:-0.0601942 4:0.419653 5:0.129129 6:0.350303 7:-0.596567 8:0.500898 9:0.209406 
-0 -0.1892273893253663 -0 0 1:0.301663 2:-0.0469043 3:-0.43301 4:0.558382 5:-0.717718 6:-0.82303 7:-0.124464 8:-0.393178 9:-0.496081 
-0 -2 -2 2 1:0.287411 2:-0.0900563 3:-0.429126 4:0.560694 5:-0.693694 6:-0.82303 7:-0.124464 8:-0.436266 9:-0.496081 
-0.9870187106297057 -0 -2 2 1:0.287411 2:-0.0900563 3:-0.429126 4:0.560694 5:-0.708709 6:-0.82303 7:-0.124464 8:-0.436266 9:-0.496081 
-0 -0 -0.3266458242311769 0 1:0.287411 2:-0.0900563 3:-0.436893 4:0.560694 5:-0.726727 6:-0.827879 7:-0.133047 8:-0.436266 9:-0.496081 
-0 -0 -2 1.423905729277182 1:0.287411 2:-0.0900563 3:-0.436893 4:0.560694 5:-0.726727 6:-0.827879 7:-0.133047 8:-0.436266 9:-0.496081 
-0 -2 -0 0 1:0.320665 2:-0.0806754 3:-0.429126 4:0.565318 5:-0.726727 6:-0.82303 7:-0.124464 8:-0.389587 9:-0.482643 
-0 -2 -0 0 1:0.325416 2:-0.054409 3:-0.429126 4:0.565318 5:-0.726727 6:-0.818182 7:-0.124464 8:-0.378815 9:-0.482643 
-0 -2 -2 2 1:0.235154 2:-0.0956848 3:-0.487379 4:0.532948 5:-0.747748 6:-0.864242 7:-0.304721 8:-0.472172 9:-0.513998 
-0 -1.036421254197185 -0 0 1:0.254157 2:1 3:0.215534 4:0.0543353 5:0.309309 6:-0.0690909 7:-0.304721 8:0.378815 9:0.193729 
-0 -2 -0 0 1:0.254157 2:1 3:0.227184 4:0.0589595 5:0.312312 6:-0.0666667 7:-0.304721 8:0.378815 9:0.193729 
-0 -2 -0 0 1:0.216152 2:0.968105 3:0.223301 4:0.0635838 5:0.324324 6:-0.0690909 7:-0.347639 8:0.368043 9:0.204927 
-0 -2 -0 0 1:0.19715 2:0.953096 3:0.223301 4:0.0635838 5:0.315315 6:-0.0690909 7:-0.356223 8:0.364452 9:0.193729 
-0 -2 -0 1.455203794699927 1:0.2019 2:0.968105 3:0.203883 4:0.049711 5:0.309309 6:-0.0690909 7:-0.347639 8:0.364452 9:0.18701 
-0 -2 -0 2 1:0.2019 2:1 3:0.215534 4:0.049711 5:0.309309 6:-0.0690909 7:-0.339056 8:0.368043 9:0.18701 
-1.752721832592131 -2 -0 2 1:0.225653 2:0.116323 3:0.0951456 4:0.338728 5:0.336336 6:-0.418182 7:-0.545064 8:-0.29623 9:0.0279955 
-0 -0 -0 2 1:0.225653 2:0.116323 3:0.0796117 4:0.338728 5:0.333333 6:-0.42303 7:-0.545064 8:-0.29623 9:0.0279955 
-0 -2 -0 2 1:0.225653 2:0.116323 3:0.0757282 4:0.338728 5:0.327327 6:-0.42303 7:-0.553648 8:-0.29623 9:0.0235162 
-0 -0 -0 0.1578700770532966 1:0.225653 2:0.116323 3:0.0640777 4:0.336416 5:0.324324 6:-0.42303 7:-0.562232 8:-0.29623 9:0.0235162 
-0 -2 -0 0 1:0.258907 2:0.208255 3:0.0330097 4:0.336416 5:0.276276 6:-0.432727 7:-0.562232 8:-0.238779 9:-0.00111982 
-0 -2 -0 0 1:0.254157 2:0.288931 3:0.0757282 4:0.338728 5:0.336336 6:-0.362424 7:-0.545064 8:-0.174147 9:0.0615901 
-0 -2 -0 0 1:0.235154 2:0.288931 3:0.0446602 4:0.338728 5:0.309309 6:-0.362424 7:-0.579399 8:-0.174147 9:0.0391937 
-0 -2 -0 0 1:0.211401 2:0.288931 3:0.0563107 4:0.331792 5:0.297297 6:-0.369697 7:-0.587983 8:-0.220826 9:0.043673 
-0 -1.686494142225194 -0 0 1:0.211401 2:0.313321 3:0.0524272 4:0.334104 5:0.303303 6:-0.369697 7:-0.587983 8:-0.217235 9:0.0459127 
-0 -1.365425351263072 -0 0 1:-0.106888 2:0.0206379 3:0.11068 4:-0.211561 5:-0.018018 6:-0.379394 7:-0.467811 8:-0.281867 9:0.0167973 
-0 -2 -0 0 1:-0.106888 2:0.0206379 3:0.11068 4:-0.211561 5:-0.03003 6:-0.379394 7:-0.476395 8:-0.281867 9:0.0167973 
-0 -2 -0 0 1:-0.106888 2:0.0206379 3:0.11068 4:-0.213873 5:-0.03003 6:-0.379394 7:-0.476395 8:-0.281867 9:0.0167973 
-0 -2 -0 0 1:-0.106888 2:0.0206379 3:0.11068 4:-0.213873 5:-0.03003 6:-0.379394 7:-0.493562 8:-0.281867 9:0.0100784 
-0 -2 -0 0 1:-0.130641 2:0.0356473 3:0.126214 4:-0.218497 5:-0.00600601 6:-0.345455 7:-0.484979 8:-0.285458 9:0.0324748 
-0 -2 -0 0 1:-0.144893 2:0.0318949 3:0.126214 4:-0.218497 5:-0.00600601 6:-0.347879 7:-0.493562 8:-0.303411 9:0.0324748 
-0 -2 -0 0 1:-0.149644 2:0.0300188 3:0.126214 4:-0.223121 5:-0.00600601 6:-0.347879 7:-0.493562 8:-0.307002 9:0.0324748 
-0 -2 -0 0 1:-0.149644 2:0.0300188 3:0.126214 4:-0.223121 5:-0.00600601 6:-0.347879 7:-0.51073 8:-0.310592 9:0.0324748 
-0 -2 -0 0 1:-0.149644 2:0.0300188 3:0.141748 4:-0.218497 5:-0.00600601 6:-0.347879 7:-0.51073 8:-0.310592 9:0.0324748 
-0 -2 -0 0 1:-0.149644 2:0.0300188 3:0.145631 4:-0.218497 5:0.003003 6:-0.345455 7:-0.51073 8:-0.310592 9:0.0324748 
-0 -2 -0 0 1:-0.149644 2:0.0318949 3:0.149515 4:-0.218497 5:0.00900901 6:-0.34303 7:-0.502146 8:-0.310592 9:0.0324748 
-0 -0 -0 0.6041023636252396 1:-0.149644 2:0.0318949 3:0.130097 4:-0.225434 5:-0.012012 6:-0.350303 7:-0.51073 8:-0.321364 9:0.0235162 
-0 -2 -0 0 1:-0.149644 2:0.0318949 3:0.133981 4:-0.223121 5:-0.012012 6:-0.347879 7:-0.51073 8:-0.310592 9:0.0257559 
-0 -1.865557351515595 -0 0 1:-0.168646 2:0.189493 3:0.137864 4:-0.218497 5:0.0660661 6:-0.246061 7:-0.519313 8:-0.228007 9:0.0996641 
-0 -0.6089515617931495 -0 0 1:0.087886 2:0.138837 3:0.417476 4:-0.833526 5:-0.393393 6:-0.306667 7:-0.450644 8:0.576302 9:-0.108623 
-0 -0.02815394963878888 -0 0 1:-0.301663 2:0.290807 3:0.36699 4:-0.842775 5:-0.279279 6:-0.444848 7:-0.236052 8:0.518851 9:-0.238522 
-0 -2 -0 0 1:-0.320665 2:0.255159 3:0.359223 4:-0.840462 5:-0.267267 6:-0.461818 7:-0.261803 8:0.443447 9:-0.240761 
-0 -2 -2 2 1:-0.315914 2:0.257036 3:0.35534 4:-0.821965 5:-0.255255 6:-0.461818 7:-0.244635 8:0.450628 9:-0.234043 
-0 -2 -1.165846624098117 2 1:-0.311164 2:0.26454 3:0.35534 4:-0.821965 5:-0.255255 6:-0.461818 7:-0.244635 8:0.45781 9:-0.231803 
-0 -2 -2 2 1:-0.315914 2:0.266417 3:0.35534 4:-0.82659 5:-0.255255 6:-0.461818 7:-0.236052 8:0.4614 9:-0.234043 
-0 -2 -2 1.601724589939064 1:-0.315914 2:0.266417 3:0.35534 4:-0.833526 5:-0.255255 6:-0.466667 7:-0.236052 8:0.4614 9:-0.234043 
-0 -2 -0 0.72592495050257 1:-0.315914 2:0.266417 3:0.343689 4:-0.833526 5:-0.282282 6:-0.466667 7:-0.236052 8:0.4614 9:-0.243001 
-1.232023084755132 -0 -0 0 1:-0.320665 2:0.266417 3:0.332039 4:-0.840462 5:-0.291291 6:-0.473939 7:-0.236052 8:0.4614 9:-0.256439 
-0 -2 -0 0 1:-0.320665 2:0.27955 3:0.304854 4:-0.852023 5:-0.315315 6:-0.481212 7:-0.261803 8:0.486535 9:-0.263158 
-0 -2 -0 0 1:-0.410926 2:0.530957 3:-0.266019 4:-0.539884 5:-0.258258 6:0.820606 7:-0.399142 8:0.0448833 9:-0.204927 
-0 -1.790104191521698 -0 0 1:-0.410926 2:0.530957 3:-0.269903 4:-0.542197 5:-0.258258 6:0.820606 7:-0.399142 8:0.0448833 9:-0.204927 
-0 -1.257344367887366 -0 0 1:0.27791 2:0.114447 3:-0.533981 4:0.495954 5:-0.744745 6:-0.818182 7:-0.347639 8:-0.378815 9:-0.491601 
-0 -1.561268172486129 -0 0 1:0.230404 2:0.105066 3:-0.584466 4:0.43815 5:-0.750751 6:-0.810909 7:-0.407725 8:-0.418312 9:-0.473684 
-0 -0 -1.765298744160978 0 1:0.211401 2:0.140713 3:-0.735922 4:0.410405 5:-0.942943 6:-0.871515 7:-0.553648 8:-0.400359 9:-0.569989 
-0 -0 -1.32274982742721 0.3879388303314861 1:0.2019 2:0.142589 3:-0.735922 4:0.40578 5:-0.942943 6:-0.871515 7:-0.579399 8:-0.396768 9:-0.572228 
-0 -0 -2 0 1:0.2019 2:0.142589 3:-0.739806 4:0.40578 5:-0.954955 6:-0.871515 7:-0.579399 8:-0.396768 9:-0.574468 
-0 -1.573071565376863 -0 0 1:0.2019 2:0.142589 3:-0.735922 4:0.408092 5:-0.942943 6:-0.871515 7:-0.579399 8:-0.396768 9:-0.572228 
-2 -0 -2 2 1:-0.19715 2:0.0787992 3:0.27767 4:-0.253179 5:0.186186 6:-0.212121 7:-0.476395 8:-0.371634 9:0.164614 
-0 -0 -0 2 1:-0.2019 2:0.0787992 3:0.27767 4:-0.253179 5:0.186186 6:-0.212121 7:-0.502146 8:-0.371634 9:0.160134 
-0 -0 -0 2 1:-0.2019 2:0.0787992 3:0.27767 4:-0.253179 5:0.186186 6:-0.212121 7:-0.502146 8:-0.371634 9:0.160134 
-2 -0 -2 2 1:-0.2019 2:0.0806754 3:0.27767 4:-0.253179 5:0.186186 6:-0.212121 7:-0.476395 8:-0.368043 9:0.164614 
-2 -0 -2 2 1:-0.19715 2:0.106942 3:0.27767 4:-0.253179 5:0.207207 6:-0.209697 7:-0.450644 8:-0.360862 9:0.169093 
-0.2900267873487798 -0 -2 2 1:-0.19715 2:0.121951 3:0.27767 4:-0.248555 5:0.207207 6:-0.207273 7:-0.450644 8:-0.35009 9:0.175812 
-0 -0 -2 2 1:-0.182898 2:0.123827 3:0.27767 4:-0.248555 5:0.207207 6:-0.207273 7:-0.450644 8:-0.339318 9:0.175812 
-0 -0 -2 2 1:-0.19715 2:0.121951 3:0.242718 4:-0.253179 5:0.195195 6:-0.212121 7:-0.450644 8:-0.35009 9:0.166853 
-0 -0 -2 0.01715786825373973 1:-0.216152 2:0.108818 3:0.238835 4:-0.255491 5:0.195195 6:-0.212121 7:-0.476395 8:-0.360862 9:0.164614 
-0 -0 -2 0 1:-0.216152 2:0.108818 3:0.238835 4:-0.26474 5:0.195195 6:-0.21697 7:-0.484979 8:-0.360862 9:0.164614 
-0 -0 -2 2 1:-0.225653 2:0.108818 3:0.238835 4:-0.267052 5:0.189189 6:-0.21697 7:-0.484979 8:-0.364452 9:0.164614 
-0 -0 -2 2 1:-0.230404 2:0.108818 3:0.238835 4:-0.267052 5:0.186186 6:-0.21697 7:-0.484979 8:-0.364452 9:0.162374 
-0 -0 -2 2 1:-0.225653 2:0.110694 3:0.238835 4:-0.267052 5:0.186186 6:-0.21697 7:-0.484979 8:-0.360862 9:0.162374 
-0 -0 -2 2 1:-0.225653 2:0.114447 3:0.238835 4:-0.267052 5:0.186186 6:-0.21697 7:-0.476395 8:-0.35009 9:0.162374 
-0 -0 -2 2 1:-0.216152 2:0.121951 3:0.238835 4:-0.267052 5:0.186186 6:-0.21697 7:-0.476395 8:-0.35009 9:0.162374 
-0 -0 -0.2558573093172705 2 1:-0.216152 2:0.123827 3:0.238835 4:-0.267052 5:0.186186 6:-0.21697 7:-0.476395 8:-0.346499 9:0.162374 
-0 -0 -0 0.2089598031726598 1:-0.344418 2:0.585366 3:-0.184466 4:-0.634682 5:-0.291291 6:0.924848 7:-0.253219 8:0.0915619 9:-0.211646 
-0.004051846876264364 -0 -0.6434773842326752 2 1:-0.334917 2:0.590994 3:-0.172816 4:-0.627746 5:-0.291291 6:0.944242 7:-0.227468 8:0.102334 9:-0.195969 
-0 -2 -0 0 1:-0.36342 2:0.577861 3:-0.180583 4:-0.634682 5:-0.285285 6:0.929697 7:-0.287554 8:0.0843806 9:-0.191489 
-0.1892253380416902 -0 -0 0 1:-0.35867 2:0.581614 3:-0.192233 4:-0.63237 5:-0.294294 6:0.944242 7:-0.261803 8:0.0915619 9:-0.191489 
-0 -0.06397468764932164 -0 0 1:0.301663 2:0.422139 3:-0.650485 4:0.269364 5:-1 6:-0.730909 7:-0.476395 8:-0.220826 9:-0.493841 
-0 -2 -0 0 1:0.301663 2:0.36773 3:-0.646602 4:0.280925 5:-0.993994 6:-0.718788 7:-0.450644 8:-0.206463 9:-0.491601 
-0 -2 -0 0 1:0.28266 2:0.534709 3:-0.0446602 4:0.100578 5:-0.0510511 6:-0.364848 7:-0.570815 8:0.02693 9:-0.0683091 
-0 -2 -0 0 1:0.244656 2:0.508443 3:-0.0252427 4:0.0913295 5:-0.00900901 6:-0.355152 7:-0.587983 8:0.00897666 9:-0.0391937 
-0 -0.9691882373705841 -0 0 1:0.235154 2:0.502814 3:-0.0135922 4:0.0820809 5:-0.018018 6:-0.36 7:-0.587983 8:-0.00179533 9:-0.0391937 
-0 -2 -0 0 1:0.235154 2:0.502814 3:-0.0252427 4:0.0820809 5:-0.024024 6:-0.36 7:-0.60515 8:-0.00179533 9:-0.043673 
-0 -2 -0 0 1:0.235154 2:0.502814 3:-0.0252427 4:0.0820809 5:-0.024024 6:-0.36 7:-0.60515 8:-0.00179533 9:-0.043673 
-0 -2 -0 0 1:0.235154 2:0.502814 3:-0.0252427 4:0.0820809 5:-0.027027 6:-0.362424 7:-0.60515 8:-0.00179533 9:-0.043673 
-0 -2 -0 0 1:0.235154 2:0.502814 3:-0.0252427 4:0.0774566 5:-0.027027 6:-0.362424 7:-0.60515 8:-0.00179533 9:-0.043673 
-0 -2 -0 0 1:0.249406 2:0.508443 3:-0.0252427 4:0.0820809 5:-0.024024 6:-0.36 7:-0.60515 8:0.005386 9:-0.043673 
-0 -2 -0 0 1:0.254157 2:0.508443 3:-0.0135922 4:0.0820809 5:-0.024024 6:-0.36 7:-0.587983 8:0.005386 9:-0.043673 
-0 -2 -0 0 1:0.254157 2:0.510319 3:-0.0135922 4:0.0820809 5:-0.021021 6:-0.36 7:-0.587983 8:0.0125673 9:-0.0391937 
-0 -0 -0 1.246052374443674 1:0.486936 2:0.729831 3:0.196117 4:0.126012 5:0.372372 6:-0.00848485 7:0.622318 8:0.202873 9:0.395297 
-0 -0 -0.9524988425275418 0 1:0.491686 2:0.733583 3:0.203883 4:0.128324 5:0.387387 6:-0.00121212 7:0.630901 8:0.210054 9:0.399776 
-0 -0 -2 2 1:0.496437 2:0.741088 3:0.227184 4:0.130636 5:0.396396 6:0.00363636 7:0.639485 8:0.220826 9:0.399776 
-1.007175679266051 -0 -0 0 1:0.524941 2:0.776735 3:0.242718 4:0.128324 5:0.414414 6:0.0206061 7:0.716738 8:0.245961 9:0.426652 
-0 -0 -0.9114595512450784 0 1:-0.159145 2:0.230769 3:0.234951 4:-0.417341 5:0.135135 6:-0.224242 7:-0.44206 8:-0.220826 9:0.164614 
-0 -0 -2 0 1:-0.159145 2:0.230769 3:0.234951 4:-0.428902 5:0.132132 6:-0.229091 7:-0.44206 8:-0.220826 9:0.160134 
-0 -0 -2 0 1:-0.159145 2:0.230769 3:0.231068 4:-0.442775 5:0.132132 6:-0.229091 7:-0.44206 8:-0.220826 9:0.155655 
-0 -0 -2 0 1:-0.154394 2:0.243902 3:0.231068 4:-0.442775 5:0.132132 6:-0.229091 7:-0.433476 8:-0.195691 9:0.155655 
-0 -2 -0 0 1:-0.0546318 2:0.360225 3:0.215534 4:-0.484393 5:0.012012 6:-0.21697 7:-0.364807 8:-0.00897666 9:0.133259 
-0 -2 -0 0 1:-0.0451306 2:0.369606 3:0.223301 4:-0.465896 5:0.021021 6:-0.209697 7:-0.339056 8:0.00179533 9:0.139978 
-0 -2 -0 0 1:-0.0451306 2:0.369606 3:0.223301 4:-0.479769 5:0.021021 6:-0.214545 7:-0.339056 8:0.00179533 9:0.139978 
-0 -2 -0 0 1:-0.0451306 2:0.369606 3:0.219417 4:-0.479769 5:0.018018 6:-0.214545 7:-0.339056 8:0.00179533 9:0.137738 
-0 -0 -0 1.508349291143364 1:-0.0546318 2:0.348968 3:0.242718 4:-0.449711 5:0.0570571 6:-0.207273 7:-0.313305 8:-0.0305206 9:0.148936 
-0 -1.609696441405626 -0 0 1:-0.064133 2:0.326454 3:0.242718 4:-0.465896 5:0.033033 6:-0.207273 7:-0.321888 8:-0.037702 9:0.148936 
-0 -0.8770925877229633 -0 0 1:-0.239905 2:0.371482 3:0.798058 4:-1 5:0.315315 6:-0.151515 7:-0.304721 8:1 9:0.0414334 
-0 -2 -0 0 1:-0.239905 2:0.388368 3:0.809709 4:-1 5:0.315315 6:-0.146667 7:-0.304721 8:1 9:0.0459127 
-0 -0 -0.6472884282834053 0 1:-0.168646 2:0.465291 3:0.875728 4:-1 5:0.423423 6:-0.0933333 7:-0.0643777 8:1 9:0.0683091 
-0 -0 -2 0 1:-0.182898 2:0.452158 3:0.871845 4:-1 5:0.408408 6:-0.0981818 7:-0.0643777 8:1 9:0.0660694 
-0 -0 -0 0.04914677697737142 1:-0.182898 2:0.452158 3:0.867961 4:-1 5:0.405405 6:-0.0981818 7:-0.0643777 8:1 9:0.0660694 
-0 -0 -0 2 1:-0.173397 2:0.457786 3:0.899029 4:-1 5:0.411411 6:-0.0933333 7:-0.0386266 8:1 9:0.0727884 
-0 -0 -0 2 1:-0.168646 2:0.459662 3:0.902913 4:-1 5:0.411411 6:-0.0884848 7:-0.0386266 8:1 9:0.0727884 
-0.7137155125232809 -0 -0 2 1:-0.163895 2:0.470919 3:0.906796 4:-1 5:0.411411 6:-0.0836364 7:-0.0214592 8:1 9:0.0705487 
-0 -0 -0 0.5851206230298572 1:-0.163895 2:0.470919 3:0.906796 4:-1 5:0.411411 6:-0.0836364 7:-0.0386266 8:1 9:0.0705487 
-0 -0 -0 2 1:-0.163895 2:0.491557 3:0.914563 4:-1 5:0.423423 6:-0.0836364 7:-0.0472103 8:1 9:0.0727884 
-0 -0 -0 2 1:-0.163895 2:0.49531 3:0.899029 4:-1 5:0.414414 6:-0.0812121 7:-0.055794 8:1 9:0.0660694 
-0 -0 -0 1.818098371516025 1:-0.244656 2:0.587242 3:0.242718 4:-0.877457 5:-0.363363 6:-0.476364 7:-0.0472103 8:0.89228 9:-0.323628 
-0 -0 -0.9220523438767311 -0.5877920316508433 1:-0.5962 2:-0.110694 3:-0.712621 4:-0.445087 5:0.225225 6:-0.852121 7:-0.51073 8:-0.228007 9:-0.93505 
-0 -1.128008511782808 -0 -0 1:-0.60095 2:-0.110694 3:-0.716505 4:-0.445087 5:0.225225 6:-0.852121 7:-0.51073 8:-0.228007 9:-0.93505 
-0 -0 -2 -0 1:-0.5962 2:-0.108818 3:-0.712621 4:-0.445087 5:0.228228 6:-0.849697 7:-0.493562 8:-0.235189 9:-0.923852 
-0 -0 -2 -0 1:-0.5962 2:-0.108818 3:-0.712621 4:-0.445087 5:0.228228 6:-0.849697 7:-0.493562 8:-0.235189 9:-0.923852 
-0 -0 -2 -0 1:-0.5962 2:-0.108818 3:-0.712621 4:-0.445087 5:0.231231 6:-0.849697 7:-0.493562 8:-0.235189 9:-0.923852 
-1.124676220101712 -0 -2 -0 1:-0.60095 2:-0.110694 3:-0.708738 4:-0.454335 5:0.228228 6:-0.852121 7:-0.493562 8:-0.238779 9:-0.926092 
-0 -0.6497337121930928 -0 -0 1:-0.615202 2:-0.120075 3:-0.751456 4:-0.482081 5:0.195195 6:-0.878788 7:-0.527897 8:-0.278276 9:-0.93729 
-0 -0 -2 -0 1:-0.273159 2:0.551595 3:-0.196117 4:-0.0682081 5:0.003003 6:-0.495758 7:-0.0472103 8:0.357271 9:-0.301232 
-0 -0 -2 -0 1:-0.273159 2:0.551595 3:-0.176699 4:-0.0682081 5:0.00900901 6:-0.488485 7:-0.0472103 8:0.357271 9:-0.290034 
-0 -0 -2 -0 1:-0.273159 2:0.551595 3:-0.157282 4:-0.0682081 5:0.015015 6:-0.478788 7:-0.0300429 8:0.360862 9:-0.290034 
-1.369112111085996 -0 -2 -0 1:-0.268409 2:0.540338 3:-0.141748 4:-0.065896 5:0.039039 6:-0.481212 7:-0.0128755 8:0.357271 9:-0.283315 
-0 -0 -2 -0 1:-0.273159 2:0.540338 3:-0.165049 4:-0.065896 5:0.039039 6:-0.481212 7:-0.0472103 8:0.357271 9:-0.287794 
-0 -0 -2 -0 1:-0.273159 2:0.534709 3:-0.165049 4:-0.065896 5:0.039039 6:-0.481212 7:-0.0472103 8:0.346499 9:-0.287794 
-0 -0 -2 -0 1:-0.273159 2:0.534709 3:-0.168932 4:-0.065896 5:0.039039 6:-0.481212 7:-0.0472103 8:0.346499 9:-0.290034 
-0 -0 -2 -0 1:-0.273159 2:0.534709 3:-0.168932 4:-0.0682081 5:0.039039 6:-0.486061 7:-0.0472103 8:0.342908 9:-0.290034 
-0 -0 -2 -0 1:-0.273159 2:0.534709 3:-0.168932 4:-0.065896 5:0.039039 6:-0.481212 7:-0.0472103 8:0.346499 9:-0.290034 
-0 -0 -2 -0 1:-0.268409 2:0.534709 3:-0.165049 4:-0.0589595 5:0.045045 6:-0.481212 7:-0.0128755 8:0.357271 9:-0.290034 
-0 -0 -2 -0 1:-0.268409 2:0.540338 3:-0.165049 4:-0.0589595 5:0.045045 6:-0.481212 7:-0.0128755 8:0.357271 9:-0.290034 
-0 -0 -2 -0 1:-0.263658 2:0.549719 3:-0.165049 4:-0.0589595 5:0.045045 6:-0.481212 7:-0.0128755 8:0.357271 9:-0.290034 
-0 -0 -2 -0 1:-0.249406 2:0.549719 3:-0.223301 4:-0.0520231 5:0.00600601 6:-0.486061 7:-0.0472103 8:0.35009 9:-0.296753 
-0 -0 -2 -0 1:-0.249406 2:0.549719 3:-0.223301 4:-0.0520231 5:0.00600601 6:-0.486061 7:-0.0472103 8:0.35009 9:-0.296753 
-0 -0 -2 -0 1:-0.249406 2:0.549719 3:-0.223301 4:-0.0520231 5:0.00600601 6:-0.486061 7:-0.0472103 8:0.35009 9:-0.296753 
-0 -0 -2 -0 1:-0.244656 2:0.577861 3:-0.2 4:-0.0473988 5:0.00900901 6:-0.481212 7:-0.0386266 8:0.360862 9:-0.294513 
-0 -0 -2 -0 1:-0.244656 2:0.577861 3:-0.192233 4:-0.0289017 5:0.027027 6:-0.473939 7:-0.0386266 8:0.364452 9:-0.292273 
-0 -0 -2 -0 1:-0.244656 2:0.577861 3:-0.180583 4:-0.0289017 5:0.027027 6:-0.464242 7:-0.0300429 8:0.375224 9:-0.287794 
-0 -0 -2 -0 1:-0.254157 2:0.547842 3:-0.165049 4:-0.0566474 5:0.033033 6:-0.464242 7:-0.055794 8:0.328546 9:-0.281075 
-0 -0 -2 -0 1:-0.249406 2:0.547842 3:-0.145631 4:-0.0566474 5:0.036036 6:-0.464242 7:-0.055794 8:0.328546 9:-0.272116 
-0 -0 -2 -0 1:-0.239905 2:0.547842 3:-0.145631 4:-0.0566474 5:0.042042 6:-0.461818 7:-0.055794 8:0.332136 9:-0.267637 
-0 -0 -2 -0 1:-0.239905 2:0.547842 3:-0.12233 4:-0.0566474 5:0.045045 6:-0.45697 7:-0.055794 8:0.332136 9:-0.267637 
-0 -0 -1.666778009161443 -0 1:-0.216152 2:0.549719 3:-0.12233 4:-0.0543353 5:0.045045 6:-0.454545 7:-0.055794 8:0.335727 9:-0.267637 
-0 -0 -2 -0 1:-0.239905 2:0.549719 3:-0.137864 4:-0.0635838 5:0.042042 6:-0.45697 7:-0.055794 8:0.335727 9:-0.267637 
-0 -0 -2 -0 1:-0.239905 2:0.549719 3:-0.137864 4:-0.0751445 5:0.042042 6:-0.459394 7:-0.055794 8:0.335727 9:-0.267637 
-0 -0 -2 -0 1:-0.239905 2:0.549719 3:-0.137864 4:-0.0751445 5:0.042042 6:-0.459394 7:-0.055794 8:0.335727 9:-0.267637 
-0 -0 -2 -0 1:-0.239905 2:0.551595 3:-0.130097 4:-0.065896 5:0.045045 6:-0.45697 7:-0.0386266 8:0.342908 9:-0.265398 
-0 -0 -2 -0 1:-0.249406 2:0.559099 3:-0.153398 4:-0.0682081 5:0.036036 6:-0.461818 7:-0.0643777 8:0.332136 9:-0.283315 
-0 -0 -2 -1.244845423317498 1:-0.0783848 2:-0.223265 3:-0.417476 4:0.239306 5:-0.624625 6:-0.830303 7:-0.484979 8:-0.691203 9:-0.513998 
-0.06688629146876536 -0 -2 -0 1:-0.106888 2:-0.234522 3:-0.436893 4:0.239306 5:-0.624625 6:-0.837576 7:-0.484979 8:-0.698384 9:-0.527436 
-0 -0 -2 -2 1:-0.04038 2:-0.27955 3:-0.464078 4:0.290173 5:-0.591592 6:-0.835152 7:-0.553648 8:-0.773788 9:-0.484882 
-0 -0 -2 -0 1:-0.04038 2:-0.281426 3:-0.464078 4:0.250867 5:-0.591592 6:-0.835152 7:-0.553648 8:-0.780969 9:-0.484882 
-0 -0 -2 -0 1:-0.04038 2:-0.281426 3:-0.464078 4:0.250867 5:-0.591592 6:-0.835152 7:-0.553648 8:-0.780969 9:-0.484882 
-0 -0 -2 -0 1:-0.0451306 2:-0.281426 3:-0.464078 4:0.239306 5:-0.591592 6:-0.835152 7:-0.553648 8:-0.791741 9:-0.484882 
-0 -0 -1.379253327225225 -0 1:-0.0451306 2:-0.281426 3:-0.464078 4:0.239306 5:-0.591592 6:-0.835152 7:-0.553648 8:-0.791741 9:-0.484882 
-0 -1.01215338308444 -0 -0 1:-0.0356295 2:-0.296435 3:-0.394175 4:0.243931 5:-0.573574 6:-0.82303 7:-0.545064 8:-0.780969 9:-0.471445 
-0 -2 -0 -0 1:0.0308789 2:-0.307692 3:-0.258252 4:0.202312 5:-0.492492 6:-0.752727 7:-0.433476 8:-0.737882 9:-0.384099 
-0 -2 -0 -0 1:0.0356295 2:-0.307692 3:-0.250485 4:0.197688 5:-0.48048 6:-0.740606 7:-0.424893 8:-0.737882 9:-0.384099 
-0 -2 -0 -0 1:0.311164 2:-0.0787992 3:0.398058 4:0.546821 5:0.57958 6:-0.345455 7:-0.579399 8:-0.547576 9:0.0459127 
-0 -0.01205799122840574 -0 -0 1:0.292162 2:-0.0863039 3:0.370874 4:0.523699 5:0.570571 6:-0.352727 7:-0.587983 8:-0.572711 9:0.0324748 
-0 -2 -0 -0 1:0.292162 2:-0.0863039 3:0.370874 4:0.514451 5:0.567568 6:-0.352727 7:-0.60515 8:-0.576302 9:0.0324748 
-0 -2 -0 -0 1:0.27791 2:-0.105066 3:0.378641 4:0.512139 5:0.576577 6:-0.352727 7:-0.67382 8:-0.597846 9:0.0414334 
-1.866251926309627 -0 -2 -0 1:0.125891 2:0.011257 3:0.456311 4:0.119075 5:0.513514 6:-0.0424242 7:0.819742 8:-0.640934 9:0.359462 
-0 -0 -2 -0 1:0.159145 2:-0.0225141 3:0.467961 4:0.109827 5:0.525526 6:-0.030303 7:0.802575 8:-0.694794 9:0.368421 
-0 -0 -2 -0 1:0.159145 2:-0.0225141 3:0.467961 4:0.109827 5:0.51952 6:-0.0375758 7:0.802575 8:-0.694794 9:0.363942 
-0 -0 -2 -0 1:0.154394 2:-0.0225141 3:0.464078 4:0.109827 5:0.51952 6:-0.0375758 7:0.802575 8:-0.694794 9:0.363942 
-0 -0 -2 -0 1:0.144893 2:-0.0225141 3:0.464078 4:0.109827 5:0.51952 6:-0.0375758 7:0.793991 8:-0.694794 9:0.363942 
-0 -0 -2 -0 1:0.154394 2:-0.0206379 3:0.467961 4:0.109827 5:0.51952 6:-0.0351515 7:0.793991 8:-0.691203 9:0.363942 
-0 -0 -2 -0 1:0.159145 2:-0.0187617 3:0.467961 4:0.112139 5:0.525526 6:-0.030303 7:0.793991 8:-0.684022 9:0.363942 
-0 -0 -1.624410652645452 -0 1:0.163895 2:-0.0168856 3:0.479612 4:0.132948 5:0.525526 6:-0.0254545 7:0.793991 8:-0.680431 9:0.366181 
-0 -0 -2 -0 1:0.163895 2:-0.0243902 3:0.479612 4:0.123699 5:0.525526 6:-0.0206061 7:0.802575 8:-0.684022 9:0.366181 
-0 -0 -2 -0 1:0.163895 2:-0.0300188 3:0.479612 4:0.123699 5:0.525526 6:-0.0206061 7:0.802575 8:-0.684022 9:0.366181 
-0 -0 -2 -0 1:0.163895 2:-0.0300188 3:0.479612 4:0.119075 5:0.525526 6:-0.0206061 7:0.802575 8:-0.684022 9:0.366181 
-0 -0 -2 -0 1:0.173397 2:-0.0300188 3:0.487379 4:0.119075 5:0.528529 6:-0.0206061 7:0.785408 8:-0.680431 9:0.366181 
-0 -0 -2 -0 1:0.173397 2:-0.0318949 3:0.487379 4:0.116763 5:0.528529 6:-0.0206061 7:0.785408 8:-0.684022 9:0.366181 
-0 -0 -2 -0 1:0.154394 2:-0.0318949 3:0.487379 4:0.116763 5:0.525526 6:-0.0206061 7:0.785408 8:-0.687612 9:0.366181 
-0 -0 -2 -0 1:0.173397 2:-0.0318949 3:0.487379 4:0.119075 5:0.528529 6:-0.0206061 7:0.785408 8:-0.687612 9:0.366181 
-0 -0 -2 -0 1:0.173397 2:-0.0318949 3:0.495146 4:0.119075 5:0.534535 6:-0.0206061 7:0.785408 8:-0.687612 9:0.366181 
-0 -0 -2 -0 1:0.173397 2:-0.0318949 3:0.495146 4:0.119075 5:0.534535 6:-0.0206061 7:0.785408 8:-0.687612 9:0.366181 
-0 -0 -2 -0 1:-0.472684 2:0.405253 3:0.545631 4:-0.704046 5:0.957958 6:-0.0690909 7:-0.364807 8:0.67684 9:0.381859 
-0 -0 -2 -0 1:-0.472684 2:0.405253 3:0.545631 4:-0.704046 5:0.948949 6:-0.0763636 7:-0.364807 8:0.67684 9:0.379619 
-0 -0 -0.1521495353924728 -0 1:-0.463183 2:0.409006 3:0.549515 4:-0.704046 5:0.948949 6:-0.0763636 7:-0.364807 8:0.67684 9:0.379619 
-0 -0 -1.703293436364933 -0 1:-0.434679 2:0.41651 3:0.568932 4:-0.620809 5:0.93994 6:-0.0715152 7:-0.356223 8:0.687612 9:0.37738 
-1.661891667817638 -2 -2 -0 1:-0.467933 2:0.424015 3:0.561165 4:-0.558382 5:0.936937 6:-0.0812121 7:-0.373391 8:0.705566 9:0.368421 
-0 -2 -0 -0 1:-0.273159 2:0.371482 3:0.654369 4:-1 5:0.114114 6:0.180606 7:0.150215 8:0.788151 9:0.31019 
-0 -2 -0 -0 1:-0.273159 2:0.371482 3:0.658252 4:-1 5:0.117117 6:0.187879 7:0.150215 8:0.788151 9:0.31019 
-0 -0 -2 -0 1:-0.263658 2:0.365854 3:0.662136 4:-1 5:0.129129 6:0.18303 7:0.150215 8:0.773788 9:0.31019 
-0 -0 -2 -0 1:-0.263658 2:0.365854 3:0.662136 4:-1 5:0.129129 6:0.18303 7:0.150215 8:0.770197 9:0.31019 
-0 -0.5489985911190814 -2 -0 1:-0.263658 2:0.365854 3:0.658252 4:-1 5:0.129129 6:0.18303 7:0.150215 8:0.770197 9:0.307951 
-0 -0 -0.5051476763078663 -0 1:-0.263658 2:0.373358 3:0.666019 4:-1 5:0.153153 6:0.18303 7:0.158798 8:0.780969 9:0.31243 
-0 -2 -0 -0.1379994736835844 1:-0.420428 2:0.285178 3:0.467961 4:-0.565318 5:-0.00600601 6:-0.233939 7:-0.622318 8:-0.253142 9:-0.0100784 
-0 -2 -0 -0 1:-0.420428 2:0.285178 3:0.479612 4:-0.565318 5:-0.00600601 6:-0.224242 7:-0.622318 8:-0.253142 9:-0.0055991 
-0 -2 -0 -0 1:-0.420428 2:0.285178 3:0.487379 4:-0.565318 5:-0.00600601 6:-0.221818 7:-0.622318 8:-0.238779 9:-0.0055991 
-0 -2 -0 -0 1:-0.420428 2:0.285178 3:0.514563 4:-0.565318 5:-0.00600601 6:-0.221818 7:-0.613734 8:-0.238779 9:-0.00111982 
-0 -2 -0 -2 1:-0.420428 2:0.196998 3:0.518447 4:-0.572254 5:-0.024024 6:-0.214545 7:-0.622318 8:-0.253142 9:0.0055991 
-0 -2 -0 -2 1:-0.420428 2:0.19137 3:0.518447 4:-0.588439 5:-0.024024 6:-0.214545 7:-0.648069 8:-0.263914 9:0.0055991 
-0 -2 -0 -2 1:-0.453682 2:0.21576 3:0.421359 4:-0.537572 5:-0.003003 6:-0.241212 7:-0.587983 8:-0.35368 9:0.019037 
-0 -2 -0 -0 1:-0.453682 2:0.21576 3:0.421359 4:-0.549133 5:-0.003003 6:-0.241212 7:-0.587983 8:-0.357271 9:0.019037 
-0 -0 -0 -2 1:-0.448931 2:0.219512 3:0.421359 4:-0.572254 5:0.015015 6:-0.221818 7:-0.579399 8:-0.360862 9:0.0414334 
-0 -0.8567873624975588 -0 -2 1:-0.434679 2:0.227017 3:0.43301 4:-0.558382 5:0.021021 6:-0.21697 7:-0.579399 8:-0.357271 9:0.0571109 
-0 -0 -0 -2 1:-0.429929 2:0.245779 3:0.44466 4:-0.558382 5:0.033033 6:-0.209697 7:-0.579399 8:-0.357271 9:0.0593505 
-0 -0 -0 -1.282172597375846 1:-0.410926 2:0.245779 3:0.43301 4:-0.602312 5:0.045045 6:-0.202424 7:-0.493562 8:-0.375224 9:0.0615901 
-0 -0 -1.325760602490563 -0 1:-0.434679 2:0.245779 3:0.448544 4:-0.602312 5:0.0630631 6:-0.202424 7:-0.51073 8:-0.385996 9:0.0683091 
-0 -0 -2 -0 1:-0.434679 2:0.236398 3:0.448544 4:-0.604624 5:0.0630631 6:-0.202424 7:-0.51073 8:-0.393178 9:0.0683091 
-0 -0 -2 -0 1:-0.434679 2:0.236398 3:0.448544 4:-0.604624 5:0.0630631 6:-0.202424 7:-0.51073 8:-0.393178 9:0.0683091 
-0 -0 -2 -0 1:-0.434679 2:0.245779 3:0.448544 4:-0.602312 5:0.0720721 6:-0.202424 7:-0.51073 8:-0.393178 9:0.0795073 
-0 -0 -2 -0 1:-0.434679 2:0.249531 3:0.448544 4:-0.595376 5:0.0750751 6:-0.190303 7:-0.51073 8:-0.393178 9:0.0795073 
-0 -0 -2 -0 1:-0.434679 2:0.249531 3:0.448544 4:-0.595376 5:0.0870871 6:-0.18303 7:-0.493562 8:-0.393178 9:0.0795073 
-0 -0 -2 -0 1:-0.434679 2:0.253283 3:0.452427 4:-0.595376 5:0.0900901 6:-0.18303 7:-0.493562 8:-0.393178 9:0.0795073 
-0 -0 -2 -0 1:-0.434679 2:0.255159 3:0.452427 4:-0.595376 5:0.0870871 6:-0.192727 7:-0.493562 8:-0.411131 9:0.0795073 
-0 -0 -2 -0 1:-0.444181 2:0.255159 3:0.452427 4:-0.604624 5:0.0870871 6:-0.192727 7:-0.51073 8:-0.411131 9:0.0795073 
-0 -0 -2 -0 1:-0.453682 2:0.255159 3:0.448544 4:-0.604624 5:0.0870871 6:-0.192727 7:-0.51073 8:-0.411131 9:0.0795073 
-0 -0 -2 -0 1:-0.444181 2:0.257036 3:0.448544 4:-0.604624 5:0.0870871 6:-0.192727 7:-0.519313 8:-0.411131 9:0.0795073 
-0 -0 -2 -0 1:-0.43943 2:0.260788 3:0.448544 4:-0.604624 5:0.0870871 6:-0.192727 7:-0.519313 8:-0.411131 9:0.0817469 
-0 -0 -2 -0 1:-0.43943 2:0.262664 3:0.448544 4:-0.604624 5:0.102102 6:-0.192727 7:-0.51073 8:-0.411131 9:0.0817469 
-0 -0 -2 -0 1:-0.43943 2:0.266417 3:0.448544 4:-0.604624 5:0.102102 6:-0.190303 7:-0.502146 8:-0.411131 9:0.0839866 
-0 -0 -2 -0 1:-0.444181 2:0.270169 3:0.452427 4:-0.6 5:0.102102 6:-0.187879 7:-0.502146 8:-0.411131 9:0.0839866 
-0 -0 -2 -0 1:-0.714964 2:0.131332 3:0.623301 4:-0.722543 5:-0.108108 6:-0.187879 7:-0.484979 8:-0.612208 9:0.0212766 
-0 -0 -2 -0 1:-0.714964 2:0.136961 3:0.623301 4:-0.717919 5:-0.108108 6:-0.187879 7:-0.484979 8:-0.612208 9:0.0212766 
-0 -0 -2 -0 1:-0.714964 2:0.136961 3:0.623301 4:-0.717919 5:-0.108108 6:-0.187879 7:-0.484979 8:-0.612208 9:0.0212766 
-0 -0 -2 -0 1:-0.714964 2:0.136961 3:0.638835 4:-0.717919 5:-0.108108 6:-0.185455 7:-0.484979 8:-0.612208 9:0.0235162 
-0 -0 -2 -0 1:-0.724466 2:0.12758 3:0.615534 4:-0.717919 5:-0.117117 6:-0.187879 7:-0.493562 8:-0.630162 9:0.019037 
-2 -0 -2 -0 1:-0.729216 2:0.121951 3:0.615534 4:-0.717919 5:-0.117117 6:-0.190303 7:-0.493562 8:-0.633752 9:0.0167973 
-2 -0 -2 -0 1:-0.729216 2:0.118199 3:0.61165 4:-0.720231 5:-0.117117 6:-0.190303 7:-0.493562 8:-0.633752 9:0.0145577 
-2 -0 -2 -0 1:-0.724466 2:0.121951 3:0.61165 4:-0.720231 5:-0.117117 6:-0.190303 7:-0.493562 8:-0.630162 9:0.0167973 
-2 -0 -2 -0 1:-0.719715 2:0.123827 3:0.61165 4:-0.717919 5:-0.117117 6:-0.190303 7:-0.476395 8:-0.626571 9:0.0167973 
-0 -0 -2 -0 1:-0.705463 2:0.12758 3:0.61165 4:-0.717919 5:-0.114114 6:-0.190303 7:-0.476395 8:-0.626571 9:0.019037 
-0 -0 -2 -0 1:-0.705463 2:0.129456 3:0.61165 4:-0.717919 5:-0.114114 6:-0.187879 7:-0.476395 8:-0.62298 9:0.019037 
-0 -0 -2 -0 1:-0.700713 2:0.133208 3:0.615534 4:-0.715607 5:-0.114114 6:-0.190303 7:-0.476395 8:-0.62298 9:0.0212766 
-0 -0 -2 -0 1:-0.714964 2:0.133208 3:0.607767 4:-0.715607 5:-0.114114 6:-0.190303 7:-0.493562 8:-0.62298 9:0.0145577 
-0 -0 -1.001823347454218 -0 1:-0.714964 2:0.133208 3:0.607767 4:-0.715607 5:-0.114114 6:-0.190303 7:-0.502146 8:-0.626571 9:0.0145577 
-0 -0 -2 -0 1:-0.700713 2:0.12758 3:0.615534 4:-0.713295 5:-0.102102 6:-0.190303 7:-0.493562 8:-0.630162 9:0.0212766 
-0 -0 -2 -0 1:-0.700713 2:0.133208 3:0.623301 4:-0.706358 5:-0.102102 6:-0.187879 7:-0.467811 8:-0.62298 9:0.0212766 
-2 -0 -2 -0 1:-0.700713 2:0.118199 3:0.619417 4:-0.706358 5:-0.102102 6:-0.190303 7:-0.476395 8:-0.637343 9:0.0145577 
-1.87572731138602 -0 -0 -0 1:-0.700713 2:0.114447 3:0.619417 4:-0.710983 5:-0.102102 6:-0.190303 7:-0.502146 8:-0.640934 9:0.0145577 
-0 -0 -2 -0 1:-0.173397 2:0.60788 3:-0.141748 4:-0.100578 5:0.018018 6:-0.403636 7:-0.0472103 8:0.40754 9:-0.258679 
-0 -0 -2 -0 1:-0.173397 2:0.60788 3:-0.141748 4:-0.100578 5:0.012012 6:-0.403636 7:-0.0472103 8:0.40754 9:-0.258679 
-0 -0 -2 -0 1:-0.187648 2:0.624765 3:-0.130097 4:-0.109827 5:-0.021021 6:-0.37697 7:-0.0214592 8:0.447038 9:-0.238522 
-0 -0 -2 -0 1:-0.192399 2:0.624765 3:-0.137864 4:-0.123699 5:-0.021021 6:-0.37697 7:-0.0300429 8:0.447038 9:-0.245241 
-0 -0 -2 -0 1:-0.192399 2:0.624765 3:-0.137864 4:-0.123699 5:-0.021021 6:-0.386667 7:-0.0472103 8:0.436266 9:-0.245241 
-0 -0 -2 -0 1:-0.192399 2:0.624765 3:-0.137864 4:-0.128324 5:-0.021021 6:-0.386667 7:-0.0472103 8:0.436266 9:-0.245241 
-0 -0 -2 -0 1:-0.192399 2:0.624765 3:-0.137864 4:-0.132948 5:-0.024024 6:-0.386667 7:-0.0472103 8:0.436266 9:-0.245241 
-0 -0 -2 -0 1:-0.187648 2:0.624765 3:-0.137864 4:-0.132948 5:-0.024024 6:-0.381818 7:-0.0472103 8:0.443447 9:-0.238522 
-0 -0 -2 -0 1:-0.178147 2:0.624765 3:-0.130097 4:-0.132948 5:-0.021021 6:-0.37697 7:-0.0472103 8:0.443447 9:-0.231803 
-0 -0 -1.025036049032956 -0 1:-0.173397 2:0.624765 3:-0.12233 4:-0.132948 5:-0.021021 6:-0.37697 7:-0.0300429 8:0.443447 9:-0.231803 
-0 -0 -2 -0 1:-0.173397 2:0.624765 3:-0.12233 4:-0.132948 5:-0.021021 6:-0.374545 7:-0.0300429 8:0.443447 9:-0.231803 
-0 -2 -0 -0 1:0.0546318 2:-0.26454 3:-0.137864 4:0.112139 5:-0.504505 6:-0.68 7:-0.339056 8:-0.633752 9:-0.354983 
-0 -2 -0 -0 1:0.0688836 2:-0.266417 3:-0.126214 4:0.121387 5:-0.504505 6:-0.677576 7:-0.313305 8:-0.61939 9:-0.343785 
-0 -2 -0 -0 1:0.0736342 2:-0.266417 3:-0.118447 4:0.100578 5:-0.495495 6:-0.665455 7:-0.287554 8:-0.597846 9:-0.339306 
-0 -2 -0 -2 1:0.0736342 2:-0.260788 3:-0.130097 4:0.0982659 5:-0.498498 6:-0.670303 7:-0.287554 8:-0.594255 9:-0.341545 
-0 -0 -0 -0.8390959913732502 1:0.102138 2:-0.268293 3:-0.114563 4:0.109827 5:-0.489489 6:-0.670303 7:-0.27897 8:-0.594255 9:-0.352744 
-0 -2 -0 -0 1:0.087886 2:-0.273921 3:-0.118447 4:0.100578 5:-0.489489 6:-0.675152 7:-0.287554 8:-0.594255 9:-0.352744 
-0 -2 -0 -0 1:0.087886 2:-0.275797 3:-0.118447 4:0.0982659 5:-0.489489 6:-0.675152 7:-0.287554 8:-0.594255 9:-0.352744 
-0 -1.110268108117204 -0 -0 1:0.087886 2:-0.275797 3:-0.118447 4:0.0982659 5:-0.495495 6:-0.675152 7:-0.287554 8:-0.594255 9:-0.352744 
-0 -0 -0 -2 1:0.0973872 2:-0.273921 3:-0.106796 4:0.0982659 5:-0.489489 6:-0.665455 7:-0.261803 8:-0.583483 9:-0.346025 
-0 -0 -0 -2 1:0.102138 2:-0.273921 3:-0.106796 4:0.0982659 5:-0.48048 6:-0.665455 7:-0.236052 8:-0.583483 9:-0.339306 
-0 -0 -2 -0 1:0.216152 2:-0.142589 3:0.479612 4:0.415029 5:0.558559 6:-0.289697 7:-0.484979 8:-0.615799 9:0.0884658 
-0 -0 -2 -0 1:0.216152 2:-0.142589 3:0.475728 4:0.410405 5:0.558559 6:-0.289697 7:-0.493562 8:-0.615799 9:0.0862262 
-2 -0 -0 -0 1:0.216152 2:-0.123827 3:0.502913 4:0.433526 5:0.588589 6:-0.265455 7:-0.476395 8:-0.597846 9:0.117581 
-2 -0 -0 -0 1:0.216152 2:-0.121951 3:0.502913 4:0.433526 5:0.588589 6:-0.265455 7:-0.476395 8:-0.594255 9:0.117581 
-2 -0 -0 -0 1:0.216152 2:-0.118199 3:0.499029 4:0.428902 5:0.585586 6:-0.267879 7:-0.467811 8:-0.587074 9:0.110862 
-2 -0 -0 -0 1:0.211401 2:-0.118199 3:0.491262 4:0.42659 5:0.57958 6:-0.270303 7:-0.476395 8:-0.587074 9:0.108623 
-2 -0 -0 -0 1:0.206651 2:-0.118199 3:0.483495 4:0.421965 5:0.564565 6:-0.272727 7:-0.484979 8:-0.587074 9:0.104143 
-0 -0 -1.076614468933903 -0 1:0.206651 2:-0.118199 3:0.448544 4:0.415029 5:0.558559 6:-0.272727 7:-0.484979 8:-0.590664 9:0.104143 
-0.841882570610854 -0 -2 -0 1:0.192399 2:-0.118199 3:0.448544 4:0.410405 5:0.555556 6:-0.275152 7:-0.484979 8:-0.590664 9:0.0974244 
-0 -0 -0 -1.16086942023375 1:0.239905 2:0.0300188 3:0.43301 4:0.049711 5:0.516517 6:-0.0133333 7:0.879828 8:-0.62298 9:0.399776 
-0 -0.5694395991642183 -2 -0 1:-0.515439 2:0.420263 3:0.52233 4:-0.646243 5:0.918919 6:-0.0933333 7:-0.390558 8:0.72711 9:0.357223 
-0 -0 -0 -1.148422515394346 1:-0.273159 2:0.403377 3:0.685437 4:-1 5:0.165165 6:0.173333 7:0.184549 8:0.895871 9:0.276596 
-0 -0 -0 -2 1:-0.273159 2:0.395872 3:0.697087 4:-1 5:0.168168 6:0.175758 7:0.193133 8:0.906643 9:0.276596 
-0 -0 -0 -2 1:-0.273159 2:0.39212 3:0.68932 4:-1 5:0.168168 6:0.173333 7:0.193133 8:0.906643 9:0.276596 
-0 -0 -0 -2 1:-0.273159 2:0.39212 3:0.68932 4:-1 5:0.168168 6:0.170909 7:0.193133 8:0.895871 9:0.274356 
-0 -0 -0 -2 1:-0.273159 2:0.390244 3:0.681553 4:-1 5:0.165165 6:0.166061 7:0.193133 8:0.895871 9:0.274356 
-0 -0 -0 -0.7382595790446905 1:-0.377672 2:0.34334 3:0.405825 4:-0.620809 5:0.0510511 6:-0.195152 7:-0.459227 8:-0.360862 9:0.0817469 
-0 -0 -0 -2 1:-0.368171 2:0.34334 3:0.409709 4:-0.613873 5:0.0510511 6:-0.197576 7:-0.450644 8:-0.357271 9:0.0817469 
-0 -0 -0 -2 1:-0.368171 2:0.34334 3:0.409709 4:-0.613873 5:0.048048 6:-0.197576 7:-0.450644 8:-0.357271 9:0.0795073 
-0 -0 -0 -0.8074271026817653 1:-0.344418 2:0.347092 3:0.429126 4:-0.593064 5:0.0750751 6:-0.173333 7:-0.347639 8:-0.335727 9:0.0929451 
-0 -0 -0 -2 1:-0.349169 2:0.335835 3:0.425243 4:-0.597688 5:0.0750751 6:-0.178182 7:-0.339056 8:-0.339318 9:0.0929451 
-0 -0 -2 -0 1:-0.695962 2:0.133208 3:0.502913 4:-0.708671 5:-0.156156 6:-0.233939 7:-0.459227 8:-0.662478 9:-0.012318 
-0 -0 -2 -0 1:-0.700713 2:0.133208 3:0.495146 4:-0.708671 5:-0.159159 6:-0.233939 7:-0.459227 8:-0.662478 9:-0.0145577 
-0 -0 -2 -0 1:-0.700713 2:0.133208 3:0.495146 4:-0.708671 5:-0.159159 6:-0.233939 7:-0.459227 8:-0.67325 9:-0.0145577 
-0 -0 -2 -0 1:-0.695962 2:0.136961 3:0.495146 4:-0.706358 5:-0.159159 6:-0.233939 7:-0.459227 8:-0.662478 9:-0.0145577 
-0 -0 -2 -0 1:-0.695962 2:0.142589 3:0.502913 4:-0.706358 5:-0.156156 6:-0.233939 7:-0.459227 8:-0.662478 9:-0.012318 
-0 -0 -1.430791388890472 -0 1:-0.691211 2:0.142589 3:0.502913 4:-0.701734 5:-0.156156 6:-0.233939 7:-0.450644 8:-0.658887 9:-0.012318 
-0 -0 -1.614731648163385 -0 1:-0.695962 2:0.12758 3:0.491262 4:-0.717919 5:-0.168168 6:-0.243636 7:-0.467811 8:-0.694794 9:-0.0212766 
-0 -0 -2 -0 1:-0.444181 2:-0.0337711 3:-0.673786 4:-0.558382 5:0.189189 6:-0.854545 7:-0.321888 8:-0.199282 9:-0.961926 
-0 -0 -2 -0 1:-0.444181 2:-0.0356473 3:-0.67767 4:-0.563006 5:0.186186 6:-0.849697 7:-0.304721 8:-0.195691 9:-0.966405 
-0 -0 -2 -0 1:-0.448931 2:-0.0375235 3:-0.67767 4:-0.569942 5:0.186186 6:-0.844848 7:-0.304721 8:-0.199282 9:-0.966405 
-0 -0 -2 -0 1:-0.448931 2:-0.0393996 3:-0.67767 4:-0.569942 5:0.18018 6:-0.844848 7:-0.304721 8:-0.199282 9:-0.968645 
-0 -0 -2 -0 1:-0.458432 2:-0.0393996 3:-0.681553 4:-0.569942 5:0.168168 6:-0.849697 7:-0.296137 8:-0.199282 9:-0.973124 
-0 -0 -2 -0 1:-0.448931 2:-0.0318949 3:-0.681553 4:-0.56763 5:0.177177 6:-0.844848 7:-0.296137 8:-0.192101 9:-0.968645 
-0 -0 -2 -0 1:-0.444181 2:-0.0262664 3:-0.67767 4:-0.56763 5:0.177177 6:-0.844848 7:-0.296137 8:-0.18851 9:-0.968645 
-0 -0 -2 -0 1:-0.467933 2:-0.0262664 3:-0.681553 4:-0.583815 5:0.159159 6:-0.830303 7:-0.304721 8:-0.184919 9:-0.948488 
-0 -0 -2 -0 1:-0.467933 2:-0.0262664 3:-0.681553 4:-0.583815 5:0.159159 6:-0.830303 7:-0.304721 8:-0.184919 9:-0.952968 
-0 -0 -0.8775246770079426 -0 1:-0.467933 2:-0.0262664 3:-0.681553 4:-0.583815 5:0.159159 6:-0.832727 7:-0.313305 8:-0.184919 9:-0.952968 
-0 -0 -0 -2 1:-0.168646 2:0.624765 3:0.0174757 4:-0.243931 5:-0.021021 6:-0.301818 7:-0.0386266 8:0.414722 9:-0.18925 
-0 -1.562946368138787 -0 -0 1:-0.2019 2:0.624765 3:0.0135922 4:-0.260116 5:-0.039039 6:-0.29697 7:-0.0472103 8:0.40754 9:-0.191489 
-0 -0 -0 -1.000868592602201 1:-0.178147 2:0.626642 3:0.0213592 4:-0.26474 5:-0.033033 6:-0.29697 7:-0.0472103 8:0.411131 9:-0.18925 
-0 -0 -0 -2 1:-0.178147 2:0.626642 3:0.0213592 4:-0.267052 5:-0.033033 6:-0.29697 7:-0.0472103 8:0.411131 9:-0.18925 
-0 -0 -0 -2 1:-0.178147 2:0.624765 3:0.0213592 4:-0.269364 5:-0.033033 6:-0.29697 7:-0.0472103 8:0.411131 9:-0.18925 
-0 -2 -0 -0 1:-0.192399 2:0.624765 3:0.0213592 4:-0.273988 5:-0.036036 6:-0.29697 7:-0.055794 8:0.411131 9:-0.18925 
-0 -2 -0 -0 1:-0.187648 2:0.624765 3:0.0213592 4:-0.273988 5:-0.033033 6:-0.29697 7:-0.0472103 8:0.411131 9:-0.182531 
-0 -2 -0 -2 1:-0.182898 2:0.624765 3:0.0213592 4:-0.269364 5:-0.027027 6:-0.294545 7:-0.0472103 8:0.411131 9:-0.182531 
-0 -2 -0 -2 1:-0.178147 2:0.624765 3:0.0213592 4:-0.269364 5:-0.027027 6:-0.294545 7:-0.0472103 8:0.411131 9:-0.178052 
-0 -2 -0 -2 1:-0.178147 2:0.624765 3:0.0213592 4:-0.267052 5:-0.027027 6:-0.289697 7:-0.0472103 8:0.414722 9:-0.178052 
-0 -2 -0 -0 1:-0.187648 2:0.624765 3:0.0291262 4:-0.269364 5:-0.024024 6:-0.294545 7:-0.0386266 8:0.411131 9:-0.169093 
-0 -0 -2 -0 1:0.111639 2:-0.296435 3:-0.12233 4:0.0728324 5:-0.477477 6:-0.665455 7:-0.2103 8:-0.615799 9:-0.346025 
-0 -0 -2 -0 1:0.135392 2:-0.300188 3:-0.11068 4:0.0635838 5:-0.474474 6:-0.665455 7:-0.201717 8:-0.608618 9:-0.343785 
-0 -0 -2 -0 1:0.135392 2:-0.302064 3:-0.11068 4:0.0589595 5:-0.474474 6:-0.670303 7:-0.201717 8:-0.626571 9:-0.343785 
-0.4095971668731104 -0 -0 -0 1:0.111639 2:-0.34334 3:-0.137864 4:0.0473988 5:-0.492492 6:-0.687273 7:-0.287554 8:-0.633752 9:-0.3729 
-0 -0 -0.1831222452805447 -0 1:0.135392 2:-0.330206 3:-0.133981 4:0.0473988 5:-0.489489 6:-0.677576 7:-0.236052 8:-0.630162 9:-0.348264 
-0 -0 -2 -0 1:0.140143 2:-0.330206 3:-0.133981 4:0.0473988 5:-0.486486 6:-0.677576 7:-0.227468 8:-0.626571 9:-0.346025 
-0 -0 -0 -2 1:0.159145 2:0.0469043 3:0.429126 4:0.324855 5:0.471471 6:-0.243636 7:-0.450644 8:-0.493716 9:0.113102 
-0 -0 -0 -2 1:0.159145 2:0.0469043 3:0.429126 4:0.322543 5:0.471471 6:-0.243636 7:-0.450644 8:-0.493716 9:0.113102 
-0 -0 -0 -2 1:0.159145 2:0.0469043 3:0.425243 4:0.322543 5:0.471471 6:-0.243636 7:-0.450644 8:-0.493716 9:0.113102 
-0 -0 -0 -2 1:0.159145 2:0.0469043 3:0.425243 4:0.320231 5:0.471471 6:-0.243636 7:-0.450644 8:-0.493716 9:0.113102 
-0 -0 -0 -2 1:0.149644 2:0.0469043 3:0.425243 4:0.320231 5:0.471471 6:-0.243636 7:-0.450644 8:-0.493716 9:0.113102 
-0 -0 -0 -2 1:0.159145 2:0.0469043 3:0.429126 4:0.320231 5:0.48048 6:-0.236364 7:-0.433476 8:-0.486535 9:0.113102 
-0 -0 -0 -1.320680233125092 1:0.159145 2:0.0318949 3:0.436893 4:0.324855 5:0.48048 6:-0.229091 7:-0.44206 8:-0.472172 9:0.113102 
-2 -0 -0 -0 1:0.154394 3:0.495146 4:0.324855 5:0.486486 6:-0.212121 7:-0.424893 8:-0.493716 9:0.146697 
-0.5008078957111132 -0 -0 -0 1:0.154394 3:0.495146 4:0.324855 5:0.486486 6:-0.212121 7:-0.424893 8:-0.493716 9:0.146697 
-0 -0 -0 -2 1:0.163895 2:0.0562852 3:0.460194 4:0.32948 5:0.48048 6:-0.209697 7:-0.399142 8:-0.439856 9:0.139978 
-0 -1.701263438545852 -0 -0 1:0.163895 2:0.0600375 3:0.464078 4:0.32948 5:0.48048 6:-0.209697 7:-0.399142 8:-0.436266 9:0.139978 
-0 -2 -0 -0 1:0.163895 2:0.0600375 3:0.464078 4:0.334104 5:0.483483 6:-0.2 7:-0.390558 8:-0.432675 9:0.146697 
-0 -0.5928173795390214 -0 -0 1:0.410926 2:-0.0168856 3:0.638835 4:0.0427746 5:0.591592 6:0.0836364 7:0.905579 8:-0.572711 9:0.460246 
-0 -0 -0 -2 1:-0.344418 2:0.525328 3:0.553398 4:-0.662428 5:0.888889 6:-0.110303 7:-0.253219 8:0.849192 9:0.325868 
-0 -0 -0 -2 1:-0.344418 2:0.525328 3:0.553398 4:-0.662428 5:0.888889 6:-0.110303 7:-0.253219 8:0.849192 9:0.325868 
-0 -0 -0 -0.5799850359385745 1:-0.344418 2:0.523452 3:0.549515 4:-0.662428 5:0.888889 6:-0.110303 7:-0.253219 8:0.842011 9:0.325868 
-0 -0 -2 -0 1:-0.325416 2:0.380863 3:0.533981 4:-0.662428 5:0.0870871 6:-0.107879 7:-0.193133 8:-0.324955 9:0.139978 
-0 -0 -2 -0 1:-0.325416 2:0.380863 3:0.533981 4:-0.667052 5:0.0870871 6:-0.107879 7:-0.193133 8:-0.324955 9:0.139978 
-0 -0 -2 -0 1:-0.325416 2:0.380863 3:0.537864 4:-0.66474 5:0.0870871 6:-0.107879 7:-0.193133 8:-0.324955 9:0.142217 
-0 -0 -0.4835692316841707 -0 1:-0.334917 2:0.380863 3:0.545631 4:-0.671676 5:0.0750751 6:-0.107879 7:-0.193133 8:-0.324955 9:0.144457 
