svm_type c_svc
kernel_type rbf
gamma 0.03125
nr_class 4
total_sv 12
rho -0.290024 0.0162898 0.320511 -0.112817 -0.00531845 0.167328
label 0 2 4 6
nr_sv 4 4 2 2
SV
16.50299174220957 0.2812955210527491 20.21722349179823 1:-0.585611 2:-0.998532 3:-0.658324 4:-0.9946 5:-0.998655 6:-0.576708 7:-0.304997 8:-0.987367 9:-0.754386 10:-0.995675 11:-0.527086 12:-0.950053 13:-1 14:-0.0226969 15:-0.767305 16:-0.235412 17:-1 18:-0.0933647 
3.024125126577256 4.282959256892594 0 1:-0.770498 2:-0.983483 3:-0.537541 4:-0.987041 5:-0.996974 6:-0.610302 7:-0.555899 8:-0.987035 9:-1 10:-0.527981 11:-0.764275 12:-0.827843 13:-0.930552 14:-0.327993 15:-0.82327 16:0.114688 17:-1 18:0.424075 
4.43234398158418 3.017287784834939 2.478359685031437 1:-0.956994 2:-0.595522 3:-0.620239 4:-0.648668 5:-0.778413 6:-0.255319 7:-0.799588 8:-0.73371 9:-0.943191 10:-0.619897 11:-0.997072 12:-0.176408 13:-0.949662 14:-0.583445 15:-0.718704 16:0.00603622 17:-1 18:1 
0 0 0.4246361427453419 1:1 2:-1 3:1 4:-1 5:-0.955952 6:1 7:-0.138588 8:-0.983045 9:-0.0927318 10:-0.922682 11:-0.366032 12:-0.829968 13:-1 14:1 15:0.615611 16:-0.979879 17:-1 18:0.721903 
-19.43496876378494 4.909184589253734 10.91109807902716 1:-0.504421 2:-0.998899 3:-0.849837 4:-0.906048 5:-0.85037 6:-0.903695 7:-0.98815 8:-0.619681 9:-0.730994 10:-0.782103 11:-0.65593 12:-0.998937 13:-0.985551 14:-0.813974 15:-0.899853 16:-0.45674 17:-1 18:-0.229595 
-4.52449208658606 0 9.668857383516142 1:-0.200965 2:-1 3:-0.723613 4:-0.842333 5:-0.954943 6:-0.619821 7:-0.861927 8:-0.465426 9:-0.56391 10:-0.635036 11:-0.745974 12:-0.852285 13:-0.972034 14:-0.845127 15:-0.56701 16:-1 17:-1 18:0.25919 
-0 6.380610869183922 0 1:-1 2:-0.949349 3:-1 4:-0.234341 5:-0.286483 6:-0.981523 7:-1 8:0.978059 9:-0.918129 10:-0.426872 11:-0.801611 12:-0.824655 13:-0.139128 14:-1 15:-1 16:0.215292 17:-1 18:-0.00904287 
-0 0.9851007196817696 0.03937116212669189 1:-0.743167 2:-0.666361 3:-0.772579 4:-0.419366 5:0.462004 6:-0.854983 7:-0.915507 8:0.0900931 9:1 10:-1 11:1 12:-1 13:-0.334421 14:-0.693814 15:-0.936672 16:-0.549296 17:-0.782003 18:-0.935643 
-6.942339064523843 -8.38306235643466 5.66472259397666 1:-0.97508 2:-0.880345 3:-0.890098 4:-0.00359971 5:-0.787492 6:-0.950728 7:-0.977331 8:-0.557846 9:-0.94152 10:0.326304 11:-0.874085 12:0.0361318 13:-0.814962 14:-0.903872 15:-0.992636 16:0.219316 17:-1 18:-0.708045 
-0.63920349825644 -3.891833821684767 0.2425600298083367 1:-0.938907 2:0.261516 3:-0.992383 4:0.0604752 5:0.533961 6:-0.837626 7:-0.97321 8:0.0638298 9:-1 10:-0.183563 11:-0.204246 12:-0.679065 13:-0.195992 14:-0.728527 15:-0.942563 16:0.907445 17:0.0397972 18:-1 
-6.608293931440987 -1.161897709720029 -2.744156821653889 1:-0.944132 2:-0.975041 3:-0.651795 4:-1 5:-1 6:0.324188 7:0.312725 8:-1 9:-1 10:-0.776156 11:-1 12:0.364506 13:-1 14:-0.148198 15:-0.960236 16:-0.78672 17:-1 18:-0.730593 
-16.51192538813402 -19.45742891494996 -3.163125802131108 1:-0.76246 2:-1 3:-0.425462 4:-1 5:-0.914257 6:-0.953527 7:-0.0695518 8:-1 9:-0.754386 10:-1 11:-0.761347 12:-0.977683 13:-0.930552 14:-0.88785 15:-0.437408 16:-1 17:-1 18:-0.218321 
