svm_type c_svc
kernel_type rbf
gamma 0.5
nr_class 5
total_sv 213
rho 0.262916 0.741136 -0.0738506 0.680328 0.131497 1.67539 0.557661 0.174085 -0.061498 0.376744
label 1 3 6 8 9
nr_sv 25 51 47 42 48
SV
0 0 0 11.68251443154256 1:-0.510689 3:-0.00215054 4:-0.378035 5:0.243243 6:-0.467662 7:-0.0386266 8:-0.00179533 9:-0.569989 
0 10.27315161443328 0 0 1:-0.539192 2:0.00187617 3:-0.0752688 4:-0.39422 5:0.174775 6:-0.482587 7:-0.0987124 8:-0.00179533 9:-0.576708 
0.9191193588783799 0 0.2345275807083157 0 1:-0.325416 2:-0.435272 3:0.23871 4:0.146821 5:0.556757 6:-0.427861 7:-0.51073 8:-0.328546 9:-0.12654 
2.478475801233909 0 1.054630578914118 0.9984127562912817 1:-0.00712589 2:-0.198874 3:0.501075 4:0.269364 5:0.700901 6:-0.236318 7:-0.545064 8:-0.421903 9:0.24972 
0 0 0 9.238373284295674 1:-0.0023753 2:-0.183865 3:0.535484 4:0.255491 5:0.693694 6:-0.223881 7:-0.51073 8:-0.414722 9:0.265398 
0 0 0.8057495405625629 3.252788645143961 1:-0.852732 2:-0.161351 3:0.630108 4:-0.546821 5:-0.0126126 6:-0.330846 7:-0.536481 8:-0.924596 9:-0.00111982 
0 7.750632142592004 0 1.126261786824635 1:-0.847981 2:-0.144465 3:0.634409 4:-0.544509 5:-0.0018018 6:-0.318408 7:-0.51073 8:-0.885099 9:0.0055991 
0 0 0 10.17035339094788 1:-0.553444 2:0.183865 3:-0.0709677 4:-0.449711 5:0.0666667 6:-0.432836 7:-0.0128755 8:0.235189 9:-0.632699 
0 0 0 9.213282398579114 1:-0.558195 2:0.281426 3:-0.0408602 4:-0.516763 5:0.0378378 6:-0.325871 7:0.0472103 8:0.274686 9:-0.601344 
0.5936773180377312 0 3.496357249974585 0 1:-0.581948 2:0.298311 3:-0.088172 4:-0.526012 5:-0.0198198 6:-0.318408 7:0.0128755 8:0.281867 9:-0.62374 
0 0 0 7.429379816291362 1:-0.591449 2:0.354597 3:-0.178495 4:-0.542197 5:-0.0738739 6:-0.363184 7:-0.0300429 8:0.317774 9:-0.690929 
2.508972718291381 8.201527875850369 0.2811825688724147 0 1:-0.605701 2:0.35272 3:-0.195699 4:-0.53526 5:-0.0846847 6:-0.365672 7:-0.0643777 8:0.328546 9:-0.697648 
0.05009977223619665 0 0 0 1:-0.634204 2:0.258912 3:-0.088172 4:-0.521387 5:0.0234234 6:-0.40796 7:-0.11588 8:0.235189 9:-0.612542 
2.77428115028784 6.114050907811913 3.23846201007476 0 1:-0.382423 2:0.0881801 3:0.410753 4:0.0358382 5:0.553153 6:-0.216418 7:-0.287554 8:-0.105925 9:0.50056 
0 1.707462653327717 0 1.144848931308232 1:0.0261283 2:-0.63227 3:0.944086 4:0.315607 5:0.809009 6:-0.126866 7:0.545064 8:-0.633752 9:0.350504 
0.2293825306617223 0 0 0 1:0.0213777 2:-0.667917 3:1 4:0.310983 5:0.852252 6:-0.104478 7:0.562232 8:-0.637343 9:0.368421 
0 0 0.9352462813715289 0 1:-0.102138 2:-0.439024 3:0.548387 4:-0.0843931 5:0.412613 6:-0.29602 7:-0.0901288 8:-0.479354 9:0.225084 
0 5.219290538229345 0 0 1:-0.11639 2:-0.457786 3:0.56129 4:-0.116763 5:0.398198 6:-0.303483 7:-0.0729614 8:-0.533214 9:0.222844 
0 0 0.37248535761202 0 1:-0.605701 2:-0.470919 3:0.668817 4:-0.900578 5:-0.25045 6:-0.365672 7:0.0729614 8:-0.612208 9:0.00783875 
0 0.1304171000786915 0 0 1:-0.68171 2:-0.407129 3:0.703226 4:-0.90289 5:-0.261261 6:-0.333333 7:0.055794 8:-0.583483 9:0.0324748 
0 0 0 2.512037989695029 1:-0.957245 2:-0.277674 3:0.617204 4:-1 5:-0.502703 6:-0.39801 7:-0.433476 8:-0.7307 9:-0.106383 
0.9759521641109654 0 0 2.247157113599489 1:-0.976247 2:-0.234522 3:0.56129 4:-1 5:-0.520721 6:-0.395522 7:-0.459227 8:-0.601436 9:-0.106383 
0 12.17935542620073 0 0 1:-0.971496 2:-0.234522 3:0.574194 4:-1 5:-0.513514 6:-0.390547 7:-0.450644 8:-0.594255 9:-0.106383 
1.272622393561096 0 0 0 1:-0.971496 2:-0.257036 3:0.578495 4:-0.900578 5:-0.502703 6:-0.38806 7:-0.450644 8:-0.590664 9:-0.106383 
0 0 1.170769343241191 0 1:-0.976247 2:-0.255159 3:0.556989 4:-1 5:-0.491892 6:-0.383085 7:-0.502146 8:-0.583483 9:-0.106383 
-0 0 22.95694471885345 0 1:0.163895 2:0.709193 3:-0.0451613 4:0.123699 5:-0.0486486 6:0.211443 7:-0.296137 8:0.393178 9:0.131019 
-0 0 32 0 1:0.163895 2:0.709193 3:-0.0365591 4:0.123699 5:-0.045045 6:0.211443 7:-0.27897 8:0.393178 9:0.135498 
-0 0 32 0 1:0.211401 2:0.709193 3:-0.0666667 4:0.121387 5:-0.045045 6:0.211443 7:-0.253219 8:0.429084 9:0.101904 
-0 0 0 1.972735705944834 1:0.135392 2:0.709193 3:-0.122581 4:0.100578 5:-0.0558559 6:0.0497512 7:-0.270386 8:0.389587 9:0.0391937 
-0 0 5.284718643113712 0 1:0.140143 2:0.703565 3:-0.0752688 4:0.0913295 5:-0.0018018 6:0.0621891 7:-0.270386 8:0.371634 9:0.0862262 
-0 0 32 0 1:0.140143 2:0.709193 3:-0.0752688 4:0.10289 5:-0.0018018 6:0.0671642 7:-0.270386 8:0.389587 9:0.0862262 
-0 3.818514127505011 12.86787721556109 0 1:0.159145 2:0.703565 3:-0.0666667 4:0.0936416 5:0.0126126 6:0.0621891 7:-0.253219 8:0.396768 9:0.0795073 
-0 0 1.064786835979966 0 1:-0.311164 2:0.202627 3:0.131183 4:-0.033526 5:0.0342342 6:0.761194 7:-0.373391 8:-0.123878 9:0.283315 
-0.4672235300278442 0 0 0 1:-0.36342 2:0.144465 3:0.144086 4:-0.0381503 5:0.0486486 6:0.771144 7:-0.424893 8:-0.184919 9:0.294513 
-0.3136909246150044 0 0 0 1:-0.102138 2:0.624765 3:0.802151 4:0.50289 5:0.232432 6:1 7:-0.51073 8:0.364452 9:1 
-1.436611985271725 0 0 0 1:0.140143 2:0.0187617 3:0.156989 4:0.528324 5:0.488288 6:-0.320896 7:-0.83691 8:-0.174147 9:0.075028 
-1.987344117033054 0 0 7.790752699791448 1:0.154394 2:0.0694184 3:0.16129 4:0.528324 5:0.520721 6:-0.318408 7:-0.828326 8:-0.170557 9:0.0884658 
-0 2.028104284998362 0 0 1:0.125891 2:0.217636 3:0.122581 4:0.505202 5:0.520721 6:-0.283582 7:-0.785408 8:-0.0987433 9:0.0996641 
-0.4737036847620654 0.6093612271633928 0 0.520029548907492 1:0.805226 2:-0.750469 3:0.131183 4:0.986127 5:0.127928 6:-0.470149 7:0.862661 8:-0.482944 9:0.0593505 
-0.5219524798323284 1.606891890837814 0 1.569482335202137 1:0.805226 2:-0.196998 3:0.156989 4:0.974566 5:0.29009 6:-0.218905 7:0.819742 8:-0.292639 9:0.209406 
-0 0 3.037310797783032 0 1:0.814727 2:-0.168856 3:0.148387 4:0.979191 5:0.282883 6:-0.21393 7:0.854077 8:-0.281867 9:0.213886 
-0.2887513813091673 0.3237576275850041 0 0 1:0.60095 2:-1 3:-0.268817 4:0.539884 5:-0.347748 6:-1 7:-0.553648 8:-0.766607 9:-0.245241 
-0 0 0 1.143845696154264 1:0.60095 2:-0.992495 3:-0.264516 4:0.539884 5:-0.333333 6:-0.99005 7:-0.545064 8:-0.766607 9:-0.238522 
-0 0 0 17.05836779613741 1:-0.334917 2:0.407129 3:0.303226 4:-0.514451 5:-0.163964 6:-0.11194 7:-0.27897 8:0.202873 9:0.133259 
-0.1901168072800571 0 0 0 1:-0.334917 2:0.465291 3:0.329032 4:-0.468208 5:-0.0306306 6:-0.0373134 7:-0.27897 8:0.249551 9:0.18477 
-0 26.64207652976507 0 0 1:-0.330166 2:0.532833 3:0.341935 4:-0.468208 5:0.0126126 6:-0.0373134 7:-0.270386 8:0.249551 9:0.225084 
-0 0 0 2.200207923673096 1:-0.344418 2:0.470919 3:0.243011 4:-0.45896 5:-0.10991 6:-0.11194 7:-0.347639 8:0.113106 9:0.137738 
-4.115040269679134 0 0 4.10798399208303 1:-0.36342 2:0.354597 3:0.212903 4:-0.424277 5:-0.16036 6:-0.144279 7:-0.356223 8:0.0628366 9:0.106383 
-0 1.36823520429659 0 0 1:-0.624703 2:-0.187617 3:-0.23871 4:-0.417341 5:-0.801802 6:-0.910448 7:-0.708155 8:-0.436266 9:-0.406495 
-0.9280139082865421 0 0 0 1:-0.667458 2:-0.292683 3:-0.260215 4:-0.40578 5:-0.801802 6:-0.910448 7:-0.725322 8:-0.497307 9:-0.417693 
-0.7598248560009799 0.3957869051124341 0 0 1:-0.686461 2:-0.27955 3:-0.182796 4:-0.292486 5:-0.718919 6:-0.870647 7:-0.76824 8:-0.633752 9:-0.388578 
-0 0 0.7522148056263324 0 1:-0.543943 2:-0.0750469 3:-0.0709677 4:-0.301734 5:-0.632432 6:-0.699005 7:-0.759657 8:-0.378815 9:-0.298992 
-0 0 0 5.424515323539965 1:-0.543943 2:-0.0731707 3:-0.0709677 4:-0.301734 5:-0.632432 6:-0.699005 7:-0.733906 8:-0.375224 9:-0.298992 
-0 0 4.514979924550495 0 1:-0.382423 2:0.178236 3:0.221505 4:-0.105202 5:-0.0594595 6:0.982587 7:-0.44206 8:-0.206463 9:0.337066 
-0 0 8.23823118625829 0 1:0.0308789 2:0.624765 3:0.419355 4:0.465896 5:0.0810811 6:1 7:-0.536481 8:0.605027 9:0.789474 
-0 0 5.033711921997502 0 1:0.0308789 2:0.624765 3:0.419355 4:0.463584 5:0.0918919 6:1 7:-0.519313 8:0.594255 9:0.793953 
-0 0 6.1074131741769 0 1:0.173397 2:0.322702 3:0.0924731 4:0.380347 5:0.387387 6:-0.288557 7:-0.811159 8:-0.102334 9:0.108623 
-0 0 17.69088907301455 0 1:0.187648 2:0.639775 3:0.0666667 4:0.371098 5:0.275676 6:-0.223881 7:-0.811159 8:0.0664273 9:0.133259 
-0 0 6.179628478307849 0 1:0.258907 2:0.463415 3:0.0537634 4:0.39422 5:0.174775 6:-0.300995 7:-0.776824 8:0.02693 9:0.0727884 
-0 0 24.92949167126849 0 1:-0.301663 2:0.418386 3:0.169892 4:-0.523699 5:-0.221622 6:-0.171642 7:-0.339056 8:0.145422 9:0.0839866 
-0 0 16.5052844254785 1.079966230362593 1:0.0356295 2:-0.183865 3:-0.0709677 4:0.0219653 5:-0.466667 6:-0.597015 7:-0.381974 8:-0.278276 9:-0.193729 
-0 0 2.908244402097472 0 1:-0.0973872 2:0.709193 3:0.144086 4:-0.158382 5:-0.192793 6:0.686567 7:-0.055794 8:0.314183 9:0.285554 
-0 0 0 0.4479665939746186 1:-0.505938 2:0.287054 3:0.621505 4:-0.190751 5:-0.297297 6:0.992537 7:-0.527897 8:-0.238779 9:0.417693 
-0.2938343814383813 0 0 0.5751763943592427 1:0.064133 2:0.624765 3:0.832258 4:0.435838 5:0.225225 6:1 7:-0.175966 8:0.590664 9:0.932811 
-0 1.466168808842655 0 0 1:0.0688836 2:0.624765 3:0.763441 4:0.440462 5:0.225225 6:1 7:-0.167382 8:0.601436 9:0.903695 
-0 0 10.0483608374314 0 1:0.315914 2:0.662289 3:0.139785 4:0.310983 5:0.0846847 6:-0.196517 7:-0.587983 8:0.271095 9:0.119821 
-0 0 32 0 1:0.315914 2:0.658537 3:0.122581 4:0.308671 5:0.0666667 6:-0.206468 7:-0.596567 8:0.271095 9:0.108623 
-0 0 0.311882234345249 0 1:0.353919 2:0.65666 3:0.101075 4:0.313295 5:0.0234234 6:-0.206468 7:-0.596567 8:0.271095 9:0.0839866 
-0.02647488176293877 0.219568315226259 0 0 1:0.990499 2:-0.0300188 3:0.135484 4:0.750289 5:-0.117117 6:-0.258706 7:1 8:0.070018 9:0.0996641 
-0 0 0 0.865849954611345 1:1 2:-0.0225141 3:0.0967742 4:0.734104 5:-0.167568 6:-0.261194 7:0.982833 8:0.070018 9:0.0884658 
-0 0 2.592152079303796 0 1:0.415677 2:-0.574109 3:-0.139785 4:0.304046 5:-0.268468 6:-0.751244 7:-0.519313 8:-0.536804 9:-0.106383 
-0 0 10.49159815238136 0 1:-0.325416 2:0.452158 3:0.178495 4:-0.713295 5:-0.293694 6:-0.169154 7:-0.399142 8:0.267504 9:0.0772676 
-0 0 0 3.954560483259341 1:-0.249406 2:0.688555 3:0.0580645 4:-0.861272 5:-0.41982 6:-0.164179 7:-0.347639 8:0.56553 9:0.0324748 
-0 1.466920771794149 0 0 1:-0.0831354 2:-0.245779 3:-0.0709677 4:-0.017341 5:-0.484685 6:-0.609453 7:-0.44206 8:-0.364452 9:-0.180291 
-0 1.341654973610955 0 0 1:-0.0831354 2:-0.238274 3:-0.0967742 4:-0.0473988 5:-0.502703 6:-0.609453 7:-0.44206 8:-0.357271 9:-0.18477 
-0 0 2.532067157238788 0 1:-0.558195 2:-0.0994371 3:-0.298925 4:-0.625434 5:-0.985586 6:-0.793532 7:-0.939914 8:-0.152603 9:-0.426652 
-0 -0 0 15.61993136000925 1:-0.182898 2:0.251407 3:-0.354839 4:-0.156069 5:0.23964 6:-0.664179 7:0.175966 8:0.339318 9:-0.720045 
-5.202736437483593 -0 0 0 1:-0.239905 2:0.227017 3:-0.329032 4:-0.139884 5:0.29009 6:-0.699005 7:0.124464 8:0.321364 9:-0.711086 
-0 -0.754535880470328 0 0 1:-0.325416 2:-0.0825516 3:-0.458065 4:-0.301734 5:0.0738739 6:-0.835821 7:-0.373391 8:-0.174147 9:-0.970885 
-0 -0 0.4701633871393915 0 1:-0.320665 2:-0.0787992 3:-0.458065 4:-0.301734 5:0.0738739 6:-0.835821 7:-0.373391 8:-0.152603 9:-0.964166 
-0 -0 0 21.20411210408011 1:-0.349169 2:0.00375235 3:-0.445161 4:-0.345665 5:0.0378378 6:-0.830846 7:-0.321888 8:-0.105925 9:-0.910414 
-0 -0 0 4.971003965944952 1:-0.192399 2:0.621013 3:-0.363441 4:0.0150289 5:-0.167568 6:-0.472637 7:-0.107296 8:0.56912 9:-0.258679 
-0 -3.305626067875081 2.688377304835048 32 1:-0.19715 2:0.621013 3:-0.35914 4:0.00115607 5:-0.163964 6:-0.470149 7:-0.11588 8:0.561939 9:-0.24972 
-0 -0 0 32 1:-0.19715 2:0.621013 3:-0.35914 4:0.00115607 5:-0.163964 6:-0.472637 7:-0.11588 8:0.561939 9:-0.24972 
-0.4743537485487063 -0 0 0 1:-0.239905 2:0.538462 3:0.316129 4:0.0890173 5:0.293694 6:0.0746269 7:0.055794 8:0.393178 9:0.334826 
-0 -0 4.373453518209474 0 1:-0.235154 2:0.585366 3:0.28172 4:0.0265896 5:0.272072 6:0.0597015 7:-0.00429185 8:0.368043 9:0.325868 
-0 -0 1.973651898647945 0 1:-0.220903 2:0.587242 3:0.303226 4:0.0104046 5:0.279279 6:0.0646766 7:0.00429185 8:0.371634 9:0.328108 
-1.093795602973918 -0 0 0 1:-0.273159 2:0.58349 3:0.303226 4:-0.017341 5:0.340541 6:0.0547264 7:-0.0300429 8:0.371634 9:0.31243 
-2.053748494013405 -0 0 0 1:0.368171 2:-0.485929 3:0.604301 4:0.491329 5:0.491892 6:-0.0920398 7:0.862661 8:-0.834829 9:0.303471 
-0 -0 0.4315063442392314 5.655103330109133 1:0.368171 2:-0.397749 3:0.604301 4:0.495954 5:0.495495 6:-0.0845771 7:0.879828 8:-0.806104 9:0.303471 
-0 -1.523896893814629 0 0 1:0.382423 2:-0.420263 3:0.604301 4:0.493642 5:0.502703 6:-0.0920398 7:0.888412 8:-0.795332 9:0.307951 
-0 -0 9.25592130595377 0 1:0.0213777 2:-0.341463 3:0.298925 4:-0.0890173 5:0.0234234 6:-0.425373 7:-0.356223 8:-0.766607 9:0.0503919 
-0 -1.231276549004988 0 0 1:0.0213777 2:-0.348968 3:0.290323 4:-0.10289 5:-0.027027 6:-0.440299 7:-0.356223 8:-0.788151 9:0.0414334 
-0 -0 0 6.093084009884014 1:0.0356295 2:-0.347092 3:0.311828 4:-0.0867052 5:0.00540541 6:-0.442786 7:-0.347639 8:-0.795332 9:0.0391937 
-8.851072783472775 -0 0 0 1:-0.444181 2:0.170732 3:0.488172 4:-0.34104 5:0.243243 6:-0.124378 7:-0.0729614 8:-0.364452 9:0.236282 
-0 -0 0 15.46698326041767 1:-0.453682 2:0.165103 3:0.35914 4:-0.366474 5:0.142342 6:-0.208955 7:-0.270386 8:-0.439856 9:0.157895 
-0 -1.63895307597683 0 32 1:-0.847981 2:0.138837 3:0.569892 4:-0.83815 5:-0.383784 6:-0.248756 7:-0.562232 8:-0.572711 9:0.0145577 
-0 -0 0 11.21297194331785 1:-0.824228 2:0.121951 3:0.556989 4:-0.93526 5:-0.405405 6:-0.266169 7:-0.570815 8:-0.551167 9:-0.00783875 
-0 -0.4890585237295976 1.081231913833711 0 1:-0.206651 2:0.624765 3:-0.565591 4:-0.0705202 5:-0.32973 6:-0.482587 7:-0.150215 8:0.759425 9:-0.319149 
-6.295597347238273 -0 0 0 1:-0.0783848 2:-0.407129 3:0.316129 4:-0.209249 5:0.0162162 6:-0.437811 7:-0.296137 8:-0.820467 9:0.0324748 
-0.08044177023380393 -0 0 0 1:-0.130641 2:-0.407129 3:0.290323 4:-0.250867 5:-0.027027 6:-0.442786 7:-0.364807 8:-0.842011 9:0.0145577 
-0 -0 0 16.80440330957277 1:-0.472684 2:0.234522 3:0.234409 4:-0.42659 5:0.0558559 6:-0.228856 7:-0.261803 8:-0.411131 9:0.139978 
-0 -0.2404384931573369 0 0 1:-0.501188 2:0.253283 3:0.195699 4:-0.440462 5:0.027027 6:-0.241294 7:-0.296137 8:-0.385996 9:0.135498 
-0 -0 12.47951513363514 0 1:-0.501188 2:0.251407 3:0.195699 4:-0.440462 5:0.027027 6:-0.241294 7:-0.296137 8:-0.393178 9:0.135498 
-0 -0 0 21.57432638196124 1:-0.486936 2:0.253283 3:0.212903 4:-0.440462 5:0.0342342 6:-0.238806 7:-0.287554 8:-0.393178 9:0.139978 
-3.358157067413444 -0 0 0 1:-0.833729 2:0.054409 3:0.595699 4:-1 5:-0.412613 6:-0.28607 7:-0.562232 8:-0.554758 9:-0.0347144 
-3.545970370092085 -0 0 0 1:-0.833729 2:0.054409 3:0.587097 4:-1 5:-0.427027 6:-0.28607 7:-0.562232 8:-0.554758 9:-0.0414334 
-8.874961958491964 -0 0 32 1:-0.833729 2:0.0619137 3:0.6 4:-0.817341 5:-0.412613 6:-0.278607 7:-0.545064 8:-0.51167 9:-0.0324748 
-9.181054816137268 -0 0 0 1:-0.653207 2:0.043152 3:-0.423656 4:-0.576879 5:0.0126126 6:-0.798507 7:-0.244635 8:0.005386 9:-0.852184 
-0 -0 0 6.728841672627063 1:-0.648456 2:0.0637899 3:-0.522581 4:-0.579191 5:-0.0558559 6:-0.81592 7:-0.270386 8:0.00897666 9:-0.883539 
-0 -0 0 8.77753647590704 1:-0.657957 2:0.0619137 3:-0.522581 4:-0.581503 5:-0.0558559 6:-0.818408 7:-0.27897 8:-0.00179533 9:-0.883539 
-1.343258805350133 -0 0 0 1:-0.2019 2:0.624765 3:-0.44086 4:-0.146821 5:-0.311712 6:-0.39801 7:0.0815451 8:0.974865 9:-0.25196 
-0 -17.74114960749838 0 0 1:-0.311164 2:0.660413 3:0.260215 4:-0.165318 5:0.322523 6:0.0472637 7:-0.107296 8:0.382406 9:0.301232 
-0 -0 0 4.862834020432609 1:-0.239905 2:0.65666 3:0.32043 4:-0.202312 5:0.340541 6:0.0895522 7:-0.00429185 8:0.382406 9:0.339306 
-0 -0 0 19.99969618308253 1:0.159145 2:-0.131332 3:0.423656 4:0.2 5:0.16036 6:-0.124378 7:0.83691 8:-0.67325 9:0.243001 
-0 -0 0 3.976837358820869 1:0.159145 2:-0.131332 3:0.423656 4:0.213873 5:0.163964 6:-0.119403 7:0.845494 8:-0.666068 9:0.245241 
-0 -9.587962773305641 0 7.014901962421091 1:-0.182898 2:0.144465 3:0.294624 4:-0.620809 5:0.0126126 6:-0.293532 7:-0.261803 8:-0.0233393 9:0.106383 
-0 -1.289213592847753 23.20953590562942 0 1:-0.211401 2:0.11257 3:0.294624 4:-0.620809 5:0.0126126 6:-0.293532 7:-0.304721 8:-0.0448833 9:0.0929451 
-0.7261661938217012 -0 0 0 1:-0.244656 2:0.0337711 3:0.367742 4:-0.532948 5:0.0738739 6:-0.298507 7:-0.296137 8:-0.0412926 9:0.106383 
-0.4945728632529811 -0 0 0 1:-0.567696 2:0.0806754 3:0.225806 4:-0.516763 5:0.0486486 6:-0.278607 7:-0.390558 8:-0.504488 9:0.119821 
-0 -2.265802182300356 0 0 1:-0.410926 2:0.527205 3:0.470968 4:-1 5:0.192793 6:-0.0696517 7:0.107296 8:0.29623 9:0.307951 
-0 -0 0 6.962526437230139 1:-0.429929 2:0.545966 3:0.509677 4:-1 5:0.243243 6:-0.0547264 7:0.158798 8:0.332136 9:0.325868 
-0 -1.219127026756777 0 0 1:-0.733967 2:0.15197 3:0.6 4:-1 5:-0.362162 6:-0.251244 7:-0.339056 8:-0.267504 9:0.00783875 
-0 -12.46882827458889 -0 0 1:-0.0831354 2:0.600375 3:-0.0408602 4:-0.0450867 5:-0.00900901 6:0.808458 7:-0.00429185 8:0.29623 9:0.0503919 
-0 -0 -0.8871781533155816 0 1:-0.0831354 2:0.602251 3:-0.0322581 4:-0.0427746 5:0.0018018 6:0.810945 7:0.0128755 8:0.307002 9:0.0503919 
-0.8356760875184986 -0 -0 1.693974462375132 1:-0.382423 2:0.545966 3:-0.548387 4:-0.526012 5:-0.524324 6:0.701493 7:-0.356223 8:0.13465 9:-0.341545 
-0 -4.132239392583537 -0 0 1:-0.391924 2:0.534709 3:-0.548387 4:-0.498266 5:-0.520721 6:0.669154 7:-0.424893 8:0.0915619 9:-0.334826 
-0 -0 -0 0.2634428732081517 1:-0.43943 2:0.5197 3:-0.544086 4:-0.491329 5:-0.517117 6:0.669154 7:-0.476395 8:0.0664273 9:-0.334826 
-0 -32 -0 0 1:0.159145 2:0.624765 3:-0.0623656 4:0.380347 5:-0.0342342 6:0.328358 7:-0.390558 8:0.518851 9:0.18477 
-0 -20.71339714771261 -0 0 1:0.163895 2:0.624765 3:-0.0623656 4:0.380347 5:-0.0126126 6:0.328358 7:-0.347639 8:0.536804 9:0.204927 
-0 -1.310820228591026 -0 0 1:0.182898 2:0.624765 3:-0.0666667 4:0.401156 5:0.027027 6:0.243781 7:-0.364807 8:0.536804 9:0.227324 
-0 -32 -0 0 1:0.182898 2:0.624765 3:-0.0666667 4:0.401156 5:0.027027 6:0.243781 7:-0.381974 8:0.536804 9:0.204927 
-0.0748635638616954 -0 -0.1269224104813805 0 1:0.244656 2:0.624765 3:-0.225806 4:0.445087 5:-0.0378378 6:0.328358 7:-0.356223 8:0.61939 9:0.139978 
-0 -32 -0 0 1:0.19715 2:0.953096 3:0.139785 4:0.0635838 5:0.178378 6:-0.0970149 7:-0.356223 8:0.364452 9:0.193729 
-0 -32 -0 0 1:0.2019 2:0.968105 3:0.11828 4:0.049711 5:0.171171 6:-0.0970149 7:-0.347639 8:0.364452 9:0.18701 
-0 -0 -0 3.372862524078041 1:0.2019 2:1 3:0.131183 4:0.049711 5:0.171171 6:-0.0970149 7:-0.339056 8:0.368043 9:0.18701 
-0.7967944798425539 -0 -0 5.780206192229367 1:0.225653 2:0.116323 3:-0.00215054 4:0.338728 5:0.203604 6:-0.455224 7:-0.545064 8:-0.29623 9:0.0279955 
-0 -25.06341206742569 -0 0 1:0.235154 2:0.288931 3:-0.0580645 4:0.338728 5:0.171171 6:-0.39801 7:-0.579399 8:-0.174147 9:0.0391937 
-0 -0 -0 0.6988636775910078 1:0.482185 2:0.532833 3:-0.165591 4:0.428902 5:0.131532 6:-0.201493 7:0.390558 8:-0.0520646 9:0.24748 
-0 -0.7235319895366655 -0 0 1:0.482185 2:0.590994 3:-0.0967742 4:0.331792 5:0.0990991 6:-0.149254 7:0.356223 8:0.005386 9:0.276596 
-0 -10.82474647497493 -0 0 1:-0.168646 2:0.189493 3:0.0451613 4:-0.218497 5:-0.120721 6:-0.278607 7:-0.519313 8:-0.228007 9:0.0996641 
-0 -1.641400989219801 -0 0 1:0.125891 2:0.174484 3:0.406452 4:-0.828902 5:-0.603604 6:-0.300995 7:-0.321888 8:0.608618 9:-0.0683091 
-0 -0.6551192986782767 -0 0 1:-0.192399 2:0.26454 3:0.617204 4:-0.939884 5:0.00900901 6:-0.261194 7:-0.227468 8:1 9:-0.043673 
-0 -1.067711957504669 -0 0 1:-0.301663 2:0.290807 3:0.298925 4:-0.842775 5:-0.535135 6:-0.482587 7:-0.236052 8:0.518851 9:-0.238522 
-0 -9.225801861744792 -7.33285026687427 0 1:-0.315914 2:0.257036 3:0.286022 4:-0.821965 5:-0.506306 6:-0.5 7:-0.244635 8:0.450628 9:-0.234043 
-0 -0 -0 7.180057790980445 1:-0.315914 2:0.266417 3:0.286022 4:-0.82659 5:-0.506306 6:-0.5 7:-0.236052 8:0.4614 9:-0.234043 
-1.454265477754044 -0 -0 0 1:-0.320665 2:0.266417 3:0.260215 4:-0.840462 5:-0.54955 6:-0.512438 7:-0.236052 8:0.4614 9:-0.256439 
-0 -8.434206760988465 -0 0 1:-0.149644 2:0.617261 3:0.178495 4:-0.220809 5:-0.0882883 6:0.992537 7:0.0214592 8:0.231598 9:0.12654 
-0.2239484265664047 -0 -1.166836758488258 0 1:-0.144893 2:0.615385 3:0.174194 4:-0.213873 5:-0.0774775 6:0.992537 7:0.0815451 8:0.249551 9:0.12206 
-0 -0.0120371955515102 -0 0 1:0.477435 2:0.688555 3:0.0193548 4:0.197688 5:0.156757 6:-0.079602 7:0.467811 8:0.123878 9:0.334826 
-5.642798679006122 -0 -26.72746413318302 24.84794297562752 1:-0.19715 2:0.106942 3:0.2 4:-0.253179 5:0.0486486 6:-0.241294 7:-0.450644 8:-0.360862 9:0.169093 
-0 -0 -0 2.62469197133281 1:-0.125891 2:0.705441 3:0.152688 4:-0.294798 5:-0.221622 6:0.992537 7:0.133047 8:0.332136 9:0.00111982 
-0 -6.70280410424087 -0 0 1:0.2019 2:0.624765 3:-0.191398 4:0.276301 5:-0.232432 6:0.460199 7:-0.630901 8:0.533214 9:0.12206 
-0 -31.48854184732744 -0 0 1:0.268409 2:0.553471 3:-0.126882 4:0.109827 5:-0.196396 6:-0.380597 7:-0.553648 8:0.0341113 9:-0.0369541 
-0 -0 -3.056906506883241 0 1:0.496437 2:0.741088 3:0.144086 4:0.130636 5:0.275676 6:-0.0223881 7:0.639485 8:0.220826 9:0.399776 
-0.9574520884982296 -0 -0 2.167815453393115 1:0.524941 2:0.776735 3:0.16129 4:0.128324 5:0.297297 6:-0.00497512 7:0.716738 8:0.245961 9:0.426652 
-0 -0 -13.09446768651272 0 1:-0.154394 2:0.243902 3:0.148387 4:-0.442775 5:-0.0414414 6:-0.261194 7:-0.433476 8:-0.195691 9:0.155655 
-0 -0 -0 2.45108774333777 1:-0.140143 2:0.309568 3:0.152688 4:-0.442775 5:-0.0414414 6:-0.256219 7:-0.433476 8:-0.138241 9:0.155655 
-0 -29.58318814409903 -0 0 1:-0.0451306 2:0.369606 3:0.139785 4:-0.465896 5:-0.174775 6:-0.241294 7:-0.339056 8:0.00179533 9:0.139978 
-0 -0 -3.570730796384672 0 1:-0.182898 2:0.452158 3:0.858065 4:-1 5:0.29009 6:-0.126866 7:-0.0643777 8:1 9:0.0660694 
-0 -0 -0 0.411308535907048 1:-0.182898 2:0.452158 3:0.853763 4:-1 5:0.286486 6:-0.126866 7:-0.0643777 8:1 9:0.0660694 
-1.010172836664855 -0 -0 0 1:-0.178147 2:0.454034 3:0.87957 4:-1 5:0.293694 6:-0.121891 7:-0.055794 8:1 9:0.0660694 
-0 -0 -0 10.02442021151903 1:-0.163895 2:0.470919 3:0.896774 4:-1 5:0.293694 6:-0.11194 7:-0.0214592 8:1 9:0.0705487 
-0.5934388716190946 -0 -0 0 1:-0.249406 2:0.577861 3:0.16129 4:-1 5:-0.636036 6:-0.517413 7:-0.0128755 8:0.888689 9:-0.319149 
-0 -0 -0 2.578488679860325 1:-0.244656 2:0.587242 3:0.16129 4:-0.877457 5:-0.636036 6:-0.514925 7:-0.0472103 8:0.89228 9:-0.323628 
-6.48700769411485 -0 -0 -0 1:-0.320665 2:0.257036 3:0.0709677 4:-0.322543 5:0.254054 6:-0.415423 7:0.133047 8:0.166966 9:-0.599104 
-0 -0 -15.69345544770094 -0 1:-0.35867 2:0.262664 3:-0.0150538 4:-0.324855 5:0.203604 6:-0.472637 7:-0.0128755 8:0.13465 9:-0.661814 
-0 -0 -7.301186773759547 -0 1:-0.5962 2:-0.110694 3:-0.896774 4:-0.445087 5:0.0702703 6:-0.900498 7:-0.51073 8:-0.228007 9:-0.93505 
-0 -0 -0 -0.3983218754134549 1:-0.5962 2:-0.108818 3:-0.896774 4:-0.445087 5:0.0738739 6:-0.89801 7:-0.493562 8:-0.235189 9:-0.923852 
-0 -0 -0 -0.8966028706707926 1:-0.5962 2:-0.108818 3:-0.896774 4:-0.445087 5:0.0774775 6:-0.89801 7:-0.493562 8:-0.235189 9:-0.923852 
-2.09030049042787 -0 -0 -0 1:-0.60095 2:-0.110694 3:-0.892473 4:-0.454335 5:0.0738739 6:-0.900498 7:-0.493562 8:-0.238779 9:-0.926092 
-0 -1.274742835547061 -0 -0 1:-0.615202 2:-0.120075 3:-0.939785 4:-0.482081 5:0.0342342 6:-0.927861 7:-0.527897 8:-0.278276 9:-0.93729 
-0 -0 -32 -0 1:-0.273159 2:0.540338 3:-0.290323 4:-0.065896 5:-0.153153 6:-0.5199 7:-0.0472103 8:0.357271 9:-0.287794 
-0 -0 -13.28391895941463 -0 1:-0.249406 2:0.549719 3:-0.354839 4:-0.0520231 5:-0.192793 6:-0.524876 7:-0.0472103 8:0.35009 9:-0.296753 
-0 -0 -26.30335461688553 -0 1:-0.244656 2:0.577861 3:-0.307527 4:-0.0289017 5:-0.167568 6:-0.502488 7:-0.0300429 8:0.375224 9:-0.287794 
-0 -5.600176182984494 -0 -0 1:0.311164 2:-0.0787992 3:0.333333 4:0.546821 5:0.495495 6:-0.380597 7:-0.579399 8:-0.547576 9:0.0459127 
-0 -0 -32 -0 1:0.144893 2:-0.0225141 3:0.406452 4:0.109827 5:0.423423 6:-0.0646766 7:0.793991 8:-0.694794 9:0.363942 
-0.9996377364275596 -0 -0.1405976849228058 -0 1:0.154394 2:-0.0318949 3:0.432258 4:0.116763 5:0.430631 6:-0.0472637 7:0.785408 8:-0.687612 9:0.366181 
-0 -2.022177406481173 -0 -0 1:-0.467933 2:0.424015 3:0.513978 4:-0.558382 5:0.924324 6:-0.109453 7:-0.373391 8:0.705566 9:0.368421 
-0 -5.35844629180139 -0 -0 1:-0.273159 2:0.371482 3:0.617204 4:-1 5:-0.0630631 6:0.159204 7:0.150215 8:0.788151 9:0.31019 
-0 -0 -6.484783027749108 -0 1:-0.263658 2:0.365854 3:0.621505 4:-1 5:-0.045045 6:0.161692 7:0.150215 8:0.770197 9:0.307951 
-0 -16.42611585612829 -0 -0 1:-0.420428 2:0.285178 3:0.432258 4:-0.565318 5:-0.207207 6:-0.253731 7:-0.622318 8:-0.238779 9:-0.0055991 
-0 -0 -0 -14.83775155829125 1:-0.434679 2:0.227017 3:0.372043 4:-0.558382 5:-0.174775 6:-0.248756 7:-0.579399 8:-0.357271 9:0.0571109 
-0 -0 -3.001209929210126 -0 1:-0.434679 2:0.249531 3:0.389247 4:-0.595376 5:-0.0954955 6:-0.21393 7:-0.493562 8:-0.393178 9:0.0795073 
-0 -0 -32 -0 1:-0.453682 2:0.255159 3:0.389247 4:-0.604624 5:-0.0954955 6:-0.223881 7:-0.51073 8:-0.411131 9:0.0795073 
-0 -0 -2.922549258558387 -0 1:-0.729216 2:0.121951 3:0.574194 4:-0.717919 5:-0.340541 6:-0.221393 7:-0.493562 8:-0.633752 9:0.0167973 
-10.17004945790952 -0 -32 -0 1:-0.729216 2:0.118199 3:0.569892 4:-0.720231 5:-0.340541 6:-0.221393 7:-0.493562 8:-0.633752 9:0.0145577 
-0 -0 -32 -0 1:-0.724466 2:0.121951 3:0.569892 4:-0.720231 5:-0.340541 6:-0.221393 7:-0.493562 8:-0.630162 9:0.0167973 
-0 -0 -15.34002850400766 -0 1:-0.719715 2:0.123827 3:0.569892 4:-0.717919 5:-0.340541 6:-0.221393 7:-0.476395 8:-0.626571 9:0.0167973 
-0 -0 -5.629306326782688 -0 1:-0.372922 2:0.255159 3:0.00215054 4:-0.387283 5:0.167568 6:-0.477612 7:-0.0729614 8:0.131059 9:-0.708847 
-21.10010088646586 -0 -0 -0 1:-0.387173 2:0.260788 3:-0.0451613 4:-0.428902 5:0.0882883 6:-0.440299 7:-0.133047 8:0.145422 9:-0.715566 
-0 -0 -8.413170334991628 -0 1:-0.173397 2:0.60788 3:-0.264516 4:-0.100578 5:-0.178378 6:-0.440299 7:-0.0472103 8:0.40754 9:-0.258679 
-0 -0 -6.01501326508745 -0 1:-0.178147 2:0.624765 3:-0.251613 4:-0.132948 5:-0.225225 6:-0.412935 7:-0.0472103 8:0.443447 9:-0.231803 
-8.717363412536745 -0 -0 -0 1:0.216152 2:-0.123827 3:0.449462 4:0.433526 5:0.506306 6:-0.298507 7:-0.476395 8:-0.597846 9:0.117581 
-0 -0 -7.359654282344981 -0 1:0.192399 2:-0.118199 3:0.389247 4:0.410405 5:0.466667 6:-0.308458 7:-0.484979 8:-0.590664 9:0.0974244 
-0 -0 -0 -1.363268367035685 1:0.239905 2:0.0300188 3:0.372043 4:0.049711 5:0.41982 6:-0.039801 7:0.879828 8:-0.62298 9:0.399776 
-0 -0.3273724025757145 -0 -0 1:0.235154 2:0.0300188 3:0.372043 4:0.0635838 5:0.430631 6:-0.0348259 7:0.896996 8:-0.61939 9:0.395297 
-2.004252624314436 -0 -7.826924973354044 -0 1:-0.515439 2:0.420263 3:0.470968 4:-0.646243 5:0.902703 6:-0.121891 7:-0.390558 8:0.72711 9:0.357223 
-0 -0 -0 -8.320317032161853 1:-0.273159 2:0.395872 3:0.664516 4:-1 5:0.0018018 6:0.154229 7:0.193133 8:0.906643 9:0.276596 
-0.30643320205719 -0 -0 -0 1:-0.330166 2:0.403377 3:0.643011 4:-1 5:0.0162162 6:0.164179 7:0.193133 8:0.917415 9:0.283315 
-0 -0 -0 -5.123050396707852 1:-0.349169 2:0.335835 3:0.363441 4:-0.597688 5:-0.10991 6:-0.208955 7:-0.339056 8:-0.339318 9:0.0929451 
-0 -0.6529856935024715 -0 -0 1:-0.349169 2:0.35272 3:0.363441 4:-0.597688 5:-0.117117 6:-0.19403 7:-0.304721 8:-0.342908 9:0.101904 
-0 -0 -0 -0.1281873863541365 1:-0.296912 2:0.273921 3:-0.027957 4:-0.456647 5:0.0810811 6:-0.435323 7:-0.0815451 8:0.181329 9:-0.74692 
-7.140265040265189 -0 -0 -0 1:-0.306413 2:0.27955 3:-0.0193548 4:-0.482081 5:0.0774775 6:-0.385572 7:0.11588 8:0.238779 9:-0.729003 
-0 -0 -19.20994039104877 -0 1:-0.444181 2:-0.0337711 3:-0.853763 4:-0.558382 5:0.027027 6:-0.902985 7:-0.321888 8:-0.199282 9:-0.961926 
-0 -0 -0 -4.574457734099503 1:-0.178147 2:0.624765 3:-0.083871 4:-0.269364 5:-0.232432 6:-0.328358 7:-0.0472103 8:0.411131 9:-0.178052 
-0 -9.360934851859231 -0 -8.083623528383761 1:-0.178147 2:0.624765 3:-0.083871 4:-0.267052 5:-0.232432 6:-0.323383 7:-0.0472103 8:0.414722 9:-0.178052 
-0 -4.480463146852979 -0 -0 1:-0.187648 2:0.624765 3:-0.0752688 4:-0.269364 5:-0.228829 6:-0.328358 7:-0.0386266 8:0.411131 9:-0.169093 
-0 -0 -0 -15.17870538644064 1:0.159145 2:0.0469043 3:0.363441 4:0.320231 5:0.365766 6:-0.276119 7:-0.450644 8:-0.493716 9:0.113102 
-0 -2.814399461861634 -0 -0 1:0.163895 2:0.0600375 3:0.406452 4:0.334104 5:0.38018 6:-0.231343 7:-0.390558 8:-0.432675 9:0.146697 
-0 -0.3936265484063766 -0 -0 1:0.391924 2:-0.0168856 3:0.574194 4:0.0358382 5:0.488288 6:0.0447761 7:0.905579 8:-0.572711 9:0.451288 
-0 -0 -0 -3.969233957896022 1:-0.344418 2:0.525328 3:0.505376 4:-0.662428 5:0.866667 6:-0.139303 7:-0.253219 8:0.849192 9:0.325868 
-0 -0 -0 -1.221642997984814 1:-0.349169 2:0.476548 3:0.75914 4:-1 5:0.0126126 6:0.179104 7:0.167382 8:1 9:0.274356 
