svm_type c_svc
kernel_type rbf
gamma 0.5
nr_class 6
total_sv 786
rho 0.271218 0.374231 0.0375507 0.372307 0.518913 0.356016 -0.0551195 0.201327 0.076858 0.200997 -0.061591 -0.315686 0.0171877 0.495805 0.0286638
label 0 3 5 6 8 9
nr_sv 122 172 131 54 166 141
SV
0 0.5 0.5 0 0.5 1:-0.0774194 2:0.00396825 3:-0.260394 4:-0.252236 5:0.030303 6:-0.0434783 7:0.322581 8:-0.195822 9:0.333333 
0 0.5 0.336067357520579 0 0.5 1:-0.083871 2:0.00396825 3:-0.269147 4:-0.252236 5:0.0252525 6:-0.0434783 7:0.301075 8:-0.195822 9:0.333333 
0 0.5 0 0 0.5 1:-0.083871 2:0.00396825 3:-0.269147 4:-0.252236 5:0.0252525 6:-0.0652174 7:0.301075 8:-0.206266 9:0.333333 
0 0 0 0 0.4583008875438565 1:-0.0967742 2:0.00396825 3:-0.269147 4:-0.252236 5:0.020202 6:-0.0652174 7:0.27957 8:-0.206266 9:0.333333 
0 0.5 0 0 0.5 1:-0.083871 2:0.00396825 3:-0.269147 4:-0.245081 5:0.0252525 6:-0.0434783 7:0.301075 8:-0.21671 9:0.333333 
0 0.3534693951799703 0 0 0 1:-0.212903 2:-0.015873 3:-0.26477 4:-0.334526 5:0.040404 6:-0.0942029 7:0.301075 8:-0.180157 9:0.333333 
0 0.5 0.5 0 0 1:-0.212903 2:-0.015873 3:-0.26477 4:-0.32737 5:0.040404 6:-0.0942029 7:0.301075 8:-0.159269 9:0.348659 
0 0.5 0 0 0 1:-0.206452 2:-0.015873 3:-0.26477 4:-0.334526 5:0.040404 6:-0.0942029 7:0.311828 8:-0.174935 9:0.348659 
0 0.5 0 0 0 1:-0.219355 2:-0.015873 3:-0.273523 4:-0.334526 5:0.0252525 6:-0.0942029 7:0.301075 8:-0.174935 9:0.333333 
0 0 0.4005614156457566 0 0 1:-0.251613 2:-0.015873 3:-0.269147 4:-0.37746 5:0.0353535 6:-0.123188 7:0.236559 8:-0.164491 9:0.318008 
0 0.5 0 0 0 1:0.0774194 2:-0.444444 3:-0.382932 4:-0.266547 5:-0.277778 6:-0.202899 7:0.182796 8:-0.472585 9:0.463602 
0 0.5 0 0 0 1:0.0451613 2:-0.47619 3:-0.387309 4:-0.29517 5:-0.277778 6:-0.202899 7:0.182796 8:-0.477807 9:0.463602 
0 0.01641268907210525 0 0 0 1:0.0709677 2:-0.464286 3:-0.387309 4:-0.266547 5:-0.262626 6:-0.188406 7:0.182796 8:-0.493473 9:0.463602 
0 0.5 0 0 0 1:0.0774194 2:-0.456349 3:-0.382932 4:-0.266547 5:-0.262626 6:-0.173913 7:0.215054 8:-0.493473 9:0.478927 
0 0.5 0 0 0 1:0.109677 2:-0.444444 3:-0.382932 4:-0.227191 5:-0.242424 6:-0.152174 7:0.215054 8:-0.483029 9:0.478927 
0 0.5 0 0 0 1:0.116129 2:-0.436508 3:-0.382932 4:-0.220036 5:-0.227273 6:-0.144928 7:0.215054 8:-0.493473 9:0.501916 
0 0 0 0 0.5 1:0.154839 2:-0.210317 3:-0.330416 4:0.0733453 5:-0.323232 6:-0.0797101 7:-0.193548 8:-0.409922 9:0.448276 
0 0 0 0.5 0.5 1:0.16129 2:-0.202381 3:-0.330416 4:0.09839 5:-0.308081 6:-0.0652174 7:-0.193548 8:-0.409922 9:0.448276 
0 0 0.4398206207302707 0.5 0.5 1:0.154839 2:-0.202381 3:-0.330416 4:0.105546 5:-0.292929 6:-0.0652174 7:-0.193548 8:-0.4047 9:0.448276 
0 0 0 0 0.5 1:0.154839 2:-0.202381 3:-0.330416 4:0.0733453 5:-0.323232 6:-0.0724638 7:-0.193548 8:-0.409922 9:0.448276 
0 0 0 0 0.5 1:0.154839 2:-0.202381 3:-0.330416 4:0.0733453 5:-0.323232 6:-0.0724638 7:-0.193548 8:-0.409922 9:0.440613 
0 0 0 0 0.5 1:0.154839 2:-0.202381 3:-0.330416 4:0.0733453 5:-0.323232 6:-0.0797101 7:-0.193548 8:-0.409922 9:0.440613 
0 0 0 0 0.5 1:0.154839 2:-0.202381 3:-0.330416 4:0.0733453 5:-0.323232 6:-0.0797101 7:-0.204301 8:-0.409922 9:0.440613 
0 0 0 0 0.5 1:0.154839 2:-0.202381 3:-0.330416 4:0.0733453 5:-0.323232 6:-0.0797101 7:-0.193548 8:-0.409922 9:0.448276 
0 0 0 0 0.5 1:0.154839 2:-0.202381 3:-0.330416 4:0.0840787 5:-0.323232 6:-0.0724638 7:-0.193548 8:-0.409922 9:0.463602 
0 0 0 0.5 0.5 1:0.16129 2:-0.198413 3:-0.326039 4:0.0876565 5:-0.323232 6:-0.0724638 7:-0.182796 8:-0.409922 9:0.478927 
0 0 0 0.5 0.5 1:0.16129 2:-0.194444 3:-0.326039 4:0.0876565 5:-0.323232 6:-0.0652174 7:-0.182796 8:-0.4047 9:0.478927 
0 0 0 0 0.5 1:0.16129 2:-0.198413 3:-0.317287 4:0.0876565 5:-0.292929 6:-0.0724638 7:-0.182796 8:-0.409922 9:0.478927 
0 0 0 0 0.5 1:0.154839 2:-0.218254 3:-0.330416 4:0.059034 5:-0.333333 6:-0.0724638 7:-0.182796 8:-0.409922 9:0.463602 
0 0 0 0 0.3112907552716112 1:0.154839 2:-0.198413 3:-0.334792 4:0.0733453 5:-0.333333 6:-0.0652174 7:-0.215054 8:-0.394256 9:0.478927 
0 0 0 0.4667624728428386 0 1:0.16129 2:-0.190476 3:-0.326039 4:0.0733453 5:-0.308081 6:-0.0289855 7:-0.172043 8:-0.357702 9:0.524904 
0 0 0.5 0.5 0 1:0.180645 2:-0.186508 3:-0.31291 4:0.0769231 5:-0.308081 6:-0.0217391 7:-0.172043 8:-0.35248 9:0.524904 
0 0 0 0.5 0 1:0.180645 2:-0.190476 3:-0.31291 4:0.0733453 5:-0.29798 6:-0.0289855 7:-0.16129 8:-0.357702 9:0.547893 
0 0 0 0.3960714823852552 0 1:0.212903 2:-0.190476 3:-0.304158 4:0.0626118 5:-0.272727 6:0.00724638 7:-0.0107527 8:-0.321149 9:0.601533 
0 0 0 0.5 0 1:0.212903 2:-0.186508 3:-0.299781 4:0.0661896 5:-0.277778 6:0.0144928 7:-0.0107527 8:-0.321149 9:0.609195 
0 0 0 0.5 0 1:0.212903 2:-0.202381 3:-0.299781 4:0.0661896 5:-0.277778 6:0.0144928 7:-0.0537634 8:-0.331593 9:0.609195 
0 0 0 0.5 0 1:0.212903 2:-0.202381 3:-0.304158 4:0.0554562 5:-0.277778 6:0.0144928 7:-0.0537634 8:-0.336815 9:0.609195 
0 0 0 0.5 0 1:0.206452 2:-0.202381 3:-0.282276 4:0.0554562 5:-0.277778 6:0.0144928 7:-0.0215054 8:-0.331593 9:0.639847 
0 0 0.09108814746165345 0.5 0 1:0.206452 2:-0.202381 3:-0.273523 4:0.0554562 5:-0.277778 6:0.0144928 7:-0.0107527 8:-0.326371 9:0.64751 
0 0 0 0.5 0 1:0.206452 2:-0.198413 3:-0.269147 4:0.0554562 5:-0.277778 6:0.0144928 7:0.0107527 8:-0.326371 9:0.655172 
0.145857407223527 0 0 0 0 1:-0.116129 2:-0.365079 3:-0.304158 4:-0.0518784 5:-0.5 6:-0.231884 8:-0.911227 9:0.440613 
0.5 0 0 0 0 1:-0.116129 2:-0.384921 3:-0.304158 4:-0.059034 5:-0.515152 6:-0.246377 7:-0.0107527 8:-0.926893 9:0.43295 
0 0 0.2477121129447649 0 0 1:-0.458065 2:-0.123016 3:-0.352298 4:-0.538462 5:-0.010101 6:-0.405797 7:0.0537634 8:-0.0913838 9:0.157088 
0 0 0.5 0 0 1:-0.406452 2:-0.123016 3:-0.352298 4:-0.538462 5:-0.010101 6:-0.405797 7:0.0537634 8:-0.0913838 9:0.157088 
0 0 0.5 0 0 1:-0.425806 2:-0.123016 3:-0.343545 4:-0.538462 5:-0.00505051 6:-0.405797 7:0.0537634 8:-0.10705 9:0.149425 
0.5 0 0 0 0 1:0.154839 2:-0.253968 3:-0.387309 4:0.0375671 5:-0.343434 6:-0.0434783 7:-0.0537634 8:-0.342037 9:0.563218 
0.5 0 0 0 0 1:0.122581 2:-0.265873 3:-0.382932 4:0.0232558 5:-0.343434 6:-0.0434783 7:-0.0430108 8:-0.336815 9:0.563218 
0.5 0 0 0 0 1:0.122581 2:-0.265873 3:-0.391685 4:0.0232558 5:-0.348485 6:-0.0434783 7:-0.0645161 8:-0.336815 9:0.563218 
0.5 0 0 0 0 1:0.122581 2:-0.277778 3:-0.391685 4:0.019678 5:-0.348485 6:-0.057971 7:-0.0645161 8:-0.342037 9:0.563218 
0.5 0 0 0 0 1:0.109677 2:-0.277778 3:-0.404814 4:0.019678 5:-0.353535 6:-0.057971 7:-0.0645161 8:-0.342037 9:0.563218 
0.5 0 0 0 0 1:0.109677 2:-0.277778 3:-0.404814 4:0.0161002 5:-0.353535 6:-0.057971 7:-0.0645161 8:-0.342037 9:0.563218 
0.5 0 0 0 0 1:0.122581 2:-0.265873 3:-0.404814 4:0.019678 5:-0.353535 6:-0.0434783 7:-0.0645161 8:-0.336815 9:0.563218 
0.5 0 0 0 0 1:0.141935 2:-0.253968 3:-0.391685 4:0.0232558 5:-0.348485 6:-0.0434783 7:-0.0645161 8:-0.321149 9:0.578544 
0.5 0 0 0 0 1:0.148387 2:-0.25 3:-0.382932 4:0.0304114 5:-0.343434 6:-0.0362319 7:-0.0645161 8:-0.321149 9:0.586207 
0.5 0 0 0 0 1:0.141935 2:-0.230159 3:-0.391685 4:0.0447227 5:-0.348485 6:-0.0434783 7:-0.0645161 8:-0.326371 9:0.578544 
0.5 0 0 0 0 1:0.129032 2:-0.234127 3:-0.400438 4:0.0447227 5:-0.348485 6:-0.0434783 7:-0.107527 8:-0.326371 9:0.570881 
0.5 0 0 0 0 1:0.129032 2:-0.234127 3:-0.404814 4:0.0447227 5:-0.348485 6:-0.0434783 7:-0.129032 8:-0.342037 9:0.563218 
0.5 0 0 0 0 1:0.129032 2:-0.234127 3:-0.40919 4:0.0447227 5:-0.348485 6:-0.0434783 7:-0.129032 8:-0.342037 9:0.547893 
0.4471222794634463 0 0 0 0 1:0.129032 2:-0.234127 3:-0.404814 4:0.0375671 5:-0.348485 6:-0.0434783 7:-0.11828 8:-0.342037 9:0.54023 
0.5 0 0 0 0 1:0.141935 2:-0.234127 3:-0.404814 4:0.0447227 5:-0.343434 6:-0.0434783 7:-0.11828 8:-0.326371 9:0.547893 
0.5 0 0 0 0 1:0.141935 2:-0.234127 3:-0.400438 4:0.0554562 5:-0.343434 6:-0.0362319 7:-0.107527 8:-0.326371 9:0.555556 
0.5 0 0 0 0 1:0.148387 2:-0.230159 3:-0.396061 4:0.0554562 5:-0.338384 6:-0.0289855 7:-0.107527 8:-0.326371 9:0.563218 
0.5 0 0 0 0 1:0.141935 2:-0.234127 3:-0.391685 4:0.0554562 5:-0.333333 6:-0.0289855 7:-0.107527 8:-0.326371 9:0.570881 
0.5 0 0 0 0 1:0.141935 2:-0.234127 3:-0.391685 4:0.0554562 5:-0.333333 6:-0.0289855 7:-0.107527 8:-0.331593 9:0.570881 
0.5 0 0 0 0 1:0.135484 2:-0.234127 3:-0.391685 4:0.0554562 5:-0.333333 6:-0.0289855 7:-0.107527 8:-0.331593 9:0.563218 
0 0 0 0 0.5 1:-0.587097 2:-0.261905 3:-0.452954 4:-0.72093 5:-0.0858586 6:-0.652174 7:-0.11828 8:-0.0966057 9:-0.0114943 
0 0 0 0 0.5 1:-0.587097 2:-0.261905 3:-0.474836 4:-0.72093 5:-0.0858586 6:-0.652174 7:-0.11828 8:-0.0966057 9:-0.0114943 
0 0 0 0 0.5 1:-0.645161 2:-0.293651 3:-0.501094 4:-0.728086 5:-0.106061 6:-0.702899 7:-0.139785 8:-0.0496084 9:-0.0421456 
0 0 0 0 0.4770978335184794 1:-0.632258 2:-0.293651 3:-0.501094 4:-0.728086 5:-0.106061 6:-0.702899 7:-0.129032 8:-0.0496084 9:-0.0344828 
0 0 0 0 0.2043294178356408 1:-0.593548 2:-0.793651 3:-0.781182 4:-0.738819 5:-0.681818 6:-0.724638 7:-0.419355 8:-0.712794 9:0.0498084 
0 0.3108745737153819 0 0 0 1:0.0580645 2:-0.388889 3:-0.413567 4:-0.137746 5:-0.429293 6:-0.130435 7:-0.0537634 8:-0.336815 9:0.517241 
0 0.5 0 0 0 1:0.083871 2:-0.388889 3:-0.404814 4:-0.137746 5:-0.429293 6:-0.130435 7:-0.0537634 8:-0.336815 9:0.524904 
0 0.5 0 0 0 1:0.0580645 2:-0.365079 3:-0.413567 4:-0.134168 5:-0.429293 6:-0.108696 7:-0.0537634 8:-0.331593 9:0.517241 
0.5 0 0 0 0 1:-0.154839 2:-0.52381 3:-0.579869 4:-0.0840787 5:-0.550505 6:-0.347826 7:-0.215054 8:-0.994778 9:0.386973 
0.5 0 0 0 0 1:-0.129032 2:-0.52381 3:-0.579869 4:-0.0805009 5:-0.550505 6:-0.34058 7:-0.215054 8:-0.989556 9:0.394636 
0.5 0 0 0 0 1:-0.0967742 2:-0.519841 3:-0.571116 4:-0.0697674 5:-0.545455 6:-0.333333 7:-0.215054 8:-0.989556 9:0.409962 
0.5 0 0 0.1202286160433572 0 1:-0.083871 2:-0.511905 3:-0.571116 4:-0.0411449 5:-0.550505 6:-0.311594 7:-0.204301 8:-0.994778 9:0.394636 
0.5 0 0 0 0 1:-0.083871 2:-0.511905 3:-0.571116 4:-0.0411449 5:-0.550505 6:-0.34058 7:-0.204301 8:-0.994778 9:0.394636 
0 0 0.5 0 0 1:-0.825806 2:-0.376984 3:-0.5186 4:-0.853309 5:-0.176768 6:-0.826087 7:-0.27957 8:-0.0704961 9:-0.126437 
0 0 0 0 0.5 1:-0.812903 2:-0.373016 3:-0.492341 4:-0.889088 5:-0.166667 6:-0.811594 7:-0.182796 8:-0.0391645 9:-0.103448 
0 0 0.5 0 0 1:-0.858065 2:-0.373016 3:-0.492341 4:-0.896243 5:-0.181818 6:-0.818841 7:-0.225806 8:-0.0496084 9:-0.111111 
0.126821230809355 0 0 0.2546377019737167 0 1:-0.967742 2:-0.428571 3:-0.514223 4:-0.953488 5:-0.217172 6:-0.862319 7:-0.225806 8:-0.0600522 9:-0.118774 
0 0.5 0 0 0 1:-0.896774 2:-0.416667 3:-0.514223 4:-0.932021 5:-0.212121 6:-0.84058 7:-0.225806 8:-0.0443864 9:-0.111111 
0 0.5 0 0 0 1:-0.896774 2:-0.420635 3:-0.5186 4:-0.935599 5:-0.212121 6:-0.847826 7:-0.236559 8:-0.0443864 9:-0.126437 
0 0.5 0 0 0 1:-0.896774 2:-0.420635 3:-0.5186 4:-0.935599 5:-0.212121 6:-0.847826 7:-0.247312 8:-0.0443864 9:-0.126437 
0 0.5 0 0 0 1:-0.896774 2:-0.420635 3:-0.527352 4:-0.935599 5:-0.212121 6:-0.847826 7:-0.247312 8:-0.0443864 9:-0.126437 
0 0.5 0 0 0 1:-0.896774 2:-0.416667 3:-0.5186 4:-0.932021 5:-0.212121 6:-0.847826 7:-0.247312 8:-0.0443864 9:-0.126437 
0 0 0.02363818850416966 0 0 1:-0.890323 2:-0.416667 3:-0.5186 4:-0.91771 5:-0.19697 6:-0.847826 7:-0.247312 8:-0.0443864 9:-0.126437 
0 0.2857182195771468 0.5 0 0.3436043201871996 1:-0.845161 2:-0.416667 3:-0.5186 4:-0.91771 5:-0.186869 6:-0.84058 7:-0.236559 8:-0.0287206 9:-0.118774 
0 0.5 0 0 0 1:-0.870968 2:-0.416667 3:-0.5186 4:-0.899821 5:-0.20202 6:-0.833333 7:-0.215054 8:-0.0287206 9:-0.118774 
0 0.5 0 0 0 1:-0.896774 2:-0.420635 3:-0.5186 4:-0.899821 5:-0.212121 6:-0.84058 7:-0.215054 8:-0.0443864 9:-0.118774 
0 0.5 0 0 0 1:-0.954839 2:-0.400794 3:-0.483589 4:-0.932021 5:-0.186869 6:-0.789855 7:-0.107527 8:-0.0234987 9:-0.0498084 
0.0239618373249404 0 0 0.3340742318146425 0 1:-0.767742 2:-0.992063 3:-0.929978 4:-0.91771 5:-0.787879 6:-0.992754 7:-0.462366 8:-0.665796 9:-0.0574713 
0.5 0 0.3217781024995267 0.5 0 1:-0.767742 2:-0.992063 3:-0.934354 4:-0.91771 5:-0.787879 6:-1 7:-0.473118 8:-0.665796 9:-0.0651341 
0 0 0 0 0.04123580525977076 1:-0.735484 2:-0.984127 3:-0.90372 4:-0.914132 5:-0.772727 6:-0.949275 7:-0.44086 8:-0.655352 9:-0.0421456 
0 0.5 0 0 0.5 1:-0.735484 2:-0.968254 3:-0.868709 4:-0.906977 5:-0.757576 6:-0.92029 7:-0.365591 8:-0.629243 9:-0.0344828 
0 0 0 0 0.5 1:-0.76129 2:-0.984127 3:-0.873085 4:-0.924866 5:-0.772727 6:-0.942029 7:-0.408602 8:-0.650131 9:-0.0421456 
0 0.5 0 0 0 1:-0.748387 2:-0.964286 3:-0.85558 4:-0.921288 5:-0.792929 6:-0.891304 7:-0.376344 8:-0.650131 9:0.00383142 
0 0.04789471313672425 0 0 0 1:-0.748387 2:-0.964286 3:-0.85558 4:-0.921288 5:-0.792929 6:-0.905797 7:-0.376344 8:-0.655352 9:0.00383142 
0.155939673931868 0 0 0 0 1:-0.283871 2:-0.587302 3:-0.592998 4:-0.366726 5:-0.626263 6:-0.384058 7:-0.311828 8:-0.389034 9:0.348659 
0 0.5 0 0 0 1:-0.406452 2:-0.646825 3:-0.628009 4:-0.502683 5:-0.686869 6:-0.492754 7:-0.344086 8:-0.37859 9:0.272031 
0 0.2426498797402673 0 0 0 1:-0.406452 2:-0.666667 3:-0.636761 4:-0.509839 5:-0.691919 6:-0.507246 7:-0.354839 8:-0.399478 9:0.264368 
0 0.5 0 0 0 1:-0.335484 2:-0.634921 3:-0.66302 4:-0.466905 5:-0.681818 6:-0.507246 7:-0.408602 8:-0.389034 9:0.241379 
0 0.5 0 0 0 1:-0.309677 2:-0.630952 3:-0.654267 4:-0.452594 5:-0.666667 6:-0.507246 7:-0.408602 8:-0.389034 9:0.241379 
0.5 0.5 0 0 0 1:-0.309677 2:-0.626984 3:-0.654267 4:-0.420394 5:-0.666667 6:-0.5 7:-0.387097 8:-0.389034 9:0.249042 
0 0.5 0 0 0 1:-0.264516 2:-0.615079 3:-0.645514 4:-0.406082 5:-0.641414 6:-0.492754 7:-0.397849 8:-0.373368 9:0.249042 
0.304527227395082 0 0 0 0 1:-0.264516 2:-0.59127 3:-0.645514 4:-0.381038 5:-0.626263 6:-0.492754 7:-0.387097 8:-0.373368 9:0.249042 
0.5 0 0 0 0 1:-0.264516 2:-0.587302 3:-0.628009 4:-0.370304 5:-0.621212 6:-0.492754 7:-0.376344 8:-0.373368 9:0.264368 
0 0 0 0 0.5 1:-0.277419 2:-0.59127 3:-0.592998 4:-0.384615 5:-0.621212 6:-0.5 7:-0.408602 8:-0.383812 9:0.226054 
0 0 0 0 0.4152044032671795 1:-0.277419 2:-0.599206 3:-0.601751 4:-0.384615 5:-0.621212 6:-0.5 7:-0.408602 8:-0.383812 9:0.226054 
0 0 0 0 0.5 1:-0.277419 2:-0.599206 3:-0.601751 4:-0.391771 5:-0.621212 6:-0.5 7:-0.408602 8:-0.383812 9:0.226054 
0 0 0 0 0.5 1:0.0258065 2:-0.531746 3:-0.549234 4:-0.0626118 5:-0.540404 6:-0.376812 7:-0.290323 8:-0.968668 9:0.333333 
0 0 0 0 0.5 1:0.0322581 2:-0.52381 3:-0.549234 4:-0.0447227 5:-0.535354 6:-0.376812 7:-0.290323 8:-0.958225 9:0.333333 
0 0 0 0 0.5 1:0.0516129 2:-0.511905 3:-0.562363 4:-0.0304114 5:-0.520202 6:-0.376812 7:-0.268817 8:-0.958225 9:0.32567 
0 0 0 0 0.5 1:0.0516129 2:-0.511905 3:-0.562363 4:-0.0411449 5:-0.530303 6:-0.376812 7:-0.268817 8:-0.968668 9:0.32567 
0 0 0 0 0.3194418036944138 1:0.0258065 2:-0.531746 3:-0.562363 4:-0.0447227 5:-0.540404 6:-0.376812 7:-0.268817 8:-0.968668 9:0.32567 
0.0453620677215802 0 0 0 0 1:0.0258065 2:-0.531746 3:-0.575492 4:-0.0447227 5:-0.540404 6:-0.376812 7:-0.268817 8:-0.97389 9:0.32567 
0.5 0 0 0 0 1:0.0258065 2:-0.515873 3:-0.562363 4:-0.0447227 5:-0.540404 6:-0.376812 7:-0.247312 8:-0.97389 9:0.32567 
0.5 0 0 0.2615336669058032 0 1:0.0322581 2:-0.511905 3:-0.562363 4:-0.0447227 5:-0.540404 6:-0.362319 7:-0.225806 8:-0.97389 9:0.32567 
0.5 0 0 0 0 1:0.0322581 2:-0.511905 3:-0.562363 4:-0.0447227 5:-0.535354 6:-0.362319 7:-0.225806 8:-0.968668 9:0.340996 
0.5 0 0 0 0 1:0.0322581 2:-0.507937 3:-0.557987 4:-0.0447227 5:-0.535354 6:-0.362319 7:-0.215054 8:-0.968668 9:0.340996 
0.5 0 0 0 0 1:0.0193548 2:-0.507937 3:-0.557987 4:-0.0483005 5:-0.535354 6:-0.362319 7:-0.204301 8:-0.963446 9:0.340996 
-0 0 0 0.5 0 1:0.16129 2:-0.337302 3:-0.654267 4:0.288014 5:-0.565657 6:-0.166667 7:0.150538 8:-0.472585 9:0.570881 
-0 0 0 0.5 0 1:0.148387 2:-0.337302 3:-0.66302 4:0.288014 5:-0.59596 6:-0.166667 7:0.11828 8:-0.472585 9:0.555556 
-0 0 0 0.4505756330710911 0 1:0.148387 2:-0.337302 3:-0.66302 4:0.270125 5:-0.590909 6:-0.246377 7:0.0860215 8:-0.456919 9:0.478927 
-0 0 0 0.5 0 1:0.141935 2:-0.333333 3:-0.654267 4:0.277281 5:-0.585859 6:-0.188406 7:0.0860215 8:-0.456919 9:0.494253 
-0 0 0 0.5 0 1:0.148387 2:-0.329365 3:-0.654267 4:0.29517 5:-0.575758 6:-0.152174 7:0.0860215 8:-0.456919 9:0.494253 
-0 0 0 0.5 0 1:0.148387 2:-0.325397 3:-0.645514 4:0.302326 5:-0.575758 6:-0.137681 7:0.0860215 8:-0.456919 9:0.517241 
-0 0 0 0.5 0 1:0.148387 2:-0.325397 3:-0.636761 4:0.302326 5:-0.565657 6:-0.137681 7:0.0967742 8:-0.456919 9:0.532567 
-0.5 0 0 0.5 0 1:0.141935 2:-0.325397 3:-0.645514 4:0.284436 5:-0.560606 6:-0.130435 7:0.11828 8:-0.456919 9:0.547893 
-0 0 0 0.2631512605055993 0 1:0.141935 2:-0.333333 3:-0.654267 4:0.284436 5:-0.575758 6:-0.188406 7:0.11828 8:-0.467363 9:0.532567 
-0 0 0 0.5 0 1:0.141935 2:-0.333333 3:-0.654267 4:0.284436 5:-0.570707 6:-0.166667 7:0.129032 8:-0.467363 9:0.547893 
-0 0 0 0.5 0 1:0.148387 2:-0.329365 3:-0.645514 4:0.284436 5:-0.560606 6:-0.166667 7:0.129032 8:-0.467363 9:0.547893 
-0.1573231145505228 0 0 0.5 0 1:0.148387 2:-0.325397 3:-0.623632 4:0.291592 5:-0.560606 6:-0.130435 7:0.129032 8:-0.456919 9:0.547893 
-0.5 0 0 0.5 0 1:0.154839 2:-0.329365 3:-0.619256 4:0.284436 5:-0.555556 6:-0.166667 7:0.139785 8:-0.467363 9:0.54023 
-0.5 0.5 0.5 0.5 0.5 1:0.980645 2:0.103175 3:-0.199125 4:0.860465 5:0.136364 6:0.333333 7:0.860215 8:-0.24282 9:0.969349 
-0 0 0 0.5 0.2479247861938295 1:0.974194 2:0.0912698 3:-0.21663 4:0.842576 5:0.0909091 6:0.23913 7:0.860215 8:-0.263708 9:0.938697 
-0 0 0 0.5 0.5 1:0.96129 2:0.0833333 3:-0.221007 4:0.828265 5:0.0858586 6:0.23913 7:0.860215 8:-0.263708 9:0.915709 
-0 0 0 0.5 0.5 1:0.96129 2:0.0753968 3:-0.221007 4:0.828265 5:0.0858586 6:0.23913 7:0.860215 8:-0.26893 9:0.915709 
-0.1003445883627895 0 0 0.5 0.5 1:0.96129 2:0.0753968 3:-0.221007 4:0.828265 5:0.0909091 6:0.253623 7:0.860215 8:-0.263708 9:0.915709 
-0 0 0 0.5 0.5 1:0.974194 2:0.0753968 3:-0.21663 4:0.828265 5:0.0959596 6:0.253623 7:0.88172 8:-0.263708 9:0.938697 
-0 0 0 0.5 0 1:0.974194 2:0.0833333 3:-0.21663 4:0.83542 5:0.0959596 6:0.253623 7:0.88172 8:-0.258486 9:0.938697 
-0 0.1200984460939621 0 0.5 0 1:0.974194 2:0.0634921 3:-0.203501 4:0.846154 5:0.111111 6:0.268116 7:0.924731 8:-0.253264 9:0.954023 
-0 0 0 0.5 0 1:0.948387 2:0.047619 3:-0.229759 4:0.821109 5:0.10101 6:0.23913 7:0.903226 8:-0.253264 9:0.938697 
-0 0 0 0.5 0 1:0.941935 2:0.0436508 3:-0.242888 4:0.821109 5:0.0959596 6:0.202899 7:0.88172 8:-0.253264 9:0.908046 
-0 0 0 0.5 0 1:0.941935 2:0.047619 3:-0.242888 4:0.824687 5:0.0959596 6:0.210145 7:0.88172 8:-0.253264 9:0.915709 
-0 0 0 0.5 0 1:0.948387 2:0.047619 3:-0.238512 4:0.824687 5:0.10101 6:0.210145 7:0.88172 8:-0.253264 9:0.923372 
-0 0 0 0.5 0 1:0.948387 2:0.047619 3:-0.238512 4:0.824687 5:0.106061 6:0.210145 7:0.903226 8:-0.24282 9:0.931034 
-0 0 0 0.5 0 1:0.941935 2:0.0357143 3:-0.242888 4:0.806798 5:0.0959596 6:0.195652 7:0.924731 8:-0.253264 9:0.923372 
-0 0 0 0.5 0 1:0.941935 2:0.0357143 3:-0.242888 4:0.80322 5:0.0959596 6:0.195652 7:0.924731 8:-0.253264 9:0.923372 
-0 0 0 0.5 0 1:0.941935 2:0.031746 3:-0.242888 4:0.80322 5:0.0959596 6:0.166667 7:0.903226 8:-0.253264 9:0.923372 
-0 0 0 0.5 0 1:0.941935 2:0.0357143 3:-0.242888 4:0.806798 5:0.0959596 6:0.181159 7:0.903226 8:-0.237598 9:0.923372 
-0 0 0 0.5 0 1:0.948387 2:0.0357143 3:-0.242888 4:0.821109 5:0.0959596 6:0.173913 7:0.892473 8:-0.227154 9:0.915709 
-0 0 0.36057173218997 0.5 0.5 1:0.490323 2:0.0396825 3:-0.02407 4:0.738819 5:-0.353535 6:0.318841 7:-0.483871 8:-0.336815 9:1 
-0 0 0 0.5 0 1:0.490323 2:0.0396825 3:-0.0371991 4:0.738819 5:-0.393939 6:0.297101 7:-0.494624 8:-0.326371 9:0.984674 
-0 0 0 0.5 0 1:0.490323 2:0.031746 3:-0.0371991 4:0.731664 5:-0.393939 6:0.297101 7:-0.494624 8:-0.326371 9:0.984674 
-0 0 0 0.5 0 1:0.483871 2:0.031746 3:-0.0415755 4:0.724508 5:-0.393939 6:0.282609 7:-0.494624 8:-0.326371 9:0.954023 
-0 0 0 0.5 0 1:0.477419 2:0.0277778 3:-0.0415755 4:0.72093 5:-0.393939 6:0.282609 7:-0.494624 8:-0.326371 9:0.954023 
-0 0 0 0.5 0 1:0.470968 2:0.0198413 3:-0.0415755 4:0.717352 5:-0.39899 6:0.282609 7:-0.494624 8:-0.326371 9:0.938697 
-0 0 0 0.5 0 1:0.477419 2:0.0198413 3:-0.0371991 4:0.72093 5:-0.393939 6:0.282609 7:-0.494624 8:-0.310705 9:0.954023 
-0 0 0 0.5 0 1:0.483871 2:0.0277778 3:-0.0371991 4:0.72093 5:-0.393939 6:0.297101 7:-0.494624 8:-0.310705 9:0.961686 
-0 0 0 0.5 0 1:0.483871 2:0.0277778 3:-0.0328228 4:0.72093 5:-0.393939 6:0.297101 7:-0.494624 8:-0.310705 9:0.969349 
-0 0 0 0.5 0 1:0.483871 2:0.031746 3:-0.02407 4:0.72093 5:-0.393939 6:0.297101 7:-0.494624 8:-0.305483 9:0.969349 
-0 0 0 0.5 0 1:0.490323 2:0.0277778 3:-0.02407 4:0.713775 5:-0.393939 6:0.297101 7:-0.483871 8:-0.305483 9:0.984674 
-0 0 0 0.5 0 1:0.477419 2:0.0277778 3:-0.0328228 4:0.713775 5:-0.39899 6:0.297101 7:-0.483871 8:-0.305483 9:0.954023 
-0 0 0 0.5 0 1:0.477419 2:0.015873 3:-0.0328228 4:0.706619 5:-0.40404 6:0.289855 7:-0.483871 8:-0.305483 9:0.954023 
-0 0 0 0.5 0.3572753064778751 1:0.470968 2:0.015873 3:-0.0415755 4:0.706619 5:-0.40404 6:0.289855 7:-0.494624 8:-0.305483 9:0.923372 
-0 0 0 0.5 0 1:0.470968 2:0.00793651 3:-0.0415755 4:0.703041 5:-0.40404 6:0.289855 7:-0.494624 8:-0.305483 9:0.923372 
-0 0 0 0.5 0.5 1:0.470968 2:0.015873 3:-0.0415755 4:0.706619 5:-0.40404 6:0.289855 7:-0.483871 8:-0.305483 9:0.923372 
-0 0 0 0.5 0 1:0.477419 2:0.015873 3:-0.0328228 4:0.706619 5:-0.40404 6:0.297101 7:-0.483871 8:-0.305483 9:0.954023 
-0 0 0 0.5 0.5 1:0.490323 2:0.0277778 3:-0.0284464 4:0.713775 5:-0.39899 6:0.311594 7:-0.483871 8:-0.295039 9:0.954023 
-0 0 0 0.5 0.5 1:0.490323 2:0.0277778 3:-0.0284464 4:0.713775 5:-0.39899 6:0.311594 7:-0.483871 8:-0.295039 9:0.954023 
-0 0 0 0.5 0 1:0.470968 2:0.00793651 3:-0.02407 4:0.706619 5:-0.40404 6:0.289855 7:-0.462366 8:-0.289817 9:0.954023 
-0 0 0 0.5 0 1:0.464516 2:0.00396825 3:-0.0284464 4:0.703041 5:-0.40404 6:0.289855 7:-0.462366 8:-0.289817 9:0.938697 
-0 0 0 0.5 0 1:0.458065 2:0.00396825 3:-0.0415755 4:0.703041 5:-0.40404 6:0.282609 7:-0.483871 8:-0.289817 9:0.938697 
-0 0 0 0.5 0 1:0.458065 3:-0.0415755 4:0.692308 5:-0.40404 6:0.282609 7:-0.483871 8:-0.295039 9:0.938697 
-0 0 0 0.5 0 1:0.458065 2:-0.0198413 3:-0.0415755 4:0.692308 5:-0.40404 6:0.268116 7:-0.483871 8:-0.295039 9:0.938697 
-0 0 0 0.5 0 1:0.458065 2:-0.015873 3:-0.0415755 4:0.692308 5:-0.40404 6:0.282609 7:-0.462366 8:-0.289817 9:0.94636 
-0 0 0 0.5 0 1:0.458065 2:-0.015873 3:-0.0371991 4:0.692308 5:-0.40404 6:0.282609 7:-0.462366 8:-0.289817 9:0.94636 
-0 0 0 0.5 0 1:0.458065 2:-0.015873 3:-0.0371991 4:0.692308 5:-0.40404 6:0.282609 7:-0.462366 8:-0.289817 9:0.94636 
-0 0 0 0.5 0 1:0.458065 2:-0.015873 3:-0.0371991 4:0.692308 5:-0.39899 6:0.282609 7:-0.451613 8:-0.289817 9:0.94636 
-0 0 0 0.5 0 1:0.458065 2:-0.0198413 3:-0.0415755 4:0.68873 5:-0.40404 6:0.26087 7:-0.462366 8:-0.289817 9:0.931034 
-0 0 0 0.5 0 1:0.451613 2:-0.031746 3:-0.0459519 4:0.685152 5:-0.40404 6:0.26087 7:-0.462366 8:-0.295039 9:0.931034 
-0 0 0 0.5 0 1:0.451613 2:-0.0436508 3:-0.0415755 4:0.677996 5:-0.40404 6:0.253623 7:-0.44086 8:-0.300261 9:0.931034 
-0 0 0 0.5 0 1:0.458065 2:-0.0436508 3:-0.0415755 4:0.681574 5:-0.39899 6:0.26087 7:-0.44086 8:-0.300261 9:0.931034 
-0 0 0 0.5 0 1:0.451613 2:-0.0436508 3:-0.0415755 4:0.685152 5:-0.393939 6:0.253623 7:-0.451613 8:-0.295039 9:0.923372 
-0.309048841141064 0 0 0.5 0 1:0.451613 2:-0.047619 3:-0.0415755 4:0.677996 5:-0.393939 6:0.23913 7:-0.451613 8:-0.295039 9:0.923372 
-0.5 0 0 0.5 0 1:0.451613 2:-0.047619 3:-0.0459519 4:0.674419 5:-0.40404 6:0.23913 7:-0.483871 8:-0.300261 9:0.908046 
-0 0 0 0.2338076581423345 0 1:0.451613 2:-0.047619 3:-0.0459519 4:0.677996 5:-0.40404 6:0.23913 7:-0.483871 8:-0.295039 9:0.908046 
-0 0 0 0.5 0 1:0.458065 2:-0.047619 3:-0.0415755 4:0.677996 5:-0.393939 6:0.23913 7:-0.451613 8:-0.295039 9:0.923372 
-0 0 0 0.5 0 1:0.458065 2:-0.0436508 3:-0.0415755 4:0.685152 5:-0.393939 6:0.23913 7:-0.451613 8:-0.295039 9:0.923372 
-0 0 0 0.5 0 1:0.458065 2:-0.0436508 3:-0.0415755 4:0.685152 5:-0.393939 6:0.23913 7:-0.451613 8:-0.295039 9:0.923372 
-0 0 0 0.5 0 1:0.451613 2:-0.047619 3:-0.0853392 4:0.674419 5:-0.40404 6:0.188406 7:-0.505376 8:-0.295039 9:0.877395 
-0.5 0 0 0 0 1:0.43871 2:-0.047619 3:-0.0853392 4:0.642218 5:-0.409091 6:0.166667 7:-0.516129 8:-0.305483 9:0.869732 
-0.5 0 0 0 0 1:0.419355 2:-0.0793651 3:-0.0853392 4:0.642218 5:-0.409091 6:0.166667 7:-0.516129 8:-0.310705 9:0.869732 
-0 0 0 0.00915647269090396 0 1:0.625806 2:-0.329365 3:-0.391685 4:0.763864 5:-0.530303 6:-0.304348 7:0.0645161 8:-0.937337 9:0.708812 
-0 0 0 0.5 0 1:0.625806 2:-0.329365 3:-0.400438 4:0.763864 5:-0.530303 6:-0.311594 8:-0.937337 9:0.662835 
-0 0 0 0.5 0 1:0.619355 2:-0.329365 3:-0.400438 4:0.763864 5:-0.530303 6:-0.311594 8:-0.937337 9:0.639847 
-0 0 0 0.5 0 1:0.619355 2:-0.329365 3:-0.400438 4:0.763864 5:-0.530303 6:-0.311594 8:-0.937337 9:0.639847 
-0 0 0 0.5 0 1:0.619355 2:-0.329365 3:-0.400438 4:0.781753 5:-0.520202 6:-0.311594 8:-0.937337 9:0.639847 
-0 0 0 0.5 0 1:0.619355 2:-0.329365 3:-0.400438 4:0.781753 5:-0.520202 6:-0.311594 7:0.0107527 8:-0.926893 9:0.639847 
-0 0 0 0.5 0 1:0.619355 2:-0.329365 3:-0.400438 4:0.796064 5:-0.520202 6:-0.304348 7:0.0107527 8:-0.900783 9:0.639847 
-0 0 0 0.5 0 1:0.625806 2:-0.329365 3:-0.396061 4:0.796064 5:-0.520202 6:-0.304348 7:0.0215054 8:-0.900783 9:0.662835 
-0 0 0 0.5 0 1:0.619355 2:-0.329365 3:-0.391685 4:0.781753 5:-0.510101 6:-0.297101 7:0.0430108 8:-0.937337 9:0.670498 
-0 0 0 0.5 0 1:0.619355 2:-0.329365 3:-0.391685 4:0.781753 5:-0.510101 6:-0.297101 7:0.0430108 8:-0.937337 9:0.670498 
-0 0 0 0.5 0 1:0.612903 2:-0.329365 3:-0.396061 4:0.781753 5:-0.520202 6:-0.297101 7:0.0430108 8:-0.937337 9:0.670498 
-0 0 0 0.5 0 1:0.619355 2:-0.329365 3:-0.391685 4:0.785331 5:-0.510101 6:-0.275362 7:0.0860215 8:-0.937337 9:0.701149 
-0 0 0 0.5 0 1:0.632258 2:-0.329365 3:-0.391685 4:0.785331 5:-0.510101 6:-0.268116 7:0.139785 8:-0.937337 9:0.724138 
-0 0 0 0.5 0 1:0.632258 2:-0.329365 3:-0.378556 4:0.799642 5:-0.510101 6:-0.268116 7:0.139785 8:-0.932115 9:0.724138 
-0 0 0 0.5 0 1:0.632258 2:-0.329365 3:-0.378556 4:0.80322 5:-0.505051 6:-0.253623 7:0.150538 8:-0.937337 9:0.739464 
-0 0 0 0.5 0 1:0.612903 2:-0.329365 3:-0.378556 4:0.80322 5:-0.505051 6:-0.253623 7:0.150538 8:-0.958225 9:0.685824 
-0 0 0 0.5 0 1:0.612903 2:-0.329365 3:-0.378556 4:0.80322 5:-0.510101 6:-0.253623 7:0.0967742 8:-0.963446 9:0.670498 
-0 0 0 0.5 0 1:0.612903 2:-0.329365 3:-0.378556 4:0.80322 5:-0.510101 6:-0.253623 7:0.0967742 8:-0.963446 9:0.670498 
-0 0 0 0.5 0 1:0.619355 2:-0.329365 3:-0.378556 4:0.806798 5:-0.505051 6:-0.224638 7:0.139785 8:-0.958225 9:0.685824 
-0 0 0 0.5 0 1:0.619355 2:-0.309524 3:-0.36105 4:0.806798 5:-0.505051 6:-0.202899 7:0.150538 8:-0.958225 9:0.685824 
-0 0 0 0.5 0 1:0.632258 2:-0.309524 3:-0.36105 4:0.806798 5:-0.505051 6:-0.195652 7:0.150538 8:-0.958225 9:0.701149 
-0 0 0 0.5 0 1:0.632258 2:-0.309524 3:-0.36105 4:0.810376 5:-0.505051 6:-0.188406 7:0.16129 8:-0.958225 9:0.708812 
-0 0 0 0.5 0 1:0.632258 2:-0.305556 3:-0.356674 4:0.806798 5:-0.510101 6:-0.188406 7:0.16129 8:-0.963446 9:0.724138 
-0 0 0 0.5 0 1:0.632258 2:-0.313492 3:-0.356674 4:0.785331 5:-0.510101 6:-0.195652 7:0.16129 8:-0.979112 9:0.724138 
-0 0.5 0 0 0 1:0.103226 2:-0.392857 3:-0.649891 4:0.191413 5:-0.676768 6:-0.333333 7:0.0107527 8:-0.472585 9:0.448276 
-0 0.5 0 0 0 1:0.103226 2:-0.392857 3:-0.649891 4:0.191413 5:-0.676768 6:-0.333333 7:0.0107527 8:-0.467363 9:0.448276 
-0 0.5 0 0 0 1:0.0967742 2:-0.392857 3:-0.654267 4:0.191413 5:-0.676768 6:-0.333333 8:-0.456919 9:0.440613 
-0 0.5 0 0 0 1:0.0967742 2:-0.40873 3:-0.654267 4:0.187835 5:-0.676768 6:-0.347826 8:-0.467363 9:0.440613 
-0 0.5 0 0 0 1:0.083871 2:-0.40873 3:-0.680525 4:0.187835 5:-0.676768 6:-0.347826 7:-0.0215054 8:-0.467363 9:0.440613 
-0 0.5 0 0 0 1:0.083871 2:-0.420635 3:-0.680525 4:0.177102 5:-0.676768 6:-0.355072 7:-0.0215054 8:-0.477807 9:0.440613 
-0 0.5 0 0 0 1:0.083871 2:-0.40873 3:-0.680525 4:0.187835 5:-0.676768 6:-0.347826 8:-0.467363 9:0.440613 
-0 0.5 0 0 0 1:0.0967742 2:-0.40873 3:-0.654267 4:0.187835 5:-0.666667 6:-0.347826 8:-0.467363 9:0.455939 
-0 0.5 0 0 0 1:0.0322581 2:-0.420635 3:-0.698031 4:0.18068 5:-0.681818 6:-0.34058 7:-0.0322581 8:-0.493473 9:0.43295 
-0 0.5 0.1216732355202373 0 0 1:0.967742 2:0.00793651 3:-0.185996 4:0.806798 5:0.0959596 6:0.0942029 7:1 8:-0.185379 9:0.885057 
-0 0.03878495054567444 0 0 0 1:0.954839 2:0.00396825 3:-0.194748 4:0.781753 5:0.0808081 6:0.0869565 7:0.978495 8:-0.190601 9:0.877395 
-0 0.1892189839728128 0 0 0 1:0.896774 2:-0.0674603 3:-0.238512 4:0.745975 5:0.0252525 6:-0.0362319 7:0.956989 8:-0.148825 9:0.800766 
-0 0.5 0 0 0 1:-0.0451613 2:-0.424603 3:-0.636761 4:0.137746 5:-0.732323 6:-0.318841 7:-0.0860215 8:-0.54047 9:0.463602 
-0.5 0.5 0 0 0 1:-0.0580645 2:-0.424603 3:-0.636761 4:0.127013 5:-0.742424 6:-0.318841 7:-0.107527 8:-0.54047 9:0.463602 
-0.5 0.5 0 0 0 1:-0.0903226 2:-0.424603 3:-0.636761 4:0.127013 5:-0.742424 6:-0.318841 7:-0.107527 8:-0.54047 9:0.448276 
-0.5 0 0 0 0 1:-0.0774194 2:-0.420635 3:-0.61488 4:0.137746 5:-0.737374 6:-0.297101 7:-0.107527 8:-0.54047 9:0.455939 
-0.5 0 0 0 0 1:-0.0774194 2:-0.416667 3:-0.610503 4:0.137746 5:-0.737374 6:-0.289855 7:-0.0967742 8:-0.54047 9:0.463602 
-0.5 0 0 0 0 1:-0.0774194 2:-0.40873 3:-0.610503 4:0.141324 5:-0.732323 6:-0.289855 7:-0.0860215 8:-0.54047 9:0.463602 
-0.5 0 0 0 0 1:-0.0709677 2:-0.40873 3:-0.610503 4:0.152057 5:-0.722222 6:-0.275362 7:-0.0752688 8:-0.54047 9:0.463602 
-0.5 0 0 0 0 1:-0.0774194 2:-0.40873 3:-0.606127 4:0.141324 5:-0.732323 6:-0.275362 7:-0.0752688 8:-0.556136 9:0.471264 
-0.5 0 0 0 0 1:-0.0903226 2:-0.40873 3:-0.606127 4:0.141324 5:-0.732323 6:-0.289855 7:-0.0752688 8:-0.556136 9:0.448276 
-0.5 0 0 0 0 1:-0.0903226 2:-0.40873 3:-0.61488 4:0.137746 5:-0.732323 6:-0.289855 7:-0.0752688 8:-0.556136 9:0.448276 
-0.5 0 0.2448591330138295 0 0.203818336270795 1:-0.103226 2:-0.40873 3:-0.61488 4:0.137746 5:-0.732323 6:-0.289855 7:-0.0752688 8:-0.556136 9:0.448276 
-0.5 0 0 0 0 1:-0.103226 2:-0.40873 3:-0.61488 4:0.137746 5:-0.737374 6:-0.289855 7:-0.0752688 8:-0.556136 9:0.448276 
-0.5 0 0 0 0 1:-0.0967742 2:-0.43254 3:-0.61488 4:0.13059 5:-0.732323 6:-0.311594 7:-0.0645161 8:-0.556136 9:0.471264 
-0.5 0 0 0 0 1:-0.0774194 2:-0.396825 3:-0.601751 4:0.141324 5:-0.717172 6:-0.282609 7:-0.0537634 8:-0.509138 9:0.448276 
-0 0.0070009335238332 0 0 0 1:-0.0774194 2:-0.404762 3:-0.601751 4:0.141324 5:-0.732323 6:-0.282609 7:-0.0537634 8:-0.509138 9:0.440613 
-0 0.5 0 0 0 1:-0.0774194 2:-0.404762 3:-0.610503 4:0.141324 5:-0.732323 6:-0.289855 7:-0.0537634 8:-0.51436 9:0.440613 
-0.5 0 0 0 0 1:-0.0709677 2:-0.392857 3:-0.56674 4:0.155635 5:-0.727273 6:-0.23913 7:-0.0537634 8:-0.524804 9:0.448276 
-0.5 0 0 0 0.1922950406967492 1:-0.0774194 2:-0.392857 3:-0.579869 4:0.155635 5:-0.727273 6:-0.23913 7:-0.0537634 8:-0.54047 9:0.448276 
-0.5 0 0 0 0 1:-0.0774194 2:-0.392857 3:-0.56674 4:0.155635 5:-0.727273 6:-0.224638 7:-0.0430108 8:-0.550914 9:0.478927 
-0.2321578057850516 0 0 0 0 1:-0.0709677 2:-0.384921 3:-0.557987 4:0.162791 5:-0.722222 6:-0.217391 7:-0.0215054 8:-0.550914 9:0.494253 
-0.5 0 0 0 0 1:-0.083871 2:-0.384921 3:-0.557987 4:0.155635 5:-0.722222 6:-0.217391 7:-0.0215054 8:-0.571802 9:0.494253 
-0.5 0 0 0 0 1:-0.0903226 2:-0.384921 3:-0.562363 4:0.155635 5:-0.722222 6:-0.217391 7:-0.0215054 8:-0.571802 9:0.48659 
-0.5 0 0 0 0 1:-0.083871 2:-0.384921 3:-0.557987 4:0.162791 5:-0.712121 6:-0.210145 7:-0.0215054 8:-0.56658 9:0.48659 
-0.5 0 0 0 0 1:-0.0709677 2:-0.373016 3:-0.557987 4:0.162791 5:-0.712121 6:-0.210145 7:-0.0215054 8:-0.56658 9:0.494253 
-0 0 0 0.3965328237667094 0 1:0.722581 2:-0.178571 3:-0.282276 4:0.627907 5:-0.151515 6:-0.195652 7:0.72043 8:-0.279373 9:0.701149 
-0 0 0 0.5 0 1:0.722581 2:-0.178571 3:-0.282276 4:0.627907 5:-0.156566 6:-0.210145 7:0.698925 8:-0.279373 9:0.678161 
-0 0 0 0.5 0 1:0.722581 2:-0.170635 3:-0.282276 4:0.631485 5:-0.151515 6:-0.210145 7:0.698925 8:-0.263708 9:0.685824 
-0 0 0 0.5 0 1:0.722581 2:-0.170635 3:-0.282276 4:0.631485 5:-0.151515 6:-0.202899 7:0.698925 8:-0.263708 9:0.685824 
-0 0 0 0.5 0 1:0.722581 2:-0.162698 3:-0.286652 4:0.617174 5:-0.151515 6:-0.210145 7:0.698925 8:-0.237598 9:0.701149 
-0 0 0 0.5 0 1:0.722581 2:-0.170635 3:-0.299781 4:0.617174 5:-0.151515 6:-0.217391 7:0.698925 8:-0.24282 9:0.701149 
-0 0 0 0.5 0 1:0.722581 2:-0.162698 3:-0.299781 4:0.617174 5:-0.151515 6:-0.210145 7:0.698925 8:-0.237598 9:0.701149 
-0 0 0 0.1243850382883509 0 1:0.348387 2:-0.206349 3:-0.247265 4:0.538462 5:-0.469697 6:-0.275362 7:-0.72043 8:-0.148825 9:0.48659 
-0 0 0 0.5 0 1:0.348387 2:-0.206349 3:-0.247265 4:0.538462 5:-0.464646 6:-0.275362 7:-0.698925 8:-0.138381 9:0.494253 
-0 0 0 0.5 0 1:0.36129 2:-0.206349 3:-0.238512 4:0.538462 5:-0.464646 6:-0.275362 7:-0.677419 8:-0.138381 9:0.501916 
-0 0 0 0.5 0 1:0.348387 2:-0.206349 3:-0.247265 4:0.538462 5:-0.474747 6:-0.275362 7:-0.677419 8:-0.138381 9:0.494253 
-0 0 0 0.5 0 1:0.348387 2:-0.206349 3:-0.247265 4:0.527728 5:-0.469697 6:-0.297101 7:-0.677419 8:-0.138381 9:0.494253 
-0 0 0 0.5 0 1:0.348387 2:-0.206349 3:-0.247265 4:0.538462 5:-0.464646 6:-0.297101 7:-0.677419 8:-0.133159 9:0.494253 
-0 0 0 0.5 0 1:0.393548 2:-0.246032 3:-0.21663 4:0.506261 5:-0.434343 6:-0.275362 7:-0.55914 8:-0.0861619 9:0.563218 
-0 0 0 0.5 0 1:0.406452 2:-0.242063 3:-0.199125 4:0.502683 5:-0.429293 6:-0.311594 7:-0.569892 8:-0.0809399 9:0.563218 
-0 0 0 0 0.5 1:-0.0903226 2:-0.376984 3:-0.531729 4:0.162791 5:-0.752525 6:-0.217391 7:-0.0645161 8:-0.56658 9:0.448276 
-0.5 0 0 0 0 1:-0.0709677 2:-0.376984 3:-0.527352 4:0.162791 5:-0.752525 6:-0.217391 7:-0.0645161 8:-0.56658 9:0.455939 
-0 0 0 0 0.5 1:-0.0903226 2:-0.404762 3:-0.536105 4:0.148479 5:-0.762626 6:-0.282609 7:-0.107527 8:-0.556136 9:0.440613 
-0 0 0.1154181596087782 0 0 1:-0.109677 2:-0.388889 3:-0.540481 4:0.148479 5:-0.767677 6:-0.282609 7:-0.129032 8:-0.524804 9:0.440613 
-0 0 0 0 0.4993452049479147 1:-0.103226 2:-0.376984 3:-0.5186 4:0.162791 5:-0.762626 6:-0.224638 7:-0.11828 8:-0.54047 9:0.448276 
-0 0 0 0 0.5 1:-0.103226 2:-0.376984 3:-0.5186 4:0.162791 5:-0.762626 6:-0.217391 7:-0.11828 8:-0.54047 9:0.448276 
-0.5 0 0.2599250967933429 0 0 1:-0.109677 2:-0.369048 3:-0.501094 4:0.169946 5:-0.757576 6:-0.188406 7:-0.107527 8:-0.54047 9:0.471264 
-0.5 0 0 0 0 1:-0.109677 2:-0.369048 3:-0.501094 4:0.169946 5:-0.757576 6:-0.188406 7:-0.107527 8:-0.545692 9:0.471264 
-0 0 0 0 0.034692209498507 1:0.548387 2:-0.313492 3:-0.181619 4:0.474061 5:-0.257576 6:-0.34058 7:0.698925 8:-0.305483 9:0.662835 
-0 0 0 0 0.5 1:0.548387 2:-0.313492 3:-0.181619 4:0.474061 5:-0.247475 6:-0.333333 7:0.709677 8:-0.305483 9:0.662835 
-0 0 0 0 0.5 1:0.548387 2:-0.309524 3:-0.172867 4:0.477639 5:-0.247475 6:-0.326087 7:0.709677 8:-0.300261 9:0.662835 
-0 0 0 0 0.5 1:0.554839 2:-0.309524 3:-0.172867 4:0.477639 5:-0.247475 6:-0.326087 7:0.709677 8:-0.300261 9:0.670498 
-0 0.140150690493375 0 0 0 1:0.567742 2:-0.361111 3:-0.172867 4:0.45975 5:-0.242424 6:-0.268116 7:0.827957 8:-0.310705 9:0.800766 
-0 0.5 0.4788295160000857 0 0 1:0.567742 2:-0.373016 3:-0.172867 4:0.438283 5:-0.242424 6:-0.289855 7:0.827957 8:-0.321149 9:0.800766 
-0.5 0 0 0 0 1:0.554839 2:-0.373016 3:-0.172867 4:0.438283 5:-0.242424 6:-0.289855 7:0.795699 8:-0.321149 9:0.793103 
-0.2820239636682428 0 0 0 0 1:0.567742 2:-0.373016 3:-0.164114 4:0.449016 5:-0.242424 6:-0.268116 7:0.795699 8:-0.321149 9:0.808429 
-0 0 0 0 0.5 1:0.341935 2:-0.265873 3:-0.199125 4:0.445438 5:-0.479798 6:-0.492754 7:-0.623656 8:-0.0391645 9:0.448276 
-0 0 0.5 0 0.5 1:0.296774 2:-0.34127 3:-0.229759 4:0.395349 5:-0.505051 6:-0.550725 7:-0.666667 8:-0.0496084 9:0.425287 
-0 0 0.315247904885812 0 0.2337462905135883 1:0.296774 2:-0.34127 3:-0.229759 4:0.395349 5:-0.505051 6:-0.543478 7:-0.634409 8:-0.0496084 9:0.455939 
-0.1686934103621284 0 0 0 0 1:0.290323 2:-0.404762 3:-0.199125 4:0.345259 5:-0.520202 6:-0.528986 7:-0.516129 8:-0.0913838 9:0.54023 
-0.5 0 0 0 0 1:0.309677 2:-0.404762 3:-0.203501 4:0.341682 5:-0.489899 6:-0.507246 7:-0.397849 8:-0.0548303 9:0.578544 
-0.5 0 0 0 0 1:0.303226 2:-0.416667 3:-0.212254 4:0.345259 5:-0.5 6:-0.521739 7:-0.44086 8:-0.0443864 9:0.524904 
-0.5 0 0 0 0 1:0.303226 2:-0.416667 3:-0.212254 4:0.345259 5:-0.5 6:-0.521739 7:-0.451613 8:-0.0443864 9:0.524904 
-0 0 0.114850646408211 0 0 1:0.36129 2:-0.357143 3:-0.185996 4:0.416816 5:-0.459596 6:-0.478261 7:-0.365591 8:0.0182768 9:0.509579 
-0 -0 0 0 0.5 1:-0.812903 2:-0.281746 3:-0.483589 4:-0.810376 5:-0.308081 6:-0.137681 7:-0.0215054 8:0.164491 9:-0.333333 
-0 -0 0 0 0.5 1:-0.812903 2:-0.281746 3:-0.483589 4:-0.806798 5:-0.308081 6:-0.137681 7:-0.0215054 8:0.180157 9:-0.32567 
-0 -0 0 0 0.5 1:-0.787097 2:-0.297619 3:-0.483589 4:-0.810376 5:-0.30303 6:-0.144928 7:-0.0107527 8:0.169713 9:-0.302682 
-0 -0 0 0 0.5 1:-0.812903 2:-0.309524 3:-0.483589 4:-0.817531 5:-0.313131 6:-0.144928 7:-0.0107527 8:0.169713 9:-0.302682 
-0 -0 0 0 0.5 1:-0.877419 2:-0.337302 3:-0.492341 4:-0.864043 5:-0.318182 6:-0.152174 7:-0.0107527 8:0.164491 9:-0.333333 
-0 -0 0 0 0.1520407025856404 1:-0.877419 2:-0.337302 3:-0.492341 4:-0.864043 5:-0.318182 6:-0.152174 7:0.0215054 8:0.169713 9:-0.302682 
-0 -0 0 0 0.5 1:-0.83871 2:-0.321429 3:-0.483589 4:-0.860465 5:-0.313131 6:-0.144928 7:0.0322581 8:0.180157 9:-0.295019 
-0 -0.2061535314961885 0 0 0 1:-0.980645 2:-0.349206 3:-0.492341 4:-0.906977 5:-0.287879 6:-0.217391 7:0.0537634 8:0.185379 9:-0.241379 
-0 -0 0 0.09465965413715902 0 1:-0.980645 2:-0.333333 3:-0.492341 4:-0.903399 5:-0.272727 6:-0.166667 7:0.0645161 8:0.201044 9:-0.249042 
-0.5 -0 0.5 0 0 1:0.0322581 2:-0.301587 3:-0.199125 4:-0.302326 5:-0.020202 6:0.115942 7:0.483871 8:0.0809399 9:0.195402 
-0.5 -0 0 0 0 1:0.0129032 2:-0.301587 3:-0.177243 4:-0.291592 5:-0.0656566 6:0.188406 7:0.634409 8:0.0078329 9:0.241379 
-0.5 -0 0 0 0 1:0.0129032 2:-0.325397 3:-0.185996 4:-0.291592 5:-0.0555556 6:0.173913 7:0.634409 8:0.00261097 9:0.226054 
-0.4378996710039237 -0 0 0 0 1:0.0129032 2:-0.329365 3:-0.185996 4:-0.29517 5:-0.0656566 6:0.166667 7:0.634409 8:-0.00261097 9:0.226054 
-0.5 -0 0 0 0 1:0.0129032 2:-0.325397 3:-0.207877 4:-0.309481 5:-0.0858586 6:0.123188 7:0.569892 8:-0.0078329 9:0.164751 
-0.5 -0 0 0 0 1:0.0129032 2:-0.333333 3:-0.207877 4:-0.316637 5:-0.0959596 6:0.115942 7:0.55914 8:-0.0130548 9:0.149425 
-0.5 -0 0 0 0 1:0.0129032 2:-0.325397 3:-0.207877 4:-0.316637 5:-0.0959596 6:0.115942 7:0.55914 8:-0.0078329 9:0.149425 
-0.5 -0 0 0 0 1:0.0129032 2:-0.325397 3:-0.207877 4:-0.316637 5:-0.0959596 6:0.115942 7:0.55914 8:-0.0078329 9:0.164751 
-0.5 -0 0 0 0 1:0.0129032 2:-0.325397 3:-0.207877 4:-0.316637 5:-0.0959596 6:0.115942 7:0.55914 8:-0.0078329 9:0.164751 
-0 -0 0 0 0.5 1:-0.0774194 2:-0.353175 3:-0.225383 4:-0.341682 5:-0.131313 6:0.130435 7:0.516129 8:-0.0234987 9:0.1341 
-0.08825476708644725 -0 0 0 0.5 1:-0.0774194 2:-0.353175 3:-0.225383 4:-0.341682 5:-0.131313 6:0.115942 7:0.516129 8:-0.0234987 9:0.1341 
-0 -0 0 0 0.5 1:-0.083871 2:-0.353175 3:-0.234136 4:-0.341682 5:-0.131313 6:0.115942 7:0.516129 8:-0.0234987 9:0.1341 
-0 -0 0 0 0.5 1:-0.0774194 2:-0.353175 3:-0.225383 4:-0.338104 5:-0.131313 6:0.130435 7:0.526882 8:-0.0130548 9:0.141762 
-0 -0 0.5 0 0 1:-0.309677 2:-0.230159 3:-0.02407 4:-0.534884 5:-0.222222 6:0.224638 7:-0.0537634 8:0.530026 9:0.103448 
-0 -0 0.5 0 0 1:-0.303226 2:-0.230159 3:-0.02407 4:-0.534884 5:-0.212121 6:0.224638 7:-0.0430108 8:0.535248 9:0.103448 
-0 -0 0.5 0 0 1:-0.283871 2:-0.230159 3:-0.02407 4:-0.534884 5:-0.212121 6:0.224638 7:-0.0430108 8:0.535248 9:0.103448 
-0 -0 0.5 0 0 1:-0.283871 2:-0.246032 3:-0.0371991 4:-0.534884 5:-0.212121 6:0.210145 7:-0.0215054 8:0.535248 9:0.126437 
-0 -0 0.5 0 0 1:-0.283871 2:-0.246032 3:-0.0415755 4:-0.534884 5:-0.222222 6:0.210145 7:-0.0537634 8:0.535248 9:0.0957854 
-0.5 -0 0 0 0.5 1:-0.00645161 2:-0.472222 3:-0.66302 4:-0.495528 5:-0.722222 6:-0.144928 7:0.225806 8:-0.336815 9:0.249042 
-0.5 -0 0 0 0.5 1:-0.0580645 2:-0.472222 3:-0.671772 4:-0.502683 5:-0.727273 6:-0.144928 7:0.225806 8:-0.342037 9:0.241379 
-0.5 -0 0 0 0.5 1:-0.0580645 2:-0.47619 3:-0.671772 4:-0.509839 5:-0.727273 6:-0.152174 7:0.225806 8:-0.342037 9:0.241379 
-0.5 -0 0 0 0.5 1:-0.0258065 2:-0.472222 3:-0.671772 4:-0.502683 5:-0.727273 6:-0.144928 7:0.236559 8:-0.342037 9:0.249042 
-0 -0 0 0 0.5 1:-0.0258065 2:-0.472222 3:-0.671772 4:-0.502683 5:-0.727273 6:-0.144928 7:0.258065 8:-0.342037 9:0.249042 
-0 -0 0 0 0.5 1:-0.0193548 2:-0.472222 3:-0.671772 4:-0.502683 5:-0.727273 6:-0.144928 7:0.258065 8:-0.336815 9:0.249042 
-0 -0 0 0 0.5 1:-0.0193548 2:-0.472222 3:-0.66302 4:-0.502683 5:-0.727273 6:-0.137681 7:0.258065 8:-0.336815 9:0.256705 
-0.1544539537326764 -0 0 0 0.5 1:-0.0258065 2:-0.472222 3:-0.66302 4:-0.495528 5:-0.742424 6:-0.137681 7:0.236559 8:-0.336815 9:0.256705 
-0 -0 0 0 0.5 1:-0.0258065 2:-0.47619 3:-0.66302 4:-0.513417 5:-0.742424 6:-0.137681 7:0.236559 8:-0.336815 9:0.256705 
-0 -0 0 0 0.5 1:-0.0258065 2:-0.47619 3:-0.671772 4:-0.513417 5:-0.752525 6:-0.137681 7:0.236559 8:-0.336815 9:0.249042 
-0 -0 0 0 0.5 1:-0.0258065 2:-0.47619 3:-0.671772 4:-0.513417 5:-0.752525 6:-0.137681 7:0.236559 8:-0.336815 9:0.249042 
-0 -0 0 0 0.5 1:-0.0451613 2:-0.47619 3:-0.671772 4:-0.513417 5:-0.752525 6:-0.137681 7:0.236559 8:-0.336815 9:0.249042 
-0 -0 0 0 0.5 1:-0.0451613 2:-0.47619 3:-0.66302 4:-0.513417 5:-0.752525 6:-0.137681 7:0.247312 8:-0.336815 9:0.256705 
-0 -0 0 0 0.5 1:-0.0451613 2:-0.472222 3:-0.66302 4:-0.509839 5:-0.752525 6:-0.137681 7:0.247312 8:-0.331593 9:0.256705 
-0 -0 0 0 0.5 1:-0.0258065 2:-0.472222 3:-0.66302 4:-0.509839 5:-0.742424 6:-0.137681 7:0.268817 8:-0.331593 9:0.256705 
-0 -0 0 0 0.5 1:-0.0258065 2:-0.468254 3:-0.66302 4:-0.495528 5:-0.742424 6:-0.123188 7:0.268817 8:-0.326371 9:0.256705 
-0 -0 0 0 0.07428947665923442 1:-0.0516129 2:-0.472222 3:-0.671772 4:-0.502683 5:-0.742424 6:-0.137681 7:0.268817 8:-0.331593 9:0.272031 
-0 -0 0 0 0.5 1:-0.0580645 2:-0.47619 3:-0.671772 4:-0.509839 5:-0.752525 6:-0.144928 7:0.258065 8:-0.336815 9:0.272031 
-0 -0 0 0 0.5 1:-0.0516129 2:-0.47619 3:-0.671772 4:-0.502683 5:-0.752525 6:-0.144928 7:0.258065 8:-0.336815 9:0.272031 
-0 -0 0 0 0.5 1:-0.0387097 2:-0.47619 3:-0.684902 4:-0.509839 5:-0.752525 6:-0.15942 7:0.258065 8:-0.347258 9:0.256705 
-0 -0 0 0 0.5 1:-0.0387097 2:-0.484127 3:-0.684902 4:-0.509839 5:-0.752525 6:-0.15942 7:0.258065 8:-0.347258 9:0.256705 
-0 -0 0 0 0.5 1:-0.0387097 2:-0.484127 3:-0.689278 4:-0.509839 5:-0.767677 6:-0.15942 7:0.258065 8:-0.347258 9:0.256705 
-0 -0 0 0 0.5 1:-0.0387097 2:-0.492063 3:-0.689278 4:-0.509839 5:-0.777778 6:-0.15942 7:0.258065 8:-0.347258 9:0.256705 
-0 -0 0 0 0.2503994011299399 1:-0.658065 2:-0.384921 3:-0.50547 4:-0.831843 5:-0.287879 6:-0.188406 7:0.0322581 8:0.227154 9:-0.233716 
-0 -0 0 0 0.5 1:-0.658065 2:-0.384921 3:-0.5186 4:-0.831843 5:-0.287879 6:-0.188406 8:0.227154 9:-0.272031 
-0 -0 0 0 0.5 1:-0.658065 2:-0.388889 3:-0.5186 4:-0.831843 5:-0.287879 6:-0.217391 8:0.206266 9:-0.272031 
-0 -0 0 0 0.5 1:-0.0129032 2:-0.396825 3:-0.277899 4:-0.348837 5:-0.171717 6:0.0724638 7:0.494624 8:-0.0130548 9:0.118774 
-0 -0 0 0 0.5 1:-0.0129032 2:-0.396825 3:-0.282276 4:-0.348837 5:-0.176768 6:0.0724638 7:0.483871 8:-0.0130548 9:0.118774 
-0 -0 0 0 0.2204775105267173 1:-0.00645161 2:-0.396825 3:-0.282276 4:-0.345259 5:-0.171717 6:0.0724638 7:0.494624 8:0.00261097 9:0.118774 
-0 -0 0.5 0 0 1:-0.264516 2:-0.277778 3:-0.0765864 4:-0.556351 5:-0.30303 6:0.210145 7:-0.333333 8:0.483029 9:0.0498084 
-0 -0 0.5 0 0 1:-0.23871 2:-0.277778 3:-0.0765864 4:-0.545617 5:-0.29798 6:0.217391 7:-0.333333 8:0.498695 9:0.0574713 
-0 -0 0.2551257327780933 0 0 1:-0.225806 2:-0.277778 3:-0.0765864 4:-0.545617 5:-0.29798 6:0.217391 7:-0.333333 8:0.498695 9:0.0651341 
-0 -0 0.5 0 0 1:-0.219355 2:-0.277778 3:-0.0678337 4:-0.545617 5:-0.30303 6:0.210145 7:-0.333333 8:0.493473 9:0.0881226 
-0 -0 0 0.5 0 1:-0.219355 2:-0.277778 3:-0.0678337 4:-0.545617 5:-0.308081 6:0.210145 7:-0.333333 8:0.477807 9:0.0881226 
-0 -0 0.5 0 0 1:-0.219355 2:-0.277778 3:-0.0765864 4:-0.549195 5:-0.308081 6:0.195652 7:-0.344086 8:0.472585 9:0.0651341 
-0 -0 0.5 0 0 1:-0.219355 2:-0.277778 3:-0.0765864 4:-0.549195 5:-0.308081 6:0.195652 7:-0.344086 8:0.472585 9:0.0651341 
-0 -0.1932060074335867 0.5 0 0 1:-0.251613 2:-0.277778 3:-0.0765864 4:-0.549195 5:-0.308081 6:0.188406 7:-0.344086 8:0.467363 9:0.0651341 
-0 -0 0.5 0 0 1:-0.219355 2:-0.277778 3:-0.0765864 4:-0.545617 5:-0.308081 6:0.188406 7:-0.344086 8:0.472585 9:0.0651341 
-0.5 -0 0.5 0 0 1:-0.219355 2:-0.277778 3:-0.0765864 4:-0.545617 5:-0.308081 6:0.188406 7:-0.344086 8:0.472585 9:0.0804598 
-0 -0 0.5 0 0 1:-0.219355 2:-0.277778 3:-0.0765864 4:-0.542039 5:-0.308081 6:0.195652 7:-0.344086 8:0.477807 9:0.0804598 
-0 -0 0.5 0 0 1:-0.206452 2:-0.277778 3:-0.0765864 4:-0.538462 5:-0.308081 6:0.195652 7:-0.344086 8:0.477807 9:0.0804598 
-0.1385237545249951 -0.3268046639797293 0 0.1725648406236962 0 1:-0.206452 2:-0.269841 3:-0.0897155 4:-0.534884 5:-0.308081 6:0.195652 7:-0.344086 8:0.477807 9:0.0804598 
-0 -0 0.5 0 0 1:0.212903 2:-0.349206 3:-0.207877 4:-0.159213 5:-0.0454545 6:0.318841 7:0.860215 8:0.0130548 9:0.425287 
-0 -0 0 0 0.5 1:-0.129032 2:-0.353175 3:-0.150985 4:-0.506261 5:-0.378788 6:0.137681 7:-0.322581 8:0.477807 9:-0.0268199 
-0 -0 0 0 0.5 1:-0.154839 2:-0.353175 3:-0.150985 4:-0.506261 5:-0.378788 6:0.137681 7:-0.322581 8:0.477807 9:-0.0268199 
-0 -0 0 0 0.5 1:-0.174194 2:-0.349206 3:-0.146608 4:-0.516995 5:-0.368687 6:0.181159 7:-0.333333 8:0.488251 9:-0.00383142 
-0 -0 0 0 0.4146632747317391 1:-0.167742 2:-0.345238 3:-0.146608 4:-0.516995 5:-0.368687 6:0.181159 7:-0.333333 8:0.493473 9:-0.00383142 
-0 -0.5 0 0 0 1:0.187097 2:-0.559524 3:-0.859956 4:-0.237925 5:-0.883838 6:-0.34058 7:0.139785 8:-0.425587 9:0.279693 
-0 -0 0 0 0.5 1:-0.645161 2:-0.515873 3:-0.557987 4:-0.871199 5:-0.378788 6:-0.369565 7:-0.0860215 8:0.164491 9:-0.310345 
-0 -0 0 0 0.4273391880708884 1:-0.632258 2:-0.488095 3:-0.562363 4:-0.88551 5:-0.363636 6:-0.369565 7:-0.139785 8:0.164491 9:-0.37931 
-0 -0 0 0 0.5 1:-0.612903 2:-0.488095 3:-0.562363 4:-0.864043 5:-0.363636 6:-0.369565 7:-0.139785 8:0.169713 9:-0.37931 
-0 -0 0 0 0.5 1:-0.580645 2:-0.488095 3:-0.562363 4:-0.838998 5:-0.363636 6:-0.369565 7:-0.139785 8:0.169713 9:-0.37931 
-0 -0 0 0 0.5 1:-0.606452 2:-0.488095 3:-0.553611 4:-0.849732 5:-0.368687 6:-0.362319 7:-0.16129 8:0.164491 9:-0.394636 
-0 -0 0 0 0.5 1:-0.606452 2:-0.488095 3:-0.553611 4:-0.864043 5:-0.373737 6:-0.384058 7:-0.172043 8:0.164491 9:-0.394636 
-0 -0 0 0 0.5 1:-0.606452 2:-0.488095 3:-0.571116 4:-0.864043 5:-0.373737 6:-0.384058 7:-0.193548 8:0.164491 9:-0.402299 
-0 -0 0.1568599001568087 0 0.5 1:-0.606452 2:-0.5 3:-0.571116 4:-0.864043 5:-0.373737 6:-0.398551 7:-0.193548 8:0.164491 9:-0.43295 
-0 -0 0 0 0.5 1:-0.606452 2:-0.5 3:-0.571116 4:-0.864043 5:-0.378788 6:-0.398551 7:-0.193548 8:0.159269 9:-0.43295 
-0 -0 0 0 0.5 1:-0.580645 2:-0.5 3:-0.571116 4:-0.856887 5:-0.378788 6:-0.398551 7:-0.193548 8:0.159269 9:-0.43295 
-0 -0 0 0 0.5 1:-0.580645 2:-0.488095 3:-0.56674 4:-0.849732 5:-0.378788 6:-0.384058 7:-0.193548 8:0.164491 9:-0.417625 
-0 -0 0 0 0.5 1:-0.580645 2:-0.488095 3:-0.553611 4:-0.842576 5:-0.373737 6:-0.384058 7:-0.172043 8:0.164491 9:-0.402299 
-0 -0 0 0 0.5 1:-0.580645 2:-0.488095 3:-0.553611 4:-0.842576 5:-0.373737 6:-0.384058 7:-0.172043 8:0.164491 9:-0.394636 
-0.5 -0 0 0 0 1:-0.812903 2:-0.519841 3:-0.557987 4:-0.971377 5:-0.393939 6:-0.449275 7:-0.150538 8:0.133159 9:-0.356322 
-0.5 -0 0 0 0 1:-0.845161 2:-0.519841 3:-0.557987 4:-0.974955 5:-0.39899 6:-0.449275 7:-0.16129 8:0.133159 9:-0.356322 
-0.5 -0 0 0 0 1:-0.851613 2:-0.519841 3:-0.557987 4:-0.982111 5:-0.39899 6:-0.449275 7:-0.16129 8:0.127937 9:-0.356322 
-0.5 -0 0.5 0 0 1:-0.851613 2:-0.519841 3:-0.557987 4:-0.982111 5:-0.39899 6:-0.449275 7:-0.172043 8:0.127937 9:-0.356322 
-0.5 -0 0.5 0 0 1:-0.851613 2:-0.52381 3:-0.562363 4:-0.989267 5:-0.39899 6:-0.456522 7:-0.172043 8:0.127937 9:-0.356322 
-0.5 -0 0.5 0 0 1:-0.845161 2:-0.52381 3:-0.557987 4:-0.982111 5:-0.39899 6:-0.456522 7:-0.172043 8:0.133159 9:-0.356322 
-0.5 -0 0.4754280536076647 0 0 1:-0.812903 2:-0.52381 3:-0.557987 4:-0.982111 5:-0.393939 6:-0.456522 7:-0.16129 8:0.138381 9:-0.356322 
-0.5 -0 0 0 0 1:-0.812903 2:-0.52381 3:-0.553611 4:-0.982111 5:-0.393939 6:-0.449275 7:-0.16129 8:0.138381 9:-0.348659 
-0.2106542271127083 -0 0 0 0 1:-0.812903 2:-0.52381 3:-0.544858 4:-0.982111 5:-0.393939 6:-0.449275 7:-0.150538 8:0.138381 9:-0.348659 
-0.5 -0 0 0 0 1:-0.864516 2:-0.519841 3:-0.553611 4:-1 5:-0.393939 6:-0.442029 7:-0.150538 8:0.143603 9:-0.333333 
-0.5 -0 0 0 0 1:-0.864516 2:-0.535714 3:-0.553611 4:-1 5:-0.393939 6:-0.442029 7:-0.150538 8:0.143603 9:-0.333333 
-0 -0 0 0.2005466934339805 0 1:-0.864516 2:-0.535714 3:-0.553611 4:-1 5:-0.393939 6:-0.442029 7:-0.150538 8:0.143603 9:-0.348659 
-0 -0.5 0 0.2659175774049248 0 1:0.335484 2:-0.369048 3:-0.273523 4:-0.0447227 5:-0.141414 6:0.246377 7:0.795699 8:-0.0339426 9:0.302682 
-0 -0.5 0 0.5 0 1:0.348387 2:-0.365079 3:-0.273523 4:-0.0447227 5:-0.126263 6:0.253623 7:0.795699 8:-0.0287206 9:0.302682 
-0 -0.5 0.4710069443952491 0.5 0 1:0.348387 2:-0.365079 3:-0.269147 4:-0.0447227 5:-0.116162 6:0.246377 7:0.806452 8:-0.0339426 9:0.310345 
-0 -0.5 0 0.5 0 1:0.335484 2:-0.365079 3:-0.273523 4:-0.0447227 5:-0.136364 6:0.246377 7:0.795699 8:-0.0339426 9:0.302682 
-0 -0.3318920524726804 0 0 0 1:0.335484 2:-0.369048 3:-0.273523 4:-0.0697674 5:-0.136364 6:0.231884 7:0.795699 8:-0.0443864 9:0.310345 
-0 -0 0 0 0.1837630911509893 1:-0.0258065 2:-0.376984 3:-0.238512 4:-0.488372 5:-0.378788 6:0.0434783 7:-0.322581 8:0.524804 9:-0.141762 
-0 -0 0 0 0.5 2:-0.376984 3:-0.234136 4:-0.466905 5:-0.378788 6:0.057971 7:-0.301075 8:0.530026 9:-0.118774 
-0 -0 0 0 0.01493023639573605 2:-0.365079 3:-0.225383 4:-0.463327 5:-0.378788 6:0.0869565 7:-0.301075 8:0.545692 9:-0.118774 
-0 -0 0 0 0.5 1:-0.0129032 2:-0.392857 3:-0.225383 4:-0.488372 5:-0.393939 6:0.0434783 7:-0.301075 8:0.524804 9:-0.141762 
-0 -0 0 0 0.5 1:-0.0258065 2:-0.396825 3:-0.225383 4:-0.49195 5:-0.393939 6:0.0434783 7:-0.301075 8:0.524804 9:-0.141762 
-0 -0 0 0 0.5 1:-0.0258065 2:-0.396825 3:-0.21663 4:-0.49195 5:-0.393939 6:0.057971 7:-0.301075 8:0.524804 9:-0.118774 
-0 -0 0 0 0.5 1:-0.0258065 2:-0.392857 3:-0.21663 4:-0.488372 5:-0.388889 6:0.0652174 7:-0.27957 8:0.524804 9:-0.111111 
-0 -0.3259686813951168 0 0 0 1:0.180645 2:-0.59127 3:-0.899344 4:-0.227191 5:-0.919192 6:-0.376812 7:0.0322581 8:-0.462141 9:0.264368 
-0 -0.5 0 0 0 1:0.187097 2:-0.59127 3:-0.899344 4:-0.220036 5:-0.914141 6:-0.376812 7:0.0430108 8:-0.456919 9:0.264368 
-0 -0.5 0 0 0 1:0.180645 2:-0.59127 3:-0.90372 4:-0.227191 5:-0.919192 6:-0.376812 7:0.0322581 8:-0.462141 9:0.272031 
-0.5 -0 0 0 0 1:0.154839 2:-0.607143 3:-0.912473 4:-0.245081 5:-0.919192 6:-0.42029 7:0.0215054 8:-0.477807 9:0.287356 
-0.3790494852158808 -0 0 0 0 1:0.167742 2:-0.603175 3:-0.912473 4:-0.241503 5:-0.919192 6:-0.42029 7:0.0215054 8:-0.477807 9:0.287356 
-0 -0.5 0 0 0 1:0.180645 2:-0.615079 3:-0.964989 4:-0.187835 5:-0.934343 6:-0.434783 7:0.0107527 8:-0.488251 9:0.279693 
-0 -0.5 0 0.5 0 1:0.180645 2:-0.615079 3:-0.964989 4:-0.173524 5:-0.929293 6:-0.434783 7:0.0107527 8:-0.483029 9:0.287356 
-0 -0.5 0 0.5 0 1:0.2 2:-0.615079 3:-0.960613 4:-0.187835 5:-0.929293 6:-0.434783 8:-0.488251 9:0.287356 
-0 -0.5 0 0.5 0 1:0.2 2:-0.615079 3:-0.969365 4:-0.187835 5:-0.934343 6:-0.434783 7:-0.0215054 8:-0.498695 9:0.279693 
-0 -0 0 0.3871212511713362 0 1:0.2 2:-0.626984 3:-0.969365 4:-0.194991 5:-0.934343 6:-0.456522 7:-0.0215054 8:-0.51436 9:0.256705 
-0.5 -0 0 0 0 1:0.141935 2:-0.626984 3:-0.969365 4:-0.223614 5:-0.939394 6:-0.456522 7:-0.0322581 8:-0.519582 9:0.256705 
-0 -0.5 0 0 0 1:0.148387 2:-0.626984 3:-0.969365 4:-0.194991 5:-0.939394 6:-0.442029 7:-0.0215054 8:-0.519582 9:0.256705 
-0 -0.5 0 0 0 1:0.148387 2:-0.626984 3:-0.969365 4:-0.194991 5:-0.939394 6:-0.442029 7:-0.0215054 8:-0.519582 9:0.256705 
-0 -0.111229067852356 0 0 0 1:0.148387 2:-0.626984 3:-0.964989 4:-0.194991 5:-0.939394 6:-0.442029 8:-0.519582 9:0.256705 
-0 -0.5 0 0 0 1:0.148387 2:-0.626984 3:-0.960613 4:-0.194991 5:-0.939394 6:-0.442029 8:-0.519582 9:0.256705 
-0.5 -0 0 0 0 1:0.083871 2:-0.654762 3:-0.986871 4:-0.234347 5:-0.974747 6:-0.485507 7:-0.0215054 8:-0.535248 9:0.264368 
-0.5 -0 0.2677530058301177 0 0 1:0.083871 2:-0.646825 3:-0.995624 4:-0.241503 5:-0.994949 6:-0.514493 7:-0.0322581 8:-0.54047 9:0.272031 
-0.5 -0 0 0 0 1:0.0709677 2:-0.646825 3:-1 4:-0.241503 5:-1 6:-0.514493 7:-0.0322581 8:-0.545692 9:0.256705 
-0.3481836117449642 -0 0 0 0 1:0.0709677 2:-0.646825 3:-1 4:-0.241503 5:-1 6:-0.514493 7:-0.0322581 8:-0.545692 9:0.256705 
-0 -0 -0 0 0.060280225222043 1:-0.845161 2:0.0555556 3:-0.273523 4:-0.799642 5:0.257576 6:0.108696 7:-0.860215 8:0.796345 9:-0.854406 
-0 -0.4496698753310098 -0 0.4115292186784694 0 1:-0.922581 2:-0.00793651 3:-0.326039 4:-0.828265 5:0.212121 6:0.0217391 7:-0.913978 8:0.759791 9:-0.923372 
-0.08238139035121834 -0 -0 0 0.5 1:0.0387097 2:0.103175 3:0.374179 4:-0.0769231 5:0.383838 6:0.318841 7:0.0537634 8:0.347258 9:0.0574713 
-0 -0 -0 0.3539852175870362 0.5 1:0.0387097 2:0.107143 3:0.391685 4:-0.0626118 5:0.383838 6:0.318841 7:0.0537634 8:0.357702 9:0.0574713 
-0 -0.1829650617721008 -0 0.3686104684455107 0.5 1:0.0387097 2:0.107143 3:0.391685 4:-0.0626118 5:0.383838 6:0.318841 7:0.0537634 8:0.357702 9:0.0574713 
-0 -0 -0 0 0.5 1:0.0387097 2:0.107143 3:0.396061 4:-0.0626118 5:0.383838 6:0.318841 7:0.0537634 8:0.357702 9:0.0574713 
-0 -0 -0 0 0.5 1:0.0387097 2:0.107143 3:0.396061 4:-0.0626118 5:0.383838 6:0.318841 7:0.0537634 8:0.357702 9:0.0574713 
-0 -0 -0.5 0 0 1:-0.270968 2:-0.0436508 3:0.291028 4:-0.516995 5:0.010101 6:0.144928 7:-0.408602 8:0.70235 9:0.0651341 
-0 -0 -0.5 0 0 1:-0.258065 2:-0.00793651 3:0.295405 4:-0.513417 5:0.0151515 6:0.15942 7:-0.408602 8:0.707572 9:0.0651341 
-0 -0 -0.5 0 0 1:-0.206452 2:-0.047619 3:0.299781 4:-0.542039 5:-0.020202 6:0.0942029 7:-0.376344 8:0.691906 9:0.111111 
-0 -0 -0.3387719703189764 0 0 1:-0.232258 2:-0.0595238 3:0.308534 4:-0.545617 5:-0.0252525 6:0.0869565 7:-0.376344 8:0.686684 9:0.118774 
-0 -0 -0.5 0 0 1:-0.225806 2:-0.0674603 3:0.295405 4:-0.549195 5:-0.0252525 6:0.0724638 7:-0.376344 8:0.681462 9:0.111111 
-0 -0 -0.2757413158730286 0 0 1:-0.225806 2:-0.0674603 3:0.295405 4:-0.549195 5:-0.030303 6:0.0652174 7:-0.376344 8:0.671018 9:0.111111 
-0 -0 -0.5 0 0 1:-0.225806 2:-0.0674603 3:0.291028 4:-0.549195 5:-0.030303 6:0.0652174 7:-0.376344 8:0.671018 9:0.111111 
-0 -0 -0 0 0.2925782940407214 1:-0.483871 2:0.00396825 3:0.540481 4:-0.134168 5:0.409091 6:0.137681 7:-0.795699 8:0.0234987 9:-0.103448 
-0 -0 -0 0 0.5 1:-0.483871 2:0.00396825 3:0.557987 4:-0.134168 5:0.409091 6:0.137681 7:-0.795699 8:0.0234987 9:-0.103448 
-0 -0.03094929241704599 -0 0.07217099346773873 0 1:-0.483871 2:0.00396825 3:0.562363 4:-0.134168 5:0.409091 6:0.137681 7:-0.795699 8:0.0234987 9:-0.0881226 
-0 -0 -0 0 0.5 1:-0.477419 2:-0.202381 3:0.47046 4:-0.230769 5:0.166667 6:-0.195652 7:-0.806452 8:-0.10705 9:-0.149425 
-0 -0 -0.09327467347034395 0 0 1:-0.916129 2:-0.190476 3:-0.422319 4:-0.813953 5:0.0757576 6:-0.130435 7:-0.494624 8:0.712794 9:-0.823755 
-0 -0 -0.5 0 0 1:-0.941935 2:-0.198413 3:-0.439825 4:-0.810376 5:0.0555556 6:-0.166667 7:-0.516129 8:0.67624 9:-0.846743 
-0.2226589456086578 -0 -0 0 0 1:-0.941935 2:-0.214286 3:-0.461707 4:-0.813953 5:0.040404 6:-0.195652 7:-0.569892 8:0.660574 9:-0.877395 
-0.5 -0 -0 0 0 1:-0.941935 2:-0.214286 3:-0.466083 4:-0.810376 5:0.0505051 6:-0.195652 7:-0.569892 8:0.655352 9:-0.877395 
-0 -0.4850071449324376 -0 0.4247041898231522 0 1:-0.541935 2:-0.293651 3:0.417943 4:-0.220036 5:0.106061 6:-0.181159 7:-0.698925 8:-0.138381 9:-0.0651341 
-0 -0.3559481094589701 -0 0.389223905017612 0 1:-0.870968 2:-0.25 3:-0.501094 4:-0.767442 5:0.00505051 6:-0.224638 7:-0.634409 8:0.634465 9:-0.992337 
-0.5 -0 -0 0 0.5 1:-0.870968 2:-0.25 3:-0.496718 4:-0.796064 5:0.00505051 6:-0.224638 7:-0.612903 8:0.613577 9:-0.969349 
-0 -0 -0 0 0.5 1:-0.664516 2:-0.253968 3:-0.461707 4:-0.677996 6:-0.137681 7:-0.623656 8:0.665796 9:-0.992337 
-0 -0 -0 0 0.005915912323842249 1:-0.683871 2:-0.257937 3:-0.461707 4:-0.677996 6:-0.137681 7:-0.634409 8:0.650131 9:-0.992337 
-0 -0 -0 0 0.5 1:-0.683871 2:-0.257937 3:-0.461707 4:-0.677996 6:-0.137681 7:-0.634409 8:0.650131 9:-1 
-0 -0 -0.5 0 0 1:-0.696774 2:-0.230159 3:-0.448578 4:-0.713775 5:0.0353535 6:-0.166667 7:-0.55914 8:0.660574 9:-0.900383 
-0 -0 -0.5 0 0 1:-0.696774 2:-0.22619 3:-0.448578 4:-0.713775 5:0.0353535 6:-0.166667 7:-0.55914 8:0.660574 9:-0.900383 
-0 -0 -0.5 0 0 1:-0.703226 2:-0.230159 3:-0.448578 4:-0.72093 5:0.0353535 6:-0.166667 7:-0.537634 8:0.665796 9:-0.900383 
-0 -0.2361350310866222 -0 0 0 1:-0.00645161 2:-0.34127 3:0.295405 4:-0.152057 5:0.222222 6:-0.057971 7:0.204301 8:0.221932 9:0.218391 
-0 -0.5 -0 0.5 0 1:-0.00645161 2:-0.333333 3:0.295405 4:-0.152057 5:0.222222 6:-0.0434783 7:0.204301 8:0.221932 9:0.233716 
-0.5 -0 -0.5 0 0 1:-0.0193548 2:-0.34127 3:0.269147 4:-0.173524 5:0.207071 6:-0.057971 7:0.204301 8:0.21671 9:0.203065 
-0.4394748488243929 -0 -0.5 0 0 1:-0.0193548 2:-0.34127 3:0.269147 4:-0.173524 5:0.19697 6:-0.057971 7:0.182796 8:0.211488 9:0.203065 
-0 -0 -0.5 0 0 1:-0.0322581 2:-0.34127 3:0.269147 4:-0.173524 5:0.19697 6:-0.057971 7:0.16129 8:0.206266 9:0.203065 
-0 -0 -0.5 0 0 1:-0.0322581 2:-0.34127 3:0.269147 4:-0.173524 5:0.19697 6:-0.057971 7:0.16129 8:0.195822 9:0.203065 
-0.5 -0 -0.5 0 0 1:-0.0193548 2:-0.34127 3:0.269147 4:-0.173524 5:0.19697 6:-0.057971 7:0.182796 8:0.195822 9:0.203065 
-0.5 -0.5 -0.5 0.2100622300724288 0.3029267519785253 1:-0.0193548 2:-0.34127 3:0.269147 4:-0.173524 5:0.19697 6:-0.0507246 7:0.182796 8:0.195822 9:0.210728 
-0.3138814442048974 -0 -0.5 0 0.5 1:-0.451613 2:-0.428571 3:0.142232 4:-0.717352 5:-0.272727 6:-0.42029 7:-0.494624 8:0.451697 9:-0.0191571 
-0 -0 -0.5 0 0 1:-0.445161 2:-0.373016 3:0.159737 4:-0.72093 5:-0.257576 6:-0.362319 7:-0.462366 8:0.483029 9:-0.0114943 
-0 -0 -0.5 0 0 1:-0.445161 2:-0.373016 3:0.150985 4:-0.717352 5:-0.257576 6:-0.355072 7:-0.473118 8:0.488251 9:-0.0268199 
-0 -0.2707009094220802 -0 0 0 1:-0.43871 2:-0.412698 3:0.212254 4:-0.649374 5:-0.267677 6:-0.413043 7:-0.483871 8:0.483029 9:0.0651341 
-0 -0 -0.4183856771055843 0 0 1:-0.419355 2:-0.400794 3:0.194748 4:-0.663685 5:-0.252525 6:-0.369565 7:-0.376344 8:0.488251 9:0.0804598 
-0 -0 -0.5 0 0 1:-0.419355 2:-0.400794 3:0.194748 4:-0.677996 5:-0.252525 6:-0.369565 7:-0.376344 8:0.483029 9:0.0804598 
-0.5 -0 -0.5 0 0.1096312850076889 1:-0.432258 2:-0.400794 3:0.164114 4:-0.677996 5:-0.262626 6:-0.369565 7:-0.376344 8:0.483029 9:0.0804598 
-0 -0 -0 0.1186324441346338 0 1:-0.341935 2:-0.373016 3:0.282276 4:-0.663685 5:-0.227273 6:-0.333333 7:-0.301075 8:0.488251 9:0.241379 
-0 -0 -0.5 0 0 1:-0.406452 2:-0.373016 3:0.185996 4:-0.663685 5:-0.257576 6:-0.333333 7:-0.376344 8:0.488251 9:0.0957854 
-0.5 -0 -0 0 0 1:-0.445161 2:-0.333333 3:0.317287 4:-0.291592 5:0.0707071 6:-0.376812 7:-0.268817 8:-0.133159 9:0.00383142 
-0.5 -0 -0 0 0 1:-0.451613 2:-0.337302 3:0.317287 4:-0.298748 5:0.0707071 6:-0.376812 7:-0.290323 8:-0.138381 9:0.00383142 
-0.3022693163175545 -0 -0 0 0 1:-0.458065 2:-0.337302 3:0.317287 4:-0.298748 5:0.0656566 6:-0.376812 7:-0.290323 8:-0.138381 9:-0.0114943 
-0 -0 -0 0 0.3038304808182991 1:-0.445161 2:-0.337302 3:0.317287 4:-0.298748 5:0.0656566 6:-0.376812 7:-0.27957 8:-0.138381 9:-0.0191571 
-0.5 -0 -0 0 0.5 1:-0.445161 2:-0.337302 3:0.317287 4:-0.302326 5:0.0656566 6:-0.376812 7:-0.27957 8:-0.143603 9:-0.0191571 
-0 -0 -0 0 0.5 1:-0.451613 2:-0.325397 3:0.321663 4:-0.284436 5:0.0707071 6:-0.376812 7:-0.290323 8:-0.148825 9:-0.0268199 
-0 -0 -0.5 -0 0 1:0.225806 2:-0.134921 3:-0.382932 4:0.323792 5:-0.626263 6:0.550725 7:0.268817 8:-0.409922 9:0.724138 
-0.5 -0 -0 -0 0 1:0.2 2:-0.154762 3:-0.404814 4:0.305903 5:-0.666667 6:0.471014 7:0.11828 8:-0.420366 9:0.662835 
-0.5 -0 -0.03043529802054692 -0 0 1:0.2 2:-0.166667 3:-0.417943 4:0.302326 5:-0.671717 6:0.456522 7:0.0752688 8:-0.415144 9:0.609195 
-0 -0.02278148078331336 -0.1362006614448913 -0.07431982977277823 0 1:0.922581 2:0.138889 3:-0.404814 4:0.749553 5:-0.10101 6:0.362319 7:0.634409 8:-0.524804 9:0.961686 
-0 -0.5 -0 -0 0 1:0.851613 2:0.0634921 3:-0.400438 4:0.692308 5:-0.126263 6:0.297101 7:0.580645 8:-0.530026 9:0.923372 
-0 -0.5 -0 -0 0 1:0.851613 2:0.0515873 3:-0.400438 4:0.663685 5:-0.126263 6:0.282609 7:0.580645 8:-0.535248 9:0.923372 
-0 -0.5 -0 -0 0 1:0.851613 2:0.0515873 3:-0.400438 4:0.663685 5:-0.136364 6:0.282609 7:0.580645 8:-0.535248 9:0.923372 
-0 -0.2164669099484314 -0 -0 0 1:0.851613 2:0.0515873 3:-0.400438 4:0.65653 5:-0.136364 6:0.282609 7:0.580645 8:-0.54047 9:0.923372 
-0 -0.5 -0 -0 0 1:0.851613 2:0.031746 3:-0.391685 4:0.65653 5:-0.126263 6:0.231884 7:0.537634 8:-0.545692 9:0.885057 
-0 -0.5 -0 -0 0 1:0.851613 2:0.031746 3:-0.391685 4:0.65653 5:-0.136364 6:0.210145 7:0.537634 8:-0.545692 9:0.877395 
-0 -0.5 -0 -0 0 1:0.825806 2:0.031746 3:-0.391685 4:0.65653 5:-0.136364 6:0.202899 7:0.537634 8:-0.545692 9:0.877395 
-0 -0.5 -0 -0 0 1:0.825806 2:0.031746 3:-0.391685 4:0.65653 5:-0.136364 6:0.202899 7:0.537634 8:-0.545692 9:0.854406 
-0 -0.5 -0 -0 0 1:0.825806 2:0.0277778 3:-0.391685 4:0.652952 5:-0.136364 6:0.202899 7:0.537634 8:-0.545692 9:0.854406 
-0 -0.5 -0 -0 0 1:0.825806 2:0.031746 3:-0.387309 4:0.65653 5:-0.136364 6:0.210145 7:0.537634 8:-0.545692 9:0.854406 
-0 -0.5 -0 -0 0 1:0.851613 2:0.0357143 3:-0.378556 4:0.674419 5:-0.126263 6:0.253623 7:0.548387 8:-0.524804 9:0.885057 
-0 -0.5 -0 -0 0 1:0.851613 2:0.0436508 3:-0.382932 4:0.681574 5:-0.126263 6:0.26087 7:0.548387 8:-0.519582 9:0.877395 
-0 -0 -0 -0 0.2687414958003453 1:0.819355 2:0.269841 3:-0.21663 4:0.778175 5:-0.106061 6:0.246377 7:-0.376344 8:0.0391645 9:0.701149 
-0 -0 -0 -0.04791263854496352 0 1:0.845161 2:0.277778 3:-0.199125 4:0.846154 5:-0.0808081 6:0.253623 7:-0.397849 8:0.075718 9:0.716475 
-0 -0 -0.1702824844265155 -0 0.5 1:0.845161 2:0.285714 3:-0.199125 4:0.846154 5:-0.0808081 6:0.268116 7:-0.344086 8:0.0913838 9:0.731801 
-0 -0.003649775296011742 -0 -0 0 1:0.864516 2:-0.289683 3:-0.741794 4:0.924866 5:-0.459596 6:-0.311594 7:0.344086 8:-0.770235 9:0.954023 
-0 -0.5 -0 -0 0 1:0.870968 2:-0.289683 3:-0.737418 4:0.924866 5:-0.449495 6:-0.311594 7:0.365591 8:-0.738903 9:0.961686 
-0 -0.5 -0 -0 0 1:0.877419 2:-0.289683 3:-0.737418 4:0.928444 5:-0.439394 6:-0.304348 7:0.365591 8:-0.72846 9:0.961686 
-0 -0 -0 -0.02652348049862257 0 1:0.890323 2:-0.289683 3:-0.733042 4:0.924866 5:-0.434343 6:-0.311594 7:0.365591 8:-0.738903 9:0.984674 
-0 -0.5 -0 -0 0 1:0.877419 2:-0.293651 3:-0.715536 4:0.942755 5:-0.449495 6:-0.326087 7:0.365591 8:-0.712794 9:0.94636 
-0 -0.5 -0 -0 0 1:0.877419 2:-0.293651 3:-0.733042 4:0.949911 5:-0.444444 6:-0.311594 7:0.365591 8:-0.70235 9:0.954023 
-0 -0.5 -0 -0 0 1:0.903226 2:-0.269841 3:-0.698031 4:0.949911 5:-0.409091 6:-0.311594 7:0.408602 8:-0.686684 9:0.94636 
-0 -0.5 -0 -0 0 1:0.896774 2:-0.269841 3:-0.698031 4:0.949911 5:-0.424242 6:-0.311594 7:0.365591 8:-0.691906 9:0.931034 
-0 -0.5 -0 -0 0 1:0.922581 2:-0.297619 3:-0.706783 4:0.928444 5:-0.419192 6:-0.311594 7:0.376344 8:-0.718016 9:0.961686 
-0.3318500498063826 -0.5 -0.5 -0 0 1:0.187097 2:-0.194444 3:-0.40919 4:0.291592 5:-0.742424 6:0.391304 7:-0.0537634 8:-0.451697 9:0.471264 
-0.5 -0.5 -0.5 -0 0 1:0.187097 2:-0.194444 3:-0.40919 4:0.291592 5:-0.742424 6:0.384058 7:-0.0537634 8:-0.451697 9:0.471264 
-0 -0.1457817299387471 -0.04493964568600512 -0 0 1:0.219355 2:-0.190476 3:-0.404814 4:0.29517 5:-0.737374 6:0.391304 7:-0.0537634 8:-0.446475 9:0.48659 
-0 -0.5 -0 -0 0 1:0.232258 2:-0.178571 3:-0.396061 4:0.305903 5:-0.722222 6:0.391304 7:-0.0322581 8:-0.446475 9:0.509579 
-0 -0.5 -0 -0 0 1:0.587097 2:0.130952 3:-0.150985 4:0.63864 5:-0.257576 6:0.130435 7:-0.548387 8:-0.148825 9:0.670498 
-0 -0.5 -0 -0 0 1:0.587097 2:0.119048 3:-0.155361 4:0.63864 5:-0.257576 6:0.115942 7:-0.55914 8:-0.148825 9:0.64751 
-0 -0.5 -0 -0 0 1:0.587097 2:0.119048 3:-0.164114 4:0.63864 5:-0.257576 6:0.108696 7:-0.569892 8:-0.148825 9:0.632184 
-0 -0.5 -0 -0 0 1:0.587097 2:0.119048 3:-0.164114 4:0.63864 5:-0.257576 6:0.101449 7:-0.580645 8:-0.148825 9:0.624521 
-0 -0.5 -0 -0 0 1:0.587097 2:0.119048 3:-0.172867 4:0.63864 5:-0.257576 6:0.101449 7:-0.580645 8:-0.148825 9:0.624521 
-0 -0.1613704444603315 -0 -0 0 1:0.6 2:0.115079 3:-0.172867 4:0.617174 5:-0.247475 6:0.0942029 7:-0.537634 8:-0.143603 9:0.670498 
-0 -0.5 -0 -0 0 1:0.6 2:0.115079 3:-0.164114 4:0.617174 5:-0.247475 6:0.0942029 7:-0.526882 8:-0.143603 9:0.693487 
-0.5 -0.5 -0 -0 0 1:0.56129 2:0.0873016 3:-0.16849 4:0.563506 5:-0.272727 6:0.0869565 7:-0.483871 8:-0.169713 9:0.708812 
-0.5 -0.5 -0 -0 0 1:0.56129 2:0.0873016 3:-0.164114 4:0.563506 5:-0.272727 6:0.0869565 7:-0.462366 8:-0.169713 9:0.724138 
-0.5 -0.5 -0 -0 0 1:0.56129 2:0.0793651 3:-0.137856 4:0.534884 5:-0.277778 6:0.115942 7:-0.462366 8:-0.190601 9:0.770115 
-0 -0.5 -0 -0 0 1:0.574194 2:0.0912698 3:-0.137856 4:0.556351 5:-0.272727 6:0.130435 7:-0.462366 8:-0.174935 9:0.770115 
-0.2962308383578979 -0.5 -0 -0 0 1:0.574194 2:0.107143 3:-0.124726 4:0.556351 5:-0.267677 6:0.130435 7:-0.44086 8:-0.174935 9:0.785441 
-0 -0.5 -0 -0 0 1:0.574194 2:0.107143 3:-0.115974 4:0.567084 5:-0.262626 6:0.152174 7:-0.44086 8:-0.169713 9:0.785441 
-0 -0.5 -0 -0 0 1:0.587097 2:0.107143 3:-0.107221 4:0.57424 5:-0.262626 6:0.166667 7:-0.44086 8:-0.169713 9:0.785441 
-0 -0.5 -0 -0 0 1:0.574194 2:0.126984 3:-0.102845 4:0.570662 5:-0.262626 6:0.181159 7:-0.462366 8:-0.174935 9:0.793103 
-0 -0.5 -0 -0 0 1:0.574194 2:0.107143 3:-0.102845 4:0.570662 5:-0.267677 6:0.152174 7:-0.462366 8:-0.174935 9:0.793103 
-0 -0.5 -0 -0 0 1:0.574194 2:0.103175 3:-0.102845 4:0.567084 5:-0.272727 6:0.152174 7:-0.462366 8:-0.174935 9:0.793103 
-0 -0.5 -0 -0 0 1:0.567742 2:0.103175 3:-0.115974 4:0.567084 5:-0.282828 6:0.152174 7:-0.462366 8:-0.190601 9:0.793103 
-0 -0.5 -0 -0 0 1:0.567742 2:0.0952381 3:-0.115974 4:0.563506 5:-0.282828 6:0.152174 7:-0.462366 8:-0.190601 9:0.793103 
-0 -0.5 -0 -0 0 1:0.567742 2:0.0952381 3:-0.115974 4:0.563506 5:-0.282828 6:0.152174 7:-0.462366 8:-0.190601 9:0.793103 
-0 -0.5 -0 -0 0 1:0.567742 2:0.0952381 3:-0.102845 4:0.563506 5:-0.277778 6:0.152174 7:-0.462366 8:-0.190601 9:0.823755 
-0 -0.5 -0 -0 0 1:0.580645 2:0.107143 3:-0.0897155 4:0.570662 5:-0.272727 6:0.181159 7:-0.451613 8:-0.164491 9:0.823755 
-0 -0.5 -0 -0 0 1:0.612903 2:0.107143 3:-0.0897155 4:0.584973 5:-0.262626 6:0.181159 7:-0.44086 8:-0.159269 9:0.83908 
-0 -0.5 -0 -0 0 1:0.612903 2:0.130952 3:-0.0897155 4:0.602862 5:-0.257576 6:0.181159 7:-0.44086 8:-0.148825 9:0.83908 
-0 -0.5 -0 -0 0 1:0.619355 2:0.119048 3:-0.0765864 4:0.602862 5:-0.257576 6:0.181159 7:-0.419355 8:-0.143603 9:0.83908 
-0 -0.5 -0 -0 0 1:0.612903 2:0.119048 3:-0.0897155 4:0.602862 5:-0.257576 6:0.181159 7:-0.462366 8:-0.143603 9:0.793103 
-0 -0.5 -0 -0 0 1:0.793548 2:-0.369048 3:-0.776805 4:0.896243 5:-0.494949 6:-0.427536 7:0.193548 8:-0.780679 9:0.831418 
-0 -0.5 -0 -0 0 1:0.787097 2:-0.369048 3:-0.776805 4:0.878354 5:-0.494949 6:-0.449275 7:0.150538 8:-0.796345 9:0.785441 
-0 -0.5 -0 -0 0 1:0.787097 2:-0.369048 3:-0.763676 4:0.896243 5:-0.494949 6:-0.449275 7:0.172043 8:-0.791123 9:0.785441 
-0 -0.5 -0 -0 0 1:0.793548 2:-0.353175 3:-0.750547 4:0.906977 5:-0.484848 6:-0.427536 7:0.172043 8:-0.770235 9:0.785441 
-0 -0.5 -0 -0 0 1:0.793548 2:-0.353175 3:-0.750547 4:0.910555 5:-0.484848 6:-0.42029 7:0.172043 8:-0.765013 9:0.785441 
-0 -0.5 -0 -0 0 1:0.787097 2:-0.365079 3:-0.772429 4:0.896243 5:-0.484848 6:-0.427536 7:0.182796 8:-0.765013 9:0.793103 
-0 -0.5 -0 -0 0 1:0.748387 2:-0.384921 3:-0.781182 4:0.881932 5:-0.5 6:-0.536232 7:0.0537634 8:-0.744125 9:0.739464 
-0 -0.5 -0 -0 0 1:0.748387 2:-0.380952 3:-0.781182 4:0.881932 5:-0.5 6:-0.528986 7:0.0752688 8:-0.744125 9:0.739464 
-0.5 -0 -0 -0 0 1:0.658065 2:0.00793651 3:-0.203501 4:0.592129 5:-0.186869 6:0.166667 7:0.311828 8:-0.624021 9:0.678161 
-0.09331854546760657 -0.5 -0 -0 0 1:0.658065 2:-0.00396825 3:-0.203501 4:0.592129 5:-0.191919 6:0.166667 7:0.311828 8:-0.624021 9:0.678161 
-0.5 -0.5 -0 -0 0 1:0.658065 2:-0.00793651 3:-0.203501 4:0.592129 5:-0.191919 6:0.166667 7:0.311828 8:-0.629243 9:0.678161 
-0 -0.3240184851415822 -0 -0 0 1:0.651613 2:-0.00793651 3:-0.203501 4:0.592129 5:-0.19697 6:0.166667 7:0.27957 8:-0.629243 9:0.670498 
-0 -0.5 -0 -0 0 1:0.651613 2:-0.00793651 3:-0.203501 4:0.592129 5:-0.19697 6:0.166667 7:0.27957 8:-0.634465 9:0.670498 
-0 -0.5 -0 -0 0 1:0.580645 2:0.111111 3:0.00218818 4:0.595707 5:-0.252525 6:0.217391 7:-0.397849 8:-0.169713 9:0.808429 
-0 -0.5 -0 -0 0 1:0.580645 2:0.111111 3:0.00218818 4:0.595707 5:-0.252525 6:0.217391 7:-0.397849 8:-0.169713 9:0.808429 
-0 -0.5 -0 -0 0 1:0.580645 2:0.119048 3:0.0109409 4:0.613596 5:-0.242424 6:0.217391 7:-0.387097 8:-0.164491 9:0.816092 
-0 -0.5 -0 -0 0 1:0.587097 2:0.126984 3:0.0109409 4:0.613596 5:-0.237374 6:0.224638 7:-0.354839 8:-0.164491 9:0.823755 
-0 -0.5 -0 -0 0 1:0.587097 2:0.126984 3:0.0196937 4:0.617174 5:-0.237374 6:0.231884 7:-0.354839 8:-0.164491 9:0.831418 
-0 -0.5 -0 -0 0 1:0.6 2:0.126984 3:0.0196937 4:0.617174 5:-0.212121 6:0.253623 7:-0.344086 8:-0.164491 9:0.83908 
-0 -0.5 -0 -0 0 1:0.593548 2:0.126984 3:0.0196937 4:0.631485 5:-0.232323 6:0.268116 7:-0.354839 8:-0.159269 9:0.854406 
-0 -0.5 -0 -0 0 1:0.593548 2:0.119048 3:0.0196937 4:0.595707 5:-0.232323 6:0.23913 7:-0.354839 8:-0.180157 9:0.854406 
-0 -0.5 -0 -0 0 1:0.619355 2:0.103175 3:0.02407 4:0.581395 5:-0.19697 6:0.210145 7:-0.322581 8:-0.0861619 9:0.877395 
-0 -0.5 -0 -0 0 1:0.619355 2:0.103175 3:0.02407 4:0.581395 5:-0.19697 6:0.210145 7:-0.333333 8:-0.101828 9:0.869732 
-0 -0.4448113146560507 -0 -0 0 1:0.612903 2:0.103175 3:0.02407 4:0.581395 5:-0.19697 6:0.210145 7:-0.344086 8:-0.101828 9:0.846743 
-0 -0.5 -0 -0 0 1:0.619355 2:0.119048 3:0.0547046 4:0.599284 5:-0.191919 6:0.224638 7:-0.301075 8:-0.0861619 9:0.89272 
-0 -0.5 -0 -0 0 1:0.619355 2:0.107143 3:0.0547046 4:0.581395 5:-0.191919 6:0.224638 7:-0.301075 8:-0.10705 9:0.89272 
-0 -0 -0 -0.04187805713171446 0 1:0.793548 2:-0.452381 3:-0.842451 4:0.896243 5:-0.505051 6:-0.688406 8:-0.754569 9:0.601533 
-0 -0 -0 -0.0998869903884255 0 1:0.845161 2:-0.440476 3:-0.820569 4:0.91771 5:-0.459596 6:-0.65942 7:0.0322581 8:-0.733681 9:0.655172 
-0 -0.5 -0 -0 0 1:0.109677 2:-0.18254 3:-0.31291 4:0.305903 5:-0.767677 6:0.391304 7:-0.193548 8:-0.535248 9:0.409962 
-0 -0.5 -0 -0 0 1:0.0903226 2:-0.18254 3:-0.273523 4:0.302326 5:-0.767677 6:0.42029 7:-0.215054 8:-0.556136 9:0.386973 
-0 -0.5 -0 -0 0 1:0.0903226 2:-0.178571 3:-0.273523 4:0.305903 5:-0.767677 6:0.427536 7:-0.204301 8:-0.550914 9:0.394636 
-0 -0.5 -0 -0 0 1:0.129032 2:-0.18254 3:-0.26477 4:0.302326 5:-0.762626 6:0.42029 7:-0.193548 8:-0.556136 9:0.409962 
-0 -0.5 -0 -0 0 1:0.0645161 2:-0.18254 3:-0.26477 4:0.302326 5:-0.772727 6:0.42029 7:-0.215054 8:-0.556136 9:0.386973 
-0 -0.5 -0.5 -0 0 1:0.0774194 2:-0.206349 3:-0.286652 4:0.26297 5:-0.782828 6:0.398551 7:-0.258065 8:-0.56658 9:0.348659 
-0 -0.5 -0 -0 0 1:0.0774194 2:-0.202381 3:-0.282276 4:0.273703 5:-0.782828 6:0.413043 7:-0.236559 8:-0.56658 9:0.37931 
-0 -0.5 -0 -0 0 1:0.0774194 2:-0.198413 3:-0.277899 4:0.273703 5:-0.777778 6:0.42029 7:-0.236559 8:-0.56658 9:0.37931 
-0 -0.5 -0 -0 0 1:0.0774194 2:-0.194444 3:-0.277899 4:0.273703 5:-0.777778 6:0.42029 7:-0.225806 8:-0.56658 9:0.37931 
-0.5 -0.5 -0.1663384116971389 -0 0 1:0.0903226 2:-0.186508 3:-0.242888 4:0.277281 5:-0.737374 6:0.398551 7:-0.258065 8:-0.493473 9:0.356322 
-0.5 -0.5 -0 -0 0 1:0.0903226 2:-0.186508 3:-0.242888 4:0.277281 5:-0.737374 6:0.398551 7:-0.258065 8:-0.503916 9:0.356322 
-0 -0.1542069271678692 -0 -0 0 1:0.0903226 2:-0.18254 3:-0.234136 4:0.280859 5:-0.737374 6:0.405797 7:-0.258065 8:-0.493473 9:0.356322 
-0.5 -0 -0 -0 0 1:0.0903226 2:-0.178571 3:-0.234136 4:0.280859 5:-0.727273 6:0.405797 7:-0.258065 8:-0.488251 9:0.356322 
-0.5 -0 -0 -0.5 0.4607974106558756 1:0.0903226 2:-0.178571 3:-0.234136 4:0.284436 5:-0.717172 6:0.405797 7:-0.258065 8:-0.483029 9:0.356322 
-0 -0.5 -0 -0 0 1:0.103226 2:-0.178571 3:-0.229759 4:0.288014 5:-0.717172 6:0.405797 7:-0.258065 8:-0.477807 9:0.386973 
-0 -0 -0 -0 0.5 1:0.129032 2:-0.162698 3:-0.234136 4:0.29517 5:-0.707071 6:0.413043 7:-0.258065 8:-0.451697 9:0.363985 
-0.5 -0 -0 -0 0.5 1:0.103226 2:-0.178571 3:-0.234136 4:0.284436 5:-0.707071 6:0.413043 7:-0.258065 8:-0.483029 9:0.363985 
-0 -0 -0 -0 0.5 1:0.122581 2:-0.162698 3:-0.212254 4:0.288014 5:-0.707071 6:0.434783 7:-0.247312 8:-0.451697 9:0.371648 
-0 -0 -0 -0 0.5 1:0.103226 2:-0.162698 3:-0.225383 4:0.280859 5:-0.707071 6:0.456522 7:-0.215054 8:-0.493473 9:0.363985 
-0 -0 -0 -0.3940249644335189 0 1:0.0774194 2:-0.178571 3:-0.247265 4:0.277281 5:-0.722222 6:0.434783 7:-0.258065 8:-0.498695 9:0.363985 
-0 -0 -0 -0 0.5 1:0.658065 2:0.0357143 3:-0.177243 4:0.652952 5:-0.171717 6:0.115942 7:0.258065 8:-0.587467 9:0.578544 
-0 -0 -0 -0 0.5 1:0.658065 2:0.0357143 3:-0.177243 4:0.652952 5:-0.171717 6:0.115942 7:0.258065 8:-0.587467 9:0.578544 
-0 -0 -0 -0 0.5 1:0.651613 2:0.0357143 3:-0.177243 4:0.652952 5:-0.171717 6:0.115942 7:0.258065 8:-0.587467 9:0.578544 
-0 -0 -0 -0 0.5 1:0.658065 2:0.0436508 3:-0.159737 4:0.65653 5:-0.171717 6:0.123188 7:0.258065 8:-0.587467 9:0.578544 
-0 -0 -0 -0 0.5 1:0.658065 2:0.0515873 3:-0.142232 4:0.660107 5:-0.146465 6:0.144928 7:0.268817 8:-0.587467 9:0.609195 
-0 -0 -0 -0 0.5 1:0.658065 2:0.0595238 3:-0.12035 4:0.660107 5:-0.141414 6:0.181159 7:0.27957 8:-0.582245 9:0.616858 
-0 -0 -0 -0 0.5 1:0.658065 2:0.0714286 3:-0.107221 4:0.663685 5:-0.141414 6:0.217391 7:0.301075 8:-0.582245 9:0.624521 
-0 -0 -0 -0 0.5 1:0.658065 2:0.0714286 3:-0.107221 4:0.670841 5:-0.126263 6:0.253623 7:0.322581 8:-0.582245 9:0.632184 
-0 -0 -0 -0 0.5 1:0.658065 2:0.0714286 3:-0.107221 4:0.670841 5:-0.126263 6:0.253623 7:0.301075 8:-0.582245 9:0.632184 
-0 -0 -0 -0 0.5 1:0.658065 2:0.0714286 3:-0.107221 4:0.660107 5:-0.126263 6:0.246377 7:0.301075 8:-0.582245 9:0.632184 
-0 -0 -0 -0 0.5 1:0.664516 2:0.047619 3:-0.0415755 4:0.627907 5:-0.136364 6:0.231884 7:0.354839 8:-0.592689 9:0.708812 
-0 -0 -0 -0 0.5 1:0.664516 2:0.0515873 3:-0.0371991 4:0.635063 5:-0.131313 6:0.275362 7:0.354839 8:-0.587467 9:0.708812 
-0 -0 -0 -0 0.5 1:0.677419 2:0.0634921 3:-0.0371991 4:0.635063 5:-0.131313 6:0.275362 7:0.354839 8:-0.577023 9:0.731801 
-0 -0 -0 -0 0.5 1:0.690323 2:0.0753968 3:-0.0328228 4:0.63864 5:-0.126263 6:0.275362 7:0.354839 8:-0.577023 9:0.731801 
-0 -0 -0 -0 0.5 1:0.696774 2:0.0912698 3:-0.0328228 4:0.663685 5:-0.0959596 6:0.275362 7:0.376344 8:-0.571802 9:0.731801 
-0 -0 -0 -0 0.5 1:0.703226 2:0.0992063 3:-0.0328228 4:0.692308 5:-0.0959596 6:0.275362 7:0.354839 8:-0.545692 9:0.685824 
-0 -0 -0 -0 0.5 1:0.709677 2:0.0873016 3:-0.00656455 4:0.667263 5:-0.111111 6:0.275362 7:0.376344 8:-0.561358 9:0.716475 
-0 -0 -0 -0 0.5 1:0.709677 2:0.0793651 3:-0.00656455 4:0.667263 5:-0.111111 6:0.275362 7:0.376344 8:-0.561358 9:0.716475 
-0 -0 -0 -0 0.5 1:0.696774 2:0.0753968 3:-0.00656455 4:0.663685 5:-0.111111 6:0.275362 7:0.376344 8:-0.56658 9:0.716475 
-0 -0 -0 -0 0.5 1:0.696774 2:0.0674603 3:-0.00656455 4:0.649374 5:-0.121212 6:0.275362 7:0.376344 8:-0.577023 9:0.716475 
-0 -0 -0 -0 0.5 1:0.696774 2:0.0753968 3:-0.00218818 4:0.649374 5:-0.111111 6:0.297101 7:0.408602 8:-0.577023 9:0.762452 
-0 -0.5 -0 -0 0 1:0.696774 2:0.0595238 3:0.0328228 4:0.635063 5:-0.111111 6:0.34058 7:0.537634 8:-0.587467 9:0.846743 
-0 -0.5 -0 -0 0 1:0.696774 2:0.0595238 3:0.059081 4:0.635063 5:-0.111111 6:0.34058 7:0.55914 8:-0.587467 9:0.846743 
-0 -0.5 -0 -0 0 1:0.703226 2:0.0634921 3:0.0722101 4:0.635063 5:-0.106061 6:0.347826 7:0.591398 8:-0.587467 9:0.885057 
-0 -0.5 -0 -0 0 1:0.703226 2:0.0634921 3:0.0634573 4:0.63864 5:-0.106061 6:0.376812 7:0.55914 8:-0.587467 9:0.89272 
-0 -0.5 -0 -0 0 1:0.703226 2:0.0595238 3:0.0634573 4:0.635063 5:-0.106061 6:0.376812 7:0.55914 8:-0.587467 9:0.89272 
-0 -0.5 -0 -0 0 1:0.696774 2:0.0595238 3:0.0634573 4:0.635063 5:-0.111111 6:0.376812 7:0.55914 8:-0.587467 9:0.89272 
-0 -0.4482095857595043 -0 -0 0 1:0.696774 2:0.0595238 3:0.0634573 4:0.631485 5:-0.111111 6:0.376812 7:0.55914 8:-0.603133 9:0.89272 
-0 -0.5 -0 -0 0 1:0.741935 2:0.0753968 3:0.115974 4:0.652952 5:-0.0858586 6:0.413043 7:0.591398 8:-0.592689 9:0.938697 
-0 -0.5 -0 -0 0 1:0.767742 2:0.0793651 3:0.12035 4:0.670841 5:-0.0555556 6:0.434783 7:0.591398 8:-0.545692 9:0.938697 
-0 -0.5 -0.1425190897425347 -0 0.5 1:0.767742 2:0.0952381 3:0.12035 4:0.685152 5:-0.030303 6:0.434783 7:0.591398 8:-0.54047 9:0.938697 
-0 -0.5 -0.5 -0.372266522766087 0.5 1:0.780645 2:0.103175 3:0.124726 4:0.68873 5:-0.030303 6:0.449275 7:0.602151 8:-0.524804 9:0.954023 
-0 -0 -0.104577333908589 -0.2921061836904716 0 1:0.664516 2:0.22619 3:0.295405 4:0.667263 5:-0.0808081 6:0.434783 7:-0.258065 8:-0.0496084 9:0.83908 
-0 -0 -0 -0.5 0.5 1:0.63871 2:0.214286 3:0.295405 4:0.660107 5:-0.10101 6:0.384058 7:-0.258065 8:-0.0809399 9:0.777778 
-0 -0 -0 -0 0.4601001970374708 1:0.6 2:0.15873 3:0.234136 4:0.595707 5:-0.136364 6:0.384058 7:-0.247312 8:-0.0861619 9:0.800766 
-0 -0 -0 -0 0.5 1:0.6 2:0.162698 3:0.251641 4:0.595707 5:-0.131313 6:0.384058 7:-0.225806 8:-0.075718 9:0.800766 
-0 -0 -0 -0 0.5 1:0.6 2:0.166667 3:0.256018 4:0.60644 5:-0.131313 6:0.384058 7:-0.204301 8:-0.075718 9:0.808429 
-0 -0 -0 -0 0.5 1:0.6 2:0.166667 3:0.260394 4:0.610018 5:-0.131313 6:0.398551 7:-0.182796 8:-0.075718 9:0.808429 
-0 -0 -0 -0 0.5 1:0.612903 2:0.166667 3:0.256018 4:0.60644 5:-0.111111 6:0.384058 7:-0.182796 8:-0.075718 9:0.823755 
-0 -0 -0 -0 0.5 1:0.606452 2:0.166667 3:0.247265 4:0.60644 5:-0.136364 6:0.384058 7:-0.204301 8:-0.075718 9:0.800766 
-0 -0 -0 -0 0.5 1:0.606452 2:0.166667 3:0.247265 4:0.599284 5:-0.136364 6:0.384058 7:-0.204301 8:-0.075718 9:0.800766 
-0 -0 -0 -0 0.5 1:0.6 2:0.166667 3:0.247265 4:0.599284 5:-0.136364 6:0.384058 7:-0.215054 8:-0.075718 9:0.800766 
-0 -0 -0 -0 0.5 1:0.6 2:0.15873 3:0.247265 4:0.595707 5:-0.136364 6:0.384058 7:-0.215054 8:-0.0861619 9:0.800766 
-0 -0.5 -0 -0 0 1:0.787097 2:-0.349206 3:-0.684902 4:0.978533 5:-0.484848 6:-0.507246 7:-0.0322581 8:-0.660574 9:0.547893 
-0 -0.006705037438380149 -0 -0 0 1:0.787097 2:-0.345238 3:-0.684902 4:0.978533 5:-0.484848 6:-0.507246 7:-0.0215054 8:-0.655352 9:0.547893 
-0 -0.0496071958747676 -0 -0 0 1:0.8 2:-0.34127 3:-0.680525 4:0.989267 5:-0.474747 6:-0.5 7:0.0537634 8:-0.639687 9:0.609195 
-0 -0.5 -0 -0 0 1:0.63871 2:-0.424603 3:-0.820569 4:0.906977 5:-0.575758 6:-0.601449 7:0.0107527 8:-0.671018 9:0.547893 
-0 -0.5 -0 -0 0 1:0.619355 2:-0.452381 3:-0.842451 4:0.88551 5:-0.585859 6:-0.652174 7:-0.0107527 8:-0.681462 9:0.555556 
-0 -0.5 -0 -0 0 1:0.619355 2:-0.452381 3:-0.842451 4:0.88551 5:-0.585859 6:-0.652174 8:-0.681462 9:0.563218 
-0 -0.5 -0 -0 0 1:0.606452 2:-0.456349 3:-0.838074 4:0.874776 5:-0.59596 6:-0.673913 8:-0.686684 9:0.563218 
-0.1119087383337262 -0 -0 -0 0 1:0.606452 2:-0.452381 3:-0.85558 4:0.88551 5:-0.570707 6:-0.688406 8:-0.70235 9:0.524904 
-0 -0 -0.3255170918448754 -0 0 1:0.606452 2:-0.456349 3:-0.85558 4:0.88551 5:-0.59596 6:-0.717391 7:-0.0430108 8:-0.72846 9:0.509579 
-0 -0.5 -0 -0 0 1:0.619355 2:-0.452381 3:-0.816193 4:0.881932 5:-0.575758 6:-0.695652 7:-0.0967742 8:-0.754569 9:0.43295 
-0 -0.5 -0 -0 0 1:0.612903 2:-0.452381 3:-0.820569 4:0.881932 5:-0.580808 6:-0.695652 7:-0.107527 8:-0.754569 9:0.425287 
-0 -0.5 -0 -0 0 1:0.619355 2:-0.452381 3:-0.816193 4:0.881932 5:-0.575758 6:-0.695652 7:-0.0967742 8:-0.754569 9:0.43295 
-0 -0.5 -0 -0 0 1:0.619355 2:-0.452381 3:-0.816193 4:0.899821 5:-0.575758 6:-0.688406 7:-0.0860215 8:-0.738903 9:0.463602 
-0 -0.5 -0 -0 0 1:0.632258 2:-0.444444 3:-0.798687 4:0.899821 5:-0.575758 6:-0.688406 7:-0.0860215 8:-0.738903 9:0.463602 
-0 -0.5 -0 -0 0 1:0.632258 2:-0.444444 3:-0.798687 4:0.899821 5:-0.575758 6:-0.688406 7:-0.0860215 8:-0.738903 9:0.463602 
-0.5 -0.5 -0.5 -0 0 1:0.625806 2:-0.452381 3:-0.820569 4:0.846154 5:-0.616162 6:-0.724638 7:-0.0967742 8:-0.765013 9:0.448276 
-0.5 -0 -0.5 -0.5 0.4613763984542578 1:0.619355 2:-0.460317 3:-0.846827 4:0.846154 5:-0.621212 6:-0.724638 7:-0.0967742 8:-0.765013 9:0.425287 
-0 -0 -0.5 -0 -0 1:-0.458065 2:-0.357143 3:-0.522976 4:-0.695886 5:-0.434343 6:0.202899 7:0.0537634 8:0.0234987 9:-0.218391 
-0 -0 -0 -0.118687447097639 -0 1:-0.451613 2:-0.365079 3:-0.522976 4:-0.677996 5:-0.434343 6:0.202899 7:0.0537634 8:0.0287206 9:-0.226054 
-0 -0 -0 -0.5 -0 1:-0.387097 2:-0.361111 3:-0.50547 4:-0.649374 5:-0.439394 6:0.224638 7:0.0645161 8:0.0548303 9:-0.233716 
-0 -0 -0 -0.5 -0 1:-0.406452 2:-0.373016 3:-0.514223 4:-0.667263 5:-0.439394 6:0.202899 7:0.0322581 8:0.0339426 9:-0.272031 
-0 -0 -0 -0.5 -0 1:-0.406452 2:-0.373016 3:-0.514223 4:-0.670841 5:-0.449495 6:0.188406 7:0.0107527 8:0.0339426 9:-0.272031 
-0 -0 -0 -0.5 -0 1:-0.393548 2:-0.373016 3:-0.514223 4:-0.670841 5:-0.449495 6:0.188406 7:0.0107527 8:0.0339426 9:-0.256705 
-0 -0 -0.1250333143860779 -0 -0 1:-0.393548 2:-0.373016 3:-0.514223 4:-0.670841 5:-0.444444 6:0.188406 7:0.0322581 8:0.0391645 9:-0.226054 
-0 -0 -0.5 -0 -0 1:-0.419355 2:-0.384921 3:-0.522976 4:-0.681574 5:-0.459596 6:0.152174 7:0.0430108 8:0.0339426 9:-0.241379 
-0 -0 -0 -0.5 -0 1:0.76129 2:0.25 3:0.133479 4:0.495528 5:0.217172 6:0.652174 7:0.505376 8:-0.164491 9:0.532567 
-0 -0 -0 -0.4924590780326075 -0 1:0.774194 2:0.238095 3:0.142232 4:0.484794 5:0.20202 6:0.65942 7:0.494624 8:-0.164491 9:0.563218 
-0.408458631185292 -0.5 -0.5 -0 -0.5 1:0.470968 2:1 3:1 4:0.359571 5:1 6:0.992754 7:-0.870968 8:0.994778 9:-0.409962 
-0 -0.2236417407800454 -0.2176872989918101 -0 -0.301577227069073 1:0.393548 2:0.928571 3:0.982495 4:0.280859 5:0.934343 6:1 7:-0.860215 8:1 9:-0.417625 
-0.01952818514002419 -0 -0 -0 -0 1:0.329032 2:0.845238 3:0.934354 4:0.209302 5:0.858586 6:0.855072 7:-0.88172 8:0.953003 9:-0.494253 
-0 -0 -0 -0.5 -0 1:-0.0193548 2:-0.174603 3:0.0415755 4:-0.137746 5:-0.126263 6:-0.188406 7:-0.569892 8:-0.639687 9:0.0727969 
-0 -0 -0 -0.5 -0 1:-0.0193548 2:-0.174603 3:0.0284464 4:-0.137746 5:-0.126263 6:-0.195652 7:-0.569892 8:-0.639687 9:0.0574713 
-0 -0 -0 -0.5 -0 1:0.0322581 2:-0.174603 3:0.0328228 4:-0.123435 5:-0.126263 6:-0.195652 7:-0.569892 8:-0.629243 9:0.0727969 
-0 -0 -0 -0.5 -0 1:0.0322581 2:-0.174603 3:0.0328228 4:-0.137746 5:-0.136364 6:-0.217391 7:-0.580645 8:-0.629243 9:0.0574713 
-0 -0 -0 -0.1692587332656276 -0 2:-0.190476 3:0.0196937 4:-0.127013 5:-0.176768 6:-0.253623 7:-0.612903 8:-0.629243 9:0.0191571 
-0.5 -0 -0 -0 -0 1:0.174194 2:-0.206349 3:-0.0371991 4:-0.0912343 5:-0.171717 6:-0.253623 7:-0.387097 8:-0.603133 9:0.126437 
-0.5 -0 -0 -0 -0 1:0.129032 2:-0.218254 3:-0.0328228 4:-0.0876565 5:-0.19697 6:-0.297101 7:-0.387097 8:-0.618799 9:0.0957854 
-0 -0 -0 -0 -0.5 1:-0.4 2:-0.515873 3:-0.641138 4:-0.670841 5:-0.616162 6:-0.0362319 7:-0.0322581 8:-0.0809399 9:-0.241379 
-0 -0 -0 -0 -0.1809915854953796 1:-0.4 2:-0.515873 3:-0.641138 4:-0.670841 5:-0.616162 6:-0.0434783 7:-0.0322581 8:-0.0809399 9:-0.241379 
-0 -0 -0.5 -0 -0 1:-0.36129 2:-0.484127 3:-0.592998 4:-0.68873 5:-0.575758 6:-0.0217391 7:-0.0322581 8:-0.0391645 9:-0.172414 
-0 -0 -0.5 -0 -0 1:-0.367742 2:-0.484127 3:-0.597374 4:-0.68873 5:-0.575758 6:-0.0217391 7:-0.0322581 8:-0.0391645 9:-0.172414 
-0 -0 -0.5 -0 -0 1:-0.367742 2:-0.488095 3:-0.597374 4:-0.692308 5:-0.575758 6:-0.0217391 7:-0.0322581 8:-0.0391645 9:-0.172414 
-0 -0 -0.5 -0 -0 1:-0.36129 2:-0.484127 3:-0.597374 4:-0.652952 5:-0.570707 7:-0.0107527 8:-0.0130548 9:-0.157088 
-0 -0 -0.5 -0 -0 1:-0.348387 2:-0.484127 3:-0.592998 4:-0.652952 5:-0.555556 6:0.0144928 8:-0.0130548 9:-0.149425 
-0 -0 -0.5 -0 -0 1:-0.36129 2:-0.468254 3:-0.588621 4:-0.642218 5:-0.570707 7:-0.0107527 8:-0.0234987 9:-0.157088 
-0 -0 -0.5 -0 -0 1:-0.36129 2:-0.484127 3:-0.588621 4:-0.65653 5:-0.590909 6:-0.0217391 7:-0.0107527 8:-0.0234987 9:-0.172414 
-0 -0.5 -0 -0 -0.5 1:0.767742 2:0.115079 3:0.0503282 4:0.663685 5:0.0808081 6:0.456522 7:0.27957 8:-0.284595 9:0.524904 
-0 -0.5 -0 -0 -0.5 1:0.793548 2:0.115079 3:0.0765864 4:0.670841 5:0.0959596 6:0.463768 7:0.301075 8:-0.289817 9:0.547893 
-0 -0 -0 -0 -0.5 1:0.76129 2:0.115079 3:0.0765864 4:0.670841 5:0.0707071 6:0.463768 7:0.258065 8:-0.289817 9:0.494253 
-0 -0 -0 -0 -0.5 1:0.76129 2:0.0873016 3:0.0765864 4:0.670841 5:0.0454545 6:0.463768 7:0.258065 8:-0.289817 9:0.494253 
-0 -0 -0 -0 -0.5 1:0.76129 2:0.0436508 3:0.0765864 4:0.670841 5:0.020202 6:0.463768 7:0.193548 8:-0.289817 9:0.494253 
-0 -0 -0 -0 -0.5 1:0.76129 2:0.0119048 3:0.0765864 4:0.670841 5:0.020202 6:0.456522 7:0.193548 8:-0.300261 9:0.478927 
-0 -0 -0 -0 -0.5 1:0.76129 2:0.0396825 3:0.0765864 4:0.670841 5:0.0353535 6:0.456522 7:0.204301 8:-0.300261 9:0.478927 
-0 -0 -0 -0 -0.5 1:0.76129 2:0.0396825 3:0.0765864 4:0.677996 5:0.0454545 6:0.456522 7:0.247312 8:-0.300261 9:0.494253 
-0 -0 -0 -0 -0.1033821698199476 1:0.774194 2:0.0396825 3:0.0765864 4:0.68873 5:0.0454545 6:0.463768 7:0.247312 8:-0.289817 9:0.494253 
-0 -0 -0 -0 -0.5 1:0.774194 2:0.0396825 3:0.0765864 4:0.68873 5:0.0454545 6:0.463768 7:0.247312 8:-0.289817 9:0.494253 
-0 -0 -0 -0 -0.5 1:0.774194 2:0.0238095 3:0.0503282 4:0.677996 5:0.0353535 6:0.456522 7:0.225806 8:-0.295039 9:0.494253 
-0 -0.08508511016334579 -0 -0 -0.5 1:0.76129 2:0.015873 3:0.0503282 4:0.677996 5:0.030303 6:0.449275 7:0.215054 8:-0.300261 9:0.494253 
-0 -0 -0 -0 -0.5 1:0.729032 2:0.015873 3:0.0503282 4:0.65653 5:0.0252525 6:0.442029 7:0.225806 8:-0.310705 9:0.478927 
-0 -0 -0 -0 -0.5 1:0.754839 2:0.0198413 3:0.0503282 4:0.660107 5:0.0252525 6:0.442029 7:0.236559 8:-0.310705 9:0.478927 
-0 -0 -0 -0 -0.5 1:0.76129 2:0.0198413 3:0.0503282 4:0.670841 5:0.030303 6:0.442029 7:0.247312 8:-0.310705 9:0.48659 
-0 -0 -0 -0 -0.5 1:0.754839 2:0.0238095 3:0.0459519 4:0.660107 5:0.030303 6:0.449275 7:0.258065 8:-0.305483 9:0.494253 
-0 -0 -0 -0 -0.5 1:0.754839 2:0.0238095 3:0.0459519 4:0.649374 5:0.030303 6:0.449275 7:0.258065 8:-0.315927 9:0.494253 
-0.3228340950478816 -0 -0.174121895173571 -0 -0 1:0.135484 2:-0.246032 3:-0.107221 4:-0.119857 5:-0.217172 6:-0.405797 7:-0.397849 8:-0.655352 9:0.0574713 
-0.5 -0 -0 -0 -0 1:0.135484 2:-0.242063 3:-0.107221 4:-0.105546 5:-0.217172 6:-0.398551 7:-0.397849 8:-0.655352 9:0.0574713 
-0.5 -0 -0 -0 -0 1:0.135484 2:-0.234127 3:-0.107221 4:-0.0876565 5:-0.217172 6:-0.384058 7:-0.397849 8:-0.634465 9:0.0574713 
-0 -0 -0.5 -0 -0 1:0.116129 2:-0.261905 3:-0.115974 4:-0.116279 5:-0.222222 6:-0.471014 7:-0.419355 8:-0.67624 9:0.0498084 
-0.5 -0 -0 -0 -0 1:0.0774194 2:-0.25 3:-0.115974 4:-0.141324 5:-0.222222 6:-0.405797 7:-0.44086 8:-0.686684 9:0.0574713 
-0.5 -0 -0.5 -0 -0 1:0.103226 2:-0.265873 3:-0.133479 4:-0.141324 5:-0.222222 6:-0.456522 7:-0.44086 8:-0.686684 9:0.0574713 
-0.5 -0 -0 -0 -0 1:0.103226 2:-0.25 3:-0.133479 4:-0.141324 5:-0.222222 6:-0.442029 7:-0.44086 8:-0.681462 9:0.0574713 
-0.5 -0 -0.5 -0 -0 1:0.109677 2:-0.246032 3:-0.12035 4:-0.119857 5:-0.20202 6:-0.456522 7:-0.397849 8:-0.686684 9:0.0651341 
-0.06264401856124338 -0 -0 -0 -0 1:0.135484 2:-0.253968 3:-0.185996 4:-0.109123 5:-0.19697 6:-0.485507 7:-0.462366 8:-0.681462 9:0.0344828 
-0 -0 -0.5 -0 -0 1:-0.329032 2:-0.488095 3:-0.575492 4:-0.660107 5:-0.555556 7:0.0645161 8:0.0182768 9:-0.164751 
-0 -0 -0.5 -0 -0 1:-0.322581 2:-0.492063 3:-0.575492 4:-0.65653 5:-0.555556 7:0.0752688 8:0.00261097 9:-0.157088 
-0 -0 -0.5 -0 -0 1:-0.322581 2:-0.492063 3:-0.575492 4:-0.65653 5:-0.560606 7:0.0537634 8:0.00261097 9:-0.164751 
-0 -0 -0.5 -0 -0 1:-0.322581 2:-0.496032 3:-0.575492 4:-0.65653 5:-0.560606 7:0.0537634 8:-0.00261097 9:-0.164751 
-0 -0 -0.5 -0 -0 1:-0.303226 2:-0.496032 3:-0.575492 4:-0.642218 5:-0.560606 7:0.0537634 8:-0.0130548 9:-0.149425 
-0 -0 -0.5 -0 -0 1:-0.303226 2:-0.496032 3:-0.575492 4:-0.642218 5:-0.560606 7:0.0537634 8:-0.0130548 9:-0.149425 
-0 -0 -0.5 -0 -0 1:-0.341935 2:-0.519841 3:-0.610503 4:-0.667263 5:-0.575758 6:-0.00724638 7:0.0537634 8:-0.0391645 9:-0.1341 
-0 -0 -0.5 -0 -0 1:-0.341935 2:-0.519841 3:-0.61488 4:-0.667263 5:-0.575758 6:-0.0144928 7:0.0430108 8:-0.0391645 9:-0.149425 
-0 -0 -0.5 -0 -0 1:-0.341935 2:-0.52381 3:-0.61488 4:-0.667263 5:-0.575758 6:-0.0144928 7:0.0430108 8:-0.0391645 9:-0.149425 
-0.5 -0 -0.5 -0 -0 1:-0.296774 2:-0.515873 3:-0.61488 4:-0.620751 5:-0.555556 6:-0.0144928 7:0.0322581 8:-0.0234987 9:-0.1341 
-0 -0 -0.5 -0 -0 1:-0.296774 2:-0.519841 3:-0.61488 4:-0.631485 5:-0.555556 6:-0.0144928 7:0.0322581 8:-0.0234987 9:-0.1341 
-0 -0 -0.5 -0 -0 1:-0.296774 2:-0.519841 3:-0.623632 4:-0.631485 5:-0.555556 6:-0.0144928 7:0.0322581 8:-0.0234987 9:-0.141762 
-0.5 -0 -0.5 -0 -0 1:-0.290323 2:-0.515873 3:-0.61488 4:-0.624329 5:-0.550505 6:-0.0217391 7:0.0322581 8:-0.0182768 9:-0.1341 
-0.5 -0 -0.5 -0 -0 1:-0.290323 2:-0.511905 3:-0.61488 4:-0.624329 5:-0.550505 6:-0.0217391 7:0.0537634 8:-0.0182768 9:-0.118774 
-0.5 -0 -0.5 -0 -0 1:-0.335484 2:-0.503968 3:-0.606127 4:-0.65653 5:-0.555556 6:-0.0217391 7:0.0322581 8:-0.0182768 9:-0.1341 
-0 -0 -0.5 -0 -0 1:-0.348387 2:-0.503968 3:-0.606127 4:-0.670841 5:-0.565657 6:-0.0217391 7:0.0322581 8:-0.0234987 9:-0.141762 
-0 -0 -0.5 -0 -0 1:-0.335484 2:-0.503968 3:-0.606127 4:-0.670841 5:-0.565657 6:-0.0289855 7:0.0322581 8:-0.0182768 9:-0.1341 
-0 -0 -0.5 -0 -0 1:-0.335484 2:-0.515873 3:-0.606127 4:-0.667263 5:-0.570707 6:-0.0217391 7:0.0322581 8:-0.0182768 9:-0.141762 
-0 -0 -0.5 -0 -0 1:-0.316129 2:-0.511905 3:-0.597374 4:-0.663685 5:-0.575758 6:-0.0217391 7:0.0645161 8:-0.0339426 9:-0.1341 
-0 -0 -0.5 -0 -0 1:-0.316129 2:-0.507937 3:-0.597374 4:-0.649374 5:-0.570707 6:-0.0217391 7:0.0752688 8:-0.0287206 9:-0.1341 
-0 -0 -0.5 -0 -0 1:-0.316129 2:-0.507937 3:-0.597374 4:-0.649374 5:-0.560606 6:-0.0217391 7:0.0752688 8:-0.0287206 9:-0.1341 
-0 -0 -0.5 -0 -0 1:-0.309677 2:-0.492063 3:-0.597374 4:-0.645796 5:-0.560606 6:-0.0144928 7:0.0860215 8:-0.0234987 9:-0.1341 
-0.1791122396730861 -0 -0.5 -0 -0 1:-0.303226 2:-0.507937 3:-0.592998 4:-0.649374 5:-0.555556 6:-0.0217391 7:0.11828 8:-0.0234987 9:-0.118774 
-0 -0 -0.5 -0 -0 1:-0.316129 2:-0.515873 3:-0.601751 4:-0.670841 5:-0.570707 6:-0.0217391 7:0.0752688 8:-0.0287206 9:-0.141762 
-0 -0 -0.5 -0 -0 1:-0.316129 2:-0.519841 3:-0.632385 4:-0.670841 5:-0.575758 6:-0.0362319 7:0.0645161 8:-0.0339426 9:-0.157088 
-0 -0 -0.5 -0 -0 1:-0.316129 2:-0.519841 3:-0.632385 4:-0.670841 5:-0.575758 6:-0.0362319 7:0.0645161 8:-0.0443864 9:-0.157088 
-0 -0 -0.5 -0 -0 1:-0.316129 2:-0.519841 3:-0.632385 4:-0.670841 5:-0.585859 6:-0.0362319 7:0.0645161 8:-0.0496084 9:-0.157088 
-0 -0 -0.5 -0 -0 1:-0.316129 2:-0.519841 3:-0.61488 4:-0.670841 5:-0.585859 6:-0.0362319 7:0.0645161 8:-0.0496084 9:-0.157088 
-0.5 -0.5 -0.5 -0 -0 1:-0.341935 2:-0.531746 3:-0.610503 4:-0.677996 5:-0.60101 6:-0.0434783 7:0.0752688 8:-0.0704961 9:-0.118774 
-0.5 -0.3418725792379155 -0.5 -0 -0 1:-0.341935 2:-0.519841 3:-0.610503 4:-0.677996 5:-0.60101 6:-0.0362319 7:0.0860215 8:-0.0652742 9:-0.118774 
-0.5 -0.4983960152343452 -0.5 -0 -0 1:-0.341935 2:-0.519841 3:-0.610503 4:-0.677996 5:-0.60101 6:-0.0362319 7:0.0860215 8:-0.0652742 9:-0.118774 
-0.5 -0 -0.5 -0 -0 1:-0.329032 2:-0.519841 3:-0.610503 4:-0.677996 5:-0.585859 6:-0.0362319 7:0.0860215 8:-0.0652742 9:-0.118774 
-0.5 -0 -0.5 -0 -0 1:-0.329032 2:-0.515873 3:-0.610503 4:-0.674419 5:-0.585859 6:-0.0362319 7:0.0860215 8:-0.0652742 9:-0.118774 
-0.5 -0 -0.5 -0 -0 1:-0.329032 2:-0.519841 3:-0.61488 4:-0.677996 5:-0.585859 6:-0.0217391 7:0.0645161 8:-0.0652742 9:-0.118774 
-0 -0 -0.5 -0 -0 1:-0.348387 2:-0.527778 3:-0.623632 4:-0.677996 5:-0.585859 6:-0.0217391 7:0.0645161 8:-0.0652742 9:-0.126437 
-0.1498127082869734 -0 -0.5 -0 -0 1:-0.329032 2:-0.535714 3:-0.623632 4:-0.681574 5:-0.580808 6:-0.0289855 7:0.0860215 8:-0.0600522 9:-0.118774 
-0 -0 -0.5 -0 -0 1:0.63871 2:-0.0357143 3:0.0459519 4:0.423971 5:-0.0252525 6:0.275362 7:0.290323 8:-0.305483 9:0.501916 
-0 -0 -0.5 -0.07022001073678966 -0 1:0.63871 2:-0.0396825 3:0.0459519 4:0.423971 5:-0.0252525 6:0.275362 7:0.290323 8:-0.305483 9:0.501916 
-0 -0 -0.3998723645042675 -0 -0 1:0.63871 2:-0.0396825 3:0.0459519 4:0.423971 5:-0.0252525 6:0.275362 7:0.27957 8:-0.305483 9:0.501916 
-0 -0.5 -0 -0 -0 1:0.63871 2:-0.0396825 3:0.0459519 4:0.456172 5:-0.0252525 6:0.282609 7:0.268817 8:-0.305483 9:0.501916 
-0 -0.5 -0 -0 -0 1:0.63871 2:-0.0436508 3:0.0459519 4:0.456172 5:-0.030303 6:0.275362 7:0.225806 8:-0.305483 9:0.501916 
-0 -0.5 -0 -0 -0.5 1:0.63871 2:-0.0436508 3:0.0371991 4:0.456172 5:-0.030303 6:0.275362 7:0.225806 8:-0.310705 9:0.501916 
-0 -0.5 -0 -0 -0 1:0.645161 2:-0.0357143 3:0.0459519 4:0.456172 5:-0.0252525 6:0.275362 7:0.236559 8:-0.305483 9:0.501916 
-0 -0.5 -0 -0 -0 1:0.645161 2:-0.0357143 3:0.0459519 4:0.456172 5:-0.0252525 6:0.275362 7:0.236559 8:-0.305483 9:0.501916 
-0 -0.5 -0 -0 -0 1:0.645161 2:-0.031746 3:0.0459519 4:0.456172 5:-0.0252525 6:0.282609 7:0.258065 8:-0.315927 9:0.501916 
-0 -0 -0 -0 -0.5 1:0.619355 2:-0.0396825 3:0.0415755 4:0.438283 5:-0.0353535 6:0.275362 7:0.225806 8:-0.321149 9:0.494253 
-0 -0 -0 -0 -0.5 1:0.625806 2:-0.0396825 3:0.0415755 4:0.449016 5:-0.0353535 6:0.275362 7:0.215054 8:-0.321149 9:0.494253 
-0 -0.5 -0 -0 -0.5 1:0.632258 2:-0.0396825 3:0.0415755 4:0.449016 5:-0.030303 6:0.275362 7:0.225806 8:-0.321149 9:0.501916 
-0 -0 -0 -0 -0.5 1:0.632258 2:-0.0396825 3:0.0415755 4:0.449016 5:-0.030303 6:0.282609 7:0.225806 8:-0.321149 9:0.501916 
-0 -0 -0 -0 -0.5 1:0.632258 2:-0.0396825 3:0.0415755 4:0.449016 5:-0.030303 6:0.282609 7:0.236559 8:-0.321149 9:0.501916 
-0 -0 -0.5 -0 -0.5 1:0.606452 2:-0.0515873 3:0.02407 4:0.388193 5:-0.0858586 6:0.246377 7:0.193548 8:-0.336815 9:0.463602 
-0 -0 -0.5 -0 -0 1:0.612903 2:-0.0515873 3:0.02407 4:0.388193 5:-0.0858586 6:0.253623 7:0.193548 8:-0.331593 9:0.463602 
-0 -0 -0.3359416765485633 -0 -0.5 1:0.606452 2:-0.0515873 3:0.0284464 4:0.388193 5:-0.0808081 6:0.246377 7:0.193548 8:-0.336815 9:0.471264 
-0.5 -0 -0 -0 -0.5 1:0.6 2:-0.0555556 3:0.00656455 4:0.388193 5:-0.0909091 6:0.224638 7:0.150538 8:-0.336815 9:0.440613 
-0.5 -0 -0 -0 -0.5 1:0.6 2:-0.0595238 3:0.00656455 4:0.388193 5:-0.0909091 6:0.224638 7:0.139785 8:-0.336815 9:0.440613 
-0.4281153486836508 -0.2460805384966246 -0 -0 -0.5 1:0.6 2:-0.0555556 3:0.00656455 4:0.406082 5:-0.0909091 6:0.224638 7:0.150538 8:-0.336815 9:0.440613 
-0 -0 -0 -0 -0.5 1:0.6 2:-0.0555556 3:0.00656455 4:0.406082 5:-0.0858586 6:0.224638 7:0.150538 8:-0.336815 9:0.440613 
-0 -0 -0 -0 -0.5 1:0.606452 2:-0.0555556 3:0.00656455 4:0.413238 5:-0.0858586 6:0.224638 7:0.150538 8:-0.336815 9:0.440613 
-0 -0 -0 -0 -0.5 1:0.606452 2:-0.0555556 3:0.00656455 4:0.413238 5:-0.0858586 6:0.224638 7:0.150538 8:-0.336815 9:0.440613 
-0 -0 -0 -0 -0.5 1:0.6 2:-0.0555556 3:0.0153173 4:0.402504 5:-0.0808081 6:0.217391 7:0.150538 8:-0.336815 9:0.440613 
-0.5 -0 -0 -0 -0.5 1:0.6 2:-0.0674603 3:-0.00656455 4:0.402504 5:-0.0858586 6:0.217391 7:0.129032 8:-0.336815 9:0.43295 
-0.5 -0.5 -0 -0 -0.5 1:0.6 2:-0.0714286 3:-0.00656455 4:0.402504 5:-0.0858586 6:0.210145 7:0.129032 8:-0.336815 9:0.43295 
-0.5 -0 -0 -0 -0 1:0.6 2:-0.0714286 3:-0.0109409 4:0.402504 5:-0.0858586 6:0.210145 7:0.129032 8:-0.336815 9:0.425287 
-0.5 -0 -0 -0 -0 1:0.6 2:-0.0714286 3:-0.0109409 4:0.402504 5:-0.0858586 6:0.210145 7:0.11828 8:-0.336815 9:0.425287 
-0.5 -0 -0 -0 -0.1357584019889713 1:0.6 2:-0.0674603 3:-0.0109409 4:0.40966 5:-0.0808081 6:0.210145 7:0.11828 8:-0.336815 9:0.425287 
-0 -0.5 -0 -0 -0.5 1:0.606452 2:-0.0674603 3:-0.0109409 4:0.423971 5:-0.0707071 6:0.217391 7:0.129032 8:-0.336815 9:0.43295 
-0 -0 -0 -0 -0.1634153310661463 1:0.367742 2:0.40873 3:0.772429 4:0.241503 5:0.464646 6:0.456522 7:-1 8:0.54047 9:-0.532567 
-0 -0.179986989586488 -0 -0 -0 1:0.367742 2:0.373016 3:0.772429 4:0.234347 5:0.464646 6:0.434783 7:-1 8:0.535248 9:-0.532567 
-0 -0 -0.5 -0 -0 1:0.335484 2:0.373016 3:0.763676 4:0.166369 5:0.409091 6:0.405797 7:-0.827957 8:0.550914 9:-0.425287 
-0 -0 -0.5 -0 -0 1:0.335484 2:0.373016 3:0.763676 4:0.166369 5:0.40404 6:0.405797 7:-0.827957 8:0.535248 9:-0.425287 
-0 -0 -0 -0.5 -0 1:0.335484 2:0.388889 3:0.763676 4:0.166369 5:0.409091 6:0.42029 7:-0.774194 8:0.550914 9:-0.425287 
-0 -0 -0.1922301664686783 -0.5 -0 1:0.335484 2:0.388889 3:0.763676 4:0.166369 5:0.409091 6:0.42029 7:-0.763441 8:0.550914 9:-0.425287 
-0 -0 -0 -0.5 -0 1:0.335484 2:0.392857 3:0.763676 4:0.166369 5:0.409091 6:0.42029 7:-0.752688 8:0.550914 9:-0.425287 
-0 -0 -0 -0.2245376802584563 -0 1:0.387097 2:0.412698 3:0.794311 4:0.177102 5:0.449495 6:0.485507 7:-0.666667 8:0.561358 9:-0.371648 
-0 -0 -0 -0.5 -0 1:0.374194 2:0.404762 3:0.785558 4:0.169946 5:0.449495 6:0.478261 7:-0.666667 8:0.561358 9:-0.371648 
-0.5 -0 -0 -0 -0 1:0.122581 2:-0.289683 3:-0.203501 4:-0.13059 5:-0.227273 6:-0.550725 7:-0.526882 8:-0.718016 9:0.0498084 
-0.5 -0 -0 -0 -0 1:0.116129 2:-0.289683 3:-0.212254 4:-0.13059 5:-0.232323 6:-0.550725 7:-0.548387 8:-0.718016 9:0.0421456 
-0.5 -0.01405947116203211 -0.2916967409309489 -0 -0 1:0.129032 2:-0.289683 3:-0.194748 4:-0.109123 5:-0.227273 6:-0.550725 7:-0.516129 8:-0.718016 9:0.0651341 
-0.5 -0 -0 -0 -0 1:0.129032 2:-0.289683 3:-0.194748 4:-0.109123 5:-0.227273 6:-0.543478 7:-0.516129 8:-0.712794 9:0.0651341 
-0 -0.1799747299384624 -0 -0 -0 1:0.148387 2:-0.313492 3:-0.16849 4:-0.101968 5:-0.252525 6:-0.543478 7:-0.591398 8:-0.759791 9:0.0727969 
-0.5 -0.5 -0 -0 -0.2658907865084318 1:0.0387097 2:-0.333333 3:-0.238512 4:-0.18068 5:-0.363636 6:-0.565217 7:-0.666667 8:-0.83812 9:0.0421456 
-0.5 -0.5 -0 -0 -0 1:0.0387097 2:-0.345238 3:-0.242888 4:-0.18068 5:-0.368687 6:-0.594203 7:-0.688172 8:-0.83812 9:0.0344828 
-0 -0.5 -0 -0 -0.5 1:0.0516129 2:-0.357143 3:-0.256018 4:-0.109123 5:-0.368687 6:-0.594203 7:-0.731183 8:-0.848564 9:-0.0268199 
-0 -0.5 -0 -0 -0.5 1:0.0709677 2:-0.357143 3:-0.256018 4:-0.101968 5:-0.368687 6:-0.586957 7:-0.731183 8:-0.848564 9:-0.0268199 
-0 -0 -0.001319424246968068 -0 -0 1:-0.0516129 2:-0.369048 3:-0.260394 4:-0.266547 5:-0.424242 6:-0.702899 7:-0.784946 8:-0.874674 9:-0.0727969 
-0 -0 -0.5 -0 -0 1:-0.0451613 2:-0.361111 3:-0.256018 4:-0.26297 5:-0.388889 6:-0.681159 7:-0.731183 8:-0.848564 9:-0.0574713 
