svm_type c_svc
kernel_type rbf
gamma 0.5
nr_class 5
total_sv 220
rho 0.353696 0.41751 0.193931 0.460213 0.249391 1.56606 0.598583 0.221872 -0.758154 -0.233425
label 1 3 6 8 9
nr_sv 28 55 47 37 53
SV
0 0 0 9.970048689557215 1:-0.510689 2:-0.142551 3:0.0951456 4:-0.378035 5:0.383915 6:-0.430303 7:-0.0386266 8:-0.00179533 9:-0.569989 
0 8.865721252838629 0 0 1:-0.539192 2:-0.140407 3:0.0291262 4:-0.39422 5:0.326252 6:-0.444848 7:-0.0987124 8:-0.00179533 9:-0.576708 
0 0 0 0.5105534639429095 1:-0.220903 2:-0.363344 3:0.386408 4:0.412717 5:0.487102 6:-0.381818 7:-0.553648 8:-0.274686 9:-0.106383 
1.14271815705431 0 3.028528942634329 5.158610033564019 1:-0.220903 2:-0.339764 3:0.394175 4:0.412717 5:0.502276 6:-0.355152 7:-0.553648 8:-0.267504 9:-0.0772676 
5.624069912355946 0 0 0 1:-0.244656 2:-0.339764 3:0.394175 4:0.396532 5:0.487102 6:-0.369697 7:-0.579399 8:-0.274686 9:-0.0907055 
0 0 0 0.675531729467266 1:0.0213777 2:-0.230439 3:0.759223 4:0.491329 5:0.984825 6:-0.0351515 7:-0.0987124 8:-0.40754 9:0.3729 
0 0 0 2.283612522175313 1:0.0308789 2:-0.226152 3:0.763107 4:0.45896 5:0.990895 6:-0.0327273 7:-0.0214592 8:-0.382406 9:0.381859 
0 0 0.3156755168702439 0 1:0.0213777 2:-0.196141 3:0.770874 4:0.456647 5:1 6:-0.0206061 7:-0.0128755 8:-0.368043 9:0.395297 
0 0 0 2.196625765365863 1:-0.182898 2:-0.191854 3:0.708738 4:0.116763 5:0.766313 6:-0.144242 7:-0.167382 8:-0.411131 9:0.260918 
0 0 0 4.127973937111229 1:-0.852732 2:-0.326902 3:0.666019 4:-0.546821 5:0.168437 6:-0.29697 7:-0.536481 8:-0.924596 9:-0.00111982 
0 7.640862078599264 0 0.8097399274767999 1:-0.847981 2:-0.30761 3:0.669903 4:-0.544509 5:0.177542 6:-0.284848 7:-0.51073 8:-0.885099 9:0.0055991 
0 0 0 3.747686911550389 1:-0.553444 2:0.0675241 3:0.0330097 4:-0.449711 5:0.235205 6:-0.396364 7:-0.0128755 8:0.235189 9:-0.632699 
0 0 0 11.57604942603504 1:-0.558195 2:0.178992 3:0.0601942 4:-0.516763 5:0.210926 6:-0.292121 7:0.0472103 8:0.274686 9:-0.601344 
0 0 0 10.72738907743994 1:-0.591449 2:0.262594 3:-0.0640777 4:-0.542197 5:0.116844 6:-0.328485 7:-0.0300429 8:0.317774 9:-0.690929 
2.559809919037844 6.576961986512821 3.273789458737232 0 1:-0.605701 2:0.26045 3:-0.0796117 4:-0.53526 5:0.107739 6:-0.330909 7:-0.0643777 8:0.328546 9:-0.697648 
0 3.602510456735626 0 0 1:-0.634204 2:0.144695 3:0.0174757 4:-0.523699 5:0.198786 6:-0.393939 7:-0.11588 8:0.228007 9:-0.612542 
0 0 0.5060602680477084 0 1:-0.368171 2:-0.0546624 3:0.502913 4:0.0358382 5:0.647951 6:-0.175758 7:-0.287554 8:-0.0951526 9:0.525196 
2.700464329771793 8.153095743930665 0.6268783250373579 0 1:-0.382423 2:-0.0418006 3:0.467961 4:0.0358382 5:0.644917 6:-0.185455 7:-0.287554 8:-0.105925 9:0.50056 
0 0 0 2.729365140058611 1:-0.344418 2:-0.144695 3:0.413592 4:-0.158382 5:-0.268589 6:-0.372121 7:0.330472 8:-0.0448833 9:-0.31243 
0 1.502571879821304 0 0 1:-0.344418 2:-0.142551 3:0.394175 4:-0.163006 5:-0.283763 6:-0.369697 7:0.347639 8:-0.048474 9:-0.316909 
1.614041255252874 0.8244265562084562 1.682031744628834 0 1:-0.349169 2:-0.142551 3:0.394175 4:-0.16763 5:-0.289833 6:-0.37697 7:0.321888 8:-0.048474 9:-0.316909 
0 3.244685164688627 0 0.6537795328441882 1:0.0261283 2:-0.864952 3:0.949515 4:0.315607 5:0.860395 6:-0.0981818 7:0.545064 8:-0.633752 9:0.350504 
0.3345783971421624 0 0.3414108655876356 0 1:0.0213777 2:-0.905681 3:1 4:0.310983 5:0.896813 6:-0.0763636 7:0.562232 8:-0.637343 9:0.368421 
0 0 0 1.754114815314649 1:-0.957245 2:-0.459807 3:0.654369 4:-1 5:-0.24431 6:-0.362424 7:-0.433476 8:-0.7307 9:-0.106383 
0 8.720592033907169 0 1.74024874642785 1:-0.976247 2:-0.410504 3:0.603883 4:-1 5:-0.259484 6:-0.36 7:-0.459227 8:-0.601436 9:-0.106383 
0 0 1.074898956524158 0 1:-0.976247 2:-0.434084 3:0.6 4:-1 5:-0.235205 6:-0.347879 7:-0.502146 8:-0.583483 9:-0.106383 
0.1712977695926204 0 0 0 1:-0.980998 2:-0.434084 3:0.6 4:-1 5:-0.241275 6:-0.355152 7:-0.502146 8:-0.590664 9:-0.106383 
1.944017989154644 0 0 0 1:-0.980998 2:-0.436227 3:0.596117 4:-1 5:-0.241275 6:-0.355152 7:-0.502146 8:-0.590664 9:-0.113102 
-0 0 32 0 1:0.163895 2:0.667738 3:0.0563107 4:0.123699 5:0.138088 6:0.231515 7:-0.296137 8:0.393178 9:0.131019 
-0 0 31.08583090454501 0 1:0.163895 2:0.667738 3:0.0640777 4:0.123699 5:0.141123 6:0.231515 7:-0.27897 8:0.393178 9:0.135498 
-0 0 32 0 1:0.211401 2:0.667738 3:0.0368932 4:0.121387 5:0.141123 6:0.231515 7:-0.253219 8:0.429084 9:0.101904 
-0 0 0 1.435639493600332 1:0.135392 2:0.667738 3:-0.0135922 4:0.100578 5:0.132018 6:0.0739394 7:-0.270386 8:0.389587 9:0.0391937 
-0 0 5.30687339592932 0 1:0.140143 2:0.661308 3:0.0291262 4:0.0913295 5:0.177542 6:0.0860606 7:-0.270386 8:0.371634 9:0.0862262 
-0 0 32 0 1:0.140143 2:0.667738 3:0.0291262 4:0.10289 5:0.177542 6:0.0909091 7:-0.270386 8:0.389587 9:0.0862262 
-0 3.587130003525493 17.63828417670717 0 1:0.159145 2:0.661308 3:0.0368932 4:0.0936416 5:0.189681 6:0.0860606 7:-0.253219 8:0.396768 9:0.0795073 
-0.5592290115884051 0.8034218339008736 0 0 1:-0.35867 2:0.0332262 3:0.227184 4:-0.0381503 5:0.223065 6:0.77697 7:-0.399142 8:-0.170557 9:0.294513 
-0 2.618840772389246 0 1.324110804091927 1:0.353919 2:0.0525188 3:-0.786408 4:0.812717 5:-0.587253 6:-0.740606 7:-0.399142 8:-0.0305206 9:-0.473684 
-0 0 4.773985133117074 0 1:0.330166 2:0.0610932 3:-0.638835 4:0.812717 5:-0.499241 6:-0.694545 7:-0.467811 8:-0.0843806 9:-0.426652 
-5.190057381790832 0 0 0 1:0.140143 2:-0.121115 3:0.238835 4:0.528324 5:0.590288 6:-0.287273 7:-0.83691 8:-0.174147 9:0.075028 
-0 0 0 5.471197128845284 1:0.159145 2:0.0932476 3:0.250485 4:0.537572 5:0.632777 6:-0.229091 7:-0.819742 8:-0.127469 9:0.0974244 
-0 0.3476060732682306 0 0 1:0.125891 2:0.106109 3:0.207767 4:0.505202 5:0.617602 6:-0.250909 7:-0.785408 8:-0.0987433 9:0.0996641 
-0.5526346030817749 1.073965893667602 0 0 1:0.805226 2:-1 3:0.215534 4:0.986127 5:0.286798 6:-0.432727 7:0.862661 8:-0.482944 9:0.0593505 
-0 0 0.3383430707682887 0.7016739037129182 1:0.805226 2:-1 3:0.184466 4:0.986127 5:0.274659 6:-0.486061 7:0.854077 8:-0.482944 9:0.0548712 
-0 0 0 1.326009948502475 1:0.805226 2:-0.367631 3:0.238835 4:0.974566 5:0.423369 6:-0.187879 7:0.819742 8:-0.292639 9:0.209406 
-0 0 3.155070646310679 0 1:0.814727 2:-0.356913 3:0.231068 4:0.972254 5:0.420334 6:-0.18303 7:0.819742 8:-0.289048 9:0.204927 
-0 1.671868618028758 0 0 1:0.814727 2:-0.344051 3:0.231068 4:0.972254 5:0.417299 6:-0.187879 7:0.854077 8:-0.281867 9:0.213886 
-0.4822367373748642 0 0 0 1:0.786223 2:-0.369775 3:0.219417 4:0.96763 5:0.396055 6:-0.2 7:0.83691 8:-0.292639 9:0.198208 
-0 0 0 12.95579014316563 1:-0.334917 2:0.322615 3:0.370874 4:-0.514451 5:0.0409712 6:-0.0836364 7:-0.27897 8:0.202873 9:0.133259 
-0 3.405541669139924 0 0 1:-0.330166 2:0.466238 3:0.405825 4:-0.468208 5:0.189681 6:-0.0109091 7:-0.270386 8:0.249551 9:0.225084 
-0 20.33108105442924 0 0 1:-0.330166 2:0.515541 3:0.405825 4:-0.424277 5:0.189681 6:-0.00848485 7:-0.270386 8:0.249551 9:0.225084 
-0 0 0 2.58689709950342 1:-0.344418 2:0.395498 3:0.316505 4:-0.45896 5:0.0864947 6:-0.0836364 7:-0.347639 8:0.113106 9:0.137738 
-4.845131485772471 0 0 0 1:-0.36342 2:0.262594 3:0.28932 4:-0.424277 5:0.0440061 6:-0.115152 7:-0.356223 8:0.0628366 9:0.106383 
-1.971276115083903 0 0 0 1:-0.0308789 2:-0.500536 3:0.0213592 4:0.169942 5:-0.165402 6:-0.609697 7:-0.476395 8:-0.4614 9:-0.202688 
-0 2.340772743386818 0 19.64922543163748 1:0.0023753 2:-0.485531 3:0.0291262 4:0.169942 5:-0.180577 6:-0.609697 7:-0.433476 8:-0.454219 9:-0.202688 
-0 0 0 1.327409008419825 1:-0.624703 2:-0.356913 3:-0.118447 4:-0.417341 5:-0.496206 6:-0.861818 7:-0.708155 8:-0.436266 9:-0.406495 
-0 1.928681459587362 0 0 1:-0.653207 2:-0.410504 3:-0.149515 4:-0.417341 5:-0.505311 6:-0.878788 7:-0.716738 8:-0.4614 9:-0.417693 
-0 0.1016835955828441 0 0 1:-0.653207 2:-0.3612 3:-0.0679612 4:-0.250867 5:-0.426404 6:-0.786667 7:-0.716738 8:-0.508079 9:-0.379619 
-1.133446936891077 0 0 0 1:-0.686461 2:-0.461951 3:-0.0679612 4:-0.292486 5:-0.426404 6:-0.82303 7:-0.76824 8:-0.633752 9:-0.388578 
-0 2.738113388307469 0 0 1:-0.605701 2:-0.451233 3:-0.0679612 4:-0.271676 5:-0.429439 6:-0.827879 7:-0.725322 8:-0.587074 9:-0.397536 
-0 0 0 3.302714096389836 1:-0.605701 2:-0.464094 3:-0.0796117 4:-0.287861 5:-0.487102 6:-0.832727 7:-0.725322 8:-0.587074 9:-0.417693 
-0.7656845343489075 0 0 1.267287760062299 1:-0.543943 2:-0.226152 3:0.0330097 4:-0.301734 5:-0.353566 6:-0.655758 7:-0.733906 8:-0.375224 9:-0.298992 
-0 0 0 0.3026210201324973 1:-0.543943 2:-0.226152 3:-0.00970874 4:-0.371098 5:-0.414264 6:-0.66303 7:-0.785408 8:-0.364452 9:-0.319149 
-0 0 4.362525596361281 0 1:-0.387173 2:0.0610932 3:0.297087 4:-0.105202 5:0.128983 6:0.98303 7:-0.44206 8:-0.206463 9:0.337066 
-0 0 14.54737160919236 0 1:0.0308789 2:0.571275 3:0.475728 4:0.465896 5:0.247344 6:1 7:-0.536481 8:0.605027 9:0.789474 
-0 1.300793823331113 0 0 1:0.254157 2:0.221865 3:-0.891262 4:0.72948 5:-0.757208 6:-0.745455 7:-0.682403 8:-0.0664273 9:-0.527436 
-0 0 4.187682444896215 0 1:0.173397 2:0.226152 3:0.180583 4:0.380347 5:0.505311 6:-0.255758 7:-0.811159 8:-0.102334 9:0.108623 
-0 0 13.01122192661492 0 1:0.187648 2:0.588424 3:0.157282 4:0.371098 5:0.411229 6:-0.192727 7:-0.811159 8:0.0664273 9:0.133259 
-0 0 20.85310638529186 0 1:0.27791 2:0.421222 3:0.145631 4:0.39422 5:0.326252 6:-0.267879 7:-0.776824 8:0.048474 9:0.0727884 
-0 0 0 7.776072471383587 1:-0.292162 2:0.376206 3:0.250485 4:-0.523699 5:-0.00758725 6:-0.141818 7:-0.330472 8:0.170557 9:0.0839866 
-0 0 18.87964419254521 0.7640222427131727 1:0.0356295 2:-0.352626 3:0.0330097 4:0.0219653 5:-0.213961 6:-0.556364 7:-0.381974 8:-0.278276 9:-0.193729 
-0 0 3.130012864482774 0 1:-0.0973872 2:0.667738 3:0.227184 4:-0.158382 5:0.016692 6:0.694545 7:-0.055794 8:0.314183 9:0.285554 
-0 0 0 1.11188561622511 1:-0.505938 2:0.185423 3:0.658252 4:-0.190751 5:-0.0713202 6:0.992727 7:-0.527897 8:-0.238779 9:0.417693 
-0.3433508544485772 0 0 0.5235262868248874 1:0.064133 2:0.571275 3:0.848544 4:0.435838 5:0.368741 6:1 7:-0.175966 8:0.590664 9:0.932811 
-0 1.805828147156309 0 0 1:0.0688836 2:0.571275 3:0.786408 4:0.440462 5:0.368741 6:1 7:-0.167382 8:0.601436 9:0.903695 
-0.1023879422559901 0 0 0 1:0.396675 2:0.543408 3:-1 4:0.646243 5:-0.866464 6:-0.641212 7:-0.562232 8:0.166966 9:-0.469205 
-0 0 0 2.012155997451759 1:0.36342 2:0.530547 3:-0.902913 4:0.523699 5:-0.872534 6:-0.629091 7:-0.519313 8:0.174147 9:-0.433371 
-0 0 15.51340617179814 0 1:0.173397 2:0.410504 3:-0.607767 4:0.523699 5:-0.52352 6:-0.529697 7:-0.579399 8:0.00179533 9:-0.290034 
-0 0 32 0 1:0.315914 2:0.609861 3:0.207767 4:0.308671 5:0.235205 6:-0.175758 7:-0.596567 8:0.271095 9:0.108623 
-0 0 19.06644508853842 0 1:0.353919 2:0.607717 3:0.18835 4:0.313295 5:0.198786 6:-0.175758 7:-0.596567 8:0.271095 9:0.0839866 
-0.1455621267253909 0 0 0 1:0.990499 2:-0.176849 3:0.219417 4:0.750289 5:0.0804249 6:-0.226667 7:1 8:0.070018 9:0.0996641 
-0 0 0.5676818194180245 1.047378799752399 1:1 2:-0.168274 3:0.184466 4:0.734104 5:0.0379363 6:-0.229091 7:0.982833 8:0.070018 9:0.0884658 
-0 0 8.651054558493477 4.073263464236009 1:-0.249406 2:0.644159 3:0.149515 4:-0.861272 5:-0.174507 6:-0.134545 7:-0.347639 8:0.56553 9:0.0324748 
-0 0 2.375475513382045 0 1:-0.567696 2:-0.256163 3:-0.176699 4:-0.630058 5:-0.660091 6:-0.76 7:-0.939914 8:-0.163375 9:-0.431131 
-0 -0 0 17.15466323774593 1:-0.182898 2:0.144695 3:-0.223301 4:-0.156069 5:0.38088 6:-0.621818 7:0.175966 8:0.339318 9:-0.720045 
-6.175784570386527 -0 0 0 1:-0.239905 2:0.116827 3:-0.2 4:-0.139884 5:0.423369 6:-0.655758 7:0.124464 8:0.321364 9:-0.711086 
-0 -1.033949628142996 0 0 1:-0.315914 2:-0.245445 3:-0.18835 4:-0.271676 5:0.311077 6:-0.752727 7:-0.364807 8:-0.184919 9:-0.852184 
-0 -0 0 29.73362420591208 1:-0.349169 2:-0.138264 3:-0.304854 4:-0.345665 5:0.210926 6:-0.784242 7:-0.321888 8:-0.105925 9:-0.910414 
-0 -0 0 0.02441084064150301 1:-0.35867 2:-0.138264 3:-0.304854 4:-0.347977 5:0.210926 6:-0.789091 7:-0.330472 8:-0.109515 9:-0.910414 
-0 -0 0 1.082306516559193 1:-0.377672 2:-0.18328 3:-0.304854 4:-0.354913 5:0.210926 6:-0.803636 7:-0.339056 8:-0.163375 9:-0.899216 
-0 -3.573126296188547 3.873761351887132 32 1:-0.19715 2:0.566988 3:-0.227184 4:0.00115607 5:0.0409712 6:-0.432727 7:-0.11588 8:0.561939 9:-0.24972 
-0 -0 0 32 1:-0.19715 2:0.566988 3:-0.227184 4:0.00115607 5:0.0409712 6:-0.435152 7:-0.11588 8:0.561939 9:-0.24972 
-0 -0 0 3.929494842884417 1:-0.19715 2:0.566988 3:-0.246602 4:0.00115607 5:0.0409712 6:-0.44 7:-0.11588 8:0.561939 9:-0.254199 
-0 -0 14.68027955049406 0 1:0.102138 2:-0.350482 3:-0.716505 4:0.486705 5:-0.693475 6:-0.990303 7:-0.296137 8:-0.508079 9:-0.668533 
-0 -0 0 5.295584998193803 1:0.0023753 2:-0.472669 3:-0.654369 4:0.486705 5:-0.657056 6:-0.985455 7:-0.467811 8:-0.615799 9:-0.650616 
-0.005764166325384942 -0 0 0 1:0.0023753 2:-0.457663 3:-0.627184 4:0.491329 5:-0.654021 6:-0.980606 7:-0.44206 8:-0.601436 9:-0.646137 
-0 -0 0.2814383392481599 0 1:0.00712589 2:-0.449089 3:-0.627184 4:0.491329 5:-0.654021 6:-0.978182 7:-0.44206 8:-0.597846 9:-0.646137 
-0 -3.522184020324866 0 0 1:0.0118765 2:-0.442658 3:-0.654369 4:0.491329 5:-0.657056 6:-0.980606 7:-0.467811 8:-0.587074 9:-0.657335 
-2.558921531094264 -0 0 0 1:-0.239905 2:0.472669 3:0.382524 4:0.0890173 5:0.426404 6:0.0981818 7:0.055794 8:0.393178 9:0.334826 
-0 -0 3.586771402331833 0 1:-0.2019 2:0.53269 3:0.378641 4:0.0473988 5:0.432473 6:0.0957576 7:0.0472103 8:0.389587 9:0.332587 
-0 -1.22376457405199 0 0 1:0.368171 2:-0.689175 3:0.642718 4:0.491329 5:0.593323 6:-0.0666667 7:0.871245 8:-0.820467 9:0.303471 
-0 -0 0 1.600086219897161 1:0.368171 2:-0.596999 3:0.642718 4:0.495954 5:0.596358 6:-0.0569697 7:0.879828 8:-0.806104 9:0.303471 
-0 -0.8261357415359922 0.01865328149853694 0 1:0.382423 2:-0.622722 3:0.642718 4:0.493642 5:0.602428 6:-0.0642424 7:0.888412 8:-0.795332 9:0.307951 
-3.400668770497813 -0 0 0 1:0.339667 2:-0.702036 3:0.650485 4:0.452023 5:0.569044 6:-0.0642424 7:0.845494 8:-0.863555 9:0.301232 
-0.1179385980522033 -0 0 0 1:0.339667 2:-0.702036 3:0.650485 4:0.452023 5:0.569044 6:-0.0642424 7:0.845494 8:-0.863555 9:0.298992 
-7.592184838577727 -0 0 0 1:-0.444181 2:0.0525188 3:0.537864 4:-0.34104 5:0.383915 6:-0.0957576 7:-0.0729614 8:-0.364452 9:0.236282 
-0 -0 0 6.031337289110287 1:-0.453682 2:0.0460879 3:0.421359 4:-0.366474 5:0.298938 6:-0.178182 7:-0.270386 8:-0.439856 9:0.157895 
-0 -0 0 32 1:-0.847981 2:0.0160772 3:0.61165 4:-0.83815 5:-0.144158 6:-0.21697 7:-0.562232 8:-0.572711 9:0.0145577 
-0 -0 0 10.8432445972509 1:-0.824228 2:-0.00321543 3:0.6 4:-0.93526 5:-0.162367 6:-0.233939 7:-0.570815 8:-0.551167 9:-0.00783875 
-0.1886284997382513 -0 0 0 1:-0.638955 2:-0.286174 3:-0.258252 4:-0.521387 5:0.250379 6:-0.798788 7:-0.304721 8:-0.228007 9:-0.798432 
-0 -0.75529058910953 0 0 1:-0.206651 2:0.571275 3:-0.413592 4:-0.0705202 5:-0.0986343 6:-0.444848 7:-0.150215 8:0.759425 9:-0.319149 
-0 -0 1.217017338929095 0 1:0.311164 2:-0.474812 3:0.565049 4:0.380347 5:0.453718 6:-0.0981818 7:0.828326 8:-0.788151 9:0.267637 
-0 -0 0 23.35601718110201 1:-0.472684 2:0.101822 3:0.308738 4:-0.433526 5:0.216995 6:-0.2 7:-0.261803 8:-0.421903 9:0.137738 
-0 -0 0 32 1:-0.472684 2:0.125402 3:0.308738 4:-0.42659 5:0.2261 6:-0.197576 7:-0.261803 8:-0.411131 9:0.139978 
-0 -6.487860578017496 0 0 1:-0.501188 2:0.146838 3:0.273786 4:-0.440462 5:0.201821 6:-0.209697 7:-0.296137 8:-0.385996 9:0.135498 
-12.70345100039983 -0.8807364004956156 0 32 1:-0.833729 2:-0.0718114 3:0.638835 4:-0.817341 5:-0.168437 6:-0.246061 7:-0.545064 8:-0.51167 9:-0.0324748 
-9.467738520474834 -0 0 0 1:-0.653207 2:-0.0932476 3:-0.285437 4:-0.576879 5:0.189681 6:-0.752727 7:-0.244635 8:0.005386 9:-0.852184 
-0 -0 0 17.67920252234057 1:-0.657957 2:-0.0718114 3:-0.374757 4:-0.581503 5:0.132018 6:-0.772121 7:-0.27897 8:-0.00179533 9:-0.883539 
-0 -0 0.6913159016532868 0 1:-0.168646 2:0.571275 3:-0.413592 4:-0.160694 5:-0.168437 6:-0.369697 7:0.0472103 8:0.974865 9:-0.301232 
-1.59451729667315 -0 0 0 1:-0.2019 2:0.571275 3:-0.300971 4:-0.146821 5:-0.0834598 6:-0.362424 7:0.0815451 8:0.974865 9:-0.25196 
-0 -0 2.579848821005748 0 1:-0.0736342 2:-0.1597 3:-0.68932 4:0.186127 5:-0.745068 6:-0.922424 7:-0.27897 8:-0.51167 9:-0.594625 
-0 -2.517542228831014 0 0 1:-0.130641 2:-0.247588 3:-0.619417 4:0.13526 5:-0.660091 6:-0.900606 7:-0.261803 8:-0.547576 9:-0.543113 
-0 -0 0 23.43914365178406 1:-0.130641 2:-0.249732 3:-0.619417 4:0.132948 5:-0.660091 6:-0.900606 7:-0.261803 8:-0.547576 9:-0.543113 
-0 -11.62289070930772 0 0 1:-0.311164 2:0.612004 3:0.332039 4:-0.165318 5:0.450683 6:0.0715152 7:-0.107296 8:0.382406 9:0.301232 
-0 -6.302580243436204 2.31832352949933 0 1:-0.239905 2:0.618435 3:0.386408 4:-0.206936 5:0.450683 6:0.110303 7:-0.0386266 8:0.378815 9:0.339306 
-0 -0 0.4029826924126182 0 1:0.154394 2:-0.292605 3:0.475728 4:0.2 5:0.308042 6:-0.0957576 7:0.828326 8:-0.67325 9:0.238522 
-0 -0 0 32 1:0.159145 2:-0.292605 3:0.479612 4:0.2 5:0.314112 6:-0.0957576 7:0.83691 8:-0.67325 9:0.243001 
-5.325829361022568 -0 0 0 1:-0.562945 2:-0.0675241 3:0.285437 4:-0.519075 5:0.201821 6:-0.258182 7:-0.364807 8:-0.508079 9:0.12654 
-0 -2.618729364905958 1.827961799699844 0 1:-0.410926 2:0.459807 3:0.52233 4:-1 5:0.341426 6:-0.0424242 7:0.107296 8:0.29623 9:0.307951 
-0 -0 0 5.530679057540939 1:-0.410926 2:0.451233 3:0.545631 4:-1 5:0.347496 6:-0.030303 7:0.124464 8:0.29623 9:0.31467 
-0 -2.690538701353354 2.397186236343074 0 1:-0.733967 2:0.0310825 3:0.638835 4:-1 5:-0.125948 6:-0.219394 7:-0.339056 8:-0.267504 9:0.00783875 
-0 -0 -1.505085568310041 0 1:-0.0831354 2:0.545552 3:0.0679612 4:-0.0427746 5:0.180577 6:0.815758 7:0.0128755 8:0.307002 9:0.0503919 
-0 -15.19330976744677 -0 0 1:-0.0736342 2:0.541265 3:0.0679612 4:-0.049711 5:0.180577 6:0.815758 7:0.00429185 8:0.29982 9:0.0503919 
-0 -3.663096681774691 -0 0 1:-0.391924 2:0.468382 3:-0.398058 4:-0.498266 5:-0.259484 6:0.677576 7:-0.424893 8:0.0915619 9:-0.334826 
-0 -0 -0 1.842517708127887 1:-0.43943 2:0.451233 3:-0.394175 4:-0.491329 5:-0.256449 6:0.677576 7:-0.476395 8:0.0664273 9:-0.334826 
-1.096477472486506 -0 -0.7534340936734459 0 1:-0.43943 2:0.449089 3:-0.401942 4:-0.491329 5:-0.256449 6:0.677576 7:-0.476395 8:0.059246 9:-0.334826 
-0 -32 -0 0 1:0.159145 2:0.571275 3:0.0407767 4:0.380347 5:0.150228 6:0.345455 7:-0.390558 8:0.518851 9:0.18477 
-0 -27.64932543403529 -0.2211606759448413 0 1:0.182898 2:0.571275 3:0.0368932 4:0.401156 5:0.201821 6:0.26303 7:-0.364807 8:0.536804 9:0.227324 
-0 -32 -0 0 1:0.182898 2:0.571275 3:0.0368932 4:0.401156 5:0.201821 6:0.26303 7:-0.381974 8:0.536804 9:0.204927 
-0.6034699130495363 -0 -0 0 1:0.287411 2:-0.245445 3:-0.429126 4:0.560694 5:-0.705615 6:-0.82303 7:-0.124464 8:-0.436266 9:-0.496081 
-0 -5.200291321017837 -0 0 1:0.320665 2:-0.234727 3:-0.429126 4:0.565318 5:-0.723824 6:-0.82303 7:-0.124464 8:-0.389587 9:-0.482643 
-0 -1.357407335231171 -14.54885688147127 6.026001410912499 1:0.235154 2:-0.251876 3:-0.487379 4:0.532948 5:-0.745068 6:-0.864242 7:-0.304721 8:-0.472172 9:-0.513998 
-0 -32 -3.596634679367651 0 1:0.19715 2:0.946409 3:0.223301 4:0.0635838 5:0.329287 6:-0.0690909 7:-0.356223 8:0.364452 9:0.193729 
-0 -32 -0 0 1:0.2019 2:0.963558 3:0.203883 4:0.049711 5:0.323217 6:-0.0690909 7:-0.347639 8:0.364452 9:0.18701 
-0 -0 -0 1.328655399557829 1:0.2019 2:1 3:0.215534 4:0.049711 5:0.323217 6:-0.0690909 7:-0.339056 8:0.368043 9:0.18701 
-4.087400870307248 -0 -0.4421275291798716 14.31086330055015 1:0.225653 2:-0.0096463 3:0.0951456 4:0.338728 5:0.350531 6:-0.418182 7:-0.545064 8:-0.29623 9:0.0279955 
-0 -31.35019010443438 -0 0 1:0.235154 2:0.187567 3:0.0446602 4:0.338728 5:0.323217 6:-0.362424 7:-0.579399 8:-0.174147 9:0.0391937 
-0 -4.127466548287021 -0 0 1:0.125891 2:0.056806 3:0.464078 4:-0.828902 5:-0.329287 6:-0.267879 7:-0.321888 8:0.608618 9:-0.0683091 
-0 -0.2690747237309123 -0 0 1:-0.111639 2:0.226152 3:0.662136 4:-0.877457 5:0.198786 6:-0.212121 7:-0.0643777 8:1 9:-0.0257559 
-3.728547905793588 -4.179463849580959 -4.192834327432649 6.594053538594276 1:-0.315914 2:0.151125 3:0.35534 4:-0.821965 5:-0.247344 6:-0.461818 7:-0.244635 8:0.450628 9:-0.234043 
-0 -6.979470427677817 -0 0 1:-0.149644 2:0.562701 3:0.258252 4:-0.220809 5:0.104704 6:0.992727 7:0.0214592 8:0.231598 9:0.12654 
-0.5044763922302736 -0 -0.8922557557255643 0 1:-0.144893 2:0.560557 3:0.254369 4:-0.213873 5:0.113809 6:0.992727 7:0.0815451 8:0.249551 9:0.12206 
-0 -0 -3.193050878137849 0 1:0.2019 2:0.0203644 3:-0.735922 4:0.40578 5:-0.942337 6:-0.871515 7:-0.579399 8:-0.396768 9:-0.572228 
-0.0307446764510646 -0 -0 0 1:0.2019 2:0.0203644 3:-0.739806 4:0.40578 5:-0.954476 6:-0.871515 7:-0.579399 8:-0.396768 9:-0.574468 
-0 -2.150051125413465 -0 0 1:0.2019 2:0.0203644 3:-0.735922 4:0.408092 5:-0.942337 6:-0.871515 7:-0.579399 8:-0.396768 9:-0.572228 
-0 -2.226585537154876 -0 0 1:0.477435 2:0.644159 3:0.114563 4:0.197688 5:0.311077 6:-0.0521212 7:0.467811 8:0.123878 9:0.334826 
-0 -2.061787700654311 -0 0 1:0.239905 2:0.0996785 3:0.553398 4:-0.798844 5:-0.271624 6:-0.231515 7:0.0128755 8:0.662478 9:-0.0481523 
-0 -0 -0 2.839559145147301 1:-0.12114 2:0.642015 3:0.231068 4:-0.285549 5:0.00455235 6:0.992727 7:0.150215 8:0.324955 9:0.0145577 
-0 -12.98496580491475 -0 0 1:0.2019 2:0.571275 3:-0.0757282 4:0.276301 5:-0.016692 6:0.473939 7:-0.630901 8:0.533214 9:0.12206 
-0 -3.526706607274809 -0 0 1:0.301663 2:0.277599 3:-0.646602 4:0.280925 5:-0.99393 6:-0.718788 7:-0.450644 8:-0.206463 9:-0.491601 
-0 -32 -0 0 1:0.268409 2:0.489818 3:-0.0174757 4:0.109827 5:0.0136571 6:-0.345455 7:-0.553648 8:0.0341113 9:-0.0369541 
-0 -30.56555935500765 -0 0 1:0.268409 2:0.472669 3:-0.0174757 4:0.109827 5:0.0136571 6:-0.347879 7:-0.553648 8:0.02693 9:-0.0369541 
-0 -0.521167334435565 -0 0 1:0.472684 2:0.684887 3:0.133981 4:0.132948 5:0.320182 6:-0.0375758 7:0.476395 8:0.159785 9:0.352744 
-0 -0 -2.398164273933253 2.207413301358573 1:0.486936 2:0.691318 3:0.196117 4:0.126012 5:0.38695 6:-0.00848485 7:0.622318 8:0.202873 9:0.395297 
-0.6194791519812044 -0 -0 0 1:0.524941 2:0.744909 3:0.242718 4:0.128324 5:0.429439 6:0.0206061 7:0.716738 8:0.245961 9:0.426652 
-0 -0 -2.131935581826276 0 1:-0.173397 2:0.380493 3:0.899029 4:-1 5:0.426404 6:-0.0933333 7:-0.0386266 8:1 9:0.0727884 
-0.1786776957680775 -0 -0 8.28519682784726 1:-0.163895 2:0.395498 3:0.906796 4:-1 5:0.426404 6:-0.0836364 7:-0.0214592 8:1 9:0.0705487 
-0 -1.438095840319986 -0 1.789444763939731 1:-0.244656 2:0.528403 3:0.242718 4:-0.877457 5:-0.356601 6:-0.476364 7:-0.0472103 8:0.89228 9:-0.323628 
-3.786351901832475 -0 -0 -0 1:-0.315914 2:0.1597 3:0.172816 4:-0.322543 5:0.402124 6:-0.350303 7:0.150215 8:0.177738 9:-0.590146 
-5.190730066558737 -0 -0 -0 1:-0.320665 2:0.151125 3:0.161165 4:-0.322543 5:0.39302 6:-0.379394 7:0.133047 8:0.166966 9:-0.599104 
-0 -0 -17.58355659107339 -0 1:-0.36342 2:0.157556 3:0.0834951 4:-0.324855 5:0.350531 6:-0.435152 7:-0.0128755 8:0.13465 9:-0.666293 
-0 -0 -6.913493985693986 -0 1:-0.5962 2:-0.269025 3:-0.712621 4:-0.445087 5:0.23824 6:-0.852121 7:-0.51073 8:-0.228007 9:-0.93505 
-0 -1.862549143250605 -0 -0 1:-0.60095 2:-0.269025 3:-0.716505 4:-0.445087 5:0.23824 6:-0.852121 7:-0.51073 8:-0.228007 9:-0.93505 
-2.159046372278298 -0 -0 -0 1:-0.60095 2:-0.269025 3:-0.708738 4:-0.454335 5:0.241275 6:-0.852121 7:-0.493562 8:-0.238779 9:-0.926092 
-0.8158589481274069 -0 -0 -0 1:-0.273159 2:0.487674 3:-0.157282 4:-0.0682081 5:0.0257967 6:-0.478788 7:-0.0300429 8:0.360862 9:-0.290034 
-0 -0 -25.44962176695386 -0 1:-0.273159 2:0.474812 3:-0.165049 4:-0.065896 5:0.0500759 6:-0.481212 7:-0.0472103 8:0.357271 9:-0.287794 
-0 -0 -29.46295226887272 -0 1:-0.249406 2:0.485531 3:-0.223301 4:-0.0520231 5:0.016692 6:-0.486061 7:-0.0472103 8:0.35009 9:-0.296753 
-0 -0 -32 -0 1:-0.249406 2:0.485531 3:-0.223301 4:-0.0520231 5:0.016692 6:-0.486061 7:-0.0472103 8:0.35009 9:-0.296753 
-0 -0 -0 -3.307036842647507 1:-0.0783848 2:-0.397642 3:-0.417476 4:0.239306 5:-0.620637 6:-0.830303 7:-0.484979 8:-0.691203 9:-0.513998 
-0.06607601313433796 -0 -24.91993443151174 -0 1:-0.106888 2:-0.410504 3:-0.436893 4:0.239306 5:-0.620637 6:-0.837576 7:-0.484979 8:-0.698384 9:-0.527436 
-0 -0 -0 -1.992810036002956 1:-0.04038 2:-0.461951 3:-0.464078 4:0.290173 5:-0.587253 6:-0.835152 7:-0.553648 8:-0.773788 9:-0.484882 
-0 -4.078669726286757 -0 -0 1:0.0308789 2:-0.494105 3:-0.258252 4:0.202312 5:-0.487102 6:-0.752727 7:-0.433476 8:-0.737882 9:-0.384099 
-0 -0 -1.388139712276844 -0 1:0.320665 2:-0.40836 3:0.413592 4:0.546821 5:0.675266 6:-0.389091 7:-0.553648 8:-0.666068 9:0.0571109 
-0 -0.3654692676980154 -0 -0 1:0.311164 2:-0.232583 3:0.398058 4:0.546821 5:0.596358 6:-0.345455 7:-0.579399 8:-0.547576 9:0.0459127 
-0 -0 -0 -7.749124548425468 1:0.311164 2:-0.215434 3:0.398058 4:0.546821 5:0.596358 6:-0.345455 7:-0.579399 8:-0.547576 9:0.0459127 
-0 -1.910971434371045 -0 -0 1:0.292162 2:-0.241158 3:0.370874 4:0.523699 5:0.587253 6:-0.352727 7:-0.587983 8:-0.572711 9:0.0324748 
-0 -2.633639285772087 -0 -0 1:0.292162 2:-0.241158 3:0.370874 4:0.514451 5:0.584219 6:-0.352727 7:-0.60515 8:-0.576302 9:0.0324748 
-0 -0 -4.279600507441097 -0 1:0.154394 2:-0.168274 3:0.464078 4:0.109827 5:0.53566 6:-0.0375758 7:0.802575 8:-0.694794 9:0.363942 
-0 -0 -32 -0 1:0.144893 2:-0.168274 3:0.464078 4:0.109827 5:0.53566 6:-0.0375758 7:0.793991 8:-0.694794 9:0.363942 
-2.01191840824407 -0 -0 -0 1:0.154394 2:-0.178992 3:0.487379 4:0.116763 5:0.54173 6:-0.0206061 7:0.785408 8:-0.687612 9:0.366181 
-0 -5.953072036605683 -0 -0 1:-0.273159 2:0.281886 3:0.654369 4:-1 5:0.125948 6:0.180606 7:0.150215 8:0.788151 9:0.31019 
-0 -0 -6.899880308583271 -0 1:-0.263658 2:0.28403 3:0.666019 4:-1 5:0.165402 6:0.18303 7:0.158798 8:0.780969 9:0.31243 
-0 -15.98457321548073 -0 -3.467811953709408 1:-0.420428 2:0.18328 3:0.487379 4:-0.565318 5:0.00455235 6:-0.221818 7:-0.622318 8:-0.238779 9:-0.0055991 
-0 -1.361632515263859 -0 -0 1:-0.420428 2:0.0825295 3:0.518447 4:-0.572254 5:-0.0136571 6:-0.214545 7:-0.622318 8:-0.253142 9:0.0055991 
-0 -0 -29.00791852931916 -0 1:-0.453682 2:0.148982 3:0.448544 4:-0.604624 5:0.0986343 6:-0.192727 7:-0.51073 8:-0.411131 9:0.0795073 
-0 -0 -32 -0 1:-0.714964 2:0.00750268 3:0.623301 4:-0.722543 5:-0.0986343 6:-0.187879 7:-0.484979 8:-0.612208 9:0.0212766 
-10.43365793565833 -0 -32 -0 1:-0.729216 2:-0.00750268 3:0.61165 4:-0.720231 5:-0.107739 6:-0.190303 7:-0.493562 8:-0.633752 9:0.0145577 
-0 -0 -23.2788003965097 -0 1:-0.724466 2:-0.00321543 3:0.61165 4:-0.720231 5:-0.107739 6:-0.190303 7:-0.493562 8:-0.630162 9:0.0167973 
-0 -0 -7.321064262937222 -0 1:-0.372922 2:0.148982 3:0.0990291 4:-0.387283 5:0.320182 6:-0.44 7:-0.0729614 8:0.131059 9:-0.708847 
-19.57692600832992 -0 -0 -0 1:-0.387173 2:0.155413 3:0.0563107 4:-0.428902 5:0.253414 6:-0.403636 7:-0.133047 8:0.145422 9:-0.715566 
-0 -0 -0 -0.367859391464037 1:-0.529691 2:-0.189711 3:-0.805825 4:-0.498266 5:0.156297 6:-0.92 7:-0.51073 8:-0.224417 9:-0.986562 
-0 -14.51405162037337 -0 -0 1:0.0736342 2:-0.446945 3:-0.118447 4:0.100578 5:-0.490137 6:-0.665455 7:-0.287554 8:-0.597846 9:-0.339306 
-0 -0 -0 -2.779283805803316 1:0.102138 2:-0.449089 3:-0.114563 4:0.109827 5:-0.484067 6:-0.670303 7:-0.27897 8:-0.594255 9:-0.352744 
-7.301233461407501 -0 -0 -0 1:0.216152 2:-0.28403 3:0.502913 4:0.433526 5:0.605463 6:-0.265455 7:-0.476395 8:-0.597846 9:0.117581 
-0 -0 -0 -3.123405568980913 1:-0.27791 2:0.318328 3:0.67767 4:-1 5:0.174507 6:0.173333 7:0.175966 8:0.89228 9:0.276596 
-0 -0 -0 -1.618031763603897 1:-0.273159 2:0.318328 3:0.685437 4:-1 5:0.177542 6:0.173333 7:0.184549 8:0.895871 9:0.276596 
-1.553061461262307 -0 -0 -0 1:-0.330166 2:0.318328 3:0.67767 4:-1 5:0.192716 6:0.185455 7:0.193133 8:0.917415 9:0.283315 
-0 -0 -0 -1.207188507555117 1:-0.292162 2:0.187567 3:0.0601942 4:-0.431214 5:0.223065 6:-0.393939 7:-0.0901288 8:0.202873 9:-0.789474 
-5.766469141497895 -0 -0 -0 1:-0.306413 2:0.176849 3:0.0796117 4:-0.482081 5:0.24431 6:-0.350303 7:0.11588 8:0.238779 9:-0.729003 
-0 -0 -22.38668517230779 -0 1:-0.444181 2:-0.181136 3:-0.673786 4:-0.558382 5:0.201821 6:-0.854545 7:-0.321888 8:-0.199282 9:-0.961926 
-0 -0 -7.508486144278796 -0 1:-0.444181 2:-0.18328 3:-0.67767 4:-0.563006 5:0.198786 6:-0.849697 7:-0.304721 8:-0.195691 9:-0.966405 
-0 -0 -0 -1.210185425195092 1:-0.130641 2:0.571275 3:0.0446602 4:-0.202312 5:0.0106222 6:-0.304242 7:0.0128755 8:0.421903 9:-0.171333 
-0 -0 -0 -6.360236762090685 1:-0.154394 2:0.571275 3:0.0213592 4:-0.213873 5:0.00455235 6:-0.311515 7:-0.0300429 8:0.418312 9:-0.202688 
-0 -14.58030283898365 -0 -2.185026781261532 1:-0.178147 2:0.571275 3:0.0213592 4:-0.267052 5:-0.016692 6:-0.289697 7:-0.0472103 8:0.414722 9:-0.178052 
-0 -0 -1.694194009431397 -0 1:0.159145 2:-0.481243 3:-0.102913 4:0.0589595 5:-0.471927 6:-0.665455 7:-0.193133 8:-0.608618 9:-0.341545 
-0 -0 -0 -3.474153563235284 1:0.163895 2:-0.073955 3:0.464078 4:0.32948 5:0.496206 6:-0.209697 7:-0.399142 8:-0.436266 9:0.139978 
-0 -5.323446763316047 -0 -0 1:0.163895 2:-0.073955 3:0.464078 4:0.334104 5:0.499241 6:-0.2 7:-0.390558 8:-0.432675 9:0.146697 
-0 -0 -1.605467073771889 -0 1:0.149644 2:-0.091104 3:0.464078 4:0.32948 5:0.499241 6:-0.202424 7:-0.399142 8:-0.447038 9:0.144457 
-0 -0.390502869249003 -0 -0 1:0.391924 2:-0.161844 3:0.615534 4:0.0358382 5:0.590288 6:0.0690909 7:0.905579 8:-0.572711 9:0.451288 
-0 -0 -0 -1.002243183852294 1:0.391924 2:-0.142551 3:0.619417 4:0.0381503 5:0.596358 6:0.0715152 7:0.905579 8:-0.56912 9:0.451288 
-0 -0 -0 -5.379307262207996 1:-0.349169 2:0.401929 3:0.782524 4:-1 5:0.195751 6:0.2 7:0.167382 8:1 9:0.274356 
