svm_type c_svc
kernel_type rbf
gamma 0.5
nr_class 5
total_sv 224
rho 0.332931 0.218375 -0.114615 0.403061 0.2016 1.56472 0.547536 0.0758441 -1.09904 0.368315
label 1 3 6 8 9
nr_sv 29 60 40 43 52
SV
0 0 0 7.738508254620827 1:-0.510689 3:0.0951456 4:-0.378035 5:0.369369 6:-0.430303 7:-0.0386266 8:-0.00179533 9:-0.669048 
0 4.517405084569612 0 0 1:-0.539192 2:0.00187617 3:0.0291262 4:-0.39422 5:0.312312 6:-0.444848 7:-0.0987124 8:-0.00179533 9:-0.67619 
0 0.004837004393695516 0 0 1:-0.225653 2:-0.19137 3:0.386408 4:0.412717 5:0.465465 6:-0.384242 7:-0.553648 8:-0.278276 9:-0.171429 
0 0 0 4.325466786502971 1:-0.220903 2:-0.193246 3:0.386408 4:0.412717 5:0.471471 6:-0.381818 7:-0.553648 8:-0.274686 9:-0.17619 
6.571482114566101 0 2.231522889092732 0 1:-0.244656 2:-0.172608 3:0.394175 4:0.396532 5:0.471471 6:-0.369697 7:-0.579399 8:-0.274686 9:-0.159524 
0 0.9697287885579126 0 0 1:-0.220903 2:-0.39212 3:0.394175 4:0.0890173 5:-0.0960961 6:-0.464242 7:0.00429185 8:-0.206463 9:-0.457143 
0 0 0 0.6591593130470909 1:0.0308789 2:-0.0750469 3:0.763107 4:0.482081 5:0.975976 6:-0.0327273 7:-0.0128755 8:-0.385996 9:0.342857 
0 0 0 0.650000722912301 1:0.0213777 2:-0.0525328 3:0.770874 4:0.454335 5:0.96997 6:-0.0254545 7:-0.0128755 8:-0.371634 9:0.35 
0.9939697572485777 0 0.6336382562636157 0 1:-0.00712589 2:-0.198874 3:0.549515 4:0.269364 5:0.750751 6:-0.204848 7:-0.545064 8:-0.421903 9:0.202381 
0 0 0 9.391979790326044 1:-0.0023753 2:-0.183865 3:0.580583 4:0.255491 5:0.744745 6:-0.192727 7:-0.51073 8:-0.414722 9:0.219048 
0 0 0.6059619311289282 0.04514169845651375 1:-0.852732 2:-0.161351 3:0.666019 4:-0.546821 5:0.156156 6:-0.29697 7:-0.536481 8:-0.924596 9:-0.0642857 
0 9.700194275244877 0 5.021716767660836 1:-0.847981 2:-0.144465 3:0.669903 4:-0.544509 5:0.165165 6:-0.284848 7:-0.51073 8:-0.885099 9:-0.0571429 
0 0 0 4.313385241464382 1:-0.553444 2:0.183865 3:0.0330097 4:-0.449711 5:0.222222 6:-0.396364 7:-0.0128755 8:0.235189 9:-0.735714 
0 0 0 2.140320437623448 1:-0.306413 2:-0.114447 3:0.378641 4:-0.0427746 5:-0.213213 6:-0.418182 7:0.201717 8:-0.0736086 9:-0.433333 
0 0 0.4897358349181555 0 1:-0.0546318 2:-0.257036 3:0.603883 4:0.0843931 5:0.66967 6:-0.21697 7:-0.364807 8:-0.429084 9:0.207143 
0 0 0 15.83536133860494 1:-0.558195 2:0.281426 3:0.0601942 4:-0.516763 5:0.198198 6:-0.292121 7:0.0472103 8:0.274686 9:-0.702381 
0 2.154916704712675 0 7.184240690397727 1:-0.591449 2:0.354597 3:-0.0640777 4:-0.542197 5:0.105105 6:-0.328485 7:-0.0300429 8:0.317774 9:-0.797619 
2.451256660753424 5.615760725507768 2.663235945937161 0 1:-0.605701 2:0.35272 3:-0.0796117 4:-0.53526 5:0.0960961 6:-0.330909 7:-0.0643777 8:0.328546 9:-0.804762 
2.409927763114799 6.949689504006811 3.520253393549562 0 1:-0.382423 2:0.0881801 3:0.467961 4:0.0358382 5:0.627628 6:-0.185455 7:-0.287554 8:-0.105925 9:0.469048 
0 0 0 1.16900677423345 1:-0.344418 2:-0.00187617 3:0.413592 4:-0.158382 5:-0.276276 6:-0.372121 7:0.330472 8:-0.0448833 9:-0.395238 
1.718444653394013 3.494634141563353 2.532316268913339 0 1:-0.349169 3:0.394175 4:-0.16763 5:-0.297297 6:-0.37697 7:0.321888 8:-0.048474 9:-0.4 
0 1.338353967529327 0 0.7746397006006633 1:0.0261283 2:-0.63227 3:0.949515 4:0.315607 5:0.840841 6:-0.0981818 7:0.545064 8:-0.633752 9:0.309524 
0.09152602174128099 0 0 0 1:0.0213777 2:-0.667917 3:1 4:0.310983 5:0.876877 6:-0.0763636 7:0.562232 8:-0.637343 9:0.328571 
0 6.563049985406974 0.1574021091756161 0 1:-0.11639 2:-0.457786 3:0.603883 4:-0.116763 5:0.498498 6:-0.270303 7:-0.0729614 8:-0.533214 9:0.17381 
0 0 0 3.276170338393614 1:-0.957245 2:-0.277674 3:0.654369 4:-1 5:-0.252252 6:-0.362424 7:-0.433476 8:-0.7307 9:-0.17619 
0 0 0 1.124438203058755 1:-0.976247 2:-0.234522 3:0.603883 4:-1 5:-0.267267 6:-0.36 7:-0.459227 8:-0.601436 9:-0.17619 
0 9.860923310368342 0 0 1:-0.971496 2:-0.234522 3:0.615534 4:-1 5:-0.261261 6:-0.355152 7:-0.450644 8:-0.594255 9:-0.17619 
0 0 1.413953038536266 0 1:-0.976247 2:-0.255159 3:0.6 4:-1 5:-0.243243 6:-0.347879 7:-0.502146 8:-0.583483 9:-0.17619 
2.158006663156159 0 0 0 1:-0.980998 2:-0.255159 3:0.6 4:-1 5:-0.249249 6:-0.355152 7:-0.502146 8:-0.590664 9:-0.17619 
-0 0 5.944028194783853 0 1:0.163895 2:0.709193 3:0.0524272 4:0.123699 5:0.126126 6:0.231515 7:-0.313305 8:0.393178 9:0.0595238 
-0 0 32 0 1:0.163895 2:0.709193 3:0.0563107 4:0.123699 5:0.126126 6:0.231515 7:-0.296137 8:0.393178 9:0.0761905 
-0 0 32 0 1:0.163895 2:0.709193 3:0.0640777 4:0.123699 5:0.129129 6:0.231515 7:-0.27897 8:0.393178 9:0.0809524 
-0 0 32 0 1:0.211401 2:0.709193 3:0.0368932 4:0.121387 5:0.129129 6:0.231515 7:-0.253219 8:0.429084 9:0.0452381 
-0 0 0 1.000243547281007 1:0.135392 2:0.709193 3:-0.0135922 4:0.100578 5:0.12012 6:0.0739394 7:-0.270386 8:0.389587 9:-0.0214286 
-0 0 13.78526800738468 0 1:0.140143 2:0.703565 3:0.0291262 4:0.0913295 5:0.165165 6:0.0860606 7:-0.270386 8:0.371634 9:0.0285714 
-0 0 32 0 1:0.140143 2:0.709193 3:0.0291262 4:0.10289 5:0.165165 6:0.0909091 7:-0.270386 8:0.389587 9:0.0285714 
-0 3.995801349252951 1.640525933140505 0 1:0.159145 2:0.703565 3:0.0368932 4:0.0936416 5:0.177177 6:0.0860606 7:-0.253219 8:0.396768 9:0.0214286 
-0.2774968294059691 0 0 0 1:-0.102138 2:0.624765 3:0.821359 4:0.50289 5:0.36036 6:1 7:-0.51073 8:0.364452 9:1 
-0 1.629007897743509 3.133529454486788 1.098556407490648 1:0.353919 2:0.170732 3:-0.786408 4:0.812717 5:-0.591592 6:-0.740606 7:-0.399142 8:-0.0305206 9:-0.566667 
-0 0 3.055692393947406 0 1:0.330166 2:0.178236 3:-0.638835 4:0.817341 5:-0.531532 6:-0.701818 7:-0.467811 8:-0.0879713 9:-0.545238 
-5.680866964429279 0 0 0 1:0.140143 2:0.0187617 3:0.238835 4:0.528324 5:0.573574 6:-0.287273 7:-0.83691 8:-0.174147 9:0.0166667 
-0 0 0 6.194324004354728 1:0.159145 2:0.206379 3:0.250485 4:0.537572 5:0.615616 6:-0.229091 7:-0.819742 8:-0.127469 9:0.0404762 
-0 1.270537029106118 0 0 1:0.125891 2:0.217636 3:0.207767 4:0.505202 5:0.600601 6:-0.250909 7:-0.785408 8:-0.0987433 9:0.0428571 
-0.5546546982519838 0.5262209007572575 0 0.1725048394850458 1:0.805226 2:-0.750469 3:0.215534 4:0.986127 5:0.273273 6:-0.432727 7:0.862661 8:-0.482944 
-0 0 0.05602222066207786 0 1:0.805226 2:-0.750469 3:0.184466 4:0.986127 5:0.261261 6:-0.486061 7:0.854077 8:-0.482944 9:-0.0047619 
-0 0 0 1.830367054766129 1:0.805226 2:-0.196998 3:0.238835 4:0.974566 5:0.408408 6:-0.187879 7:0.819742 8:-0.292639 9:0.159524 
-0 1.672115889751006 0 0 1:0.814727 2:-0.17636 3:0.231068 4:0.972254 5:0.402402 6:-0.187879 7:0.854077 8:-0.281867 9:0.164286 
-0 0 3.070598156536227 0 1:0.814727 2:-0.168856 3:0.231068 4:0.979191 5:0.402402 6:-0.18303 7:0.854077 8:-0.281867 9:0.164286 
-0.4195471653030183 0 0 0 1:0.786223 2:-0.198874 3:0.219417 4:0.96763 5:0.381381 6:-0.2 7:0.83691 8:-0.292639 9:0.147619 
-0.02816560082203108 0 0 0 1:0.786223 2:-0.198874 3:0.219417 4:0.96763 5:0.381381 6:-0.202424 7:0.83691 8:-0.29982 9:0.147619 
-0 1.346503819688589 0 2.17162038981267 1:0.60095 2:-1 3:-0.153398 4:0.537572 5:-0.135135 6:-0.949091 7:-0.553648 8:-0.766607 9:-0.32381 
-0 0 0 0.1223580003595913 1:0.619952 2:-0.849906 3:-0.137864 4:0.521387 5:-0.135135 6:-0.883636 7:-0.545064 8:-0.701975 9:-0.297619 
-0 0 0 15.23656311928777 1:-0.334917 2:0.407129 3:0.370874 4:-0.514451 5:0.03003 6:-0.0836364 7:-0.27897 8:0.202873 9:0.0785714 
-0 31.44485334827299 0 0 1:-0.330166 2:0.532833 3:0.405825 4:-0.468208 5:0.177177 6:-0.0109091 7:-0.270386 8:0.249551 9:0.17619 
-0 0 0 9.512692218536046 1:-0.344418 2:0.470919 3:0.316505 4:-0.45896 5:0.0750751 6:-0.0836364 7:-0.347639 8:0.113106 9:0.0833333 
-5.229090854591661 0 0 0 1:-0.36342 2:0.354597 3:0.28932 4:-0.424277 5:0.033033 6:-0.115152 7:-0.356223 8:0.0628366 9:0.05 
-1.885636430395462 0 0 0 1:-0.0308789 2:-0.313321 3:0.0213592 4:0.169942 5:-0.174174 6:-0.609697 7:-0.476395 8:-0.4614 9:-0.278571 
-0 0 0 17.73216158602944 1:0.0023753 2:-0.300188 3:0.0291262 4:0.169942 5:-0.189189 6:-0.609697 7:-0.433476 8:-0.454219 9:-0.278571 
-0 2.902700798708297 0 0 1:-0.667458 2:-0.296435 3:-0.149515 4:-0.417341 5:-0.510511 6:-0.878788 7:-0.725322 8:-0.508079 9:-0.509524 
-1.404988102264999 0 0 0 1:-0.686461 2:-0.27955 3:-0.0679612 4:-0.292486 5:-0.432432 6:-0.82303 7:-0.76824 8:-0.633752 9:-0.47619 
-0 0.6616679534233221 0 0 1:-0.605701 2:-0.270169 3:-0.0679612 4:-0.287861 5:-0.447447 6:-0.830303 7:-0.725322 8:-0.587074 9:-0.490476 
-0 0 0 4.789908243911802 1:-0.605701 2:-0.281426 3:-0.0796117 4:-0.287861 5:-0.492492 6:-0.832727 7:-0.725322 8:-0.587074 9:-0.507143 
-0.4410235849218984 0 0 1.531501089022014 1:-0.543943 2:-0.0731707 3:0.0330097 4:-0.301734 5:-0.36036 6:-0.655758 7:-0.733906 8:-0.375224 9:-0.380952 
-0 0 14.65218367949764 0 1:0.0308789 2:0.624765 3:0.475728 4:0.465896 5:0.234234 6:1 7:-0.536481 8:0.605027 9:0.77619 
-0 0.1697705709684373 0 0 1:0.254157 2:0.318949 3:-0.891262 4:0.72948 5:-0.75976 6:-0.745455 7:-0.682403 8:-0.0664273 9:-0.62381 
-0 1.89655410614804 0 0 1:0.287411 2:0.358349 3:-0.937864 4:0.74104 5:-0.84985 6:-0.764848 7:-0.613734 8:0.02693 9:-0.633333 
-0 0 13.34378123921688 0 1:0.173397 2:0.322702 3:0.180583 4:0.380347 5:0.489489 6:-0.255758 7:-0.811159 8:-0.102334 9:0.052381 
-0 0 19.30350590065654 0 1:0.187648 2:0.639775 3:0.157282 4:0.371098 5:0.396396 6:-0.192727 7:-0.811159 8:0.0664273 9:0.0785714 
-0 0 1.947120543059005 0 1:0.553444 2:-0.688555 3:-0.157282 4:0.442775 5:-0.126126 6:-0.806061 7:-0.630901 8:-0.630162 9:-0.264286 
-0 0 15.46562152230247 0 1:-0.301663 2:0.418386 3:0.250485 4:-0.523699 5:-0.018018 6:-0.141818 7:-0.339056 8:0.145422 9:0.0261905 
-0 0 28.33695698454832 1.592606134547036 1:0.0356295 2:-0.183865 3:0.0330097 4:0.0219653 5:-0.222222 6:-0.556364 7:-0.381974 8:-0.278276 9:-0.269048 
-0 0 2.765192443702336 0 1:-0.0973872 2:0.709193 3:0.227184 4:-0.158382 5:0.00600601 6:0.694545 7:-0.055794 8:0.314183 9:0.240476 
-0.2611555132130357 0 0 0 1:0.064133 2:0.624765 3:0.848544 4:0.435838 5:0.354354 6:1 7:-0.175966 8:0.583483 9:0.928571 
-0 0 0 0.8175786968897837 1:0.064133 2:0.624765 3:0.848544 4:0.435838 5:0.354354 6:1 7:-0.175966 8:0.590664 9:0.928571 
-0 1.754928341847106 0 0 1:0.0688836 2:0.624765 3:0.786408 4:0.440462 5:0.354354 6:1 7:-0.167382 8:0.601436 9:0.897619 
-0.06937870588255689 0 0 0 1:0.396675 2:0.600375 3:-1 4:0.646243 5:-0.867868 6:-0.641212 7:-0.562232 8:0.166966 9:-0.561905 
-0 0 0 2.30826118109758 1:0.36342 2:0.589118 3:-0.902913 4:0.523699 5:-0.873874 6:-0.629091 7:-0.519313 8:0.174147 9:-0.52381 
-0 0 11.28788462597182 0 1:0.173397 2:0.484053 3:-0.607767 4:0.523699 5:-0.528529 6:-0.529697 7:-0.579399 8:0.00179533 9:-0.371429 
-0 0 23.24788014337651 0 1:0.315914 2:0.662289 3:0.223301 4:0.310983 5:0.237237 6:-0.166061 7:-0.587983 8:0.271095 9:0.0642857 
-0 0 32 0 1:0.315914 2:0.658537 3:0.207767 4:0.308671 5:0.222222 6:-0.175758 7:-0.596567 8:0.271095 9:0.052381 
-0 0 0.789426172306718 0 1:0.353919 2:0.65666 3:0.18835 4:0.313295 5:0.186186 6:-0.175758 7:-0.596567 8:0.271095 9:0.0261905 
-0.03703849723478902 0.1502498828450055 0 0 1:0.990499 2:-0.0300188 3:0.219417 4:0.750289 5:0.0690691 6:-0.226667 7:1 8:0.070018 9:0.0428571 
-0 0 0 0.8849889143791914 1:1 2:-0.0225141 3:0.184466 4:0.734104 5:0.027027 6:-0.229091 7:0.982833 8:0.070018 9:0.0309524 
-0.1055706872576733 0 0 0 1:0.976247 2:-0.0731707 3:0.165049 4:0.722543 5:-0.018018 6:-0.236364 7:0.974249 8:0.070018 9:0.0047619 
-0 0 1.042063429426008 0 1:0.415677 2:-0.574109 3:-0.0291262 4:0.304046 5:-0.0570571 6:-0.706667 7:-0.519313 8:-0.536804 9:-0.17619 
-0 0 12.55074128319657 0 1:-0.325416 2:0.452158 3:0.258252 4:-0.713295 5:-0.0780781 6:-0.139394 7:-0.399142 8:0.267504 9:0.0190476 
-0 0 0 4.855887012556482 1:-0.249406 2:0.688555 3:0.149515 4:-0.861272 5:-0.183183 6:-0.134545 7:-0.347639 8:0.56553 9:-0.0285714 
-0 6.330576518352827 0 0 1:-0.0831354 2:-0.238274 3:0.00970874 4:-0.0473988 5:-0.252252 6:-0.568485 7:-0.44206 8:-0.357271 9:-0.259524 
-0 0 2.512369594820661 0 1:-0.567696 2:-0.0994371 3:-0.176699 4:-0.630058 5:-0.663664 6:-0.76 7:-0.939914 8:-0.163375 9:-0.521429 
-0 -0 0 13.95065596293408 1:-0.2019 2:0.249531 3:-0.227184 4:-0.160694 5:0.363363 6:-0.631515 7:0.167382 8:0.335727 9:-0.833333 
-0 -0 0 14.97263460926426 1:-0.192399 2:0.621013 3:-0.231068 4:0.0150289 5:0.027027 6:-0.435152 7:-0.107296 8:0.56912 9:-0.338095 
-0 -3.20461817607698 4.344846682705776 32 1:-0.19715 2:0.621013 3:-0.227184 4:0.00115607 5:0.03003 6:-0.432727 7:-0.11588 8:0.561939 9:-0.328571 
-0 -0 0 32 1:-0.19715 2:0.621013 3:-0.227184 4:0.00115607 5:0.03003 6:-0.435152 7:-0.11588 8:0.561939 9:-0.328571 
-0 -0 12.08285125009548 0 1:0.102138 2:-0.181989 3:-0.716505 4:0.486705 5:-0.696697 6:-0.990303 7:-0.296137 8:-0.508079 9:-0.77381 
-0 -3.937933869836081 0.5914602259544375 4.872243909576918 1:0.00712589 2:-0.268293 3:-0.627184 4:0.491329 5:-0.657658 6:-0.978182 7:-0.44206 8:-0.597846 9:-0.75 
-2.531921462531753 -0 0 0 1:-0.239905 2:0.538462 3:0.382524 4:0.0890173 5:0.411411 6:0.0981818 7:0.055794 8:0.393178 9:0.292857 
-0 -0 1.180237598498032 0 1:-0.235154 2:0.585366 3:0.351456 4:0.0265896 5:0.393393 6:0.0836364 7:-0.00429185 8:0.368043 9:0.283333 
-0 -0 5.034011153045086 0 1:-0.220903 2:0.587242 3:0.370874 4:0.0104046 5:0.399399 6:0.0884848 7:0.00429185 8:0.371634 9:0.285714 
-2.625239133477535 -0 0 0 1:0.368171 2:-0.478424 3:0.642718 4:0.491329 5:0.576577 6:-0.0666667 7:0.871245 8:-0.820467 9:0.259524 
-0 -0 0.3823107171265308 3.077394513844382 1:0.368171 2:-0.397749 3:0.642718 4:0.495954 5:0.57958 6:-0.0569697 7:0.879828 8:-0.806104 9:0.259524 
-0 -1.360459922601471 0 0 1:0.382423 2:-0.420263 3:0.642718 4:0.493642 5:0.585586 6:-0.0642424 7:0.888412 8:-0.795332 9:0.264286 
-0 -0 9.595377468554569 0 1:0.0213777 2:-0.341463 3:0.36699 4:-0.0890173 5:0.186186 6:-0.389091 7:-0.356223 8:-0.766607 9:-0.00952381 
-0 -0 0 14.7880299479542 1:0.0213777 2:-0.348968 3:0.359223 4:-0.10289 5:0.144144 6:-0.403636 7:-0.356223 8:-0.788151 9:-0.0190476 
-0 -1.998940356425414 0 0 1:0.0261283 2:-0.380863 3:0.36699 4:-0.0959538 5:0.171171 6:-0.410909 7:-0.390558 8:-0.806104 9:-0.0285714 
-9.19612715625596 -0 0 0 1:-0.444181 2:0.170732 3:0.537864 4:-0.34104 5:0.369369 6:-0.0957576 7:-0.0729614 8:-0.364452 9:0.188095 
-0 -0 0 14.7348754939364 1:-0.453682 2:0.165103 3:0.421359 4:-0.366474 5:0.285285 6:-0.178182 7:-0.270386 8:-0.439856 9:0.104762 
-0 -1.943534025872734 0 32 1:-0.847981 2:0.138837 3:0.61165 4:-0.83815 5:-0.153153 6:-0.21697 7:-0.562232 8:-0.572711 9:-0.047619 
-0 -0 0 17.34961158593774 1:-0.824228 2:0.121951 3:0.6 4:-0.93526 5:-0.171171 6:-0.233939 7:-0.570815 8:-0.551167 9:-0.0714286 
-9.896667714052521 -0 0 0 1:-0.349169 2:0.150094 3:-0.316505 4:-0.315607 5:0.273273 6:-0.692121 7:0.00429185 8:0.263914 9:-0.914286 
-0 -1.241656038922322 0.1419484155870227 0 1:-0.206651 2:0.624765 3:-0.413592 4:-0.0705202 5:-0.108108 6:-0.444848 7:-0.150215 8:0.759425 9:-0.402381 
-9.094643880587265 -0 0 0 1:-0.0783848 2:-0.407129 3:0.382524 4:-0.209249 5:0.18018 6:-0.401212 7:-0.296137 8:-0.820467 9:-0.0285714 
-0 -0 0 1.602432315514389 1:-0.472684 2:0.234522 3:0.308738 4:-0.42659 5:0.213213 6:-0.197576 7:-0.261803 8:-0.411131 9:0.0857143 
-0 -0 11.22114166938555 0 1:-0.501188 2:0.253283 3:0.273786 4:-0.440462 5:0.189189 6:-0.209697 7:-0.296137 8:-0.385996 9:0.0809524 
-0 -0 0 6.309397047218714 1:-0.496437 2:0.251407 3:0.285437 4:-0.440462 5:0.192192 6:-0.209697 7:-0.296137 8:-0.393178 9:0.0809524 
-0 -0 0 32 1:-0.486936 2:0.253283 3:0.28932 4:-0.440462 5:0.195195 6:-0.207273 7:-0.287554 8:-0.393178 9:0.0857143 
-0.9103129685086191 -0 0 0 1:-0.833729 2:0.054409 3:0.627184 4:-1 5:-0.189189 6:-0.253333 7:-0.562232 8:-0.554758 9:-0.107143 
-15.76226502554911 -0.8815210719932234 0 32 1:-0.833729 2:0.0619137 3:0.638835 4:-0.817341 5:-0.177177 6:-0.246061 7:-0.545064 8:-0.51167 9:-0.097619 
-1.152316150898572 -0 0 0 1:-0.2019 2:0.624765 3:-0.300971 4:-0.146821 5:-0.0930931 6:-0.362424 7:0.0815451 8:0.974865 9:-0.330952 
-0 -0 3.258597511923047 0 1:-0.0736342 2:-0.0150094 3:-0.68932 4:0.186127 5:-0.747748 6:-0.922424 7:-0.27897 8:-0.51167 9:-0.695238 
-0 -0.08428156367804147 0 23.20485268508714 1:-0.12114 2:-0.0919325 3:-0.615534 4:0.13526 5:-0.657658 6:-0.898182 7:-0.253219 8:-0.547576 9:-0.638095 
-0 -3.386791707921784 0 0 1:-0.130641 2:-0.0938086 3:-0.619417 4:0.132948 5:-0.663664 6:-0.900606 7:-0.261803 8:-0.547576 9:-0.640476 
-0 -20.62304678943788 0 0 1:-0.311164 2:0.660413 3:0.332039 4:-0.165318 5:0.435435 6:0.0715152 7:-0.107296 8:0.382406 9:0.257143 
-0 -0 0 2.689673396503872 1:-0.230404 2:0.65666 3:0.390291 4:-0.202312 5:0.453453 6:0.117576 7:0.0128755 8:0.382406 9:0.309524 
-0 -0 0 2.160390011567587 1:-0.239905 2:0.666041 3:0.386408 4:-0.206936 5:0.435435 6:0.110303 7:-0.0386266 8:0.378815 9:0.297619 
-0 -0 0 29.80067935254023 1:0.159145 2:-0.131332 3:0.479612 4:0.213873 5:0.303303 6:-0.0909091 7:0.845494 8:-0.666068 9:0.197619 
-0 -0 0 5.97839278736865 1:-0.182898 2:0.144465 3:0.363107 4:-0.620809 5:0.177177 6:-0.260606 7:-0.261803 8:-0.0233393 9:0.05 
-0 -14.28805648097805 24.85411987465257 0 1:-0.211401 2:0.11257 3:0.363107 4:-0.620809 5:0.177177 6:-0.260606 7:-0.304721 8:-0.0448833 9:0.0357143 
-0 -2.800648403121476 0 0 1:-0.410926 2:0.527205 3:0.52233 4:-1 5:0.327327 6:-0.0424242 7:0.107296 8:0.29623 9:0.264286 
-0 -0 0 7.807902224287383 1:-0.429929 2:0.545966 3:0.557282 4:-1 5:0.369369 6:-0.0278788 7:0.158798 8:0.332136 9:0.283333 
-0 -19.10890014542359 -0 0 1:-0.0831354 2:0.600375 3:0.0601942 4:-0.0450867 5:0.159159 6:0.813333 7:-0.00429185 8:0.29623 9:-0.00952381 
-0 -0 -1.063575366604805 0 1:-0.0831354 2:0.602251 3:0.0679612 4:-0.0427746 5:0.168168 6:0.815758 7:0.0128755 8:0.307002 9:-0.00952381 
-0 -32 -0 0 1:0.159145 2:0.624765 3:0.0407767 4:0.380347 5:0.138138 6:0.345455 7:-0.390558 8:0.518851 9:0.133333 
-0 -25.48947476902689 -0 0 1:0.182898 2:0.624765 3:0.0368932 4:0.401156 5:0.189189 6:0.26303 7:-0.364807 8:0.536804 9:0.178571 
-0 -32 -0 0 1:0.182898 2:0.624765 3:0.0368932 4:0.401156 5:0.189189 6:0.26303 7:-0.381974 8:0.536804 9:0.154762 
-0.07324055570224774 -0 -0 0 1:0.244656 2:0.624765 3:-0.106796 4:0.445087 5:0.135135 6:0.345455 7:-0.356223 8:0.61939 9:0.0857143 
-0.04918778971794767 -0 -0 0 1:0.192399 2:0.624765 3:-0.0990291 4:0.45896 5:0.123123 6:0.333333 7:-0.527897 8:0.561939 9:0.0714286 
-0.9565309919189044 -0 -0 0 1:0.287411 2:-0.0900563 3:-0.429126 4:0.560694 5:-0.708709 6:-0.82303 7:-0.124464 8:-0.436266 9:-0.590476 
-0 -6.355171671575929 -0 0 1:0.320665 2:-0.0806754 3:-0.429126 4:0.565318 5:-0.726727 6:-0.82303 7:-0.124464 8:-0.389587 9:-0.57619 
-0 -5.741769681930877 -13.62197670846264 8.825605802411298 1:0.235154 2:-0.0956848 3:-0.487379 4:0.532948 5:-0.747748 6:-0.864242 7:-0.304721 8:-0.472172 9:-0.609524 
-0 -4.644856860059609 -0 0 1:0.216152 2:0.968105 3:0.223301 4:0.0635838 5:0.324324 6:-0.0690909 7:-0.347639 8:0.368043 9:0.154762 
-0 -32 -0 0 1:0.19715 2:0.953096 3:0.223301 4:0.0635838 5:0.315315 6:-0.0690909 7:-0.356223 8:0.364452 9:0.142857 
-0 -32 -0 0 1:0.2019 2:0.968105 3:0.203883 4:0.049711 5:0.309309 6:-0.0690909 7:-0.347639 8:0.364452 9:0.135714 
-0 -0 -0 2.992281740393724 1:0.2019 2:1 3:0.215534 4:0.049711 5:0.309309 6:-0.0690909 7:-0.339056 8:0.368043 9:0.135714 
-1.715880572652156 -0 -0 8.724428891052002 1:0.225653 2:0.116323 3:0.0951456 4:0.338728 5:0.336336 6:-0.418182 7:-0.545064 8:-0.29623 9:-0.0333333 
-0 -32 -0 0 1:0.235154 2:0.288931 3:0.0446602 4:0.338728 5:0.309309 6:-0.362424 7:-0.579399 8:-0.174147 9:-0.0214286 
-0 -0 -0 0.12169606159419 1:0.482185 2:0.532833 3:-0.0524272 4:0.428902 5:0.276276 6:-0.170909 7:0.390558 8:-0.0520646 9:0.2 
-0 -3.811409224088786 -0 0 1:-0.106888 2:0.0206379 3:0.11068 4:-0.213873 5:-0.03003 6:-0.379394 7:-0.493562 8:-0.281867 9:-0.052381 
-0 -6.963493242102454 -0 0 1:-0.130641 2:0.0356473 3:0.126214 4:-0.218497 5:-0.00600601 6:-0.345455 7:-0.484979 8:-0.285458 9:-0.0285714 
-0 -3.932402063384671 -0 0 1:-0.168646 2:0.189493 3:0.137864 4:-0.218497 5:0.0660661 6:-0.246061 7:-0.519313 8:-0.228007 9:0.0428571 
-0 -2.759611567429045 -0 0 1:0.125891 2:0.174484 3:0.464078 4:-0.828902 5:-0.336336 6:-0.267879 7:-0.321888 8:0.608618 9:-0.135714 
-0 -10.28401782039291 -8.401169182501357 8.288661736819373 1:-0.315914 2:0.257036 3:0.35534 4:-0.821965 5:-0.255255 6:-0.461818 7:-0.244635 8:0.450628 9:-0.311905 
-2.439328069688966 -0 -0 0 1:-0.320665 2:0.266417 3:0.332039 4:-0.840462 5:-0.291291 6:-0.473939 7:-0.236052 8:0.4614 9:-0.335714 
-0.3233937561762451 -0 -1.24311259911691 0 1:-0.144893 2:0.615385 3:0.254369 4:-0.213873 5:0.102102 6:0.992727 7:0.0815451 8:0.249551 9:0.0666667 
-0.1172228457837856 -0 -2.320401552154851 0 1:0.2019 2:0.142589 3:-0.739806 4:0.40578 5:-0.954955 6:-0.871515 7:-0.579399 8:-0.396768 9:-0.67381 
-0 -0.4965928173915136 -0 0 1:0.477435 2:0.688555 3:0.114563 4:0.197688 5:0.297297 6:-0.0521212 7:0.467811 8:0.123878 9:0.292857 
-6.393704662687592 -0 -25.50297722687199 31.90800372447744 1:-0.19715 2:0.106942 3:0.27767 4:-0.253179 5:0.207207 6:-0.209697 7:-0.450644 8:-0.360862 9:0.116667 
-0 -0.6655006505437913 -0 0 1:0.239905 2:0.212008 3:0.553398 4:-0.798844 5:-0.279279 6:-0.231515 7:0.0128755 8:0.662478 9:-0.114286 
-0 -0.3814311682518871 -0 0 1:-0.249406 2:0.35272 3:0.790291 4:-1 5:0.327327 6:-0.153939 7:-0.296137 8:1 9:-0.00952381 
-0.3453977202502865 -0 -0 0 1:-0.0593824 2:0.707317 3:0.215534 4:-0.239306 5:0.00600601 6:0.992727 7:0.201717 8:0.382406 9:-0.0595238 
-0 -3.384863247919095 -0 0 1:-0.111639 2:0.705441 3:0.234951 4:-0.294798 5:-0.018018 6:0.992727 7:0.11588 8:0.332136 9:-0.0619048 
-0 -0 -0 3.776489949920079 1:-0.125891 2:0.705441 3:0.234951 4:-0.294798 5:-0.018018 6:0.992727 7:0.133047 8:0.332136 9:-0.0619048 
-0 -14.34631470095998 -0 0 1:0.2019 2:0.624765 3:-0.0757282 4:0.276301 5:-0.027027 6:0.473939 7:-0.630901 8:0.533214 9:0.0666667 
-0 -3.136026529614618 -0 0 1:0.301663 2:0.36773 3:-0.646602 4:0.280925 5:-0.993994 6:-0.718788 7:-0.450644 8:-0.206463 9:-0.585714 
-0 -32 -0 0 1:0.268409 2:0.553471 3:-0.0174757 4:0.109827 5:0.003003 6:-0.345455 7:-0.553648 8:0.0341113 9:-0.102381 
-0 -16.21465064132005 -0 0 1:0.268409 2:0.538462 3:-0.0174757 4:0.109827 5:0.003003 6:-0.347879 7:-0.553648 8:0.02693 9:-0.102381 
-0 -0 -3.100269092817157 1.672856219007951 1:0.496437 2:0.741088 3:0.227184 4:0.130636 5:0.396396 6:0.00363636 7:0.639485 8:0.220826 9:0.361905 
-0.9281732860083093 -0 -0 1.042516276876555 1:0.524941 2:0.776735 3:0.242718 4:0.128324 5:0.414414 6:0.0206061 7:0.716738 8:0.245961 9:0.390476 
-0 -0 -14.01702237981634 0 1:-0.154394 2:0.243902 3:0.231068 4:-0.442775 5:0.132132 6:-0.229091 7:-0.433476 8:-0.195691 9:0.102381 
-0 -18.2139051216073 -0 0 1:-0.0451306 2:0.369606 3:0.223301 4:-0.465896 5:0.021021 6:-0.209697 7:-0.339056 8:0.00179533 9:0.0857143 
-0 -0 -3.416398459182059 0 1:-0.182898 2:0.452158 3:0.871845 4:-1 5:0.408408 6:-0.0981818 7:-0.0643777 8:1 9:0.00714286 
-0.5399483235893258 -0 -0 11.09091880730995 1:-0.163895 2:0.470919 3:0.906796 4:-1 5:0.411411 6:-0.0836364 7:-0.0214592 8:1 9:0.0119048 
-0.3660110933396103 -0 -0 2.116272402999051 1:-0.244656 2:0.587242 3:0.242718 4:-0.877457 5:-0.363363 6:-0.476364 7:-0.0472103 8:0.89228 9:-0.407143 
-0.02687461797006796 -0 -0 -0 1:-0.315914 2:0.26454 3:0.172816 4:-0.322543 5:0.387387 6:-0.350303 7:0.150215 8:0.177738 9:-0.690476 
-7.250418802969765 -0 -0 -0 1:-0.320665 2:0.257036 3:0.161165 4:-0.322543 5:0.378378 6:-0.379394 7:0.133047 8:0.166966 9:-0.7 
-0 -0 -1.954606264861381 -0 1:-0.311164 2:0.26454 3:0.141748 4:-0.306358 5:0.387387 6:-0.406061 7:0.11588 8:0.184919 9:-0.719048 
-0 -0 -3.48848755222674 -0 1:-0.306413 2:0.26454 3:0.141748 4:-0.306358 5:0.387387 6:-0.406061 7:0.11588 8:0.184919 9:-0.716667 
-1.122104328230231 -0 -0 -0 1:-0.268409 2:0.534709 3:-0.165049 4:-0.0589595 5:0.045045 6:-0.481212 7:-0.0128755 8:0.357271 9:-0.371429 
-0 -0 -14.2929931055229 -0 1:-0.249406 2:0.549719 3:-0.223301 4:-0.0520231 5:0.00600601 6:-0.486061 7:-0.0472103 8:0.35009 9:-0.378571 
-0 -0 -32 -0 1:-0.249406 2:0.549719 3:-0.223301 4:-0.0520231 5:0.00600601 6:-0.486061 7:-0.0472103 8:0.35009 9:-0.378571 
-0 -0 -0.4136599700611317 -0 1:-0.244656 2:0.577861 3:-0.192233 4:-0.0289017 5:0.027027 6:-0.473939 7:-0.0386266 8:0.364452 9:-0.37381 
-0 -0 -32 -0 1:-0.244656 2:0.577861 3:-0.180583 4:-0.0289017 5:0.027027 6:-0.464242 7:-0.0300429 8:0.375224 9:-0.369048 
-0 -0 -0 -1.99745178524361 1:-0.0783848 2:-0.223265 3:-0.417476 4:0.239306 5:-0.624625 6:-0.830303 7:-0.484979 8:-0.691203 9:-0.609524 
-0.3275206233341419 -0 -22.44205373094383 -0 1:-0.106888 2:-0.234522 3:-0.436893 4:0.239306 5:-0.624625 6:-0.837576 7:-0.484979 8:-0.698384 9:-0.62381 
-0 -0 -0 -3.539612572496916 1:-0.04038 2:-0.27955 3:-0.464078 4:0.290173 5:-0.591592 6:-0.835152 7:-0.553648 8:-0.773788 9:-0.578571 
-0 -7.732789239113445 -0 -0 1:0.0308789 2:-0.307692 3:-0.258252 4:0.202312 5:-0.492492 6:-0.752727 7:-0.433476 8:-0.737882 9:-0.471429 
-0 -0 -0.03568456657707841 -0 1:0.311164 2:-0.232645 3:0.413592 4:0.509827 5:0.651652 6:-0.389091 7:-0.570815 8:-0.666068 9:-0.00238095 
-0 -2.569575209312167 -0 -0 1:0.311164 2:-0.0787992 3:0.398058 4:0.546821 5:0.57958 6:-0.345455 7:-0.579399 8:-0.547576 9:-0.0142857 
-0 -2.129408690543671 -0 -0 1:0.292162 2:-0.0863039 3:0.370874 4:0.523699 5:0.570571 6:-0.352727 7:-0.587983 8:-0.572711 9:-0.0285714 
-0 -1.589839098734199 -0 -0 1:0.292162 2:-0.0863039 3:0.370874 4:0.514451 5:0.567568 6:-0.352727 7:-0.60515 8:-0.576302 9:-0.0285714 
-0 -0 -5.307219598284657 -0 1:0.154394 2:-0.0225141 3:0.464078 4:0.109827 5:0.51952 6:-0.0375758 7:0.802575 8:-0.694794 9:0.32381 
-0 -0 -32 -0 1:0.144893 2:-0.0225141 3:0.464078 4:0.109827 5:0.51952 6:-0.0375758 7:0.793991 8:-0.694794 9:0.32381 
-1.479357555622898 -0 -0 -0 1:0.154394 2:-0.0318949 3:0.487379 4:0.116763 5:0.525526 6:-0.0206061 7:0.785408 8:-0.687612 9:0.32619 
-1.876492330080806 -2.71128516243952 -0.8017513945585307 -0 1:-0.467933 2:0.424015 3:0.561165 4:-0.558382 5:0.936937 6:-0.0812121 7:-0.373391 8:0.705566 9:0.328571 
-0 -5.371287463470003 -0 -0 1:-0.273159 2:0.371482 3:0.654369 4:-1 5:0.114114 6:0.180606 7:0.150215 8:0.788151 9:0.266667 
-0 -0 -7.116166894725859 -0 1:-0.263658 2:0.365854 3:0.658252 4:-1 5:0.129129 6:0.18303 7:0.150215 8:0.770197 9:0.264286 
-0 -18.24446883755829 -0 -0 1:-0.420428 2:0.285178 3:0.487379 4:-0.565318 5:-0.00600601 6:-0.221818 7:-0.622318 8:-0.238779 9:-0.0690476 
-0 -0 -0 -0.6892233711963233 1:-0.420428 2:0.196998 3:0.518447 4:-0.572254 5:-0.024024 6:-0.214545 7:-0.622318 8:-0.253142 9:-0.0571429 
-0 -0 -0 -14.95100356401435 1:-0.434679 2:0.227017 3:0.43301 4:-0.558382 5:0.021021 6:-0.21697 7:-0.579399 8:-0.357271 9:-0.00238095 
-0 -0 -0.2685687662233786 -0 1:-0.434679 2:0.249531 3:0.448544 4:-0.595376 5:0.0870871 6:-0.18303 7:-0.493562 8:-0.393178 9:0.0214286 
-0 -0 -32 -0 1:-0.453682 2:0.255159 3:0.448544 4:-0.604624 5:0.0870871 6:-0.192727 7:-0.51073 8:-0.411131 9:0.0214286 
-0 -0 -32 -0 1:-0.714964 2:0.131332 3:0.623301 4:-0.722543 5:-0.108108 6:-0.187879 7:-0.484979 8:-0.612208 9:-0.0404762 
-11.70937073125553 -0 -32 -0 1:-0.729216 2:0.118199 3:0.61165 4:-0.720231 5:-0.117117 6:-0.190303 7:-0.493562 8:-0.633752 9:-0.047619 
-0 -0 -29.48324297663324 -0 1:-0.724466 2:0.121951 3:0.61165 4:-0.720231 5:-0.117117 6:-0.190303 7:-0.493562 8:-0.630162 9:-0.0452381 
-19.94623181101565 -0 -0 -0 1:-0.387173 2:0.260788 3:0.0563107 4:-0.428902 5:0.24024 6:-0.403636 7:-0.133047 8:0.145422 9:-0.82381 
-0 -0 -20.23036410868657 -0 1:-0.178147 2:0.624765 3:-0.130097 4:-0.132948 5:-0.021021 6:-0.37697 7:-0.0472103 8:0.443447 9:-0.309524 
-0 -11.41200552875308 -0 -0 1:0.0736342 2:-0.266417 3:-0.118447 4:0.100578 5:-0.495495 6:-0.665455 7:-0.287554 8:-0.597846 9:-0.42381 
-0 -0 -0 -5.635735338180957 1:0.102138 2:-0.273921 3:-0.106796 4:0.0982659 5:-0.48048 6:-0.665455 7:-0.236052 8:-0.583483 9:-0.42381 
-11.94357779397744 -0 -0 -0 1:0.216152 2:-0.121951 3:0.502913 4:0.433526 5:0.588589 6:-0.265455 7:-0.476395 8:-0.594255 9:0.0619048 
-0 -0 -9.443075219076972 -0 1:0.192399 2:-0.118199 3:0.448544 4:0.410405 5:0.555556 6:-0.275152 7:-0.484979 8:-0.590664 9:0.0404762 
-0 -0 -0 -1.223306774503882 1:0.239905 2:0.0300188 3:0.43301 4:0.049711 5:0.516517 6:-0.0133333 7:0.879828 8:-0.62298 9:0.361905 
-0 -0 -9.912160973270069 -0 1:-0.515439 2:0.420263 3:0.52233 4:-0.646243 5:0.918919 6:-0.0933333 7:-0.390558 8:0.72711 9:0.316667 
-0 -0 -0 -10.06816385903023 1:-0.273159 2:0.395872 3:0.697087 4:-1 5:0.168168 6:0.175758 7:0.193133 8:0.906643 9:0.230952 
-0.8516719217162427 -0 -0 -0 1:-0.330166 2:0.403377 3:0.67767 4:-1 5:0.18018 6:0.185455 7:0.193133 8:0.917415 9:0.238095 
-0 -0 -0 -6.211757144525913 1:-0.349169 2:0.335835 3:0.425243 4:-0.597688 5:0.0750751 6:-0.178182 7:-0.339056 8:-0.339318 9:0.0357143 
-0 -0 -0 -0.08306375401466844 1:-0.296912 2:0.273921 3:0.0718447 4:-0.456647 5:0.234234 6:-0.398788 7:-0.0815451 8:0.181329 9:-0.857143 
-7.115915541730788 -0 -0 -0 1:-0.306413 2:0.27955 3:0.0796117 4:-0.482081 5:0.231231 6:-0.350303 7:0.11588 8:0.238779 9:-0.838095 
-0 -0 -0 -5.209221838069745 1:-0.130641 2:0.624765 3:0.0446602 4:-0.202312 6:-0.304242 7:0.0128755 8:0.421903 9:-0.245238 
-0 -0 -0 -7.536892984883193 1:-0.178147 2:0.624765 3:0.0213592 4:-0.269364 5:-0.027027 6:-0.294545 7:-0.0472103 8:0.411131 9:-0.252381 
-0 -14.95065351460376 -0 -0 1:-0.178147 2:0.624765 3:0.0213592 4:-0.267052 5:-0.027027 6:-0.289697 7:-0.0472103 8:0.414722 9:-0.252381 
-0 -0 -6.10913072188363 -0 1:0.140143 2:-0.330206 3:-0.133981 4:0.0473988 5:-0.486486 6:-0.677576 7:-0.227468 8:-0.626571 9:-0.430952 
-0 -0 -0 -18.8397982225321 1:0.149644 2:0.0469043 3:0.425243 4:0.320231 5:0.471471 6:-0.243636 7:-0.450644 8:-0.493716 9:0.0571429 
-0 -4.522738904938558 -0 -0 1:0.163895 2:0.0600375 3:0.464078 4:0.334104 5:0.483483 6:-0.2 7:-0.390558 8:-0.432675 9:0.0928571 
-0 -0.6180707903402899 -0 -0 1:0.391924 2:-0.0168856 3:0.615534 4:0.0358382 5:0.573574 6:0.0690909 7:0.905579 8:-0.572711 9:0.416667 
-0 -0 -0 -4.574500404169729 1:-0.344418 2:0.525328 3:0.553398 4:-0.662428 5:0.888889 6:-0.110303 7:-0.253219 8:0.849192 9:0.283333 
