svm_type c_svc
kernel_type rbf
gamma 0.5
nr_class 7
total_sv 236
rho 0.476776 0.417312 -0.311234 -0.157898 0.234217 0.0259352 0.570683 -0.086671 -0.292938 -0.0861051 -0.169185 -0.258698 -0.31031 -0.364146 -0.191019 -0.219012 0.373447 0.275442 0.457828 -0.308356 -0.86292
label 0 1 3 5 6 8 9
nr_sv 42 31 32 44 36 27 24
SV
0 0 0 0 0.325150314943157 0 1:0.461728 2:0.135659 3:-0.275974 4:0.175739 5:0.217877 6:-0.276297 7:-0.203791 8:-0.274725 9:-0.102459 
0 1.020196525684649 0 0 0 0 1:0.461728 2:0.0968992 3:-0.275974 4:0.172628 5:0.217877 6:-0.290323 7:-0.203791 8:-0.279121 9:-0.102459 
0 0 5.400797744858611 1.235039896989651 0 0 1:0.432099 2:0.100775 3:-0.288961 4:0.141524 5:0.217877 6:-0.287518 7:-0.21327 8:-0.279121 9:-0.122951 
0 0 0 0 0 5.238018014755242 1:0.37284 2:0.0968992 3:-0.279221 4:0.0544323 5:0.201117 6:-0.270687 7:-0.194313 8:-0.301099 9:-0.114754 
5.50660238822731 0 0 0 0 0 1:0.111111 2:-0.0503876 3:-0.425325 4:0.11353 5:0.0949721 6:-0.352034 7:-0.0236967 8:-0.578022 9:-0.0245902 
8 0 0 0 0 0 1:0.0814815 2:-0.0697674 3:-0.425325 4:0.088647 5:0.0782123 6:-0.360449 7:-0.0331754 8:-0.582418 9:-0.0122951 
0 3.918283580527858 0 0 0 0 1:0.42716 2:0.286822 3:-0.220779 4:0.337481 5:0.363128 6:-0.1669 7:0.184834 8:-0.41978 9:0.0901639 
3.246304132874178 8 0 0 0 0 1:0.437037 2:0.290698 3:-0.217532 4:0.337481 5:0.363128 6:-0.1669 7:0.184834 8:-0.41978 9:0.0942623 
0 0 2.396004475473493 0 0 0 1:-0.0271605 2:-0.131783 3:-0.324675 4:-0.225505 5:0.122905 6:-0.346424 7:-0.345972 8:-0.296703 9:-0.188525 
0 0 8 0 0 0 1:-0.0271605 2:-0.131783 3:-0.324675 4:-0.225505 5:0.122905 6:-0.346424 7:-0.345972 8:-0.296703 9:-0.188525 
0 0 8 0 0 0 1:-0.0271605 2:-0.131783 3:-0.324675 4:-0.225505 5:0.122905 6:-0.346424 7:-0.345972 8:-0.296703 9:-0.188525 
0 0 0 0 0 2.222202879295886 1:-0.0518519 2:-0.112403 3:-0.308442 4:-0.303266 5:0.122905 6:-0.323983 7:-0.317536 8:-0.301099 9:-0.192623 
0 0 0.4833077608161563 0 0 0 1:0.367901 2:0.236434 3:-0.237013 4:0.237947 5:0.346369 6:-0.189341 7:0.21327 8:-0.410989 9:0.0778689 
0 0 0 0 0.7382510128589368 0 1:0.34321 2:0.228682 3:-0.253247 4:0.225505 5:0.324022 6:-0.194951 7:0.21327 8:-0.41978 9:0.0778689 
0 0 0 0 8 0 1:0.34321 2:0.228682 3:-0.253247 4:0.225505 5:0.324022 6:-0.194951 7:0.21327 8:-0.415385 9:0.0778689 
0 0 1.736178711374794 0 0 0 1:0.34321 2:0.228682 3:-0.253247 4:0.225505 5:0.329609 6:-0.194951 7:0.21327 8:-0.415385 9:0.0778689 
0 0 0 0.6101744571207027 0 0 1:0.279012 2:0.178295 3:-0.24026 4:0.119751 5:0.357542 6:-0.211781 7:0.222749 8:-0.415385 9:0.0860656 
0 0 0 0 2.221784344983633 0 1:0.160494 2:0.0620155 3:-0.350649 4:0.0482115 5:0.223464 6:-0.228612 7:0.0805687 8:-0.41978 9:0.0655738 
0 0 0 8 0 8 1:-0.135802 2:-0.131783 3:-0.305195 4:-0.390358 5:0.0949721 6:-0.340813 7:-0.345972 8:-0.305495 9:-0.204918 
0 0 0 4.91151773361945 0 0 1:-0.140741 2:-0.155039 3:-0.311688 4:-0.418351 5:0.0949721 6:-0.349229 7:-0.35545 8:-0.314286 9:-0.204918 
0 0 0 0 0.4693102104201543 0 1:-0.269136 2:-0.251938 3:-0.324675 4:-0.511664 5:0.0446927 6:-0.360449 7:-0.412322 8:-0.296703 9:-0.229508 
0 0 8 0 0 0 1:-0.195062 2:-0.155039 3:-0.409091 4:-0.194401 5:0.162011 6:-0.354839 7:0.175355 8:-0.665934 9:-0.00409836 
0 0 0.839097623615065 0 0 0 1:-0.323457 2:-0.217054 3:-0.425325 4:-0.225505 5:0.178771 6:-0.380084 7:0.260664 8:-0.727473 9:0.0204918 
0 0 0 6.013632077346926 0 0 1:-0.604938 2:-0.5 3:-0.288961 4:-0.748056 5:0.0111732 6:-0.495091 7:-0.488152 8:-0.252747 9:-0.25 
0 0 1.05411055129149 0 0 0 1:-0.659259 2:-0.507752 3:-0.318182 4:-0.760498 5:-0.0111732 6:-0.503506 7:-0.507109 8:-0.252747 9:-0.266393 
0 0.7662179002321399 0 0 0 0 1:-0.530864 2:-0.302326 3:-0.467532 4:-0.275272 5:0.217877 6:-0.424965 7:0.421801 8:-0.793407 9:0.131148 
0 0 0 0.004304175855437205 0 0 1:-0.530864 2:-0.271318 3:-0.464286 4:-0.33437 5:0.26257 6:-0.42777 7:0.402844 8:-0.828571 9:0.131148 
0 0 0 0 0 7.951480775307202 1:-0.0222222 2:0.131783 3:-0.178571 4:-0.135303 5:0.329609 6:-0.15568 7:0.2891 8:-0.49011 9:0.0778689 
0 2.171553425101885 0 0 0 0 1:-0.0222222 2:0.120155 3:-0.198052 4:-0.0793157 5:0.346369 6:-0.1669 7:0.383886 8:-0.485714 9:0.131148 
0 0 0 0 1.13725241247047 0 1:-0.017284 2:0.108527 3:-0.224026 4:-0.088647 5:0.340782 6:-0.183731 7:0.374408 8:-0.476923 9:0.122951 
0 0 0.7426436412290146 0 0 0.22208860651742 1:-0.990123 2:-0.775194 3:-0.392857 4:-0.978227 5:-0.122905 6:-0.663394 7:-0.753555 8:-0.169231 9:-0.360656 
0 1.213342539398331 0 0 0.9797612314371476 0 1:-0.990123 2:-0.775194 3:-0.402597 4:-0.981337 5:-0.139665 6:-0.669004 7:-0.791469 8:-0.169231 9:-0.368852 
8 0 0 0 0 0 1:-0.876543 2:-0.755814 3:-0.383117 4:-0.956454 5:-0.122905 6:-0.657784 7:-0.772512 8:-0.156044 9:-0.360656 
0.2552546024631717 0 0 0 0 0 1:-0.876543 2:-0.74031 3:-0.386364 4:-0.953344 5:-0.122905 6:-0.654979 7:-0.772512 8:-0.16044 9:-0.360656 
0 0 0 0 0.8072599869379412 0 1:-0.412346 2:-0.27907 3:-0.506494 4:-0.278383 5:0.100559 6:-0.478261 7:0.336493 8:-0.938462 9:0.0983607 
8 0 0 0 0 0 1:-0.451852 2:-0.282946 3:-0.512987 4:-0.269051 5:0.139665 6:-0.486676 7:0.383886 8:-0.951648 9:0.131148 
8 0 0 0 0 0 1:-0.446914 2:-0.282946 3:-0.50974 4:-0.269051 5:0.139665 6:-0.483871 7:0.402844 8:-0.951648 9:0.131148 
7.114579367462372 0 0 0 0 0 1:-0.441975 2:-0.27907 3:-0.512987 4:-0.272162 5:0.145251 6:-0.481066 7:0.393365 8:-0.942857 9:0.135246 
8 0 0 0 0 0 1:-0.451852 2:-0.290698 3:-0.512987 4:-0.272162 5:0.145251 6:-0.486676 7:0.393365 8:-0.951648 9:0.131148 
8 0 0 0 0 0 1:-0.190123 2:-0.0697674 3:-0.392857 4:-0.144635 5:0.357542 6:-0.338008 7:0.421801 8:-0.525275 9:0.204918 
0 0 0.1348108842501242 5.282950396675584 0 0 1:-0.180247 2:-0.0658915 3:-0.392857 4:-0.144635 5:0.363128 6:-0.338008 7:0.421801 8:-0.520879 9:0.196721 
8 0 0 0 0 0 1:-0.150617 2:-0.0620155 3:-0.37987 4:-0.144635 5:0.368715 6:-0.340813 7:0.402844 8:-0.516484 9:0.209016 
-0 0 7.25746340412408 0 0 0 1:-0.204938 2:-0.368217 3:-0.522727 4:-0.281493 5:-0.0670391 6:-0.68864 7:-0.412322 8:-0.112088 9:-0.102459 
-0 0 0 0 2.574198458321166 0 1:-0.204938 2:-0.368217 3:-0.522727 4:-0.281493 5:-0.0670391 6:-0.68864 7:-0.402844 8:-0.112088 9:-0.0983607 
-0 1.027548081824122 0 5.521203076746874 0 0 1:-0.204938 2:-0.368217 3:-0.519481 4:-0.281493 5:-0.0614525 6:-0.68864 7:-0.402844 8:-0.112088 9:-0.0942623 
-0 0 0 0 0 3.116983227223327 1:-0.244444 2:-0.395349 3:-0.516234 4:-0.328149 5:-0.0670391 6:-0.674614 7:-0.402844 8:-0.112088 9:-0.0983607 
-7.748396971086257 0 0 0 0 0 1:-0.308642 2:-0.430233 3:-0.496753 4:-0.415241 5:-0.0726257 6:-0.71108 7:-0.459716 8:-0.125275 9:-0.106557 
-0 8 0 0 0 0 1:0.348148 2:0.0193798 3:-0.464286 4:0.349922 5:0.162011 6:-0.40533 7:0.270142 8:-0.432967 9:0.155738 
-0 0 7.65647281259002 2.335267999654363 8 3.203939749979368 1:0.293827 2:0.00775194 3:-0.464286 4:0.250389 5:0.167598 6:-0.41094 7:0.308057 8:-0.446154 9:0.106557 
-0 0 0 0 1.981569199778827 0 1:0.298765 2:0.0116279 3:-0.461039 4:0.250389 5:0.173184 6:-0.41094 7:0.327014 8:-0.441758 9:0.118852 
-4.616586907977156 0 0 0 0 0 1:0.387654 2:0.100775 3:-0.412338 4:0.399689 5:0.106145 6:-0.41655 7:0.222749 8:-0.661538 9:0.0163934 
-0 8 0.002628887066720166 0 0.7077168597454189 0.5283434511533489 1:0.619753 2:0.387597 3:-0.295455 4:0.716952 5:0.687151 6:-0.136045 7:0.867299 8:-0.336264 9:0.422131 
-0 2.791660947975083 0 0 0 0 1:0.555556 2:0.317829 3:-0.318182 4:0.636081 5:0.631285 6:-0.172511 7:0.848341 8:-0.336264 9:0.409836 
-0 0 0 0 0.6993217734767884 0 1:0.42716 2:0.267442 3:-0.331169 4:0.446345 5:0.553073 6:-0.189341 7:0.763033 8:-0.362637 9:0.364754 
-0 0 0 0.8712384122000856 0 0 1:0.0518519 2:-0.0930233 3:-0.49026 4:0.0637636 5:0.167598 6:-0.45021 7:0.488152 8:-0.534066 9:0.143443 
-0 0 0 0 0.2462921820443745 0 1:0.0222222 2:-0.108527 3:-0.49026 4:0.0606532 5:0.167598 6:-0.4446 7:0.507109 8:-0.52967 9:0.147541 
-0 0 0.7940308321281094 1.179967320006287 0 0 1:-0.0814815 2:-0.189922 3:-0.519481 4:0.0139969 5:0.145251 6:-0.472651 7:0.478673 8:-0.578022 9:0.118852 
-3.018700020715586 0 0 0 0 0 1:0.106173 2:-0.0271318 3:-0.454545 4:0.18196 5:0.0446927 6:-0.45582 7:0.279621 8:-0.78022 9:0.0163934 
-4.717158744756568 0 0 0 0 0 1:-0.802469 2:-0.968992 3:-0.590909 4:-0.894246 5:-0.162011 6:-0.924264 7:-0.772512 8:0.010989 9:-0.364754 
-5.325480518683573 0 0.297591501824593 0 0 0 1:-0.318519 2:-0.313953 3:-0.603896 4:-0.116641 5:0.0837989 6:-0.556802 7:0.402844 8:-0.881319 9:0.0942623 
-8 0 0 0 0 0 1:-0.328395 2:-0.317829 3:-0.61039 4:-0.119751 5:0.0726257 6:-0.559607 7:0.383886 8:-0.881319 9:0.0942623 
-1.570432832832636 0 0 0 0 0 1:-0.353086 2:-0.317829 3:-0.61039 4:-0.132193 5:0.0502793 6:-0.570827 7:0.374408 8:-0.89011 9:0.110656 
-8 0 0 0 0 0 1:-0.358025 2:-0.321705 3:-0.626623 4:-0.150855 5:0.0391061 6:-0.590463 7:0.327014 8:-0.885714 9:0.0983607 
-0 1.107444289197944 0.9317659768925886 0 0.2405679588845247 0.1298907589619101 1:-0.679012 2:-0.992248 3:-0.584416 4:-0.993779 5:-0.268156 6:-0.980365 7:-0.981043 8:0.116484 9:-0.516393 
-0 0 0 1.057908702438504 0 0 1:-0.659259 2:-0.972868 3:-0.564935 4:-0.993779 5:-0.212291 6:-0.966339 7:-0.905213 8:0.12967 9:-0.479508 
-5.563971192666256 0 0 0 0 0 1:-0.555556 2:-0.453488 3:-0.678571 4:-0.275272 5:0.027933 6:-0.71108 7:0.336493 8:-0.982418 9:0.131148 
-0 0 0.03368827085907732 0.05541058850486913 0 0.1964744267802681 1:-0.560494 2:-0.457364 3:-0.685065 4:-0.25972 5:0.0446927 6:-0.71669 7:0.440758 8:-1 9:0.127049 
-0 0.909545848658679 0 0 0 0 1:-0.560494 2:-0.476744 3:-0.685065 4:-0.25972 5:0.0391061 6:-0.71669 7:0.440758 8:-1 9:0.127049 
-3.707882071186147 0 0 0 0 0 1:-0.195062 2:-0.178295 3:-0.470779 4:-0.029549 5:0.150838 6:-0.559607 7:0.317536 8:-0.854945 9:0.184426 
-0 0 0.4895344933386914 1.279845014684351 0 0.5802515009339898 1:-0.0666667 2:0.0426357 3:-0.396104 4:0.0419907 5:0.452514 6:-0.329593 7:0.535545 8:-0.586813 9:0.385246 
-8 0 0 0 0 0 1:-0.116049 2:-0.00387597 3:-0.409091 4:0.0233281 5:0.435754 6:-0.349229 7:0.49763 8:-0.586813 9:0.393443 
-3.854131231122854 0 0 0 0 0 1:-0.116049 2:-0.0116279 3:-0.409091 4:0.0202177 5:0.435754 6:-0.354839 7:0.49763 8:-0.6 9:0.393443 
-8 0 0 0 0 0 1:-0.135802 2:-0.0232558 3:-0.415584 4:0.0202177 5:0.413408 6:-0.357644 7:0.488152 8:-0.626374 9:0.385246 
-0 -5.150253940529967 0 3.255096875728412 0 0 1:0.481481 2:0.170543 3:-0.467532 4:0.377916 5:0.251397 6:-0.259467 7:-0.0236967 8:0.142857 9:0.184426 
-0 -0 6.314218777642776 0 0 0 1:0.496296 2:0.170543 3:-0.467532 4:0.377916 5:0.256983 6:-0.256662 7:-0.0236967 8:0.142857 9:0.184426 
-6.400393021611308 -0 0 0 0 0 1:0.476543 2:0.186047 3:-0.444805 4:0.368585 5:0.251397 6:-0.192146 7:-0.0236967 8:0.125275 9:0.196721 
-0.03899033131718078 -6.607955208993106 0.385200985152167 0 0 0 1:1 2:0.348837 3:-0.292208 4:0.975117 5:0.441341 6:-0.206171 7:0.829384 8:-0.323077 9:0.237705 
-0 -0 0 0 0 0.5387703867869005 1:0.940741 2:0.403101 3:-0.0974026 4:0.847589 5:0.435754 6:-0.0434783 7:0.772512 8:-0.287912 9:0.229508 
-1.53492730003503 -0 0 0 0 0 1:0.916049 2:0.383721 3:-0.113636 4:0.816485 5:0.435754 6:-0.0434783 7:0.772512 8:-0.30989 9:0.229508 
-0 -0 0.130846057875592 0 0 0 1:0.916049 2:0.434109 3:-0.0584416 4:0.841369 5:0.50838 6:0.102384 7:0.876777 8:-0.314286 9:0.258197 
-0.3249471350577312 -0 0 0 0 0 1:0.975309 2:0.620155 3:0.172078 4:1 5:0.586592 6:0.301543 7:0.620853 8:-0.323077 9:0.27459 
-0 -3.074587890632441 0 0 0 0 1:0.703704 2:0.577519 3:0.0616883 4:0.878694 5:0.793296 6:0.175316 7:0.914692 8:-0.0813187 9:0.528689 
-0 -0 0 0 0 5.671865618339814 1:0.432099 2:0.267442 3:-0.438312 4:0.33126 5:0.167598 6:-0.130435 7:-0.0236967 8:0.151648 9:0.159836 
-0 -0 0 0 4.792876890618599 1.818141131529645 1:0.42716 2:0.267442 3:-0.425325 4:0.33126 5:0.212291 6:-0.105189 7:0.0236967 8:0.142857 9:0.180328 
-0 -0 0 0 8 0 1:0.402469 2:0.275194 3:-0.415584 4:0.325039 5:0.212291 6:-0.0715288 7:0.042654 8:0.134066 9:0.188525 
-0 -0 0 0 5.042145722325829 0 1:0.37284 2:0.352713 3:-0.217532 4:0.33126 5:0.27933 6:0.169705 7:0.184834 8:0.0681319 9:0.286885 
-0 -0 0 0 1.522448843432708 0.2344137896073604 1:0.688889 2:0.658915 3:0.113636 4:0.832037 5:0.843575 6:0.279102 7:0.943128 8:-0.0461538 9:0.512295 
-0 -0 0.04957591657361244 0 0 0 1:0.683951 2:0.658915 3:0.113636 4:0.828927 5:0.843575 6:0.279102 7:0.943128 8:-0.0505495 9:0.512295 
-0 -0 0 0 8 0 1:0.17037 2:0.410853 3:0.0974026 4:0.216174 5:0.284916 6:0.464236 7:0.488152 8:-0.032967 9:0.52459 
-0 -0 0 0 4.713041022319044 0 1:0.17037 2:0.410853 3:0.0974026 4:0.216174 5:0.284916 6:0.464236 7:0.488152 8:-0.0417582 9:0.52459 
-0 -0 0 0 4.923993522299999 0 1:0.180247 2:0.430233 3:0.136364 4:0.216174 5:0.240223 6:0.472651 7:0.450237 8:-0.0461538 9:0.512295 
-0 -0 0 0 3.767519571950686 0 1:0.501235 2:0.356589 3:-0.0227273 4:0.527216 5:0.234637 6:0.0350631 7:0.706161 8:-0.318681 9:0.237705 
-0 -0.7119118397820124 0 0 0 0 1:0.48642 2:0.356589 3:-0.0227273 4:0.527216 5:0.234637 6:0.0350631 7:0.706161 8:-0.327473 9:0.237705 
-0 -0 0 0 0.4628859608555619 0 1:0.402469 2:0.329457 3:0.0519481 4:0.437014 5:0.173184 6:0.0575035 7:0.592417 8:-0.323077 9:0.245902 
-0 -0 1.696769106537563 0 0 0 1:0.204938 2:0.193798 3:-0.038961 4:0.346812 5:0.0893855 6:-0.00140252 7:0.57346 8:-0.41978 9:0.266393 
-3.783668352278668 -0 0 0 0 0 1:0.2 2:0.170543 3:-0.0227273 4:0.315708 5:0.0558659 6:-0.0771388 7:0.440758 8:-0.441758 9:0.27459 
-0 -0 0 0 0 0.326264194703589 1:-0.00246914 2:0.294574 3:0.487013 4:0.0171073 5:-0.162011 6:0.307153 7:-0.0616114 8:-0.138462 9:0.557377 
-0 -0 0 1.282446751944314 0 0 1:0.0271605 2:0.00775194 3:-0.0746753 4:0.191291 5:-0.0670391 6:-0.189341 7:0.526066 8:-0.551648 9:0.418033 
-0 -6.291490287718305 0 0 0 0 1:0.0271605 2:0.00775194 3:-0.0746753 4:0.191291 5:-0.0670391 6:-0.189341 7:0.526066 8:-0.573626 9:0.418033 
-4.739820813396206 -0 0 0 0 0 1:0.165432 2:0.120155 3:0.0681818 4:0.225505 6:-0.178121 7:0.383886 8:-0.52967 9:0.315574 
-0 -0 0.484644204305603 0 0 0.982733495519617 1:0.150617 2:0.116279 3:0.0649351 4:0.209953 5:-0.0111732 6:-0.180926 7:0.383886 8:-0.52967 9:0.311475 
-0 -0 0 0 6.41399292287345 0 1:0.150617 2:0.116279 3:0.0649351 4:0.209953 5:-0.0111732 6:-0.178121 7:0.393365 8:-0.52967 9:0.315574 
-0 -0 0.157293606794006 0.2946688887736321 0 0.2402637659298407 1:0.249383 2:0.965116 3:1 4:0.508554 5:-0.0893855 6:0.966339 7:0.85782 8:-0.687912 9:1 
-0 -0 0.4386255328627424 0.3503248379409583 0 0 1:0.34321 2:0.922481 3:0.938312 4:0.561431 5:0.815642 6:1 7:0.772512 8:-0.226374 9:0.602459 
-0.2668470172487377 -0 0 0 0 0.4777569031414645 1:0.367901 2:0.937984 3:0.948052 4:0.561431 5:0.787709 6:1 7:0.734597 8:-0.226374 9:0.581967 
-0 -0 -0 0 4.637742391082514 0 1:0.48642 2:-0.0658915 3:-0.844156 4:-0.029549 5:0.122905 6:-0.725105 7:-0.232227 8:0.384615 9:-0.438525 
-0 -0.20234012461102 -0.3673851154276344 0 0 0 1:0.585185 2:-0.0465116 3:-0.824675 4:0.0264386 5:0.173184 6:-0.747546 7:-0.222749 8:0.441758 9:-0.393443 
-0 -0 -0 0 1.450573914252076 0 1:0.595062 2:-0.0271318 3:-0.805195 4:0.0139969 5:0.173184 6:-0.730715 7:-0.21327 8:0.450549 9:-0.393443 
-0 -0 -1.222057645446017 0 0 0 1:0.604938 2:-0.0348837 3:-0.795455 4:0.0108865 5:0.162011 6:-0.736325 7:-0.222749 8:0.459341 9:-0.401639 
-0 -0 -0 4.276292827129911 0 0 1:0.48642 2:-0.0658915 3:-0.795455 4:-0.066874 5:0.167598 6:-0.744741 7:-0.241706 8:0.432967 9:-0.422131 
-0 -4.524153686088901 -0 0 2.87034992200648 0 1:0.288889 2:-0.0310078 3:-0.558442 4:-0.216174 5:0.0111732 6:-0.461431 7:-0.109005 8:-0.446154 9:-0.311475 
-3.268342388670308 -0 -0 0 0 0 1:0.239506 2:-0.0116279 3:-0.535714 4:-0.247278 5:0.0167598 6:-0.45582 7:-0.146919 8:-0.441758 9:-0.344262 
-8 -0 -0 0 0 0 1:0.254321 2:-0.00775194 3:-0.532468 4:-0.244168 5:0.0223464 6:-0.45582 7:-0.137441 8:-0.432967 9:-0.327869 
-0.7157150288796813 -0 -0 0 0 0 1:0.264198 2:0.0658915 3:-0.301948 4:-0.399689 5:-0.111732 6:-0.45582 7:-0.118483 8:-0.00659341 9:-0.442623 
-0 -0 -0 0 0 7.636329529344786 1:0.101235 2:0.0542636 3:-0.334416 4:-0.359253 5:0.0335196 6:-0.419355 7:0.014218 8:-0.0945055 9:-0.438525 
-0 -0 -0 0.05024085315957541 0 8 1:0.106173 2:0.0542636 3:-0.334416 4:-0.359253 5:0.0335196 6:-0.41655 7:0.014218 8:-0.0681319 9:-0.438525 
-0 -0 -0 7.909189500191967 0 8 1:0.106173 2:0.0542636 3:-0.334416 4:-0.359253 5:0.0335196 6:-0.41655 7:0.014218 8:-0.0681319 9:-0.438525 
-0 -0 -0 8 0 8 1:0.106173 2:0.0542636 3:-0.331169 4:-0.359253 5:0.0335196 6:-0.41655 7:0.014218 8:-0.0681319 9:-0.438525 
-0 -0 -0 5.868038721489015 0 0 1:0.0864198 2:0.0232558 3:-0.337662 4:-0.393468 5:0.0167598 6:-0.42216 7:-0.0331754 8:-0.0945055 9:-0.446721 
-5.891176468038531 -0 -6.634118014072928 0 0 0 1:0.387654 2:0.213178 3:-0.366883 4:0.175739 5:0.49162 6:-0.211781 7:0.260664 8:-0.147253 9:-0.131148 
-0 -0 -0 0 0 5.920076993323737 1:0.387654 2:0.213178 3:-0.36039 4:0.175739 5:0.49162 6:-0.211781 7:0.2891 8:-0.142857 9:-0.131148 
-0 -0 -0 0 0 8 1:0.328395 2:0.170543 3:-0.357143 4:0.132193 5:0.49162 6:-0.217391 7:0.2891 8:-0.147253 9:-0.131148 
-0 -0 -0 0 0 8 1:0.308642 2:0.170543 3:-0.357143 4:0.132193 5:0.486034 6:-0.217391 7:0.2891 8:-0.147253 9:-0.131148 
-0 -0 -0 0 0 0.798612768896263 1:0.259259 2:0.170543 3:-0.363636 4:0.144635 5:0.458101 6:-0.237027 7:0.364929 8:-0.134066 9:-0.110656 
-0 -0 -0 0 7.430374082902716 0 1:0.283951 2:0.162791 3:-0.363636 4:0.157076 5:0.441341 6:-0.237027 7:0.364929 8:-0.116484 9:-0.127049 
-0 -1.380298812568037 -0.7864596809868809 0 8 0 1:0.288889 2:0.162791 3:-0.363636 4:0.160187 5:0.441341 6:-0.237027 7:0.364929 8:-0.116484 9:-0.122951 
-0 -0 -0 8 0 0 1:0.175309 2:-0.0775194 3:-0.525974 4:-0.300156 5:0.201117 6:-0.500701 7:0.0331754 8:-0.327473 9:-0.303279 
-0 -0 -0 8 0 0 1:0.101235 2:0.0348837 3:-0.402597 4:0.0419907 5:0.402235 6:-0.298738 7:0.270142 8:-0.134066 9:-0.168033 
-0 -0 -0 8 0 0 1:0.091358 2:0.0271318 3:-0.409091 4:0.0357698 5:0.402235 6:-0.301543 7:0.260664 8:-0.147253 9:-0.172131 
-0 -0 -0 8 0 0 1:0.0864198 2:0.0232558 3:-0.405844 4:0.0388802 5:0.402235 6:-0.304348 7:0.260664 8:-0.147253 9:-0.168033 
-0 -0 -0 0.01660553144479376 0 0 1:0.0864198 2:0.0232558 3:-0.402597 4:0.0388802 5:0.402235 6:-0.301543 7:0.260664 8:-0.147253 9:-0.168033 
-0 -4.731585624734118 -0 0 0 0 1:0.101235 2:-0.0310078 3:-0.415584 4:0.0948678 5:0.379888 6:-0.346424 7:0.232227 8:-0.169231 9:-0.143443 
-0 -0 -0 2.695219650872234 0 0 1:0.00246914 2:-0.186047 3:-0.454545 4:-0.685848 5:-0.134078 6:-0.548387 7:-0.393365 8:-0.125275 9:-0.67623 
-0 -0 -0 8 0 0 1:-0.17037 2:-0.155039 3:-0.418831 4:-0.0451011 5:0.402235 6:-0.354839 7:0.194313 8:-0.257143 9:-0.204918 
-0 -0 -0 0.3527935801088565 0 0 1:-0.195062 2:-0.147287 3:-0.412338 4:-0.0451011 5:0.396648 6:-0.349229 7:0.222749 8:-0.287912 9:-0.184426 
-0 -0 -0 8 0 0 1:-0.0567901 2:-0.244186 3:-0.525974 4:-0.40902 5:0.251397 6:-0.506311 7:-0.0805687 8:-0.367033 9:-0.42623 
-0 -0 -0 8 0 0 1:-0.0469136 2:-0.244186 3:-0.522727 4:-0.40902 5:0.251397 6:-0.506311 7:-0.0805687 8:-0.349451 9:-0.42623 
-0 -0 -0 0.9621359049932431 0 0 1:-0.0814815 2:-0.325581 3:-0.516234 4:-0.437014 5:0.268156 6:-0.500701 7:-0.21327 8:-0.397802 9:-0.516393 
-0 -0 -0 0 0 4.349362153394722 1:-0.37284 2:-0.267442 3:-0.412338 4:-0.132193 5:0.324022 6:-0.391304 7:-0.00473934 8:-0.353846 9:-0.254098 
-0 -0 -0 5.569818854615182 0 0 1:-0.382716 2:-0.286822 3:-0.415584 4:-0.147745 5:0.324022 6:-0.396914 7:-0.014218 8:-0.353846 9:-0.254098 
-0 -0 -0 8 0 0 1:-0.37284 2:-0.27907 3:-0.415584 4:-0.147745 5:0.318436 6:-0.396914 7:-0.014218 8:-0.353846 9:-0.254098 
-0 -0 -0 8 0 0 1:-0.37284 2:-0.27907 3:-0.415584 4:-0.147745 5:0.318436 6:-0.396914 7:-0.014218 8:-0.353846 9:-0.254098 
-0 -0 -0 1.204874686447702 0 0 1:-0.362963 2:-0.275194 3:-0.422078 4:-0.141524 5:0.307263 6:-0.40533 7:-0.0521327 8:-0.353846 9:-0.262295 
-2.50764452624754 -0 -0 0 0 0 1:-0.362963 2:-0.27907 3:-0.425325 4:-0.144635 5:0.290503 6:-0.408135 7:-0.0805687 8:-0.367033 9:-0.270492 
-0 -4.153242833548994 -0 0 0 0 1:-0.37284 2:-0.27907 3:-0.428571 4:-0.144635 5:0.290503 6:-0.408135 7:-0.0805687 8:-0.367033 9:-0.270492 
-3.340384832981719 -0 -0 0 0 0 1:-0.185185 2:-0.24031 3:-0.422078 4:-0.107309 5:0.24581 6:-0.396914 7:-0.118483 8:-0.323077 9:-0.290984 
-0.362905835682096 -2.471555097272811 -0.647153731810602 0 0.1757869524711123 0 1:0.0469136 2:-0.596899 3:-0.720779 4:-0.729393 5:-0.217877 6:-0.789621 7:-0.791469 8:0.331868 9:-0.930328 
-8 -0 -0 0 0 0 1:-0.269136 2:-0.271318 3:-0.418831 4:-0.150855 5:0.223464 6:-0.413745 7:-0.146919 8:-0.323077 9:-0.307377 
-4.700782312408872 -0 -0 0 0 0 1:-0.259259 2:-0.271318 3:-0.415584 4:-0.150855 5:0.223464 6:-0.408135 7:-0.146919 8:-0.305495 9:-0.307377 
-0.1704220422735065 -0 -0 -0 0 0 1:-0.0123457 2:-0.00387597 3:-0.782468 4:-0.371695 5:0.385475 6:-0.635344 7:-0.924171 8:0.749451 9:-0.713115 
-0 -0 -0.2491042967176057 -0 0 0.4775342053664178 1:0.0320988 2:0.00387597 3:-0.782468 4:-0.349922 5:0.396648 6:-0.635344 7:-0.895735 8:0.753846 9:-0.704918 
-0 -0 -0 -0 0.9359301533557719 0 1:0.0222222 2:-0.00775194 3:-0.792208 4:-0.346812 5:0.396648 6:-0.640954 7:-0.895735 8:0.753846 9:-0.696721 
-2.864588007390072 -3.167581726042543 -0 -8 1.169718653404308 4.100530812422478 1:-0.0518519 2:0.0581395 3:-0.551948 4:-0.384137 5:0.173184 6:-0.539972 7:0.137441 8:-0.49011 9:-0.241803 
-0 -0 -0 -0.185932947380168 0 0 1:-0.0518519 2:0.0620155 3:-0.551948 4:-0.384137 5:0.178771 6:-0.539972 7:0.137441 8:-0.49011 9:-0.241803 
-0 -0 -0 -8 0 0 1:-0.0419753 2:0.0348837 3:-0.555195 4:-0.377916 5:0.184358 6:-0.551192 7:0.014218 8:-0.463736 9:-0.315574 
-0 -0 -0 -8 0 0 1:-0.0518519 2:0.0232558 3:-0.558442 4:-0.390358 5:0.184358 6:-0.553997 7:0.014218 8:-0.468132 9:-0.303279 
-0 -0 -0 -3.441510175585438 0 0 1:-0.0518519 2:0.0271318 3:-0.558442 4:-0.390358 5:0.223464 6:-0.553997 7:0.0236967 8:-0.468132 9:-0.303279 
-0 -0 -0 -2.988591199686983 0 0 1:-0.145679 2:-0.147287 3:-0.474026 4:-0.486781 5:0.0949721 6:-0.697055 7:-0.194313 8:-0.2 9:-0.487705 
-0 -0 -0 -8 0 0 1:0.00246914 2:0.0155039 3:-0.454545 4:-0.0513219 5:0.351955 6:-0.464236 7:0.07109 8:-0.0549451 9:-0.196721 
-0 -0 -0 -8 0 0 1:-0.00740741 2:-0.00775194 3:-0.454545 4:-0.0730949 5:0.351955 6:-0.464236 7:0.07109 8:-0.0681319 9:-0.196721 
-0 -0 -0 -8 0 0 1:-0.017284 2:-0.00775194 3:-0.457792 4:-0.0730949 5:0.351955 6:-0.475456 7:0.07109 8:-0.0681319 9:-0.196721 
-0 -0 -0 -8 0 0 1:-0.017284 2:-0.0232558 3:-0.457792 4:-0.0855365 5:0.351955 6:-0.489481 7:0.07109 8:-0.0813187 9:-0.196721 
-0 -0 -0 -8 0 0 1:-0.0271605 2:-0.0232558 3:-0.457792 4:-0.0855365 5:0.351955 6:-0.489481 7:0.07109 8:-0.0813187 9:-0.196721 
-0 -5.566786795413186 -0 -0 0 0 1:-0.017284 2:-0.00775194 3:-0.454545 4:-0.0855365 5:0.357542 6:-0.475456 7:0.0900474 8:-0.0725275 9:-0.159836 
-0 -0 -0 -3.853166291270937 0 0 1:-0.017284 2:0.00387597 3:-0.454545 4:-0.0762053 5:0.363128 6:-0.464236 7:0.109005 8:-0.0681319 9:-0.159836 
-0 -0 -0 -8 0 0 1:-0.00246914 2:0.00387597 3:-0.448052 4:-0.0730949 5:0.368715 6:-0.464236 7:0.156398 8:-0.0549451 9:-0.147541 
-8 -0 -0 -0 0 0 1:-0.00246914 2:0.0155039 3:-0.454545 4:-0.0699844 5:0.368715 6:-0.469846 7:0.0900474 8:-0.0725275 9:-0.151639 
-0 -0 -4.239546217659702 -0 8 8 1:0.0567901 2:0.0658915 3:-0.444805 4:-0.0637636 5:0.379888 6:-0.453015 7:0.137441 8:-0.010989 9:-0.143443 
-0 -0 -0 -0 0.03668479984758365 5.863128872647614 1:0.0567901 2:0.0465116 3:-0.444805 4:-0.0637636 5:0.379888 6:-0.464236 7:0.137441 8:-0.0417582 9:-0.147541 
-0 -0 -0 -0 0 1.008769697604023 1:-0.244444 2:0.104651 3:-0.383117 4:-0.514774 5:0.418994 6:-0.42777 7:0.203791 8:-0.353846 9:-0.204918 
-0 -0 -0 -1.103108683164237 0 0 1:0.0567901 2:-0.189922 3:-0.727273 4:-0.772939 5:0.273743 6:-0.654979 7:-0.734597 8:0.753846 9:-0.790984 
-0 -0 -0 -0 0 0.7928839388969002 1:-0.185185 2:-0.0426357 3:-0.230519 4:-0.754277 5:0.273743 6:-0.402525 7:-0.0995261 8:-0.147253 9:-0.495902 
-0 -0 -0 -0 0 2.516068557140787 1:-0.111111 2:-0.0465116 3:-0.266234 4:-0.297045 5:0.50838 6:-0.371669 7:0.109005 8:0.0857143 9:-0.258197 
-5.233074646556354 -0 -0 -0 0 0 1:-0.441975 2:-0.178295 3:-0.181818 4:-0.800933 5:0.150838 6:-0.366059 7:-0.393365 8:-0.274725 9:-0.532787 
-0 -0 -0 -0.7101563762811202 0 0 1:-0.160494 2:-0.484496 3:-0.717532 4:-0.8507 5:0.24581 6:-0.767181 7:-0.962085 8:0.630769 9:-1 
-0.7653558982004836 -2.164123066023142 -0 -0 0 0 1:-0.308642 2:-0.542636 3:-0.717532 4:-0.872473 5:0.223464 6:-0.761571 7:-0.962085 8:0.6 9:-0.967213 
-0 -0 -0.6938868400100093 -0 0.5148211973777235 0 1:-0.308642 2:-0.542636 3:-0.720779 4:-0.878694 5:0.223464 6:-0.761571 7:-0.962085 8:0.6 9:-0.967213 
-0 -1.402349526756463 -0 -0 0 0 1:-0.353086 2:-0.310078 3:-0.292208 4:-0.62986 5:0.223464 6:-0.467041 7:-0.137441 8:-0.410989 9:-0.401639 
-8 -0 -0 -0 0 0 1:-0.308642 2:-0.286822 3:-0.282468 4:-0.623639 5:0.223464 6:-0.464236 7:-0.175355 8:-0.406593 9:-0.409836 
-1.024178143187335 -0 -0 -4.964607432977889 0 0 1:-0.298765 2:-0.294574 3:-0.262987 4:-0.623639 5:0.223464 6:-0.461431 7:-0.184834 8:-0.393407 9:-0.418033 
-0 -0 -0 -1.537819254020708 0 0 1:-0.422222 2:-0.248062 3:-0.100649 4:-0.648523 5:0.117318 6:-0.265077 7:-0.21327 8:-0.261538 9:-0.655738 
-0 -0 -0 -8 0 0 1:-0.422222 2:-0.248062 3:-0.100649 4:-0.648523 5:0.117318 6:-0.259467 7:-0.194313 8:-0.261538 9:-0.655738 
-0 -0 -0 -0 0 5.575303187980902 1:-0.461728 2:-0.24031 3:-0.0649351 4:-0.654743 5:0.173184 6:-0.211781 7:-0.137441 8:-0.265934 9:-0.618852 
-0 -0 -0 -7.729317355583232 0 0 1:-0.0962963 2:-0.27907 3:-0.211039 4:-0.265941 5:0.530726 6:-0.349229 7:0.109005 8:0.0769231 9:-0.356557 
-0 -0 -0 -2.391000394501769 0 0 1:-0.125926 2:-0.290698 3:-0.230519 4:-0.26283 5:0.547486 6:-0.346424 7:0.0995261 8:0.0857143 9:-0.413934 
-0 -0 -1.686527510693288 -5.100899729609378 -2.916532388125052 4.208494714916964 1:0.323457 2:0.135659 3:-0.88961 4:0.0357698 5:0.206704 6:-0.534362 7:-0.0521327 8:0.428571 9:-0.0491803 
-0 -0 -2.122231965619313 -0 -0 0 1:0.308642 2:0.127907 3:-0.909091 4:0.0699844 5:0.0837989 6:-0.537167 7:0.0236967 8:0.38022 9:-0.00409836 
-0 -0.04316013201397145 -0.3913256464091465 -0 -0 0 1:0.308642 2:0.108527 3:-0.948052 4:0.0233281 5:0.0726257 6:-0.598878 7:-0.0995261 8:0.375824 9:-0.0409836 
-0 -3.955045239952756 -0 -3.179696066592017 -5.174448289273747 0 1:0.204938 2:0.0116279 3:-0.75 4:0.00155521 5:-0.0391061 6:-0.41094 7:0.279621 8:-0.164835 9:-0.155738 
-0 -2.45776761126964 -0 -8 -0 0 1:0.224691 2:0.0116279 3:-0.733766 4:0.00777605 5:-0.0391061 6:-0.399719 7:0.279621 8:-0.164835 9:-0.147541 
-2.950194915673054 -0 -0 -0 -0 0 1:0.204938 2:0.0232558 3:-0.694805 4:-0.0108865 5:-0.0502793 6:-0.335203 7:0.2891 8:-0.208791 9:-0.0942623 
-0 -0 -0 -0 -0 4.415491186461412 1:0.22963 2:0.0736434 3:-0.685065 4:-0.0108865 5:-0.0502793 6:-0.343619 7:0.2891 8:-0.186813 9:-0.0901639 
-5.993778382796696 -4.394233992969149 -5.873364646218968 -0 -0 0 1:0.175309 2:0.124031 3:-0.386364 4:-0.0233281 5:-0.24581 6:-0.15007 7:0.279621 8:-0.428571 9:0.122951 
-0 -0 -0 -0 -0.1609669167314758 0 1:0.130864 2:0.116279 3:-0.340909 4:-0.0855365 5:-0.329609 6:-0.175316 7:0.241706 8:-0.41978 9:0.151639 
-0 -0 -0 -0 -0 2.020985667066375 1:0.550617 2:0.379845 3:-0.123377 4:0.312597 5:0.536313 6:-0.0406732 7:0.421801 8:0.134066 9:0.188525 
-0 -0 -0 -0 -0 8 1:0.545679 2:0.372093 3:-0.123377 4:0.306376 5:0.536313 6:-0.0406732 7:0.421801 8:0.125275 9:0.188525 
-0 -3.599459456045583 -0 -0.2842314665135018 -0 0 1:0.535802 2:0.372093 3:-0.123377 4:0.300156 5:0.52514 6:-0.0406732 7:0.421801 8:0.107692 9:0.188525 
-5.447742419066973 -0 -0 -8 -0 0 1:0.506173 2:0.372093 3:-0.123377 4:0.293935 5:0.52514 6:-0.0406732 7:0.421801 8:0.107692 9:0.188525 
-0 -0 -3.362540284777505 -0 -0 0 1:0.506173 2:0.383721 3:-0.0681818 4:0.293935 5:0.52514 6:0.026648 7:0.459716 8:0.107692 9:0.221311 
-0 -0 -8 -0 -0 0 1:0.461728 2:0.391473 3:-0.0454545 4:0.272162 5:0.52514 6:0.0546985 7:0.459716 8:0.0989011 9:0.25 
-0 -0 -0.02327425931524519 -0 -0 0 1:0.461728 2:0.391473 3:-0.0454545 4:0.269051 5:0.52514 6:0.0546985 7:0.440758 8:0.0989011 9:0.221311 
-0 -0 -0 -0 -2.054070136043932 0 1:0.461728 2:0.383721 3:-0.0454545 4:0.253499 5:0.52514 6:0.0546985 7:0.440758 8:0.0945055 9:0.221311 
-0 -0 -1.915183305676615 -0 -0 0 1:0.34321 2:0.457364 3:-0.00324675 4:0.125972 5:0.284916 6:0.183731 7:0.412322 8:-0.0285714 9:0.364754 
-0 -0 -8 -0 -0 0 1:0.34321 2:0.46124 3:-0.0227273 4:0.125972 5:0.26257 6:0.180926 7:0.383886 8:-0.0373626 9:0.352459 
-0 -0 -4.642227741551265 -0 -0 0 1:0.353086 2:0.46124 3:-0.0227273 4:0.132193 5:0.268156 6:0.180926 7:0.412322 8:-0.032967 9:0.356557 
-0 -0 -0 -0 -0 0.9731180277591731 1:0.244444 2:0.313953 3:-0.594156 4:-0.449456 5:-0.346369 6:-0.178121 7:0.0521327 8:0.116484 9:0.221311 
-0 -0 -8 -0 -0 0 1:0.328395 2:0.488372 3:0.00974026 4:0.107309 5:0.234637 6:0.253857 7:0.49763 8:-0.0857143 9:0.42623 
-0 -0 -0 -0 -0 0.3407506231744897 1:0.244444 2:0.139535 3:-0.0811688 4:-0.219285 5:-0.569832 6:0.14446 7:0.165877 8:-0.525275 9:0.213115 
-0 -0 -2.538651231378373 -0 -0 0 1:0.244444 2:0.511628 3:0.155844 4:-0.122862 5:-0.0893855 6:0.475456 7:0.327014 8:-0.287912 9:0.557377 
-0 -0 -0 -0 -0.3511370738111807 0 1:-0.037037 2:0.0813953 3:-0.285714 4:-0.7014 5:-0.938547 6:0.15568 7:0.0805687 8:-0.696703 9:0.266393 
-0.2870537965147182 -0 -0 -0 -0 0 1:0.279012 2:0.546512 3:0.214286 4:-0.169518 5:-0.0949721 6:0.553997 7:0.260664 8:-0.327473 9:0.540984 
-0 -0 -1.083577865036158 -0 -0 0 1:0.249383 2:0.565891 3:0.227273 4:-0.18196 5:-0.0837989 6:0.604488 7:0.35545 8:-0.323077 9:0.627049 
-0.13434842354491 -0 -0 -0 -0.2460818932375132 -0 1:0.550617 2:0.51938 3:-0.512987 4:-0.066874 5:0.603352 6:-0.12763 7:-0.914692 8:0.956044 9:-0.729508 
-0 -0 -0 -0 -0.03308423303780003 -0 1:0.550617 2:0.51938 3:-0.519481 4:-0.066874 5:0.614525 6:-0.12763 7:-0.914692 8:0.951648 9:-0.758197 
-0 -0 -0.4890196517702257 -0 -0 -0.2806973594232624 1:0.555556 2:0.515504 3:-0.525974 4:-0.0762053 5:0.653631 6:-0.110799 7:-0.914692 8:0.969231 9:-0.778689 
-8 -4.664021907656508 -0 -8 -8 -0 1:-0.2 2:0.0116279 3:-0.246753 4:-0.247278 5:0.167598 6:-0.335203 7:0.0900474 8:-0.226374 9:-0.29918 
-3.040074529846231 -0 -1.477247176189216 -8 -8 -4.182190003609023 1:-0.160494 2:0.0503876 3:-0.243506 4:-0.247278 5:0.167598 6:-0.298738 7:0.146919 8:-0.226374 9:-0.245902 
-0 -0 -0 -4.979104265032338 -3.21010348461765 -0 1:-0.0419753 2:0.139535 3:-0.237013 4:-0.290824 5:0.117318 6:-0.276297 7:0.156398 8:-0.213187 9:-0.262295 
-0 -0 -0 -8 -0 -0 1:-0.0419753 2:0.135659 3:-0.237013 4:-0.290824 5:0.106145 6:-0.276297 7:0.156398 8:-0.213187 9:-0.262295 
-8 -0.5994413323210767 -1.071497290645539 -5.91352612480125 -0 -0.3630442506146158 1:0.111111 2:0.155039 3:-0.214286 4:-0.284603 5:-0.0446927 6:-0.194951 7:-0.042654 8:-0.349451 9:-0.286885 
-1.12369033190447 -0 -0 -0 -0 -0 1:0.111111 2:0.155039 3:-0.214286 4:-0.287714 5:-0.0446927 6:-0.194951 7:-0.042654 8:-0.349451 9:-0.286885 
-0 -0 -5.392222816614717 -0 -0 -1.374379445697644 1:0.674074 2:0.406977 3:-0.149351 4:0.141524 5:0.335196 6:-0.183731 7:0.0995261 8:0.261538 9:-0.0614754 
-1.931678920471147 -0 -0.3408061650965563 -0 -0 -0 1:0.817284 2:0.395349 3:-0.266234 4:0.209953 5:0.351955 6:-0.239832 7:0.109005 8:0.257143 9:-0.118852 
-0 -1.847835497918085 -0 -0 -0 -1.434618166132683 1:0.807407 2:0.391473 3:-0.327922 4:0.216174 5:0.407821 6:-0.312763 7:0.184834 8:0.27033 9:-0.127049 
-0 -0 -0 -4.642329675101444 -0 -0 1:0.77284 2:0.379845 3:-0.334416 4:0.18196 5:0.407821 6:-0.315568 7:0.165877 8:0.257143 9:-0.139344 
-0 -0 -1.470256967922379 -0 -0 -8 1:0.614815 2:0.302326 3:-0.37013 4:0.0451011 5:0.407821 6:-0.169705 7:0.260664 8:0.235165 9:-0.0901639 
-0 -0 -0 -0 -0 -3.796487629438322 1:0.555556 2:0.27907 3:-0.373377 4:-0.00777605 5:0.396648 6:-0.1669 7:0.336493 8:0.221978 9:-0.102459 
-0 -0 -0 -2.736279083791082 -0 -0 1:0.496296 2:0.244186 3:-0.405844 4:-0.066874 5:0.385475 6:-0.203366 7:0.260664 8:0.169231 9:-0.147541 
-0 -0 -0 -8 -0 -0 1:0.496296 2:0.244186 3:-0.405844 4:-0.066874 5:0.385475 6:-0.206171 7:0.260664 8:0.169231 9:-0.155738 
-0 -0 -0 -0 -4.566884812431766 -0 1:0.506173 2:0.255814 3:-0.409091 4:-0.0637636 5:0.452514 6:-0.206171 7:0.279621 8:0.186813 9:-0.147541 
-0 -0 -0 -0 -1.864854029917699 -0 1:0.358025 2:0.228682 3:-0.431818 4:-0.362364 5:0.418994 6:-0.172511 7:-0.0236967 8:0.0637363 9:-0.340164 
-0.5164563135682422 -0.6445843771365418 -0.04915921731959829 -0 -1.114453929742826 -0.5274233644628643 1:0.57037 2:0.503876 3:-0.480519 4:-0.514774 5:0.977654 6:-0.180926 7:-0.914692 8:0.898901 9:-0.877049 
-0.8875417565407485 -0 -0 -0 -0 -0 1:0.481481 2:0.468992 3:-0.165584 4:-0.754277 5:0.502793 6:-0.0350631 7:-0.175355 8:-0.182418 9:-0.270492 
-0 -0 -0 -0 -1.298756889073866 -0 1:0.175309 2:0.0930233 3:-0.230519 4:-0.636081 5:0.223464 6:-0.0434783 7:-0.270142 8:-0.230769 9:-0.598361 
-0 -0 -0 -1.217778463462007 -0 -0 1:0.204938 2:0.0736434 3:-0.233766 4:-0.601866 5:0.206704 6:-0.0322581 7:-0.222749 8:-0.213187 9:-0.610656 
-0 -0 -0 -7.215363832771383 -0 -0 1:0.422222 2:0.166667 3:-0.418831 4:-0.297045 5:0.424581 6:-0.13324 7:0.0616114 8:0.0989011 9:-0.389344 
